FANN_FLO_2.1
num_layers=20
learning_rate=0.700000
connection_rate=1.000000
network_type=0
learning_momentum=0.000000
training_algorithm=2
train_error_function=1
train_stop_function=1
cascade_output_change_fraction=0.010000
quickprop_decay=-0.000100
quickprop_mu=1.750000
rprop_increase_factor=1.200000
rprop_decrease_factor=0.500000
rprop_delta_min=0.000000
rprop_delta_max=50.000000
rprop_delta_zero=0.100000
cascade_output_stagnation_epochs=12
cascade_candidate_change_fraction=0.010000
cascade_candidate_stagnation_epochs=12
cascade_max_out_epochs=150
cascade_min_out_epochs=50
cascade_max_cand_epochs=150
cascade_min_cand_epochs=50
cascade_num_candidate_groups=2
bit_fail_limit=9.99999977648258209229e-03
cascade_candidate_limit=1.00000000000000000000e+03
cascade_weight_multiplier=4.00000005960464477539e-01
cascade_activation_functions_count=10
cascade_activation_functions=3 5 7 8 10 11 14 15 16 17 
cascade_activation_steepnesses_count=4
cascade_activation_steepnesses=2.50000000000000000000e-01 5.00000000000000000000e-01 7.50000000000000000000e-01 1.00000000000000000000e+00 
layer_sizes=9 17 25 25 25 25 25 25 25 25 25 25 25 25 25 25 25 25 17 9 
scale_included=0
neurons (num_inputs, activation_function, activation_steepness)=(0, 0, 0.00000000000000000000e+00) (0, 0, 0.00000000000000000000e+00) (0, 0, 0.00000000000000000000e+00) (0, 0, 0.00000000000000000000e+00) (0, 0, 0.00000000000000000000e+00) (0, 0, 0.00000000000000000000e+00) (0, 0, 0.00000000000000000000e+00) (0, 0, 0.00000000000000000000e+00) (0, 0, 0.00000000000000000000e+00) (9, 5, 1.00000000000000000000e+00) (9, 5, 1.00000000000000000000e+00) (9, 5, 1.00000000000000000000e+00) (9, 5, 1.00000000000000000000e+00) (9, 5, 1.00000000000000000000e+00) (9, 5, 1.00000000000000000000e+00) (9, 5, 1.00000000000000000000e+00) (9, 5, 1.00000000000000000000e+00) (9, 5, 1.00000000000000000000e+00) (9, 5, 1.00000000000000000000e+00) (9, 5, 1.00000000000000000000e+00) (9, 5, 1.00000000000000000000e+00) (9, 5, 1.00000000000000000000e+00) (9, 5, 1.00000000000000000000e+00) (9, 5, 1.00000000000000000000e+00) (9, 5, 1.00000000000000000000e+00) (0, 5, 1.00000000000000000000e+00) (17, 5, 1.00000000000000000000e+00) (17, 5, 1.00000000000000000000e+00) (17, 5, 1.00000000000000000000e+00) (17, 5, 1.00000000000000000000e+00) (17, 5, 1.00000000000000000000e+00) (17, 5, 1.00000000000000000000e+00) (17, 5, 1.00000000000000000000e+00) (17, 5, 1.00000000000000000000e+00) (17, 5, 1.00000000000000000000e+00) (17, 5, 1.00000000000000000000e+00) (17, 5, 1.00000000000000000000e+00) (17, 5, 1.00000000000000000000e+00) (17, 5, 1.00000000000000000000e+00) (17, 5, 1.00000000000000000000e+00) (17, 5, 1.00000000000000000000e+00) (17, 5, 1.00000000000000000000e+00) (17, 5, 1.00000000000000000000e+00) (17, 5, 1.00000000000000000000e+00) (17, 5, 1.00000000000000000000e+00) (17, 5, 1.00000000000000000000e+00) (17, 5, 1.00000000000000000000e+00) (17, 5, 1.00000000000000000000e+00) (17, 5, 1.00000000000000000000e+00) (17, 5, 1.00000000000000000000e+00) (0, 5, 1.00000000000000000000e+00) (25, 5, 1.00000000000000000000e+00) (25, 5, 1.00000000000000000000e+00) (25, 5, 1.00000000000000000000e+00) (25, 5, 1.00000000000000000000e+00) (25, 5, 1.00000000000000000000e+00) (25, 5, 1.00000000000000000000e+00) (25, 5, 1.00000000000000000000e+00) (25, 5, 1.00000000000000000000e+00) (25, 5, 1.00000000000000000000e+00) (25, 5, 1.00000000000000000000e+00) (25, 5, 1.00000000000000000000e+00) (25, 5, 1.00000000000000000000e+00) (25, 5, 1.00000000000000000000e+00) (25, 5, 1.00000000000000000000e+00) (25, 5, 1.00000000000000000000e+00) (25, 5, 1.00000000000000000000e+00) (25, 5, 1.00000000000000000000e+00) (25, 5, 1.00000000000000000000e+00) (25, 5, 1.00000000000000000000e+00) (25, 5, 1.00000000000000000000e+00) (25, 5, 1.00000000000000000000e+00) (25, 5, 1.00000000000000000000e+00) (25, 5, 1.00000000000000000000e+00) (25, 5, 1.00000000000000000000e+00) (0, 5, 1.00000000000000000000e+00) (25, 5, 1.00000000000000000000e+00) (25, 5, 1.00000000000000000000e+00) (25, 5, 1.00000000000000000000e+00) (25, 5, 1.00000000000000000000e+00) (25, 5, 1.00000000000000000000e+00) (25, 5, 1.00000000000000000000e+00) (25, 5, 1.00000000000000000000e+00) (25, 5, 1.00000000000000000000e+00) (25, 5, 1.00000000000000000000e+00) (25, 5, 1.00000000000000000000e+00) (25, 5, 1.00000000000000000000e+00) (25, 5, 1.00000000000000000000e+00) (25, 5, 1.00000000000000000000e+00) (25, 5, 1.00000000000000000000e+00) (25, 5, 1.00000000000000000000e+00) (25, 5, 1.00000000000000000000e+00) (25, 5, 1.00000000000000000000e+00) (25, 5, 1.00000000000000000000e+00) (25, 5, 1.00000000000000000000e+00) (25, 5, 1.00000000000000000000e+00) (25, 5, 1.00000000000000000000e+00) (25, 5, 1.00000000000000000000e+00) (25, 5, 1.00000000000000000000e+00) (25, 5, 1.00000000000000000000e+00) (0, 5, 1.00000000000000000000e+00) (25, 5, 1.00000000000000000000e+00) (25, 5, 1.00000000000000000000e+00) (25, 5, 1.00000000000000000000e+00) (25, 5, 1.00000000000000000000e+00) (25, 5, 1.00000000000000000000e+00) (25, 5, 1.00000000000000000000e+00) (25, 5, 1.00000000000000000000e+00) (25, 5, 1.00000000000000000000e+00) (25, 5, 1.00000000000000000000e+00) (25, 5, 1.00000000000000000000e+00) (25, 5, 1.00000000000000000000e+00) (25, 5, 1.00000000000000000000e+00) (25, 5, 1.00000000000000000000e+00) (25, 5, 1.00000000000000000000e+00) (25, 5, 1.00000000000000000000e+00) (25, 5, 1.00000000000000000000e+00) (25, 5, 1.00000000000000000000e+00) (25, 5, 1.00000000000000000000e+00) (25, 5, 1.00000000000000000000e+00) (25, 5, 1.00000000000000000000e+00) (25, 5, 1.00000000000000000000e+00) (25, 5, 1.00000000000000000000e+00) (25, 5, 1.00000000000000000000e+00) (25, 5, 1.00000000000000000000e+00) (0, 5, 1.00000000000000000000e+00) (25, 5, 1.00000000000000000000e+00) (25, 5, 1.00000000000000000000e+00) (25, 5, 1.00000000000000000000e+00) (25, 5, 1.00000000000000000000e+00) (25, 5, 1.00000000000000000000e+00) (25, 5, 1.00000000000000000000e+00) (25, 5, 1.00000000000000000000e+00) (25, 5, 1.00000000000000000000e+00) (25, 5, 1.00000000000000000000e+00) (25, 5, 1.00000000000000000000e+00) (25, 5, 1.00000000000000000000e+00) (25, 5, 1.00000000000000000000e+00) (25, 5, 1.00000000000000000000e+00) (25, 5, 1.00000000000000000000e+00) (25, 5, 1.00000000000000000000e+00) (25, 5, 1.00000000000000000000e+00) (25, 5, 1.00000000000000000000e+00) (25, 5, 1.00000000000000000000e+00) (25, 5, 1.00000000000000000000e+00) (25, 5, 1.00000000000000000000e+00) (25, 5, 1.00000000000000000000e+00) (25, 5, 1.00000000000000000000e+00) (25, 5, 1.00000000000000000000e+00) (25, 5, 1.00000000000000000000e+00) (0, 5, 1.00000000000000000000e+00) (25, 5, 1.00000000000000000000e+00) (25, 5, 1.00000000000000000000e+00) (25, 5, 1.00000000000000000000e+00) (25, 5, 1.00000000000000000000e+00) (25, 5, 1.00000000000000000000e+00) (25, 5, 1.00000000000000000000e+00) (25, 5, 1.00000000000000000000e+00) (25, 5, 1.00000000000000000000e+00) (25, 5, 1.00000000000000000000e+00) (25, 5, 1.00000000000000000000e+00) (25, 5, 1.00000000000000000000e+00) (25, 5, 1.00000000000000000000e+00) (25, 5, 1.00000000000000000000e+00) (25, 5, 1.00000000000000000000e+00) (25, 5, 1.00000000000000000000e+00) (25, 5, 1.00000000000000000000e+00) (25, 5, 1.00000000000000000000e+00) (25, 5, 1.00000000000000000000e+00) (25, 5, 1.00000000000000000000e+00) (25, 5, 1.00000000000000000000e+00) (25, 5, 1.00000000000000000000e+00) (25, 5, 1.00000000000000000000e+00) (25, 5, 1.00000000000000000000e+00) (25, 5, 1.00000000000000000000e+00) (0, 5, 1.00000000000000000000e+00) (25, 5, 1.00000000000000000000e+00) (25, 5, 1.00000000000000000000e+00) (25, 5, 1.00000000000000000000e+00) (25, 5, 1.00000000000000000000e+00) (25, 5, 1.00000000000000000000e+00) (25, 5, 1.00000000000000000000e+00) (25, 5, 1.00000000000000000000e+00) (25, 5, 1.00000000000000000000e+00) (25, 5, 1.00000000000000000000e+00) (25, 5, 1.00000000000000000000e+00) (25, 5, 1.00000000000000000000e+00) (25, 5, 1.00000000000000000000e+00) (25, 5, 1.00000000000000000000e+00) (25, 5, 1.00000000000000000000e+00) (25, 5, 1.00000000000000000000e+00) (25, 5, 1.00000000000000000000e+00) (25, 5, 1.00000000000000000000e+00) (25, 5, 1.00000000000000000000e+00) (25, 5, 1.00000000000000000000e+00) (25, 5, 1.00000000000000000000e+00) (25, 5, 1.00000000000000000000e+00) (25, 5, 1.00000000000000000000e+00) (25, 5, 1.00000000000000000000e+00) (25, 5, 1.00000000000000000000e+00) (0, 5, 1.00000000000000000000e+00) (25, 5, 1.00000000000000000000e+00) (25, 5, 1.00000000000000000000e+00) (25, 5, 1.00000000000000000000e+00) (25, 5, 1.00000000000000000000e+00) (25, 5, 1.00000000000000000000e+00) (25, 5, 1.00000000000000000000e+00) (25, 5, 1.00000000000000000000e+00) (25, 5, 1.00000000000000000000e+00) (25, 5, 1.00000000000000000000e+00) (25, 5, 1.00000000000000000000e+00) (25, 5, 1.00000000000000000000e+00) (25, 5, 1.00000000000000000000e+00) (25, 5, 1.00000000000000000000e+00) (25, 5, 1.00000000000000000000e+00) (25, 5, 1.00000000000000000000e+00) (25, 5, 1.00000000000000000000e+00) (25, 5, 1.00000000000000000000e+00) (25, 5, 1.00000000000000000000e+00) (25, 5, 1.00000000000000000000e+00) (25, 5, 1.00000000000000000000e+00) (25, 5, 1.00000000000000000000e+00) (25, 5, 1.00000000000000000000e+00) (25, 5, 1.00000000000000000000e+00) (25, 5, 1.00000000000000000000e+00) (0, 5, 1.00000000000000000000e+00) (25, 5, 1.00000000000000000000e+00) (25, 5, 1.00000000000000000000e+00) (25, 5, 1.00000000000000000000e+00) (25, 5, 1.00000000000000000000e+00) (25, 5, 1.00000000000000000000e+00) (25, 5, 1.00000000000000000000e+00) (25, 5, 1.00000000000000000000e+00) (25, 5, 1.00000000000000000000e+00) (25, 5, 1.00000000000000000000e+00) (25, 5, 1.00000000000000000000e+00) (25, 5, 1.00000000000000000000e+00) (25, 5, 1.00000000000000000000e+00) (25, 5, 1.00000000000000000000e+00) (25, 5, 1.00000000000000000000e+00) (25, 5, 1.00000000000000000000e+00) (25, 5, 1.00000000000000000000e+00) (25, 5, 1.00000000000000000000e+00) (25, 5, 1.00000000000000000000e+00) (25, 5, 1.00000000000000000000e+00) (25, 5, 1.00000000000000000000e+00) (25, 5, 1.00000000000000000000e+00) (25, 5, 1.00000000000000000000e+00) (25, 5, 1.00000000000000000000e+00) (25, 5, 1.00000000000000000000e+00) (0, 5, 1.00000000000000000000e+00) (25, 5, 1.00000000000000000000e+00) (25, 5, 1.00000000000000000000e+00) (25, 5, 1.00000000000000000000e+00) (25, 5, 1.00000000000000000000e+00) (25, 5, 1.00000000000000000000e+00) (25, 5, 1.00000000000000000000e+00) (25, 5, 1.00000000000000000000e+00) (25, 5, 1.00000000000000000000e+00) (25, 5, 1.00000000000000000000e+00) (25, 5, 1.00000000000000000000e+00) (25, 5, 1.00000000000000000000e+00) (25, 5, 1.00000000000000000000e+00) (25, 5, 1.00000000000000000000e+00) (25, 5, 1.00000000000000000000e+00) (25, 5, 1.00000000000000000000e+00) (25, 5, 1.00000000000000000000e+00) (25, 5, 1.00000000000000000000e+00) (25, 5, 1.00000000000000000000e+00) (25, 5, 1.00000000000000000000e+00) (25, 5, 1.00000000000000000000e+00) (25, 5, 1.00000000000000000000e+00) (25, 5, 1.00000000000000000000e+00) (25, 5, 1.00000000000000000000e+00) (25, 5, 1.00000000000000000000e+00) (0, 5, 1.00000000000000000000e+00) (25, 5, 1.00000000000000000000e+00) (25, 5, 1.00000000000000000000e+00) (25, 5, 1.00000000000000000000e+00) (25, 5, 1.00000000000000000000e+00) (25, 5, 1.00000000000000000000e+00) (25, 5, 1.00000000000000000000e+00) (25, 5, 1.00000000000000000000e+00) (25, 5, 1.00000000000000000000e+00) (25, 5, 1.00000000000000000000e+00) (25, 5, 1.00000000000000000000e+00) (25, 5, 1.00000000000000000000e+00) (25, 5, 1.00000000000000000000e+00) (25, 5, 1.00000000000000000000e+00) (25, 5, 1.00000000000000000000e+00) (25, 5, 1.00000000000000000000e+00) (25, 5, 1.00000000000000000000e+00) (25, 5, 1.00000000000000000000e+00) (25, 5, 1.00000000000000000000e+00) (25, 5, 1.00000000000000000000e+00) (25, 5, 1.00000000000000000000e+00) (25, 5, 1.00000000000000000000e+00) (25, 5, 1.00000000000000000000e+00) (25, 5, 1.00000000000000000000e+00) (25, 5, 1.00000000000000000000e+00) (0, 5, 1.00000000000000000000e+00) (25, 5, 1.00000000000000000000e+00) (25, 5, 1.00000000000000000000e+00) (25, 5, 1.00000000000000000000e+00) (25, 5, 1.00000000000000000000e+00) (25, 5, 1.00000000000000000000e+00) (25, 5, 1.00000000000000000000e+00) (25, 5, 1.00000000000000000000e+00) (25, 5, 1.00000000000000000000e+00) (25, 5, 1.00000000000000000000e+00) (25, 5, 1.00000000000000000000e+00) (25, 5, 1.00000000000000000000e+00) (25, 5, 1.00000000000000000000e+00) (25, 5, 1.00000000000000000000e+00) (25, 5, 1.00000000000000000000e+00) (25, 5, 1.00000000000000000000e+00) (25, 5, 1.00000000000000000000e+00) (25, 5, 1.00000000000000000000e+00) (25, 5, 1.00000000000000000000e+00) (25, 5, 1.00000000000000000000e+00) (25, 5, 1.00000000000000000000e+00) (25, 5, 1.00000000000000000000e+00) (25, 5, 1.00000000000000000000e+00) (25, 5, 1.00000000000000000000e+00) (25, 5, 1.00000000000000000000e+00) (0, 5, 1.00000000000000000000e+00) (25, 5, 1.00000000000000000000e+00) (25, 5, 1.00000000000000000000e+00) (25, 5, 1.00000000000000000000e+00) (25, 5, 1.00000000000000000000e+00) (25, 5, 1.00000000000000000000e+00) (25, 5, 1.00000000000000000000e+00) (25, 5, 1.00000000000000000000e+00) (25, 5, 1.00000000000000000000e+00) (25, 5, 1.00000000000000000000e+00) (25, 5, 1.00000000000000000000e+00) (25, 5, 1.00000000000000000000e+00) (25, 5, 1.00000000000000000000e+00) (25, 5, 1.00000000000000000000e+00) (25, 5, 1.00000000000000000000e+00) (25, 5, 1.00000000000000000000e+00) (25, 5, 1.00000000000000000000e+00) (25, 5, 1.00000000000000000000e+00) (25, 5, 1.00000000000000000000e+00) (25, 5, 1.00000000000000000000e+00) (25, 5, 1.00000000000000000000e+00) (25, 5, 1.00000000000000000000e+00) (25, 5, 1.00000000000000000000e+00) (25, 5, 1.00000000000000000000e+00) (25, 5, 1.00000000000000000000e+00) (0, 5, 1.00000000000000000000e+00) (25, 5, 1.00000000000000000000e+00) (25, 5, 1.00000000000000000000e+00) (25, 5, 1.00000000000000000000e+00) (25, 5, 1.00000000000000000000e+00) (25, 5, 1.00000000000000000000e+00) (25, 5, 1.00000000000000000000e+00) (25, 5, 1.00000000000000000000e+00) (25, 5, 1.00000000000000000000e+00) (25, 5, 1.00000000000000000000e+00) (25, 5, 1.00000000000000000000e+00) (25, 5, 1.00000000000000000000e+00) (25, 5, 1.00000000000000000000e+00) (25, 5, 1.00000000000000000000e+00) (25, 5, 1.00000000000000000000e+00) (25, 5, 1.00000000000000000000e+00) (25, 5, 1.00000000000000000000e+00) (25, 5, 1.00000000000000000000e+00) (25, 5, 1.00000000000000000000e+00) (25, 5, 1.00000000000000000000e+00) (25, 5, 1.00000000000000000000e+00) (25, 5, 1.00000000000000000000e+00) (25, 5, 1.00000000000000000000e+00) (25, 5, 1.00000000000000000000e+00) (25, 5, 1.00000000000000000000e+00) (0, 5, 1.00000000000000000000e+00) (25, 5, 1.00000000000000000000e+00) (25, 5, 1.00000000000000000000e+00) (25, 5, 1.00000000000000000000e+00) (25, 5, 1.00000000000000000000e+00) (25, 5, 1.00000000000000000000e+00) (25, 5, 1.00000000000000000000e+00) (25, 5, 1.00000000000000000000e+00) (25, 5, 1.00000000000000000000e+00) (25, 5, 1.00000000000000000000e+00) (25, 5, 1.00000000000000000000e+00) (25, 5, 1.00000000000000000000e+00) (25, 5, 1.00000000000000000000e+00) (25, 5, 1.00000000000000000000e+00) (25, 5, 1.00000000000000000000e+00) (25, 5, 1.00000000000000000000e+00) (25, 5, 1.00000000000000000000e+00) (25, 5, 1.00000000000000000000e+00) (25, 5, 1.00000000000000000000e+00) (25, 5, 1.00000000000000000000e+00) (25, 5, 1.00000000000000000000e+00) (25, 5, 1.00000000000000000000e+00) (25, 5, 1.00000000000000000000e+00) (25, 5, 1.00000000000000000000e+00) (25, 5, 1.00000000000000000000e+00) (0, 5, 1.00000000000000000000e+00) (25, 5, 1.00000000000000000000e+00) (25, 5, 1.00000000000000000000e+00) (25, 5, 1.00000000000000000000e+00) (25, 5, 1.00000000000000000000e+00) (25, 5, 1.00000000000000000000e+00) (25, 5, 1.00000000000000000000e+00) (25, 5, 1.00000000000000000000e+00) (25, 5, 1.00000000000000000000e+00) (25, 5, 1.00000000000000000000e+00) (25, 5, 1.00000000000000000000e+00) (25, 5, 1.00000000000000000000e+00) (25, 5, 1.00000000000000000000e+00) (25, 5, 1.00000000000000000000e+00) (25, 5, 1.00000000000000000000e+00) (25, 5, 1.00000000000000000000e+00) (25, 5, 1.00000000000000000000e+00) (25, 5, 1.00000000000000000000e+00) (25, 5, 1.00000000000000000000e+00) (25, 5, 1.00000000000000000000e+00) (25, 5, 1.00000000000000000000e+00) (25, 5, 1.00000000000000000000e+00) (25, 5, 1.00000000000000000000e+00) (25, 5, 1.00000000000000000000e+00) (25, 5, 1.00000000000000000000e+00) (0, 5, 1.00000000000000000000e+00) (25, 5, 1.00000000000000000000e+00) (25, 5, 1.00000000000000000000e+00) (25, 5, 1.00000000000000000000e+00) (25, 5, 1.00000000000000000000e+00) (25, 5, 1.00000000000000000000e+00) (25, 5, 1.00000000000000000000e+00) (25, 5, 1.00000000000000000000e+00) (25, 5, 1.00000000000000000000e+00) (25, 5, 1.00000000000000000000e+00) (25, 5, 1.00000000000000000000e+00) (25, 5, 1.00000000000000000000e+00) (25, 5, 1.00000000000000000000e+00) (25, 5, 1.00000000000000000000e+00) (25, 5, 1.00000000000000000000e+00) (25, 5, 1.00000000000000000000e+00) (25, 5, 1.00000000000000000000e+00) (0, 5, 1.00000000000000000000e+00) (17, 5, 1.00000000000000000000e+00) (17, 5, 1.00000000000000000000e+00) (17, 5, 1.00000000000000000000e+00) (17, 5, 1.00000000000000000000e+00) (17, 5, 1.00000000000000000000e+00) (17, 5, 1.00000000000000000000e+00) (17, 5, 1.00000000000000000000e+00) (17, 5, 1.00000000000000000000e+00) (0, 5, 1.00000000000000000000e+00) 
connections (connected_to_neuron, weight)=(0, 1.24528765678405761719e+00) (1, 4.96719741821289062500e+00) (2, 3.87912131845951080322e-02) (3, 1.53553354740142822266e+00) (4, 4.30098891258239746094e-01) (5, 1.28469777107238769531e+00) (6, -9.97380763292312622070e-02) (7, 6.54578626155853271484e-01) (8, 1.78892695903778076172e+00) (0, 1.59462523460388183594e+00) (1, 1.48728311061859130859e+00) (2, -1.12541839480400085449e-01) (3, 1.57984828948974609375e+00) (4, -8.32727730274200439453e-01) (5, -6.15748241543769836426e-02) (6, 5.57392120361328125000e-01) (7, -6.57926082611083984375e-01) (8, 1.89358770847320556641e+00) (0, 9.02543485164642333984e-01) (1, 9.94438767433166503906e-01) (2, 6.02626204490661621094e-01) (3, 1.46247243881225585938e+00) (4, -7.88011789321899414062e-01) (5, 8.95878970623016357422e-01) (6, 2.27233386039733886719e+00) (7, 8.50858569145202636719e-01) (8, 2.12009024620056152344e+00) (0, 1.99359977245330810547e+00) (1, 1.73289406299591064453e+00) (2, -5.86586073040962219238e-04) (3, 2.58358144760131835938e+00) (4, 4.95826154947280883789e-01) (5, 9.84011769294738769531e-01) (6, 5.07299184799194335938e-01) (7, -1.25613417476415634155e-02) (8, 1.54646825790405273438e+00) (0, 1.12129795551300048828e+00) (1, 7.01373755931854248047e-01) (2, 1.69860935211181640625e+00) (3, 2.62293887138366699219e+00) (4, -1.07813060283660888672e+00) (5, 8.85112464427947998047e-01) (6, 5.19857978820800781250e+00) (7, 9.73127543926239013672e-01) (8, 8.68769288063049316406e-02) (0, 2.35578656196594238281e+00) (1, 9.96791839599609375000e-01) (2, 2.52421200275421142578e-01) (3, 1.05301606655120849609e+00) (4, -1.16322681307792663574e-01) (5, 5.79267382621765136719e-01) (6, 5.51825165748596191406e-01) (7, 4.58789795637130737305e-01) (8, 2.02684497833251953125e+00) (0, 1.65167188644409179688e+00) (1, 1.72378793358802795410e-01) (2, 1.22712361812591552734e+00) (3, 1.55252110958099365234e+00) (4, 1.16707360744476318359e+00) (5, 4.83780689537525177002e-02) (6, 2.10501575469970703125e+00) (7, -4.77438151836395263672e-01) (8, 2.60389947891235351562e+00) (0, 1.85710394382476806641e+00) (1, 1.12987029552459716797e+00) (2, 1.77578544616699218750e+00) (3, 6.65198266506195068359e-01) (4, 2.49489784240722656250e+00) (5, -2.56053388118743896484e-01) (6, 1.66060316562652587891e+00) (7, 2.24077367782592773438e+00) (8, 1.98147082328796386719e+00) (0, 8.55099678039550781250e-01) (1, 1.93967783451080322266e+00) (2, 2.99639320373535156250e+00) (3, 1.18650317192077636719e+00) (4, 2.78184008598327636719e+00) (5, 4.69627141952514648438e-01) (6, 4.59155201911926269531e-01) (7, 1.41116273403167724609e+00) (8, 1.30350816249847412109e+00) (0, 9.60077583789825439453e-01) (1, 1.28118050098419189453e+00) (2, -1.19538623839616775513e-02) (3, 8.96898150444030761719e-01) (4, -1.61500060558319091797e+00) (5, 2.08578658103942871094e+00) (6, 8.81371796131134033203e-01) (7, 1.09615290164947509766e+00) (8, 1.67525196075439453125e+00) (0, 8.08385372161865234375e-01) (1, 1.12621283531188964844e+00) (2, 6.37797474861145019531e-01) (3, 1.08160364627838134766e+00) (4, 8.70365798473358154297e-01) (5, 5.65568245947360992432e-02) (6, 1.86401337385177612305e-01) (7, 2.90463298559188842773e-01) (8, 9.26823377609252929688e-01) (0, 1.49060761928558349609e+00) (1, 2.62394547462463378906e-01) (2, 1.67326486110687255859e+00) (3, 6.72747671604156494141e-01) (4, 3.99042665958404541016e-01) (5, -1.03221787139773368835e-02) (6, 1.31032574176788330078e+00) (7, 4.34039473533630371094e-01) (8, 2.89202547073364257812e+00) (0, 1.63156330585479736328e-01) (1, 1.19923853874206542969e+00) (2, 1.67929923534393310547e+00) (3, 1.00323545932769775391e+00) (4, -3.18425476551055908203e-01) (5, 1.21254813671112060547e+00) (6, 2.19773197174072265625e+00) (7, 1.72203636169433593750e+00) (8, 2.16121196746826171875e+00) (0, -3.54858517646789550781e-01) (1, 1.23970925807952880859e+00) (2, 3.34666848182678222656e+00) (3, 2.50010490417480468750e+00) (4, 8.62544357776641845703e-01) (5, -1.79106160998344421387e-01) (6, 5.43774008750915527344e-01) (7, -2.69806671142578125000e+00) (8, 1.90143823623657226562e+00) (0, 1.55942547321319580078e+00) (1, 9.70259666442871093750e-01) (2, 4.69938851892948150635e-02) (3, 1.51908874511718750000e+00) (4, -8.84583592414855957031e-01) (5, 1.03581935167312622070e-01) (6, 6.08739256858825683594e-01) (7, -4.27919626235961914062e-01) (8, 2.20807337760925292969e+00) (0, 1.59073269367218017578e+00) (1, 1.77818500995635986328e+00) (2, 1.49935102462768554688e+00) (3, 1.25030088424682617188e+00) (4, -7.04421103000640869141e-01) (5, 9.37583148479461669922e-01) (6, 1.22755241394042968750e+00) (7, 1.28490075469017028809e-01) (8, 1.75882089138031005859e+00) (9, -1.99977532029151916504e-02) (10, 1.84413218498229980469e+00) (11, 6.90445244312286376953e-01) (12, 1.25011289119720458984e+00) (13, 2.24693447351455688477e-01) (14, 1.42241466045379638672e+00) (15, 8.30744147300720214844e-01) (16, 6.26435697078704833984e-01) (17, 2.15801503509283065796e-02) (18, 3.63962799310684204102e-01) (19, 4.53258633613586425781e-01) (20, 1.74794256687164306641e+00) (21, 2.74039983749389648438e+00) (22, 4.15135055780410766602e-01) (23, 8.18446755409240722656e-01) (24, 1.36463809013366699219e+00) (25, 6.71894311904907226562e-01) (9, -8.50156962871551513672e-01) (10, -4.76302683353424072266e-01) (11, 8.07769596576690673828e-01) (12, 9.12432372570037841797e-01) (13, 1.69655203819274902344e+00) (14, 2.04567149281501770020e-01) (15, 9.49977874755859375000e-01) (16, -1.34725642204284667969e+00) (17, 9.24705743789672851562e-01) (18, 1.56411683559417724609e+00) (19, 1.23908782005310058594e+00) (20, 4.51136946678161621094e-01) (21, 1.74874976277351379395e-01) (22, 8.98847401142120361328e-01) (23, 6.32952988147735595703e-01) (24, 5.67197084426879882812e-01) (25, 1.20398044586181640625e+00) (9, -1.57300010323524475098e-01) (10, 5.88791728019714355469e-01) (11, 1.14110982418060302734e+00) (12, 9.66224253177642822266e-01) (13, -1.50319993495941162109e-01) (14, 7.81145751476287841797e-01) (15, 2.73829555511474609375e+00) (16, 2.84965243190526962280e-02) (17, -2.18096420168876647949e-01) (18, 6.72147512435913085938e-01) (19, 4.18481492996215820312e+00) (20, 1.36418151855468750000e+00) (21, -5.29645323753356933594e-01) (22, 2.40405631065368652344e+00) (23, 5.95298171043395996094e-01) (24, 1.39441132545471191406e+00) (25, 7.48324930667877197266e-01) (9, 3.72000604867935180664e-01) (10, 2.92448449134826660156e+00) (11, 1.15791761875152587891e+00) (12, 1.24142122268676757812e+00) (13, 9.56709921360015869141e-01) (14, 4.67578798532485961914e-01) (15, 2.72685736417770385742e-01) (16, -5.72838258743286132812e+00) (17, 3.70924562215805053711e-01) (18, 1.59793126583099365234e+00) (19, 9.16219711303710937500e-01) (20, 5.92193603515625000000e-01) (21, 8.01585137844085693359e-01) (22, 3.36539804935455322266e-01) (23, 7.14705705642700195312e-01) (24, 1.61500620841979980469e+00) (25, 1.38256037235260009766e+00) (9, 5.13831913471221923828e-01) (10, 8.44969332218170166016e-01) (11, 3.37397813796997070312e+00) (12, 9.02929902076721191406e-01) (13, 1.92303466796875000000e+00) (14, 4.98050451278686523438e+00) (15, 1.41608938574790954590e-01) (16, -4.04367685317993164062e-01) (17, 1.09561133384704589844e+00) (18, 2.68134784698486328125e+00) (19, 1.11271035671234130859e+00) (20, 8.63879382610321044922e-01) (21, 1.51626682281494140625e+00) (22, -3.08129930496215820312e+00) (23, 1.85208320617675781250e+00) (24, 2.17326521873474121094e+00) (25, 7.06510365009307861328e-01) (9, 1.81277906894683837891e+00) (10, 4.87003505229949951172e-01) (11, 1.34217035770416259766e+00) (12, 1.37444365024566650391e+00) (13, 2.16510367393493652344e+00) (14, 9.03199851512908935547e-01) (15, 1.41514992713928222656e+00) (16, 1.03009796142578125000e+00) (17, 5.12387394905090332031e-01) (18, 8.08315455913543701172e-01) (19, 1.56926059722900390625e+00) (20, -6.66388809680938720703e-01) (21, 6.81406557559967041016e-01) (22, -4.24661302566528320312e+00) (23, 8.32260787487030029297e-01) (24, 8.55286002159118652344e-01) (25, 5.87259791791439056396e-02) (9, 2.11950445175170898438e+00) (10, 1.27496612071990966797e+00) (11, 1.04043221473693847656e+00) (12, 5.81954300403594970703e-01) (13, 1.46081835031509399414e-01) (14, 6.12022519111633300781e-01) (15, 7.88139820098876953125e-01) (16, -1.22604560852050781250e+01) (17, 9.64240610599517822266e-01) (18, 1.04336285591125488281e+00) (19, 1.79540514945983886719e-01) (20, 1.93077039718627929688e+00) (21, 6.26229584217071533203e-01) (22, 7.92547762393951416016e-01) (23, 8.90161037445068359375e-01) (24, 1.73198115825653076172e+00) (25, 1.28442120552062988281e+00) (9, 4.97241578996181488037e-02) (10, 1.88203692436218261719e+00) (11, 1.36433506011962890625e+00) (12, 3.22175800800323486328e-01) (13, 7.79824495315551757812e-01) (14, 6.71033263206481933594e-01) (15, 7.84585475921630859375e+00) (16, 1.06524193286895751953e+00) (17, 8.50130558013916015625e-01) (18, 1.34704267978668212891e+00) (19, 2.14848542213439941406e+00) (20, 1.05640125274658203125e+00) (21, -1.25196471810340881348e-01) (22, -2.47399106621742248535e-01) (23, 1.35165703296661376953e+00) (24, 2.76219987869262695312e+00) (25, 1.59612298011779785156e+00) (9, 1.12981963157653808594e+00) (10, 2.20005464553833007812e+00) (11, 1.24573981761932373047e+00) (12, 6.37629210948944091797e-01) (13, 1.21635578572750091553e-01) (14, 8.43003451824188232422e-01) (15, 2.66350388526916503906e+00) (16, 4.96603399515151977539e-01) (17, 4.08452689647674560547e-01) (18, 1.49156188964843750000e+00) (19, 1.04008758068084716797e+00) (20, 5.76812803745269775391e-01) (21, 7.96325266361236572266e-01) (22, 3.05068373680114746094e-01) (23, 6.32875323295593261719e-01) (24, 1.39423787593841552734e+00) (25, 1.05676317214965820312e+00) (9, 7.87447869777679443359e-01) (10, 1.07806372642517089844e+00) (11, 1.26298558712005615234e+00) (12, 3.92899602651596069336e-01) (13, 1.04816532135009765625e+00) (14, 6.70876801013946533203e-01) (15, 7.97511756420135498047e-01) (16, -2.85009294748306274414e-03) (17, 9.01694536209106445312e-01) (18, 6.07685923576354980469e-01) (19, 5.63822865486145019531e-01) (20, 1.26230144500732421875e+00) (21, 7.90978372097015380859e-01) (22, 1.08356761932373046875e+00) (23, 1.41920483112335205078e+00) (24, 2.70046019554138183594e+00) (25, 2.28269219398498535156e+00) (9, -8.85387301445007324219e-01) (10, 1.50055122375488281250e+00) (11, 8.53974640369415283203e-01) (12, -1.57135426998138427734e+00) (13, 1.27555108070373535156e+00) (14, 1.54871582984924316406e+00) (15, -1.59882199764251708984e+00) (16, 1.67573347687721252441e-01) (17, 3.20690333843231201172e-01) (18, 1.41107186675071716309e-01) (19, 3.39586913585662841797e-01) (20, -1.11584053039550781250e+01) (21, 8.74151408672332763672e-01) (22, 6.06848061084747314453e-01) (23, 1.46892666816711425781e+00) (24, 5.72490155696868896484e-01) (25, 1.65551334619522094727e-01) (9, 1.41764545440673828125e+00) (10, 1.62158143520355224609e+00) (11, 7.42190241813659667969e-01) (12, 7.71448612213134765625e-01) (13, 2.66089737415313720703e-01) (14, 8.75763535499572753906e-01) (15, 2.53419637680053710938e-01) (16, 6.82564020156860351562e-01) (17, 5.71772098541259765625e-01) (18, 1.69715702533721923828e+00) (19, 1.87050509452819824219e+00) (20, 5.97514152526855468750e-01) (21, 8.18823516368865966797e-01) (22, 3.56553971767425537109e-01) (23, 1.08551740646362304688e+00) (24, 1.18835484981536865234e+00) (25, 1.78120481967926025391e+00) (9, 2.05995607376098632812e+00) (10, 1.54752004146575927734e+00) (11, 1.26751685142517089844e+00) (12, 3.82353991270065307617e-01) (13, -3.36236059665679931641e-01) (14, 1.09136319160461425781e+00) (15, -2.23368003964424133301e-01) (16, 2.26964545249938964844e+00) (17, 5.59775412082672119141e-01) (18, 4.46363866329193115234e-01) (19, 4.14225161075592041016e-01) (20, -1.00763700902462005615e-01) (21, -3.68024170398712158203e-01) (22, -1.94833189249038696289e-01) (23, 9.14154052734375000000e-01) (24, 1.30505001544952392578e+00) (25, 9.61678564548492431641e-01) (9, 2.34453126788139343262e-01) (10, 1.47996783256530761719e+00) (11, 1.25558888912200927734e+00) (12, 3.52647632360458374023e-01) (13, 6.14834368228912353516e-01) (14, 7.84001767635345458984e-01) (15, -1.77938163280487060547e+00) (16, 2.68618369102478027344e+00) (17, -1.59141272306442260742e-01) (18, 8.53107869625091552734e-01) (19, 9.37235951423645019531e-01) (20, 1.03158605098724365234e+00) (21, 1.08751380443572998047e+00) (22, 2.25749179720878601074e-01) (23, 1.65766882896423339844e+00) (24, 6.44116282463073730469e-01) (25, 1.05726134777069091797e+00) (9, 3.15972471237182617188e+00) (10, 1.71963262557983398438e+00) (11, 1.00840687751770019531e+00) (12, 3.19059520959854125977e-01) (13, -9.72297191619873046875e-02) (14, 5.79601526260375976562e-01) (15, 6.94292128086090087891e-01) (16, -1.44898402690887451172e+00) (17, -1.02509886026382446289e-01) (18, 2.03402802348136901855e-01) (19, 4.28483772277832031250e+00) (20, 2.29142212867736816406e+00) (21, -6.45884275436401367188e-01) (22, -5.44987201690673828125e-01) (23, 1.22440803050994873047e+00) (24, 1.07713818550109863281e+00) (25, 1.00767421722412109375e+00) (9, 1.44725394248962402344e+00) (10, 1.65465581417083740234e+00) (11, 8.50779056549072265625e-01) (12, 3.81187200546264648438e-01) (13, 8.43259811401367187500e-01) (14, 8.72815370559692382812e-01) (15, 6.92266464233398437500e-01) (16, 5.95896132290363311768e-02) (17, 9.16003733873367309570e-02) (18, 5.67902863025665283203e-01) (19, 2.70363092422485351562e+00) (20, 2.37447118759155273438e+00) (21, 1.84197351336479187012e-01) (22, 5.50585329532623291016e-01) (23, 1.41148757934570312500e+00) (24, 6.01257264614105224609e-01) (25, 1.90211617946624755859e+00) (9, 2.27614688873291015625e+00) (10, 1.04379069805145263672e+00) (11, 1.27072763442993164062e+00) (12, 1.07751524448394775391e+00) (13, 5.02660632133483886719e-01) (14, 2.32640171051025390625e+00) (15, -4.55673313140869140625e+00) (16, 5.58270215988159179688e-01) (17, 6.78182959556579589844e-01) (18, 9.63927626609802246094e-01) (19, 8.18736732006072998047e-01) (20, -7.46269464492797851562e-01) (21, 6.24922513961791992188e-01) (22, -3.67120921611785888672e-01) (23, 1.77149105072021484375e+00) (24, -4.80599737167358398438e+00) (25, 8.95251691341400146484e-01) (9, 5.98122715950012207031e-01) (10, 4.33733761310577392578e-01) (11, 1.26255524158477783203e+00) (12, 3.47908884286880493164e-01) (13, 3.47010540962219238281e+00) (14, 1.17308855056762695312e+00) (15, -2.58572578430175781250e+00) (16, -1.01355123519897460938e+00) (17, 1.54163038730621337891e+00) (18, 1.31069147586822509766e+00) (19, -3.86501625180244445801e-02) (20, 5.41700303554534912109e-01) (21, 2.71364879608154296875e+00) (22, 2.86962652206420898438e+00) (23, 8.80642414093017578125e-01) (24, 1.40698492527008056641e+00) (25, 1.29799342155456542969e+00) (9, 1.44159030914306640625e+00) (10, 2.00606727600097656250e+00) (11, 9.95477974414825439453e-01) (12, 2.27826654911041259766e-01) (13, 8.98578047752380371094e-01) (14, 6.26837074756622314453e-01) (15, 6.69759392738342285156e-01) (16, -1.50353634357452392578e+00) (17, 1.16675305366516113281e+00) (18, 5.33339321613311767578e-01) (19, 7.51809000968933105469e-01) (20, 1.22121892869472503662e-01) (21, 7.40771174430847167969e-01) (22, 9.84085500240325927734e-01) (23, 1.02790939807891845703e+00) (24, 2.11937165260314941406e+00) (25, 2.12859535217285156250e+00) (9, 1.50025308132171630859e+00) (10, 2.34685373306274414062e+00) (11, 1.24025166034698486328e+00) (12, 1.61908257007598876953e+00) (13, 1.43613803386688232422e+00) (14, 1.18330955505371093750e+00) (15, 8.46099972724914550781e-01) (16, -1.47741806507110595703e+00) (17, 2.08394601941108703613e-01) (18, 7.52451896667480468750e-01) (19, 7.58133709430694580078e-01) (20, 9.91151392459869384766e-01) (21, 1.41644215583801269531e+00) (22, -1.03202059864997863770e-01) (23, 1.75220882892608642578e+00) (24, 1.74978482723236083984e+00) (25, 1.45059692859649658203e+00) (9, 7.47550010681152343750e-01) (10, 1.40813195705413818359e+00) (11, 9.21646535396575927734e-01) (12, 1.17308735847473144531e+00) (13, 1.15947008132934570312e+00) (14, 1.30683338642120361328e+00) (15, 4.76159721612930297852e-01) (16, -6.70099705457687377930e-02) (17, 6.07333183288574218750e-01) (18, 1.52332115173339843750e+00) (19, 2.52760767936706542969e-01) (20, 1.04474055767059326172e+00) (21, 5.53581833839416503906e-01) (22, 4.52281445264816284180e-01) (23, 1.18832004070281982422e+00) (24, 2.10360860824584960938e+00) (25, 1.92476594448089599609e+00) (9, 1.34303510189056396484e+00) (10, 8.33423852920532226562e-01) (11, 1.38494122028350830078e+00) (12, 5.06355941295623779297e-01) (13, 4.98513728380203247070e-01) (14, 4.87847059965133666992e-01) (15, 6.09604001045227050781e-01) (16, 1.36380577087402343750e+00) (17, 1.46439552307128906250e+00) (18, 1.26795983314514160156e+00) (19, 5.56386947631835937500e+00) (20, 1.12440514564514160156e+00) (21, 2.19763970375061035156e+00) (22, 1.18292760848999023438e+00) (23, 1.68947911262512207031e+00) (24, 9.82982218265533447266e-01) (25, 1.76005768775939941406e+00) (9, 9.96444821357727050781e-01) (10, 9.96688783168792724609e-01) (11, 9.97789502143859863281e-01) (12, 1.19732499122619628906e+00) (13, 2.47021347284317016602e-01) (14, 6.98065221309661865234e-01) (15, 9.19056951999664306641e-01) (16, 9.39546287059783935547e-01) (17, 8.96998167037963867188e-01) (18, 1.45196652412414550781e+00) (19, 1.99305534362792968750e+00) (20, 3.14629497528076171875e+01) (21, 1.60203957557678222656e+00) (22, 1.82604089379310607910e-01) (23, 9.26581501960754394531e-01) (24, 1.26568257808685302734e+00) (25, 4.33525413274765014648e-01) (9, 1.92853903770446777344e+00) (10, 7.59763240814208984375e-01) (11, 1.09369683265686035156e+00) (12, 1.84447005391120910645e-01) (13, 5.23058712482452392578e-01) (14, 8.92569601535797119141e-01) (15, 1.23978948593139648438e+00) (16, 7.03899979591369628906e-01) (17, 8.70734333992004394531e-01) (18, 1.26123797893524169922e+00) (19, 4.08545374870300292969e-01) (20, 1.24948799610137939453e+00) (21, 3.65765094757080078125e-01) (22, 4.45608943700790405273e-01) (23, 1.01367831230163574219e+00) (24, 1.54757773876190185547e+00) (25, 1.29919278621673583984e+00) (26, 7.52196788787841796875e-01) (27, -1.30564004182815551758e-01) (28, 1.08503913879394531250e+00) (29, 5.26920497417449951172e-01) (30, 2.46949996799230575562e-02) (31, 9.19367909431457519531e-01) (32, 5.09755492210388183594e-01) (33, 6.96685075759887695312e-01) (34, 3.06507349014282226562e-01) (35, 9.86476421356201171875e-01) (36, 1.19396662712097167969e+00) (37, 1.32692766189575195312e+00) (38, 1.26713347434997558594e+00) (39, 5.73099732398986816406e-01) (40, 1.34961509704589843750e+00) (41, 1.27293157577514648438e+00) (42, 5.04713535308837890625e-01) (43, 6.09100162982940673828e-01) (44, 5.88429033756256103516e-01) (45, -3.58953952789306640625e-01) (46, 4.17161285877227783203e-01) (47, 1.70181584358215332031e+00) (48, 1.51550960540771484375e+00) (49, 5.31000256538391113281e-01) (50, 2.87622976303100585938e+00) (26, 5.85914731025695800781e-01) (27, 7.38064408302307128906e-01) (28, 3.23150418698787689209e-02) (29, 1.93908536434173583984e+00) (30, 7.76943087577819824219e-01) (31, 3.09279769659042358398e-01) (32, 1.57161641120910644531e+00) (33, 5.63734233379364013672e-01) (34, 1.19762766361236572266e+00) (35, 1.28551876544952392578e+00) (36, 9.01233330368995666504e-02) (37, 6.99666500091552734375e-01) (38, -8.17177891731262207031e-01) (39, 1.22929739952087402344e+00) (40, 2.30349153280258178711e-01) (41, 1.05529189109802246094e+00) (42, -2.38279402256011962891e-02) (43, 1.83664649724960327148e-01) (44, 9.00966584682464599609e-01) (45, 1.05576145648956298828e+00) (46, 1.15194797515869140625e+00) (47, 6.85539722442626953125e-01) (48, 1.79205238819122314453e-01) (49, 1.23607611656188964844e+00) (50, 2.37986469268798828125e+00) (26, 4.78443622589111328125e-01) (27, 5.77800154685974121094e-01) (28, 1.22422504425048828125e+00) (29, 1.80257177352905273438e+00) (30, 7.95678794384002685547e-01) (31, 7.05463409423828125000e-01) (32, 1.62054884433746337891e+00) (33, 9.22350347042083740234e-01) (34, 1.24820351600646972656e+00) (35, 7.32307732105255126953e-01) (36, 3.77314746379852294922e-01) (37, 4.42670434713363647461e-01) (38, -1.04154481887817382812e+01) (39, 9.10243391990661621094e-01) (40, 7.20321163535118103027e-02) (41, 1.24927008152008056641e+00) (42, 9.39391613006591796875e-01) (43, 7.05860257148742675781e-01) (44, 2.23535537719726562500e+00) (45, 1.09575557708740234375e+00) (46, 2.39642286300659179688e+00) (47, 1.59643244743347167969e+00) (48, 4.14704144001007080078e-01) (49, 1.85612058639526367188e+00) (50, 1.18316078186035156250e+00) (26, 6.17590367794036865234e-01) (27, 3.05839091539382934570e-01) (28, 3.51701766252517700195e-01) (29, 4.48671072721481323242e-01) (30, 2.08919882774353027344e-01) (31, -1.70475140213966369629e-01) (32, 9.18334245681762695312e-01) (33, 5.07426083087921142578e-01) (34, 9.82495605945587158203e-01) (35, 3.98564077913761138916e-02) (36, 7.13624298572540283203e-01) (37, 5.22093892097473144531e-01) (38, 6.65590643882751464844e-01) (39, 9.35399174690246582031e-01) (40, 2.10626912117004394531e+00) (41, 1.24645900726318359375e+00) (42, 9.38973903656005859375e-01) (43, -5.28801009058952331543e-02) (44, 6.67089641094207763672e-01) (45, 7.16004967689514160156e-02) (46, -3.81782770156860351562e-01) (47, 7.16640532016754150391e-01) (48, 1.77698588371276855469e+00) (49, 1.00306546688079833984e+00) (50, 1.26428055763244628906e+00) (26, 1.10909366607666015625e+00) (27, -3.21189314126968383789e-02) (28, 3.76749336719512939453e-01) (29, 2.06582999229431152344e+00) (30, 1.38340210914611816406e+00) (31, 9.88135576248168945312e-01) (32, 1.35780775547027587891e+00) (33, 4.08073872327804565430e-01) (34, 1.66250443458557128906e+00) (35, 1.85444748401641845703e+00) (36, 8.12504768371582031250e-01) (37, 3.88815142214298248291e-02) (38, -4.91118860244750976562e+00) (39, 6.54554903507232666016e-01) (40, -2.60956978797912597656e+00) (41, -6.99735954403877258301e-02) (42, 9.11587953567504882812e-01) (43, 1.76114225387573242188e+00) (44, 7.32478499412536621094e-01) (45, 5.87213337421417236328e-01) (46, 1.76647686958312988281e+00) (47, 9.99454498291015625000e-01) (48, 4.72632467746734619141e-01) (49, 1.26388859748840332031e+00) (50, 1.79546058177947998047e+00) (26, 1.09124553203582763672e+00) (27, 3.37332248687744140625e-01) (28, 8.64917278289794921875e-01) (29, -3.80015659332275390625e+00) (30, -3.11452895402908325195e-02) (31, 2.14863586425781250000e+00) (32, 9.02677237987518310547e-01) (33, 7.93019831180572509766e-01) (34, 1.39549267292022705078e+00) (35, 3.41662228107452392578e-01) (36, 5.02205610275268554688e-01) (37, 8.54736864566802978516e-01) (38, 9.82395410537719726562e-01) (39, 4.62953187525272369385e-03) (40, 1.09446501731872558594e+00) (41, 5.50432324409484863281e-01) (42, 2.63437628746032714844e+00) (43, 8.65235824584960937500e+01) (44, 9.09531772136688232422e-01) (45, 9.30575251579284667969e-01) (46, 6.67297661304473876953e-01) (47, 4.54837113618850708008e-01) (48, 7.97250390052795410156e-01) (49, 1.71017718315124511719e+00) (50, 1.29362654685974121094e+00) (26, 7.49743223190307617188e-01) (27, 2.53278046846389770508e-01) (28, 1.01668548583984375000e+00) (29, 9.79296267032623291016e-01) (30, 1.19022095203399658203e+00) (31, 7.35298693180084228516e-01) (32, 1.13568449020385742188e+00) (33, 1.38689410686492919922e+00) (34, 1.16004538536071777344e+00) (35, 6.17401182651519775391e-01) (36, 1.54787778854370117188e-01) (37, 4.76048707962036132812e-01) (38, 2.72013354301452636719e+00) (39, -8.07079374790191650391e-02) (40, 9.80790317058563232422e-01) (41, -5.23297637701034545898e-02) (42, 8.57909321784973144531e-02) (43, 3.60771179199218750000e-01) (44, 4.68352466821670532227e-01) (45, 2.33823180198669433594e-01) (46, 1.29151165485382080078e+00) (47, 1.04600548744201660156e-01) (48, 1.94722533226013183594e+00) (49, 9.23607587814331054688e-01) (50, 2.12843203544616699219e+00) (26, 5.93999385833740234375e-01) (27, 1.19406855106353759766e+00) (28, 1.54820847511291503906e+00) (29, 1.44325613975524902344e+00) (30, 7.93363094329833984375e-01) (31, 1.28118157386779785156e+00) (32, 9.48751747608184814453e-01) (33, 5.78406155109405517578e-01) (34, 1.36937749385833740234e+00) (35, 1.48087620735168457031e+00) (36, 3.51759076118469238281e-01) (37, 1.44523695111274719238e-01) (38, -4.15434074401855468750e+00) (39, 4.35295969247817993164e-01) (40, 1.10478031635284423828e+00) (41, 1.20376956462860107422e+00) (42, 4.68885660171508789062e-01) (43, 9.05634045600891113281e-01) (44, 6.72146022319793701172e-01) (45, 1.24132525920867919922e+00) (46, 1.41943335533142089844e+00) (47, 1.06430387496948242188e+00) (48, 5.93180418014526367188e-01) (49, 7.06198334693908691406e-01) (50, 8.06644082069396972656e-01) (26, -5.05297005176544189453e-01) (27, 8.93117070198059082031e-01) (28, -2.00877413153648376465e-01) (29, 3.71931880712509155273e-01) (30, 5.36631584167480468750e-01) (31, 6.14509880542755126953e-01) (32, 6.07918024063110351562e-01) (33, -2.59520411491394042969e-01) (34, 3.74121338129043579102e-01) (35, 4.64693248271942138672e-01) (36, 4.31469917297363281250e-01) (37, 8.56523633003234863281e-01) (38, 8.55180844664573669434e-02) (39, -1.00389339029788970947e-01) (40, 1.33752763271331787109e+00) (41, 1.41461178660392761230e-01) (42, 8.04773449897766113281e-01) (43, -3.34014892578125000000e-01) (44, -8.38224709033966064453e-01) (45, -3.27357351779937744141e-01) (46, -4.42511796951293945312e-01) (47, 4.32942032814025878906e-01) (48, 5.80111145973205566406e-01) (49, 9.92550790309906005859e-01) (50, 7.04596459865570068359e-01) (26, 8.20797324180603027344e-01) (27, 1.47024714946746826172e+00) (28, 2.23182499408721923828e-01) (29, 1.57627546787261962891e+00) (30, 9.58325147628784179688e-01) (31, 5.68253636360168457031e-01) (32, 1.75306832790374755859e+00) (33, 1.07485508918762207031e+00) (34, 9.72478508949279785156e-01) (35, 1.34787523746490478516e+00) (36, 9.59332883358001708984e-01) (37, 1.25268876552581787109e-01) (38, -9.11818519234657287598e-02) (39, 1.44749236106872558594e+00) (40, 5.88244020938873291016e-01) (41, 1.04783296585083007812e+00) (42, 9.08695399761199951172e-01) (43, 1.15754175186157226562e+00) (44, 3.36957395076751708984e-01) (45, 8.23064386844635009766e-01) (46, 9.91649091243743896484e-01) (47, 1.42324829101562500000e+00) (48, 1.28099966049194335938e+00) (49, 1.52647244930267333984e+00) (50, 2.28768968582153320312e+00) (26, 8.87621045112609863281e-01) (27, 9.72634792327880859375e-01) (28, 8.20853352546691894531e-01) (29, 2.21151018142700195312e+00) (30, 9.97550606727600097656e-01) (31, 3.70616525411605834961e-01) (32, 1.49972355365753173828e+00) (33, 6.97871625423431396484e-01) (34, 7.30503439903259277344e-01) (35, 7.85413742065429687500e-01) (36, 6.72043383121490478516e-01) (37, 8.55850636959075927734e-01) (38, 5.74779212474822998047e-01) (39, 3.75594943761825561523e-01) (40, 1.18433976173400878906e+00) (41, 1.38482320308685302734e+00) (42, 8.51888358592987060547e-01) (43, 1.43979823589324951172e+00) (44, 4.58814233541488647461e-01) (45, 1.65213286876678466797e+00) (46, 1.01675808429718017578e+00) (47, 4.39161688089370727539e-01) (48, 8.99462461471557617188e-01) (49, 1.59002542495727539062e+00) (50, 1.30894839763641357422e+00) (26, 1.38813400268554687500e+00) (27, 1.66032171249389648438e+00) (28, 1.31739437580108642578e+00) (29, 1.67775404453277587891e+00) (30, 3.54446798563003540039e-01) (31, 4.29975867271423339844e-01) (32, 7.27207779884338378906e-01) (33, 1.19671118259429931641e+00) (34, 8.27990591526031494141e-01) (35, 1.23538160324096679688e+00) (36, 4.07884597778320312500e-01) (37, -3.07215809822082519531e-01) (38, -6.79197430610656738281e-01) (39, -6.35392785072326660156e-01) (40, 3.37948441505432128906e-01) (41, 6.61427795886993408203e-01) (42, 3.87101471424102783203e-01) (43, 4.46054935455322265625e-01) (44, 9.54941928386688232422e-01) (45, 4.52936947345733642578e-01) (46, 4.66883361339569091797e-01) (47, -1.47195741534233093262e-01) (48, 2.67107605934143066406e-01) (49, 2.02536612749099731445e-01) (50, 1.42438900470733642578e+00) (26, 3.00090104341506958008e-01) (27, 9.54245209693908691406e-01) (28, 3.13817560672760009766e-01) (29, 1.08127021789550781250e+00) (30, 6.23945593833923339844e-01) (31, 7.98918962478637695312e-01) (32, 6.98975861072540283203e-01) (33, 1.05930519104003906250e+00) (34, 9.34218525886535644531e-01) (35, 6.64561808109283447266e-01) (36, 7.46782124042510986328e-01) (37, 7.78758883476257324219e-01) (38, -3.66626548767089843750e+00) (39, 2.36107185482978820801e-01) (40, 4.19147580862045288086e-01) (41, 2.00409442186355590820e-01) (42, 6.10731899738311767578e-01) (43, 9.90531682968139648438e-01) (44, 4.97441709041595458984e-01) (45, 1.21790659427642822266e+00) (46, 1.61254107952117919922e+00) (47, 2.49623563140630722046e-02) (48, 2.54353974014520645142e-04) (49, 5.21270453929901123047e-01) (50, 1.76207697391510009766e+00) (26, 6.91252946853637695312e-01) (27, 1.22388756275177001953e+00) (28, 5.63911259174346923828e-01) (29, 8.92558813095092773438e-01) (30, 7.58660733699798583984e-01) (31, 6.90108180046081542969e-01) (32, 6.39909923076629638672e-01) (33, 5.18985033035278320312e-01) (34, 1.31740665435791015625e+00) (35, 1.34692943096160888672e+00) (36, 1.20651614665985107422e+00) (37, 5.91396510601043701172e-01) (38, -3.80826234817504882812e-01) (39, 1.60517251491546630859e+00) (40, -1.78718954324722290039e-01) (41, 4.67920035123825073242e-01) (42, 6.69833540916442871094e-01) (43, 8.24206650257110595703e-01) (44, 6.42474293708801269531e-01) (45, 4.92308586835861206055e-01) (46, 2.88555502891540527344e+00) (47, 3.23761284351348876953e-01) (48, 2.07218751311302185059e-01) (49, 9.34529960155487060547e-01) (50, 2.33980202674865722656e+00) (26, -3.59048783779144287109e-01) (27, 5.78057169914245605469e-01) (28, -4.77747559547424316406e-01) (29, 4.84084367752075195312e-01) (30, 2.06869408488273620605e-01) (31, 5.34565329551696777344e-01) (32, 3.61861586570739746094e-01) (33, 3.01758319139480590820e-01) (34, 8.43618094921112060547e-01) (35, 5.37741482257843017578e-01) (36, 1.59332469105720520020e-01) (37, 3.78691136837005615234e-01) (38, -9.85862076282501220703e-01) (39, -1.65145027637481689453e+00) (40, 1.01593422889709472656e+00) (41, -3.38390827178955078125e-01) (42, -2.81748771667480468750e-01) (43, 9.84993219375610351562e-01) (44, 2.31558054685592651367e-01) (45, -1.12306594848632812500e-01) (46, 1.04898297786712646484e+00) (47, -6.64203584194183349609e-01) (48, 4.65693145990371704102e-01) (49, 5.74093759059906005859e-01) (50, 9.38055634498596191406e-01) (26, 4.21543698757886886597e-03) (27, -7.11117219179868698120e-03) (28, -8.03106784820556640625e-01) (29, 9.54035103321075439453e-01) (30, 6.95848703384399414062e-01) (31, 3.63718777894973754883e-01) (32, 1.07816910743713378906e+00) (33, 3.39602768421173095703e-01) (34, 4.91626173257827758789e-01) (35, 5.60938715934753417969e-01) (36, 5.51358878612518310547e-01) (37, -2.41210997104644775391e-01) (38, -3.63389658927917480469e+00) (39, -5.19975900650024414062e-01) (40, -1.26912281848490238190e-03) (41, 8.64102765917778015137e-02) (42, 6.32020294666290283203e-01) (43, 1.70550370216369628906e+00) (44, 2.85592168569564819336e-01) (45, -1.84281274676322937012e-01) (46, 9.53489243984222412109e-01) (47, -2.91756689548492431641e-01) (48, -1.92157909274101257324e-01) (49, 7.04740703105926513672e-01) (50, 2.08736896514892578125e+00) (26, 1.14201232790946960449e-01) (27, 8.07779908180236816406e-01) (28, 3.09394121170043945312e-01) (29, 2.26194500923156738281e-01) (30, -1.22894279658794403076e-01) (31, -5.44624137878417968750e+00) (32, 8.34974110126495361328e-01) (33, -1.51381090283393859863e-01) (34, 1.18413424491882324219e+00) (35, 4.20549035072326660156e-01) (36, -1.76053851842880249023e-01) (37, 5.19773125648498535156e-01) (38, 1.34650468826293945312e+00) (39, -2.06485763192176818848e-02) (40, 1.09323024749755859375e+00) (41, 7.87019848823547363281e-01) (42, 1.07625007629394531250e+00) (43, 1.27587056159973144531e+00) (44, 4.82586324214935302734e-01) (45, 1.08776345849037170410e-01) (46, -6.27454280853271484375e-01) (47, 2.83523947000503540039e-01) (48, 1.07247972488403320312e+00) (49, 1.10217154026031494141e+00) (50, 1.07333338260650634766e+00) (26, 1.46567845344543457031e+00) (27, 4.29648347198963165283e-02) (28, -2.72083592414855957031e+00) (29, 1.73471212387084960938e+00) (30, 9.48741257190704345703e-01) (31, 5.07695138454437255859e-01) (32, 8.98750603199005126953e-01) (33, 8.11433255672454833984e-01) (34, 3.80162692070007324219e+00) (35, 2.83211565017700195312e+00) (36, 1.49359166622161865234e+00) (37, 1.22067606449127197266e+00) (38, 8.57612323760986328125e+00) (39, 2.26997351646423339844e+00) (40, 1.82448518276214599609e+00) (41, 1.39394402503967285156e+00) (42, 5.06513297557830810547e-01) (43, 1.91003859043121337891e+00) (44, 7.66213893890380859375e-01) (45, 1.08345270156860351562e+00) (46, 1.38709080219268798828e+00) (47, 1.92397892475128173828e+00) (48, 1.11643409729003906250e+00) (49, 3.86193895339965820312e+00) (50, 7.26306259632110595703e-01) (26, 2.34118029475212097168e-01) (27, 1.25631475448608398438e+00) (28, 9.64242637157440185547e-01) (29, 3.52825379371643066406e+00) (30, -4.09514427185058593750e-01) (31, 7.95614838600158691406e-01) (32, 8.76593947410583496094e-01) (33, 6.38921916484832763672e-01) (34, 5.12887418270111083984e-01) (35, 5.71943342685699462891e-01) (36, 2.55102515220642089844e-01) (37, 7.03468501567840576172e-01) (38, -3.34238386154174804688e+00) (39, -9.95127797126770019531e-01) (40, 9.76271390914916992188e-01) (41, 4.15663957595825195312e-01) (42, 2.37328246235847473145e-01) (43, 3.01889628171920776367e-01) (44, 1.14193689823150634766e+00) (45, -1.43240494653582572937e-02) (46, 9.86435830593109130859e-01) (47, -3.79617273807525634766e-01) (48, 7.83172369003295898438e-01) (49, 6.62926435470581054688e-01) (50, 3.19311678409576416016e-01) (26, 5.26066362857818603516e-01) (27, 1.59074926376342773438e+00) (28, 8.97456765174865722656e-01) (29, 9.21554982662200927734e-01) (30, 3.29253703355789184570e-01) (31, 1.09931302070617675781e+00) (32, 7.86537885665893554688e-01) (33, 3.77237081527709960938e-01) (34, 3.84697169065475463867e-01) (35, 1.76738142967224121094e+00) (36, 2.73799803107976913452e-02) (37, 4.70133900642395019531e-01) (38, -1.22268974781036376953e+00) (39, 1.64557993412017822266e+00) (40, 5.38756787776947021484e-01) (41, 7.87711799144744873047e-01) (42, -2.70081710815429687500e+00) (43, 1.44837522506713867188e+00) (44, 6.82279288768768310547e-01) (45, 4.69459414482116699219e-01) (46, 1.45137166976928710938e+00) (47, 6.04224026203155517578e-01) (48, 7.69059300422668457031e-01) (49, 1.32732629776000976562e+00) (50, 2.25870513916015625000e+00) (26, 3.92365276813507080078e-01) (27, -1.49909818172454833984e+00) (28, -2.18467750549316406250e+01) (29, 2.63699340820312500000e+00) (30, 1.26106274127960205078e+00) (31, 1.10363829135894775391e+00) (32, 1.13663041591644287109e+00) (33, 1.15355837345123291016e+00) (34, 2.34206724166870117188e+00) (35, 4.01049613952636718750e+00) (36, 9.47613537311553955078e-01) (37, 1.38209366798400878906e+00) (38, 5.38461267948150634766e-01) (39, 1.64498472213745117188e+00) (40, 6.01772785186767578125e-01) (41, 1.75658416748046875000e+00) (42, 5.53923130035400390625e-01) (43, 1.67918431758880615234e+00) (44, 1.22782695293426513672e+00) (45, 5.96110641956329345703e-01) (46, 2.23978543281555175781e+00) (47, 3.03860902786254882812e+00) (48, 1.93983352184295654297e+00) (49, 2.07880640029907226562e+00) (50, 2.90213674306869506836e-01) (26, -5.19563972949981689453e-01) (27, 1.35445666313171386719e+00) (28, 1.05605936050415039062e+00) (29, 5.42264342308044433594e-01) (30, 5.49939870834350585938e-01) (31, 1.01418741047382354736e-01) (32, 5.47220468521118164062e-01) (33, 4.65294361114501953125e-01) (34, 8.76841127872467041016e-01) (35, 4.10556912422180175781e-01) (36, -1.84376791119575500488e-01) (37, 3.29572856426239013672e-01) (38, -1.47020530700683593750e+00) (39, -8.15224826335906982422e-01) (40, 1.50675714015960693359e-01) (41, -7.68995642662048339844e-01) (42, -5.86087554693222045898e-02) (43, 1.99406832456588745117e-01) (44, 5.63133321702480316162e-02) (45, -9.01361256837844848633e-02) (46, 8.35602223873138427734e-01) (47, 8.20477068424224853516e-01) (48, 5.42881608009338378906e-01) (49, 1.12211799621582031250e+00) (50, 3.58488529920578002930e-01) (26, 1.21618354320526123047e+00) (27, -3.18387627601623535156e+00) (28, 9.79519188404083251953e-01) (29, 2.05677294731140136719e+00) (30, 4.13811534643173217773e-01) (31, 4.07583802938461303711e-01) (32, 6.28551244735717773438e-01) (33, 1.05025899410247802734e+00) (34, 1.37783622741699218750e+00) (35, 1.06282413005828857422e+00) (36, 5.78979969024658203125e-01) (37, 9.79824423789978027344e-01) (38, 2.77179956436157226562e-01) (39, 2.51305079460144042969e+00) (40, 6.32660150527954101562e-01) (41, 1.08251702785491943359e+00) (42, 7.36859381198883056641e-01) (43, 8.17031860351562500000e-01) (44, 1.44882857799530029297e+00) (45, 5.59314310550689697266e-01) (46, 1.09617006778717041016e+00) (47, 9.61293354630470275879e-02) (48, 3.54032731056213378906e+00) (49, 1.17943823337554931641e+00) (50, 3.96940596401691436768e-02) (26, 7.35872030258178710938e-01) (27, 9.28759694099426269531e-01) (28, 1.26021099090576171875e+00) (29, 6.11118137836456298828e-01) (30, 2.95168220996856689453e-01) (31, -1.67447119951248168945e-01) (32, 9.04557704925537109375e-01) (33, 2.43247166275978088379e-01) (34, 2.45216414332389831543e-01) (35, 1.07625877857208251953e+00) (36, 1.45571276545524597168e-01) (37, -2.01462492346763610840e-01) (38, -2.14033174514770507812e+00) (39, 2.59390007704496383667e-02) (40, 2.57555153220891952515e-02) (41, -1.42426192760467529297e-01) (42, 1.63337707519531250000e-01) (43, 7.46940910816192626953e-01) (44, -5.25222897529602050781e-01) (45, -1.06408521533012390137e-01) (46, 1.24059081077575683594e+00) (47, -5.36168158054351806641e-01) (48, -3.14771160483360290527e-02) (49, 2.87343591451644897461e-01) (50, 8.32439243793487548828e-01) (51, -1.55914634466171264648e-01) (52, 1.66739785671234130859e+00) (53, 1.32087492942810058594e+00) (54, -1.05739724636077880859e+00) (55, 1.05307471752166748047e+00) (56, 1.15339875221252441406e+00) (57, 4.62581366300582885742e-01) (58, 1.27054846286773681641e+00) (59, -2.35590234398841857910e-01) (60, 1.09759247303009033203e+00) (61, 8.88469874858856201172e-01) (62, 1.24598741531372070312e+00) (63, 1.32644796371459960938e+00) (64, 9.74215745925903320312e-01) (65, 7.37058281898498535156e-01) (66, 8.16077995300292968750e+00) (67, 7.68143534660339355469e-01) (68, 1.28361546993255615234e+00) (69, 3.90497660636901855469e+00) (70, 4.86340910196304321289e-01) (71, 1.17595219612121582031e+00) (72, 2.10287380218505859375e+00) (73, 1.42250883579254150391e+00) (74, 8.25114250183105468750e-01) (75, 1.53473067283630371094e+00) (51, 1.35600185394287109375e+00) (52, 1.67868602275848388672e+00) (53, 1.08685004711151123047e+00) (54, 8.56421589851379394531e-01) (55, 8.99718165397644042969e-01) (56, 3.23839396238327026367e-01) (57, 7.60495364665985107422e-01) (58, 4.50310319662094116211e-01) (59, -2.34645783901214599609e-01) (60, 1.67738163471221923828e+00) (61, 7.49874830245971679688e-01) (62, 7.52744734287261962891e-01) (63, 9.70125555992126464844e-01) (64, 5.30148208141326904297e-01) (65, 2.16041779518127441406e+00) (66, 5.56715488433837890625e+00) (67, 1.32727229595184326172e+00) (68, 1.06351292133331298828e+00) (69, 2.68139576911926269531e+00) (70, 1.44847989082336425781e+00) (71, 1.35389316082000732422e+00) (72, 3.14081192016601562500e+00) (73, 1.68774259090423583984e+00) (74, 3.84785199165344238281e+00) (75, 1.51473867893218994141e+00) (51, 3.20133507251739501953e-01) (52, 1.40259981155395507812e+00) (53, -5.39400434494018554688e+00) (54, 2.19552016258239746094e+00) (55, 9.40462231636047363281e-01) (56, -6.85005307197570800781e-01) (57, 9.08466994762420654297e-01) (58, 7.60191798210144042969e-01) (59, 1.02096452713012695312e+01) (60, 9.67336297035217285156e-01) (61, -1.02924689650535583496e-01) (62, 1.52472460269927978516e+00) (63, 7.30053544044494628906e-01) (64, -2.88967728614807128906e-01) (65, 1.50000000000000000000e+03) (66, 1.46749801635742187500e+02) (67, 1.01550376415252685547e+00) (68, 2.34517693519592285156e-01) (69, 3.02660137414932250977e-01) (70, 1.59679794311523437500e+00) (71, 1.61333933472633361816e-01) (72, 2.35186314582824707031e+00) (73, 5.05777060985565185547e-01) (74, 1.50000000000000000000e+03) (75, 2.65263056755065917969e+00) (51, 7.41800844669342041016e-01) (52, 1.66971945762634277344e+00) (53, 1.54310047626495361328e+00) (54, 5.18196463584899902344e-01) (55, 2.11384463310241699219e+00) (56, 3.09217363595962524414e-01) (57, 6.45678400993347167969e-01) (58, 1.22471749782562255859e+00) (59, 1.17011912167072296143e-01) (60, 1.36370539665222167969e+00) (61, 4.45816785097122192383e-01) (62, 1.68147408962249755859e+00) (63, 1.06045448780059814453e+00) (64, 9.90754604339599609375e-01) (65, -1.76344186067581176758e-01) (66, 4.89040583372116088867e-01) (67, 8.55876445770263671875e-01) (68, 1.48821401596069335938e+00) (69, 1.29467821121215820312e+00) (70, 1.02059340476989746094e+00) (71, 9.04501020908355712891e-01) (72, 2.39599871635437011719e+00) (73, 6.12802267074584960938e-01) (74, 6.91522693634033203125e+00) (75, 1.93619263172149658203e+00) (51, -6.96368753910064697266e-01) (52, 4.09882187843322753906e-01) (53, 1.65325000882148742676e-01) (54, -2.04582586884498596191e-01) (55, 5.47642588615417480469e-01) (56, 1.90104078501462936401e-02) (57, -2.69717156887054443359e-01) (58, 6.59020185470581054688e-01) (59, 1.04600524902343750000e+00) (60, 4.92910236120223999023e-01) (61, -3.58850538730621337891e-01) (62, 6.71800553798675537109e-01) (63, 1.29472005367279052734e+00) (64, 2.02765285968780517578e-01) (65, 3.65556240081787109375e+00) (66, 5.45339286327362060547e-01) (67, 9.78089272975921630859e-01) (68, -1.98161050677299499512e-01) (69, 8.74043643474578857422e-01) (70, 3.72756779193878173828e-01) (71, 2.05607637763023376465e-01) (72, 6.88933288574218750000e+02) (73, 7.08344802260398864746e-02) (74, 8.72109508514404296875e+00) (75, 1.14416444301605224609e+00) (51, 4.36808079481124877930e-01) (52, 1.68276202678680419922e+00) (53, -8.14690685272216796875e+00) (54, 6.44601404666900634766e-01) (55, 1.28163146972656250000e+00) (56, -7.29477111816406250000e+02) (57, 1.38554000854492187500e+00) (58, -3.53924512863159179688e-01) (59, 9.44801101684570312500e+01) (60, 9.32708919048309326172e-01) (61, 1.22799634933471679688e+00) (62, 9.60204824805259704590e-02) (63, 1.00536179542541503906e+00) (64, 1.26131200790405273438e+00) (65, 1.93783054351806640625e+01) (66, 3.10003566741943359375e+01) (67, 9.14458513259887695312e-01) (68, 7.11373865604400634766e-01) (69, 1.54478883743286132812e+00) (70, 1.18327295780181884766e+00) (71, 8.29803347587585449219e-01) (72, 1.50000000000000000000e+03) (73, 9.72103536128997802734e-01) (74, 8.94099304199218750000e+02) (75, 2.09456086158752441406e+00) (51, 1.35891401767730712891e+00) (52, 2.03491877764463424683e-02) (53, 6.33800625801086425781e-01) (54, 8.75944018363952636719e-01) (55, 4.80534732341766357422e-01) (56, 6.82983160018920898438e-01) (57, 7.35732614994049072266e-01) (58, 3.89259457588195800781e-01) (59, 3.87265205383300781250e+00) (60, 1.66746973991394042969e-01) (61, 4.73144680261611938477e-01) (62, 5.49110531806945800781e-01) (63, 4.44675296545028686523e-01) (64, 8.14966797828674316406e-01) (65, 1.93589079380035400391e+00) (66, 1.01619720458984375000e+00) (67, 1.59375083446502685547e+00) (68, -4.48041021823883056641e-01) (69, -8.07204693555831909180e-02) (70, 8.21067154407501220703e-01) (71, 2.33966493606567382812e+00) (72, 1.28346037864685058594e+00) (73, -2.43728607892990112305e-01) (74, 8.31087946891784667969e-01) (75, 2.18028020858764648438e+00) (51, 1.06122851371765136719e+00) (52, 1.51357674598693847656e+00) (53, 1.53852558135986328125e+00) (54, 8.01255822181701660156e-01) (55, 1.56982994079589843750e+00) (56, 9.42251861095428466797e-01) (57, 7.32473671436309814453e-01) (58, 1.50842583179473876953e+00) (59, -1.83148413896560668945e-01) (60, 9.26997661590576171875e-01) (61, 6.24046325683593750000e-01) (62, 7.05234408378601074219e-01) (63, 4.56239461898803710938e-01) (64, 1.27189660072326660156e+00) (65, 6.25412106513977050781e-01) (66, 8.37592303752899169922e-01) (67, 4.01142883300781250000e+00) (68, 9.75815296173095703125e-01) (69, 5.99944782257080078125e+00) (70, 5.23815572261810302734e-01) (71, 4.50029611587524414062e-01) (72, 2.57366299629211425781e+00) (73, 1.41313040256500244141e+00) (74, 7.63871574401855468750e+00) (75, 1.81781935691833496094e+00) (51, 1.39617830514907836914e-01) (52, 5.46420633792877197266e-01) (53, 1.21880424022674560547e+00) (54, 2.87160664796829223633e-01) (55, 8.38855743408203125000e-01) (56, 1.76754623651504516602e-01) (57, 3.47723335027694702148e-01) (58, 2.39339902997016906738e-01) (59, 3.24836671352386474609e-01) (60, 2.68009692430496215820e-01) (61, 9.31793034076690673828e-01) (62, -2.02856826782226562500e+00) (63, 1.22025513648986816406e+00) (64, 1.17867565155029296875e+00) (65, 1.73881256580352783203e+00) (66, 5.43385076522827148438e+00) (67, 8.07098209857940673828e-01) (68, 1.08706676959991455078e+00) (69, -1.09733033180236816406e+00) (70, 1.09529948234558105469e+00) (71, 1.88442003726959228516e+00) (72, 2.01427149772644042969e+00) (73, 3.95003259181976318359e-01) (74, 8.49501323699951171875e+00) (75, 1.01838219165802001953e+00) (51, 1.00272727012634277344e+00) (52, 5.22187292575836181641e-01) (53, 1.22737121582031250000e+00) (54, 1.19396460056304931641e+00) (55, 6.79125785827636718750e-01) (56, 7.28667378425598144531e-01) (57, 5.98892390727996826172e-01) (58, 8.03537547588348388672e-01) (59, 1.50610053539276123047e+00) (60, 6.04435682296752929688e-01) (61, 3.42578381299972534180e-01) (62, 1.14464557170867919922e+00) (63, 1.27644968032836914062e+00) (64, 4.84720736742019653320e-01) (65, 1.70655894279479980469e+00) (66, 1.53016448020935058594e+00) (67, -4.55248206853866577148e-02) (68, 5.86147420108318328857e-02) (69, 9.22323048114776611328e-01) (70, 1.14614808559417724609e+00) (71, 1.15229451656341552734e+00) (72, 3.17594909667968750000e+00) (73, 6.52093470096588134766e-01) (74, 2.96383142471313476562e+00) (75, 2.00744628906250000000e+00) (51, 1.52150142192840576172e+00) (52, 3.27982735633850097656e+00) (53, -5.38097839355468750000e+02) (54, 9.91507768630981445312e-01) (55, 4.21387702226638793945e-01) (56, -7.07324457168579101562e+00) (57, 8.07074904441833496094e-01) (58, 7.79736995697021484375e-01) (59, 2.93357879638671875000e+02) (60, 1.24415290355682373047e+00) (61, 4.86853241920471191406e-01) (62, -1.65174350738525390625e+01) (63, 1.06927442550659179688e+00) (64, 2.24390554428100585938e+00) (65, 1.50000000000000000000e+03) (66, 1.28270654296875000000e+03) (67, 5.95662355422973632812e-01) (68, 1.77302515506744384766e+00) (69, 1.72426760196685791016e+00) (70, 2.65999546051025390625e+01) (71, 1.09762942790985107422e+00) (72, 1.50000000000000000000e+03) (73, 2.44287490844726562500e+00) (74, 7.25612449645996093750e+00) (75, 2.50085306167602539062e+00) (51, 2.08896541595458984375e+00) (52, 1.43888115882873535156e+00) (53, 8.20626795291900634766e-01) (54, 1.15804278850555419922e+00) (55, 1.13380908966064453125e+00) (56, 7.03669965267181396484e-01) (57, -1.81882694363594055176e-01) (58, 1.05524885654449462891e+00) (59, 5.44072866439819335938e-01) (60, 8.84982228279113769531e-01) (61, 1.02910840511322021484e+00) (62, 8.97105038166046142578e-01) (63, 1.86746239662170410156e+00) (64, 1.75829184055328369141e+00) (65, 1.72583773732185363770e-01) (66, 1.80933666229248046875e+01) (67, 6.55519008636474609375e-01) (68, 5.81118822097778320312e-01) (69, 1.23249185085296630859e+00) (70, 1.61007046699523925781e+00) (71, 1.23307681083679199219e+00) (72, 1.31249558925628662109e+00) (73, 2.18729134649038314819e-02) (74, 6.99466276168823242188e+00) (75, 1.33303868770599365234e+00) (51, -2.84084677696228027344e-01) (52, 1.75348788499832153320e-01) (53, 7.28314161300659179688e-01) (54, 6.37257277965545654297e-01) (55, 1.45781725645065307617e-01) (56, 1.19357812404632568359e+00) (57, 8.63572895526885986328e-01) (58, 5.84912061691284179688e-01) (59, 3.19687753915786743164e-01) (60, 4.18192654848098754883e-01) (61, -3.06234136223793029785e-03) (62, 6.22212469577789306641e-01) (63, 9.41721916198730468750e-01) (64, 7.98915863037109375000e-01) (65, 3.71188855171203613281e+00) (66, 1.54267466068267822266e+00) (67, 8.14705848693847656250e-01) (68, -1.02866744995117187500e+00) (69, 7.51078188419342041016e-01) (70, -8.97143423557281494141e-01) (71, 3.61776757240295410156e+00) (72, 3.18235564231872558594e+00) (73, 3.18140797317028045654e-02) (74, 1.57426321506500244141e+00) (75, 1.16120636463165283203e+00) (51, 1.11849355697631835938e+00) (52, 1.45000243186950683594e+00) (53, 1.47227716445922851562e+00) (54, 4.66876298189163208008e-01) (55, 1.34834957122802734375e+00) (56, -1.54911446571350097656e+00) (57, 5.67754805088043212891e-01) (58, 7.76576757431030273438e-01) (59, 1.73818278312683105469e+00) (60, 6.88418030738830566406e-01) (61, 6.23139798641204833984e-01) (62, -2.97282218933105468750e+00) (63, 3.06779384613037109375e-01) (64, 1.55527901649475097656e+00) (65, 1.02341616153717041016e+00) (66, 1.20302176475524902344e+00) (67, 1.16126202046871185303e-01) (68, 1.19996213912963867188e+00) (69, 1.54515397548675537109e+00) (70, 1.36092376708984375000e+00) (71, 8.42572152614593505859e-01) (72, 8.58351802825927734375e+00) (73, 8.77014279365539550781e-01) (74, 6.20289325714111328125e+00) (75, 1.35307598114013671875e+00) (51, 1.34880328178405761719e+00) (52, 1.41571268439292907715e-01) (53, 3.91032606363296508789e-01) (54, 5.02885937690734863281e-01) (55, 1.06920433044433593750e+00) (56, -1.00041544437408447266e+00) (57, 1.21997043490409851074e-01) (58, 1.26283037662506103516e+00) (59, 1.32096841931343078613e-01) (60, 9.30897891521453857422e-01) (61, 3.40895116329193115234e-01) (62, 1.19963419437408447266e+00) (63, 5.91821134090423583984e-01) (64, 1.07124555110931396484e+00) (65, 2.98389911651611328125e+00) (66, 1.32181620597839355469e+00) (67, -1.76546907424926757812e+00) (68, 6.75894469022750854492e-02) (69, 1.30319881439208984375e+00) (70, 3.28830629587173461914e-01) (71, 1.58403706550598144531e+00) (72, 4.04742431640625000000e+00) (73, 6.83712661266326904297e-01) (74, 9.81298863887786865234e-01) (75, 1.51696324348449707031e+00) (51, 3.78993749618530273438e-01) (52, 6.10163450241088867188e-01) (53, 1.08299386501312255859e+00) (54, 1.15903425216674804688e+00) (55, 1.95343899726867675781e+00) (56, 2.65227109193801879883e-01) (57, 1.46835410594940185547e+00) (58, 7.40175247192382812500e-01) (59, 3.45151901245117187500e+01) (60, 9.90315496921539306641e-01) (61, 1.33010089397430419922e+00) (62, -1.59832549095153808594e+00) (63, 7.28973448276519775391e-01) (64, 1.09308075904846191406e+00) (65, 3.80998849868774414062e+00) (66, 5.78910398483276367188e+00) (67, 1.81650578975677490234e+00) (68, 4.91392910480499267578e-01) (69, 2.30839991569519042969e+00) (70, 8.86199176311492919922e-01) (71, 1.79518795013427734375e+00) (72, 8.45934748649597167969e-01) (73, 7.15467989444732666016e-01) (74, 6.28033924102783203125e+00) (75, 1.34800672531127929688e+00) (51, 2.54022717475891113281e+00) (52, 1.34008300304412841797e+00) (53, 8.97550284862518310547e-01) (54, 1.25116980075836181641e+00) (55, 7.57167339324951171875e-01) (56, 3.11983913183212280273e-01) (57, 1.00993025302886962891e+00) (58, 5.52777349948883056641e-01) (59, 8.40391874313354492188e-01) (60, 7.73304998874664306641e-01) (61, 1.82962179183959960938e-01) (62, 9.94292736053466796875e-01) (63, 1.08232533931732177734e+00) (64, 8.43067109584808349609e-01) (65, 1.40857911109924316406e+00) (66, 1.14862346649169921875e+00) (67, 6.07587277889251708984e-01) (68, 6.40440225601196289062e-01) (69, 1.28107738494873046875e+00) (70, 1.23651337623596191406e+00) (71, 2.14668422937393188477e-01) (72, 1.23213396072387695312e+01) (73, 7.43628203868865966797e-01) (74, 3.81243801116943359375e+00) (75, 3.18130970001220703125e+00) (51, 5.69423377513885498047e-01) (52, 3.30371022224426269531e-01) (53, 7.28010118007659912109e-01) (54, 1.36666619777679443359e+00) (55, 5.55214405059814453125e-01) (56, 1.08505344390869140625e+01) (57, 5.99671304225921630859e-01) (58, 1.17072141170501708984e+00) (59, 2.82228201627731323242e-01) (60, 2.24020123481750488281e-01) (61, 1.11344969272613525391e+00) (62, 9.66339528560638427734e-01) (63, 1.22635507583618164062e+00) (64, 7.54817485809326171875e-01) (65, 1.14918804168701171875e+00) (66, 1.03079468011856079102e-01) (67, 8.35524916648864746094e-01) (68, 9.87933695316314697266e-01) (69, 4.40197408199310302734e-01) (70, 8.75525116920471191406e-01) (71, 7.04093742370605468750e+00) (72, -5.92166066169738769531e-01) (73, 8.73609602451324462891e-01) (74, 8.24474453926086425781e-01) (75, 7.10333526134490966797e-01) (51, -5.34775674343109130859e-01) (52, 9.97493624687194824219e-01) (53, -4.43323850631713867188e-01) (54, -6.31841897964477539062e-01) (55, 1.24187231063842773438e-01) (56, 1.18311814963817596436e-01) (57, -4.90987300872802734375e-02) (58, 7.63240993022918701172e-01) (59, 1.16829253733158111572e-01) (60, 7.91840970516204833984e-01) (61, 6.55377686023712158203e-01) (62, -2.20538884401321411133e-01) (63, 2.12900921702384948730e-01) (64, 4.70647603273391723633e-01) (65, 2.24338459968566894531e+00) (66, 1.81129479408264160156e+00) (67, 1.40726542472839355469e+00) (68, -1.10137367248535156250e+00) (69, -7.07272410392761230469e-01) (70, 5.04339933395385742188e-01) (71, 5.48155665397644042969e-01) (72, 2.83494162559509277344e+00) (73, -1.40808558464050292969e+00) (74, 7.36831545829772949219e-01) (75, 2.21842360496520996094e+00) (51, 4.32087868452072143555e-01) (52, -5.83942309021949768066e-02) (53, 5.85248291492462158203e-01) (54, 2.91806221008300781250e-01) (55, 1.40644431114196777344e+00) (56, 4.04942594468593597412e-03) (57, 4.95705366134643554688e-01) (58, 1.06823468208312988281e+00) (59, 1.51175951957702636719e+00) (60, 8.60955953598022460938e-01) (61, 3.87703001499176025391e-01) (62, -4.03084802627563476562e+00) (63, 1.26504194736480712891e+00) (64, 2.29684770107269287109e-01) (65, 1.07147157192230224609e+00) (66, 3.57814335823059082031e+00) (67, 1.76548123359680175781e+00) (68, 9.29270505905151367188e-01) (69, 3.45457941293716430664e-01) (70, 1.15747976303100585938e+00) (71, 2.19189333915710449219e+00) (72, 1.89134633541107177734e+00) (73, 1.39921411871910095215e-01) (74, 4.99418020248413085938e+00) (75, 9.84660983085632324219e-01) (51, 4.64635401964187622070e-01) (52, 1.26906156539916992188e-01) (53, 5.57775795459747314453e-01) (54, 4.53136831521987915039e-01) (55, 1.06686806678771972656e+00) (56, 1.23642213642597198486e-01) (57, 5.36345720291137695312e-01) (58, 8.01770091056823730469e-01) (59, 2.22232151031494140625e+00) (60, 7.99115538597106933594e-01) (61, 8.48067581653594970703e-01) (62, 1.86879622936248779297e+00) (63, 2.98300057649612426758e-01) (64, 4.87777262926101684570e-01) (65, 2.97134971618652343750e+00) (66, 2.42776536941528320312e+00) (67, 2.26332712173461914062e+00) (68, 1.40866708755493164062e+00) (69, 1.71842724084854125977e-01) (70, 3.30531358718872070312e+00) (71, 3.14597797393798828125e+00) (72, 1.43918310546875000000e+03) (73, 1.32508707046508789062e+00) (74, 1.41285848617553710938e+00) (75, 1.13170254230499267578e+00) (51, -1.66389659047126770020e-01) (52, 1.75091683864593505859e+00) (53, 1.86603271961212158203e+00) (54, -1.15944278240203857422e+00) (55, 1.59471297264099121094e+00) (56, 1.18050813674926757812e+00) (57, 1.54850497841835021973e-01) (58, 6.17469370365142822266e-01) (59, 2.91736304759979248047e-01) (60, 1.49977672100067138672e+00) (61, 9.52597200870513916016e-01) (62, 1.51993179321289062500e+00) (63, 6.55463576316833496094e-01) (64, 9.00250136852264404297e-01) (65, -1.02499055862426757812e+00) (66, 6.44964575767517089844e-01) (67, 1.20713186264038085938e+00) (68, 6.81917130947113037109e-01) (69, 1.53469502925872802734e+00) (70, 8.27888250350952148438e-01) (71, 9.24221515655517578125e-01) (72, 1.13558555603027343750e+02) (73, 4.04226869344711303711e-01) (74, 7.09022712707519531250e+00) (75, 1.51953816413879394531e+00) (51, 8.62080037593841552734e-01) (52, 7.83910453319549560547e-01) (53, 8.59093010425567626953e-01) (54, 7.84258186817169189453e-01) (55, 6.09269022941589355469e-01) (56, 1.21763420104980468750e+00) (57, 1.11323451995849609375e+00) (58, 1.04671061038970947266e+00) (59, 5.28157413005828857422e-01) (60, 7.43048608303070068359e-01) (61, 8.07929754257202148438e-01) (62, 8.67504894733428955078e-01) (63, 3.81122618913650512695e-01) (64, 9.84962165355682373047e-01) (65, 1.75410830974578857422e+00) (66, 7.43419229984283447266e-01) (67, 4.14100468158721923828e-01) (68, -2.26655229926109313965e-01) (69, 1.50357651710510253906e+00) (70, 8.61906468868255615234e-01) (71, 1.03035712242126464844e+00) (72, 4.30975198745727539062e+00) (73, 6.65598809719085693359e-01) (74, 3.84524130821228027344e+00) (75, 2.28450536727905273438e+00) (51, -7.92626217007637023926e-02) (52, 4.87485319375991821289e-01) (53, 9.11484360694885253906e-01) (54, 8.44351947307586669922e-01) (55, 2.99883574247360229492e-01) (56, 7.14221537113189697266e-01) (57, 7.02539026737213134766e-01) (58, 8.68338465690612792969e-01) (59, 1.58010637760162353516e+00) (60, 4.58819389343261718750e-01) (61, 6.70215487480163574219e-01) (62, 3.07441562414169311523e-01) (63, 2.59656131267547607422e-01) (64, 5.50882257521152496338e-02) (65, 3.21834158897399902344e+00) (66, 3.93413543701171875000e+00) (67, 6.87652230262756347656e-01) (68, 3.73587936162948608398e-01) (69, 1.54185891151428222656e+00) (70, 7.79233038425445556641e-01) (71, 1.76523852348327636719e+00) (72, 1.40023028850555419922e+00) (73, 2.24863484501838684082e-01) (74, 5.34943819046020507812e-01) (75, 5.16493678092956542969e-01) (76, 1.50000000000000000000e+03) (77, 1.50000000000000000000e+03) (78, 1.50000000000000000000e+03) (79, 1.05772644042968750000e+03) (80, 1.50000000000000000000e+03) (81, 1.50000000000000000000e+03) (82, 1.50000000000000000000e+03) (83, 1.50000000000000000000e+03) (84, 1.50000000000000000000e+03) (85, 1.50000000000000000000e+03) (86, 1.50000000000000000000e+03) (87, 1.50000000000000000000e+03) (88, 1.49999987792968750000e+03) (89, 1.50000000000000000000e+03) (90, 1.50000000000000000000e+03) (91, 1.49944543457031250000e+03) (92, 1.50000000000000000000e+03) (93, -1.44987036132812500000e+03) (94, 1.50000000000000000000e+03) (95, 1.49999987792968750000e+03) (96, 1.50000000000000000000e+03) (97, 1.50000000000000000000e+03) (98, 1.50000000000000000000e+03) (99, 1.49999987792968750000e+03) (100, 1.50000000000000000000e+03) (76, 1.50000000000000000000e+03) (77, 1.50000000000000000000e+03) (78, 1.50000000000000000000e+03) (79, 1.04079833984375000000e+02) (80, 1.50000000000000000000e+03) (81, 1.50000000000000000000e+03) (82, 1.50000000000000000000e+03) (83, 1.50000000000000000000e+03) (84, 1.50000000000000000000e+03) (85, 1.50000000000000000000e+03) (86, 1.50000000000000000000e+03) (87, 1.50000000000000000000e+03) (88, 1.50000000000000000000e+03) (89, 1.50000000000000000000e+03) (90, 1.50000000000000000000e+03) (91, 1.49999914550781250000e+03) (92, 1.50000000000000000000e+03) (93, -1.45352636718750000000e+03) (94, 1.50000000000000000000e+03) (95, 1.50000000000000000000e+03) (96, 1.50000000000000000000e+03) (97, 1.50000000000000000000e+03) (98, 1.50000000000000000000e+03) (99, 1.50000000000000000000e+03) (100, 2.82477521896362304688e+00) (76, 1.50000000000000000000e+03) (77, 1.50000000000000000000e+03) (78, 1.50000000000000000000e+03) (79, 1.18436389160156250000e+03) (80, 1.50000000000000000000e+03) (81, 1.50000000000000000000e+03) (82, 1.50000000000000000000e+03) (83, 1.50000000000000000000e+03) (84, 1.50000000000000000000e+03) (85, 1.50000000000000000000e+03) (86, 1.50000000000000000000e+03) (87, 1.50000000000000000000e+03) (88, 1.50000000000000000000e+03) (89, 1.50000000000000000000e+03) (90, 1.50000000000000000000e+03) (91, 1.49999853515625000000e+03) (92, 1.50000000000000000000e+03) (93, -1.48833203125000000000e+03) (94, 1.50000000000000000000e+03) (95, 1.50000000000000000000e+03) (96, 1.50000000000000000000e+03) (97, 1.50000000000000000000e+03) (98, 1.50000000000000000000e+03) (99, 1.50000000000000000000e+03) (100, 1.50000000000000000000e+03) (76, 1.50000000000000000000e+03) (77, 1.50000000000000000000e+03) (78, 1.50000000000000000000e+03) (79, 6.35463378906250000000e+02) (80, 1.50000000000000000000e+03) (81, 1.50000000000000000000e+03) (82, 1.50000000000000000000e+03) (83, 1.50000000000000000000e+03) (84, 1.50000000000000000000e+03) (85, 1.50000000000000000000e+03) (86, 1.50000000000000000000e+03) (87, 1.50000000000000000000e+03) (88, 1.49999987792968750000e+03) (89, 1.50000000000000000000e+03) (90, 1.50000000000000000000e+03) (91, 1.49944555664062500000e+03) (92, 1.50000000000000000000e+03) (93, -1.44987048339843750000e+03) (94, 1.50000000000000000000e+03) (95, 1.49999987792968750000e+03) (96, 1.50000000000000000000e+03) (97, 1.50000000000000000000e+03) (98, 1.50000000000000000000e+03) (99, 1.49999987792968750000e+03) (100, 1.50000000000000000000e+03) (76, 1.50000000000000000000e+03) (77, 1.50000000000000000000e+03) (78, 1.50000000000000000000e+03) (79, 5.65430358886718750000e+02) (80, 1.50000000000000000000e+03) (81, 1.50000000000000000000e+03) (82, 1.50000000000000000000e+03) (83, 1.50000000000000000000e+03) (84, 1.50000000000000000000e+03) (85, 1.50000000000000000000e+03) (86, 1.50000000000000000000e+03) (87, 1.50000000000000000000e+03) (88, 1.49999987792968750000e+03) (89, 1.50000000000000000000e+03) (90, 1.50000000000000000000e+03) (91, 1.49989929199218750000e+03) (92, 1.50000000000000000000e+03) (93, -1.46397131347656250000e+03) (94, 1.50000000000000000000e+03) (95, 1.49999987792968750000e+03) (96, 1.50000000000000000000e+03) (97, 1.50000000000000000000e+03) (98, 1.50000000000000000000e+03) (99, 1.49999987792968750000e+03) (100, 1.50000000000000000000e+03) (76, -1.44999865722656250000e+03) (77, -1.44999926757812500000e+03) (78, -1.45002343750000000000e+03) (79, -7.04524307250976562500e+01) (80, 1.50122690200805664062e+00) (81, -1.45006726074218750000e+03) (82, -1.44999902343750000000e+03) (83, -1.44999865722656250000e+03) (84, -1.48927331542968750000e+03) (85, -1.44999926757812500000e+03) (86, -1.45051110839843750000e+03) (87, 7.82095730304718017578e-01) (88, -1.45010510253906250000e+03) (89, -1.44999926757812500000e+03) (90, -1.44999926757812500000e+03) (91, -1.41510229492187500000e+03) (92, -1.44999902343750000000e+03) (93, 1.50000000000000000000e+03) (94, -1.45000024414062500000e+03) (95, -1.44999926757812500000e+03) (96, 1.50787293910980224609e+00) (97, -1.45000024414062500000e+03) (98, -1.44999926757812500000e+03) (99, -1.44999877929687500000e+03) (100, -1.44999853515625000000e+03) (76, 1.50000000000000000000e+03) (77, 1.50000000000000000000e+03) (78, 1.50000000000000000000e+03) (79, 3.65277465820312500000e+02) (80, 1.50000000000000000000e+03) (81, 1.50000000000000000000e+03) (82, 1.50000000000000000000e+03) (83, 1.50000000000000000000e+03) (84, 1.50000000000000000000e+03) (85, 1.50000000000000000000e+03) (86, 1.50000000000000000000e+03) (87, 2.08769798278808593750e+00) (88, 1.50000000000000000000e+03) (89, 1.50000000000000000000e+03) (90, 1.50000000000000000000e+03) (91, 1.49999914550781250000e+03) (92, 1.50000000000000000000e+03) (93, -1.45352636718750000000e+03) (94, 1.50000000000000000000e+03) (95, 1.50000000000000000000e+03) (96, 1.50000000000000000000e+03) (97, 1.50000000000000000000e+03) (98, 1.50000000000000000000e+03) (99, 1.50000000000000000000e+03) (100, 4.70232337713241577148e-01) (76, 1.49999987792968750000e+03) (77, 1.49999987792968750000e+03) (78, 1.50000000000000000000e+03) (79, 2.62042785644531250000e+02) (80, 5.08582496643066406250e+00) (81, 1.49999938964843750000e+03) (82, 1.49999987792968750000e+03) (83, 1.49999987792968750000e+03) (84, 1.50000000000000000000e+03) (85, 1.49999987792968750000e+03) (86, 1.50000000000000000000e+03) (87, 8.26310575008392333984e-01) (88, 1.49999987792968750000e+03) (89, 1.49999987792968750000e+03) (90, 1.49999987792968750000e+03) (91, 1.49999963378906250000e+03) (92, 1.49999987792968750000e+03) (93, -1.45352587890625000000e+03) (94, 1.49999951171875000000e+03) (95, 1.49999951171875000000e+03) (96, 1.99641799926757812500e+00) (97, 1.49999975585937500000e+03) (98, 1.49999987792968750000e+03) (99, 1.49999987792968750000e+03) (100, 2.67336583137512207031e+00) (76, 1.50000000000000000000e+03) (77, 1.50000000000000000000e+03) (78, 1.50000000000000000000e+03) (79, 4.07217895507812500000e+02) (80, 1.50000000000000000000e+03) (81, 1.50000000000000000000e+03) (82, 1.50000000000000000000e+03) (83, 1.50000000000000000000e+03) (84, 1.50000000000000000000e+03) (85, 1.50000000000000000000e+03) (86, 1.50000000000000000000e+03) (87, 1.40676677227020263672e+00) (88, 1.50000000000000000000e+03) (89, 1.50000000000000000000e+03) (90, 1.50000000000000000000e+03) (91, 1.49999914550781250000e+03) (92, 1.50000000000000000000e+03) (93, -1.45352636718750000000e+03) (94, 1.50000000000000000000e+03) (95, 1.50000000000000000000e+03) (96, 1.50000000000000000000e+03) (97, 1.50000000000000000000e+03) (98, 1.50000000000000000000e+03) (99, 1.50000000000000000000e+03) (100, 5.00347471237182617188e+00) (76, 1.50000000000000000000e+03) (77, 1.50000000000000000000e+03) (78, 1.50000000000000000000e+03) (79, 1.05861865234375000000e+03) (80, 1.50000000000000000000e+03) (81, 1.50000000000000000000e+03) (82, 1.50000000000000000000e+03) (83, 1.50000000000000000000e+03) (84, 1.50000000000000000000e+03) (85, 1.50000000000000000000e+03) (86, 1.50000000000000000000e+03) (87, 1.50000000000000000000e+03) (88, 1.49999987792968750000e+03) (89, 1.50000000000000000000e+03) (90, 1.50000000000000000000e+03) (91, 1.49944543457031250000e+03) (92, 1.50000000000000000000e+03) (93, -1.44987023925781250000e+03) (94, 1.50000000000000000000e+03) (95, 1.49999987792968750000e+03) (96, 1.50000000000000000000e+03) (97, 1.50000000000000000000e+03) (98, 1.50000000000000000000e+03) (99, 1.49999987792968750000e+03) (100, 1.50000000000000000000e+03) (76, 1.50000000000000000000e+03) (77, 1.50000000000000000000e+03) (78, 1.50000000000000000000e+03) (79, 3.48137054443359375000e+02) (80, 1.50000000000000000000e+03) (81, 1.50000000000000000000e+03) (82, 1.50000000000000000000e+03) (83, 1.50000000000000000000e+03) (84, 1.50000000000000000000e+03) (85, 1.50000000000000000000e+03) (86, 1.50000000000000000000e+03) (87, 1.50000000000000000000e+03) (88, 1.50000000000000000000e+03) (89, 1.50000000000000000000e+03) (90, 1.50000000000000000000e+03) (91, 1.49999755859375000000e+03) (92, 1.50000000000000000000e+03) (93, -1.46396911621093750000e+03) (94, 1.49999987792968750000e+03) (95, 1.49999987792968750000e+03) (96, 1.50000000000000000000e+03) (97, 1.50000000000000000000e+03) (98, 1.50000000000000000000e+03) (99, 1.49999987792968750000e+03) (100, 1.50000000000000000000e+03) (76, 1.50000000000000000000e+03) (77, 1.50000000000000000000e+03) (78, 1.50000000000000000000e+03) (79, 1.21279930114746093750e+02) (80, 1.50000000000000000000e+03) (81, 1.50000000000000000000e+03) (82, 1.50000000000000000000e+03) (83, 1.50000000000000000000e+03) (84, 1.50000000000000000000e+03) (85, 1.50000000000000000000e+03) (86, 1.50000000000000000000e+03) (87, 1.50000000000000000000e+03) (88, 1.50000000000000000000e+03) (89, 1.50000000000000000000e+03) (90, 1.50000000000000000000e+03) (91, 1.49999914550781250000e+03) (92, 1.50000000000000000000e+03) (93, -1.45352636718750000000e+03) (94, 1.50000000000000000000e+03) (95, 1.50000000000000000000e+03) (96, 1.50000000000000000000e+03) (97, 1.50000000000000000000e+03) (98, 1.50000000000000000000e+03) (99, 1.50000000000000000000e+03) (100, 2.94476490020751953125e+01) (76, 1.50000000000000000000e+03) (77, 1.50000000000000000000e+03) (78, 1.50000000000000000000e+03) (79, 1.50000000000000000000e+03) (80, 1.50000000000000000000e+03) (81, 1.50000000000000000000e+03) (82, 1.50000000000000000000e+03) (83, 1.50000000000000000000e+03) (84, 1.50000000000000000000e+03) (85, 1.50000000000000000000e+03) (86, 1.50000000000000000000e+03) (87, 1.50000000000000000000e+03) (88, 1.50000000000000000000e+03) (89, 1.50000000000000000000e+03) (90, 1.50000000000000000000e+03) (91, 1.49999914550781250000e+03) (92, 1.50000000000000000000e+03) (93, -1.45352636718750000000e+03) (94, 1.50000000000000000000e+03) (95, 1.50000000000000000000e+03) (96, 1.50000000000000000000e+03) (97, 1.50000000000000000000e+03) (98, 1.50000000000000000000e+03) (99, 1.50000000000000000000e+03) (100, 2.11653327941894531250e+00) (76, 1.50000000000000000000e+03) (77, 1.50000000000000000000e+03) (78, 1.50000000000000000000e+03) (79, 1.04575935363769531250e+02) (80, 1.50000000000000000000e+03) (81, 1.50000000000000000000e+03) (82, 1.50000000000000000000e+03) (83, 1.50000000000000000000e+03) (84, 1.50000000000000000000e+03) (85, 1.50000000000000000000e+03) (86, 1.50000000000000000000e+03) (87, 9.44877147674560546875e-01) (88, 1.50000000000000000000e+03) (89, 1.50000000000000000000e+03) (90, 1.50000000000000000000e+03) (91, 1.49999914550781250000e+03) (92, 1.50000000000000000000e+03) (93, -1.45352636718750000000e+03) (94, 1.50000000000000000000e+03) (95, 1.50000000000000000000e+03) (96, 1.50000000000000000000e+03) (97, 1.50000000000000000000e+03) (98, 1.50000000000000000000e+03) (99, 1.50000000000000000000e+03) (100, 1.32676661014556884766e+00) (76, 1.50000000000000000000e+03) (77, 1.50000000000000000000e+03) (78, 1.50000000000000000000e+03) (79, 5.63345397949218750000e+02) (80, 1.50000000000000000000e+03) (81, 1.50000000000000000000e+03) (82, 1.50000000000000000000e+03) (83, 1.50000000000000000000e+03) (84, 1.50000000000000000000e+03) (85, 1.50000000000000000000e+03) (86, 1.50000000000000000000e+03) (87, 1.50000000000000000000e+03) (88, 1.49999987792968750000e+03) (89, 1.50000000000000000000e+03) (90, 1.50000000000000000000e+03) (91, 1.49989929199218750000e+03) (92, 1.50000000000000000000e+03) (93, -1.46390441894531250000e+03) (94, 1.50000000000000000000e+03) (95, 1.49999987792968750000e+03) (96, 1.50000000000000000000e+03) (97, 1.50000000000000000000e+03) (98, 1.50000000000000000000e+03) (99, 1.49999987792968750000e+03) (100, 1.50000000000000000000e+03) (76, 1.50000000000000000000e+03) (77, 1.50000000000000000000e+03) (78, 1.50000000000000000000e+03) (79, 8.78380203247070312500e+01) (80, 1.50000000000000000000e+03) (81, 1.50000000000000000000e+03) (82, 1.50000000000000000000e+03) (83, 1.50000000000000000000e+03) (84, 1.50000000000000000000e+03) (85, 1.50000000000000000000e+03) (86, 1.50000000000000000000e+03) (87, -2.36571931838989257812e+00) (88, 1.50000000000000000000e+03) (89, 1.50000000000000000000e+03) (90, 1.50000000000000000000e+03) (91, 1.49999914550781250000e+03) (92, 1.50000000000000000000e+03) (93, -1.45352636718750000000e+03) (94, 1.50000000000000000000e+03) (95, 1.50000000000000000000e+03) (96, 1.50000000000000000000e+03) (97, 1.50000000000000000000e+03) (98, 1.50000000000000000000e+03) (99, 1.50000000000000000000e+03) (100, 1.98881709575653076172e+00) (76, 1.50000000000000000000e+03) (77, 1.50000000000000000000e+03) (78, 1.50000000000000000000e+03) (79, 3.26865142822265625000e+02) (80, 1.50000000000000000000e+03) (81, 1.50000000000000000000e+03) (82, 1.50000000000000000000e+03) (83, 1.50000000000000000000e+03) (84, 1.50000000000000000000e+03) (85, 1.50000000000000000000e+03) (86, 1.50000000000000000000e+03) (87, 1.50000000000000000000e+03) (88, 1.50000000000000000000e+03) (89, 1.50000000000000000000e+03) (90, 1.50000000000000000000e+03) (91, 1.49999719238281250000e+03) (92, 1.50000000000000000000e+03) (93, -1.46998742675781250000e+03) (94, 1.50000000000000000000e+03) (95, 1.50000000000000000000e+03) (96, 1.50000000000000000000e+03) (97, 1.50000000000000000000e+03) (98, 1.50000000000000000000e+03) (99, 1.50000000000000000000e+03) (100, 1.50000000000000000000e+03) (76, 1.50000000000000000000e+03) (77, 1.50000000000000000000e+03) (78, 1.50000000000000000000e+03) (79, 5.63172485351562500000e+02) (80, 1.50000000000000000000e+03) (81, 1.50000000000000000000e+03) (82, 1.50000000000000000000e+03) (83, 1.50000000000000000000e+03) (84, 1.50000000000000000000e+03) (85, 1.50000000000000000000e+03) (86, 1.50000000000000000000e+03) (87, 1.50000000000000000000e+03) (88, 1.49999987792968750000e+03) (89, 1.50000000000000000000e+03) (90, 1.50000000000000000000e+03) (91, 1.49989929199218750000e+03) (92, 1.50000000000000000000e+03) (93, -1.46397131347656250000e+03) (94, 1.50000000000000000000e+03) (95, 1.49999987792968750000e+03) (96, 1.50000000000000000000e+03) (97, 1.50000000000000000000e+03) (98, 1.50000000000000000000e+03) (99, 1.49999987792968750000e+03) (100, 1.50000000000000000000e+03) (76, 1.50000000000000000000e+03) (77, 1.50000000000000000000e+03) (78, 1.50000000000000000000e+03) (79, 5.62498474121093750000e+02) (80, 1.50000000000000000000e+03) (81, 1.50000000000000000000e+03) (82, 1.50000000000000000000e+03) (83, 1.50000000000000000000e+03) (84, 1.50000000000000000000e+03) (85, 1.50000000000000000000e+03) (86, 1.50000000000000000000e+03) (87, 1.50000000000000000000e+03) (88, 1.49999987792968750000e+03) (89, 1.50000000000000000000e+03) (90, 1.50000000000000000000e+03) (91, 1.49989929199218750000e+03) (92, 1.50000000000000000000e+03) (93, -1.46397143554687500000e+03) (94, 1.50000000000000000000e+03) (95, 1.49999987792968750000e+03) (96, 1.50000000000000000000e+03) (97, 1.50000000000000000000e+03) (98, 1.50000000000000000000e+03) (99, 1.49999987792968750000e+03) (100, 1.50000000000000000000e+03) (76, 1.50000000000000000000e+03) (77, 1.50000000000000000000e+03) (78, 1.50000000000000000000e+03) (79, 1.05813781738281250000e+03) (80, 1.50000000000000000000e+03) (81, 1.50000000000000000000e+03) (82, 1.50000000000000000000e+03) (83, 1.50000000000000000000e+03) (84, 1.50000000000000000000e+03) (85, 1.50000000000000000000e+03) (86, 1.50000000000000000000e+03) (87, 1.50000000000000000000e+03) (88, 1.49999987792968750000e+03) (89, 1.50000000000000000000e+03) (90, 1.50000000000000000000e+03) (91, 1.49944543457031250000e+03) (92, 1.50000000000000000000e+03) (93, -1.44987036132812500000e+03) (94, 1.50000000000000000000e+03) (95, 1.49999987792968750000e+03) (96, 1.50000000000000000000e+03) (97, 1.50000000000000000000e+03) (98, 1.50000000000000000000e+03) (99, 1.49999987792968750000e+03) (100, 1.50000000000000000000e+03) (76, 1.50000000000000000000e+03) (77, 1.50000000000000000000e+03) (78, 1.50000000000000000000e+03) (79, 5.65097839355468750000e+02) (80, 1.50000000000000000000e+03) (81, 1.50000000000000000000e+03) (82, 1.50000000000000000000e+03) (83, 1.50000000000000000000e+03) (84, 1.50000000000000000000e+03) (85, 1.50000000000000000000e+03) (86, 1.50000000000000000000e+03) (87, 1.50000000000000000000e+03) (88, 1.49999987792968750000e+03) (89, 1.50000000000000000000e+03) (90, 1.50000000000000000000e+03) (91, 1.49989929199218750000e+03) (92, 1.50000000000000000000e+03) (93, -1.46390429687500000000e+03) (94, 1.50000000000000000000e+03) (95, 1.49999987792968750000e+03) (96, 1.50000000000000000000e+03) (97, 1.50000000000000000000e+03) (98, 1.50000000000000000000e+03) (99, 1.49999987792968750000e+03) (100, 1.50000000000000000000e+03) (76, 1.50000000000000000000e+03) (77, 1.50000000000000000000e+03) (78, 1.50000000000000000000e+03) (79, 1.05806933593750000000e+03) (80, 1.50000000000000000000e+03) (81, 1.50000000000000000000e+03) (82, 1.50000000000000000000e+03) (83, 1.50000000000000000000e+03) (84, 1.50000000000000000000e+03) (85, 1.50000000000000000000e+03) (86, 1.50000000000000000000e+03) (87, 1.50000000000000000000e+03) (88, 1.49999987792968750000e+03) (89, 1.50000000000000000000e+03) (90, 1.50000000000000000000e+03) (91, 1.49944543457031250000e+03) (92, 1.50000000000000000000e+03) (93, -1.44987036132812500000e+03) (94, 1.50000000000000000000e+03) (95, 1.49999987792968750000e+03) (96, 1.50000000000000000000e+03) (97, 1.50000000000000000000e+03) (98, 1.50000000000000000000e+03) (99, 1.49999987792968750000e+03) (100, 1.50000000000000000000e+03) (76, -1.45000000000000000000e+03) (77, -1.45000000000000000000e+03) (78, -1.45002392578125000000e+03) (79, -1.46760034179687500000e+03) (80, -1.45000000000000000000e+03) (81, -1.45006713867187500000e+03) (82, -1.45000000000000000000e+03) (83, -1.45000000000000000000e+03) (84, -1.48927380371093750000e+03) (85, -1.45000000000000000000e+03) (86, -1.45050964355468750000e+03) (87, -1.45000000000000000000e+03) (88, -1.45010534667968750000e+03) (89, -1.45000000000000000000e+03) (90, -1.45000000000000000000e+03) (91, -1.41510388183593750000e+03) (92, -1.45000000000000000000e+03) (93, 1.50000000000000000000e+03) (94, -1.45000000000000000000e+03) (95, -1.45000000000000000000e+03) (96, -1.45000000000000000000e+03) (97, -1.45000000000000000000e+03) (98, -1.45000000000000000000e+03) (99, -1.45000000000000000000e+03) (100, -1.45000000000000000000e+03) (76, 1.50000000000000000000e+03) (77, 1.50000000000000000000e+03) (78, 1.50000000000000000000e+03) (79, 1.05807995605468750000e+03) (80, 1.50000000000000000000e+03) (81, 1.50000000000000000000e+03) (82, 1.50000000000000000000e+03) (83, 1.50000000000000000000e+03) (84, 1.50000000000000000000e+03) (85, 1.50000000000000000000e+03) (86, 1.50000000000000000000e+03) (87, 1.50000000000000000000e+03) (88, 1.49999987792968750000e+03) (89, 1.50000000000000000000e+03) (90, 1.50000000000000000000e+03) (91, 1.49944543457031250000e+03) (92, 1.50000000000000000000e+03) (93, -1.44987036132812500000e+03) (94, 1.50000000000000000000e+03) (95, 1.49999987792968750000e+03) (96, 1.50000000000000000000e+03) (97, 1.50000000000000000000e+03) (98, 1.50000000000000000000e+03) (99, 1.49999987792968750000e+03) (100, 1.50000000000000000000e+03) (101, -1.47184814453125000000e+03) (102, -1.49439184570312500000e+03) (103, -1.47190393066406250000e+03) (104, -1.27259545898437500000e+03) (105, -1.14863073730468750000e+03) (106, -1.41895312500000000000e+03) (107, -7.19929626464843750000e+02) (108, 1.46887390136718750000e+03) (109, -4.82355316162109375000e+02) (110, -1.47184814453125000000e+03) (111, -1.40698937988281250000e+03) (112, -1.48588562011718750000e+03) (113, -9.58318420410156250000e+02) (114, -9.58320983886718750000e+02) (115, -1.14863708496093750000e+03) (116, -9.58320983886718750000e+02) (117, -1.45532702636718750000e+03) (118, -1.14863708496093750000e+03) (119, -1.14863708496093750000e+03) (120, -1.47184814453125000000e+03) (121, -1.14863073730468750000e+03) (122, -1.47184814453125000000e+03) (123, 1.49999316406250000000e+03) (124, -1.47184814453125000000e+03) (125, -1.10639465332031250000e+03) (101, 1.49999279785156250000e+03) (102, 1.49999316406250000000e+03) (103, 1.49999279785156250000e+03) (104, 1.41070471191406250000e+03) (105, 1.32900817871093750000e+03) (106, 1.48658630371093750000e+03) (107, 8.99122985839843750000e+02) (108, -1.40564318847656250000e+03) (109, 6.59605041503906250000e+02) (110, 1.49999279785156250000e+03) (111, 1.48976953125000000000e+03) (112, 1.49999316406250000000e+03) (113, 1.13863146972656250000e+03) (114, 1.13863452148437500000e+03) (115, 1.32902136230468750000e+03) (116, 1.13863452148437500000e+03) (117, 1.48994555664062500000e+03) (118, 1.32902136230468750000e+03) (119, 1.32902136230468750000e+03) (120, 1.49999279785156250000e+03) (121, 1.32900817871093750000e+03) (122, 1.49999279785156250000e+03) (123, -1.36620690917968750000e+03) (124, 1.49999279785156250000e+03) (125, 1.32916906738281250000e+03) (101, 1.49999279785156250000e+03) (102, 1.49999316406250000000e+03) (103, 1.49999279785156250000e+03) (104, 1.41070471191406250000e+03) (105, 1.32900817871093750000e+03) (106, 1.48658630371093750000e+03) (107, 8.99122985839843750000e+02) (108, -1.40564318847656250000e+03) (109, 6.59605041503906250000e+02) (110, 1.49999279785156250000e+03) (111, 1.48976953125000000000e+03) (112, 1.49999316406250000000e+03) (113, 1.13863146972656250000e+03) (114, 1.13863452148437500000e+03) (115, 1.32902136230468750000e+03) (116, 1.13863452148437500000e+03) (117, 1.48994555664062500000e+03) (118, 1.32902136230468750000e+03) (119, 1.32902136230468750000e+03) (120, 1.49999279785156250000e+03) (121, 1.32900817871093750000e+03) (122, 1.49999279785156250000e+03) (123, -1.36620690917968750000e+03) (124, 1.49999279785156250000e+03) (125, 1.32953649902343750000e+03) (101, 1.49999279785156250000e+03) (102, 1.49999316406250000000e+03) (103, 1.49999279785156250000e+03) (104, 1.41070471191406250000e+03) (105, 1.32900817871093750000e+03) (106, 1.48658630371093750000e+03) (107, 8.99122985839843750000e+02) (108, -1.40564318847656250000e+03) (109, 6.59605041503906250000e+02) (110, 1.49999279785156250000e+03) (111, 1.48976953125000000000e+03) (112, 1.49999316406250000000e+03) (113, 1.13863146972656250000e+03) (114, 1.13863452148437500000e+03) (115, 1.32902136230468750000e+03) (116, 1.13863452148437500000e+03) (117, 1.48994555664062500000e+03) (118, 1.32902136230468750000e+03) (119, 1.32902136230468750000e+03) (120, 1.49999279785156250000e+03) (121, 1.32900817871093750000e+03) (122, 1.49999279785156250000e+03) (123, -1.36620690917968750000e+03) (124, 1.49999279785156250000e+03) (125, 1.32857873535156250000e+03) (101, -1.47184814453125000000e+03) (102, -1.49439184570312500000e+03) (103, -1.47190393066406250000e+03) (104, -1.27259545898437500000e+03) (105, -1.14863073730468750000e+03) (106, -1.41895312500000000000e+03) (107, -7.19929626464843750000e+02) (108, 1.46887390136718750000e+03) (109, -4.82355316162109375000e+02) (110, -1.47184814453125000000e+03) (111, -1.40698937988281250000e+03) (112, -1.48588562011718750000e+03) (113, -9.58318420410156250000e+02) (114, -9.58320983886718750000e+02) (115, -1.14863708496093750000e+03) (116, -9.58320983886718750000e+02) (117, -1.45532702636718750000e+03) (118, -1.14863708496093750000e+03) (119, -1.14863708496093750000e+03) (120, -1.47184814453125000000e+03) (121, -1.14863073730468750000e+03) (122, -1.47184814453125000000e+03) (123, 1.49999316406250000000e+03) (124, -1.47184814453125000000e+03) (125, -1.10720275878906250000e+03) (101, -1.47184814453125000000e+03) (102, -1.49439184570312500000e+03) (103, -1.47190393066406250000e+03) (104, -1.27259545898437500000e+03) (105, -1.14863073730468750000e+03) (106, -1.41895312500000000000e+03) (107, -7.19929626464843750000e+02) (108, 1.46887390136718750000e+03) (109, -4.82355316162109375000e+02) (110, -1.47184814453125000000e+03) (111, -1.40698937988281250000e+03) (112, -1.48588562011718750000e+03) (113, 