FANN_FLO_2.1
num_layers=20
learning_rate=0.700000
connection_rate=1.000000
network_type=0
learning_momentum=0.000000
training_algorithm=2
train_error_function=1
train_stop_function=1
cascade_output_change_fraction=0.010000
quickprop_decay=-0.000100
quickprop_mu=1.750000
rprop_increase_factor=1.200000
rprop_decrease_factor=0.500000
rprop_delta_min=0.000000
rprop_delta_max=50.000000
rprop_delta_zero=0.100000
cascade_output_stagnation_epochs=12
cascade_candidate_change_fraction=0.010000
cascade_candidate_stagnation_epochs=12
cascade_max_out_epochs=150
cascade_min_out_epochs=50
cascade_max_cand_epochs=150
cascade_min_cand_epochs=50
cascade_num_candidate_groups=2
bit_fail_limit=9.99999977648258209229e-03
cascade_candidate_limit=1.00000000000000000000e+03
cascade_weight_multiplier=4.00000005960464477539e-01
cascade_activation_functions_count=10
cascade_activation_functions=3 5 7 8 10 11 14 15 16 17 
cascade_activation_steepnesses_count=4
cascade_activation_steepnesses=2.50000000000000000000e-01 5.00000000000000000000e-01 7.50000000000000000000e-01 1.00000000000000000000e+00 
layer_sizes=9 17 25 25 25 25 25 25 25 25 25 25 25 25 25 25 25 25 17 9 
scale_included=0
neurons (num_inputs, activation_function, activation_steepness)=(0, 0, 0.00000000000000000000e+00) (0, 0, 0.00000000000000000000e+00) (0, 0, 0.00000000000000000000e+00) (0, 0, 0.00000000000000000000e+00) (0, 0, 0.00000000000000000000e+00) (0, 0, 0.00000000000000000000e+00) (0, 0, 0.00000000000000000000e+00) (0, 0, 0.00000000000000000000e+00) (0, 0, 0.00000000000000000000e+00) (9, 5, 1.00000000000000000000e+00) (9, 5, 1.00000000000000000000e+00) (9, 5, 1.00000000000000000000e+00) (9, 5, 1.00000000000000000000e+00) (9, 5, 1.00000000000000000000e+00) (9, 5, 1.00000000000000000000e+00) (9, 5, 1.00000000000000000000e+00) (9, 5, 1.00000000000000000000e+00) (9, 5, 1.00000000000000000000e+00) (9, 5, 1.00000000000000000000e+00) (9, 5, 1.00000000000000000000e+00) (9, 5, 1.00000000000000000000e+00) (9, 5, 1.00000000000000000000e+00) (9, 5, 1.00000000000000000000e+00) (9, 5, 1.00000000000000000000e+00) (9, 5, 1.00000000000000000000e+00) (0, 5, 1.00000000000000000000e+00) (17, 5, 1.00000000000000000000e+00) (17, 5, 1.00000000000000000000e+00) (17, 5, 1.00000000000000000000e+00) (17, 5, 1.00000000000000000000e+00) (17, 5, 1.00000000000000000000e+00) (17, 5, 1.00000000000000000000e+00) (17, 5, 1.00000000000000000000e+00) (17, 5, 1.00000000000000000000e+00) (17, 5, 1.00000000000000000000e+00) (17, 5, 1.00000000000000000000e+00) (17, 5, 1.00000000000000000000e+00) (17, 5, 1.00000000000000000000e+00) (17, 5, 1.00000000000000000000e+00) (17, 5, 1.00000000000000000000e+00) (17, 5, 1.00000000000000000000e+00) (17, 5, 1.00000000000000000000e+00) (17, 5, 1.00000000000000000000e+00) (17, 5, 1.00000000000000000000e+00) (17, 5, 1.00000000000000000000e+00) (17, 5, 1.00000000000000000000e+00) (17, 5, 1.00000000000000000000e+00) (17, 5, 1.00000000000000000000e+00) (17, 5, 1.00000000000000000000e+00) (17, 5, 1.00000000000000000000e+00) (0, 5, 1.00000000000000000000e+00) (25, 5, 1.00000000000000000000e+00) (25, 5, 1.00000000000000000000e+00) (25, 5, 1.00000000000000000000e+00) (25, 5, 1.00000000000000000000e+00) (25, 5, 1.00000000000000000000e+00) (25, 5, 1.00000000000000000000e+00) (25, 5, 1.00000000000000000000e+00) (25, 5, 1.00000000000000000000e+00) (25, 5, 1.00000000000000000000e+00) (25, 5, 1.00000000000000000000e+00) (25, 5, 1.00000000000000000000e+00) (25, 5, 1.00000000000000000000e+00) (25, 5, 1.00000000000000000000e+00) (25, 5, 1.00000000000000000000e+00) (25, 5, 1.00000000000000000000e+00) (25, 5, 1.00000000000000000000e+00) (25, 5, 1.00000000000000000000e+00) (25, 5, 1.00000000000000000000e+00) (25, 5, 1.00000000000000000000e+00) (25, 5, 1.00000000000000000000e+00) (25, 5, 1.00000000000000000000e+00) (25, 5, 1.00000000000000000000e+00) (25, 5, 1.00000000000000000000e+00) (25, 5, 1.00000000000000000000e+00) (0, 5, 1.00000000000000000000e+00) (25, 5, 1.00000000000000000000e+00) (25, 5, 1.00000000000000000000e+00) (25, 5, 1.00000000000000000000e+00) (25, 5, 1.00000000000000000000e+00) (25, 5, 1.00000000000000000000e+00) (25, 5, 1.00000000000000000000e+00) (25, 5, 1.00000000000000000000e+00) (25, 5, 1.00000000000000000000e+00) (25, 5, 1.00000000000000000000e+00) (25, 5, 1.00000000000000000000e+00) (25, 5, 1.00000000000000000000e+00) (25, 5, 1.00000000000000000000e+00) (25, 5, 1.00000000000000000000e+00) (25, 5, 1.00000000000000000000e+00) (25, 5, 1.00000000000000000000e+00) (25, 5, 1.00000000000000000000e+00) (25, 5, 1.00000000000000000000e+00) (25, 5, 1.00000000000000000000e+00) (25, 5, 1.00000000000000000000e+00) (25, 5, 1.00000000000000000000e+00) (25, 5, 1.00000000000000000000e+00) (25, 5, 1.00000000000000000000e+00) (25, 5, 1.00000000000000000000e+00) (25, 5, 1.00000000000000000000e+00) (0, 5, 1.00000000000000000000e+00) (25, 5, 1.00000000000000000000e+00) (25, 5, 1.00000000000000000000e+00) (25, 5, 1.00000000000000000000e+00) (25, 5, 1.00000000000000000000e+00) (25, 5, 1.00000000000000000000e+00) (25, 5, 1.00000000000000000000e+00) (25, 5, 1.00000000000000000000e+00) (25, 5, 1.00000000000000000000e+00) (25, 5, 1.00000000000000000000e+00) (25, 5, 1.00000000000000000000e+00) (25, 5, 1.00000000000000000000e+00) (25, 5, 1.00000000000000000000e+00) (25, 5, 1.00000000000000000000e+00) (25, 5, 1.00000000000000000000e+00) (25, 5, 1.00000000000000000000e+00) (25, 5, 1.00000000000000000000e+00) (25, 5, 1.00000000000000000000e+00) (25, 5, 1.00000000000000000000e+00) (25, 5, 1.00000000000000000000e+00) (25, 5, 1.00000000000000000000e+00) (25, 5, 1.00000000000000000000e+00) (25, 5, 1.00000000000000000000e+00) (25, 5, 1.00000000000000000000e+00) (25, 5, 1.00000000000000000000e+00) (0, 5, 1.00000000000000000000e+00) (25, 5, 1.00000000000000000000e+00) (25, 5, 1.00000000000000000000e+00) (25, 5, 1.00000000000000000000e+00) (25, 5, 1.00000000000000000000e+00) (25, 5, 1.00000000000000000000e+00) (25, 5, 1.00000000000000000000e+00) (25, 5, 1.00000000000000000000e+00) (25, 5, 1.00000000000000000000e+00) (25, 5, 1.00000000000000000000e+00) (25, 5, 1.00000000000000000000e+00) (25, 5, 1.00000000000000000000e+00) (25, 5, 1.00000000000000000000e+00) (25, 5, 1.00000000000000000000e+00) (25, 5, 1.00000000000000000000e+00) (25, 5, 1.00000000000000000000e+00) (25, 5, 1.00000000000000000000e+00) (25, 5, 1.00000000000000000000e+00) (25, 5, 1.00000000000000000000e+00) (25, 5, 1.00000000000000000000e+00) (25, 5, 1.00000000000000000000e+00) (25, 5, 1.00000000000000000000e+00) (25, 5, 1.00000000000000000000e+00) (25, 5, 1.00000000000000000000e+00) (25, 5, 1.00000000000000000000e+00) (0, 5, 1.00000000000000000000e+00) (25, 5, 1.00000000000000000000e+00) (25, 5, 1.00000000000000000000e+00) (25, 5, 1.00000000000000000000e+00) (25, 5, 1.00000000000000000000e+00) (25, 5, 1.00000000000000000000e+00) (25, 5, 1.00000000000000000000e+00) (25, 5, 1.00000000000000000000e+00) (25, 5, 1.00000000000000000000e+00) (25, 5, 1.00000000000000000000e+00) (25, 5, 1.00000000000000000000e+00) (25, 5, 1.00000000000000000000e+00) (25, 5, 1.00000000000000000000e+00) (25, 5, 1.00000000000000000000e+00) (25, 5, 1.00000000000000000000e+00) (25, 5, 1.00000000000000000000e+00) (25, 5, 1.00000000000000000000e+00) (25, 5, 1.00000000000000000000e+00) (25, 5, 1.00000000000000000000e+00) (25, 5, 1.00000000000000000000e+00) (25, 5, 1.00000000000000000000e+00) (25, 5, 1.00000000000000000000e+00) (25, 5, 1.00000000000000000000e+00) (25, 5, 1.00000000000000000000e+00) (25, 5, 1.00000000000000000000e+00) (0, 5, 1.00000000000000000000e+00) (25, 5, 1.00000000000000000000e+00) (25, 5, 1.00000000000000000000e+00) (25, 5, 1.00000000000000000000e+00) (25, 5, 1.00000000000000000000e+00) (25, 5, 1.00000000000000000000e+00) (25, 5, 1.00000000000000000000e+00) (25, 5, 1.00000000000000000000e+00) (25, 5, 1.00000000000000000000e+00) (25, 5, 1.00000000000000000000e+00) (25, 5, 1.00000000000000000000e+00) (25, 5, 1.00000000000000000000e+00) (25, 5, 1.00000000000000000000e+00) (25, 5, 1.00000000000000000000e+00) (25, 5, 1.00000000000000000000e+00) (25, 5, 1.00000000000000000000e+00) (25, 5, 1.00000000000000000000e+00) (25, 5, 1.00000000000000000000e+00) (25, 5, 1.00000000000000000000e+00) (25, 5, 1.00000000000000000000e+00) (25, 5, 1.00000000000000000000e+00) (25, 5, 1.00000000000000000000e+00) (25, 5, 1.00000000000000000000e+00) (25, 5, 1.00000000000000000000e+00) (25, 5, 1.00000000000000000000e+00) (0, 5, 1.00000000000000000000e+00) (25, 5, 1.00000000000000000000e+00) (25, 5, 1.00000000000000000000e+00) (25, 5, 1.00000000000000000000e+00) (25, 5, 1.00000000000000000000e+00) (25, 5, 1.00000000000000000000e+00) (25, 5, 1.00000000000000000000e+00) (25, 5, 1.00000000000000000000e+00) (25, 5, 1.00000000000000000000e+00) (25, 5, 1.00000000000000000000e+00) (25, 5, 1.00000000000000000000e+00) (25, 5, 1.00000000000000000000e+00) (25, 5, 1.00000000000000000000e+00) (25, 5, 1.00000000000000000000e+00) (25, 5, 1.00000000000000000000e+00) (25, 5, 1.00000000000000000000e+00) (25, 5, 1.00000000000000000000e+00) (25, 5, 1.00000000000000000000e+00) (25, 5, 1.00000000000000000000e+00) (25, 5, 1.00000000000000000000e+00) (25, 5, 1.00000000000000000000e+00) (25, 5, 1.00000000000000000000e+00) (25, 5, 1.00000000000000000000e+00) (25, 5, 1.00000000000000000000e+00) (25, 5, 1.00000000000000000000e+00) (0, 5, 1.00000000000000000000e+00) (25, 5, 1.00000000000000000000e+00) (25, 5, 1.00000000000000000000e+00) (25, 5, 1.00000000000000000000e+00) (25, 5, 1.00000000000000000000e+00) (25, 5, 1.00000000000000000000e+00) (25, 5, 1.00000000000000000000e+00) (25, 5, 1.00000000000000000000e+00) (25, 5, 1.00000000000000000000e+00) (25, 5, 1.00000000000000000000e+00) (25, 5, 1.00000000000000000000e+00) (25, 5, 1.00000000000000000000e+00) (25, 5, 1.00000000000000000000e+00) (25, 5, 1.00000000000000000000e+00) (25, 5, 1.00000000000000000000e+00) (25, 5, 1.00000000000000000000e+00) (25, 5, 1.00000000000000000000e+00) (25, 5, 1.00000000000000000000e+00) (25, 5, 1.00000000000000000000e+00) (25, 5, 1.00000000000000000000e+00) (25, 5, 1.00000000000000000000e+00) (25, 5, 1.00000000000000000000e+00) (25, 5, 1.00000000000000000000e+00) (25, 5, 1.00000000000000000000e+00) (25, 5, 1.00000000000000000000e+00) (0, 5, 1.00000000000000000000e+00) (25, 5, 1.00000000000000000000e+00) (25, 5, 1.00000000000000000000e+00) (25, 5, 1.00000000000000000000e+00) (25, 5, 1.00000000000000000000e+00) (25, 5, 1.00000000000000000000e+00) (25, 5, 1.00000000000000000000e+00) (25, 5, 1.00000000000000000000e+00) (25, 5, 1.00000000000000000000e+00) (25, 5, 1.00000000000000000000e+00) (25, 5, 1.00000000000000000000e+00) (25, 5, 1.00000000000000000000e+00) (25, 5, 1.00000000000000000000e+00) (25, 5, 1.00000000000000000000e+00) (25, 5, 1.00000000000000000000e+00) (25, 5, 1.00000000000000000000e+00) (25, 5, 1.00000000000000000000e+00) (25, 5, 1.00000000000000000000e+00) (25, 5, 1.00000000000000000000e+00) (25, 5, 1.00000000000000000000e+00) (25, 5, 1.00000000000000000000e+00) (25, 5, 1.00000000000000000000e+00) (25, 5, 1.00000000000000000000e+00) (25, 5, 1.00000000000000000000e+00) (25, 5, 1.00000000000000000000e+00) (0, 5, 1.00000000000000000000e+00) (25, 5, 1.00000000000000000000e+00) (25, 5, 1.00000000000000000000e+00) (25, 5, 1.00000000000000000000e+00) (25, 5, 1.00000000000000000000e+00) (25, 5, 1.00000000000000000000e+00) (25, 5, 1.00000000000000000000e+00) (25, 5, 1.00000000000000000000e+00) (25, 5, 1.00000000000000000000e+00) (25, 5, 1.00000000000000000000e+00) (25, 5, 1.00000000000000000000e+00) (25, 5, 1.00000000000000000000e+00) (25, 5, 1.00000000000000000000e+00) (25, 5, 1.00000000000000000000e+00) (25, 5, 1.00000000000000000000e+00) (25, 5, 1.00000000000000000000e+00) (25, 5, 1.00000000000000000000e+00) (25, 5, 1.00000000000000000000e+00) (25, 5, 1.00000000000000000000e+00) (25, 5, 1.00000000000000000000e+00) (25, 5, 1.00000000000000000000e+00) (25, 5, 1.00000000000000000000e+00) (25, 5, 1.00000000000000000000e+00) (25, 5, 1.00000000000000000000e+00) (25, 5, 1.00000000000000000000e+00) (0, 5, 1.00000000000000000000e+00) (25, 5, 1.00000000000000000000e+00) (25, 5, 1.00000000000000000000e+00) (25, 5, 1.00000000000000000000e+00) (25, 5, 1.00000000000000000000e+00) (25, 5, 1.00000000000000000000e+00) (25, 5, 1.00000000000000000000e+00) (25, 5, 1.00000000000000000000e+00) (25, 5, 1.00000000000000000000e+00) (25, 5, 1.00000000000000000000e+00) (25, 5, 1.00000000000000000000e+00) (25, 5, 1.00000000000000000000e+00) (25, 5, 1.00000000000000000000e+00) (25, 5, 1.00000000000000000000e+00) (25, 5, 1.00000000000000000000e+00) (25, 5, 1.00000000000000000000e+00) (25, 5, 1.00000000000000000000e+00) (25, 5, 1.00000000000000000000e+00) (25, 5, 1.00000000000000000000e+00) (25, 5, 1.00000000000000000000e+00) (25, 5, 1.00000000000000000000e+00) (25, 5, 1.00000000000000000000e+00) (25, 5, 1.00000000000000000000e+00) (25, 5, 1.00000000000000000000e+00) (25, 5, 1.00000000000000000000e+00) (0, 5, 1.00000000000000000000e+00) (25, 5, 1.00000000000000000000e+00) (25, 5, 1.00000000000000000000e+00) (25, 5, 1.00000000000000000000e+00) (25, 5, 1.00000000000000000000e+00) (25, 5, 1.00000000000000000000e+00) (25, 5, 1.00000000000000000000e+00) (25, 5, 1.00000000000000000000e+00) (25, 5, 1.00000000000000000000e+00) (25, 5, 1.00000000000000000000e+00) (25, 5, 1.00000000000000000000e+00) (25, 5, 1.00000000000000000000e+00) (25, 5, 1.00000000000000000000e+00) (25, 5, 1.00000000000000000000e+00) (25, 5, 1.00000000000000000000e+00) (25, 5, 1.00000000000000000000e+00) (25, 5, 1.00000000000000000000e+00) (25, 5, 1.00000000000000000000e+00) (25, 5, 1.00000000000000000000e+00) (25, 5, 1.00000000000000000000e+00) (25, 5, 1.00000000000000000000e+00) (25, 5, 1.00000000000000000000e+00) (25, 5, 1.00000000000000000000e+00) (25, 5, 1.00000000000000000000e+00) (25, 5, 1.00000000000000000000e+00) (0, 5, 1.00000000000000000000e+00) (25, 5, 1.00000000000000000000e+00) (25, 5, 1.00000000000000000000e+00) (25, 5, 1.00000000000000000000e+00) (25, 5, 1.00000000000000000000e+00) (25, 5, 1.00000000000000000000e+00) (25, 5, 1.00000000000000000000e+00) (25, 5, 1.00000000000000000000e+00) (25, 5, 1.00000000000000000000e+00) (25, 5, 1.00000000000000000000e+00) (25, 5, 1.00000000000000000000e+00) (25, 5, 1.00000000000000000000e+00) (25, 5, 1.00000000000000000000e+00) (25, 5, 1.00000000000000000000e+00) (25, 5, 1.00000000000000000000e+00) (25, 5, 1.00000000000000000000e+00) (25, 5, 1.00000000000000000000e+00) (25, 5, 1.00000000000000000000e+00) (25, 5, 1.00000000000000000000e+00) (25, 5, 1.00000000000000000000e+00) (25, 5, 1.00000000000000000000e+00) (25, 5, 1.00000000000000000000e+00) (25, 5, 1.00000000000000000000e+00) (25, 5, 1.00000000000000000000e+00) (25, 5, 1.00000000000000000000e+00) (0, 5, 1.00000000000000000000e+00) (25, 5, 1.00000000000000000000e+00) (25, 5, 1.00000000000000000000e+00) (25, 5, 1.00000000000000000000e+00) (25, 5, 1.00000000000000000000e+00) (25, 5, 1.00000000000000000000e+00) (25, 5, 1.00000000000000000000e+00) (25, 5, 1.00000000000000000000e+00) (25, 5, 1.00000000000000000000e+00) (25, 5, 1.00000000000000000000e+00) (25, 5, 1.00000000000000000000e+00) (25, 5, 1.00000000000000000000e+00) (25, 5, 1.00000000000000000000e+00) (25, 5, 1.00000000000000000000e+00) (25, 5, 1.00000000000000000000e+00) (25, 5, 1.00000000000000000000e+00) (25, 5, 1.00000000000000000000e+00) (25, 5, 1.00000000000000000000e+00) (25, 5, 1.00000000000000000000e+00) (25, 5, 1.00000000000000000000e+00) (25, 5, 1.00000000000000000000e+00) (25, 5, 1.00000000000000000000e+00) (25, 5, 1.00000000000000000000e+00) (25, 5, 1.00000000000000000000e+00) (25, 5, 1.00000000000000000000e+00) (0, 5, 1.00000000000000000000e+00) (25, 5, 1.00000000000000000000e+00) (25, 5, 1.00000000000000000000e+00) (25, 5, 1.00000000000000000000e+00) (25, 5, 1.00000000000000000000e+00) (25, 5, 1.00000000000000000000e+00) (25, 5, 1.00000000000000000000e+00) (25, 5, 1.00000000000000000000e+00) (25, 5, 1.00000000000000000000e+00) (25, 5, 1.00000000000000000000e+00) (25, 5, 1.00000000000000000000e+00) (25, 5, 1.00000000000000000000e+00) (25, 5, 1.00000000000000000000e+00) (25, 5, 1.00000000000000000000e+00) (25, 5, 1.00000000000000000000e+00) (25, 5, 1.00000000000000000000e+00) (25, 5, 1.00000000000000000000e+00) (25, 5, 1.00000000000000000000e+00) (25, 5, 1.00000000000000000000e+00) (25, 5, 1.00000000000000000000e+00) (25, 5, 1.00000000000000000000e+00) (25, 5, 1.00000000000000000000e+00) (25, 5, 1.00000000000000000000e+00) (25, 5, 1.00000000000000000000e+00) (25, 5, 1.00000000000000000000e+00) (0, 5, 1.00000000000000000000e+00) (25, 5, 1.00000000000000000000e+00) (25, 5, 1.00000000000000000000e+00) (25, 5, 1.00000000000000000000e+00) (25, 5, 1.00000000000000000000e+00) (25, 5, 1.00000000000000000000e+00) (25, 5, 1.00000000000000000000e+00) (25, 5, 1.00000000000000000000e+00) (25, 5, 1.00000000000000000000e+00) (25, 5, 1.00000000000000000000e+00) (25, 5, 1.00000000000000000000e+00) (25, 5, 1.00000000000000000000e+00) (25, 5, 1.00000000000000000000e+00) (25, 5, 1.00000000000000000000e+00) (25, 5, 1.00000000000000000000e+00) (25, 5, 1.00000000000000000000e+00) (25, 5, 1.00000000000000000000e+00) (0, 5, 1.00000000000000000000e+00) (17, 5, 1.00000000000000000000e+00) (17, 5, 1.00000000000000000000e+00) (17, 5, 1.00000000000000000000e+00) (17, 5, 1.00000000000000000000e+00) (17, 5, 1.00000000000000000000e+00) (17, 5, 1.00000000000000000000e+00) (17, 5, 1.00000000000000000000e+00) (17, 5, 1.00000000000000000000e+00) (0, 5, 1.00000000000000000000e+00) 
connections (connected_to_neuron, weight)=(0, 1.93319559097290039062e+00) (1, 1.07596683502197265625e+00) (2, 7.12628483772277832031e-01) (3, -4.23056453466415405273e-01) (4, 7.55157053470611572266e-01) (5, 1.50894379615783691406e+00) (6, 2.73471426963806152344e+00) (7, 2.44993591308593750000e+00) (8, -9.35657441616058349609e-01) (0, -7.53590762615203857422e-01) (1, 1.75663363933563232422e+00) (2, 9.16214406490325927734e-01) (3, 5.44589877128601074219e-01) (4, 4.51761126518249511719e-01) (5, 1.86890971660614013672e+00) (6, 3.98865675926208496094e+00) (7, 2.86870568990707397461e-01) (8, -2.08808511495590209961e-01) (0, 1.25192916393280029297e+00) (1, 5.38700342178344726562e-01) (2, 8.65025818347930908203e-01) (3, 1.56927144527435302734e+00) (4, 8.61327767372131347656e-01) (5, 9.44543421268463134766e-01) (6, 2.76417541503906250000e+00) (7, 1.21438515186309814453e+00) (8, -6.48241102695465087891e-01) (0, 3.40992474555969238281e+00) (1, 4.56869363784790039062e+00) (2, 1.52961635589599609375e+00) (3, 1.12251043319702148438e+00) (4, 8.02922308444976806641e-01) (5, -1.77558791637420654297e+00) (6, 1.42476308345794677734e+00) (7, 8.15568828582763671875e+00) (8, -2.49672368168830871582e-01) (0, 1.11448550224304199219e+00) (1, 4.88880491256713867188e+00) (2, 6.44409358501434326172e-01) (3, 3.15940111875534057617e-01) (4, 1.27176141738891601562e+00) (5, 1.39473986625671386719e+00) (6, 1.24638462066650390625e+00) (7, 7.28815507888793945312e+00) (8, 1.23823612928390502930e-01) (0, 5.12584209442138671875e-01) (1, 1.18774163722991943359e+00) (2, 1.43473708629608154297e+00) (3, 1.07156515121459960938e+00) (4, 4.16635394096374511719e-01) (5, 1.22723281383514404297e+00) (6, 4.40295886993408203125e+00) (7, -2.06338569521903991699e-01) (8, 1.47590581327676773071e-02) (0, 6.73694193363189697266e-01) (1, 1.49167442321777343750e+00) (2, 1.04469013214111328125e+00) (3, 8.20936322212219238281e-01) (4, 1.30068600177764892578e+00) (5, 1.15166020393371582031e+00) (6, 3.82907104492187500000e+00) (7, 2.55413055419921875000e+00) (8, -3.78192424774169921875e-01) (0, 2.53895783424377441406e+00) (1, 2.67854309082031250000e+00) (2, 2.64539813995361328125e+00) (3, 5.66254913806915283203e-01) (4, 9.86366391181945800781e-01) (5, 1.05649884790182113647e-02) (6, 1.77909409999847412109e+00) (7, -1.98386937379837036133e-01) (8, 5.79340159893035888672e-01) (0, 1.35915291309356689453e+00) (1, 1.15939188003540039062e+01) (2, 3.20949721336364746094e+00) (3, -1.02451400756835937500e+01) (4, 3.43944072723388671875e+00) (5, -2.88403272628784179688e-01) (6, 1.02455778121948242188e+01) (7, 2.01825165748596191406e+00) (8, 1.01200377941131591797e+00) (0, 1.16306722164154052734e+00) (1, 1.78657352924346923828e+00) (2, -2.13963723182678222656e+00) (3, 2.40536332130432128906e-01) (4, 1.40790462493896484375e+00) (5, 1.51707935333251953125e+00) (6, 4.48838376998901367188e+00) (7, -2.88574278354644775391e-01) (8, -1.79503753781318664551e-01) (0, 5.45653486251831054688e+00) (1, 6.25124931335449218750e+00) (2, 1.99208259582519531250e+00) (3, 1.25593841075897216797e+00) (4, 1.62933957576751708984e+00) (5, -1.14810280501842498779e-01) (6, 1.15890169143676757812e+00) (7, 1.10488576889038085938e+01) (8, 8.68512928485870361328e-01) (0, 1.19820690155029296875e+00) (1, 2.56285548210144042969e+00) (2, 4.63720172643661499023e-01) (3, 1.23711216449737548828e+00) (4, 1.03516626358032226562e+00) (5, 1.63558006286621093750e+00) (6, 6.71464109420776367188e+00) (7, 5.91626405715942382812e-01) (8, -3.10600137710571289062e+00) (0, 2.88634824752807617188e+00) (1, 5.18498897552490234375e-01) (2, 1.29443109035491943359e+00) (3, 1.33498239517211914062e+00) (4, 6.83137059211730957031e-01) (5, 1.06955778598785400391e+00) (6, 3.03251171112060546875e+00) (7, 2.04151077270507812500e+01) (8, -9.73873496055603027344e-01) (0, 8.63850712776184082031e-01) (1, 1.72681915760040283203e+00) (2, 1.00002527236938476562e+00) (3, 1.63616037368774414062e+00) (4, 3.08862775564193725586e-01) (5, 8.13321018218994140625e+00) (6, 1.52380800247192382812e+00) (7, 1.60409855842590332031e+00) (8, -4.35637414455413818359e-01) (0, 1.02437400817871093750e+00) (1, -4.11535930633544921875e+00) (2, 2.72935628890991210938e-01) (3, 4.21773109436035156250e+01) (4, 1.04799854755401611328e+00) (5, 1.71113281250000000000e+01) (6, 2.22040963172912597656e+00) (7, 1.17448389530181884766e+00) (8, 2.55787670612335205078e-01) (0, 1.35411155223846435547e+00) (1, 4.16146230697631835938e+00) (2, 1.58582854270935058594e+00) (3, -6.50960505008697509766e-01) (4, 3.05474829673767089844e+00) (5, -1.86415091156959533691e-02) (6, 2.49432757496833801270e-01) (7, 2.00430250167846679688e+00) (8, 1.79403558373451232910e-01) (9, 1.24616849422454833984e+00) (10, 7.90055274963378906250e-01) (11, 7.17577099800109863281e-01) (12, 2.07952991127967834473e-01) (13, 2.61252135038375854492e-01) (14, 5.85373544692993164062e+00) (15, 4.07329350709915161133e-01) (16, 8.46332132816314697266e-01) (17, 1.23964643478393554688e+00) (18, -1.42688639461994171143e-02) (19, 4.68687385320663452148e-01) (20, 1.24665951728820800781e+00) (21, 4.63751316070556640625e-01) (22, 2.17686080932617187500e+00) (23, 2.08183336257934570312e+00) (24, 3.98660212755203247070e-01) (25, 1.03347444534301757812e+00) (9, 1.27023494243621826172e+00) (10, 1.00698721408843994141e+00) (11, 8.44684481620788574219e-01) (12, 2.78531789779663085938e-01) (13, 2.74936079978942871094e+00) (14, 6.75482606887817382812e+00) (15, 6.18555593490600585938e+00) (16, -4.61351280212402343750e+01) (17, 2.18453049659729003906e+00) (18, 2.03063416481018066406e+00) (19, -2.51756000518798828125e+00) (20, -7.22364708781242370605e-02) (21, 1.01073336601257324219e+00) (22, 1.42642664909362792969e+00) (23, 2.07432818412780761719e+00) (24, 2.01629921793937683105e-01) (25, 1.03234207630157470703e+00) (9, 1.06734967231750488281e+00) (10, 1.18358826637268066406e+00) (11, 1.43186414241790771484e+00) (12, 5.07282066345214843750e+00) (13, -7.54034698009490966797e-01) (14, 2.10420513153076171875e+01) (15, 1.37697477340698242188e+01) (16, -1.46774804687500000000e+03) (17, 6.96256399154663085938e+00) (18, 1.05921440124511718750e+01) (19, -9.50203597545623779297e-01) (20, 1.48854672908782958984e+00) (21, 1.81599807739257812500e+01) (22, 2.19872379302978515625e+00) (23, 7.37509632110595703125e+00) (24, 6.52813971042633056641e-01) (25, -6.50645077228546142578e-01) (9, 8.45441460609436035156e-01) (10, 7.65210723876953125000e+00) (11, 9.35490787029266357422e-01) (12, -7.76604562997817993164e-02) (13, 1.35017788410186767578e+00) (14, 1.40203475952148437500e+00) (15, 6.58147633075714111328e-01) (16, 4.28372114896774291992e-01) (17, 9.31911051273345947266e-01) (18, 2.66821503639221191406e+00) (19, 1.87214627861976623535e-01) (20, 1.13649272918701171875e+00) (21, 1.41510403156280517578e+00) (22, 2.07930040359497070312e+00) (23, 1.38409376144409179688e+00) (24, 3.31596255302429199219e-01) (25, 9.47132170200347900391e-01) (9, 1.43133807182312011719e+00) (10, 3.33032703399658203125e+00) (11, -8.44007790088653564453e-01) (12, 1.22183692455291748047e+00) (13, 2.19478487968444824219e+00) (14, 2.27186183929443359375e+01) (15, 4.52710658311843872070e-01) (16, 5.20300388336181640625e-01) (17, 4.41693401336669921875e+00) (18, 8.71807992458343505859e-01) (19, 1.25883424282073974609e+00) (20, 9.31893214583396911621e-02) (21, 1.18012695312500000000e+01) (22, 1.13279905319213867188e+01) (23, 4.27002620697021484375e+00) (24, 3.93357932567596435547e-01) (25, -2.89223603904247283936e-02) (9, 1.49375057220458984375e+00) (10, 5.52214956283569335938e+00) (11, 7.50422954559326171875e-01) (12, 1.65459358692169189453e+00) (13, 1.92929315567016601562e+00) (14, 1.29330768585205078125e+01) (15, 1.82695758342742919922e+00) (16, -9.88301396369934082031e-01) (17, 1.02389895915985107422e+00) (18, -4.28157758712768554688e+00) (19, -5.30006408691406250000e+00) (20, 4.44067955017089843750e-01) (21, 1.64734005928039550781e+00) (22, 3.04737544059753417969e+00) (23, 2.48337721824645996094e+00) (24, -4.18152008205652236938e-03) (25, -3.53367358446121215820e-01) (9, 1.12250494956970214844e+00) (10, 1.82260239124298095703e+00) (11, 7.71550536155700683594e-01) (12, 4.91081714630126953125e-01) (13, -2.59470577239990234375e+01) (14, -4.98630475997924804688e+00) (15, 1.98482215404510498047e-01) (16, -2.27613353729248046875e+00) (17, -4.69947052001953125000e+01) (18, 2.38805723190307617188e+00) (19, -1.43095617294311523438e+01) (20, 4.33666884899139404297e-01) (21, -3.01460474729537963867e-01) (22, 1.39373040199279785156e+00) (23, 6.33682785034179687500e+01) (24, -1.19659173488616943359e+00) (25, 4.07662808895111083984e-01) (9, 4.91887331008911132812e-01) (10, 1.15203332901000976562e+00) (11, 9.11223292350769042969e-01) (12, -1.67229790240526199341e-02) (13, 1.20374649763107299805e-01) (14, 1.84553229808807373047e+00) (15, 2.06250238418579101562e+00) (16, 1.73172450065612792969e+00) (17, 1.20729231834411621094e+00) (18, 6.13574743270874023438e-01) (19, -1.05497026443481445312e+00) (20, 1.65834724903106689453e+00) (21, 7.65696913003921508789e-02) (22, 1.62055814266204833984e+00) (23, 2.85726261138916015625e+00) (24, -3.97555589675903320312e+00) (25, 9.56282734870910644531e-01) (9, 2.15885090827941894531e+00) (10, 1.09259951114654541016e+00) (11, 1.56046891212463378906e+00) (12, 1.35003876686096191406e+00) (13, 1.53466820716857910156e+00) (14, 1.45464820861816406250e+01) (15, 3.25066637992858886719e+00) (16, 7.38896906375885009766e-01) (17, 3.24787020683288574219e+00) (18, 2.28992357850074768066e-01) (19, 1.07456541061401367188e+00) (20, 1.60681569576263427734e+00) (21, 4.21117544174194335938e+00) (22, 2.62177443504333496094e+00) (23, 2.75944209098815917969e+00) (24, 1.17389559745788574219e+00) (25, -7.74654090404510498047e-01) (9, 7.73605465888977050781e-01) (10, 3.18889141082763671875e+00) (11, 8.75861465930938720703e-01) (12, 1.29268944263458251953e+00) (13, 9.45084631443023681641e-01) (14, 1.77075691223144531250e+01) (15, 9.08929944038391113281e-01) (16, 1.75900661945343017578e+00) (17, 2.30692148208618164062e+00) (18, 1.02854931354522705078e+00) (19, 1.37793588638305664062e+00) (20, 1.43960368633270263672e+00) (21, 1.89253795146942138672e+00) (22, 5.46638584136962890625e+00) (23, 5.43203020095825195312e+00) (24, 2.81639277935028076172e-01) (25, 2.27255091071128845215e-01) (9, 6.31070435047149658203e-01) (10, 1.47833168506622314453e+00) (11, 7.92220592498779296875e-01) (12, -8.87277603149414062500e-01) (13, 1.85048735141754150391e+00) (14, 1.76134738922119140625e+01) (15, 3.13896408081054687500e+01) (16, 2.68306136131286621094e+00) (17, 1.49918165206909179688e+01) (18, 5.76973867416381835938e+00) (19, -7.25940644741058349609e-01) (20, 3.01979160308837890625e+00) (21, 3.12938537597656250000e+01) (22, 1.07369184494018554688e+01) (23, 3.21111893653869628906e+00) (24, -3.35373401641845703125e+00) (25, -6.63922071456909179688e-01) (9, 8.71883332729339599609e-01) (10, 1.83443272113800048828e+00) (11, 8.44676077365875244141e-01) (12, 1.89697980880737304688e+00) (13, 2.53759264945983886719e+00) (14, 1.09933156967163085938e+01) (15, 4.08330821990966796875e+00) (16, 3.51725250482559204102e-01) (17, 4.42466354370117187500e+00) (18, 6.01301372051239013672e-01) (19, 2.60558575391769409180e-01) (20, 4.31660223007202148438e+00) (21, 1.56025238037109375000e+01) (22, 2.28425288200378417969e+00) (23, 3.40668892860412597656e+00) (24, -6.19613945484161376953e-01) (25, -2.48378768563270568848e-01) (9, 1.58539080619812011719e+00) (10, 1.89348852634429931641e+00) (11, 1.17073082923889160156e+00) (12, 1.02144742012023925781e+00) (13, 1.39166092872619628906e+00) (14, 2.47742700576782226562e+00) (15, 1.06057250499725341797e+00) (16, -1.16300649642944335938e+01) (17, 1.21593379974365234375e+00) (18, 2.26427733898162841797e-01) (19, 3.98177295923233032227e-01) (20, 1.23401570320129394531e+00) (21, 1.75161433219909667969e+00) (22, 1.77398586273193359375e+00) (23, 1.74321413040161132812e+00) (24, -3.19428622722625732422e-01) (25, 7.70260691642761230469e-01) (9, 1.21388316154479980469e+00) (10, 4.99221611022949218750e+00) (11, 8.71378123760223388672e-01) (12, 2.88041383028030395508e-01) (13, 6.27161979675292968750e-01) (14, 5.60386180877685546875e+00) (15, 7.20192432403564453125e-01) (16, 4.90457177162170410156e-01) (17, 5.74199962615966796875e+00) (18, 6.23162155151367187500e+01) (19, -1.73349130153656005859e+00) (20, 1.23497164249420166016e+00) (21, 4.92519676685333251953e-01) (22, 1.53672182559967041016e+00) (23, 5.84141826629638671875e+00) (24, 1.11993014812469482422e+00) (25, 6.55363202095031738281e-01) (9, 3.93472701311111450195e-01) (10, 2.91621088981628417969e+00) (11, 1.70372939109802246094e+00) (12, -6.54310166835784912109e-01) (13, -2.41401886940002441406e+00) (14, 1.26688022613525390625e+01) (15, 3.00512814521789550781e+00) (16, -9.96709632873535156250e+00) (17, 1.15422761440277099609e+00) (18, 1.30234086513519287109e+00) (19, -9.59257688373327255249e-03) (20, 7.26768553256988525391e-01) (21, -7.28398561477661132812e-01) (22, 3.74996829032897949219e+00) (23, 2.88995571136474609375e+01) (24, 3.93165737390518188477e-01) (25, -2.01741480827331542969e+00) (9, 2.36254167556762695312e+00) (10, 5.23225021362304687500e+00) (11, 1.70149886608123779297e+00) (12, 1.52719461917877197266e+00) (13, 2.24156808853149414062e+00) (14, 1.98955059051513671875e+01) (15, 9.58610832691192626953e-01) (16, 1.49986279010772705078e+00) (17, 9.10289859771728515625e+00) (18, 1.58488559722900390625e+00) (19, 1.72031319141387939453e+00) (20, 2.04662203788757324219e+00) (21, 1.66438376903533935547e+00) (22, 2.31589746475219726562e+00) (23, 2.23879489898681640625e+01) (24, -6.92286670207977294922e-01) (25, 9.46439862251281738281e-01) (9, 1.22140467166900634766e+00) (10, 2.94491797685623168945e-01) (11, 1.27321338653564453125e+00) (12, 1.30723619461059570312e+00) (13, 9.46967899799346923828e-01) (14, 4.35159254074096679688e+00) (15, 8.73523533344268798828e-01) (16, -6.94744110107421875000e-01) (17, 1.66993129253387451172e+00) (18, 2.02853441238403320312e+00) (19, 9.59299266338348388672e-01) (20, 1.12941658496856689453e+00) (21, 1.78319215774536132812e+00) (22, 1.58922612667083740234e+00) (23, 1.52322816848754882812e+00) (24, -3.70037138462066650391e-01) (25, -3.66709798574447631836e-01) (9, -1.38945028185844421387e-01) (10, 2.40734219551086425781e+00) (11, 5.89142978191375732422e-01) (12, 4.45050764083862304688e+00) (13, 5.49217891693115234375e+00) (14, 1.18061866760253906250e+01) (15, 1.25141167640686035156e+00) (16, 9.35070514678955078125e-01) (17, 2.08773875236511230469e+00) (18, -2.21141605377197265625e+01) (19, 6.14046669006347656250e+00) (20, 7.35785901546478271484e-01) (21, 4.11142683029174804688e+00) (22, 2.85628700256347656250e+00) (23, 3.72056317329406738281e+00) (24, -1.10184550285339355469e-01) (25, -8.99860486388206481934e-02) (9, 1.59177446365356445312e+00) (10, 1.54086947441101074219e+00) (11, 6.87690138816833496094e-01) (12, 1.08443880081176757812e+00) (13, 3.39071124792098999023e-01) (14, 1.67378914356231689453e+00) (15, 2.99119997024536132812e+00) (16, -4.14520978927612304688e+00) (17, 3.32034087181091308594e+00) (18, 3.44849205017089843750e+00) (19, -6.02525249123573303223e-02) (20, -8.18870484828948974609e-01) (21, 1.56477797031402587891e+00) (22, 2.04224872589111328125e+00) (23, 2.06614708900451660156e+00) (24, -9.36659753322601318359e-01) (25, 1.75094619393348693848e-01) (9, 6.91244900226593017578e-01) (10, 1.61810255050659179688e+00) (11, 9.17577326297760009766e-01) (12, 8.24418067932128906250e-01) (13, 7.90094375610351562500e-01) (14, 1.22034044265747070312e+01) (15, 2.77670979499816894531e+00) (16, 9.32892560958862304688e-01) (17, 1.64883410930633544922e+00) (18, 6.31424129009246826172e-01) (19, -6.14968597888946533203e-01) (20, 1.11738312244415283203e+00) (21, 6.25615119934082031250e-01) (22, 6.17205905914306640625e+00) (23, 4.40898704528808593750e+00) (24, 1.14246153831481933594e+00) (25, -2.48392328619956970215e-01) (9, 2.58604621887207031250e+00) (10, 1.69436244964599609375e+01) (11, 7.52518415451049804688e-01) (12, 7.44950151443481445312e+00) (13, 6.50313425064086914062e+00) (14, 9.02066421508789062500e+00) (15, 2.24529147148132324219e-01) (16, 6.01364195346832275391e-01) (17, 1.45164985656738281250e+01) (18, 1.45751023292541503906e+00) (19, 6.86121082305908203125e+00) (20, 4.90193933248519897461e-01) (21, 7.03841686248779296875e+00) (22, 7.98488497734069824219e-01) (23, 2.08693675994873046875e+01) (24, -8.08638453483581542969e-01) (25, 3.31657052040100097656e-01) (9, -8.65662470459938049316e-02) (10, 2.45760631561279296875e+00) (11, 1.42858743667602539062e+00) (12, 1.38986790180206298828e+00) (13, 4.62123346328735351562e+00) (14, 4.37969818115234375000e+01) (15, 2.98378682136535644531e+00) (16, -8.94185352325439453125e+00) (17, 5.88190603256225585938e+00) (18, 2.93034934997558593750e+01) (19, 2.31047964096069335938e+00) (20, 1.61518800258636474609e+00) (21, 5.99939203262329101562e+00) (22, 1.68313694000244140625e+00) (23, 2.33930921554565429688e+00) (24, 6.51548877358436584473e-02) (25, 3.88044863939285278320e-01) (9, 7.33144953846931457520e-03) (10, 2.76576876640319824219e+00) (11, 1.06461346149444580078e+00) (12, -1.73141562938690185547e+00) (13, -2.57291644811630249023e-01) (14, 1.16925392150878906250e+01) (15, 2.20344996452331542969e+00) (16, 5.86120486259460449219e-01) (17, 2.09758853912353515625e+00) (18, 9.49967741966247558594e-01) (19, -2.72322058677673339844e+00) (20, 9.67941999435424804688e-01) (21, -1.44408321380615234375e+00) (22, 2.72532463073730468750e+00) (23, 2.40032410621643066406e+00) (24, 9.21796798706054687500e-01) (25, -2.53869920969009399414e-01) (9, 2.37409457564353942871e-01) (10, 1.68779456615447998047e+00) (11, -5.03488779067993164062e+00) (12, 1.34823977947235107422e+00) (13, 3.16050499677658081055e-01) (14, 5.34632921218872070312e+00) (15, 6.31087422370910644531e-01) (16, -4.02615165710449218750e+00) (17, 1.40942633152008056641e+00) (18, 8.70037794113159179688e-01) (19, -7.37970247864723205566e-02) (20, 1.01700544357299804688e+00) (21, 9.60799992084503173828e-01) (22, 4.12927770614624023438e+00) (23, 4.10027313232421875000e+00) (24, 7.16178297996520996094e-01) (25, -7.34292387962341308594e-01) (26, -3.84020060300827026367e-01) (27, -4.40901696681976318359e-01) (28, 2.90082752704620361328e-01) (29, -1.27863526344299316406e+00) (30, 1.15949487686157226562e+00) (31, 8.73466879129409790039e-02) (32, -1.09599237442016601562e+01) (33, -8.38378906250000000000e-01) (34, -4.98636841773986816406e-01) (35, 2.31090521812438964844e+00) (36, 2.64369338750839233398e-01) (37, 7.29528427124023437500e-01) (38, -6.45121514797210693359e-01) (39, -4.25490188598632812500e+00) (40, -7.94434309005737304688e-01) (41, 3.23350286483764648438e+00) (42, -2.46659576892852783203e-01) (43, 1.40943136215209960938e+01) (44, -1.29169924184679985046e-02) (45, 6.54297292232513427734e-01) (46, 5.03664207458496093750e+00) (47, -4.80868935585021972656e-01) (48, -7.94927835464477539062e-01) (49, 3.59103828668594360352e-02) (50, 3.74773293733596801758e-01) (26, 3.69329333305358886719e-01) (27, 7.40402400493621826172e-01) (28, 4.72397059202194213867e-01) (29, 1.53683936595916748047e+00) (30, 2.47858333587646484375e+00) (31, 1.10755038261413574219e+00) (32, 2.14758658409118652344e+00) (33, 4.92688238620758056641e-01) (34, 1.22230136394500732422e+00) (35, 7.40467011928558349609e-01) (36, 1.13443207740783691406e+00) (37, 1.34937119483947753906e+00) (38, 2.06345653533935546875e+00) (39, 2.32636705040931701660e-01) (40, 3.72573822736740112305e-01) (41, 8.21214497089385986328e-01) (42, 9.68330144882202148438e-01) (43, 2.46338701248168945312e+00) (44, 1.44866496324539184570e-01) (45, 2.35720181465148925781e+00) (46, 1.46705257892608642578e+00) (47, 1.79367744922637939453e+00) (48, 4.54784870147705078125e-01) (49, 2.27511143684387207031e+00) (50, 7.31655061244964599609e-01) (26, 1.46554195880889892578e+00) (27, 4.58379650115966796875e+00) (28, 1.09796202182769775391e+00) (29, 9.12447035312652587891e-01) (30, 3.23157668113708496094e+00) (31, 8.60591351985931396484e-01) (32, 6.83178853988647460938e+00) (33, 5.60290157794952392578e-01) (34, 9.60170745849609375000e-01) (35, 1.34562563896179199219e+00) (36, 1.71020853519439697266e+00) (37, 1.27413475513458251953e+00) (38, 2.03620409965515136719e+00) (39, 1.54635357856750488281e+00) (40, -3.65675091743469238281e-01) (41, 8.05737376213073730469e-01) (42, 1.00151884555816650391e+00) (43, 3.33420681953430175781e+00) (44, 9.55062806606292724609e-01) (45, 2.79670166969299316406e+00) (46, 2.79168796539306640625e+00) (47, 4.11239176988601684570e-01) (48, 1.36025464534759521484e+00) (49, 2.12914872169494628906e+00) (50, -7.32876062393188476562e-01) (26, 5.14388442039489746094e-01) (27, 1.82318639755249023438e+00) (28, 6.79951608180999755859e-01) (29, 5.29847800731658935547e-01) (30, 1.39086031913757324219e+00) (31, -1.09870754182338714600e-01) (32, 2.04152897000312805176e-01) (33, 3.36682736873626708984e-01) (34, 3.88101309537887573242e-01) (35, 9.35741126537322998047e-01) (36, 4.89244461059570312500e-01) (37, 1.65219056606292724609e+00) (38, 1.91347968578338623047e+00) (39, 1.57181918621063232422e+00) (40, 3.39886009693145751953e-01) (41, 2.47801184654235839844e-01) (42, 1.44997192546725273132e-02) (43, 1.73683261871337890625e+00) (44, 3.72072637081146240234e-01) (45, 3.05742174386978149414e-01) (46, 5.08406341075897216797e-01) (47, -9.96076390147209167480e-02) (48, -4.08750236034393310547e-01) (49, 9.45153772830963134766e-01) (50, 2.06786608695983886719e+00) (26, -9.75282907485961914062e-01) (27, -1.33879745006561279297e+00) (28, 5.82084476947784423828e-01) (29, -5.28347373008728027344e-01) (30, 6.54919803142547607422e-01) (31, -5.21149277687072753906e-01) (32, 3.48901540040969848633e-01) (33, 2.06580257415771484375e+01) (34, 7.98119783401489257812e-01) (35, -6.94160759449005126953e-02) (36, 2.84925967454910278320e-01) (37, -9.45231437683105468750e-01) (38, -1.19154953956604003906e+00) (39, -1.52314949035644531250e+00) (40, 2.23856106400489807129e-01) (41, 4.55880433320999145508e-01) (42, -1.28374910354614257812e+00) (43, 2.68666297197341918945e-01) (44, -1.13647055625915527344e+00) (45, 4.93031352758407592773e-01) (46, -9.68399763107299804688e-01) (47, 4.00605320930480957031e-01) (48, 7.12042760848999023438e+00) (49, -1.91669282503426074982e-03) (50, -1.93886697292327880859e-01) (26, 1.15893769264221191406e+00) (27, 8.22068810462951660156e-01) (28, 1.31532049179077148438e+00) (29, 3.65744560956954956055e-01) (30, 1.98514378070831298828e+00) (31, 6.54169619083404541016e-01) (32, 2.83315062522888183594e+00) (33, 2.49909305572509765625e+00) (34, 5.16319394111633300781e-01) (35, 7.74966239929199218750e-01) (36, 1.76675188541412353516e+00) (37, 1.06898641586303710938e+00) (38, 2.43764877319335937500e+00) (39, 1.85686624050140380859e+00) (40, 7.11636245250701904297e-01) (41, 7.47014343738555908203e-01) (42, 7.58030474185943603516e-01) (43, 1.72127461433410644531e+00) (44, 7.18408763408660888672e-01) (45, 3.06493449211120605469e+00) (46, 9.14014697074890136719e-01) (47, 7.21943438053131103516e-01) (48, 6.44762933254241943359e-01) (49, 1.79567050933837890625e+00) (50, 1.14306308329105377197e-01) (26, 9.44441616535186767578e-01) (27, 2.87848281860351562500e+00) (28, 3.30706048011779785156e+00) (29, 1.07925617694854736328e+00) (30, 9.92412388324737548828e-01) (31, 1.62766766548156738281e+00) (32, 1.95450973510742187500e+00) (33, 1.39397943019866943359e+00) (34, 8.53679180145263671875e-01) (35, 1.08873641490936279297e+00) (36, 1.29282057285308837891e+00) (37, 6.78933799266815185547e-01) (38, 1.95683133602142333984e+00) (39, 1.40782284736633300781e+00) (40, 2.66013956069946289062e+00) (41, 1.00449514389038085938e+00) (42, 1.24180114269256591797e+00) (43, 1.52691841125488281250e+00) (44, 1.45654439926147460938e+00) (45, 5.18176972866058349609e-01) (46, 1.04867291450500488281e+00) (47, 7.61044979095458984375e-01) (48, 1.78377830982208251953e+00) (49, 1.34562766551971435547e+00) (50, 5.45946657657623291016e-01) (26, 1.28720486164093017578e+00) (27, 1.78425741195678710938e+00) (28, 5.01208353042602539062e+00) (29, 2.16813635826110839844e+00) (30, 2.10171008110046386719e+00) (31, 7.78688371181488037109e-01) (32, 4.88858163356781005859e-01) (33, 2.56558090448379516602e-01) (34, 2.36205562949180603027e-01) (35, 9.20952677726745605469e-01) (36, 1.00587499141693115234e+00) (37, 1.35770547389984130859e+00) (38, 2.95557570457458496094e+00) (39, 3.79443973302841186523e-01) (40, 3.48887503147125244141e-01) (41, 4.06695425510406494141e-01) (42, 1.46822071075439453125e+00) (43, 2.86245822906494140625e+00) (44, 7.67799258232116699219e-01) (45, 2.30664396286010742188e+00) (46, 7.39238023757934570312e-01) (47, 1.40312039852142333984e+00) (48, 3.18822115659713745117e-01) (49, 5.66041350364685058594e-01) (50, 1.25832438468933105469e-01) (26, 1.34129643440246582031e+00) (27, 9.23031425476074218750e+00) (28, 3.41926503181457519531e+00) (29, 1.29624056816101074219e+00) (30, 2.24090814590454101562e+00) (31, 4.00568532943725585938e+00) (32, 4.72158044576644897461e-01) (33, 2.48823285102844238281e+00) (34, 2.33576035499572753906e+00) (35, 6.28563106060028076172e-01) (36, 5.52087926864624023438e+00) (37, 4.33722972869873046875e+00) (38, 1.07041435241699218750e+01) (39, 1.10998666286468505859e+00) (40, 1.34592425823211669922e+00) (41, 8.34966719150543212891e-01) (42, 3.26190423965454101562e+00) (43, 1.95753538608551025391e+00) (44, 3.08758473396301269531e+00) (45, 1.16005730628967285156e+00) (46, 9.25741612911224365234e-01) (47, 2.18282437324523925781e+00) (48, 1.20909750461578369141e+00) (49, 9.77879345417022705078e-01) (50, -3.89813035726547241211e-01) (26, 3.40355515480041503906e+00) (27, 9.06677532196044921875e+00) (28, 6.70722723007202148438e+00) (29, 4.74326181411743164062e+00) (30, 2.27921962738037109375e+00) (31, 8.54626369476318359375e+00) (32, 1.60001885890960693359e+00) (33, 8.18372631072998046875e+00) (34, 3.83925747871398925781e+00) (35, 1.35307145118713378906e+00) (36, 1.75577049255371093750e+01) (37, 2.14438223838806152344e+00) (38, 1.73408603668212890625e+01) (39, 3.84019494056701660156e+00) (40, 2.32485365867614746094e+00) (41, 1.70699059963226318359e+00) (42, 1.65141277313232421875e+01) (43, 4.15126705169677734375e+00) (44, 9.20876407623291015625e+00) (45, 6.88785934448242187500e+00) (46, 1.10797059535980224609e+00) (47, 4.96374416351318359375e+00) (48, 9.96840286254882812500e+00) (49, 2.73900055885314941406e+00) (50, -2.80095487833023071289e-01) (26, 1.23688232898712158203e+00) (27, 1.86428880691528320312e+00) (28, 2.73671698570251464844e+00) (29, 1.55609416961669921875e+00) (30, 2.01902127265930175781e+00) (31, 1.82551670074462890625e+00) (32, 2.37493562698364257812e+00) (33, 2.42917084693908691406e+00) (34, 2.07719421386718750000e+00) (35, 1.58496475219726562500e+00) (36, 9.01468563079833984375e+00) (37, 5.70803642272949218750e-01) (38, 1.85826206207275390625e+00) (39, -9.61135029792785644531e-01) (40, 1.01367855072021484375e+00) (41, 1.48408484458923339844e+00) (42, 1.12588250637054443359e+00) (43, 1.73216271400451660156e+00) (44, 1.67682290077209472656e+00) (45, 9.14018750190734863281e-01) (46, 1.64676153659820556641e+00) (47, 3.42466735839843750000e+00) (48, 1.28658866882324218750e+00) (49, 1.51251232624053955078e+00) (50, -7.70192146301269531250e-01) (26, 3.08559358119964599609e-01) (27, 2.66454488039016723633e-01) (28, 1.88288033008575439453e-01) (29, -2.79830485582351684570e-01) (30, 2.36094936728477478027e-01) (31, 6.93778172135353088379e-02) (32, -9.49082672595977783203e-02) (33, 8.67160141468048095703e-01) (34, -6.02043211460113525391e-01) (35, -4.01913762092590332031e-01) (36, 1.72878876328468322754e-01) (37, -5.98325490951538085938e-01) (38, -2.70896911621093750000e-01) (39, 1.17716833949089050293e-01) (40, 5.11541604995727539062e-01) (41, -5.40737926959991455078e-01) (42, 5.71838617324829101562e-01) (43, 4.28436696529388427734e-01) (44, 4.29297566413879394531e-01) (45, 1.24499298632144927979e-01) (46, -1.94353938102722167969e-01) (47, 2.23761588335037231445e-01) (48, -6.30244970321655273438e-01) (49, -6.32332801818847656250e-01) (50, 3.51026743650436401367e-01) (26, 3.13454777002334594727e-01) (27, 1.11297619342803955078e+00) (28, 8.29275548458099365234e-01) (29, 8.50558042526245117188e-01) (30, 1.30663490295410156250e+00) (31, 7.47824013233184814453e-01) (32, 1.88109457492828369141e+00) (33, 3.18398147821426391602e-01) (34, 1.11810898780822753906e+00) (35, 1.35409021377563476562e+00) (36, 7.92201459407806396484e-01) (37, 8.42656493186950683594e-01) (38, 1.50233054161071777344e+00) (39, -2.36005097627639770508e-01) (40, 1.29355537891387939453e+00) (41, 1.21864056587219238281e+00) (42, 8.44980239868164062500e-01) (43, 1.65686023235321044922e+00) (44, 9.19116616249084472656e-01) (45, 5.21815419197082519531e-01) (46, 1.07295370101928710938e+00) (47, 3.09257477521896362305e-01) (48, 4.71423804759979248047e-01) (49, 1.31137073040008544922e+00) (50, 9.02468919754028320312e-01) (26, 8.16787123680114746094e-01) (27, 1.94547998905181884766e+00) (28, 1.76908540725708007812e+00) (29, 8.82946193218231201172e-01) (30, 1.08284628391265869141e+00) (31, 1.17063629627227783203e+00) (32, 3.96528512239456176758e-01) (33, 4.69149172306060791016e-01) (34, 1.88767647743225097656e+00) (35, 8.67158532142639160156e-01) (36, 1.17640960216522216797e+00) (37, 9.04437422752380371094e-01) (38, 1.35373198986053466797e+00) (39, 3.31426501274108886719e-01) (40, 1.15834631025791168213e-01) (41, 6.24912858009338378906e-01) (42, 2.86632633209228515625e+00) (43, 1.71897089481353759766e+00) (44, 1.38368642330169677734e+00) (45, 1.31930232048034667969e+00) (46, 3.28892529010772705078e-01) (47, 1.60198187828063964844e+00) (48, 6.57013416290283203125e-01) (49, 1.22026610374450683594e+00) (50, 4.40996214747428894043e-02) (26, 7.43987858295440673828e-02) (27, 2.59254187345504760742e-01) (28, 6.57390475273132324219e-01) (29, 2.07684740424156188965e-01) (30, 1.02279353141784667969e+00) (31, -2.42801681160926818848e-01) (32, 3.56476157903671264648e-01) (33, -2.39019006490707397461e-01) (34, 9.19989049434661865234e-01) (35, 4.21362847089767456055e-01) (36, 1.27193379402160644531e+00) (37, 1.30894136428833007812e+00) (38, 3.31800341606140136719e-01) (39, -2.52281308174133300781e-01) (40, 3.69684517383575439453e-01) (41, 2.51443475484848022461e-01) (42, -1.02175407111644744873e-01) (43, 1.15265178680419921875e+00) (44, 4.81128357350826263428e-02) (45, 1.42200577259063720703e+00) (46, 8.91591608524322509766e-02) (47, 7.06274211406707763672e-01) (48, -2.01980829238891601562e-01) (49, 2.04787567257881164551e-01) (50, -4.89151120185852050781e-01) (26, -2.69855428487062454224e-02) (27, 3.92575472593307495117e-01) (28, 8.93280148506164550781e-01) (29, 5.59131562709808349609e-01) (30, 1.59810960292816162109e+00) (31, 5.38296043872833251953e-01) (32, 5.64152336120605468750e+00) (33, -5.75545978546142578125e+00) (34, -2.08426356315612792969e-01) (35, 7.86523699760437011719e-01) (36, 6.81878566741943359375e-01) (37, 1.24365054070949554443e-01) (38, 9.44057524204254150391e-01) (39, 9.63875532150268554688e-01) (40, -1.05683422088623046875e+00) (41, 1.02556490898132324219e+00) (42, -4.16154474020004272461e-01) (43, 1.39573025703430175781e+00) (44, -1.68819114565849304199e-01) (45, 1.87644052505493164062e+00) (46, 1.04120445251464843750e+00) (47, 8.31008195877075195312e-01) (48, 6.45720481872558593750e-01) (49, 2.63202190399169921875e+00) (50, 1.79548069834709167480e-01) (26, 9.73382353782653808594e-01) (27, 1.62352824211120605469e+00) (28, 2.13256311416625976562e+00) (29, 1.99960005283355712891e+00) (30, 3.53693294525146484375e+00) (31, 1.54401135444641113281e+00) (32, 4.35234737396240234375e+00) (33, 2.01333975791931152344e+00) (34, 6.98957145214080810547e-01) (35, 1.36278283596038818359e+00) (36, 2.53301000595092773438e+00) (37, 1.50221884250640869141e+00) (38, 1.92516446113586425781e+00) (39, 1.71035122871398925781e+00) (40, 1.06825029850006103516e+00) (41, 1.48003041744232177734e+00) (42, 1.62091171741485595703e+00) (43, 2.74350786209106445312e+00) (44, 1.93083751201629638672e+00) (45, 2.61644887924194335938e+00) (46, 1.21032142639160156250e+00) (47, 2.64626598358154296875e+00) (48, 1.39444601535797119141e+00) (49, 2.47881126403808593750e+00) (50, 4.34341996908187866211e-01) (26, 1.59570169448852539062e+01) (27, 6.74996995925903320312e+00) (28, 1.14822387695312500000e+01) (29, 3.65420608520507812500e+01) (30, 2.51560616493225097656e+00) (31, 1.40360059738159179688e+01) (32, 2.44505786895751953125e+00) (33, 1.70600414276123046875e+01) (34, 2.37872028350830078125e+00) (35, 3.06178355216979980469e+00) (36, 3.49381256103515625000e+00) (37, 1.20651328563690185547e+00) (38, 2.62223243713378906250e+00) (39, 1.46619729995727539062e+01) (40, 1.56585907936096191406e+00) (41, 3.28345084190368652344e+00) (42, 7.37361335754394531250e+00) (43, 3.80362415313720703125e+00) (44, 3.57414817810058593750e+01) (45, 9.72208309173583984375e+00) (46, 2.45699477195739746094e+00) (47, 4.09684801101684570312e+00) (48, 5.28456258773803710938e+00) (49, 2.34093070030212402344e+00) (50, -2.71185547113418579102e-01) (26, 1.29790329933166503906e+00) (27, 6.33997440338134765625e-01) (28, 1.03002786636352539062e+00) (29, 8.81884396076202392578e-01) (30, 1.12208604812622070312e+00) (31, 8.87238562107086181641e-01) (32, 1.45860731601715087891e+00) (33, 2.43578597903251647949e-01) (34, 5.96799314022064208984e-01) (35, 1.25488352775573730469e+00) (36, 7.99660444259643554688e-01) (37, 1.14847230911254882812e+00) (38, 1.53231346607208251953e+00) (39, -6.91108942031860351562e+00) (40, 1.14872777462005615234e+00) (41, 5.77758133411407470703e-01) (42, 6.47177040576934814453e-01) (43, 1.70056784152984619141e+00) (44, 2.25659325718879699707e-01) (45, 6.26543819904327392578e-01) (46, 3.38320225477218627930e-01) (47, 4.90071505308151245117e-01) (48, 1.52053391933441162109e+00) (49, 4.68900412321090698242e-01) (50, 1.06910324096679687500e+00) (26, 3.02082991600036621094e+00) (27, 1.37694013118743896484e+00) (28, -3.11469286680221557617e-01) (29, 2.89644098281860351562e+00) (30, 4.41447448730468750000e+00) (31, 6.66327893733978271484e-01) (32, 1.24199714660644531250e+02) (33, 5.12060821056365966797e-01) (34, 7.64678418636322021484e-02) (35, 1.40893435478210449219e+00) (36, 8.04677724838256835938e-01) (37, 1.01042747497558593750e+00) (38, 1.52331805229187011719e+00) (39, 7.28791618347167968750e+00) (40, 1.65916907787322998047e+00) (41, 1.47824418544769287109e+00) (42, 1.10208606719970703125e+00) (43, 2.33003759384155273438e+00) (44, -7.47825741767883300781e-01) (45, 2.83470249176025390625e+00) (46, 2.37228131294250488281e+00) (47, 6.61302983760833740234e-01) (48, -6.62323415279388427734e-01) (49, 3.72614455223083496094e+00) (50, -6.00412249565124511719e-01) (26, -2.75801134109497070312e+00) (27, 2.16314777731895446777e-01) (28, 9.07018423080444335938e-01) (29, -2.93258166313171386719e+00) (30, 1.94476529955863952637e-01) (31, -5.57040631771087646484e-01) (32, 2.12668347358703613281e+00) (33, -8.37599858641624450684e-02) (34, 2.95210766792297363281e+00) (35, -8.33167552947998046875e-01) (36, 9.37090396881103515625e+00) (37, 1.60088431835174560547e+00) (38, -1.21568536758422851562e+00) (39, 4.22035545110702514648e-01) (40, 1.79981514811515808105e-01) (41, 2.64603225514292716980e-03) (42, -1.10936486721038818359e+00) (43, 3.91000568866729736328e-01) (44, -4.09064561128616333008e-01) (45, 5.28808712959289550781e-01) (46, -2.29949355125427246094e-01) (47, 1.04019320011138916016e+00) (48, 1.29965457916259765625e+01) (49, -2.56932783126831054688e+00) (50, -6.29655241966247558594e-01) (26, 1.87242019176483154297e+00) (27, 4.46209001541137695312e+00) (28, 9.14315760135650634766e-01) (29, 2.03474807739257812500e+00) (30, 1.61564743518829345703e+00) (31, 4.34799289703369140625e+00) (32, 2.10843586921691894531e+00) (33, 5.10792207717895507812e+00) (34, 1.32466197013854980469e+00) (35, 8.63413214683532714844e-01) (36, 1.25244903564453125000e+00) (37, 4.74110752344131469727e-01) (38, 2.19215631484985351562e+00) (39, 1.77423059940338134766e+00) (40, 1.33021962642669677734e+00) (41, 1.34598934650421142578e+00) (42, 2.31483125686645507812e+00) (43, 2.14068913459777832031e+00) (44, 8.41082215309143066406e-01) (45, 4.90533447265625000000e+00) (46, 3.54447484016418457031e+00) (47, 1.09162628650665283203e+00) (48, 1.53336219787597656250e+01) (49, 1.06482636928558349609e+00) (50, -7.87139117717742919922e-01) (26, 1.00933480262756347656e+00) (27, 5.67296743392944335938e-01) (28, 9.46687042713165283203e-01) (29, 9.24824416637420654297e-01) (30, 1.50666236877441406250e+00) (31, 3.83435368537902832031e-01) (32, 7.07180976867675781250e+00) (33, 2.51621633768081665039e-01) (34, 6.96409165859222412109e-01) (35, 3.95154029130935668945e-01) (36, 9.13968384265899658203e-01) (37, 8.92131268978118896484e-01) (38, 9.78680968284606933594e-01) (39, 7.14029455184936523438e+00) (40, 2.24954172968864440918e-01) (41, 1.24669933319091796875e+00) (42, 1.32915997505187988281e+00) (43, 9.75139558315277099609e-01) (44, 2.14006996154785156250e+00) (45, 1.32228219509124755859e+00) (46, 1.23377405107021331787e-02) (47, 5.02303659915924072266e-01) (48, -1.46877467632293701172e-01) (49, 1.17983925342559814453e+00) (50, 5.86932718753814697266e-01) (26, 1.01017880439758300781e+00) (27, -3.60983125865459442139e-02) (28, 9.60545148700475692749e-03) (29, 5.24738490581512451172e-01) (30, 6.41256690025329589844e-01) (31, 3.24470639228820800781e-01) (32, 2.25066229701042175293e-01) (33, -5.14281511306762695312e-01) (34, 1.01362824440002441406e+00) (35, 6.03479325771331787109e-01) (36, -5.80562688410282135010e-02) (37, 5.81086456775665283203e-01) (38, 4.84550297260284423828e-01) (39, 5.50507068634033203125e-01) (40, -6.17337971925735473633e-02) (41, 5.08647143840789794922e-01) (42, 1.25146317481994628906e+00) (43, 2.07466483116149902344e+00) (44, 3.08320134878158569336e-01) (45, 8.58761131763458251953e-01) (46, 1.95675149559974670410e-01) (47, 1.07174742221832275391e+00) (48, 8.01326811313629150391e-01) (49, 7.29388654232025146484e-01) (50, 8.74163031578063964844e-01) (51, 8.73576179146766662598e-02) (52, 5.09752929210662841797e-01) (53, 3.17159682512283325195e-01) (54, 9.49041724205017089844e-01) (55, 4.02406841516494750977e-01) (56, 7.12946236133575439453e-01) (57, 4.39531832933425903320e-01) (58, 1.25204339623451232910e-01) (59, -1.60917669534683227539e-01) (60, 1.67452543973922729492e-01) (61, 5.64388394355773925781e-01) (62, 6.65043652057647705078e-01) (63, 6.22416734695434570312e-01) (64, 3.59219849109649658203e-01) (65, 2.36997699737548828125e+00) (66, 1.27419042587280273438e+00) (67, 5.18480598926544189453e-01) (68, -1.58752035349607467651e-02) (69, 7.96538114547729492188e-01) (70, 4.96955513954162597656e-01) (71, 3.65899413824081420898e-01) (72, 1.74306198954582214355e-01) (73, 2.70636975765228271484e-01) (74, -1.62376657128334045410e-01) (75, 2.55566030740737915039e-01) (51, 9.27323997020721435547e-01) (52, 8.93739521503448486328e-01) (53, 1.25570631027221679688e+00) (54, 9.19462442398071289062e-02) (55, 5.78217148780822753906e-01) (56, 1.12601983547210693359e+00) (57, 6.23618543148040771484e-01) (58, 3.78857821226119995117e-01) (59, 4.86255258321762084961e-01) (60, 1.05454790592193603516e+00) (61, 6.92818224430084228516e-01) (62, -6.18335083127021789551e-02) (63, 6.28724992275238037109e-01) (64, 8.73721420764923095703e-01) (65, -5.32593131065368652344e-02) (66, 8.60852777957916259766e-01) (67, 6.00504934787750244141e-01) (68, 9.02100324630737304688e-01) (69, 8.86919617652893066406e-01) (70, 1.14310336112976074219e+00) (71, -1.94111838936805725098e-01) (72, 9.32773053646087646484e-01) (73, 5.15064537525177001953e-01) (74, 1.02689392864704132080e-01) (75, 6.27991378307342529297e-01) (51, -1.88198655843734741211e-01) (52, -2.71294713020324707031e-01) (53, -3.69372665882110595703e-01) (54, 5.35399258136749267578e-01) (55, 1.38477131724357604980e-01) (56, 3.23336064815521240234e-01) (57, -5.56961357593536376953e-01) (58, -5.65361320972442626953e-01) (59, 2.41326615214347839355e-01) (60, 5.27573376893997192383e-02) (61, -2.37059012055397033691e-01) (62, 8.58609557151794433594e-01) (63, 3.35742235183715820312e-02) (64, 2.50732511281967163086e-01) (65, -2.07566190510988235474e-02) (66, -1.96631640195846557617e-01) (67, 2.51026421785354614258e-01) (68, 8.95777046680450439453e-01) (69, 9.33129042387008666992e-02) (70, 6.37969076633453369141e-01) (71, -5.46087384223937988281e-01) (72, -4.71465945243835449219e-01) (73, 7.06192970275878906250e-01) (74, 5.28889358043670654297e-01) (75, 1.58483564853668212891e-01) (51, 2.61989414691925048828e-01) (52, 6.84903383255004882812e-01) (53, 5.59686601161956787109e-01) (54, 1.96046972274780273438e+00) (55, -2.56553471088409423828e-01) (56, 3.32498311996459960938e-01) (57, 2.24049150943756103516e-01) (58, 9.86834824085235595703e-01) (59, 5.18476188182830810547e-01) (60, 9.28495407104492187500e-01) (61, 4.46580022573471069336e-01) (62, -4.70946401357650756836e-01) (63, 1.38380765914916992188e+00) (64, 5.39053261280059814453e-01) (65, -6.70013844966888427734e-01) (66, -3.12328636646270751953e-02) (67, 9.95402336120605468750e-01) (68, 1.89260244369506835938e+00) (69, 1.05922591686248779297e+00) (70, 1.20317554473876953125e+00) (71, -1.16484381258487701416e-01) (72, 3.82160604000091552734e-01) (73, 6.88414871692657470703e-01) (74, 1.46095561981201171875e+00) (75, 9.41787183284759521484e-01) (51, 5.21681129932403564453e-01) (52, -2.80830168724060058594e+00) (53, -2.80739355087280273438e+00) (54, 7.52832233905792236328e-01) (55, 2.29523062705993652344e+00) (56, -2.95113682746887207031e+00) (57, -4.16822767257690429688e+00) (58, -3.07978105545043945312e+00) (59, -3.12918925285339355469e+00) (60, -1.28161609172821044922e+00) (61, -3.61633419990539550781e+00) (62, 7.32624101638793945312e+00) (63, -3.87084722518920898438e+00) (64, -1.13642072677612304688e+00) (65, 2.80714601278305053711e-01) (66, -4.19968247413635253906e-01) (67, -2.48324942588806152344e+00) (68, -8.72658920288085937500e+00) (69, -4.96012639999389648438e+00) (70, -8.02518463134765625000e+00) (71, -3.57549881935119628906e+00) (72, -3.66596150398254394531e+00) (73, -4.80503916740417480469e-01) (74, -6.85173082351684570312e+00) (75, -9.09594058990478515625e-01) (51, 2.64732503890991210938e+00) (52, -3.79121708869934082031e+00) (53, -4.52792263031005859375e+00) (54, 7.84554839134216308594e-01) (55, 2.70277190208435058594e+00) (56, -4.47189760208129882812e+00) (57, -4.33929252624511718750e+00) (58, -3.83382749557495117188e+00) (59, -4.60379314422607421875e+00) (60, -8.90065252780914306641e-01) (61, -4.62226343154907226562e+00) (62, 4.07429552078247070312e+00) (63, -2.99108624458312988281e+00) (64, -1.41399168968200683594e+00) (65, 1.17899870872497558594e+00) (66, -2.05167621374130249023e-01) (67, -3.61819791793823242188e+00) (68, -9.27549719810485839844e-01) (69, -8.27999114990234375000e-01) (70, -2.08359289169311523438e+00) (71, 2.52538204193115234375e+00) (72, 1.96611404418945312500e+00) (73, -8.25284302234649658203e-01) (74, 8.01973628997802734375e+00) (75, 8.46033096313476562500e-02) (51, -2.12167644500732421875e+00) (52, 3.73652547597885131836e-01) (53, 1.42009317874908447266e+00) (54, 4.98817682266235351562e-01) (55, 3.28555554151535034180e-01) (56, 5.81647157669067382812e-01) (57, 1.06386101245880126953e+00) (58, 5.83195328712463378906e-01) (59, 1.24977958202362060547e+00) (60, 6.55338525772094726562e-01) (61, 1.26970136165618896484e+00) (62, 1.04068231582641601562e+00) (63, 9.08601522445678710938e-01) (64, 5.44729828834533691406e-01) (65, -6.28211545944213867188e+00) (66, 2.15939331054687500000e+00) (67, 1.13785278797149658203e+00) (68, 1.00989961624145507812e+00) (69, 1.18940472602844238281e+00) (70, 5.19731462001800537109e-01) (71, 5.89127123355865478516e-01) (72, 1.01874828338623046875e+00) (73, 1.43801733851432800293e-01) (74, 3.24130058288574218750e-01) (75, 4.75549519062042236328e-01) (51, 2.60829329490661621094e+00) (52, 1.05567371845245361328e+00) (53, 1.10016191005706787109e+00) (54, 3.06571245193481445312e-01) (55, 3.41881245374679565430e-01) (56, 6.42142593860626220703e-01) (57, 6.79015934467315673828e-01) (58, 1.20381295680999755859e+00) (59, 3.16180497407913208008e-01) (60, 8.78695249557495117188e-01) (61, 9.04695153236389160156e-01) (62, 4.84781563282012939453e-01) (63, 8.36659550666809082031e-01) (64, 1.40136688947677612305e-01) (65, 1.96948170661926269531e-01) (66, 6.36802077293395996094e-01) (67, 1.83912932872772216797e+00) (68, 2.04141691327095031738e-01) (69, 4.77623760700225830078e-01) (70, 1.31373479962348937988e-01) (71, -6.60070851445198059082e-02) (72, 3.10995101928710937500e-01) (73, 2.72085833549499511719e+00) (74, 1.59356534481048583984e+00) (75, 1.03219199180603027344e+00) (51, 1.35602283477783203125e+00) (52, -9.04551565647125244141e-01) (53, -6.85127973556518554688e-01) (54, -8.20539668202400207520e-02) (55, 8.02961528301239013672e-01) (56, -7.64970853924751281738e-02) (57, -8.59821677207946777344e-01) (58, -7.68034994602203369141e-01) (59, -4.66642051935195922852e-01) (60, -5.54078459739685058594e-01) (61, -2.93692618608474731445e-01) (62, 5.76766633987426757812e+00) (63, -6.49451732635498046875e-01) (64, -8.00903677940368652344e-01) (65, -8.82752910256385803223e-02) (66, -4.64193701744079589844e-01) (67, -9.23672735691070556641e-01) (68, -2.39739164710044860840e-01) (69, -9.87063705921173095703e-01) (70, -7.28160619735717773438e-01) (71, 9.52085554599761962891e-01) (72, -1.34857416152954101562e-01) (73, 3.03652077913284301758e-01) (74, 2.32539787888526916504e-01) (75, 1.15653574466705322266e+00) (51, 9.96149122714996337891e-01) (52, -9.18790817260742187500e-01) (53, -1.41174948215484619141e+00) (54, -2.95223593711853027344e-01) (55, 3.73799771070480346680e-01) (56, -7.71584391593933105469e-01) (57, -1.07060348987579345703e+00) (58, -1.11046779155731201172e+00) (59, -1.52132666110992431641e+00) (60, -1.12483702600002288818e-01) (61, -7.96140611171722412109e-01) (62, 5.61796426773071289062e+00) (63, -9.09966528415679931641e-01) (64, 4.12725865840911865234e-01) (65, 5.91777376830577850342e-02) (66, -5.73210775852203369141e-01) (67, -8.23334217071533203125e-01) (68, -6.30814135074615478516e-01) (69, -1.57661283016204833984e+00) (70, -1.14264667034149169922e-01) (71, 3.95502358675003051758e-01) (72, -1.43079042434692382812e+00) (73, -5.12618720531463623047e-01) (74, 7.17247843742370605469e-01) (75, -3.98860633373260498047e-01) (51, 4.19145345687866210938e-01) (52, -8.42021554708480834961e-02) (53, -3.63691598176956176758e-01) (54, 1.18969880044460296631e-01) (55, 1.17739927768707275391e+00) (56, 4.59448784589767456055e-01) (57, 4.14385110139846801758e-01) (58, 5.07654011249542236328e-01) (59, -5.15811920166015625000e-01) (60, -1.15265503525733947754e-01) (61, 3.71779143810272216797e-01) (62, 1.86105298995971679688e+00) (63, -4.96151626110076904297e-01) (64, -1.48842453956604003906e-01) (65, 9.30611193180084228516e-01) (66, 8.71553063392639160156e-01) (67, -7.83786654472351074219e-01) (68, 1.37581333518028259277e-01) (69, -4.83671814203262329102e-01) (70, -1.50528773665428161621e-01) (71, 6.06620073318481445312e-01) (72, 3.64350497722625732422e-01) (73, 3.11403840780258178711e-01) (74, 6.88218295574188232422e-01) (75, 1.51802647113800048828e+00) (51, 7.42608666419982910156e-01) (52, 5.17428457736968994141e-01) (53, 1.11494624614715576172e+00) (54, 3.53217482566833496094e-01) (55, 1.97846874594688415527e-01) (56, 3.64581823348999023438e-01) (57, 1.02454459667205810547e+00) (58, 7.34805285930633544922e-01) (59, 5.46894669532775878906e-01) (60, 1.00566339492797851562e+00) (61, 7.01825022697448730469e-01) (62, 2.77762603759765625000e+00) (63, 8.88008594512939453125e-01) (64, 1.26623535156250000000e+00) (65, 1.09293425083160400391e+00) (66, 9.91029858589172363281e-01) (67, 1.15405881404876708984e+00) (68, 3.00819069147109985352e-01) (69, 5.30891954898834228516e-01) (70, 2.57475227117538452148e-01) (71, 2.14632451534271240234e-01) (72, 1.03493261337280273438e+00) (73, 3.26642245054244995117e-01) (74, 1.96416806429624557495e-02) (75, 5.91657698154449462891e-01) (51, 3.36830015294253826141e-03) (52, 4.60616648197174072266e-01) (53, 2.62699693441390991211e-01) (54, 7.80758500099182128906e-01) (55, 2.73318022489547729492e-01) (56, 9.51020359992980957031e-01) (57, 3.62614691257476806641e-01) (58, 5.39383471012115478516e-01) (59, 7.40940868854522705078e-01) (60, 2.30821482837200164795e-02) (61, 6.24410390853881835938e-01) (62, 7.48136639595031738281e-01) (63, 7.04801917076110839844e-01) (64, 6.23859465122222900391e-02) (65, 1.80082350969314575195e-01) (66, 2.74262517690658569336e-01) (67, 4.70590859651565551758e-01) (68, 2.45148241519927978516e-01) (69, 4.12228889763355255127e-02) (70, 4.27215456962585449219e-01) (71, 3.35527211427688598633e-01) (72, 1.05940707027912139893e-01) (73, 9.59726274013519287109e-02) (74, 3.55308085680007934570e-01) (75, -7.59858667850494384766e-01) (51, 1.96390897035598754883e-01) (52, 1.21181786060333251953e+00) (53, 2.98144876956939697266e-01) (54, -1.23113632202148437500e+00) (55, 5.86438357830047607422e-01) (56, 1.19361782073974609375e+00) (57, 9.26033079624176025391e-01) (58, 7.15219259262084960938e-01) (59, 4.70151931047439575195e-01) (60, 7.72580802440643310547e-01) (61, 9.88378286361694335938e-01) (62, 2.43423151969909667969e+00) (63, 1.25874805450439453125e+00) (64, 5.65614521503448486328e-01) (65, 2.28924691677093505859e-01) (66, 9.82245653867721557617e-02) (67, 1.18291401863098144531e+00) (68, 2.66905933618545532227e-01) (69, 3.15569710731506347656e+00) (70, 2.63791173696517944336e-01) (71, 1.52556737884879112244e-02) (72, 3.23514550924301147461e-01) (73, 7.43130028247833251953e-01) (74, 4.51994299888610839844e-01) (75, -1.83386251330375671387e-01) (51, 2.97447896003723144531e+00) (52, -1.28722012042999267578e+00) (53, -1.54708993434906005859e+00) (54, 2.05319717526435852051e-01) (55, 1.42333519458770751953e+00) (56, -1.16069591045379638672e+00) (57, -2.49123001098632812500e+00) (58, -1.63381516933441162109e+00) (59, -1.21040821075439453125e+00) (60, -7.17731118202209472656e-01) (61, -3.01374912261962890625e+00) (62, 1.98283898830413818359e+00) (63, -6.20770573616027832031e-01) (64, -4.59286600351333618164e-01) (65, 1.93894073367118835449e-01) (66, -5.49288280308246612549e-02) (67, -1.70378589630126953125e+00) (68, -8.48950386047363281250e-01) (69, -1.93031680583953857422e+00) (70, -1.54879534244537353516e+00) (71, 2.00339746475219726562e+00) (72, -1.95647144317626953125e+00) (73, -6.44103586673736572266e-01) (74, -3.03677052259445190430e-01) (75, 5.27106106281280517578e-01) (51, -3.60754698514938354492e-01) (52, -1.28324165940284729004e-01) (53, 2.05741956830024719238e-01) (54, 8.44233810901641845703e-01) (55, -2.57874548435211181641e-01) (56, 2.64369994401931762695e-01) (57, 1.14986032247543334961e-01) (58, 3.50178241729736328125e-01) (59, 5.04432022571563720703e-01) (60, 7.10381269454956054688e-01) (61, -3.75192642211914062500e-01) (62, 7.73631572723388671875e-01) (63, -1.07458226382732391357e-01) (64, 1.71454712748527526855e-01) (65, -7.36450850963592529297e-01) (66, 4.45368200540542602539e-01) (67, -2.19647869467735290527e-01) (68, 1.17118787765502929688e+00) (69, -2.11784392595291137695e-01) (70, 1.17504370212554931641e+00) (71, 3.38868238031864166260e-02) (72, 1.21691718697547912598e-01) (73, 9.49506878852844238281e-01) (74, 5.94392776489257812500e-01) (75, 4.59254086017608642578e-01) (51, -4.64518427848815917969e-01) (52, 1.89127534627914428711e-01) (53, 8.31088066101074218750e-01) (54, 5.85051596164703369141e-01) (55, 4.80037868022918701172e-01) (56, -1.07359938323497772217e-01) (57, -1.37088567018508911133e-01) (58, -2.18431100249290466309e-01) (59, 3.54854851961135864258e-01) (60, 3.31140272319316864014e-02) (61, 2.15365942567586898804e-02) (62, 1.02775633335113525391e+00) (63, 5.79510450363159179688e-01) (64, 1.99682876467704772949e-01) (65, -2.26610124111175537109e-01) (66, -1.48496046662330627441e-01) (67, 1.13981626927852630615e-01) (68, -4.72100675106048583984e-01) (69, 1.64241328835487365723e-01) (70, 2.99611020088195800781e+00) (71, -1.01798474788665771484e+00) (72, 2.05142319202423095703e-01) (73, 7.21959590911865234375e-01) (74, -6.66389048099517822266e-01) (75, -4.25350457429885864258e-01) (51, 5.24965703487396240234e-01) (52, 4.10451710224151611328e-01) (53, -1.01406283676624298096e-01) (54, -1.77038133144378662109e-01) (55, 2.06099963188171386719e+00) (56, 5.79498708248138427734e-01) (57, 1.81466057896614074707e-01) (58, 7.82413482666015625000e-01) (59, 8.36817771196365356445e-02) (60, -1.60323219299316406250e+01) (61, -2.18128450214862823486e-02) (62, 1.15688073635101318359e+00) (63, -1.25857234001159667969e-01) (64, -7.38476562500000000000e+00) (65, -8.47483932971954345703e-01) (66, -2.27895244956016540527e-01) (67, 2.56227612495422363281e-01) (68, -2.28261828422546386719e-01) (69, 6.94632291793823242188e-01) (70, 6.54282152652740478516e-01) (71, 8.83300840854644775391e-01) (72, 2.65502870082855224609e-01) (73, 2.69759476184844970703e-01) (74, 8.91615033149719238281e-01) (75, -1.07695734500885009766e+00) (51, 1.92556902766227722168e-01) (52, 6.02547168731689453125e-01) (53, 4.88839447498321533203e-01) (54, 7.18323290348052978516e-01) (55, 4.60479468107223510742e-01) (56, 1.16470897197723388672e+00) (57, 1.01579427719116210938e+00) (58, 1.33144378662109375000e+00) (59, 2.34295535087585449219e+00) (60, 1.39931690692901611328e+00) (61, 4.20018911361694335938e-01) (62, 6.12572669982910156250e-01) (63, 4.53403860330581665039e-01) (64, 1.13392663002014160156e+00) (65, 3.23703837394714355469e+00) (66, 1.26378023624420166016e+00) (67, 4.96289193630218505859e-01) (68, 1.28258481621742248535e-01) (69, 1.41129672527313232422e+00) (70, 2.39946067333221435547e-01) (71, 5.57715058326721191406e-01) (72, 3.27946960926055908203e-01) (73, 1.06952333450317382812e+00) (74, 3.73467624187469482422e-01) (75, -8.07979226112365722656e-01) (51, 6.55571937561035156250e-01) (52, -4.96999561786651611328e-01) (53, -8.28432515263557434082e-02) (54, -1.02696597576141357422e-01) (55, 1.23990988731384277344e+00) (56, -1.13849332556128501892e-02) (57, -1.51131570339202880859e-01) (58, -2.10123166441917419434e-01) (59, 3.91685903072357177734e-01) (60, 2.11153879761695861816e-01) (61, 5.11895716190338134766e-01) (62, 1.31548261642456054688e+00) (63, 5.26399791240692138672e-01) (64, 2.67164528369903564453e-01) (65, 1.00669860839843750000e+00) (66, 1.86409413814544677734e-01) (67, 2.63616114854812622070e-01) (68, -1.03431791067123413086e-02) (69, -2.28084966540336608887e-01) (70, 9.77964252233505249023e-02) (71, 2.01087546348571777344e+00) (72, 6.06137812137603759766e-01) (73, 3.17583918571472167969e-01) (74, 3.80686461925506591797e-01) (75, 8.85440170764923095703e-01) (51, 7.93794512748718261719e-01) (52, -2.87052094936370849609e-01) (53, -6.63187980651855468750e-01) (54, 6.31747171282768249512e-02) (55, 2.74527341127395629883e-01) (56, -5.90304434299468994141e-01) (57, -5.60815095901489257812e-01) (58, -1.47227987647056579590e-01) (59, -2.69339323043823242188e-01) (60, -1.77713623270392417908e-03) (61, -2.16455861926078796387e-01) (62, 3.04034018516540527344e+00) (63, -2.58977949619293212891e-01) (64, 5.50718605518341064453e-01) (65, -7.10527598857879638672e-01) (66, -2.54921048879623413086e-01) (67, -2.74939388036727905273e-01) (68, 9.09660682082176208496e-02) (69, 8.58239531517028808594e-02) (70, -2.35183522105216979980e-01) (71, 6.28978848457336425781e-01) (72, 5.39897792041301727295e-02) (73, 4.40421879291534423828e-01) (74, -1.34913390502333641052e-03) (75, 1.34210395812988281250e+00) (51, 7.99505650997161865234e-01) (52, 5.28206706047058105469e-01) (53, 7.95919954776763916016e-01) (54, 9.85575675964355468750e-01) (55, 2.19423323869705200195e-01) (56, 5.23018300533294677734e-01) (57, 6.03325068950653076172e-01) (58, 7.23773121833801269531e-01) (59, 4.88974332809448242188e-01) (60, 8.63043889403343200684e-02) (61, -3.82813245058059692383e-01) (62, 1.35514748096466064453e+00) (63, 4.71082627773284912109e-01) (64, 5.16714334487915039062e-01) (65, 4.30682986974716186523e-01) (66, 1.46993860602378845215e-01) (67, 8.58126282691955566406e-02) (68, 1.58671438694000244141e-01) (69, 3.33234459161758422852e-01) (70, -2.69328683614730834961e-01) (71, -9.56909060478210449219e-02) (72, 1.68132707476615905762e-01) (73, 2.90985614061355590820e-01) (74, 3.88153135776519775391e-01) (75, -4.81098085641860961914e-01) (51, -2.21670374274253845215e-01) (52, 6.22118711471557617188e-01) (53, 1.08749938011169433594e+00) (54, -2.73768126964569091797e-01) (55, 6.05366647243499755859e-01) (56, 9.85973000526428222656e-01) (57, 7.30811655521392822266e-01) (58, 5.58797299861907958984e-01) (59, 8.67713034152984619141e-01) (60, 4.25290763378143310547e-01) (61, 9.74796235561370849609e-01) (62, 2.61286288499832153320e-01) (63, 5.81022024154663085938e-01) (64, 4.72466737031936645508e-01) (65, 2.75480449199676513672e-01) (66, 5.35200119018554687500e+00) (67, 1.03208065032958984375e+00) (68, 1.11728906631469726562e-01) (69, 7.93834865093231201172e-01) (70, 9.38282787799835205078e-01) (71, -6.87667322158813476562e+00) (72, 3.16079288721084594727e-01) (73, 6.72722280025482177734e-01) (74, 4.19581025838851928711e-01) (75, 1.09348022937774658203e+00) (51, 1.39402544498443603516e+00) (52, 4.40896451473236083984e-01) (53, -3.82761210203170776367e-01) (54, -2.30774935334920883179e-02) (55, 5.29747068881988525391e-01) (56, -2.74271965026855468750e-01) (57, 3.30123037099838256836e-01) (58, -5.89525997638702392578e-01) (59, -5.21829843521118164062e-01) (60, -1.48166403174400329590e-01) (61, -2.91768461465835571289e-01) (62, 3.59379243850708007812e+00) (63, 9.29983779788017272949e-02) (64, -8.01898121833801269531e-01) (65, 1.71496784687042236328e+00) (66, 8.24653506278991699219e-02) (67, -3.36384207010269165039e-01) (68, 3.45124721527099609375e-01) (69, -1.67092472314834594727e-01) (70, 7.40126818418502807617e-02) (71, 9.79069054126739501953e-01) (72, -1.23306775093078613281e+00) (73, -1.03226256370544433594e+00) (74, -1.39378273487091064453e+00) (75, 5.02133548259735107422e-01) (76, 6.41734004020690917969e-01) (77, 5.88868111371994018555e-02) (78, 4.12124812602996826172e-01) (79, 2.14472413063049316406e-01) (80, 2.22736552357673645020e-01) (81, 1.48403000831604003906e+00) (82, 7.91428565979003906250e-01) (83, 1.13331806659698486328e+00) (84, 1.61420428752899169922e+00) (85, 7.98619270324707031250e-01) (86, 5.89761793613433837891e-01) (87, 2.15102389454841613770e-01) (88, -1.66575086116790771484e+00) (89, -3.63866627216339111328e-01) (90, 8.95781636238098144531e-01) (91, 1.02101635932922363281e+00) (92, 2.02613756060600280762e-01) (93, 5.01943409442901611328e-01) (94, -2.96682357788085937500e-01) (95, 1.16164541244506835938e+00) (96, 9.55973327159881591797e-01) (97, -2.76548564434051513672e-01) (98, -4.26298350095748901367e-01) (99, 9.34410810470581054688e-01) (100, -1.01728594303131103516e+00) (76, 7.16499388217926025391e-01) (77, 1.05617761611938476562e+00) (78, 2.91183143854141235352e-01) (79, 6.40752732753753662109e-01) (80, 3.92336219549179077148e-01) (81, 9.07954573631286621094e-01) (82, 2.80339598655700683594e-01) (83, 1.57315576076507568359e+00) (84, 6.79418563842773437500e-01) (85, 1.15227746963500976562e+00) (86, 4.29460048675537109375e-01) (87, 4.98707532882690429688e-01) (88, 2.00745925307273864746e-01) (89, 1.26687216758728027344e+00) (90, 4.10436809062957763672e-01) (91, 5.79562067985534667969e-01) (92, 2.94053219258785247803e-02) (93, 3.44797261059284210205e-02) (94, 1.38627290725708007812e+00) (95, 1.50517080328427255154e-04) (96, 5.57700455188751220703e-01) (97, 1.09347438812255859375e+00) (98, 9.24254357814788818359e-01) (99, 4.09496039152145385742e-01) (100, -4.25975285470485687256e-02) (76, 2.42998793721199035645e-01) (77, 5.66481113433837890625e-01) (78, 6.34976267814636230469e-01) (79, 4.38769757747650146484e-01) (80, 6.90957367420196533203e-01) (81, 4.89386647939682006836e-01) (82, -1.25510111451148986816e-01) (83, 2.08516687154769897461e-01) (84, 6.31507754325866699219e-01) (85, 5.88993370532989501953e-01) (86, 1.20805568993091583252e-01) (87, -2.31308072805404663086e-01) (88, 2.66432195901870727539e-01) (89, -4.30140756070613861084e-02) (90, 8.25199544429779052734e-01) (91, 7.52545297145843505859e-01) (92, 4.69223052263259887695e-01) (93, 7.13741719722747802734e-01) (94, 4.89394754171371459961e-01) (95, 4.91091698408126831055e-01) (96, 2.64668911695480346680e-01) (97, 4.47095036506652832031e-01) (98, 6.72774136066436767578e-01) (99, 4.77794528007507324219e-01) (100, 2.60394036769866943359e-01) (76, 3.37549972534179687500e+00) (77, 7.76837408542633056641e-01) (78, 1.01234149932861328125e+00) (79, 7.59969949722290039062e-01) (80, 4.07774001359939575195e-01) (81, 6.17019176483154296875e-01) (82, 1.08422982692718505859e+00) (83, 7.09059000015258789062e-01) (84, 7.95976161956787109375e-01) (85, 1.14885997772216796875e+00) (86, -6.68238475918769836426e-03) (87, 2.34025672078132629395e-01) (88, 9.34486091136932373047e-01) (89, 2.55531072616577148438e-01) (90, 4.18690860271453857422e-01) (91, 1.20443809032440185547e+00) (92, 1.42917096614837646484e+00) (93, -9.70415025949478149414e-03) (94, 5.75710833072662353516e-01) (95, 2.73336023092269897461e-01) (96, 1.03624808788299560547e+00) (97, 1.20212042331695556641e+00) (98, 2.26978778839111328125e-01) (99, 7.29788124561309814453e-01) (100, 6.63218319416046142578e-01) (76, 5.46524286270141601562e-01) (77, -3.24388533830642700195e-01) (78, 1.72745566815137863159e-02) (79, 2.90661931037902832031e-01) (80, 1.72740471363067626953e+00) (81, 1.35375726222991943359e+00) (82, 8.65275263786315917969e-02) (83, -1.74494051933288574219e+00) (84, 1.15884363651275634766e+00) (85, 1.37897372245788574219e+00) (86, 1.42557859420776367188e+00) (87, 3.50542366504669189453e-01) (88, -3.30906003713607788086e-01) (89, -6.95206403732299804688e-01) (90, 9.67129588127136230469e-01) (91, 1.31676837801933288574e-01) (92, 4.50847923755645751953e-01) (93, 7.78179585933685302734e-01) (94, -3.24810564517974853516e-01) (95, 2.76731348037719726562e+00) (96, 1.77563059329986572266e+00) (97, -1.60410836338996887207e-01) (98, -6.36497959494590759277e-02) (99, 2.61932420730590820312e+00) (100, 7.49222099781036376953e-01) (76, 1.69101405143737792969e+00) (77, 1.12574350833892822266e+00) (78, 1.03461718559265136719e+00) (79, 2.02787354588508605957e-01) (80, 4.42691892385482788086e-01) (81, 5.56305587291717529297e-01) (82, 5.59702455997467041016e-01) (83, 1.58005130290985107422e+00) (84, 1.04545068740844726562e+00) (85, 6.86853766441345214844e-01) (86, 3.19694131612777709961e-02) (87, 9.70442891120910644531e-01) (88, 7.51337587833404541016e-01) (89, 1.64909631013870239258e-01) (90, 7.84949302673339843750e-01) (91, 1.12581443786621093750e+00) (92, 3.15021365880966186523e-01) (93, 2.52805590629577636719e-01) (94, 6.37559473514556884766e-01) (95, 1.26905307173728942871e-01) (96, 5.66315591335296630859e-01) (97, 8.02411735057830810547e-01) (98, 4.17716294527053833008e-01) (99, 3.12633514404296875000e-01) (100, 4.52780693769454956055e-01) (76, 5.44410765171051025391e-01) (77, -1.30065739154815673828e-01) (78, 1.28175055980682373047e+00) (79, 1.02775001525878906250e+00) (80, 1.32389795780181884766e+00) (81, 1.19293785095214843750e+00) (82, -9.14820134639739990234e-01) (83, -8.84792745113372802734e-01) (84, 9.30428445339202880859e-01) (85, 1.54925167560577392578e+00) (86, 4.58382844924926757812e-01) (87, -7.73503720760345458984e-01) (88, -2.18118637800216674805e-01) (89, 7.73644328117370605469e-01) (90, 1.43282127380371093750e+00) (91, 1.15791320800781250000e+00) (92, 9.31950807571411132812e-01) (93, -4.63091671466827392578e-01) (94, 5.14142870903015136719e-01) (95, 1.13096940517425537109e+00) (96, 1.63824021816253662109e+00) (97, -1.36284872889518737793e-01) (98, -3.78659754991531372070e-01) (99, 9.76627692580223083496e-02) (100, -4.49316799640655517578e-02) (76, 5.69906771183013916016e-01) (77, 7.53251194953918457031e-01) (78, 6.26950621604919433594e-01) (79, 8.23078691959381103516e-01) (80, 5.49425423145294189453e-01) (81, 4.47404116392135620117e-01) (82, 2.29960635304450988770e-01) (83, -4.30206842720508575439e-02) (84, 1.05377984046936035156e+00) (85, 5.31614303588867187500e-01) (86, 1.69636920094490051270e-01) (87, -2.28658244013786315918e-01) (88, 4.74544256925582885742e-01) (89, 2.40769401192665100098e-01) (90, 5.48391044139862060547e-01) (91, 2.93138861656188964844e-01) (92, 3.03308516740798950195e-01) (93, 7.89621889591217041016e-01) (94, 5.65354572609066963196e-03) (95, 1.06541347503662109375e+00) (96, 8.36327254772186279297e-01) (97, 7.33289897441864013672e-01) (98, 1.66656821966171264648e-01) (99, 6.04804992675781250000e-01) (100, -3.23447406291961669922e-01) (76, 8.52181091308593750000e+01) (77, -6.39446139335632324219e-01) (78, -2.73621106147766113281e+00) (79, 2.68635451793670654297e-01) (80, 7.03535020351409912109e-01) (81, 1.21884274482727050781e+00) (82, -1.04171752929687500000e+00) (83, -6.18694067001342773438e-01) (84, 8.76727104187011718750e-01) (85, 1.31268107891082763672e+00) (86, 6.00693404674530029297e-01) (87, 1.98658749461174011230e-01) (88, -9.93731021881103515625e-01) (89, 2.01453790068626403809e-01) (90, 8.01571846008300781250e-01) (91, -2.64509963989257812500e+01) (92, 1.63082456588745117188e+00) (93, 1.08691126108169555664e-01) (94, -4.36348915100097656250e-01) (95, 2.21930891275405883789e-01) (96, 1.18579995632171630859e+00) (97, 6.44541859626770019531e-01) (98, -4.82404887676239013672e-01) (99, 1.69142889976501464844e+00) (100, -1.89159229397773742676e-01) (76, 1.50700259208679199219e+00) (77, -3.50677013397216796875e-01) (78, 6.56066179275512695312e-01) (79, -3.16380292177200317383e-01) (80, 7.57948875427246093750e-01) (81, 2.47062802314758300781e-01) (82, 4.32553440332412719727e-01) (83, -9.05141383409500122070e-02) (84, -8.69762822985649108887e-02) (85, 4.95754331350326538086e-01) (86, 1.12595841288566589355e-01) (87, 7.36923038959503173828e-01) (88, 6.18739545345306396484e-01) (89, -1.31355261802673339844e+00) (90, 2.36710235476493835449e-01) (91, 8.61915409564971923828e-01) (92, 1.04550373554229736328e+00) (93, -2.78085451573133468628e-02) (94, -9.64440524578094482422e-01) (95, -3.69122147560119628906e-01) (96, 7.37979173660278320312e-01) (97, -1.49814281612634658813e-02) (98, 4.23700988292694091797e-01) (99, -7.72143304347991943359e-02) (100, -5.44871985912322998047e-01) (76, 8.33129882812500000000e+00) (77, 1.56155779957771301270e-01) (78, 2.81144291162490844727e-01) (79, -4.86023388803005218506e-02) (80, 6.77957653999328613281e-01) (81, 3.58540892601013183594e-01) (82, 4.80620831251144409180e-01) (83, 1.19139850139617919922e+00) (84, 5.18829703330993652344e-01) (85, 8.02288651466369628906e-02) (86, 6.98066949844360351562e-01) (87, 5.93254923820495605469e-01) (88, 1.24942243099212646484e+00) (89, 1.05756568908691406250e+00) (90, 8.10135230422019958496e-02) (91, 2.73705899715423583984e-01) (92, 6.98791265487670898438e-01) (93, 5.83352982997894287109e-01) (94, 1.13294470310211181641e+00) (95, 9.32550251483917236328e-01) (96, 1.10888630151748657227e-01) (97, 5.76015830039978027344e-01) (98, 4.55174297094345092773e-01) (99, 1.12071943283081054688e+00) (100, -4.28317934274673461914e-01) (76, 1.02372837066650390625e+00) (77, 7.49324977397918701172e-01) (78, -5.28939738869667053223e-02) (79, 3.19248855113983154297e-01) (80, 5.75199782848358154297e-01) (81, 5.26200473308563232422e-01) (82, -2.01882064342498779297e-01) (83, 5.52167072892189025879e-02) (84, 5.98743915557861328125e-01) (85, 7.90954113006591796875e-01) (86, 1.60439240932464599609e+00) (87, 3.34600917994976043701e-02) (88, 3.01407635211944580078e-01) (89, 1.05205464363098144531e+00) (90, 4.19102460145950317383e-01) (91, -7.07941651344299316406e-02) (92, 8.74326467514038085938e-01) (93, 1.05710899829864501953e+00) (94, -1.24258272349834442139e-01) (95, 1.42685103416442871094e+00) (96, 4.37252044677734375000e-01) (97, 8.23339700698852539062e-01) (98, 9.11084473133087158203e-01) (99, 2.99716639518737792969e+00) (100, 5.93104422092437744141e-01) (76, 1.39031143188476562500e+01) (77, -8.66577029228210449219e-01) (78, -5.78444957733154296875e+00) (79, 2.30195030570030212402e-01) (80, 6.14589691162109375000e-01) (81, 9.06331121921539306641e-01) (82, 5.59136010706424713135e-02) (83, 1.30177319049835205078e-01) (84, 9.36279594898223876953e-01) (85, 1.23705697059631347656e+00) (86, 3.64188134670257568359e-01) (87, 4.35386329889297485352e-01) (88, -3.61876189708709716797e-01) (89, -3.93284022808074951172e-01) (90, 1.26295733451843261719e+00) (91, -5.70993709564208984375e+00) (92, -3.42834734916687011719e+00) (93, 2.35835909843444824219e-01) (94, 5.02315223217010498047e-01) (95, 8.33778977394104003906e-02) (96, 7.97195732593536376953e-01) (97, -4.11775290966033935547e-01) (98, -1.13305427134037017822e-01) (99, 1.02319729328155517578e+00) (100, 8.68081212043762207031e-01) (76, 9.44722443819046020508e-02) (77, 1.93864077329635620117e-01) (78, 4.66501206159591674805e-01) (79, 2.96186178922653198242e-01) (80, 8.05380046367645263672e-01) (81, 1.04026722908020019531e+00) (82, -2.11289733648300170898e-01) (83, -1.38110899925231933594e+00) (84, 1.20722866058349609375e+00) (85, 9.54487860202789306641e-01) (86, 4.08196955919265747070e-01) (87, -5.54352104663848876953e-01) (88, 6.81158006191253662109e-01) (89, 8.33127573132514953613e-02) (90, 1.44697928428649902344e+00) (91, 2.66923248767852783203e-01) (92, 1.31200683116912841797e+00) (93, 6.41450464725494384766e-01) (94, -2.80630260705947875977e-01) (95, 9.96091902256011962891e-01) (96, 1.10356092453002929688e+00) (97, 7.14686274528503417969e-01) (98, 7.51606702804565429688e-01) (99, 4.26524162292480468750e-01) (100, 3.06274861097335815430e-01) (76, 2.47735381126403808594e+00) (77, 3.64282727241516113281e-01) (78, -1.22672033309936523438e+00) (79, 1.04563701152801513672e+00) (80, 3.37153762578964233398e-01) (81, 1.42897605895996093750e+00) (82, -5.70171058177947998047e-01) (83, -1.39082372188568115234e-01) (84, 1.18973290920257568359e+00) (85, 9.93639051914215087891e-01) (86, 3.17007340490818023682e-02) (87, -4.93764102458953857422e-01) (88, 3.49091738462448120117e-02) (89, 6.42739713191986083984e-01) (90, 1.42599356174468994141e+00) (91, -6.07685232162475585938e+00) (92, -2.91805595159530639648e-01) (93, 2.30456024408340454102e-01) (94, 1.93461939692497253418e-01) (95, 2.31939882040023803711e-01) (96, 5.62787711620330810547e-01) (97, 2.03568890690803527832e-01) (98, 6.92455172538757324219e-01) (99, 1.06063580513000488281e+00) (100, -5.48266649246215820312e-01) (76, 3.83656406402587890625e+00) (77, 2.25833326578140258789e-01) (78, 1.21506087481975555420e-01) (79, 1.00208020210266113281e+00) (80, 6.04917407035827636719e-01) (81, 1.25735473632812500000e+00) (82, -5.14102339744567871094e-01) (83, -3.42045038938522338867e-01) (84, 1.18730783462524414062e+00) (85, 4.00789827108383178711e-01) (86, 5.09119145572185516357e-02) (87, 2.59231805801391601562e-01) (88, -1.37701079249382019043e-01) (89, 5.54581701755523681641e-01) (90, 9.00588631629943847656e-01) (91, 6.34093225002288818359e-01) (92, 7.57480144500732421875e-01) (93, 6.61614775657653808594e-01) (94, -5.00996172428131103516e-01) (95, 2.35662922263145446777e-01) (96, 1.04721045494079589844e+00) (97, 5.46228349208831787109e-01) (98, -1.77215132862329483032e-02) (99, 1.05839145183563232422e+00) (100, -2.54600763320922851562e-01) (76, 3.58833885192871093750e+01) (77, -4.30111408233642578125e-01) (78, -9.29891467094421386719e-01) (79, 1.33504080772399902344e+00) (80, 3.25457620620727539062e+00) (81, 3.18825292587280273438e+00) (82, -3.19241309165954589844e+00) (83, -2.95266836881637573242e-01) (84, 3.30816316604614257812e+00) (85, 3.30812644958496093750e+00) (86, 1.24212670326232910156e+00) (87, -1.70551598072052001953e+00) (88, 2.56324827671051025391e-01) (89, 1.12509393692016601562e+00) (90, 2.95282340049743652344e+00) (91, -3.52781891822814941406e-01) (92, -1.06066751480102539062e+00) (93, -1.44423410296440124512e-01) (94, 1.35001644492149353027e-01) (95, 1.23527598381042480469e+00) (96, 3.15864610671997070312e+00) (97, -5.88744580745697021484e-01) (98, -3.79507094621658325195e-01) (99, 6.35528624057769775391e-01) (100, -4.89797621965408325195e-01) (76, 1.83340594172477722168e-01) (77, 6.79691806435585021973e-02) (78, -1.63516789674758911133e-01) (79, 8.89981567859649658203e-01) (80, -2.00471207499504089355e-01) (81, 6.39489114284515380859e-01) (82, 9.67895865440368652344e-01) (83, 1.37571794912219047546e-02) (84, 1.89323797821998596191e-02) (85, -2.49792814254760742188e-01) (86, 1.16349256038665771484e+00) (87, 1.21764206886291503906e+00) (88, 1.00237205624580383301e-01) (89, -1.05754785239696502686e-01) (90, 5.69863140583038330078e-01) (91, -3.76079857349395751953e-01) (92, 2.66062796115875244141e-01) (93, 5.02171039581298828125e-01) (94, 5.28138458728790283203e-01) (95, 1.83348268270492553711e-01) (96, -2.49706953763961791992e-01) (97, -4.38399054110050201416e-03) (98, -3.09822969138622283936e-02) (99, -3.05975586175918579102e-01) (100, -3.98161470890045166016e-01) (76, 5.97592055797576904297e-01) (77, -5.17117343842983245850e-02) (78, 1.08796215057373046875e+00) (79, 8.42299699783325195312e-01) (80, 7.31977283954620361328e-01) (81, 8.25117647647857666016e-01) (82, -1.30634114146232604980e-01) (83, 5.51668584346771240234e-01) (84, 6.07409894466400146484e-01) (85, 7.81742751598358154297e-01) (86, 3.68025779724121093750e-01) (87, 1.23413257300853729248e-01) (88, 5.31959593296051025391e-01) (89, 6.30758404731750488281e-01) (90, 7.85710811614990234375e-01) (91, 8.12400519847869873047e-01) (92, 5.20841240882873535156e-01) (93, 8.50013852119445800781e-01) (94, 1.18141211569309234619e-01) (95, 2.28473052382469177246e-01) (96, 6.03858411312103271484e-01) (97, 5.75502038002014160156e-01) (98, 2.01869145035743713379e-01) (99, 1.04254007339477539062e+00) (100, 3.12835335731506347656e-01) (76, 3.75648438930511474609e-01) (77, 3.26811850070953369141e-01) (78, 7.37943947315216064453e-01) (79, 1.56046673655509948730e-01) (80, 6.17194354534149169922e-01) (81, 1.29544568061828613281e+00) (82, 9.54111739993095397949e-02) (83, -3.59337955713272094727e-01) (84, 9.11036550998687744141e-01) (85, 1.51442623138427734375e+00) (86, 8.31171452999114990234e-01) (87, 8.14759671688079833984e-01) (88, 9.69350457191467285156e-01) (89, -1.01619815826416015625e+00) (90, 7.02073931694030761719e-01) (91, -9.65902566909790039062e-01) (92, 8.16097080707550048828e-01) (93, 6.34817838668823242188e-01) (94, -3.48518967628479003906e-01) (95, 1.82530665397644042969e+00) (96, 5.78761875629425048828e-01) (97, -2.48494312167167663574e-01) (98, -2.63925343751907348633e-01) (99, 9.27126705646514892578e-01) (100, 1.09226152300834655762e-01) (76, 4.39754104614257812500e+01) (77, -1.26841509342193603516e+00) (78, 2.04538315534591674805e-01) (79, -1.00711755454540252686e-01) (80, 7.98639178276062011719e-01) (81, 1.54957675933837890625e+00) (82, 1.22581899166107177734e-01) (83, 3.35523247718811035156e-01) (84, 1.11286091804504394531e+00) (85, 1.13071262836456298828e+00) (86, 1.31585156917572021484e+00) (87, -2.90746062994003295898e-01) (88, -1.00769066810607910156e+00) (89, 1.91397354006767272949e-01) (90, 1.37058091163635253906e+00) (91, -1.74521124362945556641e+00) (92, 5.41283249855041503906e-01) (93, -4.36884105205535888672e-01) (94, 4.32006895542144775391e-01) (95, 1.26433157920837402344e+00) (96, 1.57286870479583740234e+00) (97, -4.20153915882110595703e-01) (98, -3.99658799171447753906e-01) (99, 3.01258146762847900391e-01) (100, 1.32401978969573974609e+00) (76, 6.46292388439178466797e-01) (77, 5.06262958049774169922e-01) (78, 1.96023657917976379395e-01) (79, 8.53029265999794006348e-02) (80, 5.79045772552490234375e-01) (81, 1.08696639537811279297e+00) (82, 5.86845815181732177734e-01) (83, -3.63492041826248168945e-01) (84, 3.12547206878662109375e-01) (85, 4.12518054246902465820e-01) (86, 8.60153770446777343750e+00) (87, 5.21539926528930664062e-01) (88, 6.46295547485351562500e-01) (89, -1.31081536412239074707e-01) (90, 4.99609351158142089844e-01) (91, 2.77581977844238281250e+00) (92, 1.38700616359710693359e+00) (93, 6.73781037330627441406e-01) (94, 3.86476278305053710938e-01) (95, 9.58110868930816650391e-01) (96, 4.15798395872116088867e-01) (97, 4.37001645565032958984e-01) (98, 5.70051491260528564453e-01) (99, 7.14579463005065917969e-01) (100, -5.40593087673187255859e-01) (76, 2.00546169281005859375e+00) (77, 8.19545209407806396484e-01) (78, 4.57441240549087524414e-01) (79, 9.89790022373199462891e-01) (80, 3.25761079788208007812e-01) (81, 6.11091732978820800781e-01) (82, -1.19563162326812744141e-01) (83, 8.25324296951293945312e-01) (84, 7.08602726459503173828e-01) (85, 6.24442636966705322266e-01) (86, 1.07189810276031494141e+00) (87, -2.78062224388122558594e-01) (88, 4.33205485343933105469e-01) (89, 1.68506658077239990234e+00) (90, 5.06055891513824462891e-01) (91, 3.14908117055892944336e-01) (92, 7.41346716880798339844e-01) (93, 7.19911932945251464844e-01) (94, -2.34572589397430419922e-02) (95, 4.39015805721282958984e-01) (96, 5.05045652389526367188e-01) (97, 5.86107254028320312500e-01) (98, 3.82137894630432128906e-01) (99, 8.21581423282623291016e-01) (100, -7.83294588327407836914e-02) (76, 1.14375030994415283203e+00) (77, 4.06426787376403808594e-01) (78, 6.77029136568307876587e-03) (79, -3.90628874301910400391e-01) (80, 6.12570345401763916016e-01) (81, 5.80262660980224609375e-01) (82, 5.46875059604644775391e-01) (83, -2.51389324665069580078e-01) (84, 9.21744704246520996094e-01) (85, 4.65495526790618896484e-01) (86, 1.14384162425994873047e+00) (87, 8.99930119514465332031e-01) (88, 4.19340394437313079834e-02) (89, 9.03614938259124755859e-01) (90, 5.88721275329589843750e-01) (91, 3.77819013595581054688e+00) (92, 3.99195522069931030273e-01) (93, 7.35311061143875122070e-02) (94, -9.13441061973571777344e-01) (95, 8.31105887889862060547e-01) (96, 9.00795876979827880859e-01) (97, -1.53420329093933105469e-01) (98, 8.65504264831542968750e-01) (99, 6.74268126487731933594e-01) (100, 4.45986479520797729492e-01) (101, 6.05642914772033691406e-01) (102, 1.36814105510711669922e+00) (103, -9.91113036870956420898e-02) (104, 3.76431077718734741211e-01) (105, 8.37359786033630371094e-01) (106, 7.99456405639648437500e+00) (107, 4.61055666208267211914e-01) (108, -1.40684721991419792175e-02) (109, 9.41857814788818359375e-01) (110, 3.28338712453842163086e-01) (111, 4.67854291200637817383e-01) (112, 8.60649347305297851562e-01) (113, 4.65372622013092041016e-01) (114, 1.14019119739532470703e+00) (115, 1.20771300792694091797e+00) (116, 7.22655773162841796875e-01) (117, 9.95510578155517578125e-01) (118, 4.51949626207351684570e-01) (119, 8.27265918254852294922e-01) (120, 4.62427139282226562500e-01) (121, 3.93996030092239379883e-01) (122, 3.63032251596450805664e-01) (123, 1.02989447116851806641e+00) (124, 4.14559006690979003906e-01) (125, 4.81213182210922241211e-01) (101, -4.21047732234001159668e-02) (102, -2.04642295837402343750e-01) (103, 1.45164668560028076172e-01) (104, 3.31960208714008331299e-02) (105, 5.18587589263916015625e-01) (106, -7.43430733680725097656e-01) (107, -1.06167405843734741211e-01) (108, 9.86846446990966796875e-01) (109, 4.47770833969116210938e-01) (110, -2.29318454861640930176e-01) (111, 3.27770650386810302734e-01) (112, -2.45378285646438598633e-01) (113, 5.55003404617309570312e-01) (114, 4.07773017883300781250e-01) (115, 4.61900204420089721680e-01) (116, -1.60683929920196533203e-01) (117, 1.61882445216178894043e-01) (118, 9.48296427726745605469e-01) (119, -3.83122980594635009766e-01) (120, 7.52148509025573730469e-01) (121, 1.56671732664108276367e-01) (122, -1.39063373208045959473e-02) (123, 2.54705458879470825195e-01) (124, -5.88899850845336914062e-01) (125, -3.66813018918037414551e-02) (101, 7.51102447509765625000e-01) (102, -8.43918696045875549316e-02) (103, 3.80867266654968261719e+00) (104, 1.39724516868591308594e+00) (105, 1.35752153396606445312e+00) (106, -6.87547251582145690918e-02) (107, 2.74933695793151855469e-01) (108, 6.34869813919067382812e-01) (109, 1.04446125030517578125e+00) (110, -6.26478612422943115234e-01) (111, 4.66526955366134643555e-01) (112, 2.23217797279357910156e+00) (113, 5.85912346839904785156e-01) (114, 7.91694223880767822266e-01) (115, 9.85148310661315917969e-01) (116, 9.00716841220855712891e-01) (117, 1.50577199459075927734e+00) (118, 1.17662119865417480469e+00) (119, 1.47349432110786437988e-01) (120, 3.32590311765670776367e-01) (121, 8.07762742042541503906e-01) (122, -4.27383470535278320312e+00) (123, 7.95840680599212646484e-01) (124, -1.48248523473739624023e-01) (125, 1.10859739780426025391e+00) (101, 1.27542483806610107422e+00) (102, 7.69271790981292724609e-01) (103, 2.01359510421752929688e+00) (104, 7.78302729129791259766e-01) (105, 4.46101099252700805664e-01) (106, 4.17552828788757324219e-01) (107, 8.18756937980651855469e-01) (108, 8.12437713146209716797e-01) (109, -2.48897865414619445801e-01) (110, 6.52576863765716552734e-01) (111, 1.15974152088165283203e+00) (112, 9.74759757518768310547e-01) (113, 3.27929079532623291016e-01) (114, 6.41325771808624267578e-01) (115, 1.00110881030559539795e-01) (116, 3.21057081222534179688e-01) (117, 3.94588738679885864258e-01) (118, -2.80273795127868652344e-01) (119, 1.41826474666595458984e+00) (120, 6.88210725784301757812e-02) (121, 5.11026661843061447144e-03) (122, 2.14409136772155761719e+00) (123, 4.11113947629928588867e-01) (124, -5.30077330768108367920e-02) (125, 9.51071739196777343750e-01) (101, 8.02410662174224853516e-01) (102, 1.17093276977539062500e+00) (103, 7.23344743251800537109e-01) (104, 4.62802380323410034180e-01) (105, -3.52295130491256713867e-01) (106, 7.59492754936218261719e-01) (107, 3.12836736440658569336e-01) (108, 2.53377079963684082031e-01) (109, 7.51423090696334838867e-02) (110, 3.89313608407974243164e-01) (111, 1.17306065559387207031e+00) (112, 6.07977092266082763672e-01) (113, -2.76353769004344940186e-03) (114, -5.19907414913177490234e-01) (115, 1.00624851882457733154e-01) (116, 2.96901404857635498047e-01) (117, -6.01414501667022705078e-01) (118, 4.97363805770874023438e-01) (119, 1.18003413081169128418e-01) (120, 4.36258465051651000977e-01) (121, -7.59202754124999046326e-03) (122, 5.93391537666320800781e-01) (123, 2.74687558412551879883e-01) (124, -4.74108070135116577148e-01) (125, 8.89399647712707519531e-01) (101, 1.73363280296325683594e+00) (102, 5.30761480331420898438e-01) (103, -3.11229377985000610352e-01) (104, 4.51331958174705505371e-02) (105, 6.44476115703582763672e-01) (106, 4.20077830553054809570e-01) (107, 9.11383867263793945312e-01) (108,