FANN_FLO_2.1
num_layers=20
learning_rate=0.700000
connection_rate=1.000000
network_type=0
learning_momentum=0.000000
training_algorithm=2
train_error_function=1
train_stop_function=1
cascade_output_change_fraction=0.010000
quickprop_decay=-0.000100
quickprop_mu=1.750000
rprop_increase_factor=1.200000
rprop_decrease_factor=0.500000
rprop_delta_min=0.000000
rprop_delta_max=50.000000
rprop_delta_zero=0.100000
cascade_output_stagnation_epochs=12
cascade_candidate_change_fraction=0.010000
cascade_candidate_stagnation_epochs=12
cascade_max_out_epochs=150
cascade_min_out_epochs=50
cascade_max_cand_epochs=150
cascade_min_cand_epochs=50
cascade_num_candidate_groups=2
bit_fail_limit=9.99999977648258209229e-03
cascade_candidate_limit=1.00000000000000000000e+03
cascade_weight_multiplier=4.00000005960464477539e-01
cascade_activation_functions_count=10
cascade_activation_functions=3 5 7 8 10 11 14 15 16 17 
cascade_activation_steepnesses_count=4
cascade_activation_steepnesses=2.50000000000000000000e-01 5.00000000000000000000e-01 7.50000000000000000000e-01 1.00000000000000000000e+00 
layer_sizes=9 17 25 25 25 25 25 25 25 25 25 25 25 25 25 25 25 25 17 9 
scale_included=0
neurons (num_inputs, activation_function, activation_steepness)=(0, 0, 0.00000000000000000000e+00) (0, 0, 0.00000000000000000000e+00) (0, 0, 0.00000000000000000000e+00) (0, 0, 0.00000000000000000000e+00) (0, 0, 0.00000000000000000000e+00) (0, 0, 0.00000000000000000000e+00) (0, 0, 0.00000000000000000000e+00) (0, 0, 0.00000000000000000000e+00) (0, 0, 0.00000000000000000000e+00) (9, 5, 1.00000000000000000000e+00) (9, 5, 1.00000000000000000000e+00) (9, 5, 1.00000000000000000000e+00) (9, 5, 1.00000000000000000000e+00) (9, 5, 1.00000000000000000000e+00) (9, 5, 1.00000000000000000000e+00) (9, 5, 1.00000000000000000000e+00) (9, 5, 1.00000000000000000000e+00) (9, 5, 1.00000000000000000000e+00) (9, 5, 1.00000000000000000000e+00) (9, 5, 1.00000000000000000000e+00) (9, 5, 1.00000000000000000000e+00) (9, 5, 1.00000000000000000000e+00) (9, 5, 1.00000000000000000000e+00) (9, 5, 1.00000000000000000000e+00) (9, 5, 1.00000000000000000000e+00) (0, 5, 1.00000000000000000000e+00) (17, 5, 1.00000000000000000000e+00) (17, 5, 1.00000000000000000000e+00) (17, 5, 1.00000000000000000000e+00) (17, 5, 1.00000000000000000000e+00) (17, 5, 1.00000000000000000000e+00) (17, 5, 1.00000000000000000000e+00) (17, 5, 1.00000000000000000000e+00) (17, 5, 1.00000000000000000000e+00) (17, 5, 1.00000000000000000000e+00) (17, 5, 1.00000000000000000000e+00) (17, 5, 1.00000000000000000000e+00) (17, 5, 1.00000000000000000000e+00) (17, 5, 1.00000000000000000000e+00) (17, 5, 1.00000000000000000000e+00) (17, 5, 1.00000000000000000000e+00) (17, 5, 1.00000000000000000000e+00) (17, 5, 1.00000000000000000000e+00) (17, 5, 1.00000000000000000000e+00) (17, 5, 1.00000000000000000000e+00) (17, 5, 1.00000000000000000000e+00) (17, 5, 1.00000000000000000000e+00) (17, 5, 1.00000000000000000000e+00) (17, 5, 1.00000000000000000000e+00) (17, 5, 1.00000000000000000000e+00) (0, 5, 1.00000000000000000000e+00) (25, 5, 1.00000000000000000000e+00) (25, 5, 1.00000000000000000000e+00) (25, 5, 1.00000000000000000000e+00) (25, 5, 1.00000000000000000000e+00) (25, 5, 1.00000000000000000000e+00) (25, 5, 1.00000000000000000000e+00) (25, 5, 1.00000000000000000000e+00) (25, 5, 1.00000000000000000000e+00) (25, 5, 1.00000000000000000000e+00) (25, 5, 1.00000000000000000000e+00) (25, 5, 1.00000000000000000000e+00) (25, 5, 1.00000000000000000000e+00) (25, 5, 1.00000000000000000000e+00) (25, 5, 1.00000000000000000000e+00) (25, 5, 1.00000000000000000000e+00) (25, 5, 1.00000000000000000000e+00) (25, 5, 1.00000000000000000000e+00) (25, 5, 1.00000000000000000000e+00) (25, 5, 1.00000000000000000000e+00) (25, 5, 1.00000000000000000000e+00) (25, 5, 1.00000000000000000000e+00) (25, 5, 1.00000000000000000000e+00) (25, 5, 1.00000000000000000000e+00) (25, 5, 1.00000000000000000000e+00) (0, 5, 1.00000000000000000000e+00) (25, 5, 1.00000000000000000000e+00) (25, 5, 1.00000000000000000000e+00) (25, 5, 1.00000000000000000000e+00) (25, 5, 1.00000000000000000000e+00) (25, 5, 1.00000000000000000000e+00) (25, 5, 1.00000000000000000000e+00) (25, 5, 1.00000000000000000000e+00) (25, 5, 1.00000000000000000000e+00) (25, 5, 1.00000000000000000000e+00) (25, 5, 1.00000000000000000000e+00) (25, 5, 1.00000000000000000000e+00) (25, 5, 1.00000000000000000000e+00) (25, 5, 1.00000000000000000000e+00) (25, 5, 1.00000000000000000000e+00) (25, 5, 1.00000000000000000000e+00) (25, 5, 1.00000000000000000000e+00) (25, 5, 1.00000000000000000000e+00) (25, 5, 1.00000000000000000000e+00) (25, 5, 1.00000000000000000000e+00) (25, 5, 1.00000000000000000000e+00) (25, 5, 1.00000000000000000000e+00) (25, 5, 1.00000000000000000000e+00) (25, 5, 1.00000000000000000000e+00) (25, 5, 1.00000000000000000000e+00) (0, 5, 1.00000000000000000000e+00) (25, 5, 1.00000000000000000000e+00) (25, 5, 1.00000000000000000000e+00) (25, 5, 1.00000000000000000000e+00) (25, 5, 1.00000000000000000000e+00) (25, 5, 1.00000000000000000000e+00) (25, 5, 1.00000000000000000000e+00) (25, 5, 1.00000000000000000000e+00) (25, 5, 1.00000000000000000000e+00) (25, 5, 1.00000000000000000000e+00) (25, 5, 1.00000000000000000000e+00) (25, 5, 1.00000000000000000000e+00) (25, 5, 1.00000000000000000000e+00) (25, 5, 1.00000000000000000000e+00) (25, 5, 1.00000000000000000000e+00) (25, 5, 1.00000000000000000000e+00) (25, 5, 1.00000000000000000000e+00) (25, 5, 1.00000000000000000000e+00) (25, 5, 1.00000000000000000000e+00) (25, 5, 1.00000000000000000000e+00) (25, 5, 1.00000000000000000000e+00) (25, 5, 1.00000000000000000000e+00) (25, 5, 1.00000000000000000000e+00) (25, 5, 1.00000000000000000000e+00) (25, 5, 1.00000000000000000000e+00) (0, 5, 1.00000000000000000000e+00) (25, 5, 1.00000000000000000000e+00) (25, 5, 1.00000000000000000000e+00) (25, 5, 1.00000000000000000000e+00) (25, 5, 1.00000000000000000000e+00) (25, 5, 1.00000000000000000000e+00) (25, 5, 1.00000000000000000000e+00) (25, 5, 1.00000000000000000000e+00) (25, 5, 1.00000000000000000000e+00) (25, 5, 1.00000000000000000000e+00) (25, 5, 1.00000000000000000000e+00) (25, 5, 1.00000000000000000000e+00) (25, 5, 1.00000000000000000000e+00) (25, 5, 1.00000000000000000000e+00) (25, 5, 1.00000000000000000000e+00) (25, 5, 1.00000000000000000000e+00) (25, 5, 1.00000000000000000000e+00) (25, 5, 1.00000000000000000000e+00) (25, 5, 1.00000000000000000000e+00) (25, 5, 1.00000000000000000000e+00) (25, 5, 1.00000000000000000000e+00) (25, 5, 1.00000000000000000000e+00) (25, 5, 1.00000000000000000000e+00) (25, 5, 1.00000000000000000000e+00) (25, 5, 1.00000000000000000000e+00) (0, 5, 1.00000000000000000000e+00) (25, 5, 1.00000000000000000000e+00) (25, 5, 1.00000000000000000000e+00) (25, 5, 1.00000000000000000000e+00) (25, 5, 1.00000000000000000000e+00) (25, 5, 1.00000000000000000000e+00) (25, 5, 1.00000000000000000000e+00) (25, 5, 1.00000000000000000000e+00) (25, 5, 1.00000000000000000000e+00) (25, 5, 1.00000000000000000000e+00) (25, 5, 1.00000000000000000000e+00) (25, 5, 1.00000000000000000000e+00) (25, 5, 1.00000000000000000000e+00) (25, 5, 1.00000000000000000000e+00) (25, 5, 1.00000000000000000000e+00) (25, 5, 1.00000000000000000000e+00) (25, 5, 1.00000000000000000000e+00) (25, 5, 1.00000000000000000000e+00) (25, 5, 1.00000000000000000000e+00) (25, 5, 1.00000000000000000000e+00) (25, 5, 1.00000000000000000000e+00) (25, 5, 1.00000000000000000000e+00) (25, 5, 1.00000000000000000000e+00) (25, 5, 1.00000000000000000000e+00) (25, 5, 1.00000000000000000000e+00) (0, 5, 1.00000000000000000000e+00) (25, 5, 1.00000000000000000000e+00) (25, 5, 1.00000000000000000000e+00) (25, 5, 1.00000000000000000000e+00) (25, 5, 1.00000000000000000000e+00) (25, 5, 1.00000000000000000000e+00) (25, 5, 1.00000000000000000000e+00) (25, 5, 1.00000000000000000000e+00) (25, 5, 1.00000000000000000000e+00) (25, 5, 1.00000000000000000000e+00) (25, 5, 1.00000000000000000000e+00) (25, 5, 1.00000000000000000000e+00) (25, 5, 1.00000000000000000000e+00) (25, 5, 1.00000000000000000000e+00) (25, 5, 1.00000000000000000000e+00) (25, 5, 1.00000000000000000000e+00) (25, 5, 1.00000000000000000000e+00) (25, 5, 1.00000000000000000000e+00) (25, 5, 1.00000000000000000000e+00) (25, 5, 1.00000000000000000000e+00) (25, 5, 1.00000000000000000000e+00) (25, 5, 1.00000000000000000000e+00) (25, 5, 1.00000000000000000000e+00) (25, 5, 1.00000000000000000000e+00) (25, 5, 1.00000000000000000000e+00) (0, 5, 1.00000000000000000000e+00) (25, 5, 1.00000000000000000000e+00) (25, 5, 1.00000000000000000000e+00) (25, 5, 1.00000000000000000000e+00) (25, 5, 1.00000000000000000000e+00) (25, 5, 1.00000000000000000000e+00) (25, 5, 1.00000000000000000000e+00) (25, 5, 1.00000000000000000000e+00) (25, 5, 1.00000000000000000000e+00) (25, 5, 1.00000000000000000000e+00) (25, 5, 1.00000000000000000000e+00) (25, 5, 1.00000000000000000000e+00) (25, 5, 1.00000000000000000000e+00) (25, 5, 1.00000000000000000000e+00) (25, 5, 1.00000000000000000000e+00) (25, 5, 1.00000000000000000000e+00) (25, 5, 1.00000000000000000000e+00) (25, 5, 1.00000000000000000000e+00) (25, 5, 1.00000000000000000000e+00) (25, 5, 1.00000000000000000000e+00) (25, 5, 1.00000000000000000000e+00) (25, 5, 1.00000000000000000000e+00) (25, 5, 1.00000000000000000000e+00) (25, 5, 1.00000000000000000000e+00) (25, 5, 1.00000000000000000000e+00) (0, 5, 1.00000000000000000000e+00) (25, 5, 1.00000000000000000000e+00) (25, 5, 1.00000000000000000000e+00) (25, 5, 1.00000000000000000000e+00) (25, 5, 1.00000000000000000000e+00) (25, 5, 1.00000000000000000000e+00) (25, 5, 1.00000000000000000000e+00) (25, 5, 1.00000000000000000000e+00) (25, 5, 1.00000000000000000000e+00) (25, 5, 1.00000000000000000000e+00) (25, 5, 1.00000000000000000000e+00) (25, 5, 1.00000000000000000000e+00) (25, 5, 1.00000000000000000000e+00) (25, 5, 1.00000000000000000000e+00) (25, 5, 1.00000000000000000000e+00) (25, 5, 1.00000000000000000000e+00) (25, 5, 1.00000000000000000000e+00) (25, 5, 1.00000000000000000000e+00) (25, 5, 1.00000000000000000000e+00) (25, 5, 1.00000000000000000000e+00) (25, 5, 1.00000000000000000000e+00) (25, 5, 1.00000000000000000000e+00) (25, 5, 1.00000000000000000000e+00) (25, 5, 1.00000000000000000000e+00) (25, 5, 1.00000000000000000000e+00) (0, 5, 1.00000000000000000000e+00) (25, 5, 1.00000000000000000000e+00) (25, 5, 1.00000000000000000000e+00) (25, 5, 1.00000000000000000000e+00) (25, 5, 1.00000000000000000000e+00) (25, 5, 1.00000000000000000000e+00) (25, 5, 1.00000000000000000000e+00) (25, 5, 1.00000000000000000000e+00) (25, 5, 1.00000000000000000000e+00) (25, 5, 1.00000000000000000000e+00) (25, 5, 1.00000000000000000000e+00) (25, 5, 1.00000000000000000000e+00) (25, 5, 1.00000000000000000000e+00) (25, 5, 1.00000000000000000000e+00) (25, 5, 1.00000000000000000000e+00) (25, 5, 1.00000000000000000000e+00) (25, 5, 1.00000000000000000000e+00) (25, 5, 1.00000000000000000000e+00) (25, 5, 1.00000000000000000000e+00) (25, 5, 1.00000000000000000000e+00) (25, 5, 1.00000000000000000000e+00) (25, 5, 1.00000000000000000000e+00) (25, 5, 1.00000000000000000000e+00) (25, 5, 1.00000000000000000000e+00) (25, 5, 1.00000000000000000000e+00) (0, 5, 1.00000000000000000000e+00) (25, 5, 1.00000000000000000000e+00) (25, 5, 1.00000000000000000000e+00) (25, 5, 1.00000000000000000000e+00) (25, 5, 1.00000000000000000000e+00) (25, 5, 1.00000000000000000000e+00) (25, 5, 1.00000000000000000000e+00) (25, 5, 1.00000000000000000000e+00) (25, 5, 1.00000000000000000000e+00) (25, 5, 1.00000000000000000000e+00) (25, 5, 1.00000000000000000000e+00) (25, 5, 1.00000000000000000000e+00) (25, 5, 1.00000000000000000000e+00) (25, 5, 1.00000000000000000000e+00) (25, 5, 1.00000000000000000000e+00) (25, 5, 1.00000000000000000000e+00) (25, 5, 1.00000000000000000000e+00) (25, 5, 1.00000000000000000000e+00) (25, 5, 1.00000000000000000000e+00) (25, 5, 1.00000000000000000000e+00) (25, 5, 1.00000000000000000000e+00) (25, 5, 1.00000000000000000000e+00) (25, 5, 1.00000000000000000000e+00) (25, 5, 1.00000000000000000000e+00) (25, 5, 1.00000000000000000000e+00) (0, 5, 1.00000000000000000000e+00) (25, 5, 1.00000000000000000000e+00) (25, 5, 1.00000000000000000000e+00) (25, 5, 1.00000000000000000000e+00) (25, 5, 1.00000000000000000000e+00) (25, 5, 1.00000000000000000000e+00) (25, 5, 1.00000000000000000000e+00) (25, 5, 1.00000000000000000000e+00) (25, 5, 1.00000000000000000000e+00) (25, 5, 1.00000000000000000000e+00) (25, 5, 1.00000000000000000000e+00) (25, 5, 1.00000000000000000000e+00) (25, 5, 1.00000000000000000000e+00) (25, 5, 1.00000000000000000000e+00) (25, 5, 1.00000000000000000000e+00) (25, 5, 1.00000000000000000000e+00) (25, 5, 1.00000000000000000000e+00) (25, 5, 1.00000000000000000000e+00) (25, 5, 1.00000000000000000000e+00) (25, 5, 1.00000000000000000000e+00) (25, 5, 1.00000000000000000000e+00) (25, 5, 1.00000000000000000000e+00) (25, 5, 1.00000000000000000000e+00) (25, 5, 1.00000000000000000000e+00) (25, 5, 1.00000000000000000000e+00) (0, 5, 1.00000000000000000000e+00) (25, 5, 1.00000000000000000000e+00) (25, 5, 1.00000000000000000000e+00) (25, 5, 1.00000000000000000000e+00) (25, 5, 1.00000000000000000000e+00) (25, 5, 1.00000000000000000000e+00) (25, 5, 1.00000000000000000000e+00) (25, 5, 1.00000000000000000000e+00) (25, 5, 1.00000000000000000000e+00) (25, 5, 1.00000000000000000000e+00) (25, 5, 1.00000000000000000000e+00) (25, 5, 1.00000000000000000000e+00) (25, 5, 1.00000000000000000000e+00) (25, 5, 1.00000000000000000000e+00) (25, 5, 1.00000000000000000000e+00) (25, 5, 1.00000000000000000000e+00) (25, 5, 1.00000000000000000000e+00) (25, 5, 1.00000000000000000000e+00) (25, 5, 1.00000000000000000000e+00) (25, 5, 1.00000000000000000000e+00) (25, 5, 1.00000000000000000000e+00) (25, 5, 1.00000000000000000000e+00) (25, 5, 1.00000000000000000000e+00) (25, 5, 1.00000000000000000000e+00) (25, 5, 1.00000000000000000000e+00) (0, 5, 1.00000000000000000000e+00) (25, 5, 1.00000000000000000000e+00) (25, 5, 1.00000000000000000000e+00) (25, 5, 1.00000000000000000000e+00) (25, 5, 1.00000000000000000000e+00) (25, 5, 1.00000000000000000000e+00) (25, 5, 1.00000000000000000000e+00) (25, 5, 1.00000000000000000000e+00) (25, 5, 1.00000000000000000000e+00) (25, 5, 1.00000000000000000000e+00) (25, 5, 1.00000000000000000000e+00) (25, 5, 1.00000000000000000000e+00) (25, 5, 1.00000000000000000000e+00) (25, 5, 1.00000000000000000000e+00) (25, 5, 1.00000000000000000000e+00) (25, 5, 1.00000000000000000000e+00) (25, 5, 1.00000000000000000000e+00) (25, 5, 1.00000000000000000000e+00) (25, 5, 1.00000000000000000000e+00) (25, 5, 1.00000000000000000000e+00) (25, 5, 1.00000000000000000000e+00) (25, 5, 1.00000000000000000000e+00) (25, 5, 1.00000000000000000000e+00) (25, 5, 1.00000000000000000000e+00) (25, 5, 1.00000000000000000000e+00) (0, 5, 1.00000000000000000000e+00) (25, 5, 1.00000000000000000000e+00) (25, 5, 1.00000000000000000000e+00) (25, 5, 1.00000000000000000000e+00) (25, 5, 1.00000000000000000000e+00) (25, 5, 1.00000000000000000000e+00) (25, 5, 1.00000000000000000000e+00) (25, 5, 1.00000000000000000000e+00) (25, 5, 1.00000000000000000000e+00) (25, 5, 1.00000000000000000000e+00) (25, 5, 1.00000000000000000000e+00) (25, 5, 1.00000000000000000000e+00) (25, 5, 1.00000000000000000000e+00) (25, 5, 1.00000000000000000000e+00) (25, 5, 1.00000000000000000000e+00) (25, 5, 1.00000000000000000000e+00) (25, 5, 1.00000000000000000000e+00) (25, 5, 1.00000000000000000000e+00) (25, 5, 1.00000000000000000000e+00) (25, 5, 1.00000000000000000000e+00) (25, 5, 1.00000000000000000000e+00) (25, 5, 1.00000000000000000000e+00) (25, 5, 1.00000000000000000000e+00) (25, 5, 1.00000000000000000000e+00) (25, 5, 1.00000000000000000000e+00) (0, 5, 1.00000000000000000000e+00) (25, 5, 1.00000000000000000000e+00) (25, 5, 1.00000000000000000000e+00) (25, 5, 1.00000000000000000000e+00) (25, 5, 1.00000000000000000000e+00) (25, 5, 1.00000000000000000000e+00) (25, 5, 1.00000000000000000000e+00) (25, 5, 1.00000000000000000000e+00) (25, 5, 1.00000000000000000000e+00) (25, 5, 1.00000000000000000000e+00) (25, 5, 1.00000000000000000000e+00) (25, 5, 1.00000000000000000000e+00) (25, 5, 1.00000000000000000000e+00) (25, 5, 1.00000000000000000000e+00) (25, 5, 1.00000000000000000000e+00) (25, 5, 1.00000000000000000000e+00) (25, 5, 1.00000000000000000000e+00) (25, 5, 1.00000000000000000000e+00) (25, 5, 1.00000000000000000000e+00) (25, 5, 1.00000000000000000000e+00) (25, 5, 1.00000000000000000000e+00) (25, 5, 1.00000000000000000000e+00) (25, 5, 1.00000000000000000000e+00) (25, 5, 1.00000000000000000000e+00) (25, 5, 1.00000000000000000000e+00) (0, 5, 1.00000000000000000000e+00) (25, 5, 1.00000000000000000000e+00) (25, 5, 1.00000000000000000000e+00) (25, 5, 1.00000000000000000000e+00) (25, 5, 1.00000000000000000000e+00) (25, 5, 1.00000000000000000000e+00) (25, 5, 1.00000000000000000000e+00) (25, 5, 1.00000000000000000000e+00) (25, 5, 1.00000000000000000000e+00) (25, 5, 1.00000000000000000000e+00) (25, 5, 1.00000000000000000000e+00) (25, 5, 1.00000000000000000000e+00) (25, 5, 1.00000000000000000000e+00) (25, 5, 1.00000000000000000000e+00) (25, 5, 1.00000000000000000000e+00) (25, 5, 1.00000000000000000000e+00) (25, 5, 1.00000000000000000000e+00) (0, 5, 1.00000000000000000000e+00) (17, 5, 1.00000000000000000000e+00) (17, 5, 1.00000000000000000000e+00) (17, 5, 1.00000000000000000000e+00) (17, 5, 1.00000000000000000000e+00) (17, 5, 1.00000000000000000000e+00) (17, 5, 1.00000000000000000000e+00) (17, 5, 1.00000000000000000000e+00) (17, 5, 1.00000000000000000000e+00) (0, 5, 1.00000000000000000000e+00) 
connections (connected_to_neuron, weight)=(0, 8.34850251674652099609e-01) (1, 5.06379008293151855469e-01) (2, 4.86859130859375000000e+00) (3, 1.47467958927154541016e+00) (4, 3.94515657424926757812e+00) (5, 6.22363388538360595703e-01) (6, 7.52227485179901123047e-01) (7, 7.87850737571716308594e-01) (8, 1.21885824203491210938e+00) (0, 9.32794928550720214844e-01) (1, 6.02134644985198974609e-01) (2, 8.27531754970550537109e-01) (3, 1.31511723995208740234e+00) (4, 1.00059103965759277344e+00) (5, 1.75967407226562500000e+00) (6, 1.42669701576232910156e+00) (7, 2.82169795036315917969e+00) (8, 3.16760033369064331055e-01) (0, 2.25109767913818359375e+00) (1, 1.15456867218017578125e+00) (2, 1.64945805072784423828e+00) (3, -2.07808762788772583008e-01) (4, 7.60727047920227050781e-01) (5, 1.44240117073059082031e+00) (6, -1.38492393493652343750e+00) (7, 5.41724920272827148438e-01) (8, 1.48695325851440429688e+00) (0, 2.06886053085327148438e+00) (1, 1.61188089847564697266e+00) (2, 3.28159141540527343750e+00) (3, 3.08806228637695312500e+00) (4, 1.81984591484069824219e+00) (5, 8.24354410171508789062e-01) (6, -1.00312042236328125000e+03) (7, 2.94380712509155273438e+00) (8, 1.50539708137512207031e+00) (0, 7.74850606918334960938e-01) (1, 8.70349824428558349609e-01) (2, 2.24499726295471191406e+00) (3, 5.79380393028259277344e-01) (4, 4.81001555919647216797e-01) (5, 2.07461190223693847656e+00) (6, 1.49058365821838378906e+00) (7, 1.22521817684173583984e+00) (8, 2.09087371826171875000e+00) (0, 1.73199260234832763672e+00) (1, 7.24089443683624267578e-01) (2, 1.37119519710540771484e+00) (3, 8.59727680683135986328e-01) (4, 2.72025376558303833008e-01) (5, 1.10398018360137939453e+00) (6, 2.44655871391296386719e+00) (7, 2.22951221466064453125e+00) (8, 1.39735043048858642578e-01) (0, 5.81295430660247802734e-01) (1, -1.22065246105194091797e+00) (2, 3.08314943313598632812e+00) (3, -5.05119621753692626953e-01) (4, 1.55741679668426513672e+00) (5, 5.58886051177978515625e-01) (6, 9.77190554141998291016e-01) (7, 6.24100983142852783203e-01) (8, 1.70063388347625732422e+00) (0, 2.94755530357360839844e+00) (1, 2.82605934143066406250e+00) (2, 3.86282622814178466797e-01) (3, 6.77162170410156250000e-01) (4, 3.07514166831970214844e+00) (5, 6.50316953659057617188e-01) (6, 2.83158510923385620117e-01) (7, 1.03401243686676025391e+00) (8, 1.64278733730316162109e+00) (0, 2.94842123985290527344e-01) (1, -7.06558823585510253906e-01) (2, 1.49605989456176757812e+00) (3, -1.68011188507080078125e-01) (4, 1.72728800773620605469e+00) (5, 1.13409459590911865234e+00) (6, 1.46206438541412353516e+00) (7, 8.93473446369171142578e-01) (8, 1.72885167598724365234e+00) (0, 1.00350642204284667969e+00) (1, 1.15428221225738525391e+00) (2, 2.41794848442077636719e+00) (3, -4.24919158220291137695e-01) (4, 5.58543622493743896484e-01) (5, 7.58950650691986083984e-01) (6, 6.50264382362365722656e-01) (7, 8.99704515933990478516e-01) (8, 1.14087748527526855469e+00) (0, 2.43234679102897644043e-01) (1, 9.29564833641052246094e-02) (2, 2.02137184143066406250e+00) (3, -1.00115859508514404297e+00) (4, 1.41954648494720458984e+00) (5, 6.27847135066986083984e-01) (6, 8.21797847747802734375e-01) (7, -1.64108810424804687500e+01) (8, 1.22416174411773681641e+00) (0, 7.24199891090393066406e-01) (1, 6.31555080413818359375e-01) (2, 3.46142888069152832031e+00) (3, 5.43317437171936035156e-01) (4, 1.54129171371459960938e+00) (5, 1.23269784450531005859e+00) (6, -3.73428106307983398438e+00) (7, 8.75591456890106201172e-01) (8, -1.54096826910972595215e-01) (0, 3.89328956604003906250e+00) (1, -2.23977863788604736328e-01) (2, 1.22041416168212890625e+00) (3, -1.01886570453643798828e+00) (4, 1.04323625564575195312e+00) (5, -7.38374143838882446289e-02) (6, -6.66518434882164001465e-02) (7, 8.23643803596496582031e-01) (8, 1.76544606685638427734e+00) (0, 3.14436644315719604492e-01) (1, 9.50941920280456542969e-01) (2, 2.37392759323120117188e+00) (3, 2.61235892772674560547e-01) (4, 1.33403193950653076172e+00) (5, 4.90064239501953125000e+00) (6, 4.70064163208007812500e-01) (7, -4.93979597091674804688e+00) (8, 1.61171805858612060547e+00) (0, 9.86009657382965087891e-01) (1, 2.51410531997680664062e+00) (2, 1.82959783077239990234e+00) (3, 1.82637393474578857422e-01) (4, 1.14272212982177734375e+00) (5, 2.67624235153198242188e+00) (6, 4.19749855995178222656e-01) (7, -7.69520461559295654297e-01) (8, 1.41370761394500732422e+00) (0, 4.83768910169601440430e-01) (1, -3.12358319759368896484e-01) (2, -2.70389914512634277344e+00) (3, 1.05854344367980957031e+00) (4, 2.44593143463134765625e+00) (5, 2.15532112121582031250e+00) (6, 1.17725706100463867188e+00) (7, -1.15269553661346435547e+00) (8, 2.73114728927612304688e+00) (9, 4.37235653400421142578e-01) (10, 8.77816975116729736328e-02) (11, 3.16502165794372558594e+00) (12, 6.67098104953765869141e-01) (13, 6.63023948669433593750e-01) (14, -1.18550097942352294922e+00) (15, 1.32185220718383789062e+00) (16, 1.62535369396209716797e+00) (17, 1.11469709873199462891e+00) (18, 6.83179736137390136719e-01) (19, 1.46581768989562988281e+00) (20, 1.08277285099029541016e+00) (21, 9.79387104511260986328e-01) (22, 1.56907951831817626953e+00) (23, 1.64345431327819824219e+00) (24, 1.42243850231170654297e+00) (25, 1.40250611305236816406e+00) (9, 7.95853734016418457031e-01) (10, -1.33317625522613525391e+00) (11, 9.27528083324432373047e-01) (12, 5.93771219253540039062e-01) (13, 2.95751690864562988281e-01) (14, 5.51517963409423828125e-01) (15, 9.26877796649932861328e-01) (16, 8.28014612197875976562e-01) (17, 1.68735742568969726562e+00) (18, 7.48931944370269775391e-01) (19, 9.85484719276428222656e-01) (20, 8.53864252567291259766e-01) (21, -2.64949239790439605713e-02) (22, 8.44900250434875488281e-01) (23, 6.21050238609313964844e-01) (24, 3.42196559906005859375e+00) (25, 8.18646728992462158203e-01) (9, -1.04703581333160400391e+00) (10, 2.30381011962890625000e+00) (11, 1.66907501220703125000e+00) (12, -9.50078487396240234375e-01) (13, 8.96122395992279052734e-01) (14, 2.14194774627685546875e-01) (15, -1.01333342492580413818e-01) (16, 6.60987794399261474609e-01) (17, -3.72019072528928518295e-04) (18, 8.00457000732421875000e-01) (19, 9.08217787742614746094e-01) (20, 1.28631591796875000000e+00) (21, -9.57312345504760742188e-01) (22, 1.47905933856964111328e+00) (23, 1.50637567043304443359e+00) (24, 1.47817933559417724609e+00) (25, 8.08976829051971435547e-01) (9, 3.16255187988281250000e+00) (10, 8.76793289184570312500e+00) (11, -1.03218965232372283936e-02) (12, 1.61751413345336914062e+00) (13, 1.40398383140563964844e+00) (14, -1.22543840408325195312e+01) (15, 8.07360589504241943359e-01) (16, 1.35584640502929687500e+00) (17, 5.59170866012573242188e+00) (18, 9.96416687965393066406e-01) (19, -3.96554350852966308594e-01) (20, 3.80025124549865722656e+00) (21, 1.03578162193298339844e+00) (22, 1.90694439411163330078e+00) (23, 1.67652320861816406250e+00) (24, 1.70414876937866210938e+00) (25, -1.34771788120269775391e+00) (9, 1.19577705860137939453e+00) (10, 2.66496515274047851562e+00) (11, 1.23274302482604980469e+00) (12, 4.86994951963424682617e-01) (13, 1.14525866508483886719e+00) (14, 1.64094790816307067871e-01) (15, 1.20402455329895019531e+00) (16, 1.22933435440063476562e+00) (17, 8.92996668815612792969e-01) (18, 5.08682608604431152344e-01) (19, 1.32844042778015136719e+00) (20, 1.40034222602844238281e+00) (21, 5.19278466701507568359e-01) (22, 1.99167633056640625000e+00) (23, 1.62033700942993164062e+00) (24, 6.67286753654479980469e-01) (25, -7.80364051461219787598e-02) (9, -1.61287009716033935547e+00) (10, 1.40302586555480957031e+00) (11, 5.49169659614562988281e-01) (12, 4.70271885395050048828e-01) (13, 8.47098052501678466797e-01) (14, -2.19636663794517517090e-01) (15, 1.57645952701568603516e+00) (16, 1.46026217937469482422e+00) (17, 1.35491430759429931641e+00) (18, 8.37912261486053466797e-01) (19, 1.36766648292541503906e+00) (20, 1.21983981132507324219e+00) (21, 9.34050321578979492188e-01) (22, 7.52248048782348632812e-01) (23, 7.61078417301177978516e-01) (24, 1.13000416755676269531e+00) (25, 1.66260540485382080078e+00) (9, -8.06632280349731445312e-01) (10, -6.56783729791641235352e-02) (11, 2.55007952451705932617e-01) (12, -1.62563109397888183594e+00) (13, 7.48970210552215576172e-01) (14, -2.39303755760192871094e+00) (15, -1.43212735652923583984e+00) (16, -2.09896087646484375000e-01) (17, 8.84064197540283203125e-01) (18, 2.27261513471603393555e-01) (19, 1.40928900241851806641e+00) (20, 2.28777319192886352539e-01) (21, -3.65776836872100830078e-01) (22, 2.90279126167297363281e+00) (23, 1.67681419849395751953e+00) (24, 1.16758930683135986328e+00) (25, 1.83731508255004882812e+00) (9, 1.56913161277770996094e-01) (10, 1.50545284152030944824e-01) (11, 2.34962105751037597656e+00) (12, -1.61270752549171447754e-01) (13, 1.55660724639892578125e+00) (14, 6.38262212276458740234e-01) (15, 8.52390706539154052734e-01) (16, 1.84053671360015869141e+00) (17, 1.67341995239257812500e+00) (18, 1.21658468246459960938e+00) (19, 1.53804242610931396484e+00) (20, 6.77899539470672607422e-01) (21, -1.37470662593841552734e+00) (22, 1.66984248161315917969e+00) (23, 1.39057266712188720703e+00) (24, 6.96026027202606201172e-01) (25, 1.88658133149147033691e-01) (9, 8.53613138198852539062e-01) (10, 8.50385487079620361328e-01) (11, 6.35124921798706054688e-01) (12, 3.06210815906524658203e-01) (13, 9.18656647205352783203e-01) (14, -7.25847482681274414062e+00) (15, 9.91013288497924804688e-01) (16, 6.12874984741210937500e-01) (17, 1.56022965908050537109e+00) (18, 6.72383189201354980469e-01) (19, -5.32239496707916259766e-01) (20, 6.65163087844848632812e+00) (21, 4.81561362743377685547e-01) (22, 2.19349050521850585938e+00) (23, 1.89505624771118164062e+00) (24, 1.56469082832336425781e+00) (25, 8.56116294860839843750e-01) (9, 1.12721204757690429688e+00) (10, 1.96150243282318115234e-01) (11, -8.00003230571746826172e-01) (12, 3.30711960792541503906e+00) (13, 7.46944308280944824219e-01) (14, 7.53961384296417236328e-01) (15, 2.91793614625930786133e-01) (16, -2.13561534881591796875e+00) (17, 9.74824190139770507812e-01) (18, 7.63190746307373046875e-01) (19, 1.91217482089996337891e-01) (20, -3.25957924127578735352e-01) (21, -3.67715120315551757812e+00) (22, -2.63899594545364379883e-01) (23, -5.55134892463684082031e-01) (24, -3.02976161241531372070e-01) (25, 2.74465131759643554688e+00) (9, 1.31663846969604492188e+00) (10, 2.83837318420410156250e+00) (11, 1.56974339485168457031e+00) (12, -5.22740423679351806641e-01) (13, 7.84001588821411132812e-01) (14, 1.57617020606994628906e+00) (15, 3.12216520309448242188e+00) (16, 6.83218598365783691406e-01) (17, 7.06902694702148437500e+00) (18, 1.11714303493499755859e+00) (19, 1.02717316150665283203e+00) (20, 1.88222312927246093750e+00) (21, 1.57670700550079345703e+00) (22, 1.64027130603790283203e+00) (23, 1.62221610546112060547e+00) (24, 2.85060971975326538086e-01) (25, 4.01853114366531372070e-01) (9, 1.25839972496032714844e+00) (10, 1.24627602100372314453e+00) (11, 1.79654264450073242188e+00) (12, -6.11795894801616668701e-02) (13, 2.87675738334655761719e-01) (14, -9.33828413486480712891e-01) (15, -1.61130562424659729004e-01) (16, 1.68663191795349121094e+00) (17, 3.85652363300323486328e-01) (18, 5.21896481513977050781e-01) (19, 5.02867877483367919922e-01) (20, 2.23682761192321777344e-01) (21, 4.97384667396545410156e-01) (22, 1.07707977294921875000e+00) (23, 1.54788899421691894531e+00) (24, 1.45211338996887207031e+00) (25, 1.09667372703552246094e+00) (9, -3.72500866651535034180e-01) (10, -3.71278877258300781250e+01) (11, -1.08365225791931152344e+00) (12, -7.09581613540649414062e-01) (13, 8.94195735454559326172e-01) (14, 4.04427886009216308594e-01) (15, -2.84642887115478515625e+00) (16, 9.10431623458862304688e-01) (17, 1.76024854183197021484e+00) (18, 2.60231383144855499268e-02) (19, 1.17656254768371582031e+00) (20, 1.40255939960479736328e+00) (21, -1.34001660346984863281e+00) (22, 7.13045418262481689453e-01) (23, 1.35868906974792480469e+00) (24, 1.99976420402526855469e+00) (25, 1.61610531806945800781e+00) (9, 4.41372424364089965820e-01) (10, -1.75276935100555419922e-01) (11, 1.72736668586730957031e+00) (12, -5.94389379024505615234e-01) (13, 8.67140591144561767578e-01) (14, -1.12802839279174804688e+00) (15, -1.11307001113891601562e+00) (16, 2.39334368705749511719e+00) (17, -4.23446148633956909180e-01) (18, 1.27367413043975830078e+00) (19, 1.10385096073150634766e+00) (20, 1.37697562575340270996e-01) (21, 4.51598793268203735352e-01) (22, 1.10900914669036865234e+00) (23, 1.66724884510040283203e+00) (24, 3.75534385442733764648e-01) (25, 1.17054200172424316406e+00) (9, 3.33878844976425170898e-01) (10, -2.80072236061096191406e+00) (11, 9.00055885314941406250e-01) (12, -2.95756608247756958008e-01) (13, 1.54882848262786865234e+00) (14, -1.02137374877929687500e+01) (15, 9.67327952384948730469e-01) (16, 6.53974115848541259766e-01) (17, 1.55697154998779296875e+00) (18, 2.17194294929504394531e+00) (19, 1.14649832248687744141e+00) (20, 2.86424815654754638672e-01) (21, 2.44003325700759887695e-01) (22, 1.42650496959686279297e+00) (23, 1.74040973186492919922e+00) (24, 1.90163362026214599609e+00) (25, 1.59770011901855468750e+00) (9, 8.21399033069610595703e-01) (10, 7.61122524738311767578e-01) (11, 1.03331613540649414062e+00) (12, 2.94223368167877197266e-01) (13, 1.14142203330993652344e+00) (14, 2.97780353575944900513e-02) (15, 3.47980529069900512695e-01) (16, 1.06847345829010009766e+00) (17, 7.95336008071899414062e-01) (18, 9.53486561775207519531e-01) (19, 1.24307715892791748047e+00) (20, 2.60530591011047363281e-01) (21, 1.32585823535919189453e+00) (22, 1.11459624767303466797e+00) (23, 8.66057276725769042969e-01) (24, 8.24639141559600830078e-01) (25, 4.52079057693481445312e-01) (9, 8.70932102203369140625e-01) (10, 3.63015949726104736328e-01) (11, 2.65871524810791015625e+00) (12, -4.10798996686935424805e-01) (13, 1.38413894176483154297e+00) (14, -3.87337255477905273438e+00) (15, -5.69271922111511230469e-01) (16, 1.02467632293701171875e+00) (17, 1.93345689773559570312e+00) (18, 5.21754324436187744141e-01) (19, 5.84069132804870605469e-01) (20, -7.59001523256301879883e-02) (21, -4.93824720382690429688e+00) (22, 1.44720602035522460938e+00) (23, 1.21183931827545166016e+00) (24, 1.75771391391754150391e+00) (25, 1.96785569190979003906e+00) (9, 2.30300292372703552246e-01) (10, -1.14714069366455078125e+01) (11, 2.14736104011535644531e+00) (12, -8.95444214344024658203e-01) (13, 1.23863351345062255859e+00) (14, -5.33915376663208007812e+00) (15, 6.52074217796325683594e-01) (16, 6.31427645683288574219e-01) (17, 1.23543138504028320312e+01) (18, 6.90479874610900878906e-01) (19, 1.39890432357788085938e+00) (20, -4.57424819469451904297e-01) (21, -1.24668169021606445312e+00) (22, 5.82760512828826904297e-01) (23, 1.15477502346038818359e+00) (24, 1.85014784336090087891e+00) (25, 1.14337074756622314453e+00) (9, 5.82558488845825195312e+00) (10, -2.05206060409545898438e+00) (11, 1.62460947036743164062e+00) (12, -1.37300539016723632812e+00) (13, 1.66827023029327392578e+00) (14, 2.06518799066543579102e-01) (15, 8.57473850250244140625e-01) (16, -3.68832683563232421875e+00) (17, -2.10935974121093750000e+00) (18, 1.66219627857208251953e+00) (19, -1.22441720962524414062e+00) (20, 3.34031790494918823242e-01) (21, -1.62609422206878662109e+00) (22, 2.06186175346374511719e+00) (23, 1.25085055828094482422e+00) (24, 1.89401137828826904297e+00) (25, 1.68295133113861083984e+00) (9, 7.78090488165616989136e-03) (10, 1.12213742733001708984e+00) (11, 8.03339004516601562500e-01) (12, 1.99218368530273437500e+00) (13, 6.43796622753143310547e-01) (14, -9.65042209625244140625e+00) (15, -8.92657458782196044922e-01) (16, 6.58131301403045654297e-01) (17, -3.98360133171081542969e+00) (18, 5.63685655593872070312e-01) (19, 9.38370287418365478516e-01) (20, 9.11839425563812255859e-01) (21, -1.17018789052963256836e-01) (22, 7.75180637836456298828e-01) (23, 9.81728613376617431641e-01) (24, 1.68622398376464843750e+00) (25, 1.58770680427551269531e+00) (9, 2.01138228178024291992e-01) (10, 1.04567348957061767578e+00) (11, 5.59509754180908203125e-01) (12, 5.37567794322967529297e-01) (13, 1.77120774984359741211e-01) (14, 9.45015788078308105469e-01) (15, -9.76810872554779052734e-01) (16, 9.99936461448669433594e-01) (17, -1.68808612823486328125e+01) (18, 7.49605238437652587891e-01) (19, 1.67507123947143554688e+00) (20, -2.80431777238845825195e-01) (21, 3.98168116807937622070e-01) (22, 7.02450096607208251953e-01) (23, 9.04405415058135986328e-01) (24, 6.80589914321899414062e-01) (25, 1.28437769412994384766e+00) (9, 2.33053016662597656250e+00) (10, 1.67547237873077392578e+00) (11, 7.58748352527618408203e-01) (12, -2.82025225460529327393e-02) (13, 3.03710579872131347656e-01) (14, 5.39310455322265625000e-01) (15, 1.47423768043518066406e+00) (16, 8.02393376827239990234e-01) (17, 7.78028905391693115234e-01) (18, 1.45774409174919128418e-01) (19, 9.19021189212799072266e-01) (20, 1.91236710548400878906e+00) (21, 4.51046109199523925781e-01) (22, 2.02383971214294433594e+00) (23, 1.33106029033660888672e+00) (24, 5.06999552249908447266e-01) (25, -3.12640279531478881836e-01) (9, 1.78347826004028320312e-01) (10, -1.49099206924438476562e+00) (11, 1.51451480388641357422e+00) (12, 1.08974063396453857422e+00) (13, 8.04516971111297607422e-01) (14, 4.28074568510055541992e-01) (15, -4.19898808002471923828e-01) (16, 9.88931536674499511719e-01) (17, 1.42372608184814453125e+00) (18, 1.08199560642242431641e+00) (19, 9.10922229290008544922e-01) (20, 6.57846033573150634766e-01) (21, -4.12485629320144653320e-01) (22, 5.26008129119873046875e-01) (23, 7.52230167388916015625e-01) (24, 1.63988935947418212891e+00) (25, 1.50443422794342041016e+00) (9, 3.69667708873748779297e-01) (10, -7.30676412582397460938e-01) (11, 6.20443761348724365234e-01) (12, -3.38939279317855834961e-01) (13, 4.82372999191284179688e-01) (14, -6.79440641403198242188e+00) (15, -4.40807771682739257812e+00) (16, -1.50845241546630859375e+00) (17, 1.28042852878570556641e+00) (18, 6.26231670379638671875e-01) (19, 9.17792975902557373047e-01) (20, 3.43827795982360839844e+00) (21, -7.19247221946716308594e-01) (22, -1.85375032015144824982e-03) (23, -3.33846896886825561523e-01) (24, -6.91602081060409545898e-02) (25, 6.89347684383392333984e-01) (26, 6.95318877696990966797e-01) (27, 7.04381644725799560547e-01) (28, 5.58224022388458251953e-01) (29, 1.13553833961486816406e+00) (30, 6.12148821353912353516e-01) (31, -1.83952301740646362305e-01) (32, 9.30379450321197509766e-01) (33, -4.65142205357551574707e-02) (34, 9.80322718620300292969e-01) (35, 6.38588368892669677734e-01) (36, 3.05096805095672607422e-01) (37, 9.52817082405090332031e-01) (38, 9.02092278003692626953e-01) (39, 9.47834074497222900391e-01) (40, 5.65280556678771972656e-01) (41, 8.57250154018402099609e-01) (42, 8.45389723777770996094e-01) (43, 6.64610207080841064453e-01) (44, 1.03544831275939941406e-01) (45, 7.17265367507934570312e-01) (46, 8.21525216102600097656e-01) (47, 6.56488597393035888672e-01) (48, 1.04524955153465270996e-01) (49, 4.26894724369049072266e-01) (50, 1.93105685710906982422e+00) (26, 3.71602237224578857422e-01) (27, 1.95403516292572021484e-01) (28, 1.03912150859832763672e+00) (29, 1.21254777908325195312e+00) (30, 1.07410870492458343506e-01) (31, 1.43140822649002075195e-01) (32, 2.15989899635314941406e+00) (33, 7.19831168651580810547e-01) (34, 1.21764492988586425781e+00) (35, 2.45645284652709960938e-01) (36, 8.45557630062103271484e-01) (37, 1.29239082336425781250e+00) (38, 1.12934339046478271484e+00) (39, 1.16347885131835937500e+00) (40, 7.39209771156311035156e-01) (41, 2.50759154558181762695e-01) (42, 1.29514837265014648438e+00) (43, 5.72871625423431396484e-01) (44, -6.96069598197937011719e-02) (45, 7.67723381519317626953e-01) (46, 2.58170366287231445312e-01) (47, 1.63123106956481933594e+00) (48, 1.14453904330730438232e-01) (49, 8.95336687564849853516e-01) (50, 1.73607647418975830078e+00) (26, 7.42682695388793945312e-01) (27, 8.75410974025726318359e-01) (28, 8.57288658618927001953e-01) (29, 6.59858942031860351562e-01) (30, 1.37757807970046997070e-01) (31, 3.68569791316986083984e-01) (32, 8.25085759162902832031e-01) (33, 4.14642274379730224609e-01) (34, 5.02587080001831054688e-01) (35, 4.77341532707214355469e-01) (36, 1.41910874843597412109e+00) (37, 5.38751006126403808594e-01) (38, 8.65782201290130615234e-01) (39, 9.14203345775604248047e-01) (40, 1.10562872886657714844e+00) (41, 1.93762913346290588379e-01) (42, 3.61605435609817504883e-01) (43, 3.13116741180419921875e+00) (44, -1.66067071259021759033e-02) (45, 1.49465832519531250000e+03) (46, 3.29022216796875000000e+02) (47, 6.32975161075592041016e-01) (48, 8.27751576900482177734e-01) (49, 1.08523249626159667969e+00) (50, 6.96030139923095703125e-01) (26, 7.72086024284362792969e-01) (27, 1.06201581656932830811e-01) (28, 1.05885922908782958984e+00) (29, 3.81520360708236694336e-01) (30, 1.45930856466293334961e-01) (31, 7.76061832904815673828e-01) (32, 5.26054668426513671875e+00) (33, 9.64626967906951904297e-01) (34, 8.04993212223052978516e-01) (35, 2.08462691307067871094e+00) (36, 1.08264195919036865234e+00) (37, 6.15275859832763671875e-01) (38, 1.18053364753723144531e+00) (39, 4.18682813644409179688e-01) (40, 9.05733823776245117188e-01) (41, 5.50386428833007812500e-01) (42, 1.25268578529357910156e+00) (43, 2.37808394432067871094e+00) (44, 9.60280656814575195312e-01) (45, 3.51841509342193603516e-01) (46, 1.04352986812591552734e+00) (47, 1.81133911013603210449e-01) (48, 1.03944897651672363281e+00) (49, 5.42324423789978027344e-01) (50, 4.79889243841171264648e-01) (26, 7.86383628845214843750e-01) (27, 1.90225258469581604004e-01) (28, 1.26423478126525878906e+00) (29, 1.16252851486206054688e+00) (30, 1.46858766674995422363e-01) (31, 4.86523538827896118164e-01) (32, 1.42870938777923583984e+00) (33, 5.00356376171112060547e-01) (34, 1.45587277412414550781e+00) (35, 5.80700635910034179688e-01) (36, 9.23449337482452392578e-01) (37, 1.12505435943603515625e+00) (38, 5.11456251144409179688e-01) (39, 4.34271812438964843750e-01) (40, 3.71639192104339599609e-01) (41, 1.16168177127838134766e+00) (42, 7.56968557834625244141e-01) (43, 6.63999080657958984375e-01) (44, 6.05866909027099609375e-01) (45, 2.14425206184387207031e-01) (46, 8.33516895771026611328e-01) (47, 1.29292082786560058594e+00) (48, 1.05441629886627197266e+00) (49, 1.93278610706329345703e-01) (50, 1.85017347335815429688e+00) (26, 7.49858438968658447266e-01) (27, 6.12542986869812011719e-01) (28, 1.68129396438598632812e+00) (29, 9.55410420894622802734e-01) (30, -6.20787963271141052246e-02) (31, 3.18771243095397949219e-01) (32, 6.99968874454498291016e-01) (33, 1.49006962776184082031e-01) (34, 4.41305696964263916016e-01) (35, 1.38552379608154296875e+00) (36, 7.39841401576995849609e-01) (37, 9.36407923698425292969e-01) (38, 4.31806504726409912109e-01) (39, 1.55067539215087890625e+00) (40, 5.70288360118865966797e-01) (41, 8.79155278205871582031e-01) (42, 5.11309087276458740234e-01) (43, 7.84131467342376708984e-01) (44, -1.80201247334480285645e-01) (45, 4.90534722805023193359e-01) (46, 3.22463303804397583008e-01) (47, 1.99987307190895080566e-01) (48, 6.07688069343566894531e-01) (49, 8.87373566627502441406e-01) (50, 9.88353729248046875000e-01) (26, 3.51125240325927734375e-01) (27, -8.94849449396133422852e-02) (28, 1.19240319728851318359e+00) (29, -2.37241058349609375000e+01) (30, -4.89291191101074218750e-01) (31, -3.60583186149597167969e-01) (32, 6.72896742820739746094e-01) (33, -1.29355862736701965332e-01) (34, 5.03309309482574462891e-01) (35, 1.76783621311187744141e-01) (36, 7.58438825607299804688e-01) (37, 5.70168912410736083984e-01) (38, 9.53074336051940917969e-01) (39, 8.14963579177856445312e-01) (40, 6.49173676967620849609e-01) (41, -5.70992529392242431641e-01) (42, 2.97509014606475830078e-01) (43, 8.77302110195159912109e-01) (44, -1.60930231213569641113e-01) (45, 4.47263211011886596680e-01) (46, 2.76709022521972656250e+01) (47, 6.29078686237335205078e-01) (48, -4.14949893951416015625e-01) (49, 2.40541291236877441406e+00) (50, 8.41069877147674560547e-01) (26, 1.31686532497406005859e+00) (27, 5.17388820648193359375e-01) (28, 6.10256731510162353516e-01) (29, 7.71558701992034912109e-01) (30, -1.58937186002731323242e-01) (31, -3.40637899935245513916e-02) (32, 7.43173062801361083984e-01) (33, 5.18836319446563720703e-01) (34, 7.01468288898468017578e-01) (35, 3.71427595615386962891e-01) (36, 9.31065559387207031250e-01) (37, 9.04738306999206542969e-01) (38, 9.04624700546264648438e-01) (39, 7.07684814929962158203e-01) (40, 1.13490748405456542969e+00) (41, 9.36771869659423828125e-01) (42, 7.13486135005950927734e-01) (43, 9.53478217124938964844e-01) (44, 8.71958851814270019531e-01) (45, -1.81268781423568725586e-01) (46, 8.93988251686096191406e-01) (47, 5.29547691345214843750e-01) (48, 3.32483410835266113281e-01) (49, 5.59461951255798339844e-01) (50, 9.98550295829772949219e-01) (26, 4.52868163585662841797e-01) (27, 3.55651341378688812256e-02) (28, 7.40857183933258056641e-01) (29, 3.50702476501464843750e+00) (30, 9.39518660306930541992e-02) (31, 6.85869932174682617188e-01) (32, 1.77680981159210205078e+00) (33, 9.42272841930389404297e-01) (34, 9.75340187549591064453e-01) (35, 7.17679381370544433594e-01) (36, -3.90699863433837890625e-01) (37, 3.69746357202529907227e-01) (38, 8.08163583278656005859e-01) (39, 9.06799077987670898438e-01) (40, 3.65145087242126464844e-01) (41, 1.69871002435684204102e-01) (42, 1.53378546237945556641e+00) (43, 1.47410225868225097656e+00) (44, 5.02835154533386230469e-01) (45, 9.66935038566589355469e-01) (46, 2.95544171333312988281e+00) (47, 1.10991561412811279297e+00) (48, 3.10618728399276733398e-01) (49, 3.35666775703430175781e-01) (50, 6.87543988227844238281e-01) (26, 3.74525427818298339844e-01) (27, 2.07527905702590942383e-01) (28, 3.55972647666931152344e-01) (29, -6.41463816165924072266e-01) (30, 2.34588921070098876953e-01) (31, 5.97390115261077880859e-01) (32, 1.34752011299133300781e+00) (33, 6.03604316711425781250e-01) (34, 1.21639490127563476562e+00) (35, 1.27597808837890625000e+00) (36, -1.42010183334350585938e+01) (37, 7.61503458023071289062e-01) (38, 8.70283782482147216797e-01) (39, 1.14446699619293212891e+00) (40, 1.37363147735595703125e+00) (41, 3.42622756958007812500e-01) (42, 5.18130302429199218750e-01) (43, 6.42270684242248535156e-01) (44, 4.78073328733444213867e-01) (45, 1.56808972358703613281e-01) (46, 2.73271989822387695312e+00) (47, 8.65356564521789550781e-01) (48, 1.82699352502822875977e-01) (49, 4.78091955184936523438e-01) (50, 2.62606680393218994141e-01) (26, 5.15634715557098388672e-01) (27, 1.25084531307220458984e+00) (28, 9.88645553588867187500e-01) (29, 1.17251642048358917236e-01) (30, 3.47833633422851562500e-01) (31, 8.19642841815948486328e-01) (32, 2.88210034370422363281e+00) (33, 7.91745781898498535156e-01) (34, 6.93066418170928955078e-01) (35, 2.65786750242114067078e-03) (36, 1.03537607192993164062e+00) (37, 1.23373460769653320312e+00) (38, 2.03711122274398803711e-01) (39, 7.07625865936279296875e-01) (40, 1.12366521358489990234e+00) (41, 4.83470678329467773438e-01) (42, 2.47465193271636962891e-01) (43, 5.05588054656982421875e-01) (44, 2.52255499362945556641e-01) (45, -5.67418336868286132812e-01) (46, 1.19622874259948730469e+00) (47, 7.16998398303985595703e-01) (48, 9.47754144668579101562e-01) (49, 2.66830980777740478516e-01) (50, 1.68148100376129150391e+00) (26, 1.10646975040435791016e+00) (27, 3.31619799137115478516e-01) (28, -6.27839207649230957031e-01) (29, -3.88488888740539550781e-01) (30, 4.03654485940933227539e-01) (31, -3.83345514535903930664e-01) (32, 4.25388738512992858887e-02) (33, 3.91161441802978515625e-01) (34, 5.66801965236663818359e-01) (35, 3.66068887710571289062e+00) (36, -5.95021024346351623535e-02) (37, 1.47991389036178588867e-01) (38, 5.39359283447265625000e+00) (39, -5.30236303806304931641e-01) (40, 1.06887412071228027344e+00) (41, 3.54332327842712402344e-01) (42, 3.36657285690307617188e-01) (43, 1.40561139583587646484e+00) (44, 1.41907465457916259766e+00) (45, -9.63367745280265808105e-02) (46, -3.19189965724945068359e-01) (47, 6.45923912525177001953e-01) (48, 5.60220479965209960938e-01) (49, 4.25310999155044555664e-01) (50, 1.07111251354217529297e+00) (26, 9.45575356483459472656e-01) (27, 2.34780764579772949219e+00) (28, 1.52935251593589782715e-01) (29, 3.78268182277679443359e-01) (30, -2.64131069183349609375e-01) (31, 5.69938361644744873047e-01) (32, 1.02794182300567626953e+00) (33, 7.23177194595336914062e-01) (34, 9.74502146244049072266e-01) (35, 8.88709068298339843750e-01) (36, 7.46720314025878906250e-01) (37, 4.85158227384090423584e-02) (38, 5.33389151096343994141e-01) (39, 1.22359764575958251953e+00) (40, 1.00463569164276123047e+00) (41, -1.35706782341003417969e-01) (42, 2.51381874084472656250e-01) (43, 7.50742375850677490234e-01) (44, 2.54830777645111083984e-01) (45, -1.79908469319343566895e-01) (46, 7.60794878005981445312e+00) (47, 4.80400025844573974609e-01) (48, 2.48693323135375976562e+00) (49, -5.04292696714401245117e-02) (50, 6.47197246551513671875e-01) (26, 2.19307973980903625488e-01) (27, -5.39206922054290771484e-01) (28, 7.88777351379394531250e-01) (29, 7.60299503803253173828e-01) (30, 5.37051439285278320312e-01) (31, 6.04721665382385253906e-01) (32, 1.57073080539703369141e+00) (33, 7.74592578411102294922e-01) (34, 4.71300244331359863281e-01) (35, 7.85459339618682861328e-01) (36, 2.47464537620544433594e-01) (37, 1.07396924495697021484e+00) (38, 1.14906758069992065430e-01) (39, 2.56709903478622436523e-01) (40, 1.35664892196655273438e+00) (41, 1.37203976511955261230e-01) (42, 1.01006543636322021484e+00) (43, 1.45955979824066162109e+00) (44, 1.38193333148956298828e+00) (45, 5.79712726175785064697e-02) (46, 5.96406638622283935547e-01) (47, 7.40461647510528564453e-01) (48, -5.55997453629970550537e-02) (49, 2.06129074096679687500e-01) (50, 2.57291960716247558594e+00) (26, 8.37078213691711425781e-01) (27, 2.24213853478431701660e-01) (28, 8.42677712440490722656e-01) (29, -2.33417749404907226562e+00) (30, 7.67727851867675781250e-01) (31, -6.37724399566650390625e-02) (32, 7.85803413391113281250e+00) (33, 6.13477349281311035156e-01) (34, 1.54703438282012939453e+00) (35, 2.05185389518737792969e+00) (36, 3.85298401117324829102e-01) (37, 7.93722748756408691406e-01) (38, 5.06971883773803710938e+00) (39, 1.67294800281524658203e-01) (40, 1.61264586448669433594e+00) (41, 1.09901595115661621094e+00) (42, 6.68581902980804443359e-01) (43, 1.21026980876922607422e+00) (44, -1.80020332336425781250e-01) (45, -1.55973780155181884766e+00) (46, 5.46998322010040283203e-01) (47, 2.99347341060638427734e-01) (48, 1.50111556053161621094e-01) (49, 6.22582912445068359375e-01) (50, 1.70120882987976074219e+00) (26, 7.25879907608032226562e-01) (27, 1.68581151962280273438e+00) (28, 7.47520148754119873047e-01) (29, 2.53542572259902954102e-01) (30, 5.96751451492309570312e-01) (31, -8.59102606773376464844e-02) (32, 6.13629758358001708984e-01) (33, 3.41628253459930419922e-01) (34, 2.87009805440902709961e-01) (35, 1.49239218235015869141e+00) (36, 7.97796189785003662109e-01) (37, 3.75195741653442382812e-01) (38, 1.40359258651733398438e+00) (39, 5.47495186328887939453e-01) (40, 5.47386825084686279297e-01) (41, 2.28224247694015502930e-01) (42, 1.16711258888244628906e+00) (43, 1.47969269752502441406e+00) (44, 7.94265890121459960938e+00) (45, -9.08743798732757568359e-01) (46, 4.86433486938476562500e+01) (47, -1.09382763504981994629e-01) (48, 9.83955323696136474609e-01) (49, 4.43319946527481079102e-01) (50, 1.76686298847198486328e+00) (26, 8.00373911857604980469e-01) (27, 1.43730208277702331543e-01) (28, 6.85893952846527099609e-01) (29, 1.19901371002197265625e+00) (30, 4.32637989521026611328e-01) (31, 2.32008904218673706055e-01) (32, 1.23404514789581298828e+00) (33, 2.83836334943771362305e-01) (34, 5.52452623844146728516e-01) (35, 9.38170552253723144531e-01) (36, 4.29243892431259155273e-01) (37, 8.93802165985107421875e-01) (38, 4.71237748861312866211e-01) (39, 8.18049669265747070312e-01) (40, 1.03012692928314208984e+00) (41, -1.08796684071421623230e-02) (42, 9.09164965152740478516e-01) (43, 5.66014885902404785156e-01) (44, 6.57987356185913085938e-01) (45, 7.08425343036651611328e-01) (46, 2.04916447401046752930e-01) (47, 2.09184452891349792480e-01) (48, 6.64494693279266357422e-01) (49, 2.33165010809898376465e-01) (50, 1.32069146633148193359e+00) (26, 1.14103055000305175781e+00) (27, 4.61875498294830322266e-01) (28, -4.24370622634887695312e+00) (29, 1.60642838478088378906e+00) (30, 6.70623406767845153809e-02) (31, 8.92128646373748779297e-01) (32, 3.37905573844909667969e+00) (33, 6.52471721172332763672e-01) (34, 1.42489624023437500000e+01) (35, 5.01930713653564453125e-01) (36, 8.47469091415405273438e-01) (37, 1.42649209499359130859e+00) (38, 1.24879705905914306641e+00) (39, 1.44601535797119140625e+00) (40, 8.48984301090240478516e-01) (41, 1.29063561558723449707e-01) (42, 1.69190633296966552734e+00) (43, 1.54461824893951416016e+00) (44, 8.22564888000488281250e+00) (45, 9.01117980480194091797e-01) (46, -7.67906978726387023926e-02) (47, 9.88126158714294433594e-01) (48, 3.62418353557586669922e-01) (49, 1.66102254390716552734e+00) (50, 1.34983098506927490234e+00) (26, 7.13098719716072082520e-02) (27, 5.67064166069030761719e-01) (28, 7.41381764411926269531e-01) (29, 1.28848242759704589844e+00) (30, 6.98647379875183105469e-01) (31, 6.81877434253692626953e-01) (32, 1.22029638290405273438e+00) (33, 7.50651478767395019531e-01) (34, 4.89812821149826049805e-01) (35, 1.03701865673065185547e+00) (36, 5.11728286743164062500e-01) (37, 4.15168046951293945312e-01) (38, 8.76343488693237304688e-01) (39, 1.20221817493438720703e+00) (40, 7.20306456089019775391e-01) (41, 7.32266485691070556641e-01) (42, 9.49796617031097412109e-01) (43, 1.84249377250671386719e+00) (44, 1.20427489280700683594e+00) (45, 8.83890502929687500000e+02) (46, 7.76710052490234375000e+01) (47, 5.33637583255767822266e-01) (48, 9.41402077674865722656e-01) (49, 7.19958186149597167969e-01) (50, 7.40572810173034667969e-01) (26, 5.07166385650634765625e-01) (27, 3.84084463119506835938e-01) (28, 4.02953207492828369141e-01) (29, 6.69909119606018066406e-01) (30, -8.62290784716606140137e-02) (31, 7.46638953685760498047e-01) (32, 7.69847035408020019531e-01) (33, 3.25841575860977172852e-01) (34, 1.43331861495971679688e+00) (35, 6.84462726116180419922e-01) (36, 4.32031989097595214844e-01) (37, 2.38377023488283157349e-02) (38, 4.15219098329544067383e-01) (39, 8.35787653923034667969e-01) (40, 7.10030317306518554688e-01) (41, 4.77297425270080566406e-01) (42, 6.10480666160583496094e-01) (43, 8.95107567310333251953e-01) (44, 5.87321877479553222656e-01) (45, 7.18940794467926025391e-01) (46, 1.66290926933288574219e+00) (47, 6.80932700634002685547e-01) (48, -4.09877657890319824219e-01) (49, 1.15290038287639617920e-01) (50, 6.50794565677642822266e-01) (26, 2.78023928403854370117e-02) (27, 7.87494108080863952637e-02) (28, 6.07536554336547851562e-01) (29, 5.98784387111663818359e-01) (30, 8.85973691940307617188e-01) (31, -1.95048317313194274902e-01) (32, 3.57849049568176269531e+00) (33, 1.48659789562225341797e+00) (34, 1.64875477552413940430e-01) (35, 9.57785427570343017578e-01) (36, 4.85701352357864379883e-01) (37, 3.92476975917816162109e-01) (38, 1.60705065727233886719e+00) (39, 5.10961115360260009766e-01) (40, 1.44618585705757141113e-01) (41, -8.69472175836563110352e-02) (42, 4.76172268390655517578e-01) (43, 3.90926867723464965820e-01) (44, 2.07419562339782714844e+00) (45, -5.08219283074140548706e-03) (46, 9.94219779968261718750e-02) (47, 2.57441192865371704102e-01) (48, 3.37704598903656005859e-01) (49, 1.13888406753540039062e+00) (50, -1.02415286004543304443e-01) (26, 7.04202830791473388672e-01) (27, 4.52955454587936401367e-01) (28, 1.06349349021911621094e+00) (29, 8.07295441627502441406e-01) (30, 4.50093448162078857422e-01) (31, 9.30020332336425781250e-01) (32, 4.68788921833038330078e-01) (33, 7.06997215747833251953e-01) (34, 3.61838340759277343750e-01) (35, 5.11287748813629150391e-01) (36, 4.87268060445785522461e-01) (37, 7.17721700668334960938e-01) (38, 1.19453608989715576172e+00) (39, 9.77529764175415039062e-01) (40, 5.04782557487487792969e-01) (41, 8.98464262485504150391e-01) (42, 1.52139270305633544922e+00) (43, 8.39446425437927246094e-01) (44, 1.45913377404212951660e-01) (45, 6.03621840476989746094e-01) (46, 1.18044579029083251953e+00) (47, 5.29570996761322021484e-01) (48, 4.90682125091552734375e-01) (49, 3.19933652877807617188e-01) (50, 1.65768790245056152344e+00) (26, 1.11347484588623046875e+01) (27, 9.45791149139404296875e+00) (28, 9.95926952362060546875e+00) (29, -6.96355819702148437500e+00) (30, 1.09574079513549804688e+01) (31, 2.69043045043945312500e+01) (32, -3.20362243652343750000e+01) (33, 1.01591434478759765625e+01) (34, 1.08874492645263671875e+01) (35, -5.70947408676147460938e+00) (36, 1.03877735137939453125e+01) (37, 1.05334634780883789062e+01) (38, -2.12900966405868530273e-01) (39, 2.51868686676025390625e+01) (40, -5.76458787918090820312e+00) (41, 1.12169589996337890625e+01) (42, 1.03743200302124023438e+01) (43, -5.35349416732788085938e+00) (44, -2.21150183677673339844e+00) (45, 1.02446060180664062500e+01) (46, 1.04757938385009765625e+01) (47, 1.02975692749023437500e+01) (48, 1.16576871871948242188e+01) (49, 1.23273534774780273438e+01) (50, -5.00808525085449218750e+00) (26, 8.21005165576934814453e-01) (27, 2.56133437156677246094e-01) (28, -3.26706290245056152344e-01) (29, 3.11106234788894653320e-01) (30, -3.60146388411521911621e-02) (31, -4.43446248769760131836e-01) (32, 1.26394367218017578125e+00) (33, 3.94480884075164794922e-01) (34, 2.60287433862686157227e-01) (35, 2.11678099632263183594e+00) (36, 5.56846082210540771484e-01) (37, 4.87104326486587524414e-01) (38, 1.46260118484497070312e+00) (39, 6.99431240558624267578e-01) (40, 6.22965574264526367188e-01) (41, 3.71643930673599243164e-01) (42, 4.70316767692565917969e-01) (43, 1.92496669292449951172e+00) (44, 1.18720471858978271484e+00) (45, -3.21061730384826660156e-01) (46, -6.85030341148376464844e-01) (47, 8.40348362922668457031e-01) (48, 2.55809456110000610352e-01) (49, -2.25223332643508911133e-01) (50, 3.92979836463928222656e+00) (51, -2.52369493246078491211e-01) (52, 4.26099717617034912109e-01) (53, 1.02643996477127075195e-01) (54, 3.16796302795410156250e+00) (55, -5.50809919834136962891e-01) (56, -3.19460570812225341797e-01) (57, 2.62699222564697265625e+00) (58, 5.53405761718750000000e-01) (59, 3.93753141164779663086e-01) (60, 8.11514794826507568359e-01) (61, 2.50605374574661254883e-01) (62, 4.61038053035736083984e-01) (63, 2.36375719308853149414e-01) (64, 1.51351463794708251953e+00) (65, 8.58876585960388183594e-01) (66, -2.21356201171875000000e+00) (67, -2.37095892429351806641e-01) (68, -2.81012505292892456055e-01) (69, 4.03377950191497802734e-01) (70, 1.19841866195201873779e-01) (71, -5.84657788276672363281e-01) (72, 5.03228604793548583984e-02) (73, -4.27887635305523872375e-03) (74, 5.47732830047607421875e-01) (75, 2.25943279266357421875e+00) (51, 4.55407321453094482422e-01) (52, 1.03994064033031463623e-01) (53, 8.27000588178634643555e-02) (54, 2.91406661272048950195e-01) (55, -2.13093403726816177368e-02) (56, 5.54748058319091796875e-01) (57, -2.53645122051239013672e-01) (58, 1.17122256755828857422e+00) (59, 8.99542748928070068359e-01) (60, 1.14624381065368652344e+00) (61, 7.10405036807060241699e-02) (62, 1.42219817638397216797e+00) (63, 1.06704545021057128906e+00) (64, 8.25977861881256103516e-01) (65, 5.56818306446075439453e-01) (66, 1.04410564899444580078e+00) (67, 3.78674238920211791992e-01) (68, 1.27073776721954345703e+00) (69, 1.96740314364433288574e-01) (70, 1.39992833137512207031e-01) (71, 2.62556028366088867188e+00) (72, 2.66683459281921386719e-01) (73, -1.05444323271512985229e-02) (74, 9.23361778259277343750e-01) (75, 2.01462435722351074219e+00) (51, 1.06406373977661132812e+01) (52, 5.53486204147338867188e+00) (53, 1.76623556762933731079e-02) (54, 2.19027185440063476562e+00) (55, 4.21141910552978515625e+00) (56, 5.07102012634277343750e+00) (57, 2.13598281145095825195e-01) (58, 4.83890914916992187500e+00) (59, 1.04017257690429687500e+00) (60, 1.09007441997528076172e+00) (61, 4.63888454437255859375e+00) (62, 6.40596437454223632812e+00) (63, 6.27487301826477050781e-01) (64, 4.34056252241134643555e-01) (65, 6.60935342311859130859e-01) (66, 5.24820387363433837891e-01) (67, -4.16993468999862670898e-01) (68, 5.76967656612396240234e-01) (69, -2.77939409017562866211e-01) (70, 4.40229129791259765625e+00) (71, 1.08956372737884521484e+00) (72, -5.99750638008117675781e-01) (73, 1.35362014174461364746e-01) (74, 1.72005987167358398438e+00) (75, 2.83165788650512695312e+00) (51, -1.64967656135559082031e-01) (52, 7.89199650287628173828e-01) (53, -2.97556310892105102539e-01) (54, 1.20119392871856689453e+00) (55, -3.71924549341201782227e-01) (56, 8.81121516227722167969e-01) (57, 2.16234043240547180176e-01) (58, 8.32237124443054199219e-01) (59, 1.72367349267005920410e-01) (60, 3.71257513761520385742e-01) (61, 3.42555880546569824219e-01) (62, 1.58748042583465576172e+00) (63, -1.60373207181692123413e-02) (64, 6.90520823001861572266e-01) (65, 1.09510126113891601562e+01) (66, 4.52730923891067504883e-01) (67, -2.42557093501091003418e-01) (68, 4.65721577405929565430e-01) (69, 2.76983499526977539062e-01) (70, 2.44670212268829345703e-01) (71, 3.16436243057250976562e+00) (72, -9.75872218608856201172e-01) (73, -3.50142300128936767578e-01) (74, 1.62088978290557861328e+00) (75, 1.46159961819648742676e-01) (51, -3.12639921903610229492e-01) (52, 2.67439901828765869141e-01) (53, 8.84127616882324218750e-01) (54, 4.75585997104644775391e-01) (55, -4.41190034151077270508e-01) (56, 5.87419867515563964844e-01) (57, 8.44441354274749755859e-01) (58, 3.53259257972240447998e-02) (59, 7.01731204986572265625e-01) (60, 7.87155687808990478516e-01) (61, -4.37432527542114257812e-01) (62, 9.77376341819763183594e-01) (63, 6.03368163108825683594e-01) (64, -5.00807523727416992188e-01) (65, 9.82495397329330444336e-02) (66, 6.75568699836730957031e-01) (67, -5.72114348411560058594e-01) (68, -3.96971672773361206055e-01) (69, 5.63833951950073242188e-01) (70, -6.76859259605407714844e-01) (71, -1.25485813617706298828e+00) (72, 1.74199521541595458984e-01) (73, -4.36346679925918579102e-01) (74, 5.44844448566436767578e-01) (75, 6.37140393257141113281e-01) (51, 3.97365123033523559570e-01) (52, 1.03008866310119628906e+00) (53, 8.09750854969024658203e-01) (54, 7.69604444503784179688e-01) (55, 1.08682763576507568359e+00) (56, 1.27146995067596435547e+00) (57, 9.41620022058486938477e-02) (58, 6.53019785881042480469e-01) (59, 5.57934045791625976562e-01) (60, 1.09884524345397949219e+00) (61, 1.27277314662933349609e+00) (62, 7.17075467109680175781e-01) (63, 5.42896687984466552734e-01) (64, 1.57226455211639404297e+00) (65, 5.90595722198486328125e-01) (66, 2.83264607191085815430e-01) (67, 6.91779255867004394531e-01) (68, 2.28766813874244689941e-01) (69, 1.45478653907775878906e+00) (70, 3.77072133123874664307e-02) (71, 1.06378185749053955078e+00) (72, 6.91376149654388427734e-01) (73, 9.91865873336791992188e-01) (74, 1.14862215518951416016e+00) (75, 9.14122641086578369141e-01) (51, 1.29244208335876464844e+00) (52, 6.11823201179504394531e-01) (53, 1.99053585529327392578e+00) (54, 5.56754648685455322266e-01) (55, 8.24383139610290527344e-01) (56, 1.46444845199584960938e+00) (57, 5.95930099487304687500e-01) (58, 7.32164323329925537109e-01) (59, 9.25542414188385009766e-01) (60, 1.47400319576263427734e+00) (61, 5.17728745937347412109e-01) (62, 9.94534969329833984375e-01) (63, 1.54568183422088623047e+00) (64, 5.04286944866180419922e-01) (65, 1.54185545444488525391e+00) (66, 5.89259004592895507812e+00) (67, 1.44425570964813232422e+00) (68, 4.52558249235153198242e-01) (69, 2.42766046524047851562e+00) (70, 1.24795556068420410156e+00) (71, 8.38515949249267578125e+00) (72, 5.55096924304962158203e-01) (73, 6.03155136108398437500e-01) (74, 6.81528627872467041016e-01) (75, 1.27284455299377441406e+00) (51, 2.33280658721923828125e+00) (52, 1.34874951839447021484e+00) (53, 5.72179496288299560547e-01) (54, 5.77223539352416992188e-01) (55, -1.10897041857242584229e-01) (56, 6.68050885200500488281e-01) (57, 6.02339990437030792236e-02) (58, 2.57596343755722045898e-01) (59, 2.14637517929077148438e+00) (60, 1.09223210811614990234e+00) (61, 3.65093082189559936523e-01) (62, 3.58393406867980957031e+00) (63, 4.66075949370861053467e-02) (64, 1.37144362926483154297e+00) (65, 4.18076701462268829346e-02) (66, 3.71280461549758911133e-01) (67, 2.42763590812683105469e+00) (68, 1.93110466003417968750e+00) (69, 5.37291169166564941406e-01) (70, 1.52111455798149108887e-01) (71, 1.10682642459869384766e+00) (72, 4.18986588716506958008e-01) (73, 1.17155812680721282959e-01) (74, 5.79956483840942382812e+00) (75, 5.03870582580566406250e+00) (51, -3.95791739225387573242e-01) (52, -3.08797527104616165161e-02) (53, 3.00078123807907104492e-01) (54, 3.75326782464981079102e-01) (55, 2.24153976887464523315e-02) (56, 2.67588526010513305664e-01) (57, 7.60167479515075683594e-01) (58, 1.15076410770416259766e+00) (59, 1.76546975970268249512e-01) (60, 7.42904841899871826172e-01) (61, 9.87370371818542480469e-01) (62, 6.59972786903381347656e-01) (63, 8.63482058048248291016e-01) (64, 1.45904576778411865234e+00) (65, -3.85622642934322357178e-02) (66, 2.32288122177124023438e-01) (67, 1.69207975268363952637e-01) (68, 4.55030351877212524414e-01) (69, 3.85261237621307373047e-01) (70, 5.08814215660095214844e-01) (71, -1.25614845752716064453e+00) (72, -4.31164115667343139648e-01) (73, 2.95369803905487060547e-01) (74, 2.41620644927024841309e-01) (75, -1.49752750992774963379e-01) (51, 1.39496958255767822266e+00) (52, 1.48448932170867919922e+00) (53, 1.78285992145538330078e+00) (54, 1.35188019275665283203e+00) (55, 1.62313354015350341797e+00) (56, 7.80994594097137451172e-01) (57, 1.74508202075958251953e+00) (58, 1.32220256328582763672e+00) (59, 1.38162338733673095703e+00) (60, 1.55174136161804199219e+00) (61, 2.09938406944274902344e+00) (62, 1.60553741455078125000e+00) (63, 1.26892030239105224609e+00) (64, 1.76958775520324707031e+00) (65, 1.29167997837066650391e+00) (66, 7.14611947536468505859e-01) (67, 1.75628817081451416016e+00) (68, 1.53722250461578369141e+00) (69, 1.69758868217468261719e+00) (70, 1.73586034774780273438e+00) (71, 4.07040119171142578125e-01) (72, 1.86079537868499755859e+00) (73, 1.59747660160064697266e+00) (74, 2.49408102035522460938e+00) (75, 1.99260675907135009766e+00) (51, 1.49548757076263427734e+00) (52, 8.81318390369415283203e-01) (53, 7.20127463340759277344e-01) (54, 1.13507711887359619141e+00) (55, 6.55169904232025146484e-01) (56, 7.69505560398101806641e-01) (57, 6.17125654220581054688e+00) (58, 9.96077775955200195312e-01) (59, 1.46939492225646972656e+00) (60, 1.32249641418457031250e+00) (61, 1.43283367156982421875e+00) (62, 5.74275791645050048828e-01) (63, 8.88239443302154541016e-01) (64, 1.02247166633605957031e+00) (65, 3.21931600570678710938e-01) (66, 3.30188822746276855469e+00) (67, 8.07777762413024902344e-01) (68, 6.84639036655426025391e-01) (69, 7.29766249656677246094e-01) (70, 5.39546072483062744141e-01) (71, 4.07443904876708984375e+00) (72, 1.33850264549255371094e+00) (73, 4.69509035348892211914e-01) (74, 3.57235461473464965820e-01) (75, 1.55240583419799804688e+00) (51, 1.11895406246185302734e+00) (52, 4.35922384262084960938e-01) (53, 5.78382134437561035156e-01) (54, 1.55988782644271850586e-01) (55, 6.11100256443023681641e-01) (56, 7.65853643417358398438e-01) (57, 1.25061213970184326172e+00) (58, 1.18501520156860351562e+00) (59, 7.18991398811340332031e-01) (60, 5.96516191959381103516e-01) (61, 4.53175008296966552734e-01) (62, 1.92388260364532470703e+00) (63, 3.67830842733383178711e-01) (64, 7.02937304973602294922e-01) (65, 9.72887217998504638672e-01) (66, 5.90031743049621582031e-02) (67, 6.37979805469512939453e-01) (68, 1.30373299121856689453e+00) (69, 6.34382128715515136719e-01) (70, 1.53484374284744262695e-01) (71, 1.55968880653381347656e+00) (72, 5.22309064865112304688e-01) (73, 6.31451666355133056641e-01) (74, 9.99318122863769531250e-01) (75, 2.02498960494995117188e+00) (51, 4.75288748741149902344e-01) (52, 3.52200061082839965820e-01) (53, 1.39845311641693115234e+00) (54, 4.88891750574111938477e-01) (55, 5.64398229122161865234e-01) (56, 7.07444489002227783203e-01) (57, 9.73181128501892089844e-01) (58, 4.48501259088516235352e-01) (59, 1.12602971494197845459e-01) (60, 8.18789899349212646484e-01) (61, 2.31555074453353881836e-01) (62, 1.62176281213760375977e-01) (63, 4.44325566291809082031e-01) (64, 1.39138293266296386719e+00) (65, 4.10110168159008026123e-02) (66, 7.11288094520568847656e-01) (67, 7.47683227062225341797e-01) (68, 8.90479385852813720703e-01) (69, 6.72095060348510742188e-01) (70, 1.36954402923583984375e+00) (71, 6.11312270164489746094e-01) (72, -9.55969095230102539062e-02) (73, 2.09957227110862731934e-01) (74, 6.57081067562103271484e-01) (75, 2.15538573265075683594e+00) (51, 9.83308076858520507812e-01) (52, 7.83698856830596923828e-01) (53, 1.32668411731719970703e+00) (54, 6.12311899662017822266e-01) (55, 8.79273831844329833984e-01) (56, 8.37217986583709716797e-01) (57, 1.02812314033508300781e+00) (58, 6.94831311702728271484e-01) (59, 7.82112181186676025391e-01) (60, 1.25606274604797363281e+00) (61, 1.13611042499542236328e+00) (62, 5.66105127334594726562e-01) (63, 4.35390114784240722656e-01) (64, 6.31429970264434814453e-01) (65, 1.29145002365112304688e+00) (66, 9.36992824077606201172e-01) (67, 6.42434775829315185547e-01) (68, 4.51499789953231811523e-01) (69, 7.26475477218627929688e-01) (70, 5.62215626239776611328e-01) (71, 3.71563285589218139648e-01) (72, 1.05551266670227050781e+00) (73, 9.28434967994689941406e-01) (74, 1.08190155029296875000e+00) (75, 3.37092190980911254883e-01) (51, 5.97843289375305175781e-01) (52, 3.79688471555709838867e-01) (53, -1.58721700310707092285e-01) (54, -1.05554592609405517578e+00) (55, 5.18058240413665771484e-01) (56, 7.81827270984649658203e-01) (57, 1.35627233982086181641e+00) (58, 3.56401950120925903320e-01) (59, 5.71422517299652099609e-01) (60, 5.87795853614807128906e-01) (61, 5.19084870815277099609e-01) (62, 5.91927051544189453125e+00) (63, -5.27245318517088890076e-03) (64, 2.80278712511062622070e-01) (65, 1.77562499046325683594e+00) (66, 7.75377929210662841797e-01) (67, 1.36710509657859802246e-01) (68, 3.15182715654373168945e-01) (69, -2.69060492515563964844e-01) (70, 9.66541647911071777344e-01) (71, 1.56537437438964843750e+00) (72, -9.42339859008789062500e+01) (73, 4.30765956640243530273e-01) (74, 2.10652136802673339844e+00) (75, 1.75069665908813476562e+00) (51, 1.75429895520210266113e-01) (52, 6.34882807731628417969e-01) (53, 8.63860487937927246094e-01) (54, 9.34877276420593261719e-01) (55, 8.09963345527648925781e-01) (56, 8.46683740615844726562e-01) (57, 2.92194426059722900391e-01) (58, 1.11389391124248504639e-01) (59, 5.02253234386444091797e-01) (60, 7.64875054359436035156e-01) (61, 4.72133189439773559570e-01) (62, 8.56431186199188232422e-01) (63, 2.01444067060947418213e-02) (64, 2.86367237567901611328e-01) (65, 4.37394887208938598633e-01) (66, 1.76100619137287139893e-02) (67, 1.80124491453170776367e-01) (68, 6.18810236454010009766e-01) (69, 7.82163977622985839844e-01) (70, 1.07732243835926055908e-01) (71, 3.55694293975830078125e-01) (72, 2.85615324974060058594e-01) (73, -1.75405864138156175613e-03) (74, 6.27739369869232177734e-01) (75, 2.33694648742675781250e+00) (51, -2.21378490328788757324e-01) (52, 2.13039979338645935059e-01) (53, 9.40853238105773925781e-01) (54, 5.54157137870788574219e-01) (55, -2.29871973395347595215e-01) (56, 4.18183445930480957031e-01) (57, 1.04452764987945556641e+00) (58, 6.91803216934204101562e-01) (59, 3.39589923620223999023e-01) (60, 7.90953040122985839844e-01) (61, 3.49046200513839721680e-01) (62, -4.42627482116222381592e-02) (63, 9.11604225635528564453e-01) (64, 7.69519269466400146484e-01) (65, 1.48629653453826904297e+00) (66, 1.92144066095352172852e-01) (67, 4.76596832275390625000e-01) (68, 9.37610030174255371094e-01) (69, 5.85302293300628662109e-01) (70, 1.15537011623382568359e+00) (71, 7.96877503395080566406e-01) (72, 6.99277043342590332031e-01) (73, 7.84988105297088623047e-01) (74, 1.08643507957458496094e+00) (75, -2.93657958507537841797e-01) (51, 1.00164866447448730469e+00) (52, 1.26356112957000732422e+00) (53, 4.88031625747680664062e-01) (54, 1.19974052906036376953e+00) (55, 6.91660165786743164062e-01) (56, 2.59372889995574951172e-01) (57, 1.55624353885650634766e+00) (58, 6.64142549037933349609e-01) (59, 9.79928672313690185547e-01) (60, 7.45554924011230468750e-01) (61, 7.11151361465454101562e-01) (62, -1.88973337411880493164e-01) (63, 1.11897611618041992188e+00) (64, 1.71143805980682373047e+00) (65, 1.07976126670837402344e+00) (66, 6.55426919460296630859e-01) (67, 9.55070137977600097656e-01) (68, 7.37739443778991699219e-01) (69, 8.50269198417663574219e-01) (70, 6.92263543605804443359e-01) (71, 4.92223918437957763672e-01) (72, 3.26224654912948608398e-01) (73, 7.25267589092254638672e-01) (74, 1.26965475082397460938e+00) (75, 5.79634785652160644531e-01) (51, 5.41464626789093017578e-01) (52, 1.09911048412322998047e+00) (53, 9.75102365016937255859e-01) (54, 1.49928176403045654297e+00) (55, 3.60468655824661254883e-01) (56, 1.11822223663330078125e+00) (57, 1.02647650241851806641e+00) (58, 6.58290684223175048828e-01) (59, 4.65744525194168090820e-01) (60, 6.95862472057342529297e-01) (61, 1.10833871364593505859e+00) (62, 1.09441292285919189453e+00) (63, -3.50250512361526489258e-01) (64, 4.30786818265914916992e-01) (65, 1.19969987869262695312e+00) (66, 6.81935131549835205078e-01) (67, 9.45431292057037353516e-01) (68, 5.28097450733184814453e-01) (69, 4.33891505002975463867e-01) (70, 6.87163114547729492188e-01) (71, 1.44473105669021606445e-01) (72, 7.84795105457305908203e-01) (73, 2.75972753763198852539e-01) (74, 1.32630491256713867188e+00) (75, 1.07870113849639892578e+00) (51, 1.71390727162361145020e-01) (52, 1.10384237766265869141e+00) (53, 2.82337099313735961914e-01) (54, 6.17783784866333007812e-01) (55, 6.33365929126739501953e-01) (56, 4.65999990701675415039e-01) (57, 9.35805857181549072266e-01) (58, 6.56770765781402587891e-01) (59, 3.52252572774887084961e-01) (60, 7.55017280578613281250e-01) (61, 5.45012354850769042969e-02) (62, -3.65976430475711822510e-02) (63, 7.96044170856475830078e-01) (64, 5.54130077362060546875e-01) (65, 5.72973549365997314453e-01) (66, 1.11033034324645996094e+00) (67, 7.02042341232299804688e-01) (68, 4.13025051355361938477e-01) (69, 3.08483064174652099609e-01) (70, 6.51556849479675292969e-01) (71, 4.00746792554855346680e-01) (72, 1.65556639432907104492e-01) (73, 1.22460663318634033203e-01) (74, 5.96006155014038085938e-01) (75, 6.46727561950683593750e-01) (51, 2.30543985962867736816e-01) (52, 8.83716523647308349609e-01) (53, -2.50023692846298217773e-01) (54, 8.61642956733703613281e-01) (55, 2.95339822769165039062e-01) (56, 8.44646811485290527344e-01) (57, -1.57307222485542297363e-01) (58, 6.56034529209136962891e-01) (59, 7.24856555461883544922e-01) (60, 5.61629295349121093750e-01) (61, -1.34857803583145141602e-01) (62, 5.08848786354064941406e-01) (63, 8.13225567340850830078e-01) (64, 1.17226219177246093750e+00) (65, 3.19236278533935546875e+00) (66, 8.54040160775184631348e-02) (67, 4.52662497758865356445e-01) (68, 6.71748816967010498047e-01) (69, -2.75165408849716186523e-01) (70, 1.20786443352699279785e-01) (71, -9.68582183122634887695e-03) (72, -6.03003799915313720703e-01) (73, 5.07687926292419433594e-01) (74, 5.51567256450653076172e-01) (75, -2.01163902878761291504e-01) (51, 1.33526444435119628906e+00) (52, 1.17240846157073974609e+00) (53, 3.91038954257965087891e-01) (54, 1.28324770927429199219e+00) (55, 2.57288366556167602539e-01) (56, 2.75159657001495361328e-01) (57, -3.71138542890548706055e-01) (58, 4.11876171827316284180e-01) (59, 3.70455503463745117188e-01) (60, 7.29755759239196777344e-01) (61, 7.74991989135742187500e-01) (62, 4.95966792106628417969e-01) (63, 5.78743457794189453125e-01) (64, 1.11054303124547004700e-02) (65, -9.48806524276733398438e-01) (66, 4.99839693307876586914e-01) (67, 8.52829515933990478516e-01) (68, 6.54160320758819580078e-01) (69, 7.57120728492736816406e-01) (70, 7.70112395286560058594e-01) (71, 1.50944554805755615234e+00) (72, -2.12005600333213806152e-01) (73, 7.82504796981811523438e-01) (74, 5.86525738239288330078e-01) (75, 5.69401502609252929688e-01) (51, 6.14785961806774139404e-02) (52, 3.16331475973129272461e-01) (53, 1.52867317199707031250e+00) (54, 7.19039440155029296875e-01) (55, 5.12915074825286865234e-01) (56, 5.08502244949340820312e-01) (57, 9.50783789157867431641e-01) (58, 7.25224971771240234375e-01) (59, 8.28652322292327880859e-01) (60, 7.59135901927947998047e-01) (61, 5.55296838283538818359e-01) (62, 9.45240080356597900391e-01) (63, 4.37821060419082641602e-01) (64, 8.20601105690002441406e-01) (65, 2.13976955413818359375e+01) (66, 5.65452933311462402344e-01) (67, 6.44779562950134277344e-01) (68, 3.57205420732498168945e-01) (69, 1.34132778644561767578e+00) (70, 2.00749233365058898926e-01) (71, 9.30580854415893554688e-01) (72, -2.83030837774276733398e-01) (73, 1.13745242357254028320e-01) (74, 2.07589554786682128906e+00) (75, 5.47262370586395263672e-01) (51, 7.61869966983795166016e-01) (52, 1.18220233917236328125e+00) (53, 8.54800820350646972656e-01) (54, 1.69057834148406982422e+00) (55, 9.89073693752288818359e-01) (56, 1.74858915805816650391e+00) (57, 3.29288423061370849609e-01) (58, 1.47198474407196044922e+00) (59, 1.96810221672058105469e+00) (60, 9.39490437507629394531e-01) (61, 1.11569309234619140625e+00) (62, -1.25081424713134765625e+01) (63, 9.94349896907806396484e-01) (64, 2.18685913085937500000e+00) (65, 4.52809631824493408203e-01) (66, 6.45885825157165527344e-01) (67, 7.61565625667572021484e-01) (68, 8.27228009700775146484e-01) (69, 8.77211332321166992188e-01) (70, 1.46637654304504394531e+00) (71, 2.02855443954467773438e+00) (72, -4.53857369720935821533e-02) (73, 1.23821353912353515625e+00) (74, 1.76464879512786865234e+00) (75, -2.66294240951538085938e-01) (76, 1.03280477225780487061e-01) (77, -2.74779140949249267578e-01) (78, 1.09326887130737304688e+00) (79, 1.14872837066650390625e+00) (80, 2.34127463772892951965e-03) (81, 6.23153030872344970703e-01) (82, 9.73881423473358154297e-01) (83, -6.18748068809509277344e-01) (84, 4.66417789459228515625e-01) (85, 5.65409362316131591797e-01) (86, 5.09192168712615966797e-01) (87, 8.16911160945892333984e-01) (88, 1.10701251029968261719e+00) (89, 1.21891736984252929688e+00) (90, 8.43820452690124511719e-01) (91, 5.66210985183715820312e-01) (92, 3.88886123895645141602e-01) (93, 3.10765326023101806641e-01) (94, 1.40781581401824951172e-01) (95, 1.13914871215820312500e+00) (96, 1.04608118534088134766e+00) (97, 4.99125331640243530273e-01) (98, 9.88797247409820556641e-01) (99, 4.46679949760437011719e-01) (100, 2.93431401252746582031e+00) (76, -1.72325387597084045410e-01) (77, 1.86514592170715332031e+00) (78, 1.65399387478828430176e-02) (79, 7.97925412654876708984e-01) (80, 1.53299283981323242188e+00) (81, 8.96060645580291748047e-01) (82, 1.22233688831329345703e+00) (83, 4.77261871099472045898e-01) (84, 4.02569770812988281250e-01) (85, 1.40887987613677978516e+00) (86, -1.35032087564468383789e-01) (87, 2.24158453941345214844e+00) (88, 7.77124345302581787109e-01) (89, 8.05202126502990722656e-01) (90, 9.05133128166198730469e-01) (91, 9.01508986949920654297e-01) (92, 1.48749244213104248047e+00) (93, 1.28143560886383056641e+00) (94, 1.14330887794494628906e+00) (95, 1.28178083896636962891e+00) (96, 1.13572108745574951172e+00) (97, 6.81937873363494873047e-01) (98, 5.34564971923828125000e-01) (99, 8.37534666061401367188e-01) (100, -8.02230611443519592285e-02) (76, 3.01906800270080566406e+00) (77, 1.67627108097076416016e+00) (78, 7.18539714813232421875e-01) (79, 5.56579113006591796875e-01) (80, 1.03935468196868896484e+00) (81, 1.33639919757843017578e+00) (82, 1.33014237880706787109e+00) (83, 3.95502328872680664062e-01) (84, 5.59686660766601562500e+00) (85, 5.16014218330383300781e-01) (86, 4.33077478408813476562e+00) (87, 6.24716639518737792969e-01) (88, 9.53045308589935302734e-01) (89, 1.52532851696014404297e+00) (90, 6.42448306083679199219e-01) (91, 4.63086932897567749023e-01) (92, 1.07320201396942138672e+00) (93, 5.06167030334472656250e+00) (94, 8.85166406631469726562e-01) (95, 4.75779008865356445312e+00) (96, 2.30969595909118652344e+00) (97, 5.02167224884033203125e+00) (98, 3.56675833463668823242e-01) (99, 8.37089896202087402344e-01) (100, 9.85799670219421386719e-01) (76, 1.58727729320526123047e+00) (77, 4.59704875946044921875e-01) (78, 6.94945633411407470703e-01) (79, 1.18216872215270996094e+00) (80, -1.02061357498168945312e+01) (81, 7.15713620185852050781e-01) (82, 8.34434092044830322266e-01) (83, 2.13025018572807312012e-01) (84, 6.29870414733886718750e-01) (85, -1.68316647410392761230e-01) (86, 8.29131305217742919922e-01) (87, 3.69758069515228271484e-01) (88, 6.98520481586456298828e-01) (89, 8.19283783435821533203e-01) (90, 3.49949657917022705078e-01) (91, 3.97121191024780273438e-01) (92, 1.03826224803924560547e+00) (93, 9.56580996513366699219e-01) (94, -8.63857045769691467285e-02) (95, 3.74355554580688476562e-01) (96, -9.03003811836242675781e-01) (97, -2.09626164287328720093e-02) (98, 9.50477480888366699219e-01) (99, 4.67162787914276123047e-01) (100, 2.01315855979919433594e+00) (76, -3.96748960018157958984e-01) (77, -4.20885264873504638672e-01) (78, 8.93605470657348632812e-01) (79, 6.17607414722442626953e-01) (80, 1.03389537334442138672e+00) (81, 7.24090516567230224609e-01) (82, -1.64121970534324645996e-01) (83, 6.59643948078155517578e-01) (84, 1.67968258261680603027e-01) (85, -3.00094544887542724609e-01) (86, -1.71251729130744934082e-01) (87, -7.85806536674499511719e-01) (88, 3.46448659896850585938e-01) (89, 5.94368398189544677734e-01) (90, -4.53434348106384277344e-01) (91, -1.12244224548339843750e+00) (92, 5.87515771389007568359e-01) (93, 4.16425108909606933594e-01) (94, -2.71774172782897949219e-01) (95, 3.54027688503265380859e-01) (96, -2.57707744836807250977e-01) (97, -4.07802343368530273438e-01) (98, 2.81739801168441772461e-01) (99, -1.55190899968147277832e-01) (100, 1.50882554054260253906e+00) (76, 7.84274876117706298828e-01) (77, 3.40288609266281127930e-01) (78, 3.58863562345504760742e-01) (79, 7.79060661792755126953e-01) (80, 9.83347117900848388672e-01) (81, 1.68310940265655517578e-01) (82, 3.91685754060745239258e-01) (83, 3.15495103597640991211e-01) (84, 2.13681742548942565918e-01) (85, 8.41469407081604003906e-01) (86, 6.36914789676666259766e-01) (87, 1.93931651115417480469e+00) (88, 4.80651855468750000000e+00) (89, 5.13077557086944580078e-01) (90, 1.98912993073463439941e-01) (91, 1.39113771915435791016e+00) (92, 4.18384790420532226562e+00) (93, 5.89184582233428955078e-01) (94, 4.51859891414642333984e-01) (95, 1.32070124149322509766e-01) (96, 2.24564954638481140137e-01) (97, 3.60830277204513549805e-01) (98, 8.66455674171447753906e-01) (99, 4.08234447240829467773e-01) (100, 2.13731691241264343262e-01) (76, 4.39304560422897338867e-01) (77, -1.68796867132186889648e-01) (78, -4.38418745994567871094e-01) (79, 8.67081165313720703125e-01) (80, 1.30482065677642822266e+00) (81, 1.66363453865051269531e+00) (82, 2.76989191770553588867e-01) (83, 7.01515018939971923828e-01) (84, 5.68994641304016113281e-01) (85, 8.62949371337890625000e-01) (86, -5.24277269840240478516e-01) (87, 3.87532740831375122070e-01) (88, 5.59193611145019531250e-01) (89, 1.07054543495178222656e+00) (90, 8.37247490882873535156e-01) (91, 9.03865158557891845703e-01) (92, -1.71343281865119934082e-01) (93, 1.25359892845153808594e+00) (94, 6.65679454803466796875e-01) (95, 2.04052758216857910156e+00) (96, 7.26181983947753906250e-01) (97, 1.57872760295867919922e+00) (98, 6.84419035911560058594e-01) (99, 1.76022499799728393555e-01) (100, 3.74984860420227050781e+00) (76, 2.46112886816263198853e-02) (77, -3.27077746391296386719e-01) (78, 9.79479670524597167969e-01) (79, 8.40712964534759521484e-01) (80, 1.25528490543365478516e+00) (81, 4.62652713060379028320e-01) (82, -3.52255225181579589844e-01) (83, -4.25736337900161743164e-01) (84, 1.74248054623603820801e-01) (85, 3.80248636007308959961e-01) (86, -3.52720737457275390625e-01) (87, 4.65452194213867187500e-01) (88, 1.36722341179847717285e-01) (89, 1.34629696607589721680e-01) (90, 5.81895649433135986328e-01) (91, -2.19447210431098937988e-01) (92, 1.45554676651954650879e-01) (93, 3.61804217100143432617e-01) (94, 1.98315560817718505859e-01) (95, 4.04142796993255615234e-01) (96, 1.12002897262573242188e+00) (97, 7.12501909583806991577e-03) (98, 4.38915461301803588867e-01) (99, 1.16797471418976783752e-02) (100, -1.25991711392998695374e-02) (76, 1.18648087978363037109e+00) (77, 7.25742757320404052734e-01) (78, 5.97272038459777832031e-01) (79, 4.35365259647369384766e-01) (80, 1.21926653385162353516e+00) (81, 3.71676117181777954102e-01) (82, -1.27140149474143981934e-01) (83, 8.77672314643859863281e-01) (84, -1.02352909743785858154e-02) (85, -7.00571656227111816406e-01) (86, 1.66408419609069824219e+00) (87, -2.17978432774543762207e-01) (88, 2.94756945222616195679e-02) (89, 7.71910369396209716797e-01) (90, -4.79713857173919677734e-01) (91, 6.05286359786987304688e-01) (92, 2.12095752358436584473e-01) (93, -5.60773275792598724365e-02) (94, -8.17572176456451416016e-01) (95, 2.67786443233489990234e-01) (96, 4.55546900629997253418e-02) (97, -6.55252099037170410156e-01) (98, 6.40598356723785400391e-01) (99, 9.55928489565849304199e-03) (100, 1.20366334915161132812e+00) (76, 3.85553777217864990234e-01) (77, 5.88613390922546386719e-01) (78, 1.19255757331848144531e+00) (79, 2.18212857842445373535e-01) (80, 1.27724623680114746094e+00) (81, -8.45407471060752868652e-02) (82, 1.77884042263031005859e+00) (83, 1.51515513658523559570e-01) (84, 9.25579845905303955078e-01) (85, 8.11050087213516235352e-02) (86, -5.66525399684906005859e-01) (87, 6.93806767463684082031e-01) (88, 5.95066845417022705078e-01) (89, 5.42971074581146240234e-01) (90, 1.23365148901939392090e-01) (91, 6.03266358375549316406e-01) (92, 3.69535893201828002930e-01) (93, 3.17812681198120117188e-01) (94, 5.96511304378509521484e-01) (95, 3.42587202787399291992e-01) (96, 8.30042779445648193359e-01) (97, 4.72656965255737304688e-01) (98, 7.92912960052490234375e-01) (99, 7.18908190727233886719e-01) (100, 1.42283523082733154297e+00) (76, -4.99303303658962249756e-02) (77, 1.42146515846252441406e+00) (78, 9.32568311691284179688e-01) (79, 6.50981903076171875000e-01) (80, 5.94909071922302246094e-01) (81, 6.52759373188018798828e-01) (82, 8.71815621852874755859e-01) (83, 4.79844629764556884766e-01) (84, 5.41455566883087158203e-01) (85, 9.03606891632080078125e-01) (86, 1.74065142869949340820e-01) (87, 1.82433474063873291016e+00) (88, 9.24185216426849365234e-01) (89, 9.38089549541473388672e-01) (90, 1.10955119132995605469e+00) (91, 9.79043185710906982422e-01) (92, 9.18320298194885253906e-01) (93, 1.10858666896820068359e+00) (94, 8.23162853717803955078e-01) (95, 3.05385380983352661133e-01) (96, 2.32206776738166809082e-01) (97, 6.51230156421661376953e-01) (98, 6.64044737815856933594e-01) (99, 3.65399301052093505859e-01) (100, -1.18233799934387207031e-01) (76, 9.48770582675933837891e-01) (77, 9.16429340839385986328e-01) (78, -2.78961658477783203125e-01) (79, 4.10972207784652709961e-01) (80, 1.43262732028961181641e+00) (81, 9.55221831798553466797e-01) (82, 2.21608066558837890625e+00) (83, 1.35683506727218627930e-01) (84, 2.88692295551300048828e-01) (85, 6.19844257831573486328e-01) (86, -1.46526664495468139648e-01) (87, 1.39365017414093017578e+00) (88, 2.46136158704757690430e-01) (89, -7.81263187527656555176e-02) (90, 5.72762370109558105469e-01) (91, 1.19362032413482666016e+00) (92, 5.46156883239746093750e-01) (93, 1.36505872011184692383e-01) (94, -4.25934158265590667725e-02) (95, 3.13326179981231689453e-01) (96, 1.07923674583435058594e+00) (97, -2.61966854333877563477e-01) (98, 8.06971371173858642578e-01) (99, 7.82023549079895019531e-01) (100, 1.03727114200592041016e+00) (76, 5.68582177162170410156e-01) (77, 8.05249810218811035156e-01) (78, 8.92722308635711669922e-01) (79, 1.34942695498466491699e-01) (80, 4.68967795372009277344e-01) (81, 1.16936385631561279297e+00) (82, 9.50201094150543212891e-01) (83, 1.25460875034332275391e+00) (84, 9.49079930782318115234e-01) (85, 3.19493204355239868164e-01) (86, 3.85355919599533081055e-01) (87, 6.31629407405853271484e-01) (88, 1.02868092060089111328e+00) (89, 9.79063689708709716797e-01) (90, 1.16978919506072998047e+00) (91, 6.41501605510711669922e-01) (92, 8.82298409938812255859e-01) (93, 9.94188964366912841797e-01) (94, 7.95723795890808105469e-01) (95, 6.52358114719390869141e-01) (96, 5.28991699218750000000e-01) (97, 6.24745607376098632812e-01) (98, 3.07825267314910888672e-01) (99, 7.85053968429565429688e-01) (100, 1.59104669094085693359e+00) (76, 2.21405804157257080078e-01) (77, -3.63851755857467651367e-01) (78, -3.20286810398101806641e-01) (79, -2.32572734355926513672e-01) (80, 4.20776939392089843750e+00) (81, 1.15215861797332763672e+00) (82, 7.67907679080963134766e-01) (83, -4.07002300024032592773e-01) (84, 5.04084862768650054932e-02) (85, -5.80764532089233398438e-01) (86, 4.44506168365478515625e-01) (87, 2.42794424295425415039e-01) (88, 7.56453871726989746094e-01) (89, 3.58095437288284301758e-01) (90, 2.09250040352344512939e-02) (91, -3.88932675123214721680e-02) (92, 7.56990909576416015625e-01) (93, 4.11666214466094970703e-01) (94, 3.95005226135253906250e-01) (95, 4.01483625173568725586e-01) (96, -1.78057000041007995605e-01) (97, 8.67130011320114135742e-02) (98, 7.75347948074340820312e-02) (99, -3.15675526857376098633e-01) (100, 8.00770699977874755859e-01) (76, 3.87239903211593627930e-01) (77, 2.54138886928558349609e-01) (78, -5.87795197963714599609e-01) (79, 1.22694030404090881348e-01) (80, 2.95320868492126464844e-01) (81, 1.78820699453353881836e-01) (82, 5.28592467308044433594e-01) (83, 3.47625553607940673828e-01) (84, 3.80651414394378662109e-01) (85, 5.93984603881835937500e-01) (86, 1.45463705062866210938e+00) (87, 4.97944802045822143555e-01) (88, 9.01007890701293945312e-01) (89, 1.28816485404968261719e+00) (90, -9.48641002178192138672e-02) (91, 7.27788686752319335938e-01) (92, 4.18892800807952880859e-01) (93, 8.23285877704620361328e-01) (94, 5.13251543045043945312e-01) (95, 4.86359745264053344727e-01) (96, 7.31826639175415039062e+00) (97, -8.92579853534698486328e-02) (98, 8.43494981527328491211e-02) (99, 3.76245230436325073242e-01) (100, -1.90829053521156311035e-01) (76, 1.62260413169860839844e+00) (77, -5.22394403815269470215e-02) (78, 7.21441090106964111328e-01) (79, 1.00389353930950164795e-01) (80, 1.46349430084228515625e+00) (81, 4.97460365295410156250e-01) (82, -1.42072811722755432129e-01) (83, -2.19658147543668746948e-02) (84, 2.40278959274291992188e-01) (85, 1.49755775928497314453e-01) (86, -3.22302222251892089844e-01) (87, 4.83840525150299072266e-01) (88, 9.36019539833068847656e-01) (89, 7.63489007949829101562e-01) (90, 9.13390934467315673828e-01) (91, 9.73971843719482421875e-01) (92, 6.89412057399749755859e-01) (93, 3.47704440355300903320e-01) (94, 3.09444546699523925781e-01) (95, 6.53143048286437988281e-01) (96, 8.01198184490203857422e-01) (97, 2.21532151103019714355e-01) (98, 9.76839900016784667969e-01) (99, 5.13241924345493316650e-02) (100, 2.87391245365142822266e-03) (76, 9.26113545894622802734e-01) (77, 8.21924865245819091797e-01) (78, -3.96517783403396606445e-01) (79, 1.07595860958099365234e+00) (80, 3.95083963871002197266e-01) (81, 9.94284808635711669922e-01) (82, 1.05052554607391357422e+00) (83, 6.26224219799041748047e-01) (84, 8.36316943168640136719e-01) (85, 1.60284233093261718750e+00) (86, -8.56302082538604736328e-02) (87, 1.82064497470855712891e+00) (88, 3.32403397560119628906e+00) (89, 3.77976000308990478516e-01) (90, 6.56341791152954101562e-01) (91, 1.08840322494506835938e+00) (92, 3.10680985450744628906e+00) (93, 1.06427550315856933594e+00) (94, 2.65731245279312133789e-01) (95, 1.97962075471878051758e-01) (96, 6.40943109989166259766e-01) (97, 1.02737700939178466797e+00) (98, 8.71017158031463623047e-01) (99, 5.71553051471710205078e-01) (100, 4.91896122694015502930e-01) (76, -9.31040287017822265625e-01) (77, 2.16751322150230407715e-01) (78, 2.63577878475189208984e-01) (79, -2.00515557080507278442e-02) (80, 1.58115613460540771484e+00) (81, 1.34677529335021972656e+00) (82, 7.15039446949958801270e-02) (83, 5.68422824144363403320e-02) (84, 1.48778641223907470703e+00) (85, 1.67117953300476074219e+00) (86, 6.86506211757659912109e-01) (87, 1.85113215446472167969e+00) (88, 1.85425937175750732422e+00) (89, 1.40832889080047607422e+00) (90, 5.07457971572875976562e-01) (91, 1.36756932735443115234e+00) (92, 1.73156976699829101562e+00) (93, 1.74663603305816650391e+00) (94, 4.55011367797851562500e-01) (95, 8.20027470588684082031e-01) (96, 2.37988054752349853516e-01) (97, 1.44599807262420654297e+00) (98, 2.46531635522842407227e-01) (99, 5.99282681941986083984e-01) (100, 1.60595893859863281250e+00) (76, -4.37104552984237670898e-01) (77, -2.62739062309265136719e-01) (78, -1.94146130234003067017e-02) (79, 2.11345076560974121094e-01) (80, 4.17724519968032836914e-01) (81, -3.46781760454177856445e-01) (82, -1.29710122942924499512e-01) (83, -1.16474080085754394531e+00) (84, 5.08052110671997070312e-01) (85, -1.80573552846908569336e-01) (86, 4.40217792987823486328e-01) (87, -4.77710843086242675781e-01) (88, 3.47876250743865966797e-01) (89, 5.33287942409515380859e-01) (90, 3.67793262004852294922e-01) (91, -1.48844450712203979492e-01) (92, 6.21399402618408203125e-01) (93, 7.71473526954650878906e-01) (94, -4.06156569719314575195e-01) (95, 3.09880048036575317383e-01) (96, 7.99028587341308593750e+00) (97, 3.04589033126831054688e-01) (98, 3.49912911653518676758e-01) (99, 4.36366558074951171875e-01) (100, 6.41096055507659912109e-01) (76, -4.75157462060451507568e-02) (77, 9.56912636756896972656e-01) (78, 2.10111632943153381348e-01) (79, 7.05078840255737304688e-01) (80, 6.33905291557312011719e-01) (81, -8.50621759891510009766e-02) (82, 3.19038361310958862305e-01) (83, 1.52359282970428466797e+00) (84, -8.74909162521362304688e-01) (85, -9.92553174495697021484e-01) (86, 1.09709560871124267578e+00) (87, 9.89426299929618835449e-03) (88, 3.15518647432327270508e-01) (89, -3.55097055435180664062e-01) (90, -1.46048113703727722168e-01) (91, -1.16491937637329101562e+00) (92, 7.77446568012237548828e-01) (93, 2.27225750684738159180e-01) (94, -1.51465475559234619141e+00) (95, -1.44878737628459930420e-02) (96, 3.80289286375045776367e-01) (97, -9.47135269641876220703e-01) (98, 1.93154633045196533203e-01) (99, -8.15664231777191162109e-01) (100, 1.72197508811950683594e+00) (76, 1.33656179904937744141e+00) (77, -2.12807631492614746094e+00) (78, 7.38808214664459228516e-01) (79, 3.10704201459884643555e-01) (80, 2.76900625228881835938e+00) (81, -7.52827882766723632812e-01) (82, -6.52364611625671386719e-01) (83, -1.78924894332885742188e+00) (84, -1.99994258582592010498e-03) (85, -1.52482235431671142578e+00) (86, 1.92996263504028320312e-02) (87, -1.34712672233581542969e+00) (88, -8.98483991622924804688e-01) (89, -5.14501690864562988281e-01) (90, -1.23866748809814453125e+00) (91, -2.44584143161773681641e-01) (92, -5.26397883892059326172e-01) (93, -7.26492583751678466797e-01) (94, -8.47416698932647705078e-01) (95, -1.65895760059356689453e-01) (96, 4.57264333963394165039e-02) (97, -1.25685620307922363281e+00) (98, 1.73375174403190612793e-01) (99, -3.90744442120194435120e-03) (100, 2.54386687278747558594e+00) (76, 1.35040056705474853516e+00) (77, -7.78080403804779052734e-01) (78, -9.87430959939956665039e-02) (79, 7.69804179668426513672e-01) (80, 1.32281732559204101562e+01) (81, 1.11309945583343505859e+00) (82, -3.19011986255645751953e-01) (83, -9.60643887519836425781e-01) (84, 1.24563443660736083984e+00) (85, -5.92001438140869140625e-01) (86, 1.04210460186004638672e+00) (87, 2.08565238863229751587e-02) (88, 8.87836933135986328125e-01) (89, 5.40896534919738769531e-01) (90, -4.08750832080841064453e-01) (91, 7.25815296173095703125e-02) (92, 1.28727510571479797363e-01) (93, 1.05877435207366943359e+00) (94, -3.89477908611297607422e-01) (95, 1.42417740821838378906e+00) (96, 9.32163298130035400391e-01) (97, 1.50098234415054321289e-01) (98, -4.67400513589382171631e-02) (99, 5.71167230606079101562e-01) (100, -4.97593522071838378906e-01) (76, -5.19632101058959960938e-01) (77, 4.85013216733932495117e-01) (78, -6.11989378929138183594e-01) (79, 1.07008326053619384766e+00) (80, 1.30399560928344726562e+00) (81, 1.14277482032775878906e+00) (82, 7.85402119159698486328e-01) (83, 3.85010093450546264648e-01) (84, 1.66405916213989257812e+00) (85, 6.08584821224212646484e-01) (86, 1.01948499679565429688e-01) (87, 3.07170033454895019531e-01) (88, 1.01721978187561035156e+00) (89, 1.02307140827178955078e+00) (90, 9.53761935234069824219e-01) (91, 1.14370059967041015625e+00) (92, 2.37587541341781616211e-01) (93, 1.83285546302795410156e+00) (94, 1.48418962955474853516e+00) (95, 2.40900850296020507812e+00) (96, 1.46327579021453857422e+00) (97, 1.62694907188415527344e+00) (98, 1.29267883300781250000e+00) (99, 3.25026139616966247559e-02) (100, 8.36152255535125732422e-01) (76, 9.77900803089141845703e-01) (77, 6.97027087211608886719e-01) (78, 5.23246228694915771484e-01) (79, 8.26464354991912841797e-01) (80, 2.25459241867065429688e+00) (81, 1.44267153739929199219e+00) (82, 2.33163870871067047119e-03) (83, 1.23882412910461425781e+00) (84, 1.52069991454482078552e-02) (85, 2.24961228668689727783e-02) (86, 6.22432976961135864258e-02) (87, 3.63955765962600708008e-01) (88, 7.41053819656372070312e-01) (89, 7.60012567043304443359e-01) (90, 6.68433964252471923828e-01) (91, 2.14227527379989624023e-01) (92, 4.52155441045761108398e-01) (93, 5.59258341789245605469e-01) (94, -2.39528447389602661133e-01) (95, 3.81730616092681884766e-01) (96, 9.52831745147705078125e-01) (97, -5.02373836934566497803e-02) (98, 5.06282925605773925781e-01) (99, 1.29772233963012695312e+00) (100, 1.13558971881866455078e+00) (101, 8.94876861572265625000e+00) (102, 1.11012191772460937500e+01) (103, 1.03141899108886718750e+01) (104, 2.36797370910644531250e+01) (105, -3.63985180854797363281e+00) (106, 1.14382028579711914062e+01) (107, -4.44062232971191406250e+00) (108, 1.16902990341186523438e+01) (109, -4.68518829345703125000e+00) (110, 1.14484109878540039062e+01) (111, 1.06537065505981445312e+01) (112, 2.45237426757812500000e+01) (113, 1.13404083251953125000e+01) (114, 1.65177798271179199219e+00) (115, 1.21710596084594726562e+01) (116, 2.24029197692871093750e+01) (117, 1.04837751388549804688e+01) (118, 1.16205768585205078125e+01) (119, 1.70122280120849609375e+01) (120, -5.80439043045043945312e+00) (121, -5.45869350433349609375e+00) (122, 1.82160339355468750000e+01) (123, 1.11286344528198242188e+01) (124, 6.16177062988281250000e+01) (125, -4.79459285736083984375e+00) (101, -8.51231720298528671265e-03) (102, 7.74699330329895019531e-01) (103, -7.24063953384757041931e-03) (104, 4.86583977937698364258e-01) (105, 2.77162689208984375000e+02) (106, 2.27215006947517395020e-01) (107, 5.75459301471710205078e-01) (108, 5.66915988922119140625e-01) (109, 1.99854314327239990234e+00) (110, 5.22190690040588378906e-01) (111, 4.38022732734680175781e-01) (112, 3.58037650585174560547e-01) (113, 1.82739615440368652344e-01) (114, 6.32212460041046142578e-01) (115, 5.34701406955718994141e-01) (116, -1.39950707554817199707e-01) (117, 4.08847391605377197266e-01) (118, 5.59169054031372070312e-01) (119, 2.44453096389770507812e+00) (120, 8.28059673309326171875e-01) (121, 4.17721599340438842773e-01) (122, 2.73323202133178710938e+00) (123, 6.38460099697113037109e-01) (124, 9.54287588596343994141e-01) (125, 1.38095140457153320312e-01) (101, 4.16855722665786743164e-01) (102, 1.24879693984985351562e+00) (103, 1.86419829726219177246e-01) (104, 4.86996144056320190430e-01) (105, 3.77178573608398437500e+01) (106, 1.36853563785552978516e+00) (107, 1.13803160190582275391e+00) (108, 2.83631396293640136719e+00) (109, 1.16494393348693847656e+00) (110, 7.43270218372344970703e-01) (111, 1.02953028678894042969e+00) (112, 1.18783366680145263672e+00) (113, 9.25264477729797363281e-01) (114, 1.16880416870117187500e+00) (115, 9.71097111701965332031e-01) (116, 1.17997026443481445312e+00) (117, 9.42969918251037597656e-01) (118, 1.04802381992340087891e+00) (119, 3.36505818367004394531e+00) (120, 6.25452339649200439453e-01) (121, 8.45018148422241210938e-01) (122, 9.17683720588684082031e-01) (123, 2.32370018959045410156e+00) (124, 4.86250221729278564453e-01) (125, -1.87148988246917724609e-01) (101, 1.65995252132415771484e+00) (102, 6.60496711730957031250e-01) (103, 2.92346382141113281250e+00) (104, 5.20389020442962646484e-01) (105, 3.66398155689239501953e-01) (106, 1.03922939300537109375e+00) (107, 1.41259455680847167969e+00) (108, 2.15174617767333984375e+01) (109, -5.37338256835937500000e-01) (110, 1.20222282409667968750e+00) (111, 9.53134536743164062500e-01) (112, 1.84040820598602294922e+00) (113, 7.20913469791412353516e-01) (114, 1.11692965030670166016e-01) (115, 3.14229130744934082031e+00) (116, 9.18029904365539550781e-01) (117, 7.88192629814147949219e-01) (118, 1.00299978256225585938e+00) (119, -4.56675469875335693359e-01) (120, -4.06844854354858398438e-01) (121, 8.82737517356872558594e-01) (122, 5.87006866931915283203e-01) (123, 1.10898411273956298828e+00) (124, 5.44105410575866699219e-01) (125, 2.43174982070922851562e+00) (101, 6.79338514804840087891e-01) (102, 7.31511652469635009766e-01) (103, 2.96546727418899536133e-01) (104, 3.65506947040557861328e-01) (105, 8.76246414184570312500e+01) (106, 5.38556814193725585938e-01) (107, 6.99049592018127441406e-01) (108, 2.61839246749877929688e+00) (109, 1.55126941204071044922e+00) (110, 3.64952504634857177734e-01) (111, 2.28952541947364807129e-01) (112, -1.22140705585479736328e+00) (113, 5.18404006958007812500e-01) (114, 2.46029424667358398438e+00) (115, 3.40727090835571289062e+00) (116, -2.57607817649841308594e+00) (117, 3.49972605705261230469e-01) (118, 4.19894546270370483398e-01) (119, 8.72522449493408203125e+00) (120, 1.90574872493743896484e+00) (121, 1.32163953781127929688e+00) (122, 6.26857089996337890625e+00) (123, 6.84576690196990966797e-01) (124, 6.00959360599517822266e-01) (125, -6.89149260520935058594e-01) (101, -1.96760535240173339844e-01) (102, 3.89250963926315307617e-01) (103, -6.96839511394500732422e-01) (104, 9.45645570755004882812e-02) (105, 2.80546092987060546875e+00) (106, 5.29331386089324951172e-01) (107, 4.86350625753402709961e-01) (108, 2.02529951930046081543e-01) (109, 1.07992947101593017578e+00) (110, 8.67285907268524169922e-01) (111, 8.06015789508819580078e-01) (112, 