FANN_FLO_2.1
num_layers=20
learning_rate=0.700000
connection_rate=1.000000
network_type=0
learning_momentum=0.000000
training_algorithm=2
train_error_function=1
train_stop_function=1
cascade_output_change_fraction=0.010000
quickprop_decay=-0.000100
quickprop_mu=1.750000
rprop_increase_factor=1.200000
rprop_decrease_factor=0.500000
rprop_delta_min=0.000000
rprop_delta_max=50.000000
rprop_delta_zero=0.100000
cascade_output_stagnation_epochs=12
cascade_candidate_change_fraction=0.010000
cascade_candidate_stagnation_epochs=12
cascade_max_out_epochs=150
cascade_min_out_epochs=50
cascade_max_cand_epochs=150
cascade_min_cand_epochs=50
cascade_num_candidate_groups=2
bit_fail_limit=9.99999977648258209229e-03
cascade_candidate_limit=1.00000000000000000000e+03
cascade_weight_multiplier=4.00000005960464477539e-01
cascade_activation_functions_count=10
cascade_activation_functions=3 5 7 8 10 11 14 15 16 17 
cascade_activation_steepnesses_count=4
cascade_activation_steepnesses=2.50000000000000000000e-01 5.00000000000000000000e-01 7.50000000000000000000e-01 1.00000000000000000000e+00 
layer_sizes=9 17 25 25 25 25 25 25 25 25 25 25 25 25 25 25 25 25 17 9 
scale_included=0
neurons (num_inputs, activation_function, activation_steepness)=(0, 0, 0.00000000000000000000e+00) (0, 0, 0.00000000000000000000e+00) (0, 0, 0.00000000000000000000e+00) (0, 0, 0.00000000000000000000e+00) (0, 0, 0.00000000000000000000e+00) (0, 0, 0.00000000000000000000e+00) (0, 0, 0.00000000000000000000e+00) (0, 0, 0.00000000000000000000e+00) (0, 0, 0.00000000000000000000e+00) (9, 5, 1.00000000000000000000e+00) (9, 5, 1.00000000000000000000e+00) (9, 5, 1.00000000000000000000e+00) (9, 5, 1.00000000000000000000e+00) (9, 5, 1.00000000000000000000e+00) (9, 5, 1.00000000000000000000e+00) (9, 5, 1.00000000000000000000e+00) (9, 5, 1.00000000000000000000e+00) (9, 5, 1.00000000000000000000e+00) (9, 5, 1.00000000000000000000e+00) (9, 5, 1.00000000000000000000e+00) (9, 5, 1.00000000000000000000e+00) (9, 5, 1.00000000000000000000e+00) (9, 5, 1.00000000000000000000e+00) (9, 5, 1.00000000000000000000e+00) (9, 5, 1.00000000000000000000e+00) (0, 5, 1.00000000000000000000e+00) (17, 5, 1.00000000000000000000e+00) (17, 5, 1.00000000000000000000e+00) (17, 5, 1.00000000000000000000e+00) (17, 5, 1.00000000000000000000e+00) (17, 5, 1.00000000000000000000e+00) (17, 5, 1.00000000000000000000e+00) (17, 5, 1.00000000000000000000e+00) (17, 5, 1.00000000000000000000e+00) (17, 5, 1.00000000000000000000e+00) (17, 5, 1.00000000000000000000e+00) (17, 5, 1.00000000000000000000e+00) (17, 5, 1.00000000000000000000e+00) (17, 5, 1.00000000000000000000e+00) (17, 5, 1.00000000000000000000e+00) (17, 5, 1.00000000000000000000e+00) (17, 5, 1.00000000000000000000e+00) (17, 5, 1.00000000000000000000e+00) (17, 5, 1.00000000000000000000e+00) (17, 5, 1.00000000000000000000e+00) (17, 5, 1.00000000000000000000e+00) (17, 5, 1.00000000000000000000e+00) (17, 5, 1.00000000000000000000e+00) (17, 5, 1.00000000000000000000e+00) (17, 5, 1.00000000000000000000e+00) (0, 5, 1.00000000000000000000e+00) (25, 5, 1.00000000000000000000e+00) (25, 5, 1.00000000000000000000e+00) (25, 5, 1.00000000000000000000e+00) (25, 5, 1.00000000000000000000e+00) (25, 5, 1.00000000000000000000e+00) (25, 5, 1.00000000000000000000e+00) (25, 5, 1.00000000000000000000e+00) (25, 5, 1.00000000000000000000e+00) (25, 5, 1.00000000000000000000e+00) (25, 5, 1.00000000000000000000e+00) (25, 5, 1.00000000000000000000e+00) (25, 5, 1.00000000000000000000e+00) (25, 5, 1.00000000000000000000e+00) (25, 5, 1.00000000000000000000e+00) (25, 5, 1.00000000000000000000e+00) (25, 5, 1.00000000000000000000e+00) (25, 5, 1.00000000000000000000e+00) (25, 5, 1.00000000000000000000e+00) (25, 5, 1.00000000000000000000e+00) (25, 5, 1.00000000000000000000e+00) (25, 5, 1.00000000000000000000e+00) (25, 5, 1.00000000000000000000e+00) (25, 5, 1.00000000000000000000e+00) (25, 5, 1.00000000000000000000e+00) (0, 5, 1.00000000000000000000e+00) (25, 5, 1.00000000000000000000e+00) (25, 5, 1.00000000000000000000e+00) (25, 5, 1.00000000000000000000e+00) (25, 5, 1.00000000000000000000e+00) (25, 5, 1.00000000000000000000e+00) (25, 5, 1.00000000000000000000e+00) (25, 5, 1.00000000000000000000e+00) (25, 5, 1.00000000000000000000e+00) (25, 5, 1.00000000000000000000e+00) (25, 5, 1.00000000000000000000e+00) (25, 5, 1.00000000000000000000e+00) (25, 5, 1.00000000000000000000e+00) (25, 5, 1.00000000000000000000e+00) (25, 5, 1.00000000000000000000e+00) (25, 5, 1.00000000000000000000e+00) (25, 5, 1.00000000000000000000e+00) (25, 5, 1.00000000000000000000e+00) (25, 5, 1.00000000000000000000e+00) (25, 5, 1.00000000000000000000e+00) (25, 5, 1.00000000000000000000e+00) (25, 5, 1.00000000000000000000e+00) (25, 5, 1.00000000000000000000e+00) (25, 5, 1.00000000000000000000e+00) (25, 5, 1.00000000000000000000e+00) (0, 5, 1.00000000000000000000e+00) (25, 5, 1.00000000000000000000e+00) (25, 5, 1.00000000000000000000e+00) (25, 5, 1.00000000000000000000e+00) (25, 5, 1.00000000000000000000e+00) (25, 5, 1.00000000000000000000e+00) (25, 5, 1.00000000000000000000e+00) (25, 5, 1.00000000000000000000e+00) (25, 5, 1.00000000000000000000e+00) (25, 5, 1.00000000000000000000e+00) (25, 5, 1.00000000000000000000e+00) (25, 5, 1.00000000000000000000e+00) (25, 5, 1.00000000000000000000e+00) (25, 5, 1.00000000000000000000e+00) (25, 5, 1.00000000000000000000e+00) (25, 5, 1.00000000000000000000e+00) (25, 5, 1.00000000000000000000e+00) (25, 5, 1.00000000000000000000e+00) (25, 5, 1.00000000000000000000e+00) (25, 5, 1.00000000000000000000e+00) (25, 5, 1.00000000000000000000e+00) (25, 5, 1.00000000000000000000e+00) (25, 5, 1.00000000000000000000e+00) (25, 5, 1.00000000000000000000e+00) (25, 5, 1.00000000000000000000e+00) (0, 5, 1.00000000000000000000e+00) (25, 5, 1.00000000000000000000e+00) (25, 5, 1.00000000000000000000e+00) (25, 5, 1.00000000000000000000e+00) (25, 5, 1.00000000000000000000e+00) (25, 5, 1.00000000000000000000e+00) (25, 5, 1.00000000000000000000e+00) (25, 5, 1.00000000000000000000e+00) (25, 5, 1.00000000000000000000e+00) (25, 5, 1.00000000000000000000e+00) (25, 5, 1.00000000000000000000e+00) (25, 5, 1.00000000000000000000e+00) (25, 5, 1.00000000000000000000e+00) (25, 5, 1.00000000000000000000e+00) (25, 5, 1.00000000000000000000e+00) (25, 5, 1.00000000000000000000e+00) (25, 5, 1.00000000000000000000e+00) (25, 5, 1.00000000000000000000e+00) (25, 5, 1.00000000000000000000e+00) (25, 5, 1.00000000000000000000e+00) (25, 5, 1.00000000000000000000e+00) (25, 5, 1.00000000000000000000e+00) (25, 5, 1.00000000000000000000e+00) (25, 5, 1.00000000000000000000e+00) (25, 5, 1.00000000000000000000e+00) (0, 5, 1.00000000000000000000e+00) (25, 5, 1.00000000000000000000e+00) (25, 5, 1.00000000000000000000e+00) (25, 5, 1.00000000000000000000e+00) (25, 5, 1.00000000000000000000e+00) (25, 5, 1.00000000000000000000e+00) (25, 5, 1.00000000000000000000e+00) (25, 5, 1.00000000000000000000e+00) (25, 5, 1.00000000000000000000e+00) (25, 5, 1.00000000000000000000e+00) (25, 5, 1.00000000000000000000e+00) (25, 5, 1.00000000000000000000e+00) (25, 5, 1.00000000000000000000e+00) (25, 5, 1.00000000000000000000e+00) (25, 5, 1.00000000000000000000e+00) (25, 5, 1.00000000000000000000e+00) (25, 5, 1.00000000000000000000e+00) (25, 5, 1.00000000000000000000e+00) (25, 5, 1.00000000000000000000e+00) (25, 5, 1.00000000000000000000e+00) (25, 5, 1.00000000000000000000e+00) (25, 5, 1.00000000000000000000e+00) (25, 5, 1.00000000000000000000e+00) (25, 5, 1.00000000000000000000e+00) (25, 5, 1.00000000000000000000e+00) (0, 5, 1.00000000000000000000e+00) (25, 5, 1.00000000000000000000e+00) (25, 5, 1.00000000000000000000e+00) (25, 5, 1.00000000000000000000e+00) (25, 5, 1.00000000000000000000e+00) (25, 5, 1.00000000000000000000e+00) (25, 5, 1.00000000000000000000e+00) (25, 5, 1.00000000000000000000e+00) (25, 5, 1.00000000000000000000e+00) (25, 5, 1.00000000000000000000e+00) (25, 5, 1.00000000000000000000e+00) (25, 5, 1.00000000000000000000e+00) (25, 5, 1.00000000000000000000e+00) (25, 5, 1.00000000000000000000e+00) (25, 5, 1.00000000000000000000e+00) (25, 5, 1.00000000000000000000e+00) (25, 5, 1.00000000000000000000e+00) (25, 5, 1.00000000000000000000e+00) (25, 5, 1.00000000000000000000e+00) (25, 5, 1.00000000000000000000e+00) (25, 5, 1.00000000000000000000e+00) (25, 5, 1.00000000000000000000e+00) (25, 5, 1.00000000000000000000e+00) (25, 5, 1.00000000000000000000e+00) (25, 5, 1.00000000000000000000e+00) (0, 5, 1.00000000000000000000e+00) (25, 5, 1.00000000000000000000e+00) (25, 5, 1.00000000000000000000e+00) (25, 5, 1.00000000000000000000e+00) (25, 5, 1.00000000000000000000e+00) (25, 5, 1.00000000000000000000e+00) (25, 5, 1.00000000000000000000e+00) (25, 5, 1.00000000000000000000e+00) (25, 5, 1.00000000000000000000e+00) (25, 5, 1.00000000000000000000e+00) (25, 5, 1.00000000000000000000e+00) (25, 5, 1.00000000000000000000e+00) (25, 5, 1.00000000000000000000e+00) (25, 5, 1.00000000000000000000e+00) (25, 5, 1.00000000000000000000e+00) (25, 5, 1.00000000000000000000e+00) (25, 5, 1.00000000000000000000e+00) (25, 5, 1.00000000000000000000e+00) (25, 5, 1.00000000000000000000e+00) (25, 5, 1.00000000000000000000e+00) (25, 5, 1.00000000000000000000e+00) (25, 5, 1.00000000000000000000e+00) (25, 5, 1.00000000000000000000e+00) (25, 5, 1.00000000000000000000e+00) (25, 5, 1.00000000000000000000e+00) (0, 5, 1.00000000000000000000e+00) (25, 5, 1.00000000000000000000e+00) (25, 5, 1.00000000000000000000e+00) (25, 5, 1.00000000000000000000e+00) (25, 5, 1.00000000000000000000e+00) (25, 5, 1.00000000000000000000e+00) (25, 5, 1.00000000000000000000e+00) (25, 5, 1.00000000000000000000e+00) (25, 5, 1.00000000000000000000e+00) (25, 5, 1.00000000000000000000e+00) (25, 5, 1.00000000000000000000e+00) (25, 5, 1.00000000000000000000e+00) (25, 5, 1.00000000000000000000e+00) (25, 5, 1.00000000000000000000e+00) (25, 5, 1.00000000000000000000e+00) (25, 5, 1.00000000000000000000e+00) (25, 5, 1.00000000000000000000e+00) (25, 5, 1.00000000000000000000e+00) (25, 5, 1.00000000000000000000e+00) (25, 5, 1.00000000000000000000e+00) (25, 5, 1.00000000000000000000e+00) (25, 5, 1.00000000000000000000e+00) (25, 5, 1.00000000000000000000e+00) (25, 5, 1.00000000000000000000e+00) (25, 5, 1.00000000000000000000e+00) (0, 5, 1.00000000000000000000e+00) (25, 5, 1.00000000000000000000e+00) (25, 5, 1.00000000000000000000e+00) (25, 5, 1.00000000000000000000e+00) (25, 5, 1.00000000000000000000e+00) (25, 5, 1.00000000000000000000e+00) (25, 5, 1.00000000000000000000e+00) (25, 5, 1.00000000000000000000e+00) (25, 5, 1.00000000000000000000e+00) (25, 5, 1.00000000000000000000e+00) (25, 5, 1.00000000000000000000e+00) (25, 5, 1.00000000000000000000e+00) (25, 5, 1.00000000000000000000e+00) (25, 5, 1.00000000000000000000e+00) (25, 5, 1.00000000000000000000e+00) (25, 5, 1.00000000000000000000e+00) (25, 5, 1.00000000000000000000e+00) (25, 5, 1.00000000000000000000e+00) (25, 5, 1.00000000000000000000e+00) (25, 5, 1.00000000000000000000e+00) (25, 5, 1.00000000000000000000e+00) (25, 5, 1.00000000000000000000e+00) (25, 5, 1.00000000000000000000e+00) (25, 5, 1.00000000000000000000e+00) (25, 5, 1.00000000000000000000e+00) (0, 5, 1.00000000000000000000e+00) (25, 5, 1.00000000000000000000e+00) (25, 5, 1.00000000000000000000e+00) (25, 5, 1.00000000000000000000e+00) (25, 5, 1.00000000000000000000e+00) (25, 5, 1.00000000000000000000e+00) (25, 5, 1.00000000000000000000e+00) (25, 5, 1.00000000000000000000e+00) (25, 5, 1.00000000000000000000e+00) (25, 5, 1.00000000000000000000e+00) (25, 5, 1.00000000000000000000e+00) (25, 5, 1.00000000000000000000e+00) (25, 5, 1.00000000000000000000e+00) (25, 5, 1.00000000000000000000e+00) (25, 5, 1.00000000000000000000e+00) (25, 5, 1.00000000000000000000e+00) (25, 5, 1.00000000000000000000e+00) (25, 5, 1.00000000000000000000e+00) (25, 5, 1.00000000000000000000e+00) (25, 5, 1.00000000000000000000e+00) (25, 5, 1.00000000000000000000e+00) (25, 5, 1.00000000000000000000e+00) (25, 5, 1.00000000000000000000e+00) (25, 5, 1.00000000000000000000e+00) (25, 5, 1.00000000000000000000e+00) (0, 5, 1.00000000000000000000e+00) (25, 5, 1.00000000000000000000e+00) (25, 5, 1.00000000000000000000e+00) (25, 5, 1.00000000000000000000e+00) (25, 5, 1.00000000000000000000e+00) (25, 5, 1.00000000000000000000e+00) (25, 5, 1.00000000000000000000e+00) (25, 5, 1.00000000000000000000e+00) (25, 5, 1.00000000000000000000e+00) (25, 5, 1.00000000000000000000e+00) (25, 5, 1.00000000000000000000e+00) (25, 5, 1.00000000000000000000e+00) (25, 5, 1.00000000000000000000e+00) (25, 5, 1.00000000000000000000e+00) (25, 5, 1.00000000000000000000e+00) (25, 5, 1.00000000000000000000e+00) (25, 5, 1.00000000000000000000e+00) (25, 5, 1.00000000000000000000e+00) (25, 5, 1.00000000000000000000e+00) (25, 5, 1.00000000000000000000e+00) (25, 5, 1.00000000000000000000e+00) (25, 5, 1.00000000000000000000e+00) (25, 5, 1.00000000000000000000e+00) (25, 5, 1.00000000000000000000e+00) (25, 5, 1.00000000000000000000e+00) (0, 5, 1.00000000000000000000e+00) (25, 5, 1.00000000000000000000e+00) (25, 5, 1.00000000000000000000e+00) (25, 5, 1.00000000000000000000e+00) (25, 5, 1.00000000000000000000e+00) (25, 5, 1.00000000000000000000e+00) (25, 5, 1.00000000000000000000e+00) (25, 5, 1.00000000000000000000e+00) (25, 5, 1.00000000000000000000e+00) (25, 5, 1.00000000000000000000e+00) (25, 5, 1.00000000000000000000e+00) (25, 5, 1.00000000000000000000e+00) (25, 5, 1.00000000000000000000e+00) (25, 5, 1.00000000000000000000e+00) (25, 5, 1.00000000000000000000e+00) (25, 5, 1.00000000000000000000e+00) (25, 5, 1.00000000000000000000e+00) (25, 5, 1.00000000000000000000e+00) (25, 5, 1.00000000000000000000e+00) (25, 5, 1.00000000000000000000e+00) (25, 5, 1.00000000000000000000e+00) (25, 5, 1.00000000000000000000e+00) (25, 5, 1.00000000000000000000e+00) (25, 5, 1.00000000000000000000e+00) (25, 5, 1.00000000000000000000e+00) (0, 5, 1.00000000000000000000e+00) (25, 5, 1.00000000000000000000e+00) (25, 5, 1.00000000000000000000e+00) (25, 5, 1.00000000000000000000e+00) (25, 5, 1.00000000000000000000e+00) (25, 5, 1.00000000000000000000e+00) (25, 5, 1.00000000000000000000e+00) (25, 5, 1.00000000000000000000e+00) (25, 5, 1.00000000000000000000e+00) (25, 5, 1.00000000000000000000e+00) (25, 5, 1.00000000000000000000e+00) (25, 5, 1.00000000000000000000e+00) (25, 5, 1.00000000000000000000e+00) (25, 5, 1.00000000000000000000e+00) (25, 5, 1.00000000000000000000e+00) (25, 5, 1.00000000000000000000e+00) (25, 5, 1.00000000000000000000e+00) (25, 5, 1.00000000000000000000e+00) (25, 5, 1.00000000000000000000e+00) (25, 5, 1.00000000000000000000e+00) (25, 5, 1.00000000000000000000e+00) (25, 5, 1.00000000000000000000e+00) (25, 5, 1.00000000000000000000e+00) (25, 5, 1.00000000000000000000e+00) (25, 5, 1.00000000000000000000e+00) (0, 5, 1.00000000000000000000e+00) (25, 5, 1.00000000000000000000e+00) (25, 5, 1.00000000000000000000e+00) (25, 5, 1.00000000000000000000e+00) (25, 5, 1.00000000000000000000e+00) (25, 5, 1.00000000000000000000e+00) (25, 5, 1.00000000000000000000e+00) (25, 5, 1.00000000000000000000e+00) (25, 5, 1.00000000000000000000e+00) (25, 5, 1.00000000000000000000e+00) (25, 5, 1.00000000000000000000e+00) (25, 5, 1.00000000000000000000e+00) (25, 5, 1.00000000000000000000e+00) (25, 5, 1.00000000000000000000e+00) (25, 5, 1.00000000000000000000e+00) (25, 5, 1.00000000000000000000e+00) (25, 5, 1.00000000000000000000e+00) (25, 5, 1.00000000000000000000e+00) (25, 5, 1.00000000000000000000e+00) (25, 5, 1.00000000000000000000e+00) (25, 5, 1.00000000000000000000e+00) (25, 5, 1.00000000000000000000e+00) (25, 5, 1.00000000000000000000e+00) (25, 5, 1.00000000000000000000e+00) (25, 5, 1.00000000000000000000e+00) (0, 5, 1.00000000000000000000e+00) (25, 5, 1.00000000000000000000e+00) (25, 5, 1.00000000000000000000e+00) (25, 5, 1.00000000000000000000e+00) (25, 5, 1.00000000000000000000e+00) (25, 5, 1.00000000000000000000e+00) (25, 5, 1.00000000000000000000e+00) (25, 5, 1.00000000000000000000e+00) (25, 5, 1.00000000000000000000e+00) (25, 5, 1.00000000000000000000e+00) (25, 5, 1.00000000000000000000e+00) (25, 5, 1.00000000000000000000e+00) (25, 5, 1.00000000000000000000e+00) (25, 5, 1.00000000000000000000e+00) (25, 5, 1.00000000000000000000e+00) (25, 5, 1.00000000000000000000e+00) (25, 5, 1.00000000000000000000e+00) (25, 5, 1.00000000000000000000e+00) (25, 5, 1.00000000000000000000e+00) (25, 5, 1.00000000000000000000e+00) (25, 5, 1.00000000000000000000e+00) (25, 5, 1.00000000000000000000e+00) (25, 5, 1.00000000000000000000e+00) (25, 5, 1.00000000000000000000e+00) (25, 5, 1.00000000000000000000e+00) (0, 5, 1.00000000000000000000e+00) (25, 5, 1.00000000000000000000e+00) (25, 5, 1.00000000000000000000e+00) (25, 5, 1.00000000000000000000e+00) (25, 5, 1.00000000000000000000e+00) (25, 5, 1.00000000000000000000e+00) (25, 5, 1.00000000000000000000e+00) (25, 5, 1.00000000000000000000e+00) (25, 5, 1.00000000000000000000e+00) (25, 5, 1.00000000000000000000e+00) (25, 5, 1.00000000000000000000e+00) (25, 5, 1.00000000000000000000e+00) (25, 5, 1.00000000000000000000e+00) (25, 5, 1.00000000000000000000e+00) (25, 5, 1.00000000000000000000e+00) (25, 5, 1.00000000000000000000e+00) (25, 5, 1.00000000000000000000e+00) (0, 5, 1.00000000000000000000e+00) (17, 5, 1.00000000000000000000e+00) (17, 5, 1.00000000000000000000e+00) (17, 5, 1.00000000000000000000e+00) (17, 5, 1.00000000000000000000e+00) (17, 5, 1.00000000000000000000e+00) (17, 5, 1.00000000000000000000e+00) (17, 5, 1.00000000000000000000e+00) (17, 5, 1.00000000000000000000e+00) (0, 5, 1.00000000000000000000e+00) 
connections (connected_to_neuron, weight)=(0, 2.43456006050109863281e+00) (1, 3.29722404479980468750e-01) (2, 4.36777305603027343750e+00) (3, 1.11223447322845458984e+00) (4, 2.75649118423461914062e+00) (5, 2.96223402023315429688e+00) (6, 1.08918583393096923828e+00) (7, -4.18948507308959960938e+00) (8, 5.31756758689880371094e-01) (0, 1.03847221374511718750e+02) (1, 5.18518791198730468750e+01) (2, 4.68010406494140625000e+01) (3, 6.81801199913024902344e-01) (4, 1.38255462646484375000e+02) (5, -1.67810649871826171875e+01) (6, 1.11408519744873046875e+00) (7, -9.10066589713096618652e-02) (8, 1.81715488433837890625e+00) (0, 8.71851742267608642578e-01) (1, 1.54150986671447753906e+00) (2, 1.47112262248992919922e+00) (3, 1.52233421802520751953e+00) (4, 2.78944343328475952148e-01) (5, 1.27505719661712646484e+00) (6, 1.64090692996978759766e+00) (7, 5.36077260971069335938e-01) (8, -1.68131053447723388672e+00) (0, -1.65923714637756347656e+00) (1, 3.23333352804183959961e-01) (2, 1.22064721584320068359e+00) (3, 4.88955259323120117188e+00) (4, 1.47963237762451171875e+00) (5, 4.18447047472000122070e-01) (6, 1.92791700363159179688e-01) (7, 1.72104871273040771484e+00) (8, 1.49335169792175292969e+00) (0, 3.15058112144470214844e+00) (1, 2.26150774955749511719e+00) (2, 1.71340596675872802734e+00) (3, 2.44898819923400878906e+00) (4, 4.27670669555664062500e+01) (5, -1.68499797582626342773e-01) (6, 1.46298384666442871094e+00) (7, -2.54848629236221313477e-01) (8, -4.32674914598464965820e-01) (0, 5.13818562030792236328e-01) (1, 2.78076863288879394531e+00) (2, 9.81202185153961181641e-01) (3, 2.47633242607116699219e+00) (4, 9.85314548015594482422e-01) (5, 7.40970849990844726562e-01) (6, 1.41644477844238281250e+01) (7, 1.36466193199157714844e+00) (8, 6.15197515487670898438e+00) (0, 8.46332907676696777344e-01) (1, 7.21524953842163085938e-01) (2, 2.81542134284973144531e+00) (3, 1.45790224075317382812e+01) (4, 2.34833312034606933594e+00) (5, 1.20598328113555908203e+00) (6, 1.36300289630889892578e+00) (7, 8.66548120975494384766e-01) (8, -2.58984267711639404297e-01) (0, 1.22687637805938720703e+00) (1, 1.30245125293731689453e+00) (2, -3.34759712219238281250e-01) (3, 3.56773352622985839844e+00) (4, 1.47027671337127685547e+00) (5, 1.35985684394836425781e+00) (6, 6.00284516811370849609e-01) (7, 4.58505392074584960938e-01) (8, -7.07746326923370361328e-01) (0, 9.46593344211578369141e-01) (1, 1.10028827190399169922e+00) (2, 2.19765186309814453125e+00) (3, 4.12948608398437500000e+00) (4, 1.19634211063385009766e+00) (5, 5.45401036739349365234e-01) (6, 2.90279388427734375000e+00) (7, 5.28630852699279785156e-01) (8, 1.43202614784240722656e+00) (0, 7.87999033927917480469e-01) (1, 1.25004339218139648438e+00) (2, 1.65056169033050537109e+00) (3, 1.45849370956420898438e+00) (4, 5.71871221065521240234e-01) (5, 1.40681910514831542969e+00) (6, 9.44359838962554931641e-01) (7, 6.57105386257171630859e-01) (8, -2.66675281524658203125e+00) (0, 1.60977351665496826172e+00) (1, -2.54124474525451660156e+00) (2, 2.24047875404357910156e+00) (3, 3.99957537651062011719e+00) (4, -2.02283763885498046875e+00) (5, 2.01890182495117187500e+01) (6, 9.94189167022705078125e+00) (7, 7.43880867958068847656e-01) (8, 9.03916716575622558594e-01) (0, 2.72417616844177246094e+00) (1, 4.18456077575683593750e+00) (2, 9.74694311618804931641e-01) (3, 2.72347122430801391602e-01) (4, -1.17461216449737548828e+00) (5, 3.45377755165100097656e+00) (6, 1.59955084323883056641e+00) (7, 6.54335021972656250000e-01) (8, 1.93587911128997802734e+00) (0, 1.55594611167907714844e+00) (1, 2.86344146728515625000e+00) (2, 1.05425524711608886719e+00) (3, 2.94335055351257324219e+00) (4, 2.94292187690734863281e+00) (5, 1.27363085746765136719e+00) (6, 2.11207199096679687500e+00) (7, 1.46639800071716308594e+00) (8, -1.81180346012115478516e+00) (0, 2.98982858657836914062e-01) (1, 7.00715422630310058594e-01) (2, 1.44603860378265380859e+00) (3, 4.95018815994262695312e+00) (4, 2.88278484344482421875e+00) (5, 2.89564341306686401367e-01) (6, 1.02786147594451904297e+00) (7, 1.04884862899780273438e+00) (8, -2.54669606685638427734e-01) (0, 7.25541174411773681641e-01) (1, 1.30917179584503173828e+00) (2, 1.31273913383483886719e+00) (3, 2.87030792236328125000e+00) (4, 3.99421930313110351562e-01) (5, 9.98607635498046875000e-01) (6, 8.78354167938232421875e+00) (7, 1.09762763977050781250e+00) (8, 2.22934303283691406250e+01) (0, 1.43339233398437500000e+01) (1, -2.85353040695190429688e+00) (2, -3.24669790267944335938e+00) (3, 2.41621032357215881348e-01) (4, -1.26653361320495605469e+00) (5, 3.69152450561523437500e+00) (6, 6.49263763427734375000e+00) (7, 2.65215086936950683594e+00) (8, 1.21155977249145507812e+00) (9, 5.38406632840633392334e-02) (10, -3.65451365709304809570e-01) (11, 2.71138787269592285156e+00) (12, 4.59230661392211914062e-01) (13, 1.49834370613098144531e+00) (14, 5.11970043182373046875e-01) (15, 5.87969541549682617188e+00) (16, 7.75317311286926269531e-01) (17, -6.24427348375320434570e-02) (18, 1.69247889518737792969e+00) (19, 1.75422894954681396484e+00) (20, 1.14645109176635742188e+01) (21, 2.72190070152282714844e+00) (22, 8.47260761260986328125e+00) (23, -7.76111781597137451172e-02) (24, -1.90403103828430175781e+00) (25, -8.49923312664031982422e-01) (9, -4.63635301589965820312e+00) (10, 8.81134808063507080078e-01) (11, 1.92162787914276123047e+00) (12, 1.41113698482513427734e+00) (13, 1.24448370933532714844e+00) (14, 2.16069269180297851562e+00) (15, 1.17071819305419921875e+00) (16, 8.20841670036315917969e-01) (17, 4.53843688964843750000e+00) (18, 1.45965552330017089844e+00) (19, 7.83863353729248046875e+00) (20, 9.86824035644531250000e+00) (21, 6.08991801738739013672e-01) (22, 1.89859938621520996094e+00) (23, 1.00569324493408203125e+01) (24, 2.50894527435302734375e+01) (25, 1.72587287425994873047e+00) (9, 1.42219054698944091797e+00) (10, 8.24794828891754150391e-01) (11, 2.64244604110717773438e+00) (12, 6.14560246467590332031e-01) (13, 1.72409045696258544922e+00) (14, 6.24038159847259521484e-01) (15, 1.36057174205780029297e+00) (16, -3.74432563781738281250e+00) (17, 6.67001295089721679688e+00) (18, 2.94228529930114746094e+00) (19, 1.43110752105712890625e+00) (20, 9.54147636890411376953e-01) (21, 1.54341793060302734375e+00) (22, 1.95752453804016113281e+00) (23, 4.02767229080200195312e+00) (24, 1.05647861957550048828e+00) (25, -6.48921549320220947266e-01) (9, 5.49081623554229736328e-01) (10, 9.08800840377807617188e-01) (11, 1.54133641719818115234e+00) (12, 1.32165038585662841797e+00) (13, 2.31814408302307128906e+00) (14, 3.50298190116882324219e+00) (15, 1.30506944656372070312e+00) (16, 8.93880248069763183594e-01) (17, 1.37474460601806640625e+01) (18, 2.42598032951354980469e+00) (19, 2.30876016616821289062e+00) (20, 1.48166151046752929688e+01) (21, 1.03827631473541259766e+00) (22, 3.15441560745239257812e+00) (23, 2.34268617630004882812e+00) (24, 1.79305088520050048828e+00) (25, -2.02498292922973632812e+00) (9, 1.46377527713775634766e+00) (10, 6.84082567691802978516e-01) (11, 1.05735433101654052734e+00) (12, 1.52743482589721679688e+00) (13, -2.40429496765136718750e+00) (14, 1.43171191215515136719e+00) (15, 1.93057298660278320312e+00) (16, 6.77671492099761962891e-01) (17, 1.40367424488067626953e+00) (18, 1.17869019508361816406e+00) (19, 5.72274088859558105469e-01) (20, 2.75164055824279785156e+00) (21, 1.19909644126892089844e+00) (22, 1.05378198623657226562e+00) (23, 2.68923497200012207031e+00) (24, 1.89109992980957031250e+01) (25, 9.88606870174407958984e-01) (9, 1.64446914196014404297e+00) (10, 7.93716013431549072266e-01) (11, 1.47658884525299072266e+00) (12, 1.97366714477539062500e+00) (13, 1.86722481250762939453e+00) (14, 1.72530615329742431641e+00) (15, 1.44368648529052734375e+00) (16, 3.16692328453063964844e+00) (17, 2.68016600608825683594e+00) (18, 1.45824527740478515625e+00) (19, 1.96319079399108886719e+00) (20, 1.56519353389739990234e+00) (21, 2.68517136573791503906e+00) (22, 2.07019066810607910156e+00) (23, 6.51700162887573242188e+00) (24, -5.28159999847412109375e+00) (25, 9.82107043266296386719e-01) (9, 4.66600596904754638672e-01) (10, 1.31548714637756347656e+00) (11, 4.11549299955368041992e-01) (12, 2.69811582565307617188e+00) (13, 2.02791905403137207031e+00) (14, 6.70590400695800781250e-02) (15, 1.57867193222045898438e+00) (16, 2.65250539779663085938e+00) (17, 6.00411605834960937500e+00) (18, 1.89669263362884521484e+00) (19, -2.24144965410232543945e-01) (20, -4.48603820800781250000e+00) (21, 1.87997031211853027344e+00) (22, 1.64408886432647705078e+00) (23, 4.23561811447143554688e+00) (24, 4.12649726867675781250e+00) (25, 7.35068440437316894531e-01) (9, 5.87427914142608642578e-01) (10, 2.93901320546865463257e-02) (11, 1.47113478183746337891e+00) (12, 1.59747886657714843750e+00) (13, 1.52939522266387939453e+00) (14, 1.04272544384002685547e+00) (15, 2.28140115737915039062e+00) (16, 1.84695315361022949219e+00) (17, 9.34187471866607666016e-01) (18, 2.05741357803344726562e+00) (19, 8.45011591911315917969e-01) (20, 4.70807582139968872070e-01) (21, 2.78162264823913574219e+00) (22, 1.43169403076171875000e+00) (23, 6.53748512268066406250e+00) (24, 1.96110093593597412109e+00) (25, 1.08344912528991699219e+00) (9, 6.06313347816467285156e-01) (10, 9.84916463494300842285e-03) (11, 1.64629137516021728516e+00) (12, 1.23789548873901367188e+00) (13, 8.50791871547698974609e-01) (14, -6.24798238277435302734e-01) (15, 1.33412683010101318359e+00) (16, 6.60868525505065917969e-01) (17, 4.04416829347610473633e-01) (18, 1.00559389591217041016e+00) (19, 3.02757769823074340820e-01) (20, 5.20406484603881835938e-01) (21, 5.42153596878051757812e-01) (22, 1.22290539741516113281e+00) (23, -2.97882646322250366211e-01) (24, 1.47886943817138671875e+00) (25, 1.06517076492309570312e+00) (9, 2.23241615295410156250e+00) (10, 6.84746503829956054688e-01) (11, 9.54386055469512939453e-01) (12, 1.27822136878967285156e+00) (13, 1.39112436771392822266e+00) (14, 1.53104349970817565918e-01) (15, 1.66908109188079833984e+00) (16, 7.45747625827789306641e-01) (17, 3.64036649465560913086e-01) (18, 1.17898344993591308594e+00) (19, 9.80027079582214355469e-01) (20, 1.74349093437194824219e+00) (21, 1.78254210948944091797e+00) (22, 1.56311500072479248047e+00) (23, 1.07602953910827636719e+00) (24, 6.30174160003662109375e-01) (25, 1.32601022720336914062e-01) (9, 2.02608139038085937500e+02) (10, 3.62703819274902343750e+01) (11, 6.16535604000091552734e-01) (12, 6.48285925388336181641e-01) (13, 2.24468493461608886719e+00) (14, 3.50286036729812622070e-01) (15, 1.25256955623626708984e+00) (16, 1.72806644439697265625e+00) (17, 2.06156373023986816406e+00) (18, 1.27956366539001464844e+00) (19, -7.54369556903839111328e-01) (20, -2.91416272521018981934e-02) (21, 1.89028728008270263672e+00) (22, 7.28516280651092529297e-01) (23, 7.80929446220397949219e-01) (24, 4.35172140598297119141e-01) (25, 8.10560584068298339844e-02) (9, 5.59786260128021240234e-01) (10, 1.25033813476562500000e+03) (11, 8.68911743164062500000e-01) (12, 1.15704572200775146484e+00) (13, -1.20089221000671386719e+00) (14, -6.79735124111175537109e-01) (15, 8.78336369991302490234e-01) (16, 5.85821866989135742188e-01) (17, 4.52009260654449462891e-01) (18, 9.45024251937866210938e-01) (19, -3.55981755256652832031e+00) (20, -4.98181962966918945312e+00) (21, 1.01458597183227539062e+00) (22, 1.70310187339782714844e+00) (23, 4.68643754720687866211e-01) (24, 1.02770147323608398438e+01) (25, 3.11795115470886230469e+00) (9, 5.17235231399536132812e+00) (10, 3.13317477703094482422e-01) (11, 2.12155055999755859375e+00) (12, 4.67525064945220947266e-01) (13, 1.31759810447692871094e+00) (14, 7.56882488727569580078e-01) (15, -4.88317072391510009766e-01) (16, 9.07998561859130859375e-01) (17, 3.89776492118835449219e+00) (18, 1.61895442008972167969e+00) (19, 9.98673319816589355469e-01) (20, 1.41374039649963378906e+00) (21, 1.41258037090301513672e+00) (22, -1.53804659843444824219e+00) (23, 1.10424079895019531250e+01) (24, 2.75349068641662597656e+00) (25, 7.66152203083038330078e-01) (9, 1.73131120204925537109e+00) (10, 5.83734130859375000000e+01) (11, 3.70495557785034179688e-01) (12, 6.14347875118255615234e-01) (13, 1.34486401081085205078e+00) (14, 5.31846642494201660156e-01) (15, 9.81218695640563964844e-01) (16, 1.72936773300170898438e+00) (17, 2.93380570411682128906e+00) (18, -1.58254429697990417480e-01) (19, -9.12994205951690673828e-01) (20, -1.42606198787689208984e+00) (21, 1.44184672832489013672e+00) (22, 3.12636733055114746094e+00) (23, 1.65781867504119873047e+00) (24, 1.22258663177490234375e+00) (25, 1.30728054046630859375e+00) (9, 1.35111057758331298828e+00) (10, 3.44541351318359375000e+02) (11, 2.98589897155761718750e+00) (12, 6.42152070999145507812e-01) (13, 2.36711978912353515625e+00) (14, 9.04890775680541992188e-01) (15, 1.70161938667297363281e+00) (16, 1.09898555278778076172e+00) (17, 6.42976939678192138672e-01) (18, 1.17921435832977294922e+00) (19, -1.98808634281158447266e+00) (20, -8.28830146789550781250e+00) (21, 1.25849282741546630859e+00) (22, 1.49242496490478515625e+00) (23, 1.27456128597259521484e+00) (24, 2.55310559272766113281e+00) (25, 3.54921698570251464844e-01) (9, 1.84692039489746093750e+01) (10, 2.24643020629882812500e+01) (11, 1.24195396900177001953e+00) (12, 1.30769276618957519531e+00) (13, 1.11655235290527343750e+00) (14, 3.22266928851604461670e-02) (15, 2.01135063171386718750e+00) (16, 6.84554755687713623047e-01) (17, 4.58799028396606445312e+00) (18, 1.66397786140441894531e+00) (19, 2.87350296974182128906e-01) (20, -6.55725121498107910156e-01) (21, 2.57400703430175781250e+00) (22, 4.60728025436401367188e+00) (23, 1.15060019493103027344e+00) (24, 1.30966973304748535156e+00) (25, 1.09529352188110351562e+00) (9, 1.20186185836791992188e+01) (10, 7.00808107852935791016e-01) (11, 1.30985498428344726562e+00) (12, 1.67325675487518310547e+00) (13, 1.85013580322265625000e+00) (14, 2.39493942260742187500e+00) (15, 1.42761266231536865234e+00) (16, 1.37523341178894042969e+00) (17, 2.54827070236206054688e+00) (18, -3.12149584293365478516e-01) (19, 9.42618429660797119141e-01) (20, -7.34314203262329101562e-01) (21, 1.58100104331970214844e+00) (22, 3.59717917442321777344e+00) (23, 9.16779804229736328125e+00) (24, 4.65960174798965454102e-01) (25, 1.61209964752197265625e+01) (9, 7.51705169677734375000e+00) (10, 3.91878652572631835938e+00) (11, 8.24490904808044433594e-01) (12, 8.56924414634704589844e-01) (13, 1.14470362663269042969e+00) (14, 5.86143553256988525391e-01) (15, 1.27428257465362548828e+00) (16, 7.58262753486633300781e-01) (17, 1.51348221302032470703e+00) (18, 1.10250222682952880859e+00) (19, 8.23600828647613525391e-01) (20, -6.59923019409179687500e+01) (21, 8.50406289100646972656e-01) (22, 1.41936731338500976562e+00) (23, 5.72952866554260253906e-01) (24, 3.39692115783691406250e-01) (25, 4.62371230125427246094e-01) (9, 1.62055230140686035156e+00) (10, 6.99509263038635253906e-01) (11, 2.30210185050964355469e+00) (12, 1.40485870838165283203e+00) (13, 7.92011559009552001953e-01) (14, 6.96157693862915039062e-01) (15, 1.70495307445526123047e+00) (16, 6.11159205436706542969e-01) (17, 4.65153813362121582031e-01) (18, 9.93355214595794677734e-01) (19, 4.23562198877334594727e-01) (20, -9.06514883041381835938e-01) (21, 1.34607088565826416016e+00) (22, 2.09496665000915527344e+00) (23, 4.37902808189392089844e-01) (24, -1.06389500200748443604e-01) (25, -4.12936508655548095703e-01) (9, 7.80584871768951416016e-01) (10, 1.66621243953704833984e+00) (11, 1.53836584091186523438e+00) (12, 1.98989045619964599609e+00) (13, 1.42766833305358886719e+00) (14, 9.35100615024566650391e-01) (15, 1.68234896659851074219e+00) (16, 7.00828611850738525391e-01) (17, 2.40563106536865234375e+00) (18, 1.38943183422088623047e+00) (19, -1.12691032886505126953e+00) (20, 7.81561017036437988281e-01) (21, 1.65303552150726318359e+00) (22, 3.36752080917358398438e+00) (23, 3.72100806236267089844e+00) (24, 5.86124122142791748047e-01) (25, 5.90020537376403808594e-01) (9, 3.54433393478393554688e+00) (10, 1.56982958316802978516e+00) (11, 1.47382140159606933594e+00) (12, 1.61071205139160156250e+00) (13, 7.57486164569854736328e-01) (14, 3.68883395195007324219e+00) (15, 2.12151074409484863281e+00) (16, 1.43677794933319091797e+00) (17, 2.18946623802185058594e+00) (18, 1.07606148719787597656e+00) (19, -5.57704567909240722656e-01) (20, -3.85826706886291503906e-01) (21, 1.81102061271667480469e+00) (22, 3.11983108520507812500e+00) (23, 1.25870895385742187500e+00) (24, 1.65743160247802734375e+00) (25, 5.87107658386230468750e-01) (9, 4.53668937683105468750e+01) (10, 1.05046272277832031250e+00) (11, 1.44026434421539306641e+00) (12, 3.16903495788574218750e+00) (13, 4.96733367443084716797e-01) (14, 7.89776861667633056641e-01) (15, 9.76328194141387939453e-01) (16, 2.05327248573303222656e+00) (17, 4.99502992630004882812e+00) (18, 4.73193705081939697266e-01) (19, -2.81752228736877441406e-01) (20, 9.97616767883300781250e-01) (21, 1.17326509952545166016e+00) (22, 1.33619284629821777344e+00) (23, 3.11890065670013427734e-01) (24, 4.84408468008041381836e-01) (25, 1.66732240468263626099e-02) (9, 1.43076908588409423828e+00) (10, 1.01751852035522460938e+00) (11, 2.99636864662170410156e+00) (12, 1.69301152229309082031e+00) (13, 8.56908202171325683594e-01) (14, 1.25979518890380859375e+00) (15, 1.66557717323303222656e+00) (16, 1.87109029293060302734e+00) (17, 6.00684881210327148438e+00) (18, 1.82049190998077392578e+00) (19, 2.66077399253845214844e+00) (20, 3.70797386169433593750e+01) (21, 1.35224246978759765625e+00) (22, 7.88535642623901367188e+00) (23, 3.18658423423767089844e+00) (24, 9.53443908691406250000e+00) (25, -2.39666914939880371094e+00) (9, 7.78382241725921630859e-01) (10, 2.60815292596817016602e-01) (11, 5.47567367553710937500e-01) (12, 2.16297912597656250000e+00) (13, -1.15314483642578125000e+00) (14, 1.30898404121398925781e+00) (15, 1.14290964603424072266e+00) (16, 6.95522427558898925781e-01) (17, 1.62020528316497802734e+00) (18, 1.14159417152404785156e+00) (19, 3.62905055284500122070e-01) (20, 5.99755191802978515625e+00) (21, 2.58259320259094238281e+00) (22, 1.96641540527343750000e+00) (23, 2.70011615753173828125e+00) (24, 1.69792580604553222656e+00) (25, 2.39775967597961425781e+00) (26, 8.70178699493408203125e-01) (27, 3.20568203926086425781e+00) (28, 2.28049921989440917969e+00) (29, 3.12560987472534179688e+00) (30, 2.93272233009338378906e+00) (31, 1.20428836345672607422e+00) (32, 1.84784078598022460938e+00) (33, 1.74468111991882324219e+00) (34, 8.96322727203369140625e-01) (35, 1.35224187374114990234e+00) (36, -8.50773632526397705078e-01) (37, 8.96506977081298828125e+00) (38, 2.92125082015991210938e+00) (39, 8.61606419086456298828e-01) (40, 5.36038339138031005859e-01) (41, 5.96479214727878570557e-02) (42, 1.90329372882843017578e+00) (43, -5.09401855468750000000e+01) (44, 8.09103846549987792969e-01) (45, 1.10911583900451660156e+00) (46, 6.83133542537689208984e-01) (47, -4.30733621120452880859e-01) (48, 4.10277318954467773438e+00) (49, 1.75139081478118896484e+00) (50, -1.67165124416351318359e+00) (26, -1.48856639862060546875e-01) (27, 3.28167557716369628906e-01) (28, 1.29096114635467529297e+00) (29, -6.54824554920196533203e-01) (30, 8.95162880420684814453e-01) (31, 1.30425667762756347656e+00) (32, 1.37919521331787109375e+00) (33, 1.76691401004791259766e+00) (34, -1.31241276860237121582e-01) (35, 1.07986319065093994141e+00) (36, 1.03521931171417236328e+00) (37, 7.69931375980377197266e-01) (38, 1.18079304695129394531e+00) (39, 6.11500024795532226562e-01) (40, 2.26364016532897949219e-01) (41, 2.32582226395606994629e-01) (42, 2.97358989715576171875e-01) (43, 6.50516152381896972656e-01) (44, 5.35814046859741210938e-01) (45, 8.28016340732574462891e-01) (46, 8.89597058296203613281e-01) (47, 4.57010984420776367188e-01) (48, 1.37723886966705322266e+00) (49, 1.34841227531433105469e+00) (50, 1.05533862113952636719e+00) (26, 1.19775581359863281250e+00) (27, -6.29037976264953613281e-01) (28, 2.18554615974426269531e+00) (29, 1.78834974765777587891e+00) (30, -9.30505931377410888672e-01) (31, 1.89965987205505371094e+00) (32, 2.54918670654296875000e+00) (33, 3.30306601524353027344e+00) (34, 1.65862739086151123047e+00) (35, 2.37557506561279296875e+00) (36, 2.06271335482597351074e-01) (37, 1.45306396484375000000e+00) (38, -1.16717195510864257812e+01) (39, 2.11533999443054199219e+00) (40, 3.58299195766448974609e-01) (41, -7.57116675376892089844e-01) (42, 8.96911048889160156250e+00) (43, 2.45223522186279296875e+00) (44, 2.15292668342590332031e+00) (45, 7.02662050724029541016e-01) (46, 4.24973905086517333984e-01) (47, 2.42910504341125488281e-01) (48, 2.42489099502563476562e+00) (49, 1.30553674697875976562e+00) (50, -9.92766678333282470703e-01) (26, 8.38415145874023437500e-01) (27, 1.09418702125549316406e+00) (28, 1.69423246383666992188e+00) (29, 6.28897428512573242188e-01) (30, 7.60396480560302734375e-01) (31, 1.05590641498565673828e+00) (32, 1.24673581123352050781e+00) (33, 1.45624089241027832031e+00) (34, 3.05972129106521606445e-01) (35, 1.16223096847534179688e+00) (36, 1.46911203861236572266e+00) (37, 1.23010885715484619141e+00) (38, 1.64324176311492919922e+00) (39, 8.06416332721710205078e-01) (40, 3.89661371707916259766e-01) (41, 9.63068902492523193359e-01) (42, 8.98495137691497802734e-01) (43, 1.76129609346389770508e-01) (44, 7.51148343086242675781e-01) (45, 9.39374506473541259766e-01) (46, 6.70166969299316406250e-01) (47, 7.48005390167236328125e-01) (48, 6.96194708347320556641e-01) (49, 1.01247704029083251953e+00) (50, 2.14164257049560546875e+00) (26, 9.63966727256774902344e-01) (27, 7.66122579574584960938e-01) (28, 8.58753144741058349609e-01) (29, 3.56597959995269775391e-01) (30, 9.77029979228973388672e-01) (31, 7.04796493053436279297e-01) (32, 2.68639159202575683594e+00) (33, 8.94095540046691894531e-01) (34, -7.07985401153564453125e-01) (35, 9.29527640342712402344e-01) (36, 1.25401687622070312500e+00) (37, 1.98450326919555664062e+00) (38, 1.87257432937622070312e+00) (39, 3.10895502567291259766e-01) (40, 4.23859655857086181641e-01) (41, 1.48062396049499511719e+00) (42, 7.84151077270507812500e-01) (43, -6.40312016010284423828e-01) (44, -3.48498404026031494141e-01) (45, 4.86806154251098632812e-01) (46, 5.52952349185943603516e-01) (47, 1.64023351669311523438e+00) (48, 1.04276180267333984375e+00) (49, 8.52372765541076660156e-01) (50, 3.08718585968017578125e+00) (26, 4.11034137010574340820e-01) (27, 3.00274801254272460938e+00) (28, 1.90194249153137207031e+00) (29, 4.96038675308227539062e+00) (30, 1.30333697795867919922e+00) (31, 1.21320796012878417969e+00) (32, 1.32114017009735107422e+00) (33, 1.92746877670288085938e+00) (34, 1.55689871311187744141e+00) (35, 1.45078718662261962891e+00) (36, 1.74076831340789794922e+00) (37, 2.92912340164184570312e+00) (38, 1.72265291213989257812e+00) (39, 1.56035089492797851562e+00) (40, 6.21300101280212402344e-01) (41, 1.35282158851623535156e+00) (42, 3.17754673957824707031e+00) (43, 1.60306203365325927734e+00) (44, 1.43507468700408935547e+00) (45, 9.62367117404937744141e-01) (46, 1.90858209133148193359e+00) (47, 9.90148186683654785156e-01) (48, 5.64616203308105468750e+00) (49, 2.52930188179016113281e+00) (50, -9.87329363822937011719e-01) (26, 6.46468162536621093750e-01) (27, 2.83010554313659667969e+00) (28, 2.61458396911621093750e+00) (29, 2.03264307975769042969e+00) (30, 1.08749890327453613281e+00) (31, 1.02196252346038818359e+00) (32, 1.46453583240509033203e+00) (33, 8.92501115798950195312e-01) (34, 8.00262510776519775391e-01) (35, 1.65945482254028320312e+00) (36, 5.35538196563720703125e-01) (37, 6.79053664207458496094e-01) (38, -6.94468259811401367188e-01) (39, 1.01953744888305664062e+00) (40, -1.77864789962768554688e-01) (41, 2.57454961538314819336e-01) (42, 1.18521618843078613281e+00) (43, 2.10456061363220214844e+00) (44, 1.68959903717041015625e+00) (45, 2.13775888085365295410e-01) (46, 2.14801728725433349609e-01) (47, 3.80621433258056640625e-01) (48, 3.46078658103942871094e+00) (49, 1.49823009967803955078e+00) (50, -3.00982236862182617188e-01) (26, 6.20238959789276123047e-01) (27, 1.36204969882965087891e+00) (28, 1.89701950550079345703e+00) (29, 1.84162831306457519531e+00) (30, 1.58795344829559326172e+00) (31, 6.68090522289276123047e-01) (32, 1.30324232578277587891e+00) (33, 1.85391283035278320312e+00) (34, 3.38116198778152465820e-01) (35, 1.10131788253784179688e+00) (36, 3.24166625738143920898e-01) (37, 1.85633373260498046875e+00) (38, 1.06532000005245208740e-01) (39, 1.31065562367439270020e-01) (40, 8.01405981183052062988e-02) (41, 1.58973976969718933105e-01) (42, 1.14993166923522949219e+00) (43, 2.27445721626281738281e+00) (44, 1.57801318168640136719e+00) (45, 4.63344514369964599609e-01) (46, 9.38309729099273681641e-01) (47, 8.97767663002014160156e-01) (48, 1.74313712120056152344e+00) (49, 1.18721890449523925781e+00) (50, -6.40087068080902099609e-01) (26, 6.13959074020385742188e-01) (27, 1.46022987365722656250e+00) (28, 1.29221868515014648438e+00) (29, 3.04970949888229370117e-01) (30, 1.26621699333190917969e+00) (31, 6.65531039237976074219e-01) (32, 2.00094485282897949219e+00) (33, 9.10317778587341308594e-01) (34, 4.90514785051345825195e-01) (35, 1.21657347679138183594e+00) (36, 1.54120957851409912109e+00) (37, 1.09649682044982910156e+00) (38, 9.64861094951629638672e-01) (39, 9.79581952095031738281e-01) (40, 9.83374059200286865234e-01) (41, 1.27270722389221191406e+00) (42, 8.64177048206329345703e-01) (43, 3.69006961584091186523e-01) (44, 5.31684100627899169922e-01) (45, 1.10117197036743164062e+00) (46, 8.52373778820037841797e-01) (47, 5.30880808830261230469e-01) (48, 6.40883743762969970703e-01) (49, 8.78872931003570556641e-01) (50, 6.09218001365661621094e-01) (26, 2.46529266238212585449e-01) (27, 6.85995936393737792969e-01) (28, 2.27218866348266601562e+00) (29, 6.51427567005157470703e-01) (30, 1.50307869911193847656e+00) (31, 1.05706763267517089844e+00) (32, 1.05506837368011474609e+00) (33, 1.30356347560882568359e+00) (34, 1.39827620983123779297e+00) (35, 8.79516363143920898438e-01) (36, 1.59472131729125976562e+00) (37, 1.95669007301330566406e+00) (38, 1.90564835071563720703e+00) (39, 1.33124506473541259766e+00) (40, 8.19274663925170898438e-01) (41, 9.56244468688964843750e-01) (42, 7.57775962352752685547e-01) (43, 8.24870645999908447266e-01) (44, 7.50667095184326171875e-01) (45, 2.93863266706466674805e-01) (46, 2.50005125999450683594e-01) (47, 8.00326764583587646484e-01) (48, 1.35950720310211181641e+00) (49, 8.50087463855743408203e-01) (50, 2.79125285148620605469e+00) (26, 4.18607413768768310547e-01) (27, 2.69288921356201171875e+00) (28, 2.42329931259155273438e+00) (29, 3.34141254425048828125e+00) (30, 2.78100633621215820312e+00) (31, 1.45393097400665283203e+00) (32, 2.03030061721801757812e+00) (33, 1.36088824272155761719e+00) (34, 1.03716337680816650391e+00) (35, 1.04681932926177978516e+00) (36, 9.86066043376922607422e-01) (37, 2.26634573936462402344e+00) (38, 1.51327097415924072266e+00) (39, 2.28713178634643554688e+00) (40, 5.17853498458862304688e-02) (41, 1.42580199241638183594e+00) (42, 1.98525524139404296875e+00) (43, 1.10417544841766357422e+00) (44, 1.46670079231262207031e+00) (45, 1.66396021842956542969e+00) (46, 1.44179999828338623047e+00) (47, 6.99614048004150390625e-01) (48, 4.31840419769287109375e+00) (49, 4.12830591201782226562e+00) (50, -4.33434128761291503906e-01) (26, -7.30344235897064208984e-01) (27, 3.30716013908386230469e-01) (28, 1.00527918338775634766e+00) (29, 4.61489886045455932617e-01) (30, 1.15231573581695556641e-01) (31, 1.96561765670776367188e+00) (32, 1.31963658332824707031e+00) (33, 9.23263072967529296875e-01) (34, -2.95719385147094726562e-01) (35, 1.03922002017498016357e-01) (36, 1.59137105941772460938e+00) (37, 2.67356948852539062500e+01) (38, 1.60012602806091308594e+00) (39, 6.67125368118286132812e+00) (40, 1.02172958850860595703e+00) (41, 2.08652997016906738281e+00) (42, 3.19519495964050292969e+00) (43, 3.24832230806350708008e-01) (44, -4.27278399467468261719e-01) (45, 1.56186056137084960938e+00) (46, 1.18749308586120605469e+00) (47, 1.90436029434204101562e+00) (48, 9.50958311557769775391e-01) (49, 1.72647869586944580078e+00) (50, 8.41600477695465087891e-01) (26, 3.55289101600646972656e-01) (27, 2.46798968315124511719e+00) (28, 1.21198081970214843750e+00) (29, -1.85735478997230529785e-01) (30, 2.13928961753845214844e+00) (31, 6.98259949684143066406e-01) (32, 1.61000764369964599609e+00) (33, 1.15131759643554687500e+00) (34, 9.92401242256164550781e-01) (35, 7.13926076889038085938e-01) (36, 5.89644968509674072266e-01) (37, 1.39796710014343261719e+00) (38, 2.06605124473571777344e+00) (39, 1.20326733589172363281e+00) (40, 1.33733379840850830078e+00) (41, 8.26521515846252441406e-01) (42, 1.39598953723907470703e+00) (43, 6.83404505252838134766e-01) (44, 6.49914443492889404297e-01) (45, 5.48834681510925292969e-01) (46, 4.72181737422943115234e-01) (47, 7.40798830986022949219e-01) (48, 1.05484461784362792969e+00) (49, 1.29666888713836669922e+00) (50, 2.57807040214538574219e+00) (26, 9.43289160728454589844e-01) (27, -2.04120697021484375000e+02) (28, 1.74867796897888183594e+00) (29, 1.72669112682342529297e+00) (30, 7.54392426460981369019e-03) (31, 8.41036140918731689453e-01) (32, 2.46874117851257324219e+00) (33, 8.26112866401672363281e-01) (34, -8.36549699306488037109e-02) (35, 1.19574058055877685547e+00) (36, 2.32755374908447265625e+00) (37, 2.77390122413635253906e+00) (38, 2.72619175910949707031e+00) (39, 1.55667817592620849609e+00) (40, 6.49032115936279296875e-01) (41, 2.04242205619812011719e+00) (42, 2.31044697761535644531e+00) (43, 2.10206794738769531250e+00) (44, 4.20305073261260986328e-01) (45, 1.88681626319885253906e+00) (46, 1.95689511299133300781e+00) (47, 1.40089607238769531250e+00) (48, 3.12909150123596191406e+00) (49, 3.06636404991149902344e+00) (50, -1.30253148078918457031e+00) (26, 8.92183721065521240234e-01) (27, 2.50674915313720703125e+00) (28, 8.17832052707672119141e-01) (29, 2.79606699943542480469e-01) (30, 2.24943947792053222656e+00) (31, 6.09978675842285156250e-01) (32, 5.94883501529693603516e-01) (33, 7.34856545925140380859e-01) (34, 4.06336784362792968750e-01) (35, 6.37222886085510253906e-01) (36, -4.07409816980361938477e-01) (37, -2.57697772979736328125e+01) (38, 3.55608403682708740234e-01) (39, -8.83042514324188232422e-01) (40, -1.93988752365112304688e+00) (41, -1.08000516891479492188e+00) (42, 4.69078451395034790039e-01) (43, 1.27784800529479980469e+00) (44, 4.97243851423263549805e-02) (45, 1.81301042437553405762e-01) (46, -3.60638089478015899658e-02) (47, -3.79406660795211791992e-01) (48, -2.23253035545349121094e+00) (49, -1.84793643951416015625e+01) (50, 1.69048786163330078125e-01) (26, 1.53921532630920410156e+00) (27, 1.31326615810394287109e+00) (28, 2.55589818954467773438e+00) (29, 2.10836195945739746094e+00) (30, 1.90794253349304199219e+00) (31, 8.81198704242706298828e-01) (32, 2.32852506637573242188e+00) (33, 2.25754332542419433594e+00) (34, 8.35019707679748535156e-01) (35, 1.23056173324584960938e+00) (36, 1.91060686111450195312e+00) (37, 4.88802433013916015625e+00) (38, 3.37572336196899414062e+00) (39, 3.43993020057678222656e+00) (40, 1.25033259391784667969e+00) (41, 1.46834731101989746094e+00) (42, 2.46616530418395996094e+00) (43, 5.38688302040100097656e-01) (44, 9.92567121982574462891e-01) (45, 1.43695020675659179688e+00) (46, 1.43102574348449707031e+00) (47, 1.60334801673889160156e+00) (48, 1.51349258422851562500e+00) (49, 2.33956360816955566406e+00) (50, -5.68187057971954345703e-01) (26, 1.65779936313629150391e+00) (27, 1.32257366180419921875e+00) (28, 1.34541988372802734375e+00) (29, 2.37139797210693359375e+00) (30, 6.02148771286010742188e-01) (31, 1.81128764152526855469e+00) (32, 2.33509182929992675781e+00) (33, 7.66697824001312255859e-01) (34, 1.03201949596405029297e+00) (35, 1.35119020938873291016e+00) (36, 1.18675100803375244141e+00) (37, 2.89354062080383300781e+00) (38, 1.59188091754913330078e+00) (39, 6.53425157070159912109e-01) (40, 5.00700056552886962891e-01) (41, 1.33092582225799560547e+00) (42, 1.85496592521667480469e+00) (43, 7.27370202541351318359e-01) (44, 9.84313130378723144531e-01) (45, 1.03943109512329101562e+00) (46, 4.61200892925262451172e-01) (47, 1.00374937057495117188e+00) (48, 1.10433137416839599609e+00) (49, 1.84778797626495361328e+00) (50, -9.55350160598754882812e-01) (26, 1.21836566925048828125e+00) (27, 2.58492622524499893188e-02) (28, 1.86727058887481689453e+00) (29, 1.67708301544189453125e+00) (30, 4.61580306291580200195e-01) (31, 2.46667575836181640625e+00) (32, 2.01911759376525878906e+00) (33, 1.67169821262359619141e+00) (34, 2.30642601847648620605e-01) (35, 1.15294647216796875000e+00) (36, 6.22468590736389160156e-01) (37, 1.55628032684326171875e+01) (38, 8.54452550411224365234e-01) (39, 2.76130151748657226562e+00) (40, 6.71912610530853271484e-01) (41, 1.11252129077911376953e+00) (42, 3.97477895021438598633e-01) (43, 1.09945142269134521484e+00) (44, 1.16554939746856689453e+00) (45, 1.27924573421478271484e+00) (46, 1.39563333988189697266e+00) (47, 1.35573542118072509766e+00) (48, 1.40233302116394042969e+00) (49, 2.79382872581481933594e+00) (50, 1.20779424905776977539e-01) (26, -4.32976670563220977783e-02) (27, 7.36545145511627197266e-01) (28, 1.08215892314910888672e+00) (29, 3.64905774593353271484e-01) (30, 6.86303675174713134766e-01) (31, 9.28507089614868164062e-01) (32, 1.09157991409301757812e+00) (33, 8.14090490341186523438e-01) (34, 6.70548737049102783203e-01) (35, 1.41032218933105468750e+00) (36, 7.21868574619293212891e-01) (37, 6.81028485298156738281e-01) (38, 1.41349542140960693359e+00) (39, 1.06849230825901031494e-01) (40, 9.27643120288848876953e-01) (41, 4.43343296647071838379e-02) (42, 6.42987340688705444336e-02) (43, 5.13034284114837646484e-01) (44, 2.19787627458572387695e-01) (45, 3.47149819135665893555e-01) (46, 7.54902124404907226562e-01) (47, 1.34206593036651611328e+00) (48, 1.17003047466278076172e+00) (49, 4.91270035505294799805e-01) (50, 3.14144372940063476562e+00) (26, 1.74913120269775390625e+00) (27, -2.85413384437561035156e+00) (28, 8.82107555866241455078e-01) (29, 1.18172192573547363281e+00) (30, -1.70009899139404296875e+01) (31, 7.71672368049621582031e-01) (32, 2.68439483642578125000e+00) (33, 2.10359072685241699219e+00) (34, 9.81668472290039062500e-01) (35, 1.48657166957855224609e+00) (36, 1.44222288131713867188e+01) (37, 1.26688861846923828125e+00) (38, -1.92979276180267333984e+00) (39, 8.30274760723114013672e-01) (40, 1.12400555610656738281e+00) (41, 5.56344699859619140625e+00) (42, 1.14560925960540771484e+00) (43, -7.11301279067993164062e+00) (44, 7.31945559382438659668e-02) (45, 2.37417149543762207031e+00) (46, 1.67200508117675781250e+01) (47, 2.15112709999084472656e+00) (48, 2.68496394157409667969e+00) (49, 9.39352512359619140625e+00) (50, 8.92487943172454833984e-01) (26, 1.50382027029991149902e-01) (27, 9.73259806632995605469e-01) (28, 1.30345261096954345703e+00) (29, 4.20134514570236206055e-01) (30, 1.29216909408569335938e+00) (31, 7.71813273429870605469e-01) (32, 1.07060205936431884766e+00) (33, 7.74492740631103515625e-01) (34, -8.21617126464843750000e-01) (35, 1.02441132068634033203e+00) (36, 7.76534914970397949219e-01) (37, 5.77720451354980468750e+00) (38, 2.05879688262939453125e+00) (39, 1.48896843194961547852e-01) (40, -3.38457673788070678711e-01) (41, 8.29661428928375244141e-01) (42, 6.73417508602142333984e-01) (43, 1.54077327251434326172e+00) (44, -2.82370477914810180664e-01) (45, 6.33863866329193115234e-01) (46, 1.35264003276824951172e+00) (47, 6.42521858215332031250e-01) (48, 5.58980643749237060547e-01) (49, 2.97246098518371582031e+00) (50, 1.39834731817245483398e-01) (26, 7.68561661243438720703e-01) (27, 7.07934021949768066406e-01) (28, 1.62287509441375732422e+00) (29, 6.06929957866668701172e-01) (30, 1.12572872638702392578e+00) (31, 1.40273487567901611328e+00) (32, 1.68123173713684082031e+00) (33, 1.04968130588531494141e+00) (34, 4.28464651107788085938e-01) (35, 1.50705420970916748047e+00) (36, 1.47894430160522460938e+00) (37, 1.46308183670043945312e+00) (38, 1.29876887798309326172e+00) (39, 1.70596444606781005859e+00) (40, 9.92525875568389892578e-01) (41, 9.05819892883300781250e-01) (42, 8.84807169437408447266e-01) (43, 1.02519094944000244141e+00) (44, 4.38308447599411010742e-01) (45, 1.23690092563629150391e+00) (46, 9.69289004802703857422e-01) (47, 1.12516903877258300781e+00) (48, 5.32023012638092041016e-01) (49, 1.66762590408325195312e+00) (50, 1.87597465515136718750e+00) (26, 3.05117517709732055664e-01) (27, 3.84788274765014648438e+00) (28, 1.52752220630645751953e+00) (29, 3.72302860021591186523e-01) (30, 2.75109028816223144531e+00) (31, 5.34954071044921875000e-01) (32, 1.94989037513732910156e+00) (33, 9.53008234500885009766e-01) (34, 8.99411320686340332031e-01) (35, 8.81353199481964111328e-01) (36, 2.40060138702392578125e+00) (37, 5.63048171997070312500e+00) (38, 1.83361673355102539062e+00) (39, 7.32450932264328002930e-02) (40, -3.85022461414337158203e-01) (41, 2.16991043090820312500e+00) (42, 2.71317267417907714844e+00) (43, 8.92097234725952148438e-01) (44, 9.70248162746429443359e-01) (45, -3.01971173286437988281e+00) (46, 3.61333298683166503906e+00) (47, 2.88749289512634277344e+00) (48, 1.53649401664733886719e+00) (49, 3.02006554603576660156e+00) (50, 2.58155012130737304688e+00) (26, -5.60077369213104248047e-01) (27, 1.06010580062866210938e+00) (28, 2.10880661010742187500e+00) (29, 1.11370778083801269531e+00) (30, 1.33406400680541992188e+00) (31, 1.60288190841674804688e+00) (32, 9.77403700351715087891e-01) (33, 1.13701403141021728516e+00) (34, 1.02569516748189926147e-02) (35, 5.57921230792999267578e-01) (36, 6.94695353507995605469e-01) (37, 1.44212841987609863281e+00) (38, 8.15673351287841796875e-01) (39, 2.37365663051605224609e-01) (40, 2.09288746118545532227e-01) (41, 5.66113591194152832031e-01) (42, 4.80765724182128906250e+00) (43, 1.02420365810394287109e+00) (44, 6.02332763373851776123e-02) (45, 9.43862617015838623047e-01) (46, 4.31920856237411499023e-01) (47, 3.64189565181732177734e-01) (48, 3.78240561485290527344e+00) (49, 4.58376312255859375000e+00) (50, 5.41633129119873046875e-01) (51, 1.75470197200775146484e+00) (52, 1.12988698482513427734e+00) (53, 1.46969938278198242188e+00) (54, 1.50015914440155029297e+00) (55, 4.11213779449462890625e+00) (56, 2.51829433441162109375e+00) (57, 2.99120354652404785156e+00) (58, 2.35646128654479980469e+00) (59, 1.11479008197784423828e+00) (60, 3.51524043083190917969e+00) (61, 4.30162954330444335938e+00) (62, 7.88360714912414550781e-01) (63, 1.82286489009857177734e+00) (64, 3.09414935111999511719e+00) (65, -1.17933318018913269043e-01) (66, 3.28431487083435058594e+00) (67, 3.99307417869567871094e+00) (68, 1.11236190795898437500e+00) (69, 1.33449268341064453125e+00) (70, 1.86147487163543701172e+00) (71, 2.22300648689270019531e+00) (72, 1.79081284999847412109e+00) (73, 6.09610199928283691406e-01) (74, 1.05579257011413574219e+00) (75, 1.69971019029617309570e-01) (51, -1.35163984298706054688e+01) (52, 2.50462079048156738281e+00) (53, 1.06815350055694580078e+00) (54, 1.46170210838317871094e+00) (55, 2.20182156562805175781e+00) (56, 3.06602716445922851562e-01) (57, 3.00264149904251098633e-01) (58, 1.62937319278717041016e+00) (59, 1.44040560722351074219e+00) (60, 3.50079274177551269531e+00) (61, 7.01714515686035156250e-01) (62, 7.07544565200805664062e+00) (63, -1.02545032277703285217e-02) (64, 4.31538224220275878906e-01) (65, 3.51403808593750000000e+00) (66, 1.54443418979644775391e+00) (67, 1.54920184612274169922e+00) (68, 7.69304215908050537109e-01) (69, 1.21130084991455078125e+00) (70, 4.38215851783752441406e-01) (71, 6.40762567520141601562e-01) (72, 2.70191597938537597656e+00) (73, 6.58109128475189208984e-01) (74, 1.44709372520446777344e+00) (75, 1.15407168865203857422e+00) (51, 3.10206937789916992188e+00) (52, 7.04683303833007812500e+00) (53, 2.29475092887878417969e+00) (54, 3.17865014076232910156e+00) (55, 3.33278775215148925781e+00) (56, 3.20649433135986328125e+00) (57, 2.66528248786926269531e+00) (58, 1.87703084945678710938e+00) (59, 3.14734506607055664062e+00) (60, 6.15298891067504882812e+00) (61, 1.96738314628601074219e+00) (62, 2.22931003570556640625e+01) (63, 5.15203857421875000000e+00) (64, 4.47690963745117187500e+00) (65, -9.41944789886474609375e+00) (66, 1.45561325550079345703e+00) (67, 2.32637357711791992188e+00) (68, 4.13437461853027343750e+00) (69, 2.14667606353759765625e+00) (70, 6.80745172500610351562e+00) (71, 2.44492912292480468750e+00) (72, 4.88060760498046875000e+00) (73, 4.10246992111206054688e+00) (74, 2.05376625061035156250e+00) (75, -4.17959719896316528320e-01) (51, 1.62773644924163818359e+00) (52, 1.19528639316558837891e+00) (53, 2.65399193763732910156e+00) (54, 1.17405366897583007812e+00) (55, -7.51619040966033935547e-02) (56, 1.10881459712982177734e+00) (57, 5.45376300811767578125e-01) (58, 9.52713429927825927734e-01) (59, 5.53112030029296875000e-01) (60, 7.31285154819488525391e-01) (61, 1.13289201259613037109e+00) (62, 1.60132443904876708984e+00) (63, 7.08895087242126464844e-01) (64, 1.16078602150082588196e-02) (65, 1.53560364246368408203e+00) (66, 8.60243439674377441406e-01) (67, 1.18139493465423583984e+00) (68, 5.05948901176452636719e-01) (69, 1.43213760852813720703e+00) (70, -9.88155543804168701172e-01) (71, 8.52182149887084960938e-01) (72, 1.56023144721984863281e+00) (73, 3.18383097648620605469e-01) (74, 2.07110738754272460938e+00) (75, -9.66585457324981689453e-01) (51, -1.14269685745239257812e+00) (52, 6.21456325054168701172e-01) (53, 2.41436481475830078125e+00) (54, 1.71448186039924621582e-01) (55, 5.55782802402973175049e-02) (56, 1.31594741344451904297e+00) (57, 8.08424234390258789062e-01) (58, 1.43967926502227783203e+00) (59, 6.08333826065063476562e-01) (60, 4.34936255216598510742e-01) (61, 1.29515600204467773438e+00) (62, 3.81515502929687500000e-01) (63, 2.31936424970626831055e-01) (64, -4.46379542350769042969e-01) (65, 1.13328051567077636719e+00) (66, 7.67490923404693603516e-01) (67, 1.07537245750427246094e+00) (68, 8.23899269104003906250e-01) (69, 7.77075946331024169922e-01) (70, -4.12629604339599609375e+00) (71, 7.43902400135993957520e-02) (72, 3.31940174102783203125e-01) (73, 7.33517408370971679688e-01) (74, 1.67352104187011718750e+00) (75, -2.48050975799560546875e+00) (51, -5.39149343967437744141e-02) (52, 1.52012395858764648438e+00) (53, 1.61147248744964599609e+00) (54, 1.80879026651382446289e-01) (55, 1.30399298667907714844e+00) (56, 1.16007113456726074219e+00) (57, 9.33712482452392578125e-01) (58, 1.42375183105468750000e+00) (59, 1.29718077182769775391e+00) (60, 1.49363911151885986328e+00) (61, 1.35526120662689208984e+00) (62, 1.10924673080444335938e+00) (63, 1.25908339023590087891e+00) (64, -6.88410329818725585938e+00) (65, 3.43765646219253540039e-01) (66, 9.23712491989135742188e-01) (67, 8.80413413047790527344e-01) (68, 5.79326868057250976562e-01) (69, 3.48478168249130249023e-01) (70, 7.14899003505706787109e-01) (71, 9.61004912853240966797e-01) (72, 3.69008630514144897461e-01) (73, -5.62323704361915588379e-02) (74, 1.80112349987030029297e+00) (75, 2.86485147476196289062e+00) (51, 1.69680047035217285156e+00) (52, 1.24771431088447570801e-01) (53, 5.04824638366699218750e-01) (54, 5.00891029834747314453e-01) (55, 1.28078341484069824219e+00) (56, 1.16296124458312988281e+00) (57, 6.08796238899230957031e-01) (58, 9.25098299980163574219e-01) (59, 9.78379845619201660156e-01) (60, 7.45036542415618896484e-01) (61, 1.66837191581726074219e+00) (62, 8.03932607173919677734e-01) (63, 3.08692723512649536133e-01) (64, 1.39428150653839111328e+00) (65, -1.72320187091827392578e+00) (66, 9.03388082981109619141e-01) (67, 8.04333686828613281250e-01) (68, 1.46324837207794189453e+00) (69, 9.08936381340026855469e-01) (70, 9.66701626777648925781e-01) (71, 1.03044974803924560547e+00) (72, 1.10506474971771240234e+00) (73, 6.31736814975738525391e-01) (74, 3.37084800004959106445e-01) (75, 2.40360811352729797363e-01) (51, -5.21907567977905273438e+00) (52, 1.62213313579559326172e+00) (53, 1.25271928310394287109e+00) (54, 1.74029791355133056641e+00) (55, 1.11551582813262939453e+00) (56, 1.22192847728729248047e+00) (57, 8.39870035648345947266e-01) (58, 1.22057604789733886719e+00) (59, 9.29934918880462646484e-01) (60, 1.55451869964599609375e+00) (61, 1.06126618385314941406e+00) (62, 8.33811402320861816406e-01) (63, 7.08322882652282714844e-01) (64, 1.56208384037017822266e+00) (65, -4.85840886831283569336e-02) (66, 1.56417441368103027344e+00) (67, 9.24747526645660400391e-01) (68, 7.42439925670623779297e-01) (69, 3.13486194610595703125e+00) (70, 1.27623534202575683594e+00) (71, 2.93672263622283935547e-01) (72, 1.51920545101165771484e+00) (73, 2.44542636871337890625e+01) (74, 8.69724750518798828125e-01) (75, 8.36534321308135986328e-01) (51, 2.95393943786621093750e-01) (52, 1.42746865749359130859e+00) (53, 7.63508379459381103516e-01) (54, 7.31516182422637939453e-01) (55, 1.29470050334930419922e+00) (56, 5.57555496692657470703e-01) (57, 1.31194198131561279297e+00) (58, 8.79915595054626464844e-01) (59, -1.59431055188179016113e-01) (60, 1.36875426769256591797e+00) (61, 1.19767749309539794922e+00) (62, 2.61175346374511718750e+00) (63, 4.09634113311767578125e-01) (64, 1.01112961769104003906e+00) (65, -2.06494259834289550781e+00) (66, 8.19418251514434814453e-01) (67, 1.16748976707458496094e+00) (68, 7.55461156368255615234e-01) (69, 6.31599247455596923828e-01) (70, 3.89885157346725463867e-01) (71, 9.45354163646697998047e-01) (72, 1.25925672054290771484e+00) (73, 1.03016984462738037109e+00) (74, 1.51862931251525878906e+00) (75, 6.78814351558685302734e-01) (51, 1.16053245961666107178e-01) (52, 1.48737728595733642578e+00) (53, 1.06076955795288085938e+00) (54, 1.08978211879730224609e+00) (55, 5.88988006114959716797e-01) (56, 8.12126755714416503906e-01) (57, 5.34667670726776123047e-01) (58, 4.86571192741394042969e-01) (59, 4.49872851371765136719e-01) (60, 1.07198250293731689453e+00) (61, 1.31732225418090820312e-01) (62, 6.44712150096893310547e-02) (63, 1.27130413055419921875e+00) (64, -9.98466074466705322266e-01) (65, -4.08588981628417968750e+00) (66, 9.25908505916595458984e-01) (67, 3.60235482454299926758e-01) (68, 2.79469299316406250000e+00) (69, 4.16919201612472534180e-01) (70, -5.61856627464294433594e-01) (71, 1.04825592041015625000e+00) (72, 7.58699119091033935547e-01) (73, 6.86989650130271911621e-02) (74, 3.07444906234741210938e+00) (75, 7.71782636642456054688e-01) (51, 2.43982839584350585938e+00) (52, 9.88256454467773437500e-01) (53, 1.10053682327270507812e+00) (54, 2.36771225929260253906e+00) (55, 2.41062211990356445312e+00) (56, 1.03106045722961425781e+00) (57, 9.78028416633605957031e-01) (58, 1.58724498748779296875e+00) (59, 1.57366406917572021484e+00) (60, 1.83639633655548095703e+00) (61, 9.14095520973205566406e-01) (62, 1.20489006042480468750e+01) (63, 1.35100615024566650391e+00) (64, 2.85389137268066406250e+00) (65, 4.37203788757324218750e+00) (66, 1.46201980113983154297e+00) (67, 1.34311938285827636719e+00) (68, 4.97135829925537109375e+00) (69, 1.21480214595794677734e+00) (70, 1.35538029670715332031e+00) (71, 6.73687219619750976562e-01) (72, 2.41999697685241699219e+00) (73, 3.08580446243286132812e+00) (74, 1.56473982334136962891e+00) (75, -6.58197879791259765625e-01) (51, -7.41812363266944885254e-02) (52, -7.40559637546539306641e-01) (53, 1.24788141250610351562e+00) (54, -1.34944832324981689453e+00) (55, 2.81336046755313873291e-02) (56, -4.08211052417755126953e-02) (57, 6.64487838745117187500e-01) (58, 1.21411550045013427734e+00) (59, -7.15899050235748291016e-01) (60, -2.69264817237854003906e-01) (61, 7.47917830944061279297e-01) (62, 6.59015059471130371094e-01) (63, -6.47810280323028564453e-01) (64, 5.76717674732208251953e-01) (65, 6.99480652809143066406e-01) (66, 6.66956126689910888672e-01) (67, 8.47151160240173339844e-01) (68, 6.83367252349853515625e-01) (69, -1.42767655849456787109e+00) (70, 7.92657911777496337891e-01) (71, 5.67794561386108398438e-01) (72, -5.25604784488677978516e-01) (73, -2.29957737028598785400e-02) (74, 9.38695490360260009766e-01) (75, -2.59587228298187255859e-01) (51, -2.03584432601928710938e+00) (52, 9.70747292041778564453e-01) (53, 1.53555691242218017578e+00) (54, -1.27858921885490417480e-01) (55, -2.34554886817932128906e-01) (56, 5.49493730068206787109e-01) (57, 1.42578935623168945312e+00) (58, 1.48686766624450683594e+00) (59, 5.29627390205860137939e-02) (60, 2.11493468284606933594e+00) (61, 4.96418982744216918945e-01) (62, 4.80196058750152587891e-01) (63, -5.03927230834960937500e-01) (64, 9.17665660381317138672e-01) (65, 1.23974251747131347656e+00) (66, 1.66225349903106689453e+00) (67, 1.10574638843536376953e+00) (68, 1.36165821552276611328e+00) (69, -4.24883574247360229492e-01) (70, -1.30716743469238281250e+01) (71, 1.19495654106140136719e+00) (72, -1.23837932944297790527e-01) (73, -4.62798357009887695312e+00) (74, 1.90710723400115966797e+00) (75, -3.41697907447814941406e+00) (51, 1.07140228152275085449e-01) (52, 1.00976622104644775391e+00) (53, 1.44727468490600585938e+00) (54, 5.65587818622589111328e-01) (55, 3.94960701465606689453e-01) (56, 4.84834223985671997070e-01) (57, 9.54553484916687011719e-01) (58, 1.22603309154510498047e+00) (59, 5.26717066764831542969e-01) (60, 1.25533187389373779297e+00) (61, 1.52464878559112548828e+00) (62, 7.64848887920379638672e-01) (63, 6.61770284175872802734e-01) (64, 2.06388521194458007812e+00) (65, -8.59743404388427734375e+00) (66, 1.30379343032836914062e+00) (67, 7.01652228832244873047e-01) (68, 2.23724555969238281250e+00) (69, 7.56976962089538574219e-01) (70, 2.91860252618789672852e-01) (71, 1.06553244590759277344e+00) (72, 3.57771545648574829102e-01) (73, 8.70416879653930664062e-01) (74, 1.68209359049797058105e-01) (75, -6.83942615985870361328e-01) (51, 4.48403739929199218750e+00) (52, 1.23088812828063964844e+00) (53, 1.15898323059082031250e+00) (54, 1.74624931812286376953e+00) (55, 1.76553070545196533203e+00) (56, 1.03971421718597412109e+00) (57, 9.68803584575653076172e-01) (58, 2.11094021797180175781e+00) (59, 1.64155721664428710938e+00) (60, 1.49325513839721679688e+00) (61, 2.31063461303710937500e+00) (62, 1.31708621978759765625e+00) (63, 1.84675300121307373047e+00) (64, 2.80271434783935546875e+00) (65, -1.26253795623779296875e+00) (66, 2.06834101676940917969e+00) (67, 1.70863354206085205078e+00) (68, 1.55017554759979248047e+00) (69, 8.54830622673034667969e-01) (70, 1.11883199214935302734e+00) (71, 1.08711850643157958984e+00) (72, 1.66548955440521240234e+00) (73, 7.35417902469635009766e-01) (74, 1.91228640079498291016e+00) (75, -1.06204020977020263672e+00) (51, -1.98888635635375976562e+00) (52, 7.71266341209411621094e-01) (53, 5.70609450340270996094e-01) (54, 5.01790404319763183594e-01) (55, 1.15520155429840087891e+00) (56, 1.06716954708099365234e+00) (57, 9.63892698287963867188e-01) (58, 5.29538571834564208984e-01) (59, 1.06160521507263183594e+00) (60, 1.20677351951599121094e+00) (61, 3.56251537799835205078e-01) (62, 1.86868190765380859375e+00) (63, 3.07455927133560180664e-01) (64, 1.00830185413360595703e+00) (65, 1.51540905237197875977e-01) (66, 1.05168020725250244141e+00) (67, 8.30105096101760864258e-02) (68, 5.23403465747833251953e-01) (69, 1.12861335277557373047e+00) (70, 6.39032065868377685547e-01) (71, 8.99468421936035156250e-01) (72, 6.56261384487152099609e-01) (73, 3.84274154901504516602e-01) (74, -5.08989334106445312500e+00) (75, 1.51051029562950134277e-01) (51, 8.52589845657348632812e-01) (52, 4.26710426807403564453e-01) (53, 1.16979050636291503906e+00) (54, 3.08099150657653808594e-01) (55, 2.40812003612518310547e-01) (56, 4.95833665132522583008e-01) (57, 9.19241964817047119141e-01) (58, 7.22512185573577880859e-01) (59, 5.58561801910400390625e-01) (60, -1.31322927772998809814e-02) (61, 7.25947022438049316406e-01) (62, 5.59023320674896240234e-01) (63, -2.15403646230697631836e-01) (64, 1.56884360313415527344e+00) (65, -2.19350852966308593750e+01) (66, 1.65983319282531738281e+00) (67, 1.37515985965728759766e+00) (68, 2.86547452211380004883e-01) (69, 3.72174903750419616699e-02) (70, 1.77686500549316406250e+00) (71, 5.20016193389892578125e-01) (72, 7.63827025890350341797e-01) (73, 4.92667168378829956055e-01) (74, 2.33358764648437500000e+00) (75, 1.11105680465698242188e+00) (51, 4.79078441858291625977e-01) (52, 1.04013347625732421875e+00) (53, 4.04046893119812011719e-01) (54, 5.23668527603149414062e-01) (55, 4.67131555080413818359e-01) (56, 1.13703727722167968750e+00) (57, 1.03205609321594238281e+00) (58, 2.70288348197937011719e+00) (59, 4.51196372509002685547e-01) (60, -9.32366698980331420898e-02) (61, 7.88107275962829589844e-01) (62, 4.30167227983474731445e-01) (63, 6.51846289634704589844e-01) (64, -1.41824996098875999451e-02) (65, 3.19727253913879394531e+00) (66, 1.48931980133056640625e+00) (67, 9.13724839687347412109e-01) (68, 4.52134609222412109375e-01) (69, -2.54743456840515136719e-01) (70, -8.33311438560485839844e-01) (71, 1.51589274406433105469e-01) (72, 9.37723457813262939453e-01) (73, 2.99444794654846191406e-01) (74, 1.79774761199951171875e+00) (75, -1.07473182678222656250e+00) (51, -2.32295155525207519531e+00) (52, 8.08076977729797363281e-01) (53, 7.23469138145446777344e-01) (54, 7.82857954502105712891e-01) (55, 7.88421630859375000000e-01) (56, 1.89246952533721923828e-01) (57, 6.25454664230346679688e-01) (58, -7.60144293308258056641e-02) (59, 5.86142718791961669922e-01) (60, 2.27484631538391113281e+00) (61, 2.64539450407028198242e-01) (62, 4.58458471298217773438e+00) (63, 1.45222008228302001953e+00) (64, 1.12287557125091552734e+00) (65, -3.07650947570800781250e+00) (66, 8.46784889698028564453e-01) (67, 4.08344984054565429688e-01) (68, 6.51543617248535156250e-01) (69, 3.57012718915939331055e-01) (70, 9.87927556037902832031e-01) (71, 1.11463880538940429688e+00) (72, 1.03208351135253906250e+00) (73, 1.44555902481079101562e+00) (74, -4.76010322570800781250e+00) (75, -1.17367434501647949219e+00) (51, 1.27442121505737304688e+00) (52, 9.18579399585723876953e-01) (53, 1.29815745353698730469e+00) (54, 1.59284782409667968750e+00) (55, 1.61834800243377685547e+00) (56, 1.34501063823699951172e+00) (57, 6.40753090381622314453e-01) (58, 1.36442112922668457031e+00) (59, 1.09706079959869384766e+00) (60, 8.51628959178924560547e-01) (61, 1.51451981067657470703e+00) (62, 2.35963034629821777344e+00) (63, 1.27100956439971923828e+00) (64, 2.13948416709899902344e+00) (65, -1.63796676635742187500e+02) (66, 1.48044395446777343750e+00) (67, 7.18668043613433837891e-01) (68, 4.21257048845291137695e-01) (69, 7.98051118850708007812e-01) (70, 1.37459325790405273438e+00) (71, 1.64926573634147644043e-01) (72, 1.07101285457611083984e+00) (73, 3.17205238342285156250e+00) (74, 5.57967376708984375000e+00) (75, -8.00939857959747314453e-01) (51, 8.57445418834686279297e-01) (52, 2.04043209552764892578e-01) (53, 7.53349781036376953125e-01) (54, -3.48336696624755859375e-01) (55, 3.11992228031158447266e-01) (56, 7.37433850765228271484e-01) (57, 5.25399386882781982422e-01) (58, 9.43905472755432128906e-01) (59, -7.15910196304321289062e-02) (60, 8.35277318954467773438e-01) (61, 1.42738938331604003906e+00) (62, 1.62252020835876464844e+00) (63, 4.88239169120788574219e-01) (64, -2.42389988899230957031e+00) (65, -9.62515652179718017578e-01) (66, 2.70740449428558349609e-01) (67, 3.19525715894997119904e-03) (68, 1.26759183406829833984e+00) (69, 5.75156271457672119141e-01) (70, -2.29718399047851562500e+00) (71, 8.54755878448486328125e-01) (72, 3.35720568895339965820e-01) (73, 1.50333690643310546875e+00) (74, 1.91383135318756103516e+00) (75, 9.84409391880035400391e-01) (51, -7.19328784942626953125e+00) (52, 1.59546709060668945312e+00) (53, 5.14664351940155029297e-01) (54, 3.79464238882064819336e-01) (55, -3.36572468280792236328e-01) (56, 1.06734180450439453125e+00) (57, 7.95545756816864013672e-01) (58, 1.26908373832702636719e+00) (59, 7.70225226879119873047e-01) (60, 2.72992920875549316406e+00) (61, 6.09430789947509765625e-01) (62, 5.51258146762847900391e-01) (63, 7.44719862937927246094e-01) (64, 2.00923487544059753418e-01) (65, 3.64693045616149902344e+00) (66, 1.02789199352264404297e+00) (67, 1.34141051769256591797e+00) (68, 7.71272718906402587891e-01) (69, 2.21005320549011230469e-01) (70, 5.00917971134185791016e-01) (71, 1.17506593465805053711e-01) (72, 8.61732125282287597656e-01) (73, 1.39681053161621093750e+00) (74, 1.36775374412536621094e+00) (75, -8.21606457233428955078e-01) (51, 1.29850053787231445312e+00) (52, 4.65703904628753662109e-01) (53, -2.24904105067253112793e-01) (54, 1.10162568092346191406e+00) (55, 9.71754848957061767578e-01) (56, 6.31916999816894531250e-01) (57, -2.44517885148525238037e-02) (58, 1.23029530048370361328e+00) (59, 6.90529704093933105469e-01) (60, 5.67206978797912597656e-01) (61, 1.73550915718078613281e+00) (62, 1.90172672271728515625e-01) (63, 1.04801666736602783203e+00) (64, 1.44378650188446044922e+00) (65, -8.44988286495208740234e-01) (66, 1.74928116798400878906e+00) (67, 1.36661231517791748047e+00) (68, 1.49750792980194091797e+00) (69, 2.04170927405357360840e-01) (70, 7.26309001445770263672e-01) (71, 8.61893355846405029297e-01) (72, 7.89883375167846679688e-01) (73, 7.27747678756713867188e-01) (74, 1.28563976287841796875e+00) (75, 6.23068153858184814453e-01) (51, 3.90430092811584472656e-01) (52, 1.12382680177688598633e-01) (53, 5.65084703266620635986e-02) (54, -9.98023569583892822266e-01) (55, -7.22702264785766601562e-01) (56, 5.58650493621826171875e-02) (57, 1.01376064121723175049e-01) (58, 5.66740393638610839844e-01) (59, -1.88864976167678833008e-01) (60, -9.15621519088745117188e-01) (61, 1.93145513534545898438e-01) (62, 3.71046930551528930664e-01) (63, -8.49959850311279296875e-01) (64, 1.20589524507522583008e-01) (65, 2.86154210567474365234e-01) (66, -2.41634808480739593506e-02) (67, 4.77180093526840209961e-01) (68, -3.97041708230972290039e-01) (69, -6.54519319534301757812e-01) (70, -1.41418814659118652344e+00) (71, 3.03008019924163818359e-01) (72, -8.54992032051086425781e-01) (73, 2.12953972816467285156e+00) (74, 1.66507303714752197266e+00) (75, -3.54769706726074218750e-01) (76, 1.28287220001220703125e+00) (77, -1.35433286428451538086e-01) (78, 1.17955803871154785156e+00) (79, 8.09827148914337158203e-01) (80, 8.57922673225402832031e-01) (81, 9.36126649379730224609e-01) (82, 4.34173941612243652344e-01) (83, 1.18056988716125488281e+00) (84, 1.20202887058258056641e+00) (85, 1.66419064998626708984e+00) (86, 1.88022196292877197266e+00) (87, -2.06158608198165893555e-02) (88, 9.53236162662506103516e-01) (89, 1.27648782730102539062e+00) (90, 8.49864780902862548828e-01) (91, 1.04068470001220703125e+00) (92, -1.01185955107212066650e-01) (93, 6.83797955513000488281e-01) (94, 1.33488786220550537109e+00) (95, -3.27570661902427673340e-02) (96, 6.28918588161468505859e-01) (97, 9.35670852661132812500e-01) (98, 5.23219406604766845703e-01) (99, -1.06355525553226470947e-01) (100, -9.36966240406036376953e-02) (76, 4.55435991287231445312e+00) (77, 2.07064747810363769531e+00) (78, 2.66430377960205078125e+00) (79, 1.98631334304809570312e+00) (80, 1.47166800498962402344e+00) (81, 1.60235655307769775391e+00) (82, 3.13961482048034667969e+00) (83, 2.83522129058837890625e+00) (84, 4.91837120056152343750e+00) (85, 1.50858366489410400391e+00) (86, 1.23818386346101760864e-02) (87, -5.41761970520019531250e+00) (88, 2.00777482986450195312e+00) (89, 2.04884266853332519531e+00) (90, 3.85657954216003417969e+00) (91, 3.20486807823181152344e+00) (92, -4.18237161636352539062e+00) (93, 2.59665536880493164062e+00) (94, 4.71214151382446289062e+00) (95, -7.14558076858520507812e+00) (96, 1.10893535614013671875e+00) (97, 2.35660839080810546875e+00) (98, 1.20543479919433593750e+00) (99, -5.10875797271728515625e+00) (100, 6.92264020442962646484e-01) (76, -7.29398950934410095215e-02) (77, 4.64890211820602416992e-01) (78, 5.81116974353790283203e-01) (79, 6.42951309680938720703e-01) (80, 4.77514982223510742188e-01) (81, -2.08542883396148681641e-01) (82, 3.50499808788299560547e-01) (83, -3.56055557727813720703e-01) (84, 6.91806316375732421875e-01) (85, -1.49904787540435791016e-01) (86, 2.69109427928924560547e-01) (87, 4.32960796356201171875e+00) (88, 3.98491680622100830078e-01) (89, -1.27034604549407958984e-01) (90, 2.79049038887023925781e-01) (91, -4.63619902729988098145e-02) (92, -4.66396182775497436523e-01) (93, 2.30802625417709350586e-01) (94, 3.81910651922225952148e-02) (95, -3.65702599287033081055e-01) (96, -5.22585749626159667969e-01) (97, -5.83789467811584472656e-01) (98, 1.70288830995559692383e-01) (99, 3.46002817153930664062e-01) (100, 1.19124427437782287598e-01) (76, 1.04762566089630126953e+00) (77, 1.52066552639007568359e+00) (78, 1.29936063289642333984e+00) (79, 1.05769860744476318359e+00) (80, 3.96754813194274902344e+00) (81, 1.34719145298004150391e+00) (82, 2.75451183319091796875e+00) (83, 6.30728423595428466797e-01) (84, 1.32602953910827636719e+00) (85, 1.66619622707366943359e+00) (86, 1.56927359104156494141e+00) (87, -4.71299052238464355469e-01) (88, 4.49344062805175781250e+00) (89, 2.63466262817382812500e+00) (90, 9.00713980197906494141e-01) (91, 1.43381237983703613281e+00) (92, 9.26200211048126220703e-01) (93, 2.10599994659423828125e+00) (94, 9.67693746089935302734e-01) (95, 1.07458794116973876953e+00) (96, 1.94977450370788574219e+00) (97, 2.26990556716918945312e+00) (98, 7.63167083263397216797e-01) (99, 4.52569335699081420898e-01) (100, -6.46273756027221679688e+00) (76, -7.90392905473709106445e-02) (77, 3.25581133365631103516e-01) (78, -1.10467709600925445557e-01) (79, 3.07763636112213134766e-01) (80, 5.35923302173614501953e-01) (81, 7.62099206447601318359e-01) (82, -3.84569376707077026367e-01) (83, 2.93068736791610717773e-01) (84, 3.73783409595489501953e-02) (85, 1.69505089521408081055e-01) (86, -4.29422616958618164062e-01) (87, 7.03463613986968994141e-01) (88, 3.18220764398574829102e-01) (89, 2.20488235354423522949e-02) (90, -3.01011562347412109375e-01) (91, -2.90229588747024536133e-01) (92, 1.66713967919349670410e-02) (93, 2.38202020525932312012e-01) (94, -1.59028157591819763184e-01) (95, 5.15775755047798156738e-02) (96, 9.81497883796691894531e-01) (97, 7.19177782535552978516e-01) (98, -3.99190038442611694336e-01) (99, 1.22668170928955078125e+00) (100, -1.20800340175628662109e+00) (76, 2.32670331001281738281e+00) (77, 9.98006999492645263672e-01) (78, 1.21831047534942626953e+00) (79, 1.96692621707916259766e+00) (80, 1.81834125518798828125e+00) (81, 6.91565990447998046875e-01) (82, 1.12650954723358154297e+00) (83, 1.31156957149505615234e+00) (84, 1.50404214859008789062e+00) (85, 6.43165779113769531250e+00) (86, 1.63769650459289550781e+00) (87, 1.29810348153114318848e-01) (88, 2.44604825973510742188e+00) (89, 6.12754404544830322266e-01) (90, 2.07359290122985839844e+00) (91, 1.65659308433532714844e+00) (92, -1.77909982204437255859e+00) (93, 1.40889930725097656250e+00) (94, 1.89150094985961914062e+00) (95, -1.29764211177825927734e+00) (96, 1.58745789527893066406e+00) (97, 1.04117763042449951172e+00) (98, 1.24097192287445068359e+00) (99, -1.87151834368705749512e-01) (100, -5.56977212429046630859e-01) (76, 6.15509271621704101562e-01) (77, 1.60130187869071960449e-01) (78, 4.50565278530120849609e-01) (79, 6.74362003803253173828e-01) (80, 2.05311313271522521973e-01) (81, 4.03062850236892700195e-01) (82, 4.42709684371948242188e-01) (83, 7.76735126972198486328e-01) (84, 3.47114503383636474609e-01) (85, 3.54827165603637695312e-01) (86, 3.14150512218475341797e-01) (87, 4.98531579971313476562e-01) (88, 1.41944980621337890625e+00) (89, 7.37083673477172851562e-01) (90, 9.04985547065734863281e-01) (91, 5.87539136409759521484e-01) (92, -3.59857988357543945312e+00) (93, 1.33247658610343933105e-01) (94, 7.48607873916625976562e-01) (95, -4.58170127868652343750e+00) (96, 5.21238207817077636719e-01) (97, 3.23894470930099487305e-02) (98, 1.63051471114158630371e-01) (99, -3.77715468406677246094e-01) (100, 1.39395046234130859375e+00) (76, 7.47232496738433837891e-01) (77, 1.17537319660186767578e+00) (78, 5.53892612457275390625e-01) (79, 1.15376543998718261719e+00) (80, 1.33607017993927001953e+00) (81, 6.95680975914001464844e-01) (82, 7.68315732479095458984e-01) (83, 5.25322973728179931641e-01) (84, 1.08504068851470947266e+00) (85, 3.91998142004013061523e-01) (86, 1.46343564987182617188e+00) (87, -1.34830427169799804688e+00) (88, 9.56509232521057128906e-01) (89, 8.42585980892181396484e-01) (90, 7.18182563781738281250e-01) (91, 1.32592678070068359375e+00) (92, 9.69471216201782226562e-01) (93, 1.17658460140228271484e+00) (94, 1.06131768226623535156e+00) (95, 9.54578578472137451172e-01) (96, 1.83478295803070068359e+00) (97, 1.16072869300842285156e+00) (98, 7.28958070278167724609e-01) (99, 1.54578757286071777344e+00) (100, 5.58156728744506835938e-01) (76, 1.12874221801757812500e+00) (77, 8.86784017086029052734e-01) (78, 1.85527789592742919922e+00) (79, 1.16772449016571044922e+00) (80, 1.22153842449188232422e+00) (81, 1.85473334789276123047e+00) (82, 7.87153661251068115234e-01) (83, 1.46044397354125976562e+00) (84, 1.61386799812316894531e+00) (85, 2.08916926383972167969e+00) (86, 9.79687929153442382812e-01) (87, -1.11267745494842529297e+00) (88, 1.20518350601196289062e+00) (89, 1.53388035297393798828e+00) (90, 1.62718355655670166016e+00) (91, 1.32830035686492919922e+00) (92, -8.84610748291015625000e+00) (93, 7.65707612037658691406e-01) (94, 1.17211627960205078125e+00) (95, -7.42161893844604492188e+00) (96, 2.87956666946411132812e+00) (97, 1.03530943393707275391e+00) (98, 7.21637427806854248047e-01) (99, 7.01420605182647705078e-01) (100, 4.63700628280639648438e+00) (76, 1.19187688827514648438e+00) (77, 9.02676701545715332031e-01) (78, 1.02938961982727050781e+00) (79, 7.34584152698516845703e-01) (80, 1.11423742771148681641e+00) (81, 8.56512129306793212891e-01) (82, 9.85493957996368408203e-01) (83, 5.72658061981201171875e-01) (84, 7.32025861740112304688e-01) (85, 1.87122970819473266602e-01) (86, 1.60459983348846435547e+00) (87, 1.50294065475463867188e-01) (88, 1.03291940689086914062e+00) (89, 8.52080345153808593750e-01) (90, 5.98089337348937988281e-01) (91, 7.04282164573669433594e-01) (92, -1.24157011508941650391e+00) (93, 8.07017266750335693359e-01) (94, 1.17581653594970703125e+00) (95, -1.04223585128784179688e+00) (96, 3.84621143341064453125e-01) (97, 7.97005116939544677734e-01) (98, 7.86037325859069824219e-01) (99, -1.84487132355570793152e-03) (100, 1.30699157714843750000e+00) (76, 1.24451994895935058594e+00) (77, 1.34443774819374084473e-01) (78, 1.20278847217559814453e+00) (79, 6.19839131832122802734e-01) (80, 1.06701385974884033203e+00) (81, 4.81800168752670288086e-01) (82, 5.87797760963439941406e-01) (83, 3.63037079572677612305e-01) (84, 7.91018843650817871094e-01) (85, 1.67344427108764648438e+00) (86, 2.98543989658355712891e-01) (87, -4.32624483108520507812e+00) (88, 2.50974845886230468750e+00) (89, 6.01514987647533416748e-03) (90, 6.79401457309722900391e-01) (91, 3.28266620635986328125e-01) (92, 6.21331810951232910156e-01) (93, 9.94961857795715332031e-01) (94, 4.16945517063140869141e-01) (95, 6.81964933872222900391e-01) (96, 2.05814242362976074219e+00) (97, 1.72256529331207275391e+00) (98, 8.63401472568511962891e-01) (99, 1.71549403667449951172e+00) (100, 9.94488906860351562500e+00) (76, 1.81327307224273681641e+00) (77, 1.52232623100280761719e+00) (78, 1.32155346870422363281e+00) (79, 1.58776319026947021484e+00) (80, 1.08626949787139892578e+00) (81, 1.58199143409729003906e+00) (82, 2.84831047058105468750e+00) (83, 1.59042727947235107422e+00) (84, 2.68556857109069824219e+00) (85, 2.25528287887573242188e+00) (86, -6.22965574264526367188e-01) (87, -1.28052568435668945312e+01) (88, 3.40130496025085449219e+00) (89, 1.14575767517089843750e+00) (90, 1.29120361804962158203e+00) (91, 2.57560729980468750000e+00) (92, 1.52470123767852783203e+00) (93, 1.50103557109832763672e+00) (94, 2.19114279747009277344e+00) (95, 1.54593515396118164062e+00) (96, 2.84423661231994628906e+00) (97, 1.92596256732940673828e+00) (98, 1.63486170768737792969e+00) (99, 1.00503526628017425537e-02) (100, -1.51181960105895996094e+00) (76, 1.05163800716400146484e+00) (77, 9.68745768070220947266e-01) (78, 1.12275552749633789062e+00) (79, 4.67179983854293823242e-01) (80, 1.54881918430328369141e+00) (81, 4.83174651861190795898e-01) (82, 1.10879564285278320312e+00) (83, 1.00079989433288574219e+00) (84, 7.88592576980590820312e-01) (85, 1.72159755229949951172e+00) (86, 1.48284912109375000000e+00) (87, -1.47223591804504394531e+00) (88, 8.57496798038482666016e-01) (89, 8.16210567951202392578e-01) (90, 2.95548647642135620117e-01) (91, 1.19466674327850341797e+00) (92, -8.52156937122344970703e-01) (93, 3.44787329435348510742e-01) (94, 1.06379520893096923828e+00) (95, 3.69644016027450561523e-01) (96, 5.58603763580322265625e+00) (97, 2.83399176597595214844e+00) (98, 1.41256070137023925781e+00) (99, 4.32891935110092163086e-01) (100, -6.73839330673217773438e-01) (76, 1.91763728857040405273e-01) (77, 1.00815999507904052734e+00) (78, 9.28831398487091064453e-01) (79, 9.06888544559478759766e-01) (80, 1.16138243675231933594e+00) (81, 3.33794951438903808594e-01) (82, 8.28903019428253173828e-01) (83, 1.00442135334014892578e+00) (84, 9.53499138355255126953e-01) (85, 2.26094436645507812500e+00) (86, 1.25043654441833496094e+00) (87, -5.21711587905883789062e-01) (88, 1.28838264942169189453e+00) (89, 1.00705468654632568359e+00) (90, 8.18782448768615722656e-01) (91, 5.84512829780578613281e-01) (92, 1.28966009616851806641e+00) (93, 2.45037510991096496582e-01) (94, 3.13863873481750488281e-01) (95, 1.06092381477355957031e+00) (96, 4.17531442642211914062e+00) (97, 3.10444664955139160156e+00) (98, 7.50532329082489013672e-01) (99, 3.90952318906784057617e-01) (100, 1.60173177719116210938e+00) (76, 1.53318136930465698242e-01) (77, 2.76472538709640502930e-01) (78, 2.03576639294624328613e-01) (79, 5.34662365913391113281e-01) (80, 6.31124302744865417480e-02) (81, 8.28393697738647460938e-01) (82, 1.12230861186981201172e+00) (83, 5.96824526786804199219e-01) (84, 5.99903643131256103516e-01) (85, 1.37226891517639160156e+00) (86, 1.67606964707374572754e-01) (87, -8.99710953235626220703e-01) (88, 5.68742930889129638672e-01) (89, 7.32344865798950195312e-01) (90, 9.88136902451515197754e-02) (91, 2.95048713684082031250e-01) (92, 1.38201284408569335938e+00) (93, 1.68362706899642944336e-01) (94, 1.21517217159271240234e+00) (95, 8.90941441059112548828e-01) (96, 1.46851754188537597656e+00) (97, 3.97774219512939453125e-01) (98, 1.69802159070968627930e-01) (99, 9.00023937225341796875e-01) (100, -4.92944478988647460938e-01) (76, 1.76964378356933593750e+00) (77, 2.09660410881042480469e+00) (78, 1.31397974491119384766e+00) (79, 1.24939727783203125000e+00) (80, 1.40707826614379882812e+00) (81, 1.89122116565704345703e+00) (82, 2.56569766998291015625e+00) (83, 1.19361472129821777344e+00) (84, 1.96464931964874267578e+00) (85, 3.89371705055236816406e+00) (86, -2.22002625465393066406e-01) (87, -3.50041732788085937500e+01) (88, 2.08443880081176757812e+00) (89, 1.76562225818634033203e+00) (90, 1.65844798088073730469e+00) (91, 2.43896269798278808594e+00) (92, 2.60925340652465820312e+00) (93, 9.64567005634307861328e-01) (94, 3.27279496192932128906e+00) (95, 2.42893505096435546875e+00) (96, 4.40129089355468750000e+00) (97, 9.32117652893066406250e+00) (98, 2.54557824134826660156e+00) (99, 6.13072752952575683594e-01) (100, 1.61167275905609130859e+00) (76, 7.16203525662422180176e-02) (77, 9.97109115123748779297e-02) (78, 1.17131114006042480469e-01) (79, 2.43754491209983825684e-01) (80, 2.16891750693321228027e-01) (81, 3.56366455554962158203e-01) (82, -6.22971713542938232422e-01) (83, -4.92347240447998046875e-01) (84, -5.41566848754882812500e-01) (85, 2.56142067909240722656e+00) (86, 3.20487618446350097656e-01) (87, 1.41989207267761230469e+00) (88, 7.14583039283752441406e-01) (89, -2.10468098521232604980e-01) (90, 2.90807008743286132812e-01) (91, 3.80826741456985473633e-01) (92, -4.93577450513839721680e-01) (93, 2.89871860295534133911e-02) (94, 3.23296964168548583984e-01) (95, 1.94026753306388854980e-01) (96, 3.98954242467880249023e-01) (97, 2.49756619334220886230e-01) (98, -6.64766669273376464844e-01) (99, 1.32492542266845703125e+00) (100, 7.73901879787445068359e-01) (76, 2.00452661514282226562e+00) (77, 2.58178997039794921875e+00) (78, 2.86866664886474609375e+00) (79, 1.97494375705718994141e+00) (80, 1.57313370704650878906e+00) (81, 1.56498098373413085938e+00) (82, 2.46998167037963867188e+00) (83, 2.45367217063903808594e+00) (84, 3.17296361923217773438e+00) (85, 3.27664279937744140625e+00) (86, -2.88498938083648681641e-01) (87, -1.56415939331054687500e+01) (88, 1.89438390731811523438e+00) (89, 2.28459692001342773438e+00) (90, 2.18487429618835449219e+00) (91, 2.49629330635070800781e+00) (92, 5.82496166229248046875e-01) (93, 2.09729933738708496094e+00) (94, 2.36207103729248046875e+00) (95, 4.09218579530715942383e-01) (96, 5.47467565536499023438e+00) (97, 6.28094196319580078125e+00) (98, 1.32631635665893554688e+00) (99, 4.78141829371452331543e-02) (100, 1.16570663452148437500e+01) (76, 5.06078481674194335938e-01) (77, 6.51870667934417724609e-02) (78, 1.33697092533111572266e-01) (79, -3.38100850582122802734e-01) (80, 5.20540654659271240234e-01) (81, 8.11484754085540771484e-02) (82, -1.46757975220680236816e-01) (83, 1.80498864501714706421e-02) (84, -3.94692450761795043945e-01) (85, -1.56995892524719238281e-01) (86, 7.65357539057731628418e-02) (87, 1.56961786746978759766e+00) (88, -2.74030178785324096680e-01) (89, 4.32077288627624511719e-01) (90, -2.69021391868591308594e-01) (91, -1.83093771338462829590e-01) (92, 3.10075342655181884766e-01) (93, -3.66777449846267700195e-01) (94, -3.76908341422677040100e-03) (95, 1.68524944456294178963e-04) (96, -4.94181394577026367188e-01) (97, -7.53171920776367187500e-01) (98, 2.28236585855484008789e-01) (99, 9.52861547470092773438e-01) (100, 1.74576997756958007812e-01) (76, -4.89150807261466979980e-02) (77, -2.68759399652481079102e-01) (78, -4.93863761425018310547e-01) (79, 8.28668102622032165527e-03) (80, 1.06320939958095550537e-01) (81, -1.98286652565002441406e-01) (82, -5.47514669597148895264e-02) (83, -5.45742154121398925781e-01) (84, 3.01523774862289428711e-01) (85, 8.31310391426086425781e-01) (86, 3.71541023254394531250e-01) (87, 2.90676504373550415039e-01) (88, 1.66287139058113098145e-01) (89, -1.73409003764390945435e-02) (90, 7.38082733005285263062e-03) (91, 2.61471062898635864258e-01) (92, -1.47847369313240051270e-01) (93, 4.00952041149139404297e-01) (94, 3.88197988271713256836e-01) (95, -2.62999832630157470703e-01) (96, -3.29295843839645385742e-01) (97, -1.61597892642021179199e-01) (98, 3.53730946779251098633e-01) (99, 3.65678936243057250977e-01) (100, 3.41093659400939941406e-01) (76, -2.71735519170761108398e-01) (77, 9.19881761074066162109e-01) (78, 7.17420399188995361328e-01) (79, 9.34863328933715820312e-01) (80, 4.91750568151473999023e-01) (81, 5.05137920379638671875e-01) (82, 2.27357864379882812500e-01) (83, 2.89815902709960937500e-01) (84, -2.85293579101562500000e-01) (85, 1.47749555110931396484e+00) (86, -1.66999280452728271484e-01) (87, 7.82067894935607910156e-01) (88, 6.92446291446685791016e-01) (89, 3.53969186544418334961e-01) (90, 1.66815891861915588379e-01) (91, 3.62471699714660644531e-01) (92, -1.53323304653167724609e+00) (93, 6.49456560611724853516e-01) (94, 1.32384091615676879883e-01) (95, -9.02270913124084472656e-01) (96, 6.74345433712005615234e-01) (97, 4.50162917375564575195e-01) (98, 7.82752782106399536133e-02) (99, 4.09854650497436523438e-01) (100, 2.72404044866561889648e-01) (76, 9.95659410953521728516e-01) (77, 1.15302228927612304688e+00) (78, 8.62033128738403320312e-01) (79, 5.74847936630249023438e-01) (80, 9.80876088142395019531e-01) (81, 1.43346071243286132812e+00) (82, 9.27955865859985351562e-01) (83, 5.13172686100006103516e-01) (84, 1.41633331775665283203e+00) (85, 2.64366769790649414062e+00) (86, 7.02754378318786621094e-01) (87, -3.93874675035476684570e-01) (88, 1.04565596580505371094e+00) (89, 7.17288911342620849609e-01) (90, 1.28318452835083007812e+00) (91, 7.53147423267364501953e-01) (92, -8.17660903930664062500e+00) (93, 1.04927468299865722656e+00) (94, 9.82995390892028808594e-01) (95, -7.78602886199951171875e+00) (96, 8.80019426345825195312e-01) (97, 2.88183212280273437500e+00) (98, 1.49418890476226806641e+00) (99, 5.34651093184947967529e-02) (100, -2.03266352415084838867e-01) (76, -3.82355183362960815430e-01) (77, 2.04802695661783218384e-02) (78, -6.47310137748718261719e-01) (79, -3.36492896080017089844e-01) (80, 2.04499572515487670898e-01) (81, -1.83650881052017211914e-01) (82, -2.16967258602380752563e-02) (83, 1.42982870340347290039e-01) (84, 4.49989512562751770020e-02) (85, 1.02869856357574462891e+00) (86, -1.17271673679351806641e+00) (87, 9.42605495452880859375e-01) (88, -3.30858379602432250977e-01) (89, -4.71399158239364624023e-01) (90, -8.96747261285781860352e-02) (91, -1.91124618053436279297e-01) (92, -5.09146332740783691406e-01) (93, -6.91963672637939453125e-01) (94, -8.21680486202239990234e-01) (95, -1.31089985370635986328e+00) (96, -4.50569570064544677734e-01) (97, -5.28360426425933837891e-01) (98, 4.01168875396251678467e-02) (99, 7.78765618801116943359e-01) (100, 1.09898734092712402344e+00) (76, 8.01407516002655029297e-01) (77, 1.10908067226409912109e+00) (78, 8.85263502597808837891e-01) (79, 1.66803598403930664062e+00) (80, 1.21428382396697998047e+00) (81, 1.24750339984893798828e+00) (82, 1.00864136219024658203e+00) (83, 7.20495402812957763672e-01) (84, 7.60699033737182617188e-01) (85, 2.41191697120666503906e+00) (86, 1.86521601676940917969e+00) (87, 5.90589165687561035156e-01) (88, 1.03642284870147705078e+00) (89, 2.06057095527648925781e+00) (90, 1.35488188266754150391e+00) (91, 1.03625059127807617188e+00) (92, -1.78842559456825256348e-01) (93, 9.92417037487030029297e-01) (94, 1.60942196846008300781e+00) (95, -8.78181755542755126953e-01) (96, 1.36672520637512207031e+00) (97, 1.34239411354064941406e+00) (98, 1.43091619014739990234e+00) (99, -1.96754410862922668457e-02) (100, -6.40364110469818115234e-01) (101, -5.87682366371154785156e-01) (102, -8.08927893638610839844e-01) (103, 4.90522460937500000000e+01) (104, -2.57782310247421264648e-01) (105, 2.74824104309082031250e+01) (106, -4.35740590095520019531e-01) (107, -1.40148252248764038086e-01) (108, -4.24002557992935180664e-01) (109, -2.79830455780029296875e-01) (110, 4.48134452104568481445e-01) (111, -2.56128489971160888672e-01) (112, -6.72525942325592041016e-01) (113, -7.64122962951660156250e-01) (114, -3.71585518121719360352e-01) (115, -5.26227653026580810547e-01) (116, -6.97476193308830261230e-02) (117, 1.90517282485961914062e+00) (118, -8.43530535697937011719e-01) (119, 2.22027921676635742188e+00) (120, 2.95838737487792968750e+00) (121, -6.73475325107574462891e-01) (122, -8.21359038352966308594e-01) (123, 2.29257702827453613281e+00) (124, -1.71111479401588439941e-01) (125, 1.57163465023040771484e+00) (101, -5.32468438148498535156e-01) (102, 1.17114156484603881836e-01) (103, 3.33768427371978759766e-01) (104, -4.91540193557739257812e-01) (105, 1.71464323997497558594e+00) (106, -4.36661899089813232422e-01) (107, 5.65321445465087890625e-01) (108, -2.84412920475006103516e-01) (109, 2.83755868673324584961e-01) (110, -1.10761737823486328125e+00) (111, 1.33268320560455322266e+00) (112, 4.90969479084014892578e-01) (113, -2.88204073905944824219e-01) (114, -2.17767134308815002441e-01) (115, 4.22064989805221557617e-01) (116, 2.97427535057067871094e-01) (117, -2.87509173154830932617e-01) (118, 1.86872586607933044434e-01) (119, 1.88889694213867187500e+00) (120, 1.88219761848449707031e+00) (121, 7.94882476329803466797e-01) (122, 3.06651502847671508789e-01) (123, 8.73214483261108398438e-01) (124, -4.32529181241989135742e-01) (125, -3.95713508129119873047e-01) (101, -3.51032912731170654297e-01) (102, 2.01812684535980224609e-01) (103, 1.12213826179504394531e+00) (104, -1.24353893101215362549e-01) (105, 1.47206151485443115234e+00) (106, -2.99975365400314331055e-01) (107, 2.44258418679237365723e-01) (108, -6.52075111865997314453e-01) (109, -5.14741659164428710938e-01) (110, 8.05012047290802001953e-01) (111, -1.41627088189125061035e-01) (112, -4.98882085084915161133e-01) (113, -5.57534933090209960938e-01) (114, -5.96340298652648925781e-01) (115, -8.17912042140960693359e-01) (116, -2.20099762082099914551e-01) (117, 5.34666717052459716797e-01) (118, -8.78869295120239257812e-01) (119, 5.13469576835632324219e-01) (120, 5.90342655777931213379e-02) (121, 2.08341091871261596680e-01) (122, -1.07999369502067565918e-01) (123, 1.36275887489318847656e+00) (124, -1.93458929657936096191e-01) (125, 7.67983913421630859375e-01) (101, 4.81850147247314453125e-01) (102, -4.17077280580997467041e-02) (103, 1.87528252601623535156e+00) (104, 4.77392554283142089844e-01) (105, 2.56806373596191406250e+01) (106, 1.64141881465911865234e+00) (107, -2.83505171537399291992e-01) (108, 1.44458249211311340332e-01) (109, 3.11119139194488525391e-01) (110, 1.03858852386474609375e+00) (111, -1.63208353519439697266e+00) (112, -5.70875763893127441406e-01) (113, 1.95604220032691955566e-01) (114, 1.60212129354476928711e-01) (115, -7.27400124073028564453e-01) (116, -4.86818701028823852539e-01) (117, 1.16496622562408447266e+00) (118, -3.33615869283676147461e-01) (119, 1.17426300048828125000e+00) (120, 1.00467689335346221924e-01) (121, -9.52056407928466796875e-01) (122, 2.13471427559852600098e-01) (123, 1.26239800453186035156e+00) (124, 3.55692893266677856445e-01) (125, 9.63780045509338378906e-01) (101, -1.69677212834358215332e-01) (102, -1.19314420223236083984e+00) (103, 1.56638407707214355469e+00) (104, -6.55619144439697265625e-01) (105, 1.07002515792846679688e+01) (106, 6.82360827922821044922e-01) (107, -3.36084485054016113281e-01) (108, -4.78100121021270751953e-01) (109, -8.55295538902282714844e-01) (110, 1.01238429546356201172e-01) (111, -8.48639428615570068359e-01) (112, -1.02673685550689697266e+00) (113, -7.66591310501098632812e-01) (114, -7.76222586631774902344e-01) (115, -1.25148177146911621094e+00) (116, -9.04097914695739746094e-01) (117, 4.66575956344604492188e+00) (118, -9.07991468906402587891e-01) (119, 9.63294625282287597656e-01) (120, 4.20947170257568359375e+00) (121, -4.23222184181213378906e-01) (122, -6.53390944004058837891e-01) (123, 1.55746722221374511719e+00) (124, -3.87446284294128417969e-01) (125, -5.69342434406280517578e-01) (101, 7.52964735031127929688e-01) (102, 9.62999582290649414062e-01) (103, 5.14981687068939208984e-01) (104, 5.84398925304412841797e-01) (105, -3.74809354543685913086e-01) (106, 1.27162492275238037109e+00) (107, 2.16470766067504882812e+00) (108, 7.73082911968231201172e-01) (109, 9.80247318744659423828e-01) (110, 1.10624921321868896484e+00) (111, 8.24483454227447509766e-01) (112, 