FANN_FLO_2.1
num_layers=20
learning_rate=0.700000
connection_rate=1.000000
network_type=0
learning_momentum=0.000000
training_algorithm=2
train_error_function=1
train_stop_function=1
cascade_output_change_fraction=0.010000
quickprop_decay=-0.000100
quickprop_mu=1.750000
rprop_increase_factor=1.200000
rprop_decrease_factor=0.500000
rprop_delta_min=0.000000
rprop_delta_max=50.000000
rprop_delta_zero=0.100000
cascade_output_stagnation_epochs=12
cascade_candidate_change_fraction=0.010000
cascade_candidate_stagnation_epochs=12
cascade_max_out_epochs=150
cascade_min_out_epochs=50
cascade_max_cand_epochs=150
cascade_min_cand_epochs=50
cascade_num_candidate_groups=2
bit_fail_limit=9.99999977648258209229e-03
cascade_candidate_limit=1.00000000000000000000e+03
cascade_weight_multiplier=4.00000005960464477539e-01
cascade_activation_functions_count=10
cascade_activation_functions=3 5 7 8 10 11 14 15 16 17 
cascade_activation_steepnesses_count=4
cascade_activation_steepnesses=2.50000000000000000000e-01 5.00000000000000000000e-01 7.50000000000000000000e-01 1.00000000000000000000e+00 
layer_sizes=17 25 25 25 25 25 25 25 25 25 25 25 25 25 25 25 25 25 17 9 
scale_included=0
neurons (num_inputs, activation_function, activation_steepness)=(0, 0, 0.00000000000000000000e+00) (0, 0, 0.00000000000000000000e+00) (0, 0, 0.00000000000000000000e+00) (0, 0, 0.00000000000000000000e+00) (0, 0, 0.00000000000000000000e+00) (0, 0, 0.00000000000000000000e+00) (0, 0, 0.00000000000000000000e+00) (0, 0, 0.00000000000000000000e+00) (0, 0, 0.00000000000000000000e+00) (0, 0, 0.00000000000000000000e+00) (0, 0, 0.00000000000000000000e+00) (0, 0, 0.00000000000000000000e+00) (0, 0, 0.00000000000000000000e+00) (0, 0, 0.00000000000000000000e+00) (0, 0, 0.00000000000000000000e+00) (0, 0, 0.00000000000000000000e+00) (0, 0, 0.00000000000000000000e+00) (17, 5, 1.00000000000000000000e+00) (17, 5, 1.00000000000000000000e+00) (17, 5, 1.00000000000000000000e+00) (17, 5, 1.00000000000000000000e+00) (17, 5, 1.00000000000000000000e+00) (17, 5, 1.00000000000000000000e+00) (17, 5, 1.00000000000000000000e+00) (17, 5, 1.00000000000000000000e+00) (17, 5, 1.00000000000000000000e+00) (17, 5, 1.00000000000000000000e+00) (17, 5, 1.00000000000000000000e+00) (17, 5, 1.00000000000000000000e+00) (17, 5, 1.00000000000000000000e+00) (17, 5, 1.00000000000000000000e+00) (17, 5, 1.00000000000000000000e+00) (17, 5, 1.00000000000000000000e+00) (17, 5, 1.00000000000000000000e+00) (17, 5, 1.00000000000000000000e+00) (17, 5, 1.00000000000000000000e+00) (17, 5, 1.00000000000000000000e+00) (17, 5, 1.00000000000000000000e+00) (17, 5, 1.00000000000000000000e+00) (17, 5, 1.00000000000000000000e+00) (17, 5, 1.00000000000000000000e+00) (0, 5, 1.00000000000000000000e+00) (25, 5, 1.00000000000000000000e+00) (25, 5, 1.00000000000000000000e+00) (25, 5, 1.00000000000000000000e+00) (25, 5, 1.00000000000000000000e+00) (25, 5, 1.00000000000000000000e+00) (25, 5, 1.00000000000000000000e+00) (25, 5, 1.00000000000000000000e+00) (25, 5, 1.00000000000000000000e+00) (25, 5, 1.00000000000000000000e+00) (25, 5, 1.00000000000000000000e+00) (25, 5, 1.00000000000000000000e+00) (25, 5, 1.00000000000000000000e+00) (25, 5, 1.00000000000000000000e+00) (25, 5, 1.00000000000000000000e+00) (25, 5, 1.00000000000000000000e+00) (25, 5, 1.00000000000000000000e+00) (25, 5, 1.00000000000000000000e+00) (25, 5, 1.00000000000000000000e+00) (25, 5, 1.00000000000000000000e+00) (25, 5, 1.00000000000000000000e+00) (25, 5, 1.00000000000000000000e+00) (25, 5, 1.00000000000000000000e+00) (25, 5, 1.00000000000000000000e+00) (25, 5, 1.00000000000000000000e+00) (0, 5, 1.00000000000000000000e+00) (25, 5, 1.00000000000000000000e+00) (25, 5, 1.00000000000000000000e+00) (25, 5, 1.00000000000000000000e+00) (25, 5, 1.00000000000000000000e+00) (25, 5, 1.00000000000000000000e+00) (25, 5, 1.00000000000000000000e+00) (25, 5, 1.00000000000000000000e+00) (25, 5, 1.00000000000000000000e+00) (25, 5, 1.00000000000000000000e+00) (25, 5, 1.00000000000000000000e+00) (25, 5, 1.00000000000000000000e+00) (25, 5, 1.00000000000000000000e+00) (25, 5, 1.00000000000000000000e+00) (25, 5, 1.00000000000000000000e+00) (25, 5, 1.00000000000000000000e+00) (25, 5, 1.00000000000000000000e+00) (25, 5, 1.00000000000000000000e+00) (25, 5, 1.00000000000000000000e+00) (25, 5, 1.00000000000000000000e+00) (25, 5, 1.00000000000000000000e+00) (25, 5, 1.00000000000000000000e+00) (25, 5, 1.00000000000000000000e+00) (25, 5, 1.00000000000000000000e+00) (25, 5, 1.00000000000000000000e+00) (0, 5, 1.00000000000000000000e+00) (25, 5, 1.00000000000000000000e+00) (25, 5, 1.00000000000000000000e+00) (25, 5, 1.00000000000000000000e+00) (25, 5, 1.00000000000000000000e+00) (25, 5, 1.00000000000000000000e+00) (25, 5, 1.00000000000000000000e+00) (25, 5, 1.00000000000000000000e+00) (25, 5, 1.00000000000000000000e+00) (25, 5, 1.00000000000000000000e+00) (25, 5, 1.00000000000000000000e+00) (25, 5, 1.00000000000000000000e+00) (25, 5, 1.00000000000000000000e+00) (25, 5, 1.00000000000000000000e+00) (25, 5, 1.00000000000000000000e+00) (25, 5, 1.00000000000000000000e+00) (25, 5, 1.00000000000000000000e+00) (25, 5, 1.00000000000000000000e+00) (25, 5, 1.00000000000000000000e+00) (25, 5, 1.00000000000000000000e+00) (25, 5, 1.00000000000000000000e+00) (25, 5, 1.00000000000000000000e+00) (25, 5, 1.00000000000000000000e+00) (25, 5, 1.00000000000000000000e+00) (25, 5, 1.00000000000000000000e+00) (0, 5, 1.00000000000000000000e+00) (25, 5, 1.00000000000000000000e+00) (25, 5, 1.00000000000000000000e+00) (25, 5, 1.00000000000000000000e+00) (25, 5, 1.00000000000000000000e+00) (25, 5, 1.00000000000000000000e+00) (25, 5, 1.00000000000000000000e+00) (25, 5, 1.00000000000000000000e+00) (25, 5, 1.00000000000000000000e+00) (25, 5, 1.00000000000000000000e+00) (25, 5, 1.00000000000000000000e+00) (25, 5, 1.00000000000000000000e+00) (25, 5, 1.00000000000000000000e+00) (25, 5, 1.00000000000000000000e+00) (25, 5, 1.00000000000000000000e+00) (25, 5, 1.00000000000000000000e+00) (25, 5, 1.00000000000000000000e+00) (25, 5, 1.00000000000000000000e+00) (25, 5, 1.00000000000000000000e+00) (25, 5, 1.00000000000000000000e+00) (25, 5, 1.00000000000000000000e+00) (25, 5, 1.00000000000000000000e+00) (25, 5, 1.00000000000000000000e+00) (25, 5, 1.00000000000000000000e+00) (25, 5, 1.00000000000000000000e+00) (0, 5, 1.00000000000000000000e+00) (25, 5, 1.00000000000000000000e+00) (25, 5, 1.00000000000000000000e+00) (25, 5, 1.00000000000000000000e+00) (25, 5, 1.00000000000000000000e+00) (25, 5, 1.00000000000000000000e+00) (25, 5, 1.00000000000000000000e+00) (25, 5, 1.00000000000000000000e+00) (25, 5, 1.00000000000000000000e+00) (25, 5, 1.00000000000000000000e+00) (25, 5, 1.00000000000000000000e+00) (25, 5, 1.00000000000000000000e+00) (25, 5, 1.00000000000000000000e+00) (25, 5, 1.00000000000000000000e+00) (25, 5, 1.00000000000000000000e+00) (25, 5, 1.00000000000000000000e+00) (25, 5, 1.00000000000000000000e+00) (25, 5, 1.00000000000000000000e+00) (25, 5, 1.00000000000000000000e+00) (25, 5, 1.00000000000000000000e+00) (25, 5, 1.00000000000000000000e+00) (25, 5, 1.00000000000000000000e+00) (25, 5, 1.00000000000000000000e+00) (25, 5, 1.00000000000000000000e+00) (25, 5, 1.00000000000000000000e+00) (0, 5, 1.00000000000000000000e+00) (25, 5, 1.00000000000000000000e+00) (25, 5, 1.00000000000000000000e+00) (25, 5, 1.00000000000000000000e+00) (25, 5, 1.00000000000000000000e+00) (25, 5, 1.00000000000000000000e+00) (25, 5, 1.00000000000000000000e+00) (25, 5, 1.00000000000000000000e+00) (25, 5, 1.00000000000000000000e+00) (25, 5, 1.00000000000000000000e+00) (25, 5, 1.00000000000000000000e+00) (25, 5, 1.00000000000000000000e+00) (25, 5, 1.00000000000000000000e+00) (25, 5, 1.00000000000000000000e+00) (25, 5, 1.00000000000000000000e+00) (25, 5, 1.00000000000000000000e+00) (25, 5, 1.00000000000000000000e+00) (25, 5, 1.00000000000000000000e+00) (25, 5, 1.00000000000000000000e+00) (25, 5, 1.00000000000000000000e+00) (25, 5, 1.00000000000000000000e+00) (25, 5, 1.00000000000000000000e+00) (25, 5, 1.00000000000000000000e+00) (25, 5, 1.00000000000000000000e+00) (25, 5, 1.00000000000000000000e+00) (0, 5, 1.00000000000000000000e+00) (25, 5, 1.00000000000000000000e+00) (25, 5, 1.00000000000000000000e+00) (25, 5, 1.00000000000000000000e+00) (25, 5, 1.00000000000000000000e+00) (25, 5, 1.00000000000000000000e+00) (25, 5, 1.00000000000000000000e+00) (25, 5, 1.00000000000000000000e+00) (25, 5, 1.00000000000000000000e+00) (25, 5, 1.00000000000000000000e+00) (25, 5, 1.00000000000000000000e+00) (25, 5, 1.00000000000000000000e+00) (25, 5, 1.00000000000000000000e+00) (25, 5, 1.00000000000000000000e+00) (25, 5, 1.00000000000000000000e+00) (25, 5, 1.00000000000000000000e+00) (25, 5, 1.00000000000000000000e+00) (25, 5, 1.00000000000000000000e+00) (25, 5, 1.00000000000000000000e+00) (25, 5, 1.00000000000000000000e+00) (25, 5, 1.00000000000000000000e+00) (25, 5, 1.00000000000000000000e+00) (25, 5, 1.00000000000000000000e+00) (25, 5, 1.00000000000000000000e+00) (25, 5, 1.00000000000000000000e+00) (0, 5, 1.00000000000000000000e+00) (25, 5, 1.00000000000000000000e+00) (25, 5, 1.00000000000000000000e+00) (25, 5, 1.00000000000000000000e+00) (25, 5, 1.00000000000000000000e+00) (25, 5, 1.00000000000000000000e+00) (25, 5, 1.00000000000000000000e+00) (25, 5, 1.00000000000000000000e+00) (25, 5, 1.00000000000000000000e+00) (25, 5, 1.00000000000000000000e+00) (25, 5, 1.00000000000000000000e+00) (25, 5, 1.00000000000000000000e+00) (25, 5, 1.00000000000000000000e+00) (25, 5, 1.00000000000000000000e+00) (25, 5, 1.00000000000000000000e+00) (25, 5, 1.00000000000000000000e+00) (25, 5, 1.00000000000000000000e+00) (25, 5, 1.00000000000000000000e+00) (25, 5, 1.00000000000000000000e+00) (25, 5, 1.00000000000000000000e+00) (25, 5, 1.00000000000000000000e+00) (25, 5, 1.00000000000000000000e+00) (25, 5, 1.00000000000000000000e+00) (25, 5, 1.00000000000000000000e+00) (25, 5, 1.00000000000000000000e+00) (0, 5, 1.00000000000000000000e+00) (25, 5, 1.00000000000000000000e+00) (25, 5, 1.00000000000000000000e+00) (25, 5, 1.00000000000000000000e+00) (25, 5, 1.00000000000000000000e+00) (25, 5, 1.00000000000000000000e+00) (25, 5, 1.00000000000000000000e+00) (25, 5, 1.00000000000000000000e+00) (25, 5, 1.00000000000000000000e+00) (25, 5, 1.00000000000000000000e+00) (25, 5, 1.00000000000000000000e+00) (25, 5, 1.00000000000000000000e+00) (25, 5, 1.00000000000000000000e+00) (25, 5, 1.00000000000000000000e+00) (25, 5, 1.00000000000000000000e+00) (25, 5, 1.00000000000000000000e+00) (25, 5, 1.00000000000000000000e+00) (25, 5, 1.00000000000000000000e+00) (25, 5, 1.00000000000000000000e+00) (25, 5, 1.00000000000000000000e+00) (25, 5, 1.00000000000000000000e+00) (25, 5, 1.00000000000000000000e+00) (25, 5, 1.00000000000000000000e+00) (25, 5, 1.00000000000000000000e+00) (25, 5, 1.00000000000000000000e+00) (0, 5, 1.00000000000000000000e+00) (25, 5, 1.00000000000000000000e+00) (25, 5, 1.00000000000000000000e+00) (25, 5, 1.00000000000000000000e+00) (25, 5, 1.00000000000000000000e+00) (25, 5, 1.00000000000000000000e+00) (25, 5, 1.00000000000000000000e+00) (25, 5, 1.00000000000000000000e+00) (25, 5, 1.00000000000000000000e+00) (25, 5, 1.00000000000000000000e+00) (25, 5, 1.00000000000000000000e+00) (25, 5, 1.00000000000000000000e+00) (25, 5, 1.00000000000000000000e+00) (25, 5, 1.00000000000000000000e+00) (25, 5, 1.00000000000000000000e+00) (25, 5, 1.00000000000000000000e+00) (25, 5, 1.00000000000000000000e+00) (25, 5, 1.00000000000000000000e+00) (25, 5, 1.00000000000000000000e+00) (25, 5, 1.00000000000000000000e+00) (25, 5, 1.00000000000000000000e+00) (25, 5, 1.00000000000000000000e+00) (25, 5, 1.00000000000000000000e+00) (25, 5, 1.00000000000000000000e+00) (25, 5, 1.00000000000000000000e+00) (0, 5, 1.00000000000000000000e+00) (25, 5, 1.00000000000000000000e+00) (25, 5, 1.00000000000000000000e+00) (25, 5, 1.00000000000000000000e+00) (25, 5, 1.00000000000000000000e+00) (25, 5, 1.00000000000000000000e+00) (25, 5, 1.00000000000000000000e+00) (25, 5, 1.00000000000000000000e+00) (25, 5, 1.00000000000000000000e+00) (25, 5, 1.00000000000000000000e+00) (25, 5, 1.00000000000000000000e+00) (25, 5, 1.00000000000000000000e+00) (25, 5, 1.00000000000000000000e+00) (25, 5, 1.00000000000000000000e+00) (25, 5, 1.00000000000000000000e+00) (25, 5, 1.00000000000000000000e+00) (25, 5, 1.00000000000000000000e+00) (25, 5, 1.00000000000000000000e+00) (25, 5, 1.00000000000000000000e+00) (25, 5, 1.00000000000000000000e+00) (25, 5, 1.00000000000000000000e+00) (25, 5, 1.00000000000000000000e+00) (25, 5, 1.00000000000000000000e+00) (25, 5, 1.00000000000000000000e+00) (25, 5, 1.00000000000000000000e+00) (0, 5, 1.00000000000000000000e+00) (25, 5, 1.00000000000000000000e+00) (25, 5, 1.00000000000000000000e+00) (25, 5, 1.00000000000000000000e+00) (25, 5, 1.00000000000000000000e+00) (25, 5, 1.00000000000000000000e+00) (25, 5, 1.00000000000000000000e+00) (25, 5, 1.00000000000000000000e+00) (25, 5, 1.00000000000000000000e+00) (25, 5, 1.00000000000000000000e+00) (25, 5, 1.00000000000000000000e+00) (25, 5, 1.00000000000000000000e+00) (25, 5, 1.00000000000000000000e+00) (25, 5, 1.00000000000000000000e+00) (25, 5, 1.00000000000000000000e+00) (25, 5, 1.00000000000000000000e+00) (25, 5, 1.00000000000000000000e+00) (25, 5, 1.00000000000000000000e+00) (25, 5, 1.00000000000000000000e+00) (25, 5, 1.00000000000000000000e+00) (25, 5, 1.00000000000000000000e+00) (25, 5, 1.00000000000000000000e+00) (25, 5, 1.00000000000000000000e+00) (25, 5, 1.00000000000000000000e+00) (25, 5, 1.00000000000000000000e+00) (0, 5, 1.00000000000000000000e+00) (25, 5, 1.00000000000000000000e+00) (25, 5, 1.00000000000000000000e+00) (25, 5, 1.00000000000000000000e+00) (25, 5, 1.00000000000000000000e+00) (25, 5, 1.00000000000000000000e+00) (25, 5, 1.00000000000000000000e+00) (25, 5, 1.00000000000000000000e+00) (25, 5, 1.00000000000000000000e+00) (25, 5, 1.00000000000000000000e+00) (25, 5, 1.00000000000000000000e+00) (25, 5, 1.00000000000000000000e+00) (25, 5, 1.00000000000000000000e+00) (25, 5, 1.00000000000000000000e+00) (25, 5, 1.00000000000000000000e+00) (25, 5, 1.00000000000000000000e+00) (25, 5, 1.00000000000000000000e+00) (25, 5, 1.00000000000000000000e+00) (25, 5, 1.00000000000000000000e+00) (25, 5, 1.00000000000000000000e+00) (25, 5, 1.00000000000000000000e+00) (25, 5, 1.00000000000000000000e+00) (25, 5, 1.00000000000000000000e+00) (25, 5, 1.00000000000000000000e+00) (25, 5, 1.00000000000000000000e+00) (0, 5, 1.00000000000000000000e+00) (25, 5, 1.00000000000000000000e+00) (25, 5, 1.00000000000000000000e+00) (25, 5, 1.00000000000000000000e+00) (25, 5, 1.00000000000000000000e+00) (25, 5, 1.00000000000000000000e+00) (25, 5, 1.00000000000000000000e+00) (25, 5, 1.00000000000000000000e+00) (25, 5, 1.00000000000000000000e+00) (25, 5, 1.00000000000000000000e+00) (25, 5, 1.00000000000000000000e+00) (25, 5, 1.00000000000000000000e+00) (25, 5, 1.00000000000000000000e+00) (25, 5, 1.00000000000000000000e+00) (25, 5, 1.00000000000000000000e+00) (25, 5, 1.00000000000000000000e+00) (25, 5, 1.00000000000000000000e+00) (25, 5, 1.00000000000000000000e+00) (25, 5, 1.00000000000000000000e+00) (25, 5, 1.00000000000000000000e+00) (25, 5, 1.00000000000000000000e+00) (25, 5, 1.00000000000000000000e+00) (25, 5, 1.00000000000000000000e+00) (25, 5, 1.00000000000000000000e+00) (25, 5, 1.00000000000000000000e+00) (0, 5, 1.00000000000000000000e+00) (25, 5, 1.00000000000000000000e+00) (25, 5, 1.00000000000000000000e+00) (25, 5, 1.00000000000000000000e+00) (25, 5, 1.00000000000000000000e+00) (25, 5, 1.00000000000000000000e+00) (25, 5, 1.00000000000000000000e+00) (25, 5, 1.00000000000000000000e+00) (25, 5, 1.00000000000000000000e+00) (25, 5, 1.00000000000000000000e+00) (25, 5, 1.00000000000000000000e+00) (25, 5, 1.00000000000000000000e+00) (25, 5, 1.00000000000000000000e+00) (25, 5, 1.00000000000000000000e+00) (25, 5, 1.00000000000000000000e+00) (25, 5, 1.00000000000000000000e+00) (25, 5, 1.00000000000000000000e+00) (25, 5, 1.00000000000000000000e+00) (25, 5, 1.00000000000000000000e+00) (25, 5, 1.00000000000000000000e+00) (25, 5, 1.00000000000000000000e+00) (25, 5, 1.00000000000000000000e+00) (25, 5, 1.00000000000000000000e+00) (25, 5, 1.00000000000000000000e+00) (25, 5, 1.00000000000000000000e+00) (0, 5, 1.00000000000000000000e+00) (25, 5, 1.00000000000000000000e+00) (25, 5, 1.00000000000000000000e+00) (25, 5, 1.00000000000000000000e+00) (25, 5, 1.00000000000000000000e+00) (25, 5, 1.00000000000000000000e+00) (25, 5, 1.00000000000000000000e+00) (25, 5, 1.00000000000000000000e+00) (25, 5, 1.00000000000000000000e+00) (25, 5, 1.00000000000000000000e+00) (25, 5, 1.00000000000000000000e+00) (25, 5, 1.00000000000000000000e+00) (25, 5, 1.00000000000000000000e+00) (25, 5, 1.00000000000000000000e+00) (25, 5, 1.00000000000000000000e+00) (25, 5, 1.00000000000000000000e+00) (25, 5, 1.00000000000000000000e+00) (25, 5, 1.00000000000000000000e+00) (25, 5, 1.00000000000000000000e+00) (25, 5, 1.00000000000000000000e+00) (25, 5, 1.00000000000000000000e+00) (25, 5, 1.00000000000000000000e+00) (25, 5, 1.00000000000000000000e+00) (25, 5, 1.00000000000000000000e+00) (25, 5, 1.00000000000000000000e+00) (0, 5, 1.00000000000000000000e+00) (25, 5, 1.00000000000000000000e+00) (25, 5, 1.00000000000000000000e+00) (25, 5, 1.00000000000000000000e+00) (25, 5, 1.00000000000000000000e+00) (25, 5, 1.00000000000000000000e+00) (25, 5, 1.00000000000000000000e+00) (25, 5, 1.00000000000000000000e+00) (25, 5, 1.00000000000000000000e+00) (25, 5, 1.00000000000000000000e+00) (25, 5, 1.00000000000000000000e+00) (25, 5, 1.00000000000000000000e+00) (25, 5, 1.00000000000000000000e+00) (25, 5, 1.00000000000000000000e+00) (25, 5, 1.00000000000000000000e+00) (25, 5, 1.00000000000000000000e+00) (25, 5, 1.00000000000000000000e+00) (0, 5, 1.00000000000000000000e+00) (17, 5, 1.00000000000000000000e+00) (17, 5, 1.00000000000000000000e+00) (17, 5, 1.00000000000000000000e+00) (17, 5, 1.00000000000000000000e+00) (17, 5, 1.00000000000000000000e+00) (17, 5, 1.00000000000000000000e+00) (17, 5, 1.00000000000000000000e+00) (17, 5, 1.00000000000000000000e+00) (0, 5, 1.00000000000000000000e+00) 
connections (connected_to_neuron, weight)=(0, 1.12091016769409179688e+00) (1, 1.70723104476928710938e+00) (2, 1.55490919947624206543e-01) (3, -2.06344481557607650757e-02) (4, 4.31845158338546752930e-01) (5, 3.04553389549255371094e-01) (6, -6.23908579349517822266e-01) (7, 4.51911181211471557617e-01) (8, 2.32447290420532226562e+00) (9, 8.26615750789642333984e-01) (10, 1.77370893955230712891e+00) (11, 8.97548258304595947266e-01) (12, 2.00662881135940551758e-01) (13, -7.55965054035186767578e-01) (14, -2.44242459535598754883e-01) (15, 5.99393725395202636719e-01) (16, 1.68256795406341552734e+00) (0, 3.26111912727355957031e-01) (1, 4.99122023582458496094e-01) (2, 4.05894219875335693359e-01) (3, 2.63553619384765625000e-01) (4, 8.00323307514190673828e-01) (5, 4.31995928287506103516e-01) (6, 3.83181333541870117188e-01) (7, 6.42844736576080322266e-01) (8, 4.58733648061752319336e-01) (9, 7.71559178829193115234e-01) (10, -2.44145703315734863281e+00) (11, 3.84014844894409179688e+00) (12, 1.01452267169952392578e+00) (13, 6.24605357646942138672e-01) (14, 3.08149278163909912109e-01) (15, 6.61248803138732910156e-01) (16, 6.24200403690338134766e-01) (0, 8.32284092903137207031e-01) (1, 3.66749241948127746582e-02) (2, 3.01285839080810546875e+00) (3, 3.37551891803741455078e-01) (4, 3.10964375734329223633e-01) (5, 6.22338414192199707031e-01) (6, 6.34882569313049316406e-01) (7, 5.56266546249389648438e-01) (8, 5.01746952533721923828e-01) (9, 1.63374364376068115234e+00) (10, 9.14092302322387695312e-01) (11, -2.62650728225708007812e-01) (12, -2.30042543262243270874e-02) (13, 7.40149736404418945312e-01) (14, 5.13453662395477294922e-01) (15, 8.54725837707519531250e-01) (16, 9.42969620227813720703e-01) (0, -3.58966326713562011719e+00) (1, 2.47703909873962402344e-01) (2, 5.71032643318176269531e-01) (3, -2.60590672492980957031e-01) (4, 2.42864146828651428223e-01) (5, 4.12261545658111572266e-01) (6, 1.94271862506866455078e+00) (7, 7.28724002838134765625e-01) (8, 6.62607491016387939453e-01) (9, 3.39997738599777221680e-01) (10, -2.21196621656417846680e-01) (11, 1.33575963973999023438e+00) (12, 6.82357996702194213867e-02) (13, 1.01467514038085937500e+00) (14, 1.85694026947021484375e+00) (15, 4.26356434822082519531e-01) (16, 1.59147906303405761719e+00) (0, 1.00519084930419921875e+00) (1, 5.24161636829376220703e-01) (2, 8.09672355651855468750e-01) (3, -6.34284138679504394531e-01) (4, 8.63545298576354980469e-01) (5, 9.50189948081970214844e-01) (6, 1.15060782432556152344e+00) (7, 7.03842639923095703125e-01) (8, 1.11103415489196777344e+00) (9, 8.89206349849700927734e-01) (10, 5.53168177604675292969e-01) (11, 1.50913584232330322266e+00) (12, 6.82702779769897460938e-01) (13, 1.73227012157440185547e-01) (14, 1.17980647087097167969e+00) (15, 9.85395550727844238281e-01) (16, 1.92469179630279541016e-01) (0, 7.28718876838684082031e-01) (1, 2.84239321947097778320e-01) (2, 9.87244784832000732422e-01) (3, 3.05510222911834716797e-01) (4, 1.32801294326782226562e+00) (5, 6.31788790225982666016e-01) (6, 4.72020477056503295898e-01) (7, 5.54376840591430664062e-01) (8, 7.36748397350311279297e-01) (9, 3.61001849174499511719e-01) (10, 7.71676480770111083984e-01) (11, 1.42033684253692626953e+00) (12, 1.23042809963226318359e+00) (13, 4.70776468515396118164e-01) (14, 9.24533486366271972656e-01) (15, 9.45285260677337646484e-01) (16, 1.03562414646148681641e+00) (0, -2.46415566653013229370e-02) (1, 6.77611172199249267578e-01) (2, 2.93311893939971923828e-01) (3, 9.42764818668365478516e-01) (4, 4.55379426479339599609e-01) (5, 7.34680414199829101562e-01) (6, 5.26607573032379150391e-01) (7, 4.25121217966079711914e-01) (8, 8.66346955299377441406e-01) (9, 1.14261913299560546875e+00) (10, -7.80975878238677978516e-01) (11, 2.41592669486999511719e+00) (12, 9.53083112835884094238e-02) (13, -2.55712985992431640625e-01) (14, 3.77251863479614257812e-01) (15, 3.23291867971420288086e-01) (16, 4.10262346267700195312e-01) (0, 5.30827403068542480469e-01) (1, 1.63005933165550231934e-01) (2, 5.85882484912872314453e-01) (3, -1.08434036374092102051e-01) (4, 9.26153779029846191406e-01) (5, 1.66796773672103881836e-01) (6, 4.11568641662597656250e-01) (7, 1.08515344560146331787e-01) (8, 3.96421879529953002930e-01) (9, 2.48277172446250915527e-01) (10, 1.16950833797454833984e+00) (11, 1.66373205184936523438e+00) (12, 9.33052122592926025391e-01) (13, 1.43714591860771179199e-01) (14, 3.89581799507141113281e-01) (15, 9.24565866589546203613e-02) (16, 9.96223986148834228516e-01) (0, -4.16746824979782104492e-01) (1, 1.03670246899127960205e-01) (2, -9.95256453752517700195e-02) (3, 8.53556513786315917969e-01) (4, -1.47926914691925048828e+00) (5, -9.11152720451354980469e-01) (6, -3.77240329980850219727e-02) (7, -9.54493522644042968750e-01) (8, 1.10218286514282226562e+00) (9, 4.25707548856735229492e-01) (10, 8.19597303867340087891e-01) (11, 6.24314427375793457031e-01) (12, -1.83755248785018920898e-01) (13, -3.58815193176269531250e-01) (14, 2.13127702474594116211e-01) (15, 8.53872969746589660645e-02) (16, 3.54857158660888671875e+00) (0, 5.45278251171112060547e-01) (1, 4.18244242668151855469e-01) (2, 5.55880606174468994141e-01) (3, 3.12115967273712158203e-01) (4, 6.38118207454681396484e-01) (5, 1.89604416489601135254e-01) (6, 7.72769272327423095703e-01) (7, 7.31591105461120605469e-01) (8, 7.99424052238464355469e-01) (9, -5.50879500806331634521e-02) (10, 2.52387315034866333008e-01) (11, 1.27899658679962158203e+00) (12, 3.62278223037719726562e-01) (13, 5.01426100730895996094e-01) (14, 1.17150425910949707031e+00) (15, 6.42512500286102294922e-01) (16, 4.35981094837188720703e-01) (0, 8.34141910076141357422e-01) (1, 2.29534834623336791992e-01) (2, 2.84225940704345703125e-01) (3, 3.07042986154556274414e-01) (4, 6.05352163314819335938e-01) (5, 2.55181252956390380859e-01) (6, 6.38055860996246337891e-01) (7, -9.69277787953615188599e-03) (8, 9.88731324672698974609e-01) (9, -3.11827152967453002930e-01) (10, 8.29170167446136474609e-01) (11, 4.55154627561569213867e-01) (12, 8.15930724143981933594e-01) (13, 2.39413887262344360352e-01) (14, 2.53802359104156494141e-01) (15, 1.12094128131866455078e+00) (16, 1.31781673431396484375e+00) (0, 6.51092350482940673828e-01) (1, 6.49217426776885986328e-01) (2, 1.17840075492858886719e+00) (3, 5.29900729656219482422e-01) (4, 8.24597775936126708984e-01) (5, 1.27365446090698242188e+00) (6, 7.99173355102539062500e-01) (7, 1.10723328590393066406e+00) (8, 5.11353611946105957031e-01) (9, 8.59431564807891845703e-01) (10, -7.73506164550781250000e-02) (11, 5.11973023414611816406e-01) (12, 8.46722960472106933594e-01) (13, 8.40193033218383789062e-01) (14, 1.08956789970397949219e+00) (15, 1.16083550453186035156e+00) (16, 1.01899993419647216797e+00) (0, 2.93141275644302368164e-01) (1, 1.24732291698455810547e+00) (2, 4.02507260441780090332e-02) (3, 3.99074286222457885742e-01) (4, 1.44829583168029785156e+00) (5, 7.72111237049102783203e-01) (6, -8.52957963943481445312e-02) (7, 6.64841890335083007812e-01) (8, -3.68871837854385375977e-01) (9, 1.62313759326934814453e+00) (10, 5.95015227794647216797e-01) (11, 2.15533232688903808594e+00) (12, 1.65945816040039062500e+00) (13, -8.97448807954788208008e-02) (14, -1.80016651749610900879e-01) (15, 5.44960260391235351562e-01) (16, 6.97369575500488281250e-01) (0, -8.14465712755918502808e-03) (1, 5.95776438713073730469e-01) (2, 1.36537480354309082031e+00) (3, 5.81851363182067871094e-01) (4, 7.71688371896743774414e-02) (5, 3.92785621806979179382e-03) (6, -4.81521390611305832863e-04) (7, 2.27738991379737854004e-01) (8, 1.91087409853935241699e-01) (9, 4.25572723150253295898e-01) (10, 1.54191112518310546875e+00) (11, 6.22671544551849365234e-01) (12, 7.25666224956512451172e-01) (13, 3.21839094161987304688e-01) (14, 1.12185254693031311035e-02) (15, 5.23901104927062988281e-01) (16, 5.11596024036407470703e-01) (0, 1.61270245909690856934e-01) (1, 7.60744094848632812500e-01) (2, 4.22275140881538391113e-02) (3, -7.76464790105819702148e-02) (4, 2.32224985957145690918e-01) (5, 3.57409626245498657227e-01) (6, 1.12513446807861328125e+00) (7, 4.45050120353698730469e-01) (8, 8.60397666692733764648e-02) (9, 5.36039888858795166016e-01) (10, 1.04173332452774047852e-01) (11, 6.67375838384032249451e-03) (12, 1.03254413604736328125e+00) (13, 9.52248513698577880859e-01) (14, 9.42583739757537841797e-01) (15, 3.31758797168731689453e-01) (16, 9.02424991130828857422e-01) (0, 1.04893624782562255859e+00) (1, 1.01414108276367187500e+00) (2, 5.03620147705078125000e-01) (3, -1.93081721663475036621e-01) (4, -1.86260557174682617188e+00) (5, 3.97824704647064208984e-01) (6, 5.54126560688018798828e-01) (7, -5.25567717850208282471e-02) (8, 1.31738591194152832031e+00) (9, 7.59890139102935791016e-01) (10, -1.59206017851829528809e-02) (11, 6.30306780338287353516e-01) (12, -9.32875275611877441406e-01) (13, 9.10090506076812744141e-01) (14, 2.70853430032730102539e-01) (15, -4.85034912824630737305e-01) (16, 1.34323620796203613281e+00) (0, 2.70304858684539794922e-01) (1, 9.91615772247314453125e-01) (2, 5.25222837924957275391e-01) (3, 5.40358960628509521484e-01) (4, 3.11344075202941894531e+00) (5, 1.68915009498596191406e+00) (6, 6.72892570495605468750e-01) (7, 1.66133832931518554688e+00) (8, 6.20907545089721679688e-01) (9, 8.17645639181137084961e-02) (10, 1.00741922855377197266e+00) (11, 9.00940299034118652344e-01) (12, 2.43893432617187500000e+00) (13, 4.29250568151473999023e-01) (14, 9.13051068782806396484e-01) (15, 7.33138978481292724609e-01) (16, 5.50454437732696533203e-01) (0, -2.62500718235969543457e-02) (1, 1.24455928802490234375e+00) (2, 8.02156031131744384766e-02) (3, 8.94146502017974853516e-01) (4, 1.50439310073852539062e+00) (5, 2.75833755731582641602e-01) (6, 1.95692554116249084473e-01) (7, 5.33398926258087158203e-01) (8, 3.80985409021377563477e-01) (9, 4.94740128517150878906e-01) (10, 5.49902379512786865234e-01) (11, 4.65230798721313476562e+00) (12, 1.93458378314971923828e+00) (13, 3.47594201564788818359e-01) (14, 5.85747063159942626953e-01) (15, 5.85829138755798339844e-01) (16, 1.88852131366729736328e-01) (0, 2.22252219915390014648e-01) (1, 1.79392349720001220703e+00) (2, 5.58052241802215576172e-01) (3, -5.99814593791961669922e-01) (4, 7.99115970730781555176e-02) (5, -3.32495301961898803711e-01) (6, 7.35769808292388916016e-01) (7, -5.18312513828277587891e-01) (8, 8.98256078362464904785e-02) (9, -3.50046181678771972656e+00) (10, 1.06502044200897216797e+00) (11, 5.16834974288940429688e-01) (12, 8.76599192619323730469e-01) (13, 2.98898249864578247070e-01) (14, 9.50001955032348632812e-01) (15, -3.11897933483123779297e-01) (16, 1.36180460453033447266e+00) (0, 1.50513303279876708984e+00) (1, 5.02796530723571777344e-01) (2, 6.45150601863861083984e-01) (3, 9.17561724781990051270e-02) (4, 3.06950974464416503906e+00) (5, 5.64386904239654541016e-01) (6, 9.29389894008636474609e-01) (7, 3.54155182838439941406e-01) (8, 1.03929841518402099609e+00) (9, 1.16691924631595611572e-01) (10, 8.65229010581970214844e-01) (11, 5.28909027576446533203e-01) (12, 8.53725135326385498047e-01) (13, 6.86664521694183349609e-01) (14, 4.89106595516204833984e-01) (15, 3.03885787725448608398e-01) (16, 1.01275575160980224609e+00) (0, 6.92838206887245178223e-02) (1, 6.04095995426177978516e-01) (2, 6.24273300170898437500e-01) (3, 7.19892740249633789062e-01) (4, 3.91441965103149414062e+00) (5, 6.17220103740692138672e-01) (6, 5.85816681385040283203e-01) (7, 1.00057208538055419922e+00) (8, 7.12002456188201904297e-01) (9, 1.18957102298736572266e+00) (10, 7.28219091892242431641e-01) (11, 1.00810599327087402344e+00) (12, 4.49328756332397460938e+00) (13, 2.23789736628532409668e-01) (14, 1.60477459430694580078e-01) (15, 2.37498909235000610352e-01) (16, 1.30259788036346435547e+00) (0, 3.02270829677581787109e-01) (1, 6.92607760429382324219e-01) (2, 7.10602104663848876953e-01) (3, 9.48104202747344970703e-01) (4, -2.39974364638328552246e-01) (5, 3.57768028974533081055e-01) (6, 8.23883652687072753906e-01) (7, 7.23259806632995605469e-01) (8, 1.35905727744102478027e-01) (9, 1.12580217421054840088e-01) (10, 1.12217700481414794922e+00) (11, 1.23020970821380615234e+00) (12, -1.23759657144546508789e-01) (13, 1.93868950009346008301e-01) (14, 5.78853905200958251953e-01) (15, 6.19908869266510009766e-01) (16, 4.09467667341232299805e-01) (0, 5.67653238773345947266e-01) (1, 9.92980420589447021484e-01) (2, 9.84659373760223388672e-01) (3, -1.81419238448143005371e-01) (4, 3.50971370935440063477e-01) (5, 5.88022351264953613281e-01) (6, 1.22779846191406250000e+00) (7, 3.62349212169647216797e-01) (8, 1.17579126358032226562e+00) (9, 9.66764032840728759766e-01) (10, 1.46473121643066406250e+00) (11, 1.02840888500213623047e+00) (12, 2.89700329303741455078e-01) (13, 8.44010949134826660156e-01) (14, 1.37731277942657470703e+00) (15, 4.69693899154663085938e-01) (16, 1.78271993994712829590e-01) (0, 1.19392323493957519531e+00) (1, 9.86535847187042236328e-01) (2, -1.28103458881378173828e+00) (3, 6.15625023841857910156e-01) (4, 1.00989520549774169922e+00) (5, -1.30353793501853942871e-01) (6, 5.52085518836975097656e-01) (7, -6.02199852466583251953e-01) (8, 9.81773734092712402344e-01) (9, 1.09722340106964111328e+00) (10, 4.14217710494995117188e-01) (11, 1.24907068908214569092e-01) (12, 1.28841626644134521484e+00) (13, 4.70788627862930297852e-01) (14, 3.99382561445236206055e-01) (15, 7.71294653415679931641e-01) (16, 3.08830761909484863281e+00) (17, 6.95484817028045654297e-01) (18, -1.32493034005165100098e-01) (19, -1.50264710187911987305e-01) (20, 1.10201478004455566406e+00) (21, 3.37599664926528930664e-01) (22, 3.66301208734512329102e-01) (23, -2.98986792564392089844e-01) (24, 4.91078346967697143555e-01) (25, 9.57197844982147216797e-01) (26, 3.03692936897277832031e-01) (27, 6.60878956317901611328e-01) (28, 5.34976780414581298828e-01) (29, 5.56966185569763183594e-01) (30, 6.54923379421234130859e-01) (31, 4.95216339826583862305e-01) (32, 7.55285978317260742188e-01) (33, 5.50774514675140380859e-01) (34, -1.70150727033615112305e-01) (35, 5.21088361740112304688e-01) (36, 5.01012265682220458984e-01) (37, 7.06668989732861518860e-03) (38, 3.39450150728225708008e-01) (39, 1.72113358974456787109e-01) (40, 5.55244684219360351562e-01) (41, 1.07102835178375244141e+00) (17, 9.47041869163513183594e-01) (18, 1.22419849038124084473e-01) (19, 5.30522441864013671875e+00) (20, 5.06067335605621337891e-01) (21, 5.17852962017059326172e-01) (22, 4.27961081266403198242e-01) (23, 1.49073159694671630859e+00) (24, 1.79164493083953857422e+00) (25, 1.21097460389137268066e-01) (26, 6.45507335662841796875e-01) (27, 2.07783603668212890625e+00) (28, 1.87326836585998535156e+00) (29, 1.98137804865837097168e-01) (30, 9.29652631282806396484e-01) (31, 1.08207607269287109375e+00) (32, -1.38889122009277343750e+00) (33, 2.53925055265426635742e-01) (34, 3.70941102504730224609e-01) (35, 2.82028555870056152344e-01) (36, 8.75548660755157470703e-01) (37, 8.96429538726806640625e-01) (38, 1.55280590057373046875e+00) (39, 1.98156511783599853516e+00) (40, 2.51212120056152343750e+00) (41, 2.74756103754043579102e-01) (17, 4.87125873565673828125e-01) (18, 7.81781747937202453613e-02) (19, 1.17684435844421386719e+00) (20, 5.16555309295654296875e-01) (21, 6.11011385917663574219e-01) (22, 1.89219340682029724121e-01) (23, -2.62633264064788818359e-01) (24, 1.01939010620117187500e+00) (25, 4.59317505359649658203e-01) (26, 2.71034896373748779297e-01) (27, 4.27243828773498535156e-01) (28, 6.71273946762084960938e-01) (29, 4.07956570386886596680e-01) (30, 1.94957971572875976562e-01) (31, 7.84774422645568847656e-02) (32, 1.19313187897205352783e-01) (33, 9.37280237674713134766e-01) (34, 1.83929968625307083130e-02) (35, 4.51145023107528686523e-01) (36, 5.23379027843475341797e-01) (37, 1.14169788360595703125e+00) (38, 5.83997011184692382812e-01) (39, 3.26140314340591430664e-01) (40, 1.09121017158031463623e-01) (41, 5.18664360046386718750e-01) (17, 1.34084567427635192871e-01) (18, 6.43102705478668212891e-01) (19, 2.52761900424957275391e-01) (20, 5.19325137138366699219e-01) (21, 1.06631457805633544922e-01) (22, 2.97713339328765869141e-01) (23, 7.33580529689788818359e-01) (24, 5.87540149688720703125e-01) (25, 8.60939681529998779297e-01) (26, 3.77793073654174804688e-01) (27, 1.00584936141967773438e+00) (28, 2.11751967668533325195e-01) (29, 3.40333670377731323242e-01) (30, 5.50993740558624267578e-01) (31, 3.37325364351272583008e-01) (32, -1.43267810344696044922e-01) (33, 9.42772328853607177734e-01) (34, 8.52008521556854248047e-01) (35, 1.68132841587066650391e+00) (36, -1.07932940125465393066e-01) (37, 2.09995672106742858887e-01) (38, 6.05299055576324462891e-01) (39, 6.05867385864257812500e-01) (40, -1.97563871741294860840e-01) (41, 1.44032156467437744141e+00) (17, 4.09938216209411621094e-01) (18, 7.38244950771331787109e-01) (19, 2.68689960241317749023e-01) (20, 6.59641861915588378906e-01) (21, 8.53003382682800292969e-01) (22, 7.97513842582702636719e-01) (23, 1.19603943824768066406e+00) (24, 8.62957715988159179688e-01) (25, 7.47398436069488525391e-01) (26, 3.12798231840133666992e-01) (27, 5.73414452373981475830e-02) (28, 1.16327226161956787109e+00) (29, -1.44312875345349311829e-02) (30, 1.27954173088073730469e+00) (31, 9.88065838813781738281e-01) (32, 6.97244167327880859375e-01) (33, 1.12443959712982177734e+00) (34, 7.76470005512237548828e-01) (35, 5.08926510810852050781e-01) (36, 5.83714187145233154297e-01) (37, 7.03388333320617675781e-01) (38, 4.48180526494979858398e-01) (39, 6.32422804832458496094e-01) (40, 5.29151260852813720703e-01) (41, 8.54378938674926757812e-03) (17, -1.42624691128730773926e-01) (18, 1.41761377453804016113e-01) (19, 6.89989864826202392578e-01) (20, 6.48690819740295410156e-01) (21, 8.17508697509765625000e-01) (22, 9.93379473686218261719e-01) (23, 2.47527390718460083008e-01) (24, 2.60972768068313598633e-01) (25, 4.41288232803344726562e-01) (26, 2.85671055316925048828e-01) (27, 5.17713487148284912109e-01) (28, 3.14460426568984985352e-01) (29, 1.32948353886604309082e-01) (30, 7.57071971893310546875e-02) (31, 5.20881175994873046875e-01) (32, 1.26726543903350830078e+00) (33, 1.01013660430908203125e+00) (34, 4.26247119903564453125e-01) (35, 4.07084137201309204102e-01) (36, 6.85265302658081054688e-01) (37, -7.21977800130844116211e-02) (38, 5.52543282508850097656e-01) (39, 4.41799551248550415039e-01) (40, 8.04531395435333251953e-01) (41, 9.17981505393981933594e-01) (17, -8.50830078125000000000e-02) (18, 4.14826303720474243164e-01) (19, 9.24830555915832519531e-01) (20, -1.86971072107553482056e-02) (21, 2.45300784707069396973e-01) (22, 5.38951635360717773438e-01) (23, -1.61053907871246337891e+00) (24, 1.54466927051544189453e+00) (25, 8.61563146114349365234e-01) (26, 5.14396071434020996094e-01) (27, 3.88207197189331054688e-01) (28, 1.70567706227302551270e-01) (29, -7.56031632423400878906e-01) (30, 4.92465555667877197266e-01) (31, 5.10382413864135742188e-01) (32, 1.84713870286941528320e-01) (33, 4.44719381630420684814e-02) (34, -1.13388001918792724609e+00) (35, 1.03592109680175781250e+00) (36, 2.65487730503082275391e-01) (37, 8.71928513050079345703e-01) (38, 4.46754284203052520752e-02) (39, 4.26265418529510498047e-01) (40, 4.43096429109573364258e-01) (41, 9.47811245918273925781e-01) (17, 7.48215615749359130859e-01) (18, 2.77975350618362426758e-01) (19, 3.24309378862380981445e-01) (20, -4.05694961547851562500e-01) (21, 2.81722605228424072266e-01) (22, -9.13148760795593261719e-01) (23, -6.98167681694030761719e-01) (24, -1.80249106884002685547e+00) (25, 4.71556246280670166016e-01) (26, -7.29113146662712097168e-02) (27, -1.41354963183403015137e-01) (28, 3.24848922900855541229e-03) (29, 2.48508667945861816406e+00) (30, 5.74409484863281250000e-01) (31, -2.75708939880132675171e-02) (32, 3.31162154674530029297e-01) (33, 3.90240341424942016602e-01) (34, -7.88943886756896972656e-01) (35, 4.18809711933135986328e-01) (36, 1.05833619832992553711e-01) (37, -4.64337438344955444336e-01) (38, -6.56127214431762695312e-01) (39, 9.14800465106964111328e-02) (40, 1.74095422029495239258e-01) (41, 1.69079458713531494141e+00) (17, -2.88227107375860214233e-02) (18, 7.95741021633148193359e-01) (19, 3.28258812427520751953e-01) (20, 1.02810692787170410156e+00) (21, 8.75885307788848876953e-01) (22, 1.10511720180511474609e+00) (23, 1.14501321315765380859e+00) (24, 5.95418393611907958984e-01) (25, 4.93790000677108764648e-01) (26, 7.60975420475006103516e-01) (27, 4.58289563655853271484e-01) (28, 5.75387477874755859375e-01) (29, 4.63339805603027343750e-01) (30, 5.72659373283386230469e-01) (31, 8.85244965553283691406e-01) (32, 1.03215980529785156250e+00) (33, 4.51998680830001831055e-01) (34, 8.82149159908294677734e-01) (35, -1.52776017785072326660e-03) (36, 4.14356261491775512695e-01) (37, 3.11965227127075195312e-01) (38, -9.76884007453918457031e-01) (39, 7.53990888595581054688e-01) (40, 8.07268202304840087891e-01) (41, 1.17347276210784912109e+00) (17, -1.15914034843444824219e+00) (18, 1.56130120158195495605e-01) (19, 1.88231956958770751953e+00) (20, 6.17239296436309814453e-01) (21, 1.38158464431762695312e+00) (22, 1.45778343081474304199e-01) (23, 4.89604115486145019531e-01) (24, 5.82893669605255126953e-01) (25, 2.24493697285652160645e-01) (26, 9.64528262615203857422e-01) (27, 2.76059508323669433594e-01) (28, 2.22284555435180664062e+00) (29, 8.41574609279632568359e-01) (30, 3.78666311502456665039e-01) (31, 2.37327504158020019531e+00) (32, 2.26848411560058593750e+00) (33, -1.27720570564270019531e+00) (34, 4.63467627763748168945e-01) (35, -5.45813798904418945312e-01) (36, 6.32906258106231689453e-01) (37, 1.62191534042358398438e+00) (38, 5.95654129981994628906e-01) (39, 1.39963614940643310547e+00) (40, 1.23012518882751464844e+00) (41, 3.44558209180831909180e-01) (17, -4.33753663673996925354e-03) (18, 5.96560716629028320312e+00) (19, 8.72399747371673583984e-01) (20, 1.06464755535125732422e+00) (21, 6.34552538394927978516e-01) (22, -1.32090181112289428711e-01) (23, 2.30772042274475097656e+00) (24, -1.86454808712005615234e+00) (25, 5.46840429306030273438e-01) (26, 6.54893577098846435547e-01) (27, 6.89984023571014404297e-01) (28, 1.07756078243255615234e+00) (29, 6.76614046096801757812e-01) (30, 4.13277924060821533203e-01) (31, 8.34481358528137207031e-01) (32, 1.43715584278106689453e+00) (33, -2.35591959208250045776e-02) (34, 4.48225796222686767578e-01) (35, 1.43897485733032226562e+00) (36, 5.73886394500732421875e-01) (37, -1.96828663349151611328e+00) (38, -7.83970654010772705078e-01) (39, 4.84078109264373779297e-01) (40, 2.74154245853424072266e-01) (41, 9.85443666577339172363e-02) (17, 4.71120953559875488281e-01) (18, 2.96090632677078247070e-01) (19, 1.79317772388458251953e-01) (20, 4.76938426494598388672e-01) (21, 2.46652904897928237915e-02) (22, 9.93582382798194885254e-02) (23, -3.27243924140930175781e-01) (24, 3.63129347562789916992e-01) (25, 9.16271984577178955078e-01) (26, 5.41973710060119628906e-01) (27, -1.79173067212104797363e-01) (28, -1.77030846476554870605e-01) (29, 5.41391670703887939453e-01) (30, -1.91384628415107727051e-01) (31, 8.78751426935195922852e-02) (32, 5.39513587951660156250e-01) (33, 1.05911183357238769531e+00) (34, 1.97341948747634887695e-01) (35, 1.21781063079833984375e+00) (36, 3.65676507353782653809e-02) (37, 6.00290834903717041016e-01) (38, 6.82922422885894775391e-01) (39, 6.27856925129890441895e-02) (40, 1.61392521113157272339e-02) (41, 1.47736263275146484375e+00) (17, 3.74891221523284912109e-01) (18, 3.82332205772399902344e-01) (19, 1.26766741275787353516e+00) (20, 9.12386536598205566406e-01) (21, 5.73362290859222412109e-01) (22, 7.93668389320373535156e-01) (23, 1.88082873821258544922e-01) (24, 4.36326831579208374023e-01) (25, 6.30589604377746582031e-01) (26, 7.18435227870941162109e-01) (27, 2.96415835618972778320e-01) (28, 9.53014846891164779663e-03) (29, 7.71145522594451904297e-01) (30, 6.79447650909423828125e-01) (31, 2.56149023771286010742e-01) (32, 1.12771701812744140625e+00) (33, -4.35975164175033569336e-01) (34, 7.66635179519653320312e-01) (35, 1.02429121732711791992e-01) (36, 2.14891806244850158691e-01) (37, 5.37810802459716796875e-01) (38, 6.77131116390228271484e-01) (39, 9.08769071102142333984e-01) (40, 1.04828214645385742188e+00) (41, 1.18963193893432617188e+00) (17, 7.30230331420898437500e-01) (18, -6.20684266090393066406e-01) (19, 4.05973047018051147461e-02) (20, 1.56964510679244995117e-01) (21, -6.16088695824146270752e-02) (22, -9.00756716728210449219e-02) (23, -2.53890484571456909180e-01) (24, -5.83508133888244628906e-01) (25, 1.43957674503326416016e+00) (26, 2.11796939373016357422e-01) (27, 1.69181793928146362305e-01) (28, -7.12655901908874511719e-01) (29, 8.54570627212524414062e-01) (30, -3.69468390941619873047e-01) (31, -6.58795416355133056641e-01) (32, 9.70916509628295898438e-01) (33, 5.10056257247924804688e-01) (34, -4.88908827304840087891e-01) (35, 9.73301112651824951172e-01) (36, 1.68569064140319824219e+00) (37, -1.87028065323829650879e-01) (38, -5.27800023555755615234e-01) (39, -2.95437186956405639648e-01) (40, -3.84278863668441772461e-01) (41, 2.90284276008605957031e+00) (17, 9.01456892490386962891e-01) (18, 8.41131567955017089844e-01) (19, 8.30433294177055358887e-02) (20, 7.61813354492187500000e+00) (21, -4.34069102630019187927e-03) (22, 2.91349560022354125977e-01) (23, 4.44793748855590820312e+00) (24, 3.89039814472198486328e-01) (25, 1.02143108844757080078e+00) (26, -3.03919939324259757996e-03) (27, 1.97610899806022644043e-01) (28, 4.37998920679092407227e-01) (29, -3.78748737275600433350e-02) (30, 4.06331747770309448242e-01) (31, 2.44581833481788635254e-01) (32, 2.52693486213684082031e+00) (33, 5.70323884487152099609e-01) (34, 2.34308078885078430176e-01) (35, 1.09190845489501953125e+00) (36, 1.84716537594795227051e-01) (37, -1.13685056567192077637e-01) (38, 2.25171968340873718262e-01) (39, 2.00733900070190429688e-01) (40, 6.92733228206634521484e-01) (41, 1.25886738300323486328e+00) (17, 5.30262410640716552734e-01) (18, 1.09640598297119140625e+00) (19, 6.70184731483459472656e-01) (20, 1.50501504540443420410e-02) (21, 1.13377416133880615234e+00) (22, 5.47550082206726074219e-01) (23, 1.16295135021209716797e+00) (24, 1.23995459079742431641e+00) (25, 6.30201756954193115234e-01) (26, 5.26615500450134277344e-01) (27, 5.77612578868865966797e-01) (28, 6.18221640586853027344e-01) (29, 8.92846822738647460938e-01) (30, 1.11972248554229736328e+00) (31, 7.20234811305999755859e-01) (32, 2.49820083379745483398e-01) (33, 4.23331469297409057617e-01) (34, 1.15187895298004150391e+00) (35, 8.49119007587432861328e-01) (36, 8.58997628092765808105e-02) (37, 1.26812219619750976562e+00) (38, 5.68883419036865234375e-01) (39, 8.04962754249572753906e-01) (40, 3.67586702108383178711e-01) (41, 8.11609923839569091797e-01) (17, 6.61092221736907958984e-01) (18, -1.24529957771301269531e+00) (19, 7.15145409107208251953e-01) (20, 5.76602876186370849609e-01) (21, 2.19690874218940734863e-01) (22, 1.85005903244018554688e-01) (23, -2.71918959915637969971e-02) (24, 6.93291604518890380859e-01) (25, 3.66254836320877075195e-01) (26, 1.12685047090053558350e-01) (27, 6.69848680496215820312e-01) (28, 5.22874891757965087891e-01) (29, 2.10125625133514404297e-01) (30, 7.18916714191436767578e-01) (31, -3.53190787136554718018e-02) (32, 4.57409739494323730469e-01) (33, 4.11998242139816284180e-01) (34, 6.93284347653388977051e-02) (35, 4.69093173742294311523e-01) (36, -1.35746940970420837402e-01) (37, 6.58402442932128906250e-01) (38, 1.01297533512115478516e+00) (39, 6.31854534149169921875e-01) (40, 5.25820136070251464844e-01) (41, 1.43553149700164794922e+00) (17, -6.14126538857817649841e-03) (18, 1.13342559337615966797e+00) (19, 1.95660829544067382812e+00) (20, 9.95011329650878906250e-01) (21, 1.15814197063446044922e+00) (22, 2.50235348939895629883e-01) (23, 5.94841420650482177734e-01) (24, 3.92520427703857421875e-01) (25, 6.85641691088676452637e-02) (26, 8.83333981037139892578e-01) (27, 3.64124923944473266602e-01) (28, 1.36177587509155273438e+00) (29, -2.59901547431945800781e+00) (30, 7.50474691390991210938e-01) (31, 9.73256587982177734375e-01) (32, 6.44159197807312011719e-01) (33, -4.14388537406921386719e-01) (34, 1.28985488414764404297e+00) (35, 9.26221907138824462891e-02) (36, 4.76292699575424194336e-01) (37, 8.69192659854888916016e-01) (38, 8.29406261444091796875e-01) (39, 1.00194001197814941406e+00) (40, 9.21480834484100341797e-01) (41, 9.37029838562011718750e-01) (17, 9.33783352375030517578e-01) (18, 8.87660495936870574951e-03) (19, 1.95880681276321411133e-01) (20, 3.30566167831420898438e-01) (21, -1.48223608732223510742e-01) (22, 5.01827538013458251953e-01) (23, 2.19742149114608764648e-01) (24, 1.00575947761535644531e+00) (25, 9.48231101036071777344e-01) (26, 2.07459762692451477051e-01) (27, 6.23994112014770507812e-01) (28, 3.10697015374898910522e-02) (29, 5.35130500793457031250e-01) (30, -2.58620053529739379883e-01) (31, 2.72625714540481567383e-01) (32, 2.32480958104133605957e-01) (33, 8.10976743698120117188e-01) (34, 1.94095164537429809570e-01) (35, 8.87854635715484619141e-01) (36, 1.71333789825439453125e-01) (37, -4.53618526458740234375e-01) (38, 7.43278205394744873047e-01) (39, 1.87542632222175598145e-01) (40, 1.28611579537391662598e-01) (41, 8.76452028751373291016e-01) (17, 1.03925418853759765625e+00) (18, 1.19953937828540802002e-01) (19, 1.94345012307167053223e-01) (20, 5.21226584911346435547e-01) (21, -5.31533807516098022461e-02) (22, -1.47115690633654594421e-02) (23, -5.46808242797851562500e-01) (24, 2.26939812302589416504e-01) (25, 9.01558756828308105469e-01) (26, 4.21742975711822509766e-01) (27, 1.99452027678489685059e-01) (28, -1.06529317796230316162e-01) (29, 1.98138579726219177246e-01) (30, 2.62730568647384643555e-01) (31, 8.81360396742820739746e-02) (32, 5.90182662010192871094e-01) (33, 3.15174639225006103516e-01) (34, 2.26777181029319763184e-01) (35, 5.20857274532318115234e-01) (36, -1.87991917133331298828e-01) (37, 9.36824455857276916504e-02) (38, 2.15902775526046752930e-01) (39, 4.23144340515136718750e-01) (40, 5.98441243171691894531e-01) (41, 1.05468344688415527344e+00) (17, 7.53491699695587158203e-01) (18, -4.03244286775588989258e-01) (19, 2.43118777871131896973e-01) (20, 2.69978046417236328125e-01) (21, -2.17051625251770019531e-01) (22, -8.32541525363922119141e-01) (23, -9.02206420898437500000e-01) (24, 3.95791292190551757812e-01) (25, 3.60823869705200195312e-01) (26, -6.18417374789714813232e-02) (27, 3.50835531949996948242e-01) (28, -2.93693572282791137695e-01) (29, -4.68771338462829589844e-01) (30, 7.64967620372772216797e-01) (31, 4.64517593383789062500e-01) (32, 5.20154595375061035156e-01) (33, 4.57570284605026245117e-01) (34, -9.77796912193298339844e-01) (35, 4.05612736940383911133e-01) (36, 2.74344474077224731445e-01) (37, 5.88851124048233032227e-02) (38, 4.50300723314285278320e-01) (39, -4.60371002554893493652e-02) (40, -2.60642439126968383789e-01) (41, 1.40867578983306884766e+00) (17, -7.11020529270172119141e-01) (18, 4.44629758596420288086e-01) (19, 8.14921438694000244141e-01) (20, 5.46475946903228759766e-02) (21, 5.42780101299285888672e-01) (22, -7.23125860095024108887e-02) (23, -6.66253268718719482422e-01) (24, -1.00896218791604042053e-02) (25, -1.09002307057380676270e-01) (26, 6.49936437606811523438e-01) (27, 5.56538462638854980469e-01) (28, 8.41763973236083984375e-01) (29, -1.04944503307342529297e+00) (30, 7.33721554279327392578e-01) (31, 3.44530224800109863281e-01) (32, 1.44904565811157226562e+00) (33, 1.97574064135551452637e-01) (34, -8.14166903495788574219e-01) (35, 1.75483614206314086914e-01) (36, 5.88806390762329101562e-01) (37, 5.65405964851379394531e-01) (38, 4.81971263885498046875e-01) (39, 3.40190052986145019531e-01) (40, 3.45202118158340454102e-01) (41, 1.52019238471984863281e+00) (17, 1.23054206371307373047e+00) (18, 3.04241806268692016602e-01) (19, -4.77198451757431030273e-01) (20, 1.80262669920921325684e-01) (21, 2.55840539932250976562e-01) (22, 4.38365817070007324219e-01) (23, 7.12109804153442382812e-01) (24, 1.05048096179962158203e+00) (25, 5.35905063152313232422e-01) (26, 2.02351376414299011230e-01) (27, -2.76370078325271606445e-01) (28, 1.81575134396553039551e-01) (29, 7.88993120193481445312e-01) (30, 6.24092161655426025391e-01) (31, -3.27059894800186157227e-01) (32, 3.99850517511367797852e-01) (33, -5.50405569374561309814e-02) (34, 6.12897038459777832031e-01) (35, 9.97254014015197753906e-01) (36, 3.39741528034210205078e-01) (37, 7.34061241149902343750e-01) (38, 1.14977610111236572266e+00) (39, 6.36260867118835449219e-01) (40, 3.00846189260482788086e-01) (41, 1.43875479698181152344e+00) (17, 3.07430386543273925781e-01) (18, 1.62643790245056152344e-01) (19, 5.96746027469635009766e-01) (20, 2.72816866636276245117e-01) (21, -3.16774874925613403320e-01) (22, -3.09151440858840942383e-01) (23, 6.90391808748245239258e-02) (24, -7.23001122474670410156e-01) (25, 6.88371241092681884766e-01) (26, -2.14281119406223297119e-02) (27, 6.08575284481048583984e-01) (28, -5.26838600635528564453e-01) (29, 1.45918071269989013672e-01) (30, 4.83127295970916748047e-01) (31, -2.09779977798461914062e-01) (32, 4.18058544397354125977e-01) (33, 4.82912003993988037109e-01) (34, 6.32340386509895324707e-02) (35, 5.88011503219604492188e-01) (36, -9.66298505663871765137e-02) (37, 6.46276175975799560547e-01) (38, 1.73460111021995544434e-01) (39, -2.48076781630516052246e-01) (40, 9.48977172374725341797e-02) (41, 1.62289500236511230469e+00) (42, 9.53138351440429687500e-01) (43, 7.65415668487548828125e-01) (44, 1.51767909526824951172e+00) (45, 1.03270661830902099609e+00) (46, 7.86325991153717041016e-01) (47, 4.20641154050827026367e-01) (48, 6.64868354797363281250e-01) (49, 3.34009051322937011719e-01) (50, 4.15542036294937133789e-01) (51, 3.47297519445419311523e-01) (52, 7.86768198013305664062e-01) (53, 5.76602816581726074219e-01) (54, 8.30040931701660156250e-01) (55, 3.00504386425018310547e-01) (56, 1.23635745048522949219e+00) (57, 7.46404945850372314453e-01) (58, 1.23115611076354980469e+00) (59, 2.72856891155242919922e-01) (60, 1.08721196651458740234e+00) (61, 1.72201156616210937500e+00) (62, 7.52499699592590332031e-01) (63, 2.54085481166839599609e-01) (64, -3.37032198905944824219e+00) (65, 3.42667877674102783203e-01) (66, 1.29840838909149169922e+00) (42, 5.17017506062984466553e-02) (43, 6.35410726070404052734e-01) (44, 1.16398446261882781982e-01) (45, 3.89785259962081909180e-01) (46, 2.47386440634727478027e-01) (47, 4.36337232589721679688e-01) (48, 5.42014551162719726562e+00) (49, 7.37497389316558837891e-01) (50, 7.31515169143676757812e-01) (51, 3.76121997833251953125e-01) (52, 6.98960959911346435547e-01) (53, 8.97380292415618896484e-01) (54, 2.79196854680776596069e-02) (55, 7.05871462821960449219e-01) (56, 7.34030783176422119141e-01) (57, -7.85469859838485717773e-02) (58, 2.29912653565406799316e-01) (59, 1.09325721859931945801e-02) (60, 5.85991144180297851562e-01) (61, 1.19636821746826171875e+00) (62, 5.95851957798004150391e-01) (63, 3.78480744361877441406e+00) (64, 4.39420312643051147461e-01) (65, 5.24061203002929687500e-01) (66, 1.56938576698303222656e+00) (42, 5.86842477321624755859e-01) (43, 2.29394122958183288574e-01) (44, 6.86343014240264892578e-01) (45, 5.61765432357788085938e-01) (46, 3.75379502773284912109e-01) (47, -1.29390329122543334961e-01) (48, 2.09703469276428222656e+00) (49, 9.70049440860748291016e-01) (50, -6.67964220046997070312e-01) (51, -6.99402391910552978516e-01) (52, 2.83136546611785888672e-01) (53, 8.19205224514007568359e-01) (54, 3.17983388900756835938e-01) (55, 1.71236169338226318359e+00) (56, 7.63775765895843505859e-01) (57, 1.62693247199058532715e-01) (58, 1.03376224637031555176e-01) (59, -3.97368371486663818359e-01) (60, 4.39700722694396972656e-01) (61, 9.49948467314243316650e-03) (62, 7.59231805801391601562e+00) (63, 9.25823926925659179688e-01) (64, 8.61010968685150146484e-01) (65, 1.48208904266357421875e+00) (66, 2.04569244384765625000e+00) (42, 2.64731264114379882812e+00) (43, 2.88278341293334960938e-01) (44, 3.82612198591232299805e-01) (45, 3.31622505187988281250e+00) (46, 5.46277284622192382812e-01) (47, -3.27783286571502685547e-01) (48, 5.33533990383148193359e-01) (49, 9.73477423191070556641e-01) (50, 6.15521788597106933594e-01) (51, -1.32298123836517333984e+00) (52, -7.20832720398902893066e-02) (53, 2.23517656326293945312e+00) (54, 3.78964424133300781250e-01) (55, 1.44007909297943115234e+00) (56, 5.71564555168151855469e-01) (57, 2.97701072692871093750e+00) (58, 1.24705958366394042969e+00) (59, -1.22654414176940917969e+00) (60, 2.82235169410705566406e+00) (61, -1.47715830802917480469e+00) (62, 1.00207948684692382812e+00) (63, 1.33565530180931091309e-01) (64, 1.09925615787506103516e+00) (65, 9.38966035842895507812e-01) (66, 4.16398620605468750000e+00) (42, 3.84274989366531372070e-01) (43, 8.01886200904846191406e-01) (44, 7.53066062927246093750e-01) (45, 2.12008714675903320312e-01) (46, 3.18664044141769409180e-01) (47, 1.56518018245697021484e+00) (48, 4.73077654838562011719e-01) (49, 1.29080820083618164062e+00) (50, 2.88517653942108154297e-01) (51, 5.01512467861175537109e-01) (52, 3.09615015983581542969e-01) (53, 2.40558221936225891113e-01) (54, 2.04668596386909484863e-01) (55, 1.13270998001098632812e+00) (56, 3.35063904523849487305e-01) (57, 6.79615557193756103516e-01) (58, 2.07014250755310058594e+00) (59, 2.97461539506912231445e-01) (60, -1.24696063995361328125e+00) (61, 4.82125669717788696289e-01) (62, 1.57523036003112792969e+00) (63, 1.20187747478485107422e+00) (64, 1.48156374692916870117e-01) (65, 9.49224233627319335938e-01) (66, 6.53358221054077148438e-01) (42, 1.25525069236755371094e+00) (43, 9.42292213439941406250e-01) (44, 8.72785925865173339844e-01) (45, 1.28588283061981201172e+00) (46, 4.24837589263916015625e-01) (47, 6.47073209285736083984e-01) (48, 6.81427299976348876953e-01) (49, 5.75105130672454833984e-01) (50, 1.48319631814956665039e-01) (51, 4.30736064910888671875e-01) (52, 4.47284132242202758789e-01) (53, 1.06244361400604248047e+00) (54, 6.63982093334197998047e-01) (55, 4.87264335155487060547e-01) (56, 1.13546538352966308594e+00) (57, 1.65953859686851501465e-01) (58, 1.00112473964691162109e+00) (59, 5.88605642318725585938e-01) (60, 1.74853575229644775391e+00) (61, 4.72159266471862792969e-01) (62, 3.75080913305282592773e-01) (63, 9.06424671411514282227e-02) (64, 8.35642278194427490234e-01) (65, 4.11071658134460449219e-01) (66, 1.22475254535675048828e+00) (42, 4.71896678209304809570e-01) (43, 7.19864010810852050781e-01) (44, 6.91825270652770996094e-01) (45, 4.75379377603530883789e-01) (46, 2.45711818337440490723e-01) (47, -5.12858293950557708740e-02) (48, 6.84617936611175537109e-01) (49, 8.92079412937164306641e-01) (50, 2.30544447898864746094e-01) (51, 6.51773691177368164062e-01) (52, 7.22081124782562255859e-01) (53, 3.66321831941604614258e-01) (54, 2.77873218059539794922e-01) (55, 5.19957840442657470703e-01) (56, -1.13626241683959960938e-01) (57, 2.02271997928619384766e-01) (58, 1.23012714087963104248e-01) (59, 4.92518991231918334961e-01) (60, 2.33074024319648742676e-01) (61, -1.03966557979583740234e+00) (62, 6.91507339477539062500e-01) (63, 1.25877642631530761719e+00) (64, 7.59548068046569824219e-01) (65, 6.18553042411804199219e-01) (66, 1.20581424236297607422e+00) (42, 6.95486068725585937500e-01) (43, 3.40722233057022094727e-01) (44, -4.57794591784477233887e-02) (45, 5.70243299007415771484e-01) (46, 2.76086062192916870117e-01) (47, 5.38064360618591308594e-01) (48, 9.63631689548492431641e-01) (49, 1.24010479450225830078e+00) (50, 3.50644409656524658203e-01) (51, -5.10360956192016601562e-01) (52, 6.75542429089546203613e-02) (53, 9.49007153511047363281e-01) (54, 1.07212230563163757324e-01) (55, 1.69322407245635986328e+00) (56, 8.89761507511138916016e-01) (57, 1.80988401174545288086e-01) (58, 4.41387981176376342773e-01) (59, 1.44477993249893188477e-01) (60, 1.84694752097129821777e-01) (61, 1.22020506858825683594e+00) (62, 1.46335959434509277344e+00) (63, 9.75166201591491699219e-01) (64, 7.19446480274200439453e-01) (65, 6.81207180023193359375e-01) (66, 2.01810383796691894531e+00) (42, 7.18552052974700927734e-01) (43, 2.11882188916206359863e-01) (44, -1.64758205413818359375e-01) (45, 3.49130010604858398438e+00) (46, 5.95303714275360107422e-01) (47, 3.52241933345794677734e-01) (48, 3.92373830080032348633e-01) (49, 9.68391478061676025391e-01) (50, -1.42696514725685119629e-01) (51, -2.18667700886726379395e-01) (52, -1.19250965118408203125e+00) (53, 4.54847186803817749023e-01) (54, -2.37619489431381225586e-01) (55, 8.88129174709320068359e-01) (56, 3.60050797462463378906e-01) (57, 4.72640186548233032227e-01) (58, 4.67719525098800659180e-01) (59, -4.46101464331150054932e-02) (60, 4.87081885337829589844e-01) (61, -2.35999554395675659180e-01) (62, 1.28042614459991455078e+00) (63, 1.04232706129550933838e-01) (64, 7.95035243034362792969e-01) (65, 8.95992577075958251953e-01) (66, 1.86318218708038330078e+00) (42, 9.50717210769653320312e-01) (43, 1.77025914192199707031e-01) (44, -7.89636895060539245605e-02) (45, 2.68068552017211914062e-01) (46, 2.49820321798324584961e-01) (47, 1.13745488226413726807e-01) (48, -3.94778735935688018799e-02) (49, 1.00627756118774414062e+00) (50, 6.82874396443367004395e-02) (51, 4.06482219696044921875e-01) (52, -5.34918308258056640625e-01) (53, 2.48760551214218139648e-01) (54, 5.36106407642364501953e-01) (55, 8.74330580234527587891e-01) (56, 4.03373271226882934570e-01) (57, 1.67068079113960266113e-01) (58, 8.34120735526084899902e-02) (59, 2.30649501085281372070e-01) (60, 1.92590504884719848633e-01) (61, 1.17999684810638427734e+00) (62, 1.02937328815460205078e+00) (63, 1.29294589161872863770e-01) (64, 9.00294303894042968750e-01) (65, 8.08092951774597167969e-01) (66, 1.41700851917266845703e+00) (42, 3.29595148563385009766e-01) (43, 5.43993473052978515625e-01) (44, 7.90335774421691894531e-01) (45, 2.08608910441398620605e-01) (46, 5.80685019493103027344e-01) (47, 8.63361716270446777344e-01) (48, 1.22510728836059570312e+01) (49, 7.32384264469146728516e-01) (50, 9.87760245800018310547e-01) (51, 1.22156810760498046875e+00) (52, 7.87569165229797363281e-01) (53, 2.50988215208053588867e-01) (54, 9.98056948184967041016e-01) (55, 5.99868297576904296875e-02) (56, 2.79641211032867431641e-01) (57, 1.76031589508056640625e-01) (58, 8.60118448734283447266e-01) (59, 1.23177671432495117188e+00) (60, 3.92156243324279785156e-01) (61, 4.30981636047363281250e-01) (62, 2.79386192560195922852e-01) (63, 1.09556508064270019531e+00) (64, -2.85529166460037231445e-01) (65, 7.98915982246398925781e-01) (66, -1.61340981721878051758e-01) (42, 8.04337322711944580078e-01) (43, 3.50180029869079589844e-01) (44, 4.28269833326339721680e-01) (45, 9.59119081497192382812e-01) (46, -1.27176135778427124023e-01) (47, 1.78864374756813049316e-01) (48, 6.38090491294860839844e-01) (49, 1.50134634971618652344e+00) (50, -7.64236927032470703125e-01) (51, 5.92497169971466064453e-01) (52, 9.78832244873046875000e-02) (53, 1.01645433902740478516e+00) (54, 1.06566444039344787598e-01) (55, 9.28657889366149902344e-01) (56, 9.12758648395538330078e-01) (57, 4.58925127983093261719e-01) (58, 5.17807841300964355469e-01) (59, 6.29967689514160156250e-01) (60, 8.19369256496429443359e-01) (61, 1.04560434818267822266e+00) (62, 1.14453983306884765625e+00) (63, 4.00809913873672485352e-01) (64, 8.76344323158264160156e-01) (65, 1.06172287464141845703e+00) (66, 9.64558243751525878906e-01) (42, 2.57295191287994384766e-01) (43, 1.68323981761932373047e+00) (44, -1.29752591252326965332e-01) (45, 1.77446234226226806641e+00) (46, 3.30105572938919067383e-01) (47, -4.93202686309814453125e-01) (48, 5.20214378833770751953e-01) (49, 2.01461625099182128906e+00) (50, -3.49333673715591430664e-01) (51, 3.39550524950027465820e-01) (52, -1.58854317665100097656e+00) (53, 3.38570415973663330078e-01) (54, 1.14288769662380218506e-01) (55, 1.10922133922576904297e+00) (56, 8.46517562866210937500e-01) (57, 1.23329624533653259277e-01) (58, 8.93323242664337158203e-01) (59, 1.02659083902835845947e-01) (60, 3.96957427263259887695e-01) (61, 5.46893453598022460938e+00) (62, 1.59805166721343994141e+00) (63, -1.79506875574588775635e-02) (64, 5.82033634185791015625e-01) (65, 1.08158588409423828125e+00) (66, 1.80446362495422363281e+00) (42, 3.36390942335128784180e-01) (43, 6.43899917602539062500e-01) (44, 4.90637779235839843750e-01) (45, 1.94076791405677795410e-01) (46, 3.17322462797164916992e-01) (47, 1.09984904527664184570e-01) (48, 1.78591355681419372559e-01) (49, 1.00920295715332031250e+00) (50, -3.94874185323715209961e-01) (51, -5.74724823236465454102e-02) (52, 3.33143055438995361328e-01) (53, 5.89161872863769531250e-01) (54, -5.58572309091687202454e-03) (55, 7.64025628566741943359e-01) (56, 5.75751006603240966797e-01) (57, 1.51735499501228332520e-01) (58, 4.52836185693740844727e-01) (59, 2.11039528250694274902e-01) (60, 7.90971934795379638672e-01) (61, 6.98871791362762451172e-01) (62, 9.60962712764739990234e-01) (63, 8.17774474620819091797e-01) (64, 1.07503962516784667969e+00) (65, 1.07174408435821533203e+00) (66, 1.49928188323974609375e+00) (42, 5.45017600059509277344e-01) (43, 5.47900125384330749512e-02) (44, 5.56127905845642089844e-01) (45, 7.49366044998168945312e-01) (46, 2.55001276731491088867e-01) (47, 3.22458863258361816406e-01) (48, 2.56456196308135986328e-01) (49, 5.52502095699310302734e-01) (50, 8.01377892494201660156e-02) (51, -1.37630537152290344238e-01) (52, 4.76871281862258911133e-01) (53, 8.40313196182250976562e-01) (54, 1.73655912280082702637e-01) (55, 1.39963495731353759766e+00) (56, 6.86435222625732421875e-01) (57, 3.40707540512084960938e-01) (58, 5.38746714591979980469e-01) (59, 2.25659206509590148926e-01) (60, 8.92906069755554199219e-01) (61, 1.12636899948120117188e+00) (62, 1.13094270229339599609e+00) (63, 5.57044506072998046875e-01) (64, 4.69172865152359008789e-01) (65, 6.90928220748901367188e-01) (66, 9.84851181507110595703e-01) (42, -3.56633633375167846680e-01) (43, 2.91215479373931884766e-01) (44, 7.51559317111968994141e-01) (45, 2.05107259750366210938e+00) (46, 4.70540791749954223633e-01) (47, 4.37977552413940429688e-01) (48, -4.72137570381164550781e-01) (49, 3.70419099926948547363e-02) (50, 2.37724497914314270020e-01) (51, 8.64778831601142883301e-02) (52, 5.25731086730957031250e-01) (53, 2.92290627956390380859e-01) (54, 1.26489669084548950195e-01) (55, 4.15822625160217285156e-01) (56, 3.45071643590927124023e-01) (57, 9.11251306533813476562e-01) (58, 1.37974947690963745117e-01) (59, 7.13434815406799316406e-02) (60, 1.04230451583862304688e+00) (61, 5.58463275432586669922e-01) (62, 1.07107013463973999023e-01) (63, -2.27370604872703552246e-01) (64, 1.61023747920989990234e+00) (65, 5.73916733264923095703e-01) (66, 1.89474892616271972656e+00) (42, -2.09344714879989624023e-01) (43, 3.34266602993011474609e-01) (44, 2.37348362803459167480e-01) (45, 9.48316454887390136719e-01) (46, -7.63202905654907226562e-02) (47, 2.61404663324356079102e-01) (48, 7.58662402629852294922e-01) (49, 7.67490148544311523438e-01) (50, 7.29183673858642578125e-01) (51, 7.19929039478302001953e-01) (52, 8.48085284233093261719e-01) (53, 8.43285024166107177734e-01) (54, 1.40862688422203063965e-01) (55, 8.23419690132141113281e-01) (56, 3.03925752639770507812e+00) (57, 1.94071963429450988770e-01) (58, 7.22375333309173583984e-01) (59, 4.40693885087966918945e-01) (60, 2.29137986898422241211e-01) (61, 5.62922418117523193359e-01) (62, 1.02269351482391357422e+00) (63, 9.16388750076293945312e-01) (64, 4.46517646312713623047e-01) (65, 1.11686682701110839844e+00) (66, 8.22343885898590087891e-01) (42, 2.84700114279985427856e-02) (43, -3.82650084793567657471e-02) (44, 2.91898429393768310547e-01) (45, 2.86889821290969848633e-01) (46, 8.37500572204589843750e-01) (47, 4.69555795192718505859e-01) (48, 1.37433123588562011719e+00) (49, 8.13597321510314941406e-01) (50, 5.94608604907989501953e-01) (51, 5.73362410068511962891e-01) (52, 6.78310275077819824219e-01) (53, -1.57710269093513488770e-01) (54, 5.76688945293426513672e-01) (55, 3.12549710273742675781e-01) (56, 3.83853197097778320312e-01) (57, 4.23453480005264282227e-01) (58, 4.67360675334930419922e-01) (59, 9.59560573101043701172e-01) (60, 1.07275314629077911377e-01) (61, -2.19053015112876892090e-01) (62, 8.40644598007202148438e-01) (63, 5.13849377632141113281e-01) (64, 6.88549652695655822754e-02) (65, 4.32840764522552490234e-01) (66, 9.03073370456695556641e-01) (42, 9.50140535831451416016e-01) (43, 3.01061213016510009766e-01) (44, 8.83027672767639160156e-01) (45, 6.90640091896057128906e-01) (46, 1.04594612121582031250e+00) (47, 8.46232771873474121094e-01) (48, 7.94758498668670654297e-01) (49, 3.45534592866897583008e-01) (50, 5.17237603664398193359e-01) (51, 5.53722739219665527344e-01) (52, 8.17030847072601318359e-01) (53, 9.44907486438751220703e-01) (54, 5.97335040569305419922e-01) (55, 6.47716045379638671875e-01) (56, 1.06856894493103027344e+00) (57, 5.21321415901184082031e-01) (58, 1.11136090755462646484e+00) (59, 9.01166439056396484375e-01) (60, 1.46285164356231689453e+00) (61, 3.94174396991729736328e-01) (62, 4.20492917299270629883e-01) (63, 4.04430568218231201172e-01) (64, 4.26769442856311798096e-02) (65, 3.85699480772018432617e-01) (66, 1.34449768066406250000e+00) (42, 1.80402189493179321289e-01) (43, 2.36095011234283447266e-01) (44, 1.88102528452873229980e-01) (45, 2.88258075714111328125e-01) (46, 3.74893963336944580078e-01) (47, 1.04939043521881103516e+00) (48, 8.30722713470458984375e+00) (49, 2.19120576977729797363e-01) (50, 1.07538652420043945312e+00) (51, 1.01629734039306640625e+00) (52, 6.52634680271148681641e-01) (53, 7.13184595108032226562e-01) (54, 7.06026494503021240234e-01) (55, 2.55052804946899414062e-01) (56, 2.16007977724075317383e-01) (57, -1.24401293694972991943e-01) (58, 4.73221898078918457031e-01) (59, 1.17940771579742431641e+00) (60, 1.37183666229248046875e-01) (61, 6.73773169517517089844e-01) (62, 1.01634748280048370361e-01) (63, 9.19265925884246826172e-01) (64, 5.00226020812988281250e-01) (65, 7.01757892966270446777e-02) (66, 5.09144306182861328125e-01) (42, 8.75475168228149414062e-01) (43, 2.98983752727508544922e-01) (44, 7.67601311206817626953e-01) (45, 7.18179523944854736328e-01) (46, 1.20657277107238769531e+00) (47, 6.04517936706542968750e-01) (48, 1.17408549785614013672e+00) (49, 1.59660243988037109375e+00) (50, -1.71096205711364746094e-01) (51, 5.22439420223236083984e-01) (52, 1.16437859833240509033e-01) (53, 4.00757431983947753906e-01) (54, 3.22775453329086303711e-01) (55, 8.87342691421508789062e-01) (56, 6.67953073978424072266e-01) (57, -6.07619762420654296875e-01) (58, 2.63560771942138671875e-01) (59, 2.93426454067230224609e-01) (60, 9.60636198520660400391e-01) (61, 1.49830889701843261719e+00) (62, 1.42260897159576416016e+00) (63, 1.57239925861358642578e+00) (64, 7.21296191215515136719e-01) (65, 1.14785528182983398438e+00) (66, 6.31021797657012939453e-01) (42, 6.36928856372833251953e-01) (43, 6.84036791324615478516e-01) (44, -6.44249379634857177734e-01) (45, 3.00662946701049804688e+00) (46, -7.84289315342903137207e-02) (47, -2.10077539086341857910e-01) (48, 3.24312776327133178711e-01) (49, 1.21430015563964843750e+00) (50, -4.91525232791900634766e-01) (51, -8.89325737953186035156e-01) (52, -2.68711304664611816406e+00) (53, 1.50239455699920654297e+00) (54, -8.58817696571350097656e-01) (55, 1.46274614334106445312e+00) (56, -1.54253852367401123047e+00) (57, 9.43808481097221374512e-02) (58, 2.10832738876342773438e+00) (59, -1.03216159343719482422e+00) (60, 1.52061796188354492188e+00) (61, 1.68903097510337829590e-01) (62, 9.06692981719970703125e+00) (63, 4.33107465505599975586e-01) (64, 8.50427031517028808594e-01) (65, 1.62575662136077880859e+00) (66, 3.22929143905639648438e+00) (42, 9.49371099472045898438e-01) (43, 5.50160288810729980469e-01) (44, 8.07646214962005615234e-01) (45, 7.40404188632965087891e-01) (46, -1.25052011013031005859e+00) (47, 2.01799958944320678711e-01) (48, 9.55873906612396240234e-01) (49, 9.40308213233947753906e-01) (50, 4.20948266983032226562e-01) (51, 3.27727794647216796875e-01) (52, 1.03744983673095703125e+00) (53, 7.41509139537811279297e-01) (54, 3.48365902900695800781e-01) (55, 5.85693359375000000000e-01) (56, 6.40261113643646240234e-01) (57, -2.95169591903686523438e+00) (58, 5.44202685356140136719e-01) (59, 4.41553741693496704102e-01) (60, 4.14559334516525268555e-01) (61, 6.24163687229156494141e-01) (62, 5.52465260028839111328e-01) (63, 1.12828218936920166016e+00) (64, 1.05205333232879638672e+00) (65, 1.52229619026184082031e+00) (66, 3.37185889482498168945e-01) (42, -1.73633754253387451172e-01) (43, 1.73097744584083557129e-01) (44, 7.30774939060211181641e-01) (45, -3.60132128000259399414e-01) (46, 1.89512595534324645996e-01) (47, 6.82140588760375976562e-01) (48, 1.96781933307647705078e+00) (49, 1.01149559020996093750e+00) (50, 4.22996133565902709961e-01) (51, 7.83024728298187255859e-01) (52, 7.26394653320312500000e-01) (53, 1.24420113861560821533e-01) (54, 4.41824913024902343750e-01) (55, 3.61643016338348388672e-01) (56, -7.12948441505432128906e-01) (57, 2.72480934858322143555e-01) (58, -9.86576914787292480469e-01) (59, 9.94244933128356933594e-01) (60, 5.94272315502166748047e-02) (61, 2.03922688961029052734e-01) (62, 8.18129897117614746094e-01) (63, 2.24026370048522949219e+00) (64, 2.88596093654632568359e-01) (65, 1.16325569152832031250e+00) (66, 5.56114256381988525391e-01) (67, 2.91314578056335449219e+00) (68, 5.61454355716705322266e-01) (69, 6.82152211666107177734e-01) (70, 8.31646621227264404297e-01) (71, 3.89494508504867553711e-01) (72, 2.69918990135192871094e+00) (73, 8.04776430130004882812e-01) (74, 2.88903560638427734375e+01) (75, 6.90879464149475097656e-01) (76, 1.08871757984161376953e+00) (77, 4.36970621347427368164e-01) (78, 8.51817905902862548828e-01) (79, 9.51512932777404785156e-01) (80, 8.53257119655609130859e-01) (81, 7.29965150356292724609e-01) (82, 7.16881096363067626953e-01) (83, 2.18854740262031555176e-01) (84, -2.51249194145202636719e-01) (85, 2.60195207595825195312e+00) (86, 9.03262734413146972656e-01) (87, 2.80174404382705688477e-01) (88, 9.41379487514495849609e-01) (89, 2.12329134345054626465e-01) (90, 4.27826738357543945312e+00) (91, 1.10139332711696624756e-01) (67, 4.27433878183364868164e-01) (68, 1.35607361793518066406e-01) (69, 5.02692997455596923828e-01) (70, 5.58477520942687988281e-01) (71, 1.59578174352645874023e-01) (72, 1.83087065815925598145e-01) (73, 6.62416815757751464844e-02) (74, 4.78904068470001220703e-01) (75, 3.26824396848678588867e-01) (76, 8.30932021141052246094e-01) (77, 7.31841444969177246094e-01) (78, 1.47566080093383789062e-01) (79, 5.07586359977722167969e-01) (80, 3.11961680650711059570e-01) (81, -3.42250347137451171875e-01) (82, 1.23299717903137207031e+00) (83, 4.54568386077880859375e-01) (84, -6.61529362201690673828e-01) (85, 7.80113711953163146973e-02) (86, 7.00664997100830078125e-01) (87, 4.11883354187011718750e-01) (88, 5.55746257305145263672e-01) (89, 1.18244327604770660400e-01) (90, 1.23739326000213623047e+00) (91, 2.21737459301948547363e-01) (67, -8.87616947293281555176e-02) (68, -4.50619310140609741211e-01) (69, 4.49727624654769897461e-01) (70, 3.88784557580947875977e-01) (71, 1.53154577128589153290e-03) (72, 4.24230009317398071289e-01) (73, 1.17375600337982177734e+00) (74, 1.87672331929206848145e-01) (75, 9.81865108013153076172e-01) (76, -2.00785905122756958008e-01) (77, 6.57228410243988037109e-01) (78, -1.15771628916263580322e-01) (79, -3.66682149469852447510e-02) (80, -6.59037306904792785645e-02) (81, -1.71237096190452575684e-01) (82, 2.17081513255834579468e-02) (83, -2.89115369319915771484e-01) (84, 2.73451656103134155273e-01) (85, 7.05167829990386962891e-01) (86, 4.57533836364746093750e-01) (87, -1.22421458363533020020e-01) (88, 5.08703231811523437500e-01) (89, -3.55785071849822998047e-01) (90, 6.68196296691894531250e+00) (91, 4.47932362556457519531e-01) (67, 2.03502908349037170410e-01) (68, -1.26092054415494203568e-03) (69, 1.05081105232238769531e+00) (70, 1.44403493404388427734e+00) (71, 1.05691289901733398438e+00) (72, 4.34340029954910278320e-01) (73, 7.25312232971191406250e-01) (74, 6.99112472534179687500e+01) (75, 5.40088701248168945312e+00) (76, 4.88896417617797851562e+00) (77, -1.71103429794311523438e+00) (78, 1.16307508945465087891e+00) (79, 2.57542591094970703125e+01) (80, 1.16280448436737060547e+00) (81, 8.86515855789184570312e-01) (82, 6.83834195137023925781e-01) (83, 9.43830311298370361328e-01) (84, 1.57889977097511291504e-01) (85, -1.49187430739402770996e-01) (86, -9.29250001907348632812e-01) (87, 1.42763185501098632812e+00) (88, 9.83051419258117675781e-01) (89, 8.92741918563842773438e-01) (90, 2.19543620944023132324e-01) (91, 2.05896711349487304688e+00) (67, -2.11933046579360961914e-01) (68, 1.68889403343200683594e+00) (69, 5.03515124320983886719e-01) (70, 1.09590852260589599609e+00) (71, 3.20118516683578491211e-01) (72, 1.42501688003540039062e+00) (73, 5.23287892341613769531e-01) (74, 6.52874469757080078125e-01) (75, 6.66255807876586914062e+00) (76, 9.09813344478607177734e-01) (77, -5.27158021926879882812e+00) (78, 7.77919292449951171875e-01) (79, 8.74109089374542236328e-01) (80, 7.47992098331451416016e-01) (81, 4.12964105606079101562e+00) (82, 1.94255280494689941406e+00) (83, 1.23587405681610107422e+00) (84, 6.05560719966888427734e-01) (85, 5.34755468368530273438e-01) (86, -1.96849465370178222656e+00) (87, 1.24583685398101806641e+00) (88, 1.06568741798400878906e+00) (89, 4.91321474313735961914e-01) (90, -2.12297224998474121094e+00) (91, 1.54831719398498535156e+00) (67, 5.70212662220001220703e-01) (68, 6.52469336986541748047e-01) (69, 1.26445937156677246094e+00) (70, 9.44223880767822265625e-01) (71, 8.05254280567169189453e-01) (72, 2.77156901359558105469e+00) (73, 7.54252791404724121094e-01) (74, 1.23990428447723388672e+00) (75, 1.32340168952941894531e+00) (76, 1.06460094451904296875e+00) (77, -3.74013161659240722656e+00) (78, 8.10903310775756835938e-01) (79, 1.24084579944610595703e+00) (80, 1.17698597908020019531e+00) (81, 4.72629159688949584961e-01) (82, 3.04025143384933471680e-01) (83, 9.67893064022064208984e-01) (84, 4.07576173543930053711e-01) (85, 8.49543333053588867188e-01) (86, 2.08435371518135070801e-01) (87, 7.39347755908966064453e-01) (88, 8.63396406173706054688e-01) (89, 1.04711067676544189453e+00) (90, -2.90504932403564453125e+00) (91, 1.20615351200103759766e+00) (67, -1.35341221466660499573e-02) (68, 5.27389824390411376953e-01) (69, 4.61568027734756469727e-01) (70, 1.39103722572326660156e+00) (71, 8.08369576930999755859e-01) (72, 1.89799761772155761719e+00) (73, 6.97308361530303955078e-01) (74, 1.40101051330566406250e+00) (75, 1.97088062763214111328e+00) (76, 1.29093730449676513672e+00) (77, -1.31028607487678527832e-01) (78, 9.39895570278167724609e-01) (79, 7.98358619213104248047e-01) (80, 6.67763233184814453125e-01) (81, 4.94124501943588256836e-01) (82, 1.23544967174530029297e+00) (83, 2.99250274896621704102e-01) (84, 3.21478754281997680664e-01) (85, 6.81300759315490722656e-01) (86, -1.83456931263208389282e-02) (87, 1.74394339323043823242e-01) (88, 1.14371848106384277344e+00) (89, 6.73369467258453369141e-01) (90, 6.43832385540008544922e-01) (91, 9.18251514434814453125e-01) (67, 6.12617850303649902344e-01) (68, 1.93603917956352233887e-01) (69, 2.05150693655014038086e-01) (70, -2.82126367092132568359e-01) (71, 1.56553685665130615234e-02) (72, 8.37721645832061767578e-01) (73, 5.23741424083709716797e-01) (74, 7.40181827545166015625e+00) (75, 1.01846598088741302490e-01) (76, 3.06576633453369140625e+00) (77, 1.02494072914123535156e+00) (78, 1.36247232556343078613e-01) (79, 1.79069256782531738281e+00) (80, 1.37362957000732421875e-01) (81, 4.26868051290512084961e-01) (82, -1.09322130680084228516e+00) (83, 1.41418889164924621582e-01) (84, 9.61522638797760009766e-01) (85, 7.43635773658752441406e-01) (86, 9.11220073699951171875e-01) (87, 9.37228798866271972656e-02) (88, -5.06933510303497314453e-01) (89, 1.34341701865196228027e-01) (90, 3.07030868530273437500e+00) (91, 1.31854522228240966797e+00) (67, 1.55170965194702148438e+00) (68, 1.34636700153350830078e+00) (69, 1.14478683471679687500e+00) (70, 1.58474123477935791016e+00) (71, 8.61145853996276855469e-01) (72, 2.02222418785095214844e+00) (73, 4.81661736965179443359e-01) (74, 1.81750035285949707031e+00) (75, 6.40806341171264648438e+00) (76, 1.97034740447998046875e+00) (77, -1.36198389530181884766e+00) (78, 9.94491517543792724609e-01) (79, 1.90392887592315673828e+00) (80, 8.03628325462341308594e-01) (81, 1.58453321456909179688e+00) (82, 2.26790046691894531250e+00) (83, 5.53395569324493408203e-01) (84, 1.23972140252590179443e-01) (85, 1.32760024070739746094e+00) (86, -8.27843487262725830078e-01) (87, 7.67478287220001220703e-01) (88, 7.52574801445007324219e-01) (89, 9.93529021739959716797e-01) (90, 1.25452220439910888672e-01) (91, 2.82418274879455566406e+00) (67, 6.63838148117065429688e-01) (68, 1.21829450130462646484e+00) (69, 7.37684428691864013672e-01) (70, 2.63085424900054931641e-01) (71, 7.78280258178710937500e-01) (72, 6.43446326255798339844e-01) (73, 1.19398355484008789062e+00) (74, 1.36176955699920654297e+00) (75, -3.80861316807568073273e-03) (76, 6.71728312969207763672e-01) (77, 7.65864014625549316406e-01) (78, 1.02794027328491210938e+00) (79, 8.94255697727203369141e-01) (80, 5.89328348636627197266e-01) (81, 8.05284380912780761719e-02) (82, -7.34727084636688232422e-02) (83, 7.13382363319396972656e-01) (84, 6.11783802509307861328e-01) (85, 4.08391773700714111328e-01) (86, 1.97194740176200866699e-01) (87, 1.50701987743377685547e+00) (88, 2.20210820436477661133e-01) (89, 5.36419332027435302734e-01) (90, 3.06044459342956542969e+00) (91, 1.11770129203796386719e+00) (67, 5.40400171279907226562e+00) (68, 8.14731299877166748047e-01) (69, 1.01445305347442626953e+00) (70, 1.51620841026306152344e+00) (71, 2.09139123558998107910e-01) (72, 5.17714071273803710938e+00) (73, 9.49652269482612609863e-02) (74, 1.02356660366058349609e+00) (75, 5.11755084991455078125e+00) (76, 1.24025474548339843750e+02) (77, 6.93070530891418457031e-01) (78, 5.04834234714508056641e-01) (79, 3.90614624023437500000e+01) (80, 5.25781393051147460938e-01) (81, 9.14412558078765869141e-01) (82, 3.89297604560852050781e+00) (83, 9.37677979469299316406e-01) (84, -4.39824223518371582031e-01) (85, 1.98399174213409423828e+00) (86, 1.00583367049694061279e-01) (87, 5.36840260028839111328e-01) (88, 9.53859150409698486328e-01) (89, 3.98729681968688964844e-01) (90, -1.20823450386524200439e-01) (91, 1.30749440193176269531e+00) (67, 9.53438803553581237793e-02) (68, 2.82569706439971923828e-01) (69, 7.07588136196136474609e-01) (70, 1.33507990837097167969e+00) (71, 2.88144409656524658203e-01) (72, 5.36309659481048583984e-01) (73, 5.51880002021789550781e-01) (74, -8.00011456012725830078e-01) (75, 1.00814640522003173828e+00) (76, 1.02058672904968261719e+00) (77, 5.32877266407012939453e-01) (78, 3.59496623277664184570e-01) (79, 1.18537056446075439453e+00) (80, 1.25608634948730468750e+00) (81, 3.97439837455749511719e-01) (82, 2.06208753585815429688e+00) (83, 1.30539631843566894531e+00) (84, 7.17941582202911376953e-01) (85, -1.72605291008949279785e-02) (86, 3.61954122781753540039e-01) (87, -3.79426860809326171875e+00) (88, 6.05998992919921875000e-01) (89, 4.15872186422348022461e-01) (90, 1.60655602812767028809e-01) (91, 4.88485246896743774414e-01) (67, 1.53701293468475341797e+00) (68, 6.37105524539947509766e-01) (69, 2.37245991826057434082e-01) (70, 1.14604711532592773438e+00) (71, 1.13949872553348541260e-01) (72, 8.04975569248199462891e-01) (73, 4.64371331036090850830e-02) (74, 1.06507909297943115234e+00) (75, 1.25408279895782470703e+00) (76, 1.51095008850097656250e+00) (77, -3.97388994693756103516e-01) (78, 9.41844344139099121094e-01) (79, 1.65712213516235351562e+00) (80, 7.15652525424957275391e-01) (81, 6.67844414710998535156e-01) (82, 1.81635332107543945312e+00) (83, 2.69504636526107788086e-01) (84, -1.75088774412870407104e-02) (85, 1.14052462577819824219e+00) (86, 7.84265816211700439453e-01) (87, 9.02099087834358215332e-02) (88, 1.02676844596862792969e+00) (89, 4.23320680856704711914e-01) (90, -6.44237160682678222656e-01) (91, 1.69368219375610351562e+00) (67, 8.67725074291229248047e-01) (68, 7.73207902908325195312e-01) (69, 4.50422465801239013672e-01) (70, 8.59214603900909423828e-01) (71, 2.49288275837898254395e-01) (72, 6.06367588043212890625e-01) (73, 9.53830063343048095703e-01) (74, 9.09790992736816406250e-01) (75, 6.54834508895874023438e-01) (76, 1.26644802093505859375e+00) (77, 5.22408723831176757812e-01) (78, 8.98668348789215087891e-01) (79, 1.04216611385345458984e+00) (80, 7.73167133331298828125e-01) (81, 9.71389591693878173828e-01) (82, 3.15612703561782836914e-01) (83, 7.27675184607505798340e-02) (84, 1.76799297332763671875e-01) (85, 2.06591725349426269531e-01) (86, 6.16114556789398193359e-01) (87, 3.83620887994766235352e-01) (88, 2.56104409694671630859e-01) (89, 4.10545438528060913086e-01) (90, 7.63061106204986572266e-01) (91, 1.56860280036926269531e+00) (67, 6.95720970630645751953e-01) (68, 2.96286731958389282227e-01) (69, 3.93207818269729614258e-01) (70, 7.63158559799194335938e-01) (71, 9.95393991470336914062e-01) (72, 3.86739706993103027344e+00) (73, 6.43802642822265625000e-01) (74, 1.16796600818634033203e+00) (75, 1.97205018997192382812e+00) (76, 2.72774076461791992188e+00) (77, -4.56334799528121948242e-02) (78, 6.13262653350830078125e-01) (79, 1.95293402671813964844e+00) (80, 8.05685997009277343750e-01) (81, 1.16553083062171936035e-01) (82, 7.55130648612976074219e-01) (83, 4.38259690999984741211e-01) (84, -3.43890219926834106445e-01) (85, 6.06041908264160156250e-01) (86, 4.22474518418312072754e-02) (87, 2.37100049853324890137e-01) (88, 9.71130192279815673828e-01) (89, 6.08604133129119873047e-01) (90, 6.05101943016052246094e-01) (91, 1.50543975830078125000e+00) (67, 3.18600147962570190430e-01) (68, -4.30578691884875297546e-03) (69, 8.90667378902435302734e-01) (70, 9.73796308040618896484e-01) (71, 7.67133474349975585938e-01) (72, 2.72356420755386352539e-01) (73, -3.31432491540908813477e-01) (74, 1.09310603141784667969e+00) (75, 5.65218508243560791016e-01) (76, 3.60484838485717773438e-01) (77, 5.07685422897338867188e-01) (78, 1.43150150775909423828e-01) (79, 9.74695265293121337891e-01) (80, 5.23183941841125488281e-01) (81, 6.41299724578857421875e-01) (82, 1.05732882022857666016e+00) (83, 7.88676977157592773438e-01) (84, -3.06388258934020996094e-01) (85, -6.87955319881439208984e-02) (86, 4.95030591264367103577e-03) (87, 5.71545436978340148926e-02) (88, 6.32277667522430419922e-01) (89, 1.12738847732543945312e-01) (90, 2.36426806449890136719e+00) (91, 2.43501448631286621094e+00) (67, 6.70065879821777343750e-01) (68, 6.73321306705474853516e-01) (69, 5.35761475563049316406e-01) (70, 2.05999445915222167969e+00) (71, 8.26494991779327392578e-01) (72, 1.20886278152465820312e+00) (73, 2.91264951229095458984e-01) (74, 3.81866788864135742188e+00) (75, 1.31679069995880126953e+00) (76, 1.14147233963012695312e+00) (77, 4.31339025497436523438e-01) (78, 4.69107627868652343750e-01) (79, 1.24686956405639648438e+00) (80, 9.93584275245666503906e-01) (81, 1.97823739051818847656e+00) (82, 2.68060708045959472656e+00) (83, 7.49514102935791015625e-01) (84, -2.99269765615463256836e-01) (85, 1.07812094688415527344e+00) (86, -7.02662765979766845703e-02) (87, 8.18865954875946044922e-01) (88, 6.19480311870574951172e-01) (89, 8.29849183559417724609e-01) (90, -2.59764373302459716797e-01) (91, 1.79641640186309814453e+00) (67, 3.81807774305343627930e-01) (68, 1.49213159084320068359e+00) (69, 6.76757931709289550781e-01) (70, 7.02065348625183105469e-01) (71, 6.14322185516357421875e-01) (72, 3.52845400571823120117e-01) (73, -7.96676948666572570801e-02) (74, 1.01643121242523193359e+00) (75, 1.42648130655288696289e-01) (76, 5.01921653747558593750e-01) (77, 2.35259518027305603027e-01) (78, 7.75745749473571777344e-01) (79, 3.22805672883987426758e-01) (80, 9.93331015110015869141e-01) (81, 1.16512131690979003906e+00) (82, 4.16609227657318115234e-01) (83, 3.26534003019332885742e-01) (84, 1.90826561301946640015e-02) (85, 7.11375594139099121094e-01) (86, 1.37355357408523559570e-01) (87, 9.10889804363250732422e-01) (88, 4.62868094444274902344e-01) (89, 4.54158663749694824219e-01) (90, 9.23794329166412353516e-01) (91, 8.44254910945892333984e-01) (67, 4.35249030590057373047e-01) (68, 3.88332694768905639648e-01) (69, 9.17455136775970458984e-01) (70, 1.60123634338378906250e+00) (71, 4.03901726007461547852e-01) (72, 7.05062627792358398438e-01) (73, 6.76765501499176025391e-01) (74, 1.20957028865814208984e+00) (75, 4.52679008245468139648e-01) (76, 2.13119673728942871094e+00) (77, 5.50484061241149902344e-01) (78, 7.03249037265777587891e-01) (79, 1.34389114379882812500e+00) (80, 6.33674025535583496094e-01) (81, 1.10569810867309570312e+00) (82, 1.46411323547363281250e+00) (83, 6.00817859172821044922e-01) (84, 1.17443096637725830078e+00) (85, 6.99823319911956787109e-01) (86, 4.72467750310897827148e-01) (87, 1.03829562664031982422e+00) (88, 6.33549094200134277344e-01) (89, 4.98504161834716796875e-01) (90, 8.13655555248260498047e-01) (91, -4.24631834030151367188e-02) (67, 7.52575755119323730469e-01) (68, 2.19708830118179321289e-01) (69, 8.29271495342254638672e-01) (70, 3.71770024299621582031e-01) (71, 3.44043791294097900391e-01) (72, 1.84712600708007812500e+00) (73, 9.99086737632751464844e-01) (74, 1.08310496807098388672e+00) (75, 1.57924103736877441406e+00) (76, 6.94538116455078125000e-01) (77, -3.56252121925354003906e+00) (78, 8.93576323986053466797e-01) (79, 8.36767375469207763672e-01) (80, 6.09627246856689453125e-01) (81, 5.17892122268676757812e-01) (82, 6.01339876651763916016e-01) (83, 6.34663105010986328125e-01) (84, 2.82292842864990234375e-01) (85, 1.21414768695831298828e+00) (86, -3.49670276045799255371e-02) (87, 3.52234333753585815430e-01) (88, 8.30949842929840087891e-01) (89, 1.23952019214630126953e+00) (90, -3.27325892448425292969e+00) (91, 7.18191146850585937500e-01) (67, 1.42751157283782958984e+00) (68, -4.43735694885253906250e+00) (69, 1.08871889114379882812e+00) (70, 1.58856415748596191406e+00) (71, 1.00321722030639648438e+00) (72, 1.11244249343872070312e+00) (73, 6.46892488002777099609e-01) (74, 9.89735484123229980469e-01) (75, 1.71778833866119384766e+00) (76, 8.29035878181457519531e-01) (77, 6.22116851806640625000e+00) (78, 9.30926620960235595703e-01) (79, 7.41424679756164550781e-01) (80, 8.62667739391326904297e-01) (81, 7.05068111419677734375e-01) (82, 9.13624286651611328125e-01) (83, 1.33799314498901367188e+00) (84, -5.69250345230102539062e-01) (85, 1.36733222007751464844e+00) (86, 9.66544032096862792969e-01) (87, 8.45832109451293945312e-01) (88, 1.27271115779876708984e+00) (89, 1.96017587184906005859e+00) (90, -5.87651014328002929688e-01) (91, 1.11155676841735839844e+00) (67, 6.17783308029174804688e-01) (68, 1.35318422317504882812e+00) (69, 6.69703722000122070312e-01) (70, 2.44599446654319763184e-01) (71, 6.47303700447082519531e-01) (72, 8.24528872966766357422e-01) (73, 7.15681612491607666016e-01) (74, 5.10370969772338867188e-01) (75, 4.98420566320419311523e-01) (76, 1.16484057903289794922e+00) (77, 7.18027472496032714844e-01) (78, 1.16970872879028320312e+00) (79, 8.23449611663818359375e-01) (80, 9.61143910884857177734e-01) (81, 1.11610329151153564453e+00) (82, 6.01674258708953857422e-01) (83, 6.62909269332885742188e-01) (84, 4.22565907239913940430e-01) (85, 7.34425961971282958984e-01) (86, 3.63234132528305053711e-01) (87, 3.79023432731628417969e-01) (88, 6.43302798271179199219e-01) (89, 1.04264485836029052734e+00) (90, 5.93496382236480712891e-01) (91, 1.27800297737121582031e+00) (67, 6.03793621063232421875e-01) (68, 7.16998338699340820312e-01) (69, 1.25322568416595458984e+00) (70, 2.47416710853576660156e+00) (71, 9.88997697830200195312e-01) (72, 9.94694232940673828125e-01) (73, 3.04158836603164672852e-01) (74, 3.19785547256469726562e+00) (75, 1.81134426593780517578e+00) (76, 1.35742628574371337891e+00) (77, -1.19660019874572753906e+00) (78, 3.69724333286285400391e-01) (79, 8.82341957092285156250e+00) (80, 3.72128576040267944336e-01) (81, 2.99651741981506347656e-01) (82, 3.77739024162292480469e+00) (83, 1.19340658187866210938e+00) (84, 7.09869801998138427734e-01) (85, 2.38430595397949218750e+00) (86, -9.58253502845764160156e-01) (87, 8.21512997150421142578e-01) (88, 1.43144178390502929688e+00) (89, 3.11368763446807861328e-01) (90, 5.51059305667877197266e-01) (91, 1.39045119285583496094e+00) (67, 4.60741251707077026367e-01) (68, 1.14231657981872558594e+00) (69, 1.16481328010559082031e+00) (70, 1.60004138946533203125e-01) (71, 1.00216913223266601562e+00) (72, 3.61883878707885742188e-01) (73, 1.08285140991210937500e+00) (74, 1.65847516059875488281e+00) (75, 3.43685925006866455078e-01) (76, 3.75599837303161621094e+00) (77, -2.30299443006515502930e-01) (78, 7.24531650543212890625e-01) (79, 7.69751205444335937500e+01) (80, 6.96624875068664550781e-01) (81, 1.46641969680786132812e+00) (82, 4.71330463886260986328e-01) (83, 1.09488081932067871094e+00) (84, 6.70776665210723876953e-01) (85, 3.88257443904876708984e-01) (86, 7.22676813602447509766e-01) (87, 1.16433870792388916016e+00) (88, 1.43657937645912170410e-01) (89, 1.30622828006744384766e+00) (90, 2.19055581092834472656e+00) (91, 8.64561140537261962891e-01) (92, 2.68696904182434082031e-01) (93, 9.91691887378692626953e-01) (94, 7.44005560874938964844e-01) (95, 4.85490441322326660156e-01) (96, 2.48455166816711425781e-01) (97, -3.99271734058856964111e-02) (98, 3.08048367500305175781e-01) (99, 4.30147171020507812500e-01) (100, 4.94863659143447875977e-01) (101, -2.60492026805877685547e-01) (102, 9.11243677139282226562e-01) (103, 9.96592104434967041016e-01) (104, 2.98330217599868774414e-01) (105, 4.95631039142608642578e-01) (106, 1.14774847030639648438e+00) (107, 1.22331149876117706299e-01) (108, 8.92649143934249877930e-02) (109, 9.76589560508728027344e-01) (110, -5.51182746887207031250e-01) (111, 6.88358843326568603516e-01) (112, -9.22895744442939758301e-02) (113, 3.54541867971420288086e-01) (114, 6.23927831649780273438e-01) (115, 1.77042335271835327148e-01) (116, 5.95818102359771728516e-01) (92, 3.97964477539062500000e-01) (93, 4.89266186952590942383e-01) (94, -3.46521824598312377930e-01) (95, 2.00387030839920043945e-01) (96, 5.11081933975219726562e-01) (97, 3.30003172159194946289e-01) (98, 2.24310737103223800659e-02) (99, 2.25875496864318847656e-01) (100, -2.80350059270858764648e-01) (101, 1.09664964675903320312e+00) (102, 5.86825370788574218750e-01) (103, -1.96798369288444519043e-01) (104, 1.93301379680633544922e-01) (105, 3.97816747426986694336e-01) (106, 3.83603513240814208984e-01) (107, 1.24485284090042114258e-01) (108, 1.06226772069931030273e-01) (109, 6.55846059322357177734e-01) (110, 1.85597181320190429688e-01) (111, 4.37383770942687988281e-01) (112, 4.87431585788726806641e-01) (113, 8.01954746246337890625e-01) (114, 1.08050918206572532654e-02) (115, 1.30175089836120605469e+00) (116, 1.99327111244201660156e+00) (92, 7.97374367713928222656e-01) (93, 1.35525897145271301270e-01) (94, -3.25381326675415039062e+00) (95, 7.21498906612396240234e-01) (96, 6.77391409873962402344e-01) (97, 5.21786272525787353516e-01) (98, 6.16868793964385986328e-01) (99, 5.59386432170867919922e-01) (100, 7.55131781101226806641e-01) (101, 5.71772158145904541016e-01) (102, 9.45558607578277587891e-01) (103, -2.39183402061462402344e+00) (104, 8.12835693359375000000e-01) (105, 5.04014074802398681641e-01) (106, 7.75330603122711181641e-01) (107, 7.39940702915191650391e-01) (108, 7.66065776348114013672e-01) (109, 5.12394785881042480469e-01) (110, 2.66462296247482299805e-01) (111, 2.83748179674148559570e-01) (112, 7.20091342926025390625e-01) (113, 5.88839530944824218750e-01) (114, 3.34418416023254394531e-01) (115, 4.02835607528686523438e-01) (116, 1.48277282714843750000e+00) (92, 2.04762220382690429688e+00) (93, 5.53024232387542724609e-01) (94, -3.00763824462890625000e+02) (95, 1.64662528038024902344e+00) (96, 4.81116443872451782227e-01) (97, 1.15812754631042480469e+00) (98, 1.37646257877349853516e+00) (99, -1.05845987796783447266e+00) (100, 1.58793389797210693359e+00) (101, 1.32073032855987548828e+00) (102, 1.97952866554260253906e+00) (103, 4.26141834259033203125e+00) (104, 1.31675601005554199219e+00) (105, 3.10327112674713134766e-01) (106, 1.71301877498626708984e+00) (107, 6.62130296230316162109e-01) (108, 7.14997708797454833984e-01) (109, 6.15456812083721160889e-02) (110, 1.09774982929229736328e+00) (111, 8.02440345287322998047e-01) (112, 9.21912491321563720703e-01) (113, 4.35562521219253540039e-01) (114, 2.04531431198120117188e+00) (115, 2.88350462913513183594e+00) (116, 1.23168051242828369141e+00) (92, 1.12179470062255859375e+00) (93, 9.99452114105224609375e-01) (94, 6.39359741210937500000e+01) (95, 1.52744984626770019531e+00) (96, 1.72375130653381347656e+00) (97, 8.40951442718505859375e-01) (98, 1.04190063476562500000e+00) (99, 3.56375217437744140625e-01) (100, 1.32208454608917236328e+00) (101, 5.36641299724578857422e-01) (102, 1.40761232376098632812e+00) (103, 2.94062924385070800781e+00) (104, 1.32705426216125488281e+00) (105, 7.31179475784301757812e-01) (106, 1.16744971275329589844e+00) (107, 8.32172214984893798828e-01) (108, 1.15434503555297851562e+00) (109, 6.67969048023223876953e-01) (110, 1.24025022983551025391e+00) (111, 2.22763514518737792969e+00) (112, 6.04822278022766113281e-01) (113, 5.52427291870117187500e-01) (114, 1.05829966068267822266e+00) (115, 1.17183661460876464844e+00) (116, 9.86897766590118408203e-01) (92, 1.73755097389221191406e+00) (93, 2.75654464960098266602e-01) (94, -1.99713302612304687500e+02) (95, 1.65683221817016601562e+00) (96, 1.65046894550323486328e+00) (97, 1.07591605186462402344e+00) (98, 2.01205396652221679688e+00) (99, -4.20370921492576599121e-02) (100, 1.97905266284942626953e+00) (101, 9.88254427909851074219e-01) (102, 1.65378344058990478516e+00) (103, 4.56576824188232421875e+00) (104, 3.48703813552856445312e+00) (105, 4.68870580196380615234e-01) (106, 2.23861145973205566406e+00) (107, 1.09224164485931396484e+00) (108, 1.71802806854248046875e+00) (109, 9.22930061817169189453e-01) (110, 1.36039614677429199219e+00) (111, 1.18442070484161376953e+00) (112, 3.20090484619140625000e+00) (113, 8.20234239101409912109e-01) (114, 2.46252393722534179688e+00) (115, 2.02016520500183105469e+00) (116, 3.95929956436157226562e+00) (92, 3.96556913852691650391e-01) (93, 7.12233304977416992188e-01) (94, -1.17891516113281250000e+03) (95, 5.20681724548339843750e+01) (96, 4.09113258123397827148e-01) (97, 8.49193668365478515625e+00) (98, 4.96747046709060668945e-02) (99, -2.11672261357307434082e-01) (100, 5.34458696842193603516e-01) (101, -2.16389343142509460449e-01) (102, 1.73742628097534179688e+00) (103, 8.41815352439880371094e-01) (104, 5.62068939208984375000e-01) (105, 5.60015179216861724854e-02) (106, 1.88174977898597717285e-01) (107, 1.66446149349212646484e+00) (108, 1.88536584377288818359e-01) (109, -1.10139667987823486328e-01) (110, 1.58682429790496826172e+00) (111, 1.65000057220458984375e+00) (112, 4.39225971698760986328e-01) (113, -1.09455242753028869629e-01) (114, 7.73579776287078857422e-01) (115, 3.38450050354003906250e+00) (116, 1.16443431377410888672e+00) (92, 5.30592560768127441406e-01) (93, 1.51132977008819580078e+00) (94, -8.44640731811523437500e+01) (95, 1.47922134399414062500e+00) (96, 1.33411169052124023438e+00) (97, 1.54029381275177001953e+00) (98, 1.53059196472167968750e+00) (99, 2.54348009824752807617e-01) (100, 6.88727021217346191406e-01) (101, 4.40617889165878295898e-01) (102, 7.74827778339385986328e-01) (103, 2.19002838134765625000e+01) (104, 2.81858992576599121094e+00) (105, 4.42074328660964965820e-01) (106, 7.00371503829956054688e-01) (107, 1.04355156421661376953e+00) (108, 4.01372045278549194336e-01) (109, 2.81075656414031982422e-01) (110, -2.42811247706413269043e-01) (111, 7.26839184761047363281e-01) (112, 4.43221420049667358398e-01) (113, 8.76486063003540039062e-01) (114, 1.29715871810913085938e+00) (115, 7.22326040267944335938e-01) (116, 8.79603624343872070312e-01) (92, 8.71904850006103515625e-01) (93, 1.84841179847717285156e+00) (94, -3.81682662963867187500e+01) (95, 1.09453415870666503906e+00) (96, 8.68227779865264892578e-02) (97, 4.45841103792190551758e-01) (98, 1.95480132102966308594e+00) (99, 1.09794580936431884766e+00) (100, 8.34191799163818359375e-01) (101, 8.10819566249847412109e-01) (102, 5.76219081878662109375e-01) (103, 5.89070856571197509766e-01) (104, 6.85307681560516357422e-01) (105, 8.30500364303588867188e-01) (106, 5.03922820091247558594e-01) (107, 5.46351015567779541016e-01) (108, 1.14123094081878662109e+00) (109, 3.20399552583694458008e-01) (110, 3.33367913961410522461e-01) (111, -7.51198083162307739258e-02) (112, 1.36634612083435058594e+00) (113, 5.15104293823242187500e-01) (114, 1.21062350273132324219e+00) (115, 6.97230517864227294922e-01) (116, 8.66442978382110595703e-01) (92, 2.87559986114501953125e-01) (93, 6.98021352291107177734e-01) (94, 2.63296663761138916016e-01) (95, 9.30629730224609375000e-01) (96, 3.07603216171264648438e+00) (97, 2.15114593505859375000e+00) (98, 7.63728439807891845703e-01) (99, -3.94515186548233032227e-01) (100, 4.04565483331680297852e-01) (101, 2.68244326114654541016e-01) (102, 8.54272425174713134766e-01) (103, 3.58192992210388183594e+00) (104, -2.37868931144475936890e-02) (105, 1.08032500743865966797e+00) (106, 3.25663864612579345703e-01) (107, 6.85553669929504394531e-01) (108, 4.63681757450103759766e-01) (109, 9.28463220596313476562e-01) (110, 6.76347732543945312500e-01) (111, 1.87481835484504699707e-01) (112, 1.74639165401458740234e-01) (113, 7.29430675506591796875e-01) (114, 5.45274972915649414062e-01) (115, 6.89827919006347656250e-01) (116, 1.13206410408020019531e+00) (92, 6.85449838638305664062e-01) (93, 3.74494016170501708984e-01) (94, 7.13553786277770996094e-01) (95, 3.95588278770446777344e+00) (96, 2.45462432503700256348e-01) (97, 3.66905361413955688477e-01) (98, 6.66594266891479492188e-01) (99, 4.38443958759307861328e-01) (100, 1.18176722526550292969e+00) (101, 3.41339796781539916992e-01) (102, 1.01112556457519531250e+00) (103, 3.06371688842773437500e-01) (104, 3.12447637319564819336e-01) (105, 1.35139036178588867188e+00) (106, 5.83939254283905029297e-01) (107, 7.77742981910705566406e-01) (108, 