FANN_FLO_2.1
num_layers=20
learning_rate=0.700000
connection_rate=1.000000
network_type=0
learning_momentum=0.000000
training_algorithm=2
train_error_function=1
train_stop_function=1
cascade_output_change_fraction=0.010000
quickprop_decay=-0.000100
quickprop_mu=1.750000
rprop_increase_factor=1.200000
rprop_decrease_factor=0.500000
rprop_delta_min=0.000000
rprop_delta_max=50.000000
rprop_delta_zero=0.100000
cascade_output_stagnation_epochs=12
cascade_candidate_change_fraction=0.010000
cascade_candidate_stagnation_epochs=12
cascade_max_out_epochs=150
cascade_min_out_epochs=50
cascade_max_cand_epochs=150
cascade_min_cand_epochs=50
cascade_num_candidate_groups=2
bit_fail_limit=9.99999977648258209229e-03
cascade_candidate_limit=1.00000000000000000000e+03
cascade_weight_multiplier=4.00000005960464477539e-01
cascade_activation_functions_count=10
cascade_activation_functions=3 5 7 8 10 11 14 15 16 17 
cascade_activation_steepnesses_count=4
cascade_activation_steepnesses=2.50000000000000000000e-01 5.00000000000000000000e-01 7.50000000000000000000e-01 1.00000000000000000000e+00 
layer_sizes=17 25 25 25 25 25 25 25 25 25 25 25 25 25 25 25 25 25 17 9 
scale_included=0
neurons (num_inputs, activation_function, activation_steepness)=(0, 0, 0.00000000000000000000e+00) (0, 0, 0.00000000000000000000e+00) (0, 0, 0.00000000000000000000e+00) (0, 0, 0.00000000000000000000e+00) (0, 0, 0.00000000000000000000e+00) (0, 0, 0.00000000000000000000e+00) (0, 0, 0.00000000000000000000e+00) (0, 0, 0.00000000000000000000e+00) (0, 0, 0.00000000000000000000e+00) (0, 0, 0.00000000000000000000e+00) (0, 0, 0.00000000000000000000e+00) (0, 0, 0.00000000000000000000e+00) (0, 0, 0.00000000000000000000e+00) (0, 0, 0.00000000000000000000e+00) (0, 0, 0.00000000000000000000e+00) (0, 0, 0.00000000000000000000e+00) (0, 0, 0.00000000000000000000e+00) (17, 5, 1.00000000000000000000e+00) (17, 5, 1.00000000000000000000e+00) (17, 5, 1.00000000000000000000e+00) (17, 5, 1.00000000000000000000e+00) (17, 5, 1.00000000000000000000e+00) (17, 5, 1.00000000000000000000e+00) (17, 5, 1.00000000000000000000e+00) (17, 5, 1.00000000000000000000e+00) (17, 5, 1.00000000000000000000e+00) (17, 5, 1.00000000000000000000e+00) (17, 5, 1.00000000000000000000e+00) (17, 5, 1.00000000000000000000e+00) (17, 5, 1.00000000000000000000e+00) (17, 5, 1.00000000000000000000e+00) (17, 5, 1.00000000000000000000e+00) (17, 5, 1.00000000000000000000e+00) (17, 5, 1.00000000000000000000e+00) (17, 5, 1.00000000000000000000e+00) (17, 5, 1.00000000000000000000e+00) (17, 5, 1.00000000000000000000e+00) (17, 5, 1.00000000000000000000e+00) (17, 5, 1.00000000000000000000e+00) (17, 5, 1.00000000000000000000e+00) (17, 5, 1.00000000000000000000e+00) (0, 5, 1.00000000000000000000e+00) (25, 5, 1.00000000000000000000e+00) (25, 5, 1.00000000000000000000e+00) (25, 5, 1.00000000000000000000e+00) (25, 5, 1.00000000000000000000e+00) (25, 5, 1.00000000000000000000e+00) (25, 5, 1.00000000000000000000e+00) (25, 5, 1.00000000000000000000e+00) (25, 5, 1.00000000000000000000e+00) (25, 5, 1.00000000000000000000e+00) (25, 5, 1.00000000000000000000e+00) (25, 5, 1.00000000000000000000e+00) (25, 5, 1.00000000000000000000e+00) (25, 5, 1.00000000000000000000e+00) (25, 5, 1.00000000000000000000e+00) (25, 5, 1.00000000000000000000e+00) (25, 5, 1.00000000000000000000e+00) (25, 5, 1.00000000000000000000e+00) (25, 5, 1.00000000000000000000e+00) (25, 5, 1.00000000000000000000e+00) (25, 5, 1.00000000000000000000e+00) (25, 5, 1.00000000000000000000e+00) (25, 5, 1.00000000000000000000e+00) (25, 5, 1.00000000000000000000e+00) (25, 5, 1.00000000000000000000e+00) (0, 5, 1.00000000000000000000e+00) (25, 5, 1.00000000000000000000e+00) (25, 5, 1.00000000000000000000e+00) (25, 5, 1.00000000000000000000e+00) (25, 5, 1.00000000000000000000e+00) (25, 5, 1.00000000000000000000e+00) (25, 5, 1.00000000000000000000e+00) (25, 5, 1.00000000000000000000e+00) (25, 5, 1.00000000000000000000e+00) (25, 5, 1.00000000000000000000e+00) (25, 5, 1.00000000000000000000e+00) (25, 5, 1.00000000000000000000e+00) (25, 5, 1.00000000000000000000e+00) (25, 5, 1.00000000000000000000e+00) (25, 5, 1.00000000000000000000e+00) (25, 5, 1.00000000000000000000e+00) (25, 5, 1.00000000000000000000e+00) (25, 5, 1.00000000000000000000e+00) (25, 5, 1.00000000000000000000e+00) (25, 5, 1.00000000000000000000e+00) (25, 5, 1.00000000000000000000e+00) (25, 5, 1.00000000000000000000e+00) (25, 5, 1.00000000000000000000e+00) (25, 5, 1.00000000000000000000e+00) (25, 5, 1.00000000000000000000e+00) (0, 5, 1.00000000000000000000e+00) (25, 5, 1.00000000000000000000e+00) (25, 5, 1.00000000000000000000e+00) (25, 5, 1.00000000000000000000e+00) (25, 5, 1.00000000000000000000e+00) (25, 5, 1.00000000000000000000e+00) (25, 5, 1.00000000000000000000e+00) (25, 5, 1.00000000000000000000e+00) (25, 5, 1.00000000000000000000e+00) (25, 5, 1.00000000000000000000e+00) (25, 5, 1.00000000000000000000e+00) (25, 5, 1.00000000000000000000e+00) (25, 5, 1.00000000000000000000e+00) (25, 5, 1.00000000000000000000e+00) (25, 5, 1.00000000000000000000e+00) (25, 5, 1.00000000000000000000e+00) (25, 5, 1.00000000000000000000e+00) (25, 5, 1.00000000000000000000e+00) (25, 5, 1.00000000000000000000e+00) (25, 5, 1.00000000000000000000e+00) (25, 5, 1.00000000000000000000e+00) (25, 5, 1.00000000000000000000e+00) (25, 5, 1.00000000000000000000e+00) (25, 5, 1.00000000000000000000e+00) (25, 5, 1.00000000000000000000e+00) (0, 5, 1.00000000000000000000e+00) (25, 5, 1.00000000000000000000e+00) (25, 5, 1.00000000000000000000e+00) (25, 5, 1.00000000000000000000e+00) (25, 5, 1.00000000000000000000e+00) (25, 5, 1.00000000000000000000e+00) (25, 5, 1.00000000000000000000e+00) (25, 5, 1.00000000000000000000e+00) (25, 5, 1.00000000000000000000e+00) (25, 5, 1.00000000000000000000e+00) (25, 5, 1.00000000000000000000e+00) (25, 5, 1.00000000000000000000e+00) (25, 5, 1.00000000000000000000e+00) (25, 5, 1.00000000000000000000e+00) (25, 5, 1.00000000000000000000e+00) (25, 5, 1.00000000000000000000e+00) (25, 5, 1.00000000000000000000e+00) (25, 5, 1.00000000000000000000e+00) (25, 5, 1.00000000000000000000e+00) (25, 5, 1.00000000000000000000e+00) (25, 5, 1.00000000000000000000e+00) (25, 5, 1.00000000000000000000e+00) (25, 5, 1.00000000000000000000e+00) (25, 5, 1.00000000000000000000e+00) (25, 5, 1.00000000000000000000e+00) (0, 5, 1.00000000000000000000e+00) (25, 5, 1.00000000000000000000e+00) (25, 5, 1.00000000000000000000e+00) (25, 5, 1.00000000000000000000e+00) (25, 5, 1.00000000000000000000e+00) (25, 5, 1.00000000000000000000e+00) (25, 5, 1.00000000000000000000e+00) (25, 5, 1.00000000000000000000e+00) (25, 5, 1.00000000000000000000e+00) (25, 5, 1.00000000000000000000e+00) (25, 5, 1.00000000000000000000e+00) (25, 5, 1.00000000000000000000e+00) (25, 5, 1.00000000000000000000e+00) (25, 5, 1.00000000000000000000e+00) (25, 5, 1.00000000000000000000e+00) (25, 5, 1.00000000000000000000e+00) (25, 5, 1.00000000000000000000e+00) (25, 5, 1.00000000000000000000e+00) (25, 5, 1.00000000000000000000e+00) (25, 5, 1.00000000000000000000e+00) (25, 5, 1.00000000000000000000e+00) (25, 5, 1.00000000000000000000e+00) (25, 5, 1.00000000000000000000e+00) (25, 5, 1.00000000000000000000e+00) (25, 5, 1.00000000000000000000e+00) (0, 5, 1.00000000000000000000e+00) (25, 5, 1.00000000000000000000e+00) (25, 5, 1.00000000000000000000e+00) (25, 5, 1.00000000000000000000e+00) (25, 5, 1.00000000000000000000e+00) (25, 5, 1.00000000000000000000e+00) (25, 5, 1.00000000000000000000e+00) (25, 5, 1.00000000000000000000e+00) (25, 5, 1.00000000000000000000e+00) (25, 5, 1.00000000000000000000e+00) (25, 5, 1.00000000000000000000e+00) (25, 5, 1.00000000000000000000e+00) (25, 5, 1.00000000000000000000e+00) (25, 5, 1.00000000000000000000e+00) (25, 5, 1.00000000000000000000e+00) (25, 5, 1.00000000000000000000e+00) (25, 5, 1.00000000000000000000e+00) (25, 5, 1.00000000000000000000e+00) (25, 5, 1.00000000000000000000e+00) (25, 5, 1.00000000000000000000e+00) (25, 5, 1.00000000000000000000e+00) (25, 5, 1.00000000000000000000e+00) (25, 5, 1.00000000000000000000e+00) (25, 5, 1.00000000000000000000e+00) (25, 5, 1.00000000000000000000e+00) (0, 5, 1.00000000000000000000e+00) (25, 5, 1.00000000000000000000e+00) (25, 5, 1.00000000000000000000e+00) (25, 5, 1.00000000000000000000e+00) (25, 5, 1.00000000000000000000e+00) (25, 5, 1.00000000000000000000e+00) (25, 5, 1.00000000000000000000e+00) (25, 5, 1.00000000000000000000e+00) (25, 5, 1.00000000000000000000e+00) (25, 5, 1.00000000000000000000e+00) (25, 5, 1.00000000000000000000e+00) (25, 5, 1.00000000000000000000e+00) (25, 5, 1.00000000000000000000e+00) (25, 5, 1.00000000000000000000e+00) (25, 5, 1.00000000000000000000e+00) (25, 5, 1.00000000000000000000e+00) (25, 5, 1.00000000000000000000e+00) (25, 5, 1.00000000000000000000e+00) (25, 5, 1.00000000000000000000e+00) (25, 5, 1.00000000000000000000e+00) (25, 5, 1.00000000000000000000e+00) (25, 5, 1.00000000000000000000e+00) (25, 5, 1.00000000000000000000e+00) (25, 5, 1.00000000000000000000e+00) (25, 5, 1.00000000000000000000e+00) (0, 5, 1.00000000000000000000e+00) (25, 5, 1.00000000000000000000e+00) (25, 5, 1.00000000000000000000e+00) (25, 5, 1.00000000000000000000e+00) (25, 5, 1.00000000000000000000e+00) (25, 5, 1.00000000000000000000e+00) (25, 5, 1.00000000000000000000e+00) (25, 5, 1.00000000000000000000e+00) (25, 5, 1.00000000000000000000e+00) (25, 5, 1.00000000000000000000e+00) (25, 5, 1.00000000000000000000e+00) (25, 5, 1.00000000000000000000e+00) (25, 5, 1.00000000000000000000e+00) (25, 5, 1.00000000000000000000e+00) (25, 5, 1.00000000000000000000e+00) (25, 5, 1.00000000000000000000e+00) (25, 5, 1.00000000000000000000e+00) (25, 5, 1.00000000000000000000e+00) (25, 5, 1.00000000000000000000e+00) (25, 5, 1.00000000000000000000e+00) (25, 5, 1.00000000000000000000e+00) (25, 5, 1.00000000000000000000e+00) (25, 5, 1.00000000000000000000e+00) (25, 5, 1.00000000000000000000e+00) (25, 5, 1.00000000000000000000e+00) (0, 5, 1.00000000000000000000e+00) (25, 5, 1.00000000000000000000e+00) (25, 5, 1.00000000000000000000e+00) (25, 5, 1.00000000000000000000e+00) (25, 5, 1.00000000000000000000e+00) (25, 5, 1.00000000000000000000e+00) (25, 5, 1.00000000000000000000e+00) (25, 5, 1.00000000000000000000e+00) (25, 5, 1.00000000000000000000e+00) (25, 5, 1.00000000000000000000e+00) (25, 5, 1.00000000000000000000e+00) (25, 5, 1.00000000000000000000e+00) (25, 5, 1.00000000000000000000e+00) (25, 5, 1.00000000000000000000e+00) (25, 5, 1.00000000000000000000e+00) (25, 5, 1.00000000000000000000e+00) (25, 5, 1.00000000000000000000e+00) (25, 5, 1.00000000000000000000e+00) (25, 5, 1.00000000000000000000e+00) (25, 5, 1.00000000000000000000e+00) (25, 5, 1.00000000000000000000e+00) (25, 5, 1.00000000000000000000e+00) (25, 5, 1.00000000000000000000e+00) (25, 5, 1.00000000000000000000e+00) (25, 5, 1.00000000000000000000e+00) (0, 5, 1.00000000000000000000e+00) (25, 5, 1.00000000000000000000e+00) (25, 5, 1.00000000000000000000e+00) (25, 5, 1.00000000000000000000e+00) (25, 5, 1.00000000000000000000e+00) (25, 5, 1.00000000000000000000e+00) (25, 5, 1.00000000000000000000e+00) (25, 5, 1.00000000000000000000e+00) (25, 5, 1.00000000000000000000e+00) (25, 5, 1.00000000000000000000e+00) (25, 5, 1.00000000000000000000e+00) (25, 5, 1.00000000000000000000e+00) (25, 5, 1.00000000000000000000e+00) (25, 5, 1.00000000000000000000e+00) (25, 5, 1.00000000000000000000e+00) (25, 5, 1.00000000000000000000e+00) (25, 5, 1.00000000000000000000e+00) (25, 5, 1.00000000000000000000e+00) (25, 5, 1.00000000000000000000e+00) (25, 5, 1.00000000000000000000e+00) (25, 5, 1.00000000000000000000e+00) (25, 5, 1.00000000000000000000e+00) (25, 5, 1.00000000000000000000e+00) (25, 5, 1.00000000000000000000e+00) (25, 5, 1.00000000000000000000e+00) (0, 5, 1.00000000000000000000e+00) (25, 5, 1.00000000000000000000e+00) (25, 5, 1.00000000000000000000e+00) (25, 5, 1.00000000000000000000e+00) (25, 5, 1.00000000000000000000e+00) (25, 5, 1.00000000000000000000e+00) (25, 5, 1.00000000000000000000e+00) (25, 5, 1.00000000000000000000e+00) (25, 5, 1.00000000000000000000e+00) (25, 5, 1.00000000000000000000e+00) (25, 5, 1.00000000000000000000e+00) (25, 5, 1.00000000000000000000e+00) (25, 5, 1.00000000000000000000e+00) (25, 5, 1.00000000000000000000e+00) (25, 5, 1.00000000000000000000e+00) (25, 5, 1.00000000000000000000e+00) (25, 5, 1.00000000000000000000e+00) (25, 5, 1.00000000000000000000e+00) (25, 5, 1.00000000000000000000e+00) (25, 5, 1.00000000000000000000e+00) (25, 5, 1.00000000000000000000e+00) (25, 5, 1.00000000000000000000e+00) (25, 5, 1.00000000000000000000e+00) (25, 5, 1.00000000000000000000e+00) (25, 5, 1.00000000000000000000e+00) (0, 5, 1.00000000000000000000e+00) (25, 5, 1.00000000000000000000e+00) (25, 5, 1.00000000000000000000e+00) (25, 5, 1.00000000000000000000e+00) (25, 5, 1.00000000000000000000e+00) (25, 5, 1.00000000000000000000e+00) (25, 5, 1.00000000000000000000e+00) (25, 5, 1.00000000000000000000e+00) (25, 5, 1.00000000000000000000e+00) (25, 5, 1.00000000000000000000e+00) (25, 5, 1.00000000000000000000e+00) (25, 5, 1.00000000000000000000e+00) (25, 5, 1.00000000000000000000e+00) (25, 5, 1.00000000000000000000e+00) (25, 5, 1.00000000000000000000e+00) (25, 5, 1.00000000000000000000e+00) (25, 5, 1.00000000000000000000e+00) (25, 5, 1.00000000000000000000e+00) (25, 5, 1.00000000000000000000e+00) (25, 5, 1.00000000000000000000e+00) (25, 5, 1.00000000000000000000e+00) (25, 5, 1.00000000000000000000e+00) (25, 5, 1.00000000000000000000e+00) (25, 5, 1.00000000000000000000e+00) (25, 5, 1.00000000000000000000e+00) (0, 5, 1.00000000000000000000e+00) (25, 5, 1.00000000000000000000e+00) (25, 5, 1.00000000000000000000e+00) (25, 5, 1.00000000000000000000e+00) (25, 5, 1.00000000000000000000e+00) (25, 5, 1.00000000000000000000e+00) (25, 5, 1.00000000000000000000e+00) (25, 5, 1.00000000000000000000e+00) (25, 5, 1.00000000000000000000e+00) (25, 5, 1.00000000000000000000e+00) (25, 5, 1.00000000000000000000e+00) (25, 5, 1.00000000000000000000e+00) (25, 5, 1.00000000000000000000e+00) (25, 5, 1.00000000000000000000e+00) (25, 5, 1.00000000000000000000e+00) (25, 5, 1.00000000000000000000e+00) (25, 5, 1.00000000000000000000e+00) (25, 5, 1.00000000000000000000e+00) (25, 5, 1.00000000000000000000e+00) (25, 5, 1.00000000000000000000e+00) (25, 5, 1.00000000000000000000e+00) (25, 5, 1.00000000000000000000e+00) (25, 5, 1.00000000000000000000e+00) (25, 5, 1.00000000000000000000e+00) (25, 5, 1.00000000000000000000e+00) (0, 5, 1.00000000000000000000e+00) (25, 5, 1.00000000000000000000e+00) (25, 5, 1.00000000000000000000e+00) (25, 5, 1.00000000000000000000e+00) (25, 5, 1.00000000000000000000e+00) (25, 5, 1.00000000000000000000e+00) (25, 5, 1.00000000000000000000e+00) (25, 5, 1.00000000000000000000e+00) (25, 5, 1.00000000000000000000e+00) (25, 5, 1.00000000000000000000e+00) (25, 5, 1.00000000000000000000e+00) (25, 5, 1.00000000000000000000e+00) (25, 5, 1.00000000000000000000e+00) (25, 5, 1.00000000000000000000e+00) (25, 5, 1.00000000000000000000e+00) (25, 5, 1.00000000000000000000e+00) (25, 5, 1.00000000000000000000e+00) (25, 5, 1.00000000000000000000e+00) (25, 5, 1.00000000000000000000e+00) (25, 5, 1.00000000000000000000e+00) (25, 5, 1.00000000000000000000e+00) (25, 5, 1.00000000000000000000e+00) (25, 5, 1.00000000000000000000e+00) (25, 5, 1.00000000000000000000e+00) (25, 5, 1.00000000000000000000e+00) (0, 5, 1.00000000000000000000e+00) (25, 5, 1.00000000000000000000e+00) (25, 5, 1.00000000000000000000e+00) (25, 5, 1.00000000000000000000e+00) (25, 5, 1.00000000000000000000e+00) (25, 5, 1.00000000000000000000e+00) (25, 5, 1.00000000000000000000e+00) (25, 5, 1.00000000000000000000e+00) (25, 5, 1.00000000000000000000e+00) (25, 5, 1.00000000000000000000e+00) (25, 5, 1.00000000000000000000e+00) (25, 5, 1.00000000000000000000e+00) (25, 5, 1.00000000000000000000e+00) (25, 5, 1.00000000000000000000e+00) (25, 5, 1.00000000000000000000e+00) (25, 5, 1.00000000000000000000e+00) (25, 5, 1.00000000000000000000e+00) (25, 5, 1.00000000000000000000e+00) (25, 5, 1.00000000000000000000e+00) (25, 5, 1.00000000000000000000e+00) (25, 5, 1.00000000000000000000e+00) (25, 5, 1.00000000000000000000e+00) (25, 5, 1.00000000000000000000e+00) (25, 5, 1.00000000000000000000e+00) (25, 5, 1.00000000000000000000e+00) (0, 5, 1.00000000000000000000e+00) (25, 5, 1.00000000000000000000e+00) (25, 5, 1.00000000000000000000e+00) (25, 5, 1.00000000000000000000e+00) (25, 5, 1.00000000000000000000e+00) (25, 5, 1.00000000000000000000e+00) (25, 5, 1.00000000000000000000e+00) (25, 5, 1.00000000000000000000e+00) (25, 5, 1.00000000000000000000e+00) (25, 5, 1.00000000000000000000e+00) (25, 5, 1.00000000000000000000e+00) (25, 5, 1.00000000000000000000e+00) (25, 5, 1.00000000000000000000e+00) (25, 5, 1.00000000000000000000e+00) (25, 5, 1.00000000000000000000e+00) (25, 5, 1.00000000000000000000e+00) (25, 5, 1.00000000000000000000e+00) (25, 5, 1.00000000000000000000e+00) (25, 5, 1.00000000000000000000e+00) (25, 5, 1.00000000000000000000e+00) (25, 5, 1.00000000000000000000e+00) (25, 5, 1.00000000000000000000e+00) (25, 5, 1.00000000000000000000e+00) (25, 5, 1.00000000000000000000e+00) (25, 5, 1.00000000000000000000e+00) (0, 5, 1.00000000000000000000e+00) (25, 5, 1.00000000000000000000e+00) (25, 5, 1.00000000000000000000e+00) (25, 5, 1.00000000000000000000e+00) (25, 5, 1.00000000000000000000e+00) (25, 5, 1.00000000000000000000e+00) (25, 5, 1.00000000000000000000e+00) (25, 5, 1.00000000000000000000e+00) (25, 5, 1.00000000000000000000e+00) (25, 5, 1.00000000000000000000e+00) (25, 5, 1.00000000000000000000e+00) (25, 5, 1.00000000000000000000e+00) (25, 5, 1.00000000000000000000e+00) (25, 5, 1.00000000000000000000e+00) (25, 5, 1.00000000000000000000e+00) (25, 5, 1.00000000000000000000e+00) (25, 5, 1.00000000000000000000e+00) (0, 5, 1.00000000000000000000e+00) (17, 5, 1.00000000000000000000e+00) (17, 5, 1.00000000000000000000e+00) (17, 5, 1.00000000000000000000e+00) (17, 5, 1.00000000000000000000e+00) (17, 5, 1.00000000000000000000e+00) (17, 5, 1.00000000000000000000e+00) (17, 5, 1.00000000000000000000e+00) (17, 5, 1.00000000000000000000e+00) (0, 5, 1.00000000000000000000e+00) 
connections (connected_to_neuron, weight)=(0, 8.49233567714691162109e-01) (1, -1.44505381584167480469e-01) (2, 4.53575342893600463867e-01) (3, 3.97700607776641845703e-01) (4, 8.19951653480529785156e-01) (5, 1.20631538331508636475e-01) (6, 2.34479236602783203125e+00) (7, 1.46983289718627929688e+00) (8, 6.29788696765899658203e-01) (9, 1.15470504760742187500e+00) (10, 3.75990271568298339844e-01) (11, -2.16139525175094604492e-01) (12, 2.38766059279441833496e-01) (13, 2.21535876393318176270e-01) (14, 1.88253235816955566406e+00) (15, -1.09683327376842498779e-01) (16, 6.43257498741149902344e-01) (0, 1.35011446475982666016e+00) (1, 1.02408468723297119141e+00) (2, 1.32881712913513183594e+00) (3, 2.54947996139526367188e+00) (4, 3.69113415479660034180e-01) (5, -1.33896589279174804688e-01) (6, 4.38385546207427978516e-01) (7, 8.70532214641571044922e-01) (8, 5.98181486129760742188e-01) (9, 3.42185556888580322266e-01) (10, 6.23586237430572509766e-01) (11, 2.97724008560180664062e-01) (12, 9.38640534877777099609e-01) (13, 4.42211478948593139648e-01) (14, 2.20392298698425292969e+00) (15, 8.70013236999511718750e-01) (16, 3.22909951210021972656e-01) (0, 1.99459564685821533203e+00) (1, 1.15110683441162109375e+00) (2, 9.46737408638000488281e-01) (3, 6.62629187107086181641e-01) (4, 1.55861413478851318359e+00) (5, -5.75267136096954345703e-01) (6, 5.13999164104461669922e-01) (7, 1.51216959953308105469e+00) (8, 3.74567121267318725586e-01) (9, 3.56043964624404907227e-01) (10, 4.04582351446151733398e-01) (11, -3.78912687301635742188e-01) (12, -2.24252402782440185547e-01) (13, 8.23442995548248291016e-01) (14, 3.15857148170471191406e+00) (15, 1.86282610893249511719e+00) (16, 9.31329727172851562500e-01) (0, 1.50880694389343261719e+00) (1, 9.75957810878753662109e-01) (2, 1.81112813949584960938e+00) (3, -1.89582502841949462891e+00) (4, 2.46565461158752441406e+00) (5, 5.19480884075164794922e-01) (6, 1.25445175170898437500e+00) (7, -1.11754989624023437500e+00) (8, 1.33097600936889648438e+00) (9, 1.67236530780792236328e+00) (10, 4.85769182443618774414e-01) (11, 9.13889050483703613281e-01) (12, 8.39215934276580810547e-01) (13, -1.61854922771453857422e-01) (14, 1.03275060653686523438e+00) (15, -2.17670127749443054199e-02) (16, 1.16242969036102294922e+00) (0, 1.37207686901092529297e+00) (1, 1.56375741958618164062e+00) (2, 1.36337327957153320312e+00) (3, 4.99160587787628173828e-01) (4, 5.05568444728851318359e-01) (5, -6.24570250511169433594e-01) (6, 9.40531253814697265625e-01) (7, 1.55576956272125244141e+00) (8, 4.13961201906204223633e-01) (9, -2.26773992180824279785e-01) (10, 5.55550217628479003906e-01) (11, 1.56222563236951828003e-02) (12, -2.18184232711791992188e-01) (13, 1.16382405161857604980e-01) (14, 7.06828236579895019531e-01) (15, 1.78230011463165283203e+00) (16, 1.70232152938842773438e+00) (0, 1.37122964859008789062e+00) (1, 1.51594400405883789062e+00) (2, 9.96148526668548583984e-01) (3, 5.91520726680755615234e-01) (4, -8.10005217790603637695e-02) (5, -1.00151383876800537109e+00) (6, 8.49264621734619140625e-01) (7, 2.38122296333312988281e+00) (8, -1.12593807280063629150e-02) (9, -9.24828182905912399292e-03) (10, 8.95310044288635253906e-01) (11, 9.66243684291839599609e-01) (12, -6.54603719711303710938e-01) (13, 6.41533195972442626953e-01) (14, 8.45768272876739501953e-01) (15, 8.28311741352081298828e-01) (16, 2.04469823837280273438e+00) (0, 1.40866947174072265625e+00) (1, 7.06309795379638671875e-01) (2, 2.30216217041015625000e+00) (3, 4.42625403404235839844e-01) (4, 1.10861098766326904297e+00) (5, 2.73978948593139648438e-01) (6, 1.03133904933929443359e+00) (7, 2.33023905754089355469e+00) (8, 1.02543175220489501953e+00) (9, -3.37402254343032836914e-01) (10, 7.27145612239837646484e-01) (11, 9.35713648796081542969e-01) (12, 4.87325370311737060547e-01) (13, 3.82372903823852539062e+00) (14, 5.35859704017639160156e-01) (15, 2.67203187942504882812e+00) (16, 1.17779695987701416016e+00) (0, 1.42537224292755126953e+00) (1, 1.95163917541503906250e+00) (2, 1.92832982540130615234e+00) (3, 6.87728464603424072266e-01) (4, 5.16660988330841064453e-01) (5, 2.21048086881637573242e-01) (6, 3.44445526599884033203e-01) (7, 1.23591220378875732422e+00) (8, 8.18999350070953369141e-01) (9, 3.55110794305801391602e-01) (10, -1.08311902731657028198e-02) (11, 4.84987109899520874023e-01) (12, 8.66255521774291992188e-01) (13, 9.23518538475036621094e-01) (14, 5.12598335742950439453e-01) (15, 1.79043424129486083984e+00) (16, 8.89708876609802246094e-01) (0, 1.68170881271362304688e+00) (1, 1.93694257736206054688e+00) (2, 3.74090015888214111328e-01) (3, 2.20554423332214355469e+00) (4, 2.29309573769569396973e-02) (5, -7.01923727989196777344e-01) (6, 5.18925964832305908203e-01) (7, 1.36600703001022338867e-01) (8, 8.65052938461303710938e-01) (9, 3.92250537872314453125e-01) (10, 3.66836369037628173828e-01) (11, -3.46191942691802978516e-01) (12, 4.06388461589813232422e-01) (13, 2.62606048583984375000e+00) (14, 2.66872453689575195312e+00) (15, 1.23044395446777343750e+00) (16, 6.96426331996917724609e-01) (0, 8.17197620868682861328e-01) (1, 1.94827631115913391113e-01) (2, 1.05284750461578369141e+00) (3, 4.90077376365661621094e-01) (4, 6.05986952781677246094e-01) (5, 1.33334481716156005859e+00) (6, 1.16023290157318115234e+00) (7, 1.48496448993682861328e+00) (8, 5.99672317504882812500e-01) (9, 4.85547453165054321289e-01) (10, 7.21248984336853027344e-01) (11, 1.35391020774841308594e+00) (12, 1.29554629325866699219e+00) (13, 7.27367401123046875000e-01) (14, 7.18867659568786621094e-01) (15, 9.07928310334682464600e-03) (16, 3.01206499338150024414e-01) (0, 1.57900261878967285156e+00) (1, 2.01221299171447753906e+00) (2, 3.47599297761917114258e-01) (3, 1.27082097530364990234e+00) (4, 1.40758216381072998047e+00) (5, -5.05783677101135253906e-01) (6, 5.21354198455810546875e-01) (7, 1.40582072734832763672e+00) (8, 6.49393618106842041016e-01) (9, 9.35493350028991699219e-01) (10, 9.30875897407531738281e-01) (11, 1.56793549656867980957e-01) (12, 2.28496670722961425781e-01) (13, 4.05658513307571411133e-01) (14, 1.01299941539764404297e+00) (15, 1.38658392429351806641e+00) (16, 6.40288591384887695312e-01) (0, 1.90186631679534912109e+00) (1, 1.25407814979553222656e+00) (2, 3.26825404167175292969e+00) (3, 1.72575429081916809082e-01) (4, 1.15652108192443847656e+00) (5, -3.70740920305252075195e-01) (6, 6.40790522098541259766e-01) (7, 1.57417559623718261719e+00) (8, 8.49936664104461669922e-01) (9, -3.98676395416259765625e-01) (10, 6.58829510211944580078e-01) (11, 6.00219368934631347656e-01) (12, -3.96532505750656127930e-01) (13, 8.02900373935699462891e-01) (14, 7.13158547878265380859e-01) (15, 3.13657140731811523438e+00) (16, 1.71597468852996826172e+00) (0, 1.54204535484313964844e+00) (1, 1.06327581405639648438e+00) (2, 6.53506368398666381836e-02) (3, 1.08194088935852050781e+00) (4, 4.16795611381530761719e-01) (5, -5.59779822826385498047e-01) (6, 8.44806373119354248047e-01) (7, 8.18411827087402343750e-01) (8, 2.13457092642784118652e-01) (9, 6.63437366485595703125e-01) (10, 4.32025223970413208008e-01) (11, 2.35967755317687988281e-01) (12, 6.39801263809204101562e-01) (13, 6.77992522716522216797e-01) (14, 3.96541666984558105469e+00) (15, 4.90491211414337158203e-01) (16, 6.28639280796051025391e-01) (0, 9.13220763206481933594e-01) (1, 2.03448310494422912598e-01) (2, 5.65441489219665527344e-01) (3, 1.03878557682037353516e+00) (4, -6.28871396183967590332e-02) (5, 6.57976806163787841797e-01) (6, 3.23806452751159667969e+00) (7, 1.28141665458679199219e+00) (8, 1.32421922683715820312e+00) (9, 8.26042413711547851562e-01) (10, 9.10549163818359375000e-01) (11, 2.52072717994451522827e-02) (12, -7.53106996417045593262e-02) (13, 9.49279487133026123047e-01) (14, 6.30773723125457763672e-01) (15, -7.25325047969818115234e-02) (16, 3.81323367357254028320e-01) (0, 1.22857809066772460938e+00) (1, 5.41260004043579101562e-01) (2, 4.72811877727508544922e-01) (3, 1.38208007812500000000e+00) (4, 7.89458572864532470703e-01) (5, -1.00036072731018066406e+00) (6, 5.22878587245941162109e-01) (7, 9.85422849655151367188e-01) (8, 6.20781242847442626953e-01) (9, 5.53737461566925048828e-01) (10, 7.99595177173614501953e-01) (11, 1.36563405394554138184e-01) (12, 2.27448120713233947754e-01) (13, 5.90805411338806152344e-01) (14, 2.59195494651794433594e+00) (15, 1.88342392444610595703e+00) (16, 1.12058413028717041016e+00) (0, 2.06700611114501953125e+00) (1, 1.38971900939941406250e+00) (2, 1.83207452297210693359e+00) (3, 7.34122872352600097656e-01) (4, 7.03608214855194091797e-01) (5, 6.49063169956207275391e-01) (6, 3.01225244998931884766e-01) (7, 5.37254214286804199219e-01) (8, -1.95312261581420898438e-01) (9, 6.83220922946929931641e-01) (10, 2.10059583187103271484e-01) (11, 2.39059567451477050781e-01) (12, -1.28491431474685668945e-01) (13, 8.48404705524444580078e-01) (14, 7.12416231632232666016e-01) (15, 1.68690872192382812500e+00) (16, 1.82498693466186523438e+00) (0, 1.42078173160552978516e+00) (1, 1.68442690372467041016e+00) (2, 1.34671807289123535156e+00) (3, 3.06194162368774414062e+00) (4, 9.92808520793914794922e-01) (5, -1.17965424060821533203e+00) (6, 1.57086086273193359375e+00) (7, 7.88167238235473632812e-01) (8, 1.05983352661132812500e+00) (9, 4.14188534021377563477e-01) (10, 5.38587570190429687500e-01) (11, -9.76862430572509765625e-01) (12, -1.02443873882293701172e-01) (13, 4.08891391754150390625e+00) (14, 1.97820794582366943359e+00) (15, 1.54882526397705078125e+00) (16, 1.00474166870117187500e+00) (0, 9.11171674728393554688e-01) (1, 3.98455286026000976562e+00) (2, 1.05635535717010498047e+00) (3, 1.57274031639099121094e+00) (4, -3.33492612838745117188e+00) (5, -8.16693007946014404297e-01) (6, 7.72010982036590576172e-01) (7, 1.50189054012298583984e+00) (8, 9.07181799411773681641e-01) (9, 3.57748597860336303711e-01) (10, 4.72904086112976074219e-01) (11, -6.15413129329681396484e-01) (12, 7.27151751518249511719e-01) (13, 5.76484322547912597656e-01) (14, 1.21287417411804199219e+00) (15, 3.13626098632812500000e+00) (16, 9.57663804292678833008e-02) (0, 1.56373882293701171875e+00) (1, 1.98104155063629150391e+00) (2, 6.86064660549163818359e-01) (3, 3.44914942979812622070e-01) (4, -1.18880259990692138672e+00) (5, 5.29706120491027832031e-01) (6, 5.26334643363952636719e-01) (7, 1.83472013473510742188e+00) (8, 6.19847893714904785156e-01) (9, 6.05490863323211669922e-01) (10, 2.85183906555175781250e-01) (11, 2.34637022018432617188e+00) (12, 7.33476281166076660156e-01) (13, 1.35580229759216308594e+00) (14, 2.85754233598709106445e-01) (15, 1.55844378471374511719e+00) (16, 1.18173468112945556641e+00) (0, 3.65861225128173828125e+00) (1, 6.38366818428039550781e-01) (2, 2.86759018898010253906e+00) (3, 1.49221992492675781250e+00) (4, 4.54432159662246704102e-01) (5, 1.25832244753837585449e-01) (6, 8.99093896150588989258e-02) (7, 1.41239798069000244141e+00) (8, 1.18748061358928680420e-01) (9, 6.39996945858001708984e-01) (10, 4.71995592117309570312e-01) (11, 6.15924037992954254150e-02) (12, 5.89729011058807373047e-01) (13, -2.42650246620178222656e+00) (14, 2.18379449844360351562e+00) (15, 3.00329899787902832031e+00) (16, 1.14872491359710693359e+00) (0, 1.19010174274444580078e+00) (1, 8.15471291542053222656e-01) (2, 1.21420860290527343750e+00) (3, -2.06865385174751281738e-01) (4, 1.35062837600708007812e+00) (5, 7.80024766921997070312e-01) (6, 1.09436821937561035156e+00) (7, 1.26269423961639404297e+00) (8, 1.28697931766510009766e+00) (9, 4.00760501623153686523e-01) (10, 6.52446210384368896484e-01) (11, 1.09694337844848632812e+00) (12, -1.28186047077178955078e-01) (13, -3.49469095468521118164e-01) (14, 8.15936148166656494141e-01) (15, 2.83974826335906982422e-01) (16, 1.90042424201965332031e+00) (0, 1.25565016269683837891e+00) (1, 8.46548497676849365234e-01) (2, 1.20163702964782714844e+00) (3, 5.62060236930847167969e-01) (4, -2.31338977813720703125e-01) (5, -2.98429906368255615234e-01) (6, 8.60389173030853271484e-01) (7, 9.83980774879455566406e-01) (8, 2.35927045345306396484e-01) (9, 3.63722980022430419922e-01) (10, 1.17920601367950439453e+00) (11, 1.31164181232452392578e+00) (12, -7.81101942062377929688e-01) (13, 7.62828886508941650391e-01) (14, 1.35553702712059020996e-01) (15, 8.21648165583610534668e-02) (16, 1.65336871147155761719e+00) (0, 1.53512823581695556641e+00) (1, 1.58824896812438964844e+00) (2, 9.99817907810211181641e-01) (3, 6.73180222511291503906e-01) (4, 9.97623145580291748047e-01) (5, -1.53135073184967041016e+00) (6, 2.88449108600616455078e-01) (7, 1.34562277793884277344e+00) (8, 5.73704361915588378906e-01) (9, 2.41185575723648071289e-01) (10, 9.74588692188262939453e-01) (11, 7.33313798904418945312e-01) (12, -1.92954763770103454590e-01) (13, 5.78428685665130615234e-01) (14, 1.86184316873550415039e-01) (15, 2.00832366943359375000e+00) (16, 6.26074016094207763672e-01) (0, 2.13278985023498535156e+00) (1, 1.17941856384277343750e+00) (2, 1.29724055528640747070e-01) (3, 9.98133718967437744141e-01) (4, 1.02021658420562744141e+00) (5, -1.56854867935180664062e-01) (6, 7.09073007106781005859e-01) (7, 1.69249546527862548828e+00) (8, 2.82299339771270751953e-01) (9, 6.20828807353973388672e-01) (10, 5.47529458999633789062e-01) (11, 3.55119973421096801758e-01) (12, -3.79945725202560424805e-01) (13, 1.99979633092880249023e-01) (14, 7.92605698108673095703e-01) (15, 5.25618672370910644531e-01) (16, 1.85272967815399169922e+00) (17, 5.29073774814605712891e-01) (18, -9.23354998230934143066e-02) (19, -2.09216643124818801880e-02) (20, 6.52540266513824462891e-01) (21, -1.54810309410095214844e-01) (22, 7.77636840939521789551e-02) (23, 5.90558111667633056641e-01) (24, -1.69284939765930175781e-01) (25, 1.56941279768943786621e-01) (26, 7.68723189830780029297e-01) (27, 4.51362222433090209961e-01) (28, 5.92859555035829544067e-03) (29, -4.23116087913513183594e-01) (30, 1.58936655521392822266e+00) (31, 7.98716962337493896484e-01) (32, -7.58756160736083984375e-01) (33, 2.67175137996673583984e-01) (34, 4.66757386922836303711e-01) (35, 9.75739955902099609375e-01) (36, -9.82667207717895507812e-02) (37, 3.32484275102615356445e-01) (38, 8.69622945785522460938e-01) (39, 3.68206143379211425781e-01) (40, 7.54712745547294616699e-02) (41, 1.16372430324554443359e+00) (17, 1.13511919975280761719e+00) (18, -6.09832763671875000000e-01) (19, 9.88008618354797363281e-01) (20, 6.79699480533599853516e-01) (21, 5.61794221401214599609e-01) (22, 1.18474400043487548828e+00) (23, 1.74595654010772705078e-01) (24, 1.85480460524559020996e-01) (25, 8.09510767459869384766e-01) (26, -7.10106045007705688477e-02) (27, 3.34757387638092041016e-01) (28, 2.45850518345832824707e-01) (29, 3.88851076364517211914e-01) (30, 9.96819436550140380859e-01) (31, 1.15352141857147216797e+00) (32, -1.55931949615478515625e-01) (33, 3.10343533754348754883e-01) (34, -9.41271282499656081200e-05) (35, 2.42106825113296508789e-01) (36, 3.87153364717960357666e-02) (37, 1.30119311809539794922e+00) (38, 1.53856110572814941406e+00) (39, 8.81703972816467285156e-01) (40, 4.83913838863372802734e-01) (41, 1.35601246356964111328e+00) (17, 3.48375327885150909424e-02) (18, 1.60706317424774169922e+00) (19, 8.68742525577545166016e-01) (20, 3.89144748449325561523e-01) (21, 7.35880792140960693359e-01) (22, -2.09982767701148986816e-01) (23, 3.76901328563690185547e-02) (24, 6.03750884532928466797e-01) (25, 1.32359182834625244141e+00) (26, 6.17387771606445312500e-01) (27, 4.66933995485305786133e-01) (28, 6.17722392082214355469e-01) (29, 8.32536101341247558594e-01) (30, 5.57962298393249511719e-01) (31, 6.35517299175262451172e-01) (32, 2.59271383285522460938e-01) (33, 1.32227349281311035156e+00) (34, 8.20339441299438476562e-01) (35, 4.45017766952514648438e+00) (36, 1.40224790573120117188e+00) (37, 4.17796552181243896484e-01) (38, 4.52908454462885856628e-03) (39, 8.34313869476318359375e-01) (40, 1.01333320140838623047e+00) (41, -5.99509216845035552979e-02) (17, 4.69185739755630493164e-01) (18, 8.21681499481201171875e-01) (19, 1.61995685100555419922e+00) (20, 6.73171341419219970703e-01) (21, 6.78085029125213623047e-01) (22, 4.90045726299285888672e-01) (23, -1.62202643696218729019e-03) (24, 1.53206825256347656250e+00) (25, 1.44958710670471191406e+00) (26, -3.78577224910259246826e-02) (27, 1.25983655452728271484e+00) (28, 1.04379236698150634766e+00) (29, 8.97416353225708007812e-01) (30, 3.13036859035491943359e-01) (31, 1.45723021030426025391e+00) (32, 1.14840114116668701172e+00) (33, 1.00651526451110839844e+00) (34, 7.36112296581268310547e-01) (35, 2.01976850628852844238e-01) (36, 5.91073334217071533203e-01) (37, 4.42476809024810791016e-01) (38, 3.50181967020034790039e-01) (39, 4.15662467479705810547e-01) (40, 5.14552474021911621094e-01) (41, 1.25502836704254150391e+00) (17, 6.53162360191345214844e-01) (18, 1.29103910923004150391e+00) (19, 7.77984201908111572266e-01) (20, 1.96980610489845275879e-01) (21, 7.47612535953521728516e-01) (22, 6.39032840728759765625e-01) (23, 2.57060736417770385742e-01) (24, 8.80695700645446777344e-01) (25, 1.27365815639495849609e+00) (26, 1.86840847134590148926e-01) (27, 1.26425004005432128906e+00) (28, 3.30343186855316162109e-01) (29, 2.66872644424438476562e+00) (30, 1.78188812732696533203e+00) (31, 1.37496185302734375000e+00) (32, -8.66264462471008300781e-01) (33, 1.07364165782928466797e+00) (34, 1.40005064010620117188e+00) (35, 2.88058221340179443359e-01) (36, 9.69050168991088867188e-01) (37, 1.02552048861980438232e-01) (38, -2.91361331939697265625e-01) (39, 4.85547035932540893555e-01) (40, 1.15391016006469726562e+00) (41, 6.52342855930328369141e-01) (17, 5.46468913555145263672e-01) (18, 4.63922142982482910156e-01) (19, 1.01429867744445800781e+00) (20, 3.03895622491836547852e-01) (21, 9.46068882942199707031e-01) (22, 7.77290165424346923828e-01) (23, 9.05459448695182800293e-02) (24, 1.17910110950469970703e+00) (25, 8.80025506019592285156e-01) (26, 5.74785649776458740234e-01) (27, 7.42525756359100341797e-01) (28, 7.46041715145111083984e-01) (29, 4.84600365161895751953e-01) (30, 3.79958212375640869141e-01) (31, 1.01516735553741455078e+00) (32, 2.99642384052276611328e-01) (33, 5.66539168357849121094e-02) (34, 7.71791875362396240234e-01) (35, -2.60166525840759277344e-02) (36, 7.55298316478729248047e-01) (37, -4.70832854509353637695e-01) (38, 1.57486304640769958496e-01) (39, 5.44629991054534912109e-01) (40, 4.20460194349288940430e-01) (41, 4.73205298185348510742e-01) (17, 1.25571206212043762207e-01) (18, 1.21093606948852539062e+00) (19, 9.72331345081329345703e-01) (20, 3.56866329908370971680e-01) (21, 1.14702868461608886719e+00) (22, 9.54952538013458251953e-01) (23, -1.28000482916831970215e-01) (24, 8.72163534164428710938e-01) (25, 4.33793514966964721680e-01) (26, 4.84558105468750000000e-01) (27, 2.64948159456253051758e-01) (28, 6.34847044944763183594e-01) (29, 8.86306107044219970703e-01) (30, 5.72613298892974853516e-01) (31, 9.86731946468353271484e-01) (32, -1.24244594573974609375e+00) (33, 5.02421200275421142578e-01) (34, 5.36099851131439208984e-01) (35, 9.38472151756286621094e-01) (36, 2.15148663520812988281e+00) (37, 1.01583778858184814453e-01) (38, -1.02544987201690673828e+00) (39, 7.12114512920379638672e-01) (40, 5.49547970294952392578e-01) (41, 1.26537740230560302734e+00) (17, -1.25365793704986572266e-01) (18, 1.18777215480804443359e+00) (19, 8.55207800865173339844e-01) (20, 7.62290358543395996094e-01) (21, 2.67754673957824707031e+00) (22, 5.96574902534484863281e-01) (23, 7.87839472293853759766e-01) (24, 1.55138564109802246094e+00) (25, 7.97427535057067871094e-01) (26, 6.87989056110382080078e-01) (27, 1.98792910575866699219e+00) (28, 7.46218919754028320312e-01) (29, 8.28877568244934082031e-01) (30, 4.12676811218261718750e-01) (31, 1.55003404617309570312e+00) (32, 5.01649737358093261719e-01) (33, 8.77990663051605224609e-01) (34, 5.37846803665161132812e-01) (35, 5.68592071533203125000e-01) (36, 3.84827733039855957031e-01) (37, -8.45121765136718750000e+00) (38, 4.43898773193359375000e+00) (39, 9.58806991577148437500e-01) (40, 1.07130539417266845703e+00) (41, 1.42784190177917480469e+00) (17, 1.66133821010589599609e+00) (18, 8.56240987777709960938e-01) (19, 2.05198621749877929688e+00) (20, 8.11777770519256591797e-01) (21, -6.87963783740997314453e-01) (22, -5.07601141929626464844e-01) (23, 1.12138889729976654053e-01) (24, 6.15254282951354980469e-01) (25, 1.15523636341094970703e+00) (26, 5.62228858470916748047e-01) (27, 6.32404863834381103516e-01) (28, -3.84622775018215179443e-02) (29, 1.34745919704437255859e+00) (30, 2.06370544433593750000e+00) (31, 6.74285590648651123047e-01) (32, 1.42456746101379394531e+00) (33, 2.54643708467483520508e-01) (34, -7.99508094787597656250e-01) (35, -4.55453209578990936279e-02) (36, 7.72449731826782226562e-01) (37, 1.21092736721038818359e+00) (38, -2.96545654535293579102e-01) (39, -1.42051005363464355469e+00) (40, 7.52403557300567626953e-01) (41, 7.13187515735626220703e-01) (17, 6.64514005184173583984e-01) (18, 2.89504110813140869141e-01) (19, 6.25660657882690429688e-01) (20, 1.67008531093597412109e+00) (21, 1.02855682373046875000e-01) (22, -1.37898847460746765137e-01) (23, 1.18428066372871398926e-01) (24, -2.95135235786437988281e+00) (25, 9.35432195663452148438e-01) (26, 1.09757041931152343750e+00) (27, -3.47672179341316223145e-02) (28, -2.54209876060485839844e-01) (29, 5.62112450599670410156e-01) (30, 1.17251753807067871094e+00) (31, 3.90328317880630493164e-01) (32, -2.66319572925567626953e-01) (33, 6.64771020412445068359e-01) (34, 8.89866426587104797363e-02) (35, -2.34337902069091796875e+00) (36, -4.61279273033142089844e-01) (37, 1.25152432918548583984e+00) (38, 6.30937814712524414062e-01) (39, 1.31896764039993286133e-01) (40, -2.06145510077476501465e-01) (41, 7.96650052070617675781e-01) (17, -2.03938439488410949707e-01) (18, 2.51189738512039184570e-01) (19, 1.33292758464813232422e+00) (20, 9.43513631820678710938e-01) (21, 8.45902621746063232422e-01) (22, 5.42702615261077880859e-01) (23, 3.03373873233795166016e-01) (24, 8.65929424762725830078e-02) (25, 2.25012874603271484375e+00) (26, -1.15969312191009521484e+00) (27, 1.73116356134414672852e-01) (28, 1.45280110836029052734e+00) (29, 7.07915008068084716797e-01) (30, -1.83497741818428039551e-01) (31, 6.70269191265106201172e-01) (32, 1.76217317581176757812e+00) (33, 1.24277198314666748047e+00) (34, 4.99745547771453857422e-01) (35, -7.58066996932029724121e-02) (36, 7.29501903057098388672e-01) (37, 5.05862116813659667969e-01) (38, -6.95846617221832275391e-01) (39, 3.45768928527832031250e-01) (40, 8.36472332477569580078e-01) (41, 1.80131649971008300781e+00) (17, 3.47576707601547241211e-01) (18, 5.90618252754211425781e-01) (19, 6.21388554573059082031e-01) (20, 3.83333116769790649414e-01) (21, 1.00506424903869628906e+00) (22, 9.13611292839050292969e-01) (23, 1.52693819999694824219e+00) (24, 1.95843994617462158203e+00) (25, 1.23051786422729492188e+00) (26, -2.55400776863098144531e+00) (27, 6.53542935848236083984e-01) (28, 7.65506446361541748047e-01) (29, 6.09833717346191406250e-01) (30, 7.68877923488616943359e-01) (31, 1.15947008132934570312e+00) (32, 9.89459753036499023438e-01) (33, 9.16935741901397705078e-01) (34, 5.14952540397644042969e-01) (35, 4.46117252111434936523e-01) (36, 5.55275321006774902344e-01) (37, 3.28754603862762451172e-01) (38, 3.35719794034957885742e-01) (39, 1.17032682895660400391e+00) (40, 8.03082406520843505859e-01) (41, 5.34972250461578369141e-01) (17, 1.53258371353149414062e+00) (18, 3.66251081228256225586e-01) (19, 1.07473206520080566406e+00) (20, 1.10905170440673828125e+00) (21, 1.01385390758514404297e+00) (22, 1.10862040519714355469e+00) (23, 2.99153536558151245117e-01) (24, 1.55057340860366821289e-01) (25, 4.28064167499542236328e-01) (26, 2.55690157413482666016e-01) (27, 3.21545749902725219727e-01) (28, -4.87460009753704071045e-02) (29, 8.53666841983795166016e-01) (30, 1.26558887958526611328e+00) (31, 8.21148753166198730469e-01) (32, 4.84429091215133666992e-01) (33, 9.06680405139923095703e-01) (34, 8.95401597023010253906e-01) (35, 1.87504255771636962891e+00) (36, 4.13257241249084472656e-01) (37, 5.88902473449707031250e-01) (38, 1.55865919589996337891e+00) (39, 1.89250782132148742676e-01) (40, 1.04858160018920898438e+00) (41, 5.93387603759765625000e-01) (17, 5.11438369750976562500e-01) (18, 8.00694167613983154297e-01) (19, 1.36095416545867919922e+00) (20, 7.29965031147003173828e-01) (21, 5.76297104358673095703e-01) (22, 1.04184424877166748047e+00) (23, 7.66895711421966552734e-01) (24, 2.59276270866394042969e-01) (25, 1.04725039005279541016e+00) (26, 7.14527070522308349609e-01) (27, 9.81287777423858642578e-01) (28, 8.84726047515869140625e-01) (29, 1.21367597579956054688e+00) (30, 2.85405367612838745117e-01) (31, 1.51732075214385986328e+00) (32, 1.68326854705810546875e-01) (33, 1.98943972587585449219e+00) (34, 4.97307807207107543945e-01) (35, -6.77283108234405517578e-01) (36, 3.82856369018554687500e-01) (37, 6.68047249317169189453e-01) (38, 4.58671748638153076172e-01) (39, 1.02217805385589599609e+00) (40, 7.63277411460876464844e-01) (41, 1.57018423080444335938e+00) (17, -6.58908486366271972656e-01) (18, 1.56125473976135253906e+00) (19, 9.66262876987457275391e-01) (20, 4.15396809577941894531e-01) (21, 6.37499094009399414062e-01) (22, 8.36882352828979492188e-01) (23, 2.89143890142440795898e-01) (24, 8.83194804191589355469e-01) (25, 2.47060418128967285156e+00) (26, -2.83935576677322387695e-01) (27, 1.61986374855041503906e+00) (28, 1.05010986328125000000e+00) (29, 8.91883552074432373047e-01) (30, 1.04263556003570556641e+00) (31, 8.90238523483276367188e-01) (32, 6.99414014816284179688e-01) (33, 1.13262403011322021484e+00) (34, 1.05399322509765625000e+00) (35, 6.91611170768737792969e-01) (36, 2.53325796127319335938e+00) (37, 1.37739673256874084473e-01) (38, 1.31215170025825500488e-01) (39, 7.84685969352722167969e-01) (40, 1.20685696601867675781e+00) (41, -1.13291665911674499512e-01) (17, 6.35677814483642578125e-01) (18, 9.74509567022323608398e-02) (19, 1.00938224792480468750e+00) (20, 1.46345466375350952148e-01) (21, 9.58272933959960937500e-01) (22, 6.80982112884521484375e-01) (23, 6.29064440727233886719e-01) (24, -6.16209745407104492188e-01) (25, 3.19192618131637573242e-01) (26, -6.63465023040771484375e-01) (27, 4.68426167964935302734e-01) (28, 5.89860022068023681641e-01) (29, -3.81229192018508911133e-01) (30, 5.37541210651397705078e-01) (31, 8.83912742137908935547e-01) (32, 2.65119999647140502930e-01) (33, 6.48901879787445068359e-01) (34, 3.02174329757690429688e-01) (35, 6.57600685954093933105e-02) (36, 6.04551196098327636719e-01) (37, 1.25529932975769042969e+00) (38, 1.39642488956451416016e+00) (39, 6.96874380111694335938e-01) (40, 7.72947728633880615234e-01) (41, 1.97196018695831298828e+00) (17, 9.88976299762725830078e-01) (18, 9.54415440559387207031e-01) (19, 8.40220630168914794922e-01) (20, 6.37343049049377441406e-01) (21, 7.06508457660675048828e-01) (22, 5.44463753700256347656e-01) (23, 3.81738185882568359375e-01) (24, 1.31959766149520874023e-01) (25, 1.50968694686889648438e+00) (26, 2.67162561416625976562e-01) (27, 9.23152148723602294922e-01) (28, 4.06466037034988403320e-01) (29, 1.47813951969146728516e+00) (30, 1.64999008178710937500e+00) (31, 2.27735424041748046875e+00) (32, 3.62543642520904541016e-01) (33, 1.46175503730773925781e+00) (34, 1.22344744205474853516e+00) (35, 6.75450921058654785156e-01) (36, 7.65105605125427246094e-01) (37, 1.07145845890045166016e+00) (38, -1.70222148299217224121e-01) (39, 6.40219748020172119141e-01) (40, 3.70849102735519409180e-01) (41, 2.80577301979064941406e-01) (17, 5.48015475273132324219e-01) (18, 1.13920545578002929688e+00) (19, 6.11586511135101318359e-01) (20, 7.99595415592193603516e-01) (21, 5.48244059085845947266e-01) (22, 5.06143629550933837891e-01) (23, 6.09163522720336914062e-01) (24, 6.85128629207611083984e-01) (25, 1.12101805210113525391e+00) (26, 3.96955549716949462891e-01) (27, 1.17066216468811035156e+00) (28, 1.25485742092132568359e+00) (29, 1.23902297019958496094e+00) (30, 8.27358186244964599609e-01) (31, 2.11997818946838378906e+00) (32, 2.26675009727478027344e+00) (33, 2.15122246742248535156e+00) (34, 1.16499984264373779297e+00) (35, 1.65619695186614990234e+00) (36, 1.07302308082580566406e+00) (37, 2.63025254011154174805e-01) (38, 8.99280548095703125000e-01) (39, 1.01442813873291015625e+00) (40, 6.24079585075378417969e-01) (41, 1.30332362651824951172e+00) (17, 3.03377360105514526367e-01) (18, 6.07711315155029296875e-01) (19, 1.03955054283142089844e+00) (20, 5.28291642665863037109e-01) (21, 1.25831973552703857422e+00) (22, 7.68267333507537841797e-01) (23, 1.07117819786071777344e+00) (24, 8.88425946235656738281e-01) (25, 5.44796168804168701172e-01) (26, 7.98591971397399902344e-01) (27, 3.38755488395690917969e-01) (28, 6.96555912494659423828e-01) (29, 6.91420495510101318359e-01) (30, 5.18079638481140136719e-01) (31, 8.56791079044342041016e-01) (32, 3.48114728927612304688e-01) (33, 8.90934109687805175781e-01) (34, 4.22341644763946533203e-01) (35, -1.49669384956359863281e+00) (36, 1.09948992729187011719e+00) (37, -3.49918514490127563477e-01) (38, -1.61125019192695617676e-01) (39, 1.20030057430267333984e+00) (40, 6.09179437160491943359e-01) (41, 1.54891049861907958984e+00) (17, 1.06275141239166259766e+00) (18, 1.24801516532897949219e+00) (19, 9.52462494373321533203e-01) (20, 5.26229262351989746094e-01) (21, -1.74911901354789733887e-01) (22, 8.52704465389251708984e-01) (23, -8.65722775459289550781e-01) (24, 6.14892132580280303955e-02) (25, 7.19470679759979248047e-01) (26, 4.92744415998458862305e-01) (27, 1.81011125445365905762e-01) (28, 6.13984584808349609375e-01) (29, 2.12371969223022460938e+00) (30, 9.74050402641296386719e-01) (31, 6.93021059036254882812e-01) (32, -4.64579015970230102539e-02) (33, 2.92450070381164550781e-01) (34, 7.03937038779258728027e-02) (35, 1.04663379490375518799e-01) (36, 4.99064981937408447266e-01) (37, 7.61747360229492187500e-02) (38, 1.00936949253082275391e-01) (39, 6.72400044277310371399e-03) (40, 6.19688272476196289062e-01) (41, 7.51701056957244873047e-01) (17, 4.30630087852478027344e-01) (18, 6.35536909103393554688e-01) (19, 5.73713481426239013672e-01) (20, 1.01145076751708984375e+00) (21, 9.46367755532264709473e-02) (22, 1.40464752912521362305e-02) (23, 6.62262618541717529297e-01) (24, 3.07885378599166870117e-01) (25, 6.63104295730590820312e-01) (26, 1.37070798873901367188e+00) (27, 9.77812588214874267578e-01) (28, -2.65164554119110107422e-01) (29, 3.41017186641693115234e-01) (30, 1.36810863018035888672e+00) (31, 9.55506026744842529297e-01) (32, 2.09719523787498474121e-01) (33, 1.04356110095977783203e+00) (34, 4.49541717767715454102e-01) (35, 5.23446261882781982422e-01) (36, 3.79793584346771240234e-01) (37, -4.29401129484176635742e-01) (38, 4.28523600101470947266e-01) (39, 7.32530415058135986328e-01) (40, 5.23902356624603271484e-01) (41, 5.73780126869678497314e-02) (17, 1.74332827329635620117e-01) (18, -5.69330044090747833252e-02) (19, 5.48602759838104248047e-01) (20, -7.36067816615104675293e-02) (21, 8.80445361137390136719e-01) (22, 4.54817652702331542969e-01) (23, 1.14985275268554687500e+00) (24, 3.83472084999084472656e+00) (25, 4.23759728670120239258e-01) (26, 6.70938789844512939453e-01) (27, 1.00540876388549804688e+00) (28, 1.14101803302764892578e+00) (29, -1.84429138898849487305e-02) (30, -7.53663927316665649414e-02) (31, 5.53210496902465820312e-01) (32, -8.55211541056632995605e-02) (33, 2.69470363855361938477e-01) (34, 5.67575395107269287109e-01) (35, 6.93687438964843750000e-01) (36, 7.51222610473632812500e-01) (37, -4.80524957180023193359e-01) (38, 5.65038084983825683594e-01) (39, 8.69406342506408691406e-01) (40, 6.77663385868072509766e-01) (41, -7.21609666943550109863e-02) (17, 5.26848137378692626953e-01) (18, 1.52976736426353454590e-01) (19, 6.56742274761199951172e-01) (20, 9.03793334960937500000e-01) (21, 3.48254591226577758789e-01) (22, 2.41514399647712707520e-01) (23, 2.16167986392974853516e-01) (24, 3.46653997898101806641e-01) (25, 5.93577742576599121094e-01) (26, 7.68844544887542724609e-01) (27, 1.90568834543228149414e-01) (28, 1.25694617629051208496e-01) (29, 7.90569007396697998047e-01) (30, 6.96773350238800048828e-01) (31, -2.43551313877105712891e-01) (32, 6.96466803550720214844e-01) (33, 5.26805400848388671875e-01) (34, 2.04799324274063110352e-01) (35, 4.18300002813339233398e-01) (36, 5.55029511451721191406e-01) (37, 5.02152502536773681641e-01) (38, 5.07775962352752685547e-01) (39, 6.93856701254844665527e-02) (40, 6.65870845317840576172e-01) (41, 1.90269660949707031250e+00) (17, 4.86546754837036132812e-01) (18, -6.74688592553138732910e-02) (19, 8.96973848342895507812e-01) (20, 3.74684453010559082031e-01) (21, 1.05716025829315185547e+00) (22, 1.41683042049407958984e+00) (23, 5.40658473968505859375e-01) (24, -2.62645840644836425781e-01) (25, 4.23123538494110107422e-01) (26, -3.92797738313674926758e-02) (27, 6.28514289855957031250e-01) (28, 1.79937615990638732910e-01) (29, 1.12491503357887268066e-01) (30, 2.83373296260833740234e-01) (31, 9.34969246387481689453e-01) (32, 1.00111499428749084473e-01) (33, 2.15288400650024414062e-01) (34, 4.84876893460750579834e-02) (35, 2.58990556001663208008e-01) (36, -3.54283660650253295898e-01) (37, 4.31203931570053100586e-01) (38, 1.15941488742828369141e+00) (39, 5.54969429969787597656e-01) (40, 3.55830907821655273438e-01) (41, 2.09800314903259277344e+00) (42, 1.62820601463317871094e+00) (43, 1.03399765491485595703e+00) (44, 7.74067699909210205078e-01) (45, 7.29131937026977539062e-01) (46, 7.83652544021606445312e-01) (47, 1.11935782432556152344e+00) (48, 8.12207877635955810547e-01) (49, 9.77051079273223876953e-01) (50, 8.65875005722045898438e-01) (51, 8.02052795886993408203e-01) (52, 5.73920369148254394531e-01) (53, 3.71045410633087158203e-01) (54, 3.41930598020553588867e-01) (55, 9.05015826225280761719e-01) (56, 1.10426175594329833984e+00) (57, 5.52516996860504150391e-01) (58, 1.03877425193786621094e+00) (59, 6.95939004421234130859e-01) (60, 8.54413628578186035156e-01) (61, 7.28506028652191162109e-01) (62, 1.22623217105865478516e+00) (63, 2.02418875694274902344e+00) (64, 1.62012124061584472656e+00) (65, 1.03226006031036376953e+00) (66, 8.24295759201049804688e-01) (42, 9.29433643817901611328e-01) (43, 3.10397088527679443359e-01) (44, -8.88041973114013671875e-01) (45, -4.65137422084808349609e-01) (46, -6.28307700157165527344e-01) (47, 2.33869567513465881348e-01) (48, -1.50357231497764587402e-01) (49, 4.25248891115188598633e-01) (50, -1.35287409648299217224e-02) (51, -8.20751428604125976562e-01) (52, -4.10708039999008178711e-01) (53, -2.30077341198921203613e-01) (54, -1.79294452071189880371e-01) (55, -1.04533759877085685730e-02) (56, -5.97475409507751464844e-01) (57, 4.31812778115272521973e-02) (58, -2.99603193998336791992e-01) (59, -4.93033587932586669922e-01) (60, 7.26225674152374267578e-02) (61, -6.13206326961517333984e-02) (62, 6.82682812213897705078e-01) (63, 1.21422886848449707031e-01) (64, -4.59859609603881835938e-01) (65, 6.14662468433380126953e-01) (66, 1.28816521167755126953e+00) (42, 8.35403382778167724609e-01) (43, 7.40326195955276489258e-02) (44, 2.22488552331924438477e-01) (45, 5.33304452896118164062e-01) (46, 5.53383708000183105469e-01) (47, 7.00782358646392822266e-01) (48, 3.56299914419651031494e-02) (49, 4.05880510807037353516e-01) (50, 6.76320612430572509766e-01) (51, 5.11766910552978515625e-01) (52, 7.99630582332611083984e-01) (53, 8.43947827816009521484e-01) (54, 1.13560684025287628174e-01) (55, 1.01994478702545166016e+00) (56, 3.63430261611938476562e-01) (57, 4.57645028829574584961e-01) (58, 6.62715435028076171875e-01) (59, 2.23093688488006591797e-01) (60, 3.39820921421051025391e-01) (61, 4.38677042722702026367e-01) (62, 3.59721362590789794922e-01) (63, 8.09332132339477539062e-01) (64, 1.79605171084403991699e-01) (65, 7.61581182479858398438e-01) (66, 7.06093311309814453125e-01) (42, 1.11388611793518066406e+00) (43, 9.14525985717773437500e-01) (44, 2.49681368470191955566e-01) (45, 2.59677231311798095703e-01) (46, 3.15988570451736450195e-01) (47, 2.97326982021331787109e-01) (48, 1.39936223626136779785e-01) (49, 4.71824884414672851562e-01) (50, 4.14301872253417968750e-01) (51, -6.72265514731407165527e-02) (52, 3.66163849830627441406e-01) (53, -1.20131194591522216797e-01) (54, 4.24703270196914672852e-01) (55, 4.67641621828079223633e-01) (56, 3.02948087453842163086e-01) (57, 1.35691535472869873047e+00) (58, 3.92322003841400146484e-01) (59, 4.31617707014083862305e-01) (60, 6.12494766712188720703e-01) (61, 4.70398813486099243164e-01) (62, 9.46332216262817382812e-01) (63, 1.08512282371520996094e+00) (64, 1.28136083483695983887e-01) (65, 7.36119568347930908203e-01) (66, 1.13498711585998535156e+00) (42, 1.26333379745483398438e+00) (43, 7.63972878456115722656e-01) (44, -3.70023131370544433594e-01) (45, -5.40346086025238037109e-01) (46, -2.75746345520019531250e-01) (47, 6.51680350303649902344e-01) (48, 8.26665163040161132812e-01) (49, 2.23203808069229125977e-01) (50, -2.00862139463424682617e-01) (51, -1.67582237720489501953e+00) (52, 4.31386120617389678955e-02) (53, 1.53732284903526306152e-01) (54, -3.22260558605194091797e-02) (55, 3.41497957706451416016e-01) (56, 5.07362663745880126953e-01) (57, 1.87267050147056579590e-01) (58, -2.26573094725608825684e-01) (59, 3.77131849527359008789e-02) (60, 8.07609260082244873047e-01) (61, 2.09686651825904846191e-01) (62, -4.48028028011322021484e-01) (63, 9.74138617515563964844e-01) (64, -6.08356356620788574219e-01) (65, 6.85990035533905029297e-01) (66, 1.27830255031585693359e+00) (42, 7.18704238533973693848e-03) (43, -8.26451405882835388184e-02) (44, 6.70089274644851684570e-02) (45, -1.38877570629119873047e-01) (46, -2.71539911627769470215e-02) (47, 4.09831225872039794922e-01) (48, 5.26529312133789062500e-01) (49, -5.38496561348438262939e-02) (50, 9.99442458152770996094e-01) (51, 8.84953796863555908203e-01) (52, 1.18019282817840576172e+00) (53, 3.97482603788375854492e-01) (54, -1.54210269451141357422e-01) (55, 3.59260499477386474609e-01) (56, 1.84216111898422241211e-01) (57, 4.04748558998107910156e-01) (58, 1.46938204765319824219e-01) (59, 5.20171150565147399902e-02) (60, -1.88138276338577270508e-01) (61, 3.71979922056198120117e-01) (62, 2.85333156585693359375e-01) (63, 2.07440197467803955078e-01) (64, 4.23874109983444213867e-01) (65, 3.71461093425750732422e-01) (66, 7.34628975391387939453e-01) (42, 6.76945209503173828125e-01) (43, -5.00407874584197998047e-01) (44, -1.17429025471210479736e-01) (45, -2.53207772970199584961e-01) (46, -3.43190789222717285156e-01) (47, 5.85021317005157470703e-01) (48, -4.36739176511764526367e-02) (49, 7.83766806125640869141e-01) (50, 1.09816752374172210693e-01) (51, 5.89058995246887207031e-01) (52, 2.00360253453254699707e-01) (53, 4.06966537237167358398e-01) (54, 2.69131362438201904297e-01) (55, 1.30914196372032165527e-01) (56, 6.50219261646270751953e-01) (57, -6.50287449359893798828e-01) (58, 5.73307037353515625000e-01) (59, 6.54610812664031982422e-01) (60, 6.61910533905029296875e-01) (61, -3.58738601207733154297e-01) (62, 9.08097624778747558594e-01) (63, 4.85960930585861206055e-01) (64, -6.40647336840629577637e-02) (65, 4.75060552358627319336e-01) (66, 9.93337750434875488281e-01) (42, -1.77579358220100402832e-01) (43, 1.56248500570654869080e-02) (44, -6.82946026325225830078e-01) (45, 4.82775300741195678711e-01) (46, -1.92168682813644409180e-01) (47, 1.70454397797584533691e-01) (48, -2.65580099076032638550e-02) (49, 3.90104353427886962891e-01) (50, 5.51037132740020751953e-01) (51, -2.88658309727907180786e-02) (52, 6.93970143795013427734e-01) (53, 6.08389489352703094482e-02) (54, -5.80364512279629707336e-03) (55, 8.05426239967346191406e-01) (56, 2.98965126276016235352e-01) (57, 4.64474171400070190430e-01) (58, 4.64419603347778320312e-01) (59, 1.78942739963531494141e-01) (60, 4.87538069486618041992e-01) (61, -8.17442357540130615234e-01) (62, -2.52396851778030395508e-01) (63, 2.75287389755249023438e-01) (64, 9.23029959201812744141e-01) (65, 1.08118915557861328125e+00) (66, 7.48307883739471435547e-01) (42, 6.14807307720184326172e-01) (43, 3.27371209859848022461e-02) (44, 5.49146413803100585938e-01) (45, 4.19337928295135498047e-01) (46, 3.62658768892288208008e-01) (47, 5.64936518669128417969e-01) (48, 6.71180665493011474609e-01) (49, 9.16395127773284912109e-01) (50, 5.72866082191467285156e-01) (51, -3.17914009094238281250e-01) (52, 5.22424697875976562500e-01) (53, 1.35225743055343627930e-01) (54, 5.92732489109039306641e-01) (55, 4.30090337991714477539e-01) (56, 2.31468915939331054688e-01) (57, 5.13366997241973876953e-01) (58, 1.01514256000518798828e+00) (59, 8.66036415100097656250e-01) (60, 8.25631260871887207031e-01) (61, 7.36681222915649414062e-01) (62, 8.40974092483520507812e-01) (63, 1.31236755847930908203e+00) (64, 9.25757408142089843750e-01) (65, -3.28114002943038940430e-01) (66, -8.99365395307540893555e-02) (42, 5.41999757289886474609e-01) (43, -2.58557707071304321289e-01) (44, 4.37318593263626098633e-01) (45, 2.92229533195495605469e-01) (46, 7.85144209861755371094e-01) (47, 4.15848135948181152344e-01) (48, 4.12022322416305541992e-01) (49, 3.23011010885238647461e-01) (50, 1.57219874858856201172e+00) (51, 5.56124329566955566406e-01) (52, 5.59214830398559570312e-01) (53, 8.99470448493957519531e-01) (54, 9.18637365102767944336e-02) (55, 4.47204381227493286133e-01) (56, 8.69478702545166015625e-01) (57, -6.85397386550903320312e-01) (58, 5.39397716522216796875e-01) (59, 1.12400841712951660156e+00) (60, 1.69269800186157226562e-01) (61, 3.68510454893112182617e-01) (62, 8.44764113426208496094e-01) (63, 1.74302947521209716797e+00) (64, -6.47478461265563964844e-01) (65, 3.84884178638458251953e-01) (66, 7.37723231315612792969e-01) (42, 5.29406545683741569519e-03) (43, -9.16662625968456268311e-03) (44, 3.06011110544204711914e-01) (45, 8.90904515981674194336e-02) (46, -2.37606048583984375000e-01) (47, 8.21501296013593673706e-03) (48, -5.35107374191284179688e-01) (49, 1.75928443670272827148e-01) (50, 3.55837401002645492554e-03) (51, 1.80682408809661865234e+00) (52, 1.86566188931465148926e-01) (53, -3.78940999507904052734e-01) (54, 1.41649127006530761719e-01) (55, -1.80297285318374633789e-01) (56, -2.06448629498481750488e-01) (57, -8.78368876874446868896e-03) (58, 1.91905379295349121094e-01) (59, 1.92226603627204895020e-01) (60, -3.00199151039123535156e-01) (61, 4.20056516304612159729e-03) (62, 2.09109440445899963379e-01) (63, 2.78329819440841674805e-01) (64, 3.20726245641708374023e-01) (65, 2.64366060495376586914e-01) (66, 1.63932430744171142578e+00) (42, 1.14665412902832031250e+00) (43, 7.25139975547790527344e-01) (44, 6.38720631599426269531e-01) (45, 8.20218920707702636719e-01) (46, 2.65763968229293823242e-01) (47, 8.41648697853088378906e-01) (48, 6.52251541614532470703e-01) (49, 8.99687707424163818359e-01) (50, 9.30004119873046875000e-02) (51, 3.45977008342742919922e-01) (52, 1.03201603889465332031e+00) (53, 8.20962667465209960938e-01) (54, 5.42722046375274658203e-01) (55, 9.13508474826812744141e-01) (56, 8.65047454833984375000e-01) (57, 1.17739880084991455078e+00) (58, 8.56829643249511718750e-01) (59, 5.94159364700317382812e-01) (60, 1.03410732746124267578e+00) (61, 5.20278036594390869141e-01) (62, 7.91034281253814697266e-01) (63, 8.94320607185363769531e-01) (64, 2.72332876920700073242e-01) (65, 2.88858562707901000977e-01) (66, 1.44104623794555664062e+00) (42, 6.20828449726104736328e-01) (43, 5.84183454513549804688e-01) (44, 4.91702735424041748047e-01) (45, 4.12311077117919921875e-01) (46, 9.80018913745880126953e-01) (47, 5.15498995780944824219e-01) (48, 1.09147989749908447266e+00) (49, -1.75514474511146545410e-01) (50, 8.79148602485656738281e-01) (51, 8.56100916862487792969e-02) (52, 3.51104855537414550781e-01) (53, 5.00978767871856689453e-01) (54, 8.17367672920227050781e-01) (55, 5.84534287452697753906e-01) (56, 7.33564257621765136719e-01) (57, 4.73493099212646484375e-01) (58, 6.79594039916992187500e-01) (59, 4.07362610101699829102e-01) (60, -4.37849044799804687500e-01) (61, 6.92913234233856201172e-01) (62, 4.38113957643508911133e-01) (63, 4.79344785213470458984e-01) (64, -6.53575360774993896484e-02) (65, 4.57167357206344604492e-01) (66, 1.27008271217346191406e+00) (42, 6.03699207305908203125e-01) (43, 4.46952044963836669922e-01) (44, 7.51663982868194580078e-01) (45, 3.69408011436462402344e-01) (46, 9.18825328350067138672e-01) (47, 9.61493015289306640625e-01) (48, 3.51512670516967773438e+00) (49, 4.74554389715194702148e-01) (50, 1.86393988132476806641e+00) (51, 3.75576704740524291992e-01) (52, 3.29199731349945068359e-01) (53, 9.49775397777557373047e-01) (54, 2.54069268703460693359e-01) (55, 4.45599526166915893555e-01) (56, 1.44675827026367187500e+00) (57, -2.95513153076171875000e-01) (58, 1.21779406070709228516e+00) (59, 8.84258866310119628906e-01) (60, 6.01973950862884521484e-01) (61, 1.09043347835540771484e+00) (62, 6.86191499233245849609e-01) (63, 3.88317078351974487305e-01) (64, 7.43534743785858154297e-01) (65, 5.76352655887603759766e-01) (66, -1.43467947840690612793e-01) (42, 2.68475461006164550781e+00) (43, 1.68298590183258056641e+00) (44, 9.27740275859832763672e-01) (45, 1.29687500000000000000e+00) (46, 1.07278740406036376953e+00) (47, 1.27593684196472167969e+00) (48, 8.11714768409729003906e-01) (49, 1.36769664287567138672e+00) (50, 1.20346152782440185547e+00) (51, -6.36918258666992187500e+00) (52, 1.23478853702545166016e+00) (53, 2.03890848159790039062e+00) (54, 1.20765447616577148438e+00) (55, 1.67424261569976806641e+00) (56, 8.22221338748931884766e-01) (57, 2.05754375457763671875e+00) (58, 1.06328713893890380859e+00) (59, 2.02033424377441406250e+00) (60, 1.74070668220520019531e+00) (61, 1.06181848049163818359e+00) (62, 1.29679834842681884766e+00) (63, 1.27409744262695312500e+00) (64, 8.13858091831207275391e-01) (65, 9.19774472713470458984e-01) (66, 1.40907144546508789062e+00) (42, 8.84854018688201904297e-01) (43, 9.09143149852752685547e-01) (44, 8.96140813827514648438e-01) (45, 7.64759898185729980469e-01) (46, 9.88648653030395507812e-01) (47, 4.82483774423599243164e-01) (48, 1.10043239593505859375e+00) (49, 7.83832430839538574219e-01) (50, 7.58162856101989746094e-01) (51, 2.59443193674087524414e-01) (52, 5.51258862018585205078e-01) (53, 1.22330522537231445312e+00) (54, 1.03905856609344482422e+00) (55, 1.24327981472015380859e+00) (56, 1.77566301822662353516e+00) (57, 6.04383945465087890625e-01) (58, 8.28399777412414550781e-01) (59, 1.38792717456817626953e+00) (60, 1.03212726116180419922e+00) (61, 8.27233433723449707031e-01) (62, 5.81703841686248779297e-01) (63, 7.58023381233215332031e-01) (64, 8.12275290489196777344e-01) (65, 9.37245845794677734375e-01) (66, 6.71966493129730224609e-01) (42, 6.92348539829254150391e-01) (43, 1.60342299938201904297e+00) (44, 9.34946686029434204102e-02) (45, 1.66059613227844238281e-01) (46, -1.79912745952606201172e-01) (47, 1.70978620648384094238e-01) (48, 8.47332328557968139648e-02) (49, 4.67516183853149414062e-01) (50, -3.46819788217544555664e-01) (51, 1.03308796882629394531e+00) (52, 5.84383904933929443359e-01) (53, 4.42828238010406494141e-02) (54, 8.87626111507415771484e-01) (55, 4.82653260231018066406e-01) (56, -4.38253372907638549805e-01) (57, 3.63241024315357208252e-02) (58, 4.44755673408508300781e-01) (59, -1.66632264852523803711e-01) (60, 1.42691805958747863770e-01) (61, -2.06526726484298706055e-01) (62, 1.09295092523097991943e-01) (63, 5.15557944774627685547e-01) (64, 5.12787461280822753906e-01) (65, 1.28411042690277099609e+00) (66, 1.24639403820037841797e+00) (42, 1.10959172248840332031e+00) (43, 7.11200714111328125000e-01) (44, 3.91748219728469848633e-01) (45, 7.08385944366455078125e-01) (46, 3.34510326385498046875e-01) (47, 5.16438663005828857422e-01) (48, 5.98411083221435546875e-01) (49, 1.06971359252929687500e+00) (50, 3.09329062700271606445e-01) (51, -1.91540680825710296631e-02) (52, 1.09502232074737548828e+00) (53, 5.78119941055774688721e-02) (54, 1.57646381855010986328e+00) (55, 9.58240270614624023438e-01) (56, 6.65228843688964843750e-01) (57, 9.04947996139526367188e-01) (58, 1.07760322093963623047e+00) (59, 7.50780045986175537109e-01) (60, 7.56293356418609619141e-01) (61, 9.65603590011596679688e-01) (62, 9.76808190345764160156e-01) (63, 5.77936768531799316406e-01) (64, 3.93529117107391357422e-01) (65, 1.44633305072784423828e+00) (66, 1.93848502635955810547e+00) (42, 3.33488315343856811523e-01) (43, -4.61173981428146362305e-01) (44, -1.47313654422760009766e-01) (45, -3.38695081882178783417e-03) (46, -3.50469768047332763672e-01) (47, -3.00045222043991088867e-01) (48, -8.88539731502532958984e-01) (49, -8.75584259629249572754e-02) (50, -1.29362791776657104492e-01) (51, 2.97724008560180664062e-01) (52, -3.43135088682174682617e-01) (53, -1.05060495436191558838e-01) (54, 6.81206583976745605469e-02) (55, 1.62214115262031555176e-01) (56, -3.92204910516738891602e-01) (57, 6.97668865323066711426e-02) (58, 1.20177790522575378418e-01) (59, -9.11565497517585754395e-02) (60, -7.82695591449737548828e-01) (61, 3.81288141012191772461e-01) (62, 3.31812798976898193359e-01) (63, -3.46014201641082763672e-01) (64, 4.12844836711883544922e-01) (65, 3.60789835453033447266e-01) (66, 1.27237319946289062500e+00) (42, 1.05407744646072387695e-01) (43, -8.22877526283264160156e-01) (44, 8.97587314248085021973e-02) (45, -7.18447938561439514160e-02) (46, -3.43813091516494750977e-01) (47, 2.80773997306823730469e-01) (48, -1.38956665992736816406e+00) (49, 1.14852093160152435303e-01) (50, 1.90957462787628173828e+00) (51, 1.75737512111663818359e+00) (52, 1.13641917705535888672e-01) (53, 5.65148413181304931641e-01) (54, -1.11933089792728424072e-01) (55, 3.68419796228408813477e-01) (56, 6.18996858596801757812e-01) (57, 1.35509893298149108887e-02) (58, 1.27125501632690429688e+00) (59, 6.33475661277770996094e-01) (60, 2.93478161096572875977e-01) (61, 4.56502020359039306641e-01) (62, 3.34905236959457397461e-01) (63, 3.97868961095809936523e-01) (64, 2.46016353368759155273e-01) (65, 1.19907379150390625000e-01) (66, 2.85423938184976577759e-02) (42, 5.00607073307037353516e-01) (43, 7.63442739844322204590e-02) (44, 1.67650908231735229492e-01) (45, 4.39430654048919677734e-01) (46, 6.78671943023800849915e-03) (47, 1.16642355918884277344e+00) (48, 9.35876309871673583984e-01) (49, 7.28817939758300781250e-01) (50, 4.23640280961990356445e-01) (51, -1.07976603507995605469e+00) (52, 2.10469476878643035889e-02) (53, 9.49560761451721191406e-01) (54, 4.59799587726593017578e-01) (55, 9.97692167758941650391e-01) (56, 3.07021051645278930664e-01) (57, 4.69359517097473144531e-01) (58, 9.12380293011665344238e-02) (59, 1.33966371417045593262e-01) (60, 1.06759750843048095703e+00) (61, 2.39457651972770690918e-01) (62, 2.75196284055709838867e-01) (63, 2.10268473625183105469e+00) (64, 5.38907468318939208984e-01) (65, 3.89508426189422607422e-01) (66, 9.14982616901397705078e-01) (42, -1.01875074207782745361e-01) (43, 6.41979515552520751953e-01) (44, -7.62176811695098876953e-01) (45, 1.96478694677352905273e-01) (46, -4.66858476400375366211e-01) (47, 3.57309766113758087158e-02) (48, 6.27677321434020996094e-01) (49, -3.15294384956359863281e-01) (50, -3.18342179059982299805e-01) (51, 6.33316338062286376953e-02) (52, 3.18410545587539672852e-01) (53, 3.39437685906887054443e-02) (54, -2.48190723359584808350e-02) (55, -8.08007940649986267090e-02) (56, -5.95095336437225341797e-01) (57, 9.10601675510406494141e-01) (58, 1.31996469572186470032e-02) (59, 1.46622970700263977051e-01) (60, 8.00228536128997802734e-01) (61, 9.06916409730911254883e-02) (62, -1.99867054820060729980e-01) (63, 1.71031683683395385742e-01) (64, 5.32928586006164550781e-01) (65, 1.10386979579925537109e+00) (66, 2.16602730751037597656e+00) (42, 5.62647640705108642578e-01) (43, 4.56154298782348632812e+00) (44, 1.00583088397979736328e+00) (45, 2.30007433891296386719e+00) (46, 5.22260665893554687500e-01) (47, 8.91352295875549316406e-01) (48, 5.66029965877532958984e-01) (49, 1.48725116252899169922e+00) (50, 6.82161927223205566406e-01) (51, 2.53879129886627197266e-01) (52, 2.98301517963409423828e-01) (53, 4.17947173118591308594e-01) (54, 8.19764971733093261719e-01) (55, 1.14954030513763427734e+00) (56, 2.86495208740234375000e+00) (57, 2.88980197906494140625e+00) (58, 6.32329404354095458984e-01) (59, 1.04748606681823730469e+00) (60, 3.46293210983276367188e+00) (61, 4.86111938953399658203e-01) (62, 8.80482673645019531250e-01) (63, 2.31879973411560058594e+00) (64, 1.66531002521514892578e+00) (65, 3.40422344207763671875e+00) (66, 3.53101491928100585938e+00) (42, 3.43764066696166992188e-01) (43, 2.36405342817306518555e-01) (44, 3.94603222608566284180e-01) (45, -1.68119460344314575195e-01) (46, 7.49439716339111328125e-01) (47, -6.00164890289306640625e-01) (48, 6.77558183670043945312e-01) (49, -3.03711235523223876953e-01) (50, 5.26409983634948730469e-01) (51, 1.18980884552001953125e+00) (52, -2.79458433389663696289e-01) (53, 6.65625393390655517578e-01) (54, 4.29319381713867187500e-01) (55, -2.61024773120880126953e-01) (56, 5.06029307842254638672e-01) (57, 3.60210120677947998047e-01) (58, 2.57021427154541015625e-01) (59, 4.77215319871902465820e-01) (60, -9.69106107950210571289e-02) (61, 1.43988001346588134766e+00) (62, -2.16341823339462280273e-01) (63, -4.37758527696132659912e-02) (64, 4.43503260612487792969e-02) (65, -1.42093136906623840332e-01) (66, 1.70551788806915283203e+00) (67, 1.11078426241874694824e-01) (68, 1.78955942392349243164e-01) (69, 6.63631737232208251953e-01) (70, 2.20036521553993225098e-01) (71, 8.50657165050506591797e-01) (72, 3.70229721069335937500e-01) (73, 8.61713349819183349609e-01) (74, 2.69855052232742309570e-01) (75, 4.05248165130615234375e-01) (76, 5.55227994918823242188e-01) (77, 3.56034636497497558594e-01) (78, 6.37112498283386230469e-01) (79, 2.45095133781433105469e-01) (80, 5.60993790626525878906e-01) (81, 5.41886031627655029297e-01) (82, 3.80257099866867065430e-01) (83, 1.99043050408363342285e-01) (84, 3.56857717037200927734e-01) (85, 1.22709497809410095215e-01) (86, 6.90922498703002929688e-01) (87, 5.04427969455718994141e-01) (88, 4.70236659049987792969e-01) (89, 1.61082997918128967285e-01) (90, 4.57102060317993164062e-01) (91, 1.23421144485473632812e+00) (67, 1.02129888534545898438e+00) (68, 1.12542295455932617188e+00) (69, 8.20131003856658935547e-01) (70, 1.04307079315185546875e+00) (71, 2.51945614814758300781e+00) (72, 5.75524985790252685547e-01) (73, 7.08543002605438232422e-01) (74, 1.50730752944946289062e+00) (75, 9.82824981212615966797e-01) (76, 1.13869476318359375000e+00) (77, 1.05002605915069580078e+00) (78, 1.10274708271026611328e+00) (79, 3.73991131782531738281e-01) (80, 8.79862964153289794922e-01) (81, 8.38158845901489257812e-01) (82, 5.38939952850341796875e-01) (83, 1.70133352279663085938e+00) (84, 1.10751509666442871094e+00) (85, -4.25949916243553161621e-02) (86, 2.97273725271224975586e-01) (87, 1.20686757564544677734e+00) (88, 2.15062975883483886719e+00) (89, 1.18888938426971435547e+00) (90, 9.05457198619842529297e-01) (91, 1.27117812633514404297e+00) (67, 4.46130722761154174805e-01) (68, 4.81704354286193847656e-01) (69, 6.92103028297424316406e-01) (70, -6.79189205169677734375e-01) (71, -4.08539390563964843750e+00) (72, 4.82142716646194458008e-01) (73, 6.81430518627166748047e-01) (74, 1.59714370965957641602e-01) (75, -3.29738229513168334961e-01) (76, 4.58693236112594604492e-01) (77, 9.39941763877868652344e-01) (78, 4.03681010007858276367e-01) (79, 5.03314077854156494141e-01) (80, 1.60067903995513916016e+00) (81, 5.87749183177947998047e-01) (82, -5.24092791602015495300e-03) (83, 2.98525780439376831055e-01) (84, 3.12113434076309204102e-01) (85, 6.17189526557922363281e-01) (86, 4.93449032306671142578e-01) (87, -7.39407464861869812012e-02) (88, -5.85777387022972106934e-02) (89, 9.35330927371978759766e-01) (90, -1.19521403312683105469e+00) (91, -2.08075851202011108398e-01) (67, 1.39771088957786560059e-01) (68, 9.15375828742980957031e-01) (69, 7.53620266914367675781e-01) (70, -1.27933263778686523438e-01) (71, 1.05800414085388183594e+00) (72, -2.01159119606018066406e-02) (73, 6.33021175861358642578e-01) (74, 3.81842643022537231445e-01) (75, 8.61427187919616699219e-01) (76, 7.52011060714721679688e-01) (77, -2.36889302730560302734e-01) (78, 1.06136500835418701172e+00) (79, 6.87781453132629394531e-01) (80, 5.45608341693878173828e-01) (81, 6.74768149852752685547e-01) (82, 7.24943339824676513672e-01) (83, 5.11147916316986083984e-01) (84, 1.61330401897430419922e+00) (85, 2.37199783325195312500e-01) (86, 1.12444269657135009766e+00) (87, 4.58758294582366943359e-01) (88, 6.75874710083007812500e-01) (89, 5.38636505603790283203e-01) (90, 1.65153050422668457031e+00) (91, 7.87883698940277099609e-01) (67, 4.82031047344207763672e-01) (68, 6.51420295238494873047e-01) (69, 6.15170538425445556641e-01) (70, 4.08776700496673583984e-01) (71, 2.80604094266891479492e-01) (72, 5.93888163566589355469e-01) (73, 5.89617967605590820312e-01) (74, 4.77213501930236816406e-01) (75, 6.28544151782989501953e-01) (76, 6.37187480926513671875e-01) (77, 4.85455274581909179688e-01) (78, 8.87556314468383789062e-01) (79, 9.74318325519561767578e-01) (80, 4.48993235826492309570e-01) (81, 1.01741945743560791016e+00) (82, 9.03155267238616943359e-01) (83, 5.37540137767791748047e-01) (84, 1.15974009037017822266e+00) (85, 1.23067915439605712891e+00) (86, 1.29955911636352539062e+00) (87, 8.32269966602325439453e-01) (88, 5.17037570476531982422e-01) (89, 1.42245590686798095703e+00) (90, 1.20528125762939453125e+00) (91, 6.54906868934631347656e-01) (67, -2.42724968120455741882e-03) (68, 1.22096729278564453125e+00) (69, 2.34710782766342163086e-01) (70, 3.10015946626663208008e-01) (71, 2.10951000452041625977e-01) (72, 6.85518383979797363281e-01) (73, 3.95830303430557250977e-01) (74, 1.98771044611930847168e-01) (75, -9.31823134422302246094e-01) (76, 3.66952300071716308594e-01) (77, 6.81041359901428222656e-01) (78, -1.41222909092903137207e-01) (79, -9.13809090852737426758e-02) (80, -9.01638746261596679688e-01) (81, 6.63577467203140258789e-02) (82, 3.67040038108825683594e-01) (83, 3.55578303337097167969e-01) (84, -2.39750489592552185059e-01) (85, 1.27899456024169921875e+00) (86, 5.50942480564117431641e-01) (87, -6.36802136898040771484e-01) (88, 4.35778766870498657227e-01) (89, 1.70321524143218994141e-01) (90, 3.49051028490066528320e-01) (91, 1.24522018432617187500e+00) (67, 1.49147605895996093750e+00) (68, 2.75733977556228637695e-01) (69, 1.57475483417510986328e+00) (70, 1.75903356075286865234e+00) (71, 6.44556879997253417969e-01) (72, 6.70705914497375488281e-01) (73, 1.64840328693389892578e+00) (74, 9.02592718601226806641e-01) (75, 3.78728836774826049805e-01) (76, 9.42217051982879638672e-01) (77, 7.20736086368560791016e-01) (78, 1.39142489433288574219e+00) (79, 7.11742162704467773438e-01) (80, 1.50536823272705078125e+00) (81, 1.49630033969879150391e+00) (82, 1.76191473007202148438e+00) (83, 5.06343059241771697998e-02) (84, 6.76271140575408935547e-01) (85, 3.32938164472579956055e-01) (86, 1.16887021064758300781e+00) (87, 5.18547475337982177734e-01) (88, 6.59908056259155273438e-01) (89, 1.73661696910858154297e+00) (90, 9.76764380931854248047e-01) (91, -6.41807496547698974609e-01) (67, 3.02688807249069213867e-01) (68, 2.07780435681343078613e-01) (69, 3.94646346569061279297e-01) (70, 5.66252827644348144531e-01) (71, -1.11896552145481109619e-01) (72, 3.97917807102203369141e-01) (73, 7.72267758846282958984e-01) (74, -1.43149480223655700684e-01) (75, -2.57115036249160766602e-01) (76, 7.01931655406951904297e-01) (77, -1.50798698887228965759e-02) (78, 4.17789191007614135742e-01) (79, 3.19042056798934936523e-02) (80, 1.33178055286407470703e+00) (81, 1.47714108228683471680e-01) (82, 4.87958610057830810547e-01) (83, 2.77631461620330810547e-01) (84, 1.03086984157562255859e+00) (85, 2.58427441120147705078e-01) (86, 4.08729642629623413086e-01) (87, 2.57744282484054565430e-01) (88, 1.62064135074615478516e-01) (89, 2.13665783405303955078e-01) (90, 6.54541611671447753906e-01) (91, 8.48562121391296386719e-01) (67, -1.08586058020591735840e-01) (68, 1.90932050347328186035e-01) (69, -1.91041648387908935547e-01) (70, -4.24028217792510986328e-01) (71, -1.18994012475013732910e-01) (72, 1.83440789580345153809e-01) (73, 5.96510469913482666016e-01) (74, -2.81707365065813064575e-02) (75, 1.76675468683242797852e-01) (76, 1.45410805940628051758e-01) (77, -1.81455895304679870605e-01) (78, -7.95368775725364685059e-02) (79, 3.53257805109024047852e-02) (80, 5.74361383914947509766e-01) (81, -5.19904136657714843750e-01) (82, 3.58305536210536956787e-02) (83, 1.65683820843696594238e-01) (84, -7.60687589645385742188e-01) (85, 6.80476427078247070312e-01) (86, 2.22325429320335388184e-01) (87, -1.99881792068481445312e-01) (88, -1.97587534785270690918e-01) (89, -9.66187641024589538574e-02) (90, 4.42460358142852783203e-01) (91, -6.33449479937553405762e-02) (67, 1.21629583835601806641e+00) (68, 1.03591394424438476562e+00) (69, 9.96831476688385009766e-01) (70, -8.35896193981170654297e-01) (71, 4.19823229312896728516e-01) (72, 4.58773002028465270996e-02) (73, 1.22515313327312469482e-01) (74, 9.09239649772644042969e-01) (75, 1.00678467750549316406e+00) (76, 8.75481486320495605469e-01) (77, 1.55353322625160217285e-02) (78, 6.98263466358184814453e-01) (79, 6.91503167152404785156e-01) (80, 9.64428186416625976562e-01) (81, 6.05187714099884033203e-01) (82, 6.42068862915039062500e-01) (83, 4.39221799373626708984e-01) (84, 1.09716999530792236328e+00) (85, 4.66526299715042114258e-01) (86, 1.61063361167907714844e+00) (87, 6.48342669010162353516e-01) (88, -2.67387717962265014648e-01) (89, 9.70045447349548339844e-01) (90, 1.96970462799072265625e-01) (91, 7.40035176277160644531e-02) (67, 3.29190701246261596680e-01) (68, 3.55020403861999511719e-01) (69, 5.02821803092956542969e-01) (70, 8.85881841182708740234e-01) (71, 3.79789918661117553711e-01) (72, 5.26377916336059570312e-01) (73, 1.28844130039215087891e+00) (74, 7.90798068046569824219e-01) (75, 5.25896325707435607910e-02) (76, 2.10861116647720336914e-01) (77, 8.60588490962982177734e-01) (78, 3.20303261280059814453e-01) (79, 5.38978755474090576172e-01) (80, 7.48976111412048339844e-01) (81, 7.89433240890502929688e-01) (82, 2.84703046083450317383e-01) (83, 4.15272653102874755859e-01) (84, -1.61774858832359313965e-01) (85, 1.14002120494842529297e+00) (86, 6.43515050411224365234e-01) (87, 3.80780287086963653564e-02) (88, 2.00883463025093078613e-01) (89, 1.57404109835624694824e-01) (90, -8.75895321369171142578e-02) (91, 7.53735005855560302734e-01) (67, 6.99716269969940185547e-01) (68, 2.44931995868682861328e-01) (69, 1.94990947842597961426e-01) (70, 5.78987479209899902344e-01) (71, 3.63514244556427001953e-01) (72, 1.79255306720733642578e-01) (73, 1.27954614162445068359e+00) (74, 3.19996625185012817383e-01) (75, 1.57740563154220581055e-01) (76, 7.21597254276275634766e-01) (77, 8.05018961429595947266e-01) (78, 3.41869413852691650391e-01) (79, 7.03668177127838134766e-01) (80, 8.37627351284027099609e-01) (81, 2.35121697187423706055e-01) (82, 6.81255161762237548828e-01) (83, 3.42215329408645629883e-01) (84, -1.51543514803051948547e-02) (85, 5.91385841369628906250e-01) (86, 8.99800062179565429688e-01) (87, -3.27778488397598266602e-01) (88, 5.56912720203399658203e-01) (89, 8.87488484382629394531e-01) (90, -5.99486172199249267578e-01) (91, 3.35606157779693603516e-01) (67, 8.69029223918914794922e-01) (68, 1.91339462995529174805e-01) (69, 1.76837217807769775391e+00) (70, 1.36807703971862792969e+00) (71, 4.15889501571655273438e-01) (72, 1.11887764930725097656e+00) (73, 1.53575229644775390625e+00) (74, 1.26628100872039794922e+00) (75, 4.56266492605209350586e-01) (76, 1.38574528694152832031e+00) (77, 1.39128363132476806641e+00) (78, 1.70198523998260498047e+00) (79, 1.31262123584747314453e+00) (80, 1.26783525943756103516e+00) (81, 9.66056287288665771484e-01) (82, 1.25792253017425537109e+00) (83, 4.64791804552078247070e-01) (84, 6.37193083763122558594e-01) (85, 5.43432593345642089844e-01) (86, 1.30246174335479736328e+00) (87, 5.20004630088806152344e-01) (88, 3.08807849884033203125e-01) (89, 1.96078288555145263672e+00) (90, 6.08352303504943847656e-01) (91, 5.55209696292877197266e-01) (67, 2.19660669565200805664e-01) (68, -2.22357392311096191406e-01) (69, 2.22408175468444824219e-01) (70, 3.22588711977005004883e-01) (71, -3.05677384138107299805e-01) (72, -2.55275338888168334961e-01) (73, -1.29685193300247192383e-01) (74, 1.02573193609714508057e-01) (75, 2.49184817075729370117e-01) (76, -3.69906611740589141846e-02) (77, 3.88088315725326538086e-01) (78, -4.87982600927352905273e-01) (79, 4.36274632811546325684e-02) (80, -1.32933542132377624512e-01) (81, 1.61437451839447021484e-01) (82, -4.34652604162693023682e-02) (83, -2.19861671328544616699e-01) (84, -5.81348001956939697266e-01) (85, 2.16362684965133666992e-01) (86, -1.67387396097183227539e-01) (87, -1.55268386006355285645e-01) (88, 1.43398061394691467285e-01) (89, 8.55531617999076843262e-02) (90, -8.23176559060811996460e-03) (91, -7.82648473978042602539e-02) (67, 1.35128479450941085815e-02) (68, 1.15507233142852783203e+00) (69, 2.55905151367187500000e-01) (70, 3.56778085231781005859e-01) (71, 1.89752662181854248047e+00) (72, 5.73781609535217285156e-01) (73, 3.18276941776275634766e-01) (74, 4.05083954334259033203e-01) (75, 6.07456743717193603516e-01) (76, 4.92916196584701538086e-01) (77, 4.12740111351013183594e-01) (78, 5.45036673545837402344e-01) (79, 4.73767817020416259766e-01) (80, -1.17427922785282135010e-01) (81, 9.96694862842559814453e-02) (82, 1.32065089419484138489e-02) (83, 7.93520033359527587891e-01) (84, 1.42283320426940917969e+00) (85, 9.23154711723327636719e-01) (86, -2.69829958677291870117e-01) (87, 1.11854505538940429688e+00) (88, 2.18586421012878417969e+00) (89, 3.18602204322814941406e-01) (90, 6.69386923313140869141e-01) (91, 1.70199692249298095703e+00) (67, -2.58346833288669586182e-02) (68, -4.19257074594497680664e-01) (69, -8.16850736737251281738e-02) (70, -3.42847287654876708984e-01) (71, -8.24712455272674560547e-01) (72, 1.66901969909667968750e+00) (73, 1.21196061372756958008e-01) (74, 4.52072322368621826172e-02) (75, -1.55266210436820983887e-01) (76, 4.69202250242233276367e-01) (77, 2.98777788877487182617e-01) (78, -1.16687752306461334229e-01) (79, -1.22036874294281005859e-01) (80, 1.89028516411781311035e-01) (81, 2.30664730072021484375e-01) (82, -2.83342361450195312500e-01) (83, 4.23762738704681396484e-01) (84, -5.17613887786865234375e-01) (85, 1.25933215022087097168e-01) (86, 1.19999922811985015869e-01) (87, 2.19549573957920074463e-02) (88, -1.41148304939270019531e+00) (89, -1.58028706908226013184e-01) (90, -1.90209761261940002441e-01) (91, 4.68614250421524047852e-01) (67, 6.41092136502265930176e-02) (68, -3.20664674043655395508e-01) (69, 5.40820538997650146484e-01) (70, 5.73968654498457908630e-03) (71, -6.94440156221389770508e-02) (72, 4.67886984348297119141e-01) (73, 3.35033744573593139648e-01) (74, -1.91344004124402999878e-02) (75, -6.65124952793121337891e-01) (76, -1.97155654430389404297e-01) (77, 7.91508145630359649658e-03) (78, 3.08985888957977294922e-01) (79, 2.93913662433624267578e-01) (80, 1.18960857391357421875e+00) (81, 1.44263252615928649902e-01) (82, 2.15253055095672607422e-01) (83, -4.89545501768589019775e-02) (84, 1.41113325953483581543e-01) (85, 6.71977818012237548828e-01) (86, 1.99062094092369079590e-01) (87, -4.80783104896545410156e-01) (88, 1.96065247058868408203e-01) (89, 1.99538484215736389160e-01) (90, 2.64700036495923995972e-02) (91, -1.17182925343513488770e-01) (67, 1.36426091194152832031e+00) (68, 1.31052538752555847168e-01) (69, 1.20862388610839843750e+00) (70, 1.48600602149963378906e+00) (71, 8.76647293567657470703e-01) (72, 6.51517212390899658203e-01) (73, 2.02708578109741210938e+00) (74, 1.05384171009063720703e+00) (75, 3.68380367755889892578e-01) (76, 1.13943696022033691406e+00) (77, 7.39649176597595214844e-01) (78, 1.30846309661865234375e+00) (79, 1.42289221286773681641e+00) (80, 1.53821933269500732422e+00) (81, 1.38458681106567382812e+00) (82, 8.26665341854095458984e-01) (83, 9.10909116268157958984e-01) (84, 5.32217144966125488281e-01) (85, 7.69406557083129882812e-01) (86, 1.07752871513366699219e+00) (87, 9.66540575027465820312e-01) (88, 5.37454545497894287109e-01) (89, 1.35584235191345214844e+00) (90, -3.69557254016399383545e-02) (91, -3.90770524740219116211e-01) (67, -9.86431911587715148926e-03) (68, 1.08141303062438964844e+00) (69, 5.62396533787250518799e-02) (70, -2.48581632971763610840e-01) (71, 3.43680888414382934570e-01) (72, 1.97194039821624755859e-01) (73, 6.30267024040222167969e-01) (74, 3.35616737604141235352e-01) (75, 6.29452347755432128906e-01) (76, 4.36804950237274169922e-01) (77, -4.57263112068176269531e-01) (78, 7.35942944884300231934e-02) (79, -1.64698645472526550293e-01) (80, 7.31937885284423828125e-01) (81, 1.83055281639099121094e-01) (82, -1.83614581823348999023e-01) (83, 5.29638648033142089844e-01) (84, 4.86939489841461181641e-01) (85, 7.98233926296234130859e-01) (86, 4.13685828447341918945e-01) (87, 3.01730096340179443359e-01) (88, -3.29333767294883728027e-02) (89, 2.53255009651184082031e-01) (90, 1.38257071375846862793e-01) (91, -2.94881552457809448242e-01) (67, -6.88077881932258605957e-02) (68, 4.19482946395874023438e-01) (69, 3.67842353880405426025e-02) (70, -2.76039307937026023865e-03) (71, 2.04005271196365356445e-01) (72, 6.82260394096374511719e-01) (73, 1.11021555960178375244e-01) (74, 1.20791964232921600342e-01) (75, -3.18254977464675903320e-01) (76, 1.48426398634910583496e-01) (77, 5.90803213417530059814e-02) (78, -3.26367646455764770508e-01) (79, -8.20169597864151000977e-02) (80, 5.36332309246063232422e-01) (81, -1.03527173399925231934e-01) (82, -3.66755723953247070312e-01) (83, 4.47477817535400390625e-01) (84, -3.44807028770446777344e-01) (85, 5.87776005268096923828e-01) (86, 2.63800889253616333008e-01) (87, -5.67558467388153076172e-01) (88, -6.01292133331298828125e-01) (89, -3.40493246912956237793e-02) (90, 9.76797342300415039062e-02) (91, 6.74313664436340332031e-01) (67, 1.32552599906921386719e+00) (68, 3.48031908273696899414e-01) (69, 1.34023308753967285156e+00) (70, 1.01493370532989501953e+00) (71, 6.79102241992950439453e-01) (72, 9.23151850700378417969e-01) (73, 1.28190374374389648438e+00) (74, 6.73710465431213378906e-01) (75, 6.70726895332336425781e-01) (76, 1.19943320751190185547e+00) (77, 1.20128273963928222656e+00) (78, 1.09062600135803222656e+00) (79, 9.19887483119964599609e-01) (80, 7.20917761325836181641e-01) (81, 1.42097651958465576172e+00) (82, 1.35810363292694091797e+00) (83, 6.29326283931732177734e-01) (84, 1.10551786422729492188e+00) (85, 7.48789012432098388672e-01) (86, 6.03940486907958984375e-01) (87, 6.92687571048736572266e-01) (88, 1.20632302761077880859e+00) (89, 1.34570848941802978516e+00) (90, 3.85826408863067626953e-01) (91, 1.44203054904937744141e+00) (67, 3.46429169178009033203e-01) (68, 1.13741290569305419922e+00) (69, 3.88351887464523315430e-01) (70, 8.35205376148223876953e-01) (71, 1.05624496936798095703e+00) (72, 6.32253885269165039062e-02) (73, 5.23965477943420410156e-01) (74, 7.31205999851226806641e-01) (75, 1.19911241531372070312e+00) (76, 4.59778122603893280029e-02) (77, 1.88659876585006713867e-01) (78, 6.99590086936950683594e-01) (79, 7.60143995285034179688e-01) (80, 7.14706599712371826172e-01) (81, 1.35877147316932678223e-01) (82, 5.97133874893188476562e-01) (83, 9.34904813766479492188e-01) (84, 1.03119587898254394531e+00) (85, -1.03930234909057617188e-01) (86, 8.60571265220642089844e-02) (87, 4.98578101396560668945e-01) (88, 5.59582650661468505859e-01) (89, 5.66495716571807861328e-01) (90, 8.21940064430236816406e-01) (91, 5.18529653549194335938e-01) (67, 8.45477819442749023438e-01) (68, -1.97466626763343811035e-01) (69, 1.49844989180564880371e-01) (70, -9.31849777698516845703e-02) (71, -1.23193025588989257812e+00) (72, 5.79720020294189453125e-01) (73, 2.56579726934432983398e-01) (74, 3.14846813678741455078e-01) (75, 1.63950592279434204102e-01) (76, 8.38498890399932861328e-01) (77, -1.48095622658729553223e-01) (78, -5.09832613170146942139e-02) (79, -2.97218888998031616211e-01) (80, 2.43448182940483093262e-01) (81, 1.47364541888236999512e-01) (82, 2.80230075120925903320e-01) (83, 2.55186855792999267578e-01) (84, -6.16609379649162292480e-02) (85, -1.01055991649627685547e+00) (86, 1.01917076110839843750e+00) (87, -6.15764796733856201172e-01) (88, 6.89062029123306274414e-02) (89, 4.93262320756912231445e-01) (90, 3.38208764791488647461e-01) (91, 6.95652604103088378906e-01) (67, 5.60530781745910644531e-01) (68, 7.23683238029479980469e-01) (69, 7.86727070808410644531e-01) (70, 4.37845587730407714844e-01) (71, 3.04158069193363189697e-02) (72, 7.15024530887603759766e-01) (73, 9.20523703098297119141e-01) (74, 4.46573764085769653320e-01) (75, 6.43102824687957763672e-02) (76, 5.32490789890289306641e-01) (77, 3.72933000326156616211e-01) (78, 7.44665682315826416016e-01) (79, 4.70336943864822387695e-01) (80, 1.51243019104003906250e+00) (81, 1.17859721183776855469e+00) (82, 9.86263751983642578125e-01) (83, -8.69565680623054504395e-02) (84, 4.58749860525131225586e-01) (85, 4.67501342296600341797e-01) (86, 8.52427303791046142578e-01) (87, 1.51947885751724243164e-01) (88, 1.00626921653747558594e+00) (89, 1.04722285270690917969e+00) (90, -5.77450469136238098145e-02) (91, -5.63243143260478973389e-02) (92, 9.68443974852561950684e-02) (93, -1.23106765747070312500e+00) (94, -3.41756612062454223633e-01) (95, 2.27792873978614807129e-01) (96, 1.03928178548812866211e-01) (97, 1.50816440582275390625e+00) (98, 9.25895497202873229980e-02) (99, -2.96849887818098068237e-02) (100, 4.17552143335342407227e-01) (101, -6.25901892781257629395e-02) (102, 3.94174993038177490234e-01) (103, -1.56233593821525573730e-01) (104, -4.93527315557003021240e-02) (105, 2.31453865766525268555e-01) (106, 1.46726429462432861328e+00) (107, 8.91686260700225830078e-01) (108, -4.21452432870864868164e-01) (109, -2.81782388687133789062e-01) (110, -1.84760183095932006836e-01) (111, 8.29919397830963134766e-01) (112, -3.53084087371826171875e-01) (113, 2.05028510093688964844e+00) (114, 5.27907192707061767578e-01) (115, 3.59653718769550323486e-02) (116, 5.89202582836151123047e-01) (92, 1.91976934671401977539e-01) (93, 3.18158678710460662842e-02) (94, -1.53879255056381225586e-01) (95, 6.68091952800750732422e-01) (96, 2.94294893741607666016e-01) (97, 4.23803299665451049805e-01) (98, -1.07868621125817298889e-02) (99, 1.23468804359436035156e+00) (100, 6.69876694679260253906e-01) (101, 7.90081858634948730469e-01) (102, 4.24715340137481689453e-01) (103, -3.47994714975357055664e-02) (104, 1.18827052414417266846e-01) (105, 5.58543384075164794922e-01) (106, 3.67906004190444946289e-01) (107, 5.78039944171905517578e-01) (108, 5.02229154109954833984e-01) (109, 1.31535127758979797363e-01) (110, 9.20942604541778564453e-01) (111, 8.75560522079467773438e-01) (112, 1.15857914090156555176e-01) (113, 5.93410968780517578125e-01) (114, 1.61616754531860351562e+00) (115, 3.10081005096435546875e-01) (116, 1.16943347454071044922e+00) (92, 3.95373404026031494141e-02) (93, 2.08551302552223205566e-01) (94, 3.88750821352005004883e-01) (95, 4.60097432136535644531e-01) (96, 1.27023562788963317871e-01) (97, 7.28012770414352416992e-02) (98, -3.64431619644165039062e-01) (99, 4.53452080488204956055e-01) (100, 7.54062592983245849609e-01) (101, 6.52542710304260253906e-01) (102, -4.19843554496765136719e-01) (103, 4.22248512506484985352e-01) (104, -1.33839651942253112793e-01) (105, 6.30245208740234375000e-01) (106, -4.46464836597442626953e-01) (107, 4.35158401727676391602e-01) (108, -6.50129318237304687500e-02) (109, 2.68570575863122940063e-02) (110, 4.00051921606063842773e-01) (111, 4.88426864147186279297e-01) (112, -2.14207500219345092773e-01) (113, -1.11765369772911071777e-01) (114, 7.05863893032073974609e-01) (115, 1.98152601718902587891e-01) (116, -5.15186309814453125000e-01) (92, 2.94239670038223266602e-01) (93, 1.82316079735755920410e-01) (94, 6.70975923538208007812e-01) (95, -1.93371355533599853516e-01) (96, 3.64541113376617431641e-01) (97, 1.17212355136871337891e+00) (98, 8.73952209949493408203e-01) (99, 2.99913376569747924805e-01) (100, 7.05745339393615722656e-01) (101, 4.48572069406509399414e-01) (102, 5.54565429687500000000e-01) (103, 4.79668498039245605469e-01) (104, 7.14000523090362548828e-01) (105, 5.04334867000579833984e-01) (106, 4.98044967651367187500e-01) (107, 1.44428944587707519531e+00) (108, 1.21737599372863769531e-01) (109, 7.23127782344818115234e-01) (110, 5.51199555397033691406e-01) (111, 8.33194136619567871094e-01) (112, 8.77259135246276855469e-01) (113, -1.76356397569179534912e-02) (114, 1.24105298519134521484e+00) (115, 5.57766258716583251953e-01) (116, 1.00848925113677978516e+00) (92, 3.85815024375915527344e-01) (93, 6.47492408752441406250e-01) (94, 3.06546092033386230469e-01) (95, 4.88234400749206542969e-01) (96, 3.63582760095596313477e-01) (97, 7.00443387031555175781e-01) (98, 3.47379118204116821289e-01) (99, 1.98135340213775634766e+00) (100, 6.52737557888031005859e-01) (101, 5.22360801696777343750e-01) (102, 8.73886227607727050781e-01) (103, 6.73561766743659973145e-02) (104, 2.88792580366134643555e-01) (105, 2.33652710914611816406e-01) (106, 7.67689764499664306641e-01) (107, 8.11864972114562988281e-01) (108, 6.56612992286682128906e-01) (109, 3.27656269073486328125e-01) (110, 8.01711499691009521484e-01) (111, 3.75477433204650878906e-01) (112, 1.91032916307449340820e-01) (113, 3.45395028591156005859e-01) (114, 1.33583295345306396484e+00) (115, -4.43198606371879577637e-02) (116, 1.79310226440429687500e+00) (92, -1.61049142479896545410e-01) (93, 4.22825336456298828125e-01) (94, 3.99384982883930206299e-02) (95, 3.70263904333114624023e-01) (96, -1.08704932034015655518e-01) (97, 9.90771412849426269531e-01) (98, -1.92982539534568786621e-01) (99, 6.70554861426353454590e-02) (100, 1.16250610351562500000e+00) (101, 2.48239576816558837891e-01) (102, 2.12134152650833129883e-01) (103, 1.41707047820091247559e-01) (104, -8.24219658970832824707e-02) (105, 7.33958959579467773438e-01) (106, -1.02718043327331542969e+00) (107, 2.69753694534301757812e-01) (108, -8.99740681052207946777e-02) (109, 1.68421806301921606064e-03) (110, 2.72617489099502563477e-01) (111, 4.58857715129852294922e-01) (112, -1.83645226061344146729e-02) (113, 9.91767570376396179199e-02) (114, 4.59450334310531616211e-01) (115, -3.14922422170639038086e-01) (116, 1.12204325199127197266e+00) (92, -8.36554467678070068359e-01) (93, -2.91354656219482421875e-01) (94, -1.04811620712280273438e+00) (95, -1.35621339082717895508e-01) (96, -1.49113678932189941406e+00) (97, 5.85081815719604492188e-01) (98, -1.54089760780334472656e+00) (99, 1.49632960557937622070e-01) (100, 7.53706932067871093750e-01) (101, 1.83206751942634582520e-01) (102, -2.86198526620864868164e-01) (103, 2.64455139636993408203e-01) (104, -1.35397076606750488281e+00) (105, 6.78909182548522949219e-01) (106, 3.91399145126342773438e-01) (107, 6.48943483829498291016e-01) (108, -1.70825332403182983398e-01) (109, -1.62563395500183105469e+00) (110, 7.94382393360137939453e-01) (111, 6.18935108184814453125e-01) (112, -1.50887203216552734375e+00) (113, -3.29976469278335571289e-01) (114, 8.07463109493255615234e-01) (115, -1.83519268035888671875e+00) (116, 1.80325269699096679688e+00) (92, 3.40920597314834594727e-01) (93, 9.02805507183074951172e-01) (94, 9.24002587795257568359e-01) (95, 3.14838647842407226562e-01) (96, 5.73008000850677490234e-01) (97, 9.16920229792594909668e-03) (98, 1.77302405238151550293e-01) (99, 1.32146692276000976562e+00) (100, 4.17687684297561645508e-01) (101, 6.41415357589721679688e-01) (102, 3.40256571769714355469e-01) (103, 1.04635775089263916016e+00) (104, 6.46946668624877929688e-01) (105, 4.04119312763214111328e-01) (106, -5.56803405284881591797e-01) (107, 6.55011296272277832031e-01) (108, 1.34373024106025695801e-01) (109, 4.02069061994552612305e-01) (110, 1.62459924817085266113e-01) (111, 6.12612426280975341797e-01) (112, 2.62482523918151855469e-01) (113, 3.85744571685791015625e-01) (114, 1.28095364570617675781e+00) (115, 5.24090707302093505859e-01) (116, 1.18386447429656982422e+00) (92, -3.81083562970161437988e-02) (93, -1.48666238784790039062e+00) (94, 8.59562754631042480469e-02) (95, -2.67641127109527587891e-01) (96, -3.68520408868789672852e-01) (97, 9.44321215152740478516e-01) (98, -4.55355048179626464844e-02) (99, 7.49475538730621337891e-01) (100, 8.04937779903411865234e-01) (101, -5.09620010852813720703e-01) (102, 5.74541628360748291016e-01) (103, 2.20216363668441772461e-01) (104, -2.33330309391021728516e-01) (105, 7.10424602031707763672e-01) (106, 3.44998478889465332031e-01) (107, 8.53763282299041748047e-01) (108, 4.76338148117065429688e-01) (109, 4.62554693222045898438e-02) (110, -1.49097695946693420410e-01) (111, 9.98791992664337158203e-01) (112, -5.01643598079681396484e-01) (113, -2.65471227467060089111e-02) (114, 4.00897920131683349609e-01) (115, -1.27493813633918762207e-02) (116, 9.66779291629791259766e-01) (92, 5.02588272094726562500e-01) (93, -2.05011650919914245605e-01) (94, 1.19613513350486755371e-01) (95, 1.94792255759239196777e-01) (96, 1.38777017593383789062e-01) (97, 1.20158469676971435547e+00) (98, 2.71021813154220581055e-01) (99, 5.87741613388061523438e-01) (100, 9.65659081935882568359e-01) (101, 2.94088512659072875977e-01) (102, 6.47149264812469482422e-01) (103, 6.38190805912017822266e-01) (104, -4.29480038583278656006e-02) (105, 8.77223789691925048828e-01) (106, -1.69659495353698730469e+00) (107, 6.07321918010711669922e-01) (108, 9.66401338577270507812e-01) (109, -5.12620769441127777100e-02) (110, 1.16899915039539337158e-01) (111, 1.02326273918151855469e+00) (112, -8.55874568223953247070e-02) (113, -2.95895367860794067383e-01) (114, 2.05319166183471679688e-01) (115, 4.36662167310714721680e-01) (116, -6.71902969479560852051e-02) (92, 9.87358331680297851562e-01) (93, 7.14721322059631347656e-01) (94, 1.31472492218017578125e+00) (95, 8.06655168533325195312e-01) (96, 1.34461379051208496094e+00) (97, 1.36339142918586730957e-01) (98, 1.52738213539123535156e+00) (99, 5.38729846477508544922e-01) (100, 1.58690676093101501465e-01) (101, 1.08158433437347412109e+00) (102, 9.25006866455078125000e-01) (103, 1.05684185028076171875e+00) (104, 1.42166912555694580078e+00) (105, 