FANN_FLO_2.1
num_layers=20
learning_rate=0.700000
connection_rate=1.000000
network_type=0
learning_momentum=0.000000
training_algorithm=2
train_error_function=1
train_stop_function=1
cascade_output_change_fraction=0.010000
quickprop_decay=-0.000100
quickprop_mu=1.750000
rprop_increase_factor=1.200000
rprop_decrease_factor=0.500000
rprop_delta_min=0.000000
rprop_delta_max=50.000000
rprop_delta_zero=0.100000
cascade_output_stagnation_epochs=12
cascade_candidate_change_fraction=0.010000
cascade_candidate_stagnation_epochs=12
cascade_max_out_epochs=150
cascade_min_out_epochs=50
cascade_max_cand_epochs=150
cascade_min_cand_epochs=50
cascade_num_candidate_groups=2
bit_fail_limit=9.99999977648258209229e-03
cascade_candidate_limit=1.00000000000000000000e+03
cascade_weight_multiplier=4.00000005960464477539e-01
cascade_activation_functions_count=10
cascade_activation_functions=3 5 7 8 10 11 14 15 16 17 
cascade_activation_steepnesses_count=4
cascade_activation_steepnesses=2.50000000000000000000e-01 5.00000000000000000000e-01 7.50000000000000000000e-01 1.00000000000000000000e+00 
layer_sizes=17 25 25 25 25 25 25 25 25 25 25 25 25 25 25 25 25 25 17 9 
scale_included=0
neurons (num_inputs, activation_function, activation_steepness)=(0, 0, 0.00000000000000000000e+00) (0, 0, 0.00000000000000000000e+00) (0, 0, 0.00000000000000000000e+00) (0, 0, 0.00000000000000000000e+00) (0, 0, 0.00000000000000000000e+00) (0, 0, 0.00000000000000000000e+00) (0, 0, 0.00000000000000000000e+00) (0, 0, 0.00000000000000000000e+00) (0, 0, 0.00000000000000000000e+00) (0, 0, 0.00000000000000000000e+00) (0, 0, 0.00000000000000000000e+00) (0, 0, 0.00000000000000000000e+00) (0, 0, 0.00000000000000000000e+00) (0, 0, 0.00000000000000000000e+00) (0, 0, 0.00000000000000000000e+00) (0, 0, 0.00000000000000000000e+00) (0, 0, 0.00000000000000000000e+00) (17, 5, 1.00000000000000000000e+00) (17, 5, 1.00000000000000000000e+00) (17, 5, 1.00000000000000000000e+00) (17, 5, 1.00000000000000000000e+00) (17, 5, 1.00000000000000000000e+00) (17, 5, 1.00000000000000000000e+00) (17, 5, 1.00000000000000000000e+00) (17, 5, 1.00000000000000000000e+00) (17, 5, 1.00000000000000000000e+00) (17, 5, 1.00000000000000000000e+00) (17, 5, 1.00000000000000000000e+00) (17, 5, 1.00000000000000000000e+00) (17, 5, 1.00000000000000000000e+00) (17, 5, 1.00000000000000000000e+00) (17, 5, 1.00000000000000000000e+00) (17, 5, 1.00000000000000000000e+00) (17, 5, 1.00000000000000000000e+00) (17, 5, 1.00000000000000000000e+00) (17, 5, 1.00000000000000000000e+00) (17, 5, 1.00000000000000000000e+00) (17, 5, 1.00000000000000000000e+00) (17, 5, 1.00000000000000000000e+00) (17, 5, 1.00000000000000000000e+00) (17, 5, 1.00000000000000000000e+00) (0, 5, 1.00000000000000000000e+00) (25, 5, 1.00000000000000000000e+00) (25, 5, 1.00000000000000000000e+00) (25, 5, 1.00000000000000000000e+00) (25, 5, 1.00000000000000000000e+00) (25, 5, 1.00000000000000000000e+00) (25, 5, 1.00000000000000000000e+00) (25, 5, 1.00000000000000000000e+00) (25, 5, 1.00000000000000000000e+00) (25, 5, 1.00000000000000000000e+00) (25, 5, 1.00000000000000000000e+00) (25, 5, 1.00000000000000000000e+00) (25, 5, 1.00000000000000000000e+00) (25, 5, 1.00000000000000000000e+00) (25, 5, 1.00000000000000000000e+00) (25, 5, 1.00000000000000000000e+00) (25, 5, 1.00000000000000000000e+00) (25, 5, 1.00000000000000000000e+00) (25, 5, 1.00000000000000000000e+00) (25, 5, 1.00000000000000000000e+00) (25, 5, 1.00000000000000000000e+00) (25, 5, 1.00000000000000000000e+00) (25, 5, 1.00000000000000000000e+00) (25, 5, 1.00000000000000000000e+00) (25, 5, 1.00000000000000000000e+00) (0, 5, 1.00000000000000000000e+00) (25, 5, 1.00000000000000000000e+00) (25, 5, 1.00000000000000000000e+00) (25, 5, 1.00000000000000000000e+00) (25, 5, 1.00000000000000000000e+00) (25, 5, 1.00000000000000000000e+00) (25, 5, 1.00000000000000000000e+00) (25, 5, 1.00000000000000000000e+00) (25, 5, 1.00000000000000000000e+00) (25, 5, 1.00000000000000000000e+00) (25, 5, 1.00000000000000000000e+00) (25, 5, 1.00000000000000000000e+00) (25, 5, 1.00000000000000000000e+00) (25, 5, 1.00000000000000000000e+00) (25, 5, 1.00000000000000000000e+00) (25, 5, 1.00000000000000000000e+00) (25, 5, 1.00000000000000000000e+00) (25, 5, 1.00000000000000000000e+00) (25, 5, 1.00000000000000000000e+00) (25, 5, 1.00000000000000000000e+00) (25, 5, 1.00000000000000000000e+00) (25, 5, 1.00000000000000000000e+00) (25, 5, 1.00000000000000000000e+00) (25, 5, 1.00000000000000000000e+00) (25, 5, 1.00000000000000000000e+00) (0, 5, 1.00000000000000000000e+00) (25, 5, 1.00000000000000000000e+00) (25, 5, 1.00000000000000000000e+00) (25, 5, 1.00000000000000000000e+00) (25, 5, 1.00000000000000000000e+00) (25, 5, 1.00000000000000000000e+00) (25, 5, 1.00000000000000000000e+00) (25, 5, 1.00000000000000000000e+00) (25, 5, 1.00000000000000000000e+00) (25, 5, 1.00000000000000000000e+00) (25, 5, 1.00000000000000000000e+00) (25, 5, 1.00000000000000000000e+00) (25, 5, 1.00000000000000000000e+00) (25, 5, 1.00000000000000000000e+00) (25, 5, 1.00000000000000000000e+00) (25, 5, 1.00000000000000000000e+00) (25, 5, 1.00000000000000000000e+00) (25, 5, 1.00000000000000000000e+00) (25, 5, 1.00000000000000000000e+00) (25, 5, 1.00000000000000000000e+00) (25, 5, 1.00000000000000000000e+00) (25, 5, 1.00000000000000000000e+00) (25, 5, 1.00000000000000000000e+00) (25, 5, 1.00000000000000000000e+00) (25, 5, 1.00000000000000000000e+00) (0, 5, 1.00000000000000000000e+00) (25, 5, 1.00000000000000000000e+00) (25, 5, 1.00000000000000000000e+00) (25, 5, 1.00000000000000000000e+00) (25, 5, 1.00000000000000000000e+00) (25, 5, 1.00000000000000000000e+00) (25, 5, 1.00000000000000000000e+00) (25, 5, 1.00000000000000000000e+00) (25, 5, 1.00000000000000000000e+00) (25, 5, 1.00000000000000000000e+00) (25, 5, 1.00000000000000000000e+00) (25, 5, 1.00000000000000000000e+00) (25, 5, 1.00000000000000000000e+00) (25, 5, 1.00000000000000000000e+00) (25, 5, 1.00000000000000000000e+00) (25, 5, 1.00000000000000000000e+00) (25, 5, 1.00000000000000000000e+00) (25, 5, 1.00000000000000000000e+00) (25, 5, 1.00000000000000000000e+00) (25, 5, 1.00000000000000000000e+00) (25, 5, 1.00000000000000000000e+00) (25, 5, 1.00000000000000000000e+00) (25, 5, 1.00000000000000000000e+00) (25, 5, 1.00000000000000000000e+00) (25, 5, 1.00000000000000000000e+00) (0, 5, 1.00000000000000000000e+00) (25, 5, 1.00000000000000000000e+00) (25, 5, 1.00000000000000000000e+00) (25, 5, 1.00000000000000000000e+00) (25, 5, 1.00000000000000000000e+00) (25, 5, 1.00000000000000000000e+00) (25, 5, 1.00000000000000000000e+00) (25, 5, 1.00000000000000000000e+00) (25, 5, 1.00000000000000000000e+00) (25, 5, 1.00000000000000000000e+00) (25, 5, 1.00000000000000000000e+00) (25, 5, 1.00000000000000000000e+00) (25, 5, 1.00000000000000000000e+00) (25, 5, 1.00000000000000000000e+00) (25, 5, 1.00000000000000000000e+00) (25, 5, 1.00000000000000000000e+00) (25, 5, 1.00000000000000000000e+00) (25, 5, 1.00000000000000000000e+00) (25, 5, 1.00000000000000000000e+00) (25, 5, 1.00000000000000000000e+00) (25, 5, 1.00000000000000000000e+00) (25, 5, 1.00000000000000000000e+00) (25, 5, 1.00000000000000000000e+00) (25, 5, 1.00000000000000000000e+00) (25, 5, 1.00000000000000000000e+00) (0, 5, 1.00000000000000000000e+00) (25, 5, 1.00000000000000000000e+00) (25, 5, 1.00000000000000000000e+00) (25, 5, 1.00000000000000000000e+00) (25, 5, 1.00000000000000000000e+00) (25, 5, 1.00000000000000000000e+00) (25, 5, 1.00000000000000000000e+00) (25, 5, 1.00000000000000000000e+00) (25, 5, 1.00000000000000000000e+00) (25, 5, 1.00000000000000000000e+00) (25, 5, 1.00000000000000000000e+00) (25, 5, 1.00000000000000000000e+00) (25, 5, 1.00000000000000000000e+00) (25, 5, 1.00000000000000000000e+00) (25, 5, 1.00000000000000000000e+00) (25, 5, 1.00000000000000000000e+00) (25, 5, 1.00000000000000000000e+00) (25, 5, 1.00000000000000000000e+00) (25, 5, 1.00000000000000000000e+00) (25, 5, 1.00000000000000000000e+00) (25, 5, 1.00000000000000000000e+00) (25, 5, 1.00000000000000000000e+00) (25, 5, 1.00000000000000000000e+00) (25, 5, 1.00000000000000000000e+00) (25, 5, 1.00000000000000000000e+00) (0, 5, 1.00000000000000000000e+00) (25, 5, 1.00000000000000000000e+00) (25, 5, 1.00000000000000000000e+00) (25, 5, 1.00000000000000000000e+00) (25, 5, 1.00000000000000000000e+00) (25, 5, 1.00000000000000000000e+00) (25, 5, 1.00000000000000000000e+00) (25, 5, 1.00000000000000000000e+00) (25, 5, 1.00000000000000000000e+00) (25, 5, 1.00000000000000000000e+00) (25, 5, 1.00000000000000000000e+00) (25, 5, 1.00000000000000000000e+00) (25, 5, 1.00000000000000000000e+00) (25, 5, 1.00000000000000000000e+00) (25, 5, 1.00000000000000000000e+00) (25, 5, 1.00000000000000000000e+00) (25, 5, 1.00000000000000000000e+00) (25, 5, 1.00000000000000000000e+00) (25, 5, 1.00000000000000000000e+00) (25, 5, 1.00000000000000000000e+00) (25, 5, 1.00000000000000000000e+00) (25, 5, 1.00000000000000000000e+00) (25, 5, 1.00000000000000000000e+00) (25, 5, 1.00000000000000000000e+00) (25, 5, 1.00000000000000000000e+00) (0, 5, 1.00000000000000000000e+00) (25, 5, 1.00000000000000000000e+00) (25, 5, 1.00000000000000000000e+00) (25, 5, 1.00000000000000000000e+00) (25, 5, 1.00000000000000000000e+00) (25, 5, 1.00000000000000000000e+00) (25, 5, 1.00000000000000000000e+00) (25, 5, 1.00000000000000000000e+00) (25, 5, 1.00000000000000000000e+00) (25, 5, 1.00000000000000000000e+00) (25, 5, 1.00000000000000000000e+00) (25, 5, 1.00000000000000000000e+00) (25, 5, 1.00000000000000000000e+00) (25, 5, 1.00000000000000000000e+00) (25, 5, 1.00000000000000000000e+00) (25, 5, 1.00000000000000000000e+00) (25, 5, 1.00000000000000000000e+00) (25, 5, 1.00000000000000000000e+00) (25, 5, 1.00000000000000000000e+00) (25, 5, 1.00000000000000000000e+00) (25, 5, 1.00000000000000000000e+00) (25, 5, 1.00000000000000000000e+00) (25, 5, 1.00000000000000000000e+00) (25, 5, 1.00000000000000000000e+00) (25, 5, 1.00000000000000000000e+00) (0, 5, 1.00000000000000000000e+00) (25, 5, 1.00000000000000000000e+00) (25, 5, 1.00000000000000000000e+00) (25, 5, 1.00000000000000000000e+00) (25, 5, 1.00000000000000000000e+00) (25, 5, 1.00000000000000000000e+00) (25, 5, 1.00000000000000000000e+00) (25, 5, 1.00000000000000000000e+00) (25, 5, 1.00000000000000000000e+00) (25, 5, 1.00000000000000000000e+00) (25, 5, 1.00000000000000000000e+00) (25, 5, 1.00000000000000000000e+00) (25, 5, 1.00000000000000000000e+00) (25, 5, 1.00000000000000000000e+00) (25, 5, 1.00000000000000000000e+00) (25, 5, 1.00000000000000000000e+00) (25, 5, 1.00000000000000000000e+00) (25, 5, 1.00000000000000000000e+00) (25, 5, 1.00000000000000000000e+00) (25, 5, 1.00000000000000000000e+00) (25, 5, 1.00000000000000000000e+00) (25, 5, 1.00000000000000000000e+00) (25, 5, 1.00000000000000000000e+00) (25, 5, 1.00000000000000000000e+00) (25, 5, 1.00000000000000000000e+00) (0, 5, 1.00000000000000000000e+00) (25, 5, 1.00000000000000000000e+00) (25, 5, 1.00000000000000000000e+00) (25, 5, 1.00000000000000000000e+00) (25, 5, 1.00000000000000000000e+00) (25, 5, 1.00000000000000000000e+00) (25, 5, 1.00000000000000000000e+00) (25, 5, 1.00000000000000000000e+00) (25, 5, 1.00000000000000000000e+00) (25, 5, 1.00000000000000000000e+00) (25, 5, 1.00000000000000000000e+00) (25, 5, 1.00000000000000000000e+00) (25, 5, 1.00000000000000000000e+00) (25, 5, 1.00000000000000000000e+00) (25, 5, 1.00000000000000000000e+00) (25, 5, 1.00000000000000000000e+00) (25, 5, 1.00000000000000000000e+00) (25, 5, 1.00000000000000000000e+00) (25, 5, 1.00000000000000000000e+00) (25, 5, 1.00000000000000000000e+00) (25, 5, 1.00000000000000000000e+00) (25, 5, 1.00000000000000000000e+00) (25, 5, 1.00000000000000000000e+00) (25, 5, 1.00000000000000000000e+00) (25, 5, 1.00000000000000000000e+00) (0, 5, 1.00000000000000000000e+00) (25, 5, 1.00000000000000000000e+00) (25, 5, 1.00000000000000000000e+00) (25, 5, 1.00000000000000000000e+00) (25, 5, 1.00000000000000000000e+00) (25, 5, 1.00000000000000000000e+00) (25, 5, 1.00000000000000000000e+00) (25, 5, 1.00000000000000000000e+00) (25, 5, 1.00000000000000000000e+00) (25, 5, 1.00000000000000000000e+00) (25, 5, 1.00000000000000000000e+00) (25, 5, 1.00000000000000000000e+00) (25, 5, 1.00000000000000000000e+00) (25, 5, 1.00000000000000000000e+00) (25, 5, 1.00000000000000000000e+00) (25, 5, 1.00000000000000000000e+00) (25, 5, 1.00000000000000000000e+00) (25, 5, 1.00000000000000000000e+00) (25, 5, 1.00000000000000000000e+00) (25, 5, 1.00000000000000000000e+00) (25, 5, 1.00000000000000000000e+00) (25, 5, 1.00000000000000000000e+00) (25, 5, 1.00000000000000000000e+00) (25, 5, 1.00000000000000000000e+00) (25, 5, 1.00000000000000000000e+00) (0, 5, 1.00000000000000000000e+00) (25, 5, 1.00000000000000000000e+00) (25, 5, 1.00000000000000000000e+00) (25, 5, 1.00000000000000000000e+00) (25, 5, 1.00000000000000000000e+00) (25, 5, 1.00000000000000000000e+00) (25, 5, 1.00000000000000000000e+00) (25, 5, 1.00000000000000000000e+00) (25, 5, 1.00000000000000000000e+00) (25, 5, 1.00000000000000000000e+00) (25, 5, 1.00000000000000000000e+00) (25, 5, 1.00000000000000000000e+00) (25, 5, 1.00000000000000000000e+00) (25, 5, 1.00000000000000000000e+00) (25, 5, 1.00000000000000000000e+00) (25, 5, 1.00000000000000000000e+00) (25, 5, 1.00000000000000000000e+00) (25, 5, 1.00000000000000000000e+00) (25, 5, 1.00000000000000000000e+00) (25, 5, 1.00000000000000000000e+00) (25, 5, 1.00000000000000000000e+00) (25, 5, 1.00000000000000000000e+00) (25, 5, 1.00000000000000000000e+00) (25, 5, 1.00000000000000000000e+00) (25, 5, 1.00000000000000000000e+00) (0, 5, 1.00000000000000000000e+00) (25, 5, 1.00000000000000000000e+00) (25, 5, 1.00000000000000000000e+00) (25, 5, 1.00000000000000000000e+00) (25, 5, 1.00000000000000000000e+00) (25, 5, 1.00000000000000000000e+00) (25, 5, 1.00000000000000000000e+00) (25, 5, 1.00000000000000000000e+00) (25, 5, 1.00000000000000000000e+00) (25, 5, 1.00000000000000000000e+00) (25, 5, 1.00000000000000000000e+00) (25, 5, 1.00000000000000000000e+00) (25, 5, 1.00000000000000000000e+00) (25, 5, 1.00000000000000000000e+00) (25, 5, 1.00000000000000000000e+00) (25, 5, 1.00000000000000000000e+00) (25, 5, 1.00000000000000000000e+00) (25, 5, 1.00000000000000000000e+00) (25, 5, 1.00000000000000000000e+00) (25, 5, 1.00000000000000000000e+00) (25, 5, 1.00000000000000000000e+00) (25, 5, 1.00000000000000000000e+00) (25, 5, 1.00000000000000000000e+00) (25, 5, 1.00000000000000000000e+00) (25, 5, 1.00000000000000000000e+00) (0, 5, 1.00000000000000000000e+00) (25, 5, 1.00000000000000000000e+00) (25, 5, 1.00000000000000000000e+00) (25, 5, 1.00000000000000000000e+00) (25, 5, 1.00000000000000000000e+00) (25, 5, 1.00000000000000000000e+00) (25, 5, 1.00000000000000000000e+00) (25, 5, 1.00000000000000000000e+00) (25, 5, 1.00000000000000000000e+00) (25, 5, 1.00000000000000000000e+00) (25, 5, 1.00000000000000000000e+00) (25, 5, 1.00000000000000000000e+00) (25, 5, 1.00000000000000000000e+00) (25, 5, 1.00000000000000000000e+00) (25, 5, 1.00000000000000000000e+00) (25, 5, 1.00000000000000000000e+00) (25, 5, 1.00000000000000000000e+00) (25, 5, 1.00000000000000000000e+00) (25, 5, 1.00000000000000000000e+00) (25, 5, 1.00000000000000000000e+00) (25, 5, 1.00000000000000000000e+00) (25, 5, 1.00000000000000000000e+00) (25, 5, 1.00000000000000000000e+00) (25, 5, 1.00000000000000000000e+00) (25, 5, 1.00000000000000000000e+00) (0, 5, 1.00000000000000000000e+00) (25, 5, 1.00000000000000000000e+00) (25, 5, 1.00000000000000000000e+00) (25, 5, 1.00000000000000000000e+00) (25, 5, 1.00000000000000000000e+00) (25, 5, 1.00000000000000000000e+00) (25, 5, 1.00000000000000000000e+00) (25, 5, 1.00000000000000000000e+00) (25, 5, 1.00000000000000000000e+00) (25, 5, 1.00000000000000000000e+00) (25, 5, 1.00000000000000000000e+00) (25, 5, 1.00000000000000000000e+00) (25, 5, 1.00000000000000000000e+00) (25, 5, 1.00000000000000000000e+00) (25, 5, 1.00000000000000000000e+00) (25, 5, 1.00000000000000000000e+00) (25, 5, 1.00000000000000000000e+00) (25, 5, 1.00000000000000000000e+00) (25, 5, 1.00000000000000000000e+00) (25, 5, 1.00000000000000000000e+00) (25, 5, 1.00000000000000000000e+00) (25, 5, 1.00000000000000000000e+00) (25, 5, 1.00000000000000000000e+00) (25, 5, 1.00000000000000000000e+00) (25, 5, 1.00000000000000000000e+00) (0, 5, 1.00000000000000000000e+00) (25, 5, 1.00000000000000000000e+00) (25, 5, 1.00000000000000000000e+00) (25, 5, 1.00000000000000000000e+00) (25, 5, 1.00000000000000000000e+00) (25, 5, 1.00000000000000000000e+00) (25, 5, 1.00000000000000000000e+00) (25, 5, 1.00000000000000000000e+00) (25, 5, 1.00000000000000000000e+00) (25, 5, 1.00000000000000000000e+00) (25, 5, 1.00000000000000000000e+00) (25, 5, 1.00000000000000000000e+00) (25, 5, 1.00000000000000000000e+00) (25, 5, 1.00000000000000000000e+00) (25, 5, 1.00000000000000000000e+00) (25, 5, 1.00000000000000000000e+00) (25, 5, 1.00000000000000000000e+00) (25, 5, 1.00000000000000000000e+00) (25, 5, 1.00000000000000000000e+00) (25, 5, 1.00000000000000000000e+00) (25, 5, 1.00000000000000000000e+00) (25, 5, 1.00000000000000000000e+00) (25, 5, 1.00000000000000000000e+00) (25, 5, 1.00000000000000000000e+00) (25, 5, 1.00000000000000000000e+00) (0, 5, 1.00000000000000000000e+00) (25, 5, 1.00000000000000000000e+00) (25, 5, 1.00000000000000000000e+00) (25, 5, 1.00000000000000000000e+00) (25, 5, 1.00000000000000000000e+00) (25, 5, 1.00000000000000000000e+00) (25, 5, 1.00000000000000000000e+00) (25, 5, 1.00000000000000000000e+00) (25, 5, 1.00000000000000000000e+00) (25, 5, 1.00000000000000000000e+00) (25, 5, 1.00000000000000000000e+00) (25, 5, 1.00000000000000000000e+00) (25, 5, 1.00000000000000000000e+00) (25, 5, 1.00000000000000000000e+00) (25, 5, 1.00000000000000000000e+00) (25, 5, 1.00000000000000000000e+00) (25, 5, 1.00000000000000000000e+00) (0, 5, 1.00000000000000000000e+00) (17, 5, 1.00000000000000000000e+00) (17, 5, 1.00000000000000000000e+00) (17, 5, 1.00000000000000000000e+00) (17, 5, 1.00000000000000000000e+00) (17, 5, 1.00000000000000000000e+00) (17, 5, 1.00000000000000000000e+00) (17, 5, 1.00000000000000000000e+00) (17, 5, 1.00000000000000000000e+00) (0, 5, 1.00000000000000000000e+00) 
connections (connected_to_neuron, weight)=(0, 4.53155696392059326172e-01) (1, 6.68122053146362304688e-01) (2, 6.87694549560546875000e-01) (3, -6.19069814682006835938e-01) (4, 1.75807726383209228516e+00) (5, 1.10211765766143798828e+00) (6, 7.31485188007354736328e-01) (7, 1.92406833171844482422e-01) (8, 1.31479668617248535156e+00) (9, 5.99020004272460937500e-01) (10, -5.09943783283233642578e-01) (11, -9.17126685380935668945e-02) (12, -6.83660387992858886719e-01) (13, -8.85720670223236083984e-01) (14, 4.54603999853134155273e-01) (15, 4.83100563287734985352e-01) (16, 1.80585384368896484375e+00) (0, 1.12101125717163085938e+00) (1, 5.58091282844543457031e-01) (2, 4.87647384405136108398e-01) (3, 6.04284465312957763672e-01) (4, 1.29360541701316833496e-01) (5, 6.73886537551879882812e-01) (6, 7.07965135574340820312e-01) (7, 7.91049003601074218750e-01) (8, 8.42240393161773681641e-01) (9, 7.40024566650390625000e-01) (10, 9.60234940052032470703e-01) (11, 6.66501522064208984375e-01) (12, 1.09572160243988037109e+00) (13, 9.68549191951751708984e-01) (14, 1.30914103984832763672e+00) (15, 8.18609237670898437500e-01) (16, -4.16227251291275024414e-01) (0, 9.23401117324829101562e-01) (1, -3.98735180497169494629e-02) (2, 1.07347637414932250977e-01) (3, 1.09429728984832763672e+00) (4, 1.52390480041503906250e-01) (5, 8.60741794109344482422e-01) (6, 8.80197107791900634766e-01) (7, 9.73959639668464660645e-02) (8, 1.25167369842529296875e+00) (9, 1.27788126468658447266e-01) (10, 3.47775757312774658203e-01) (11, 7.84981548786163330078e-02) (12, 7.19796061515808105469e-01) (13, 6.74320876598358154297e-01) (14, 8.89890074729919433594e-01) (15, 2.43064478039741516113e-01) (16, -1.51743039488792419434e-01) (0, -1.22470104694366455078e+00) (1, 4.12110716104507446289e-01) (2, 6.67355835437774658203e-01) (3, 7.61782467365264892578e-01) (4, 2.03405380249023437500e+00) (5, 4.37615327537059783936e-02) (6, 9.18540060520172119141e-01) (7, 3.16076874732971191406e+00) (8, 7.09985435009002685547e-01) (9, 7.43866264820098876953e-02) (10, 3.62764000892639160156e-01) (11, -1.94567888975143432617e-01) (12, -1.63620316982269287109e+00) (13, 1.38061881065368652344e-01) (14, 8.20150911808013916016e-01) (15, 6.24568238854408264160e-02) (16, 7.56524741649627685547e-01) (0, 8.33924114704132080078e-01) (1, 2.46203333139419555664e-01) (2, 5.60936212539672851562e-01) (3, 2.62600809335708618164e-01) (4, 2.00749254226684570312e+00) (5, 8.81602525711059570312e-01) (6, -1.28748878836631774902e-01) (7, 6.94881856441497802734e-01) (8, 1.02771115303039550781e+00) (9, 3.02135497331619262695e-01) (10, 6.46478474140167236328e-01) (11, 5.80738127231597900391e-01) (12, 8.36625248193740844727e-02) (13, 2.86799788475036621094e-01) (14, 5.31871259212493896484e-01) (15, 2.01062902808189392090e-01) (16, 2.09383323788642883301e-01) (0, 1.71174788475036621094e+00) (1, 6.73650875687599182129e-02) (2, 3.68472456932067871094e-01) (3, 1.80595910549163818359e+00) (4, 4.18683916330337524414e-01) (5, 8.42294514179229736328e-01) (6, 4.53642234206199645996e-02) (7, 3.48585426807403564453e-01) (8, 8.42094004154205322266e-01) (9, 2.60763764381408691406e-01) (10, 1.92178681492805480957e-01) (11, 4.25205081701278686523e-01) (12, 9.93181765079498291016e-01) (13, 3.64180713891983032227e-01) (14, 6.34038150310516357422e-01) (15, -1.99730485677719116211e-01) (16, 5.00531613826751708984e-01) (0, 8.52234721183776855469e-01) (1, -1.63954254239797592163e-02) (2, 8.55572223663330078125e-01) (3, 4.82127130031585693359e-01) (4, 4.99233037233352661133e-01) (5, 1.10928499698638916016e+00) (6, -1.67376875877380371094e+00) (7, 3.98809134960174560547e-01) (8, 1.04389286041259765625e+00) (9, 1.69010579586029052734e-01) (10, 1.52574658393859863281e-01) (11, 4.46432888507843017578e-01) (12, 4.95265573263168334961e-01) (13, 8.36768686771392822266e-01) (14, 1.28299200534820556641e+00) (15, 7.91809260845184326172e-02) (16, -1.06277748942375183105e-01) (0, 7.28826224803924560547e-01) (1, 4.00432854890823364258e-01) (2, 6.98664188385009765625e-01) (3, 1.02896857261657714844e+00) (4, 1.90266871452331542969e+00) (5, 8.33196699619293212891e-01) (6, -2.90677249431610107422e-01) (7, 2.09330081939697265625e-01) (8, 9.02902781963348388672e-01) (9, 3.20956796407699584961e-01) (10, 2.53909640014171600342e-02) (11, 6.01629376411437988281e-01) (12, -8.06663185358047485352e-02) (13, 2.38719895482063293457e-01) (14, 4.49619263410568237305e-01) (15, 1.97116017341613769531e-01) (16, 2.84775495529174804688e-01) (0, 1.29294610023498535156e+00) (1, 5.96958100795745849609e-01) (2, 1.46088099479675292969e+00) (3, -8.51719826459884643555e-02) (4, 1.19396281242370605469e+00) (5, 1.25451052188873291016e+00) (6, 3.02976101636886596680e-01) (7, 2.35499143600463867188e-01) (8, 9.78024840354919433594e-01) (9, 6.77606284618377685547e-01) (10, -3.80469292402267456055e-01) (11, 2.61267602443695068359e-01) (12, -1.72103619575500488281e+00) (13, -1.16403663158416748047e+00) (14, 7.10445284843444824219e-01) (15, 3.83389383554458618164e-01) (16, 9.17792558670043945312e-01) (0, 7.59898245334625244141e-01) (1, 4.16036081314086914062e+00) (2, -4.13184948265552520752e-02) (3, 1.75226017832756042480e-01) (4, 2.00704860687255859375e+00) (5, 1.82454037666320800781e+00) (6, 1.59783506393432617188e+00) (7, 2.72819340229034423828e-01) (8, 8.11298251152038574219e-01) (9, 6.29832208156585693359e-01) (10, -1.86434686183929443359e-01) (11, 4.83070135116577148438e-01) (12, -1.77459731698036193848e-01) (13, -1.51485693454742431641e+00) (14, 6.90066695213317871094e-01) (15, 2.16423797607421875000e+00) (16, 1.57141149044036865234e+00) (0, 9.02666151523590087891e-01) (1, 4.67059820890426635742e-01) (2, 3.98828685283660888672e-01) (3, 5.61637103557586669922e-01) (4, 2.60580778121948242188e+00) (5, 5.50624370574951171875e-01) (6, -2.40839362144470214844e-01) (7, 4.30646568536758422852e-01) (8, 7.66917884349822998047e-01) (9, -1.17108803242444992065e-02) (10, 3.53829264640808105469e-01) (11, 4.29662466049194335938e-01) (12, -6.23620867729187011719e-01) (13, 1.26316715031862258911e-02) (14, 2.37412497401237487793e-01) (15, 2.15890035033226013184e-01) (16, 5.73521435260772705078e-01) (0, 6.14793479442596435547e-01) (1, 4.93646442890167236328e-01) (2, -2.93169431388378143311e-02) (3, 5.14820754528045654297e-01) (4, 4.81024831533432006836e-02) (5, 1.01072788238525390625e+00) (6, 4.78519439697265625000e-01) (7, 1.15252637863159179688e+00) (8, 6.98246538639068603516e-01) (9, 5.09155809879302978516e-01) (10, 2.23990604281425476074e-01) (11, 4.67444695532321929932e-02) (12, 1.59534722566604614258e-01) (13, 1.41871348023414611816e-01) (14, 1.00667560100555419922e+00) (15, 7.36412167549133300781e-01) (16, 8.36009010672569274902e-02) (0, 1.13712489604949951172e+00) (1, 2.32945322990417480469e-01) (2, 6.21460556983947753906e-01) (3, 1.35303163528442382812e+00) (4, 6.41386210918426513672e-01) (5, 8.02794575691223144531e-01) (6, 8.52026045322418212891e-01) (7, 3.89315247535705566406e-01) (8, 1.04059565067291259766e+00) (9, 1.52690932154655456543e-02) (10, 6.67218446731567382812e-01) (11, 6.08479678630828857422e-01) (12, 6.21292352676391601562e-01) (13, 3.53416383266448974609e-01) (14, 5.80169081687927246094e-01) (15, -3.12776118516921997070e-01) (16, 2.29467317461967468262e-01) (0, 5.99185168743133544922e-01) (1, 1.39956921339035034180e-01) (2, 2.86006450653076171875e-01) (3, 3.73317742347717285156e+00) (4, 3.43425333499908447266e-01) (5, 5.26141747832298278809e-02) (6, -1.93765729665756225586e-01) (7, -1.97026237845420837402e-01) (8, 9.41112041473388671875e-01) (9, 5.28185665607452392578e-01) (10, 1.37507021427154541016e-01) (11, 3.66306871175765991211e-01) (12, 8.15501153469085693359e-01) (13, 1.50167036056518554688e+00) (14, 3.15891236066818237305e-01) (15, 2.29189574718475341797e-01) (16, 9.45028126239776611328e-01) (0, 4.49730664491653442383e-01) (1, 4.75661844015121459961e-01) (2, 1.20499169826507568359e+00) (3, 1.18620656430721282959e-01) (4, -5.22412545979022979736e-03) (5, 6.26136660575866699219e-01) (6, -3.34255434572696685791e-02) (7, 2.43132567405700683594e+00) (8, 3.67485970258712768555e-01) (9, 6.97418153285980224609e-01) (10, 2.64480680227279663086e-01) (11, 5.43371021747589111328e-01) (12, 1.17789018154144287109e+00) (13, 3.34307700395584106445e-01) (14, 5.17346978187561035156e-01) (15, 2.59100496768951416016e-01) (16, 5.87769865989685058594e-01) (0, 3.95169794559478759766e-01) (1, 6.37329757213592529297e-01) (2, 9.17972624301910400391e-02) (3, 2.92074859142303466797e-01) (4, 1.00923895835876464844e+00) (5, 1.93965935707092285156e+00) (6, 9.30519282817840576172e-01) (7, 1.66320192813873291016e+00) (8, -1.52976199984550476074e-01) (9, 5.05878925323486328125e-01) (10, 5.49852550029754638672e-01) (11, 3.74128550291061401367e-01) (12, -1.84722289443016052246e-01) (13, -3.96599858999252319336e-01) (14, 7.49722421169281005859e-01) (15, 4.15893822908401489258e-01) (16, 4.04309332370758056641e-01) (0, 1.30501174926757812500e+00) (1, -2.85150706768035888672e-01) (2, 3.19827646017074584961e-01) (3, 1.36326038837432861328e+00) (4, 9.90774273872375488281e-01) (5, 2.53446787595748901367e-01) (6, 1.07922399044036865234e+00) (7, 3.91060918569564819336e-01) (8, 1.66736578941345214844e+00) (9, 2.62083679437637329102e-01) (10, -8.31806808710098266602e-02) (11, 2.76629924774169921875e-01) (12, 5.53244531154632568359e-01) (13, 8.39138865470886230469e-01) (14, 5.96395075321197509766e-01) (15, -1.11853845417499542236e-01) (16, 2.00475081801414489746e-01) (0, 9.42452013492584228516e-01) (1, 4.32225644588470458984e-01) (2, 6.62853658199310302734e-01) (3, 1.30305147171020507812e+00) (4, 1.86991441249847412109e+00) (5, 3.78204792737960815430e-01) (6, -1.30850255489349365234e-01) (7, 5.29255926609039306641e-01) (8, 9.93248522281646728516e-01) (9, 3.49484294652938842773e-01) (10, 3.40864926576614379883e-01) (11, 7.09822893142700195312e-01) (12, -5.97791299223899841309e-02) (13, 6.53538107872009277344e-01) (14, 9.74736630916595458984e-01) (15, 8.11233341693878173828e-01) (16, 1.08486068248748779297e+00) (0, -3.22958260774612426758e-01) (1, 2.54390895366668701172e-01) (2, 5.42931795120239257812e-01) (3, 4.02813494205474853516e-01) (4, 2.89661908149719238281e+00) (5, -4.09767925739288330078e-01) (6, -9.40577238798141479492e-02) (7, 6.07067286968231201172e-01) (8, 2.04868197441101074219e+00) (9, 7.06160247325897216797e-01) (10, 5.98026156425476074219e-01) (11, 3.49670469760894775391e-01) (12, 1.77978016436100006104e-02) (13, 3.24772953987121582031e-01) (14, 5.97644925117492675781e-01) (15, -5.21488308906555175781e-01) (16, 1.01313185691833496094e+00) (0, 9.72739338874816894531e-01) (1, 3.75380218029022216797e-01) (2, 9.30633604526519775391e-01) (3, -5.59494853019714355469e-01) (4, 6.54805362224578857422e-01) (5, 3.54000478982925415039e-01) (6, 5.90424835681915283203e-01) (7, 1.30158495903015136719e+00) (8, 3.15133035182952880859e-01) (9, 5.01755118370056152344e-01) (10, 1.60843163728713989258e-01) (11, 6.55994474887847900391e-01) (12, 1.02960336208343505859e+00) (13, -3.62032979726791381836e-01) (14, -1.12481914460659027100e-01) (15, -4.06457344070076942444e-04) (16, -2.24568322300910949707e-02) (0, 1.10300493240356445312e+00) (1, 6.79006278514862060547e-01) (2, -3.75826239585876464844e-01) (3, -2.09197735786437988281e+00) (4, 2.21940779685974121094e+00) (5, 9.98066961765289306641e-01) (6, 9.82340514659881591797e-01) (7, -5.57303056120872497559e-02) (8, 3.82770985364913940430e-01) (9, 4.60346013307571411133e-01) (10, 2.39351943135261535645e-01) (11, 1.90915420651435852051e-01) (12, -6.26083984971046447754e-02) (13, -2.19858303666114807129e-01) (14, 4.21560823917388916016e-01) (15, 1.60284137725830078125e+00) (16, 4.32105064392089843750e-01) (0, 2.78398811817169189453e-01) (1, 8.75190556049346923828e-01) (2, 1.04757857322692871094e+00) (3, 3.43780338764190673828e-01) (4, 1.45170009136199951172e+00) (5, 5.29367446899414062500e-01) (6, 2.33451705425977706909e-02) (7, 2.36558303236961364746e-01) (8, 6.47404909133911132812e-01) (9, 3.32249522209167480469e-01) (10, 4.58483286201953887939e-02) (11, 6.26655399799346923828e-01) (12, -1.91854685544967651367e-01) (13, -2.24789425730705261230e-01) (14, 3.14392507076263427734e-01) (15, 1.26432895660400390625e-01) (16, 2.13421612977981567383e-01) (0, 1.01964259147644042969e+00) (1, 2.89121657609939575195e-01) (2, 1.13167321681976318359e+00) (3, 3.52043628692626953125e-01) (4, 4.65454548597335815430e-01) (5, 1.55850458145141601562e+00) (6, 3.19295465946197509766e-01) (7, 9.45981860160827636719e-01) (8, 9.96660232543945312500e-01) (9, -4.14387807250022888184e-02) (10, 6.37808203697204589844e-01) (11, 3.68826866149902343750e-01) (12, 8.15320491790771484375e-01) (13, 1.72405883669853210449e-01) (14, 9.16957616806030273438e-01) (15, 4.39256012439727783203e-01) (16, 9.34449255466461181641e-01) (0, 1.14274978637695312500e+00) (1, 1.80670514702796936035e-01) (2, 7.83388376235961914062e-01) (3, 5.36085724830627441406e-01) (4, 1.38406133651733398438e+00) (5, 4.54516261816024780273e-01) (6, 1.71737857162952423096e-02) (7, 2.67300277948379516602e-01) (8, 6.28873050212860107422e-01) (9, 3.24674993753433227539e-01) (10, 5.68611621856689453125e-01) (11, 3.40486019849777221680e-01) (12, 6.40959024429321289062e-01) (13, 3.74661505222320556641e-01) (14, 4.00871276855468750000e-01) (15, 9.78687778115272521973e-02) (16, 9.24069643020629882812e-01) (17, 7.01721549034118652344e-01) (18, 4.61480826139450073242e-01) (19, 3.25288355350494384766e-01) (20, 3.20712029933929443359e-01) (21, 3.00863385200500488281e-01) (22, 7.45590746402740478516e-01) (23, 8.96916747093200683594e-01) (24, 2.91157722473144531250e-01) (25, 3.16944628953933715820e-01) (26, 4.50771093368530273438e-01) (27, 4.96581375598907470703e-01) (28, 8.06968748569488525391e-01) (29, 1.19073116779327392578e+00) (30, -8.30408990383148193359e-01) (31, 1.43351125717163085938e+00) (32, 7.13397040963172912598e-02) (33, 4.03098091483116149902e-02) (34, 9.15108919143676757812e-01) (35, 7.58756220340728759766e-01) (36, 5.51180541515350341797e-01) (37, 4.71072018146514892578e-01) (38, 5.88092267513275146484e-01) (39, 6.52203738689422607422e-01) (40, 7.11954891681671142578e-01) (41, 4.85611379146575927734e-01) (17, 4.53676730394363403320e-01) (18, -2.31968790292739868164e-01) (19, -1.38803958892822265625e-01) (20, 4.49265122413635253906e-01) (21, -5.16627252101898193359e-01) (22, 3.41582953929901123047e-01) (23, -2.27554106712341308594e+00) (24, -8.26032102108001708984e-01) (25, 4.04625773429870605469e-01) (26, 7.69584894180297851562e-01) (27, -1.00491374731063842773e-01) (28, 4.45328384637832641602e-01) (29, -6.14483118057250976562e-01) (30, -6.05793774127960205078e-01) (31, 4.91361707448959350586e-01) (32, -5.65442293882369995117e-02) (33, 2.34208121895790100098e-01) (34, 1.33949602022767066956e-02) (35, 1.84857519343495368958e-03) (36, 8.63194882869720458984e-01) (37, 2.43248656392097473145e-01) (38, 1.76772326231002807617e-01) (39, 2.03783437609672546387e-01) (40, 3.06241899728775024414e-01) (41, 3.44675302505493164062e-01) (17, 9.97194349765777587891e-01) (18, -2.34543547034263610840e-01) (19, -2.94595640152692794800e-02) (20, 1.37426719069480895996e-01) (21, 2.71959662437438964844e-01) (22, 6.01569175720214843750e-01) (23, 5.16750574111938476562e-01) (24, 5.53921461105346679688e-01) (25, 1.08841991424560546875e+00) (26, 1.04221653938293457031e+00) (27, 1.46046742796897888184e-01) (28, 5.65510392189025878906e-01) (29, 8.04756879806518554688e-02) (30, 3.24943423271179199219e-01) (31, -2.26247966289520263672e-01) (32, 1.04109525680541992188e-01) (33, 2.55242258310317993164e-01) (34, 5.62183499336242675781e-01) (35, -3.61941456794738769531e+00) (36, -8.73963683843612670898e-02) (37, 2.80562669038772583008e-01) (38, 1.21613651514053344727e-01) (39, 2.09231793880462646484e-01) (40, 3.55334162712097167969e-01) (41, 1.37030327320098876953e+00) (17, 3.49071919918060302734e-02) (18, -4.14428383111953735352e-01) (19, 3.95116716623306274414e-01) (20, 1.07097828388214111328e+00) (21, 2.15059176087379455566e-01) (22, -1.05395424365997314453e+00) (23, -3.80900651216506958008e-01) (24, 2.47479617595672607422e-01) (25, 2.59358584880828857422e-01) (26, 4.73549813032150268555e-01) (27, 4.51195657253265380859e-01) (28, -9.05707776546478271484e-02) (29, -9.21424031257629394531e-01) (30, 1.89916044473648071289e-01) (31, -2.44778975844383239746e-01) (32, 8.49633812904357910156e-01) (33, -6.16459727287292480469e-01) (34, 1.45607185363769531250e+00) (35, 4.50047224760055541992e-01) (36, 2.63817459344863891602e-01) (37, 4.21610295772552490234e-01) (38, 8.22019934654235839844e-01) (39, -4.73128348588943481445e-01) (40, 5.75806796550750732422e-01) (41, 5.81843912601470947266e-01) (17, 4.64904546737670898438e-01) (18, -5.94357490539550781250e-01) (19, -3.07226449251174926758e-01) (20, 8.44115734100341796875e-01) (21, 1.22075956314802169800e-02) (22, 2.00343668460845947266e-01) (23, 1.34994044899940490723e-01) (24, 9.14373099803924560547e-01) (25, 6.65588617324829101562e-01) (26, 8.13903585076332092285e-02) (27, 8.66813778877258300781e-01) (28, 1.07381653785705566406e+00) (29, 2.12652564048767089844e-01) (30, 4.28570091724395751953e-01) (31, 1.44847273826599121094e+00) (32, 4.85530078411102294922e-01) (33, -3.94977852702140808105e-02) (34, 6.73470437526702880859e-01) (35, 1.87803387641906738281e+00) (36, 4.77252423763275146484e-01) (37, -5.48164308071136474609e-01) (38, 2.00041100382804870605e-01) (39, -6.10132217407226562500e-01) (40, 1.43036985397338867188e+00) (41, 4.57693308591842651367e-01) (17, 1.07348775863647460938e+00) (18, 3.47174286842346191406e-01) (19, 1.37304231524467468262e-01) (20, 2.65529185533523559570e-01) (21, -6.75482392311096191406e-01) (22, -6.65428876876831054688e-01) (23, -1.95626461505889892578e+00) (24, -4.16166275739669799805e-01) (25, 5.04870951175689697266e-01) (26, 5.30745863914489746094e-01) (27, 1.79664865136146545410e-01) (28, -1.81523844599723815918e-01) (29, -9.65134143829345703125e-01) (30, -1.61982619762420654297e+00) (31, -1.85043066740036010742e-01) (32, 1.71113416552543640137e-01) (33, -4.51160311698913574219e-01) (34, 3.35533231496810913086e-01) (35, 1.90027266740798950195e-01) (36, 1.47165045142173767090e-01) (37, 7.14918553829193115234e-01) (38, 2.41246044635772705078e-01) (39, -1.14295557141304016113e-01) (40, -7.54366099834442138672e-01) (41, 9.96582984924316406250e-01) (17, 4.57200169563293457031e-01) (18, 1.17540704086422920227e-02) (19, -4.31438721716403961182e-02) (20, 4.12764847278594970703e-01) (21, 8.02868127822875976562e-01) (22, 1.81880638003349304199e-01) (23, 2.64161050319671630859e-01) (24, 7.20817029476165771484e-01) (25, 7.43552565574645996094e-01) (26, 4.70567077398300170898e-01) (27, 3.71990025043487548828e-01) (28, 5.83144247531890869141e-01) (29, 3.39665269851684570312e+00) (30, 2.52539068460464477539e-01) (31, 5.67853972315788269043e-02) (32, 5.90616405010223388672e-01) (33, -8.00522387027740478516e-01) (34, 1.13692510128021240234e+00) (35, 9.73543822765350341797e-01) (36, -1.89582198858261108398e-01) (37, 3.04234683513641357422e-01) (38, 1.18452942371368408203e+00) (39, -1.92873463034629821777e-01) (40, 7.74239838123321533203e-01) (41, 6.03394806385040283203e-01) (17, 8.77724409103393554688e-01) (18, 4.99568879604339599609e-01) (19, 4.36129748821258544922e-01) (20, 1.38771921396255493164e-01) (21, 5.49004316329956054688e-01) (22, 5.18342792987823486328e-01) (23, 2.36840829253196716309e-01) (24, -1.06429493427276611328e+00) (25, 3.77747148275375366211e-01) (26, 1.18028199672698974609e+00) (27, 5.28104603290557861328e-01) (28, 3.68871599435806274414e-01) (29, -5.65379619598388671875e-01) (30, 1.05071872472763061523e-01) (31, -1.69209325313568115234e+00) (32, 6.16682708263397216797e-01) (33, 1.53712838888168334961e-01) (34, 4.50058996677398681641e-01) (35, -2.65391111373901367188e-01) (36, 2.04729899764060974121e-01) (37, 4.49427992105484008789e-01) (38, 4.09603178501129150391e-01) (39, -8.22804421186447143555e-02) (40, -9.29375112056732177734e-01) (41, -1.15879341959953308105e-01) (17, 3.33679616451263427734e-01) (18, -5.23026764392852783203e-01) (19, -3.12965661287307739258e-01) (20, 6.51178181171417236328e-01) (21, 2.63086766004562377930e-01) (22, -2.56093740463256835938e+00) (23, -6.90259039402008056641e-01) (24, -7.02890614047646522522e-03) (25, 4.49381142854690551758e-01) (26, 7.66710877418518066406e-01) (27, -1.43558308482170104980e-01) (28, 2.91595846414566040039e-01) (29, -8.24761912226676940918e-02) (30, -2.08666300773620605469e+00) (31, 4.70444381237030029297e-01) (32, 6.64548039436340332031e-01) (33, -3.50974410772323608398e-01) (34, 1.46292177960276603699e-02) (35, 7.05620050430297851562e-01) (36, 8.13375264406204223633e-02) (37, 3.90926301479339599609e-01) (38, 6.56764507293701171875e-01) (39, -1.97706055641174316406e+00) (40, -6.68771088123321533203e-01) (41, 1.22347402572631835938e+00) (17, -1.79338783025741577148e-01) (18, 2.42849215865135192871e-01) (19, 1.91171991173177957535e-03) (20, 4.40782546997070312500e-01) (21, 4.52715605497360229492e-01) (22, 1.28399348258972167969e+00) (23, 6.91881418228149414062e-01) (24, 4.38833743333816528320e-01) (25, 2.93889753520488739014e-02) (26, 7.29683578014373779297e-01) (27, 7.21386492252349853516e-01) (28, 1.64035987108945846558e-02) (29, 1.58206987380981445312e+00) (30, 5.30217945575714111328e-01) (31, 7.67479181289672851562e-01) (32, 1.13057065010070800781e+00) (33, -1.91303696483373641968e-02) (34, 6.21661424636840820312e-01) (35, 6.97344779968261718750e-01) (36, 2.85576164722442626953e-01) (37, 6.63429871201515197754e-02) (38, 5.83219587802886962891e-01) (39, 1.63052365183830261230e-01) (40, 5.03225982189178466797e-01) (41, 8.67561221122741699219e-01) (17, 2.24226236343383789062e+00) (18, -1.23343396186828613281e+00) (19, -3.25658172369003295898e-01) (20, 8.39834436774253845215e-02) (21, -7.45221197605133056641e-01) (22, -3.34229171276092529297e-02) (23, -1.95788949728012084961e-01) (24, 3.55598568916320800781e-01) (25, 3.91571551561355590820e-01) (26, 5.91478228569030761719e-01) (27, 8.20750474929809570312e-01) (28, 2.47961655259132385254e-01) (29, -1.00817608833312988281e+00) (30, 2.36116454005241394043e-01) (31, -9.35386657714843750000e-01) (32, 4.92701530456542968750e-02) (33, 1.65884960442781448364e-02) (34, 2.09724888205528259277e-01) (35, 7.24501788616180419922e-01) (36, 2.92230546474456787109e-01) (37, 4.35534983873367309570e-01) (38, 6.54031276702880859375e-01) (39, 5.00142931938171386719e-01) (40, 6.18564307689666748047e-01) (41, 7.73526668548583984375e-01) (17, 9.08500492572784423828e-01) (18, 1.33781479671597480774e-02) (19, 3.06727111339569091797e-01) (20, 4.10595268011093139648e-01) (21, -1.51066416874527931213e-02) (22, -1.01938927173614501953e+00) (23, -2.60521739721298217773e-01) (24, 2.89074391126632690430e-01) (25, 9.23094034194946289062e-01) (26, 1.26299273967742919922e+00) (27, 5.38402497768402099609e-01) (28, 5.79795129597187042236e-02) (29, -6.71616554260253906250e-01) (30, 2.09786087274551391602e-01) (31, -3.76131504774093627930e-01) (32, 8.24700713157653808594e-01) (33, -7.21746385097503662109e-01) (34, 1.77547276020050048828e-01) (35, 2.26916059851646423340e-01) (36, 2.51412689685821533203e-01) (37, 8.37219417095184326172e-01) (38, 6.62743270397186279297e-01) (39, 2.04902037978172302246e-01) (40, 3.17498147487640380859e-01) (41, 1.78959429264068603516e-01) (17, 5.76856076717376708984e-01) (18, 2.42974877357482910156e-01) (19, 1.65384757518768310547e+00) (20, 1.42201811075210571289e-01) (21, 8.94946336746215820312e-01) (22, 1.35108634829521179199e-01) (23, 3.53779643774032592773e-02) (24, 5.04727482795715332031e-01) (25, 3.60572427511215209961e-01) (26, 1.12926349043846130371e-01) (27, 2.01745688915252685547e-01) (28, 9.49239730834960937500e-01) (29, 2.05273613333702087402e-01) (30, 8.10282468795776367188e-01) (31, 6.20180964469909667969e-01) (32, 1.81698113679885864258e-01) (33, 5.84733009338378906250e-01) (34, 7.57926225662231445312e-01) (35, 1.70758776366710662842e-02) (36, 3.82306247949600219727e-01) (37, 4.04283046722412109375e-01) (38, 4.76896703243255615234e-01) (39, -5.30788116157054901123e-02) (40, 1.17440629005432128906e+00) (41, -4.23321634531021118164e-01) (17, 7.71604359149932861328e-01) (18, -1.45421707630157470703e+00) (19, 1.09096385538578033447e-01) (20, 7.25065529346466064453e-01) (21, 1.60055172443389892578e+00) (22, 9.87144589424133300781e-01) (23, 8.02957892417907714844e-01) (24, 1.24197161197662353516e+00) (25, 4.47045713663101196289e-01) (26, -5.60544192790985107422e-01) (27, 8.96992802619934082031e-01) (28, 9.33875679969787597656e-01) (29, 3.14547181129455566406e-01) (30, -1.00380584597587585449e-01) (31, -1.20386339724063873291e-01) (32, 7.04104900360107421875e-01) (33, -2.08288848400115966797e-01) (34, 1.13851475715637207031e+00) (35, 7.85827398300170898438e+00) (36, 1.02081239223480224609e+00) (37, -1.55435764789581298828e+00) (38, 8.29426169395446777344e-01) (39, -6.81976526975631713867e-02) (40, 2.77986145019531250000e+00) (41, 1.35925710201263427734e+00) (17, 1.12628984451293945312e+00) (18, 4.61011379957199096680e-01) (19, 1.45578873343765735626e-03) (20, 3.30028980970382690430e-01) (21, -2.29204848408699035645e-01) (22, 1.57034665346145629883e-01) (23, -8.68444681167602539062e-01) (24, -4.81196403503417968750e-01) (25, 8.89768362045288085938e-01) (26, 1.46943092346191406250e+00) (27, 2.41578057408332824707e-01) (28, 2.72576004266738891602e-01) (29, -1.94197845458984375000e+00) (30, 4.84678568318486213684e-03) (31, 1.19315004348754882812e+00) (32, 2.86349028348922729492e-01) (33, -5.54833710193634033203e-01) (34, 4.70605939626693725586e-01) (35, 2.37673550844192504883e-01) (36, 6.48474335670471191406e-01) (37, 5.55135726928710937500e-01) (38, 3.62234443426132202148e-01) (39, 5.99893368780612945557e-03) (40, -1.19060301780700683594e+00) (41, 8.86587321758270263672e-01) (17, 9.88432765007019042969e-01) (18, 1.87454819679260253906e-01) (19, 4.99268889427185058594e-01) (20, 1.64295420050621032715e-01) (21, 6.95346236228942871094e-01) (22, 5.83944439888000488281e-01) (23, 9.16558444499969482422e-01) (24, 2.95843929052352905273e-01) (25, 6.22139275074005126953e-01) (26, 4.68273699283599853516e-01) (27, 5.16653239727020263672e-01) (28, 7.42312431335449218750e-01) (29, 6.50164723396301269531e-01) (30, -2.37117648124694824219e-01) (31, 2.75208771228790283203e-01) (32, 2.91926503181457519531e-01) (33, 5.97245037555694580078e-01) (34, 3.68618309497833251953e-01) (35, 5.69836497306823730469e-01) (36, 6.60062134265899658203e-01) (37, 9.88283932209014892578e-01) (38, 1.08637809753417968750e-01) (39, 4.30412530899047851562e-01) (40, 4.50791604816913604736e-02) (41, 7.28652417659759521484e-01) (17, 4.08870816230773925781e-01) (18, 9.03327018022537231445e-02) (19, -3.69619876146316528320e-01) (20, 5.21610379219055175781e-01) (21, 5.04512846469879150391e-01) (22, -2.45865270495414733887e-01) (23, -9.32760536670684814453e-02) (24, 8.23643624782562255859e-01) (25, -1.45589068531990051270e-01) (26, -1.19963720440864562988e-01) (27, 7.68603444099426269531e-01) (28, -1.86600649356842041016e+00) (29, 6.38414800167083740234e-01) (30, 1.68884858489036560059e-01) (31, -4.70131248235702514648e-01) (32, 1.62510573863983154297e-01) (33, -8.18718150258064270020e-02) (34, 4.14205700159072875977e-01) (35, 8.54486703872680664062e-01) (36, -8.50792005658149719238e-02) (37, 1.54966637492179870605e-01) (38, 1.26967564225196838379e-01) (39, -7.52429842948913574219e-01) (40, -1.33173450827598571777e-01) (41, 3.12379121780395507812e-01) (17, 1.80336689949035644531e+00) (18, 7.62991793453693389893e-03) (19, -1.86285987496376037598e-01) (20, 8.13434645533561706543e-02) (21, -1.80158779025077819824e-01) (22, -6.91590845584869384766e-01) (23, -7.54986882209777832031e-01) (24, 6.25791773200035095215e-02) (25, 1.03892207145690917969e+00) (26, 7.54291594028472900391e-01) (27, 1.94578871130943298340e-01) (28, -6.78940415382385253906e-01) (29, -1.15871131420135498047e+00) (30, -5.18895030021667480469e-01) (31, -4.00732100009918212891e-01) (32, 9.01032686233520507812e-01) (33, -2.77265101671218872070e-01) (34, 2.49710336327552795410e-01) (35, 2.59368330240249633789e-01) (36, 3.96035343408584594727e-01) (37, 1.06385421752929687500e+00) (38, 9.49482858180999755859e-01) (39, -3.01170766353607177734e-01) (40, -8.94355654716491699219e-01) (41, 1.03160643577575683594e+00) (17, 6.87727928161621093750e-01) (18, 1.89492091536521911621e-01) (19, 5.92895090579986572266e-01) (20, 4.88684415817260742188e-01) (21, 7.63029694557189941406e-01) (22, 5.40620207786560058594e-01) (23, 6.80145680904388427734e-01) (24, 6.42312288284301757812e-01) (25, 1.78619295358657836914e-01) (26, 1.12305939197540283203e-01) (27, 8.95348370075225830078e-01) (28, 5.38571417331695556641e-01) (29, 1.11907243728637695312e+00) (30, 6.06484353542327880859e-01) (31, 8.12437295913696289062e-01) (32, 4.80698853731155395508e-01) (33, 9.27437484264373779297e-01) (34, 9.86826598644256591797e-01) (35, 3.12300264835357666016e-01) (36, 3.05871784687042236328e-01) (37, 5.03651618957519531250e-01) (38, 1.20213687419891357422e+00) (39, 3.00865639001131057739e-02) (40, 7.00222492218017578125e-01) (41, 6.05787098407745361328e-01) (17, 3.50777775049209594727e-01) (18, 2.48782187700271606445e-01) (19, 1.95671066641807556152e-01) (20, 2.98942208290100097656e-01) (21, -9.56306979060173034668e-03) (22, 2.13154420256614685059e-01) (23, -1.49173095822334289551e-01) (24, -2.83135831356048583984e-01) (25, 7.43207514286041259766e-01) (26, 5.80154418945312500000e-01) (27, 3.14065247774124145508e-01) (28, 3.60950291156768798828e-01) (29, 2.20491021871566772461e-01) (30, -3.21972891688346862793e-02) (31, -3.06046664714813232422e-01) (32, 2.84284114837646484375e-01) (33, 4.19203072786331176758e-01) (34, 2.03606292605400085449e-01) (35, -1.09294664859771728516e+00) (36, 9.59697365760803222656e-01) (37, 6.47317528724670410156e-01) (38, 1.76586419343948364258e-01) (39, 1.05902290344238281250e+00) (40, -1.89798450469970703125e+00) (41, -1.86625525355339050293e-01) (17, 3.56279551982879638672e-01) (18, 5.04999279975891113281e-01) (19, 1.36402145028114318848e-01) (20, 2.92661517858505249023e-01) (21, 9.27090868353843688965e-02) (22, 5.12652277946472167969e-01) (23, -9.76581454277038574219e-01) (24, -2.57931619882583618164e-01) (25, 7.53886878490447998047e-01) (26, 7.42470204830169677734e-01) (27, 1.58544048666954040527e-01) (28, 1.89414784312248229980e-01) (29, 2.75588154792785644531e-01) (30, -1.04757356643676757812e+00) (31, 6.95078015327453613281e-01) (32, 6.34177550673484802246e-02) (33, 3.03908195346593856812e-02) (34, -1.31309890747070312500e+00) (35, 1.75235718488693237305e-01) (36, 1.02315986156463623047e+00) (37, 3.49954396486282348633e-01) (38, 4.57121551036834716797e-01) (39, 2.89362967014312744141e-01) (40, -9.22351777553558349609e-01) (41, -5.87044179439544677734e-01) (17, 7.33553588390350341797e-01) (18, -3.12282770872116088867e-01) (19, -6.25362932682037353516e-01) (20, -3.11459392309188842773e-01) (21, -2.24926680326461791992e-01) (22, -1.34330913424491882324e-01) (23, -3.74692261219024658203e-01) (24, -2.70773798227310180664e-01) (25, 8.42256724834442138672e-01) (26, 6.56946778297424316406e-01) (27, -3.73203665018081665039e-01) (28, 2.36452966928482055664e-01) (29, -3.79799699783325195312e+00) (30, -1.02184042334556579590e-01) (31, -1.21810458600521087646e-01) (32, 8.14171075820922851562e-01) (33, -1.40279746055603027344e+00) (34, -1.30256697535514831543e-01) (35, 1.39002114534378051758e-01) (36, 5.15944302082061767578e-01) (37, 1.47240966558456420898e-01) (38, 9.61905181407928466797e-01) (39, -2.15260505676269531250e-01) (40, -9.60840106010437011719e-01) (41, -7.20052719116210937500e-02) (17, 1.54685989022254943848e-01) (18, 9.42633673548698425293e-02) (19, 5.04268765449523925781e-01) (20, 1.04082465171813964844e+00) (21, 8.01488339900970458984e-01) (22, 1.51764720678329467773e-01) (23, 3.53109240531921386719e-01) (24, 4.62798118591308593750e-01) (25, 7.37933218479156494141e-02) (26, -2.27442961186170578003e-02) (27, 5.89925169944763183594e-01) (28, 4.07459110021591186523e-01) (29, 4.64652657508850097656e-01) (30, 4.23897236585617065430e-01) (31, -1.13183520734310150146e-01) (32, 3.11044156551361083984e-01) (33, 2.76716411113739013672e-01) (34, 4.66073632240295410156e-01) (35, 1.29679143428802490234e+00) (36, -2.49968506395816802979e-02) (37, 4.22978937625885009766e-01) (38, 4.54600691795349121094e-01) (39, 3.08302134275436401367e-01) (40, 5.23952901363372802734e-01) (41, 7.56564736366271972656e-02) (17, 5.17071127891540527344e-01) (18, -1.85570880770683288574e-01) (19, 2.85421788692474365234e-01) (20, 1.29552519321441650391e+00) (21, 4.67740774154663085938e-01) (22, 3.91774564981460571289e-01) (23, -1.36786520481109619141e+00) (24, 1.92967832088470458984e-01) (25, 2.85848081111907958984e-01) (26, 3.51439744234085083008e-01) (27, 2.58463382720947265625e-01) (28, -9.98425260186195373535e-02) (29, 2.00305104255676269531e-01) (30, 9.16041851043701171875e-01) (31, -4.76323753595352172852e-01) (32, 7.71925985813140869141e-01) (33, 2.14893803000450134277e-01) (34, 8.57399523258209228516e-01) (35, 1.01309943199157714844e+00) (36, 3.67283105850219726562e-01) (37, -2.21475437283515930176e-01) (38, 5.17091691493988037109e-01) (39, -3.58776212669909000397e-03) (40, 3.11436176300048828125e-01) (41, 1.24954593181610107422e+00) (42, 7.76121795177459716797e-01) (43, 7.28448748588562011719e-01) (44, 7.21449732780456542969e-01) (45, 8.19933190941810607910e-02) (46, 2.26034209132194519043e-01) (47, 7.96768307685852050781e-01) (48, -6.11121393740177154541e-02) (49, 1.31348401308059692383e-01) (50, 2.41505920886993408203e-01) (51, 7.74389505386352539062e-02) (52, 8.86378765106201171875e-01) (53, 8.04793477058410644531e-01) (54, 4.99737709760665893555e-01) (55, 2.12246373295783996582e-01) (56, 7.27872371673583984375e-01) (57, 3.74618098139762878418e-02) (58, -9.05527994036674499512e-02) (59, 2.71153867244720458984e-01) (60, -6.16307020187377929688e-01) (61, 7.05382406711578369141e-01) (62, 4.86102849245071411133e-01) (63, 6.37531816959381103516e-01) (64, 1.72990784049034118652e-01) (65, 1.46228387951850891113e-01) (66, -3.68797153234481811523e-01) (42, -1.42790183424949645996e-01) (43, 3.56049329042434692383e-01) (44, 1.52429014444351196289e-01) (45, 1.43387451767921447754e-01) (46, 6.78292274475097656250e-01) (47, 3.73416841030120849609e-01) (48, 4.02151793241500854492e-01) (49, 1.76281616091728210449e-01) (50, 5.74179589748382568359e-01) (51, 4.99426007270812988281e-01) (52, 6.56175911426544189453e-01) (53, 6.01040795445442199707e-02) (54, 3.23556631803512573242e-01) (55, -1.65426135063171386719e-01) (56, 6.35845363140106201172e-01) (57, -2.84173116087913513184e-02) (58, 6.02996408939361572266e-01) (59, 6.15930140018463134766e-01) (60, 3.96236218512058258057e-02) (61, -9.26600582897663116455e-03) (62, 1.99287250638008117676e-01) (63, 6.27873241901397705078e-01) (64, 3.47820341587066650391e-01) (65, 3.81377786397933959961e-01) (66, 1.02273249626159667969e+00) (42, 1.53165161609649658203e-01) (43, 1.01861596107482910156e-01) (44, -6.04326426982879638672e-01) (45, 1.33970258757472038269e-02) (46, 6.41511082649230957031e-01) (47, 1.61725059151649475098e-01) (48, 4.44893181324005126953e-01) (49, -8.43724235892295837402e-03) (50, 8.47096621990203857422e-01) (51, -3.27981263399124145508e-01) (52, 7.89368033409118652344e-01) (53, 4.48921412229537963867e-01) (54, 2.25094571709632873535e-01) (55, -3.01822692155838012695e-01) (56, 3.31140279769897460938e-01) (57, 7.36939236521720886230e-02) (58, 8.14929842948913574219e-01) (59, 5.93872368335723876953e-01) (60, 3.51225078105926513672e-01) (61, 3.17068994045257568359e-01) (62, -2.28689014911651611328e-01) (63, 4.59524959325790405273e-01) (64, 9.00435522198677062988e-02) (65, -1.54228955507278442383e-01) (66, 1.70164346694946289062e+00) (42, -3.04642379283905029297e-01) (43, 3.14638227224349975586e-01) (44, 3.33658084273338317871e-02) (45, 1.99092432856559753418e-01) (46, -1.57675400376319885254e-01) (47, 6.79099619388580322266e-01) (48, -1.35957026481628417969e+00) (49, -1.80531874299049377441e-01) (50, 2.80636787414550781250e-01) (51, -8.62057030200958251953e-01) (52, 1.22866354882717132568e-01) (53, 7.63624548912048339844e-01) (54, -8.93622159957885742188e-01) (55, -1.82908684015274047852e-01) (56, 5.65516710281372070312e-01) (57, -2.66595929861068725586e-01) (58, 2.92342863976955413818e-02) (59, 1.82813420891761779785e-01) (60, -7.89363563060760498047e-01) (61, 5.79067230224609375000e-01) (62, 5.15104651451110839844e-01) (63, 1.18677914142608642578e+00) (64, -1.05128213763236999512e-01) (65, -2.04339548945426940918e-01) (66, 2.90920734405517578125e-01) (42, 9.25607681274414062500e-02) (43, -9.45844426751136779785e-02) (44, 1.68618112802505493164e-02) (45, -4.39569681882858276367e-01) (46, -3.06284934282302856445e-01) (47, -2.41637617349624633789e-01) (48, 4.32242363691329956055e-01) (49, 2.06757724285125732422e-01) (50, 8.57815146446228027344e-01) (51, -1.40083134174346923828e-01) (52, -1.42183795571327209473e-01) (53, 2.83671289682388305664e-01) (54, -1.69034034013748168945e-01) (55, -3.32667857408523559570e-01) (56, -1.26526579260826110840e-02) (57, 2.55934566259384155273e-01) (58, 2.87440717220306396484e-01) (59, 2.09178239107131958008e-01) (60, -1.09894585609436035156e+00) (61, 3.58589112758636474609e-01) (62, 4.16631758213043212891e-01) (63, 9.78852272033691406250e-01) (64, -1.88229054212570190430e-01) (65, -8.51267576217651367188e-03) (66, 9.85155045986175537109e-01) (42, -9.68867063522338867188e-01) (43, 3.59761029481887817383e-01) (44, -3.77085477113723754883e-01) (45, 4.17770266532897949219e-01) (46, 4.37592417001724243164e-02) (47, 3.12166929244995117188e-01) (48, -4.53890949487686157227e-01) (49, 3.15886050462722778320e-01) (50, 2.94779270887374877930e-01) (51, -1.29182055592536926270e-01) (52, -5.48863768577575683594e-01) (53, 5.02070784568786621094e-01) (54, -1.48716464638710021973e-01) (55, 8.95398780703544616699e-02) (56, 5.21840333938598632812e-01) (57, -6.66838526725769042969e-01) (58, -1.79217904806137084961e-01) (59, 5.91280341148376464844e-01) (60, -6.26447677612304687500e-01) (61, 1.90718114376068115234e-01) (62, 3.59381258487701416016e-01) (63, 4.12128299474716186523e-01) (64, -6.60116791725158691406e-01) (65, 3.79232585430145263672e-01) (66, 2.71306037902832031250e-02) (42, -1.00698423385620117188e+00) (43, 4.86163794994354248047e-01) (44, -1.15863084793090820312e-01) (45, 6.74566924571990966797e-01) (46, 4.08672273159027099609e-01) (47, 6.40762448310852050781e-01) (48, 7.44122937321662902832e-02) (49, 1.44388958811759948730e-01) (50, 7.09801852703094482422e-01) (51, -1.45870028063654899597e-02) (52, 5.35518348217010498047e-01) (53, 1.03876721858978271484e+00) (54, -7.01741814613342285156e-01) (55, 7.18363881111145019531e-01) (56, 1.26358127593994140625e+00) (57, 2.74573236703872680664e-01) (58, 6.06854975223541259766e-01) (59, 9.59075927734375000000e-01) (60, 2.82081365585327148438e-01) (61, 6.17627143859863281250e-01) (62, 6.98181331157684326172e-01) (63, 8.13063502311706542969e-01) (64, 7.43293166160583496094e-01) (65, 5.02966463565826416016e-01) (66, -1.22378252446651458740e-01) (42, -4.99450773000717163086e-01) (43, 7.66253530979156494141e-01) (44, 2.49032422900199890137e-01) (45, 4.15123075246810913086e-01) (46, 3.13103944063186645508e-01) (47, 4.93625253438949584961e-01) (48, -7.33870506286621093750e-01) (49, -4.71021473407745361328e-01) (50, -2.37260520458221435547e-01) (51, -3.10162782669067382812e-01) (52, 4.64424490928649902344e-01) (53, 3.22215288877487182617e-01) (54, 1.96657180786132812500e-02) (55, 2.63891071081161499023e-01) (56, 3.27195405960083007812e-01) (57, 3.27429920434951782227e-02) (58, 2.02543929219245910645e-01) (59, 3.33381623029708862305e-01) (60, -9.65856790542602539062e-01) (61, 3.38490337133407592773e-01) (62, 2.83102780580520629883e-01) (63, 3.51313263177871704102e-01) (64, -1.27727210521697998047e-01) (65, 1.83931440114974975586e-01) (66, 4.42473769187927246094e-01) (42, -1.51050233840942382812e+00) (43, -1.64731323719024658203e-01) (44, 9.97343286871910095215e-02) (45, 6.80315613746643066406e-01) (46, 2.00046271085739135742e-01) (47, -2.48717054724693298340e-01) (48, -1.69325351715087890625e-01) (49, -1.72591960430145263672e+00) (50, 6.57967329025268554688e-02) (51, 2.62777566909790039062e-01) (52, 2.14798346161842346191e-01) (53, 4.21776741743087768555e-01) (54, 7.58555352687835693359e-01) (55, 3.95554602146148681641e-01) (56, 2.76784330606460571289e-01) (57, 3.19489650428295135498e-02) (58, -2.43384689092636108398e-01) (59, 2.73752659559249877930e-01) (60, 3.48368048667907714844e-01) (61, -6.27716064453125000000e-01) (62, -3.32667529582977294922e-01) (63, -1.88850641250610351562e-01) (64, 3.04705291986465454102e-01) (65, 4.43341434001922607422e-01) (66, 8.34525406360626220703e-01) (42, -6.90251410007476806641e-01) (43, 6.49210214614868164062e-01) (44, 3.13971340656280517578e-01) (45, 9.35277223587036132812e-01) (46, -1.15147970616817474365e-01) (47, 8.35186183452606201172e-01) (48, 3.98622095584869384766e-01) (49, -7.58740365505218505859e-01) (50, 5.90118110179901123047e-01) (51, -2.00576588511466979980e-01) (52, 2.83996611833572387695e-01) (53, 8.91141235828399658203e-01) (54, 1.25600963830947875977e-01) (55, 5.57636618614196777344e-01) (56, 4.56048727035522460938e-01) (57, -4.31004136800765991211e-01) (58, 4.26189482212066650391e-01) (59, 1.35377377271652221680e-01) (60, -7.44274109601974487305e-02) (61, 6.43817186355590820312e-02) (62, 3.49243789911270141602e-01) (63, 5.11027991771697998047e-01) (64, 2.84651428461074829102e-01) (65, 3.08844596147537231445e-01) (66, 6.46474480628967285156e-01) (42, -1.18832755088806152344e+00) (43, 3.36565554141998291016e-01) (44, 6.77558630704879760742e-02) (45, 4.45091694593429565430e-01) (46, 4.17540758848190307617e-01) (47, 6.39238476753234863281e-01) (48, -5.73345541954040527344e-01) (49, 6.21653310954570770264e-02) (50, -3.21306032128632068634e-03) (51, -3.02805691957473754883e-01) (52, 3.77643764019012451172e-01) (53, 7.56615579128265380859e-01) (54, -5.05126237869262695312e-01) (55, -2.86677241325378417969e-01) (56, 1.11512005329132080078e+00) (57, -1.68688452243804931641e+00) (58, 1.62737593054771423340e-01) (59, 1.83266967535018920898e-01) (60, -3.82993161678314208984e-01) (61, 4.74952101707458496094e-01) (62, 7.11050629615783691406e-01) (63, 1.43476974964141845703e+00) (64, -4.98853802680969238281e-01) (65, 6.26360714435577392578e-01) (66, 1.03456163406372070312e+00) (42, 5.79664632678031921387e-02) (43, 3.52221965789794921875e-01) (44, 9.95544373989105224609e-01) (45, 2.52573788166046142578e-01) (46, 6.55695259571075439453e-01) (47, 5.70148766040802001953e-01) (48, -3.00844818353652954102e-01) (49, 2.44134336709976196289e-01) (50, 2.91734397411346435547e-01) (51, 6.52922272682189941406e-01) (52, 4.99521553516387939453e-01) (53, 8.32856118679046630859e-01) (54, -2.33826875686645507812e-01) (55, 7.84937679767608642578e-01) (56, 8.55988383293151855469e-01) (57, 9.16456431150436401367e-02) (58, 1.40524923801422119141e-01) (59, 4.44838225841522216797e-01) (60, 5.29043674468994140625e-01) (61, 4.33404356241226196289e-01) (62, 6.61188840866088867188e-01) (63, 6.36329293251037597656e-01) (64, 5.81483125686645507812e-01) (65, 1.03964060544967651367e-01) (66, 8.55437874794006347656e-01) (42, 6.38559877872467041016e-01) (43, 7.87547409534454345703e-01) (44, 5.19654810428619384766e-01) (45, 2.53746867179870605469e-01) (46, 3.83190244436264038086e-01) (47, 6.33764266967773437500e-01) (48, -6.34408414363861083984e-01) (49, -1.65006574243307113647e-02) (50, 1.01827748119831085205e-01) (51, -2.99754500389099121094e-01) (52, 1.07408547401428222656e+00) (53, 1.28372228145599365234e+00) (54, 4.14199620485305786133e-01) (55, 5.57335913181304931641e-01) (56, 6.46626710891723632812e-01) (57, 3.14465850591659545898e-01) (58, -9.80287268757820129395e-02) (59, 1.18267059326171875000e+00) (60, 1.14015512168407440186e-01) (61, 2.66499042510986328125e-01) (62, 4.38088566064834594727e-01) (63, 1.09111690521240234375e+00) (64, -2.72956304252147674561e-02) (65, 3.31960707902908325195e-01) (66, -1.84528842568397521973e-01) (42, 8.92405986785888671875e-01) (43, 3.95760715007781982422e-01) (44, 1.16225826740264892578e+00) (45, 2.44972333312034606934e-02) (46, 9.35930371284484863281e-01) (47, 1.42946934700012207031e+00) (48, 2.77802377939224243164e-01) (49, 5.00892512500286102295e-02) (50, 9.44853603839874267578e-01) (51, 3.38236540555953979492e-01) (52, 1.11410379409790039062e+00) (53, 8.65626931190490722656e-02) (54, 5.54529964923858642578e-01) (55, 6.49747192859649658203e-01) (56, 9.10052239894866943359e-01) (57, 4.56259459257125854492e-01) (58, 7.98285245895385742188e-01) (59, 1.39287734031677246094e+00) (60, 2.06159994006156921387e-01) (61, 1.21776871383190155029e-01) (62, 6.14505887031555175781e-01) (63, 3.74648958444595336914e-01) (64, 6.02401912212371826172e-01) (65, 3.17878514528274536133e-01) (66, 1.90633729100227355957e-01) (42, 7.76487708091735839844e-01) (43, 6.21372938156127929688e-01) (44, 2.96697020530700683594e+00) (45, -6.74259006977081298828e-01) (46, 3.51387113332748413086e-01) (47, 2.06794595718383789062e+00) (48, 7.11994647979736328125e-01) (49, 5.35497619628906250000e+02) (50, 1.70917522907257080078e+00) (51, 6.90045535564422607422e-01) (52, 6.05390787124633789062e-01) (53, 7.35664844512939453125e-01) (54, 8.38013708591461181641e-01) (55, 1.01892876625061035156e+00) (56, 4.43685442209243774414e-01) (57, 3.14029574394226074219e-01) (58, 5.32128691673278808594e-01) (59, 2.16830015182495117188e+00) (60, -9.39746677875518798828e-01) (61, 1.72317657470703125000e+01) (62, 3.36837582290172576904e-02) (63, 1.19550451636314392090e-01) (64, 2.43005558848381042480e-01) (65, 1.54182314872741699219e-01) (66, -2.22885888069868087769e-02) (42, 1.15407609939575195312e+00) (43, 2.45758563280105590820e-01) (44, 1.00599312782287597656e+00) (45, 4.37947541475296020508e-01) (46, 4.34367544949054718018e-02) (47, -3.20477336645126342773e-01) (48, 5.14930598437786102295e-02) (49, 1.06523160934448242188e+01) (50, -1.16108067333698272705e-01) (51, -1.33814036846160888672e-01) (52, 2.56634926795959472656e+00) (53, 2.36444398760795593262e-01) (54, 5.33970594406127929688e-02) (55, 2.13351659476757049561e-02) (56, 4.49179202318191528320e-01) (57, 2.33930364251136779785e-01) (58, 3.19774091243743896484e-01) (59, 7.50445008277893066406e-01) (60, -1.35186448693275451660e-01) (61, 8.31876039505004882812e-01) (62, 5.66823184490203857422e-01) (63, 2.57039099931716918945e-01) (64, 1.07037737965583801270e-01) (65, 2.48996749520301818848e-01) (66, 6.46255552768707275391e-01) (42, -7.93149411678314208984e-01) (43, -1.45308822393417358398e-01) (44, -2.66376066207885742188e+00) (45, 3.53919446468353271484e-01) (46, 2.46829137206077575684e-01) (47, 1.51176023483276367188e+00) (48, 2.16243267059326171875e-01) (49, -4.82714354991912841797e-01) (50, 2.40858960151672363281e+00) (51, 6.62241637706756591797e-01) (52, 6.05347096920013427734e-01) (53, 3.93931329250335693359e-01) (54, -4.76107180118560791016e-01) (55, 4.37626779079437255859e-01) (56, -3.57523337006568908691e-02) (57, -1.32926046848297119141e-01) (58, 7.68000423908233642578e-01) (59, 1.81515306234359741211e-01) (60, -1.08714483678340911865e-01) (61, -8.39952409267425537109e-01) (62, -1.17343598976731300354e-02) (63, 3.51569280028343200684e-02) (64, -1.46300628781318664551e-01) (65, 3.57274770736694335938e-01) (66, 1.45869898796081542969e+00) (42, -1.38323891162872314453e+00) (43, -3.12254447489976882935e-02) (44, -1.75757253170013427734e+00) (45, 3.08114260435104370117e-01) (46, 3.90973865985870361328e-01) (47, 4.92154687643051147461e-01) (48, 3.60425382852554321289e-01) (49, 1.09631374478340148926e-01) (50, 1.65105134248733520508e-01) (51, 2.50580580905079841614e-03) (52, 3.42410147190093994141e-01) (53, 1.03095471858978271484e-01) (54, -5.23707687854766845703e-01) (55, -2.84993588924407958984e-01) (56, 5.83052970468997955322e-02) (57, -3.68368238210678100586e-01) (58, -1.05287143960595130920e-02) (59, -1.47409988567233085632e-02) (60, -5.35951495170593261719e-01) (61, -2.04202130436897277832e-01) (62, -1.79279878735542297363e-01) (63, 4.19833511114120483398e-01) (64, -3.26613634824752807617e-01) (65, -3.22706431150436401367e-01) (66, 8.93023788928985595703e-01) (42, -3.18979322910308837891e-01) (43, 6.10450029373168945312e-01) (44, 2.81123399734497070312e+00) (45, -5.71263670921325683594e-01) (46, -9.07029449939727783203e-01) (47, 2.68185436725616455078e-01) (48, -7.73372292518615722656e-01) (49, 4.49491709470748901367e-01) (50, 3.06509345769882202148e-01) (51, -1.98656842112541198730e-01) (52, 4.60844218730926513672e-01) (53, 4.93893735110759735107e-02) (54, -1.97947606444358825684e-01) (55, -1.01530051231384277344e+00) (56, 4.36715602874755859375e-01) (57, -5.48045039176940917969e-02) (58, -1.32666528224945068359e+00) (59, 5.61844110488891601562e-01) (60, -7.15113043785095214844e-01) (61, 4.69924390316009521484e-01) (62, 2.68956571817398071289e-01) (63, 3.24962943792343139648e-01) (64, -1.54175508022308349609e+00) (65, -4.98748481273651123047e-01) (66, 3.72686088085174560547e-01) (42, 7.64929711818695068359e-01) (43, 4.21609073877334594727e-01) (44, 6.86320424079895019531e-01) (45, 6.93749487400054931641e-01) (46, 7.42664754390716552734e-01) (47, 2.41375088691711425781e+00) (48, 4.85185533761978149414e-01) (49, 6.36878490447998046875e-01) (50, 1.68368756771087646484e+00) (51, 6.12718939781188964844e-01) (52, 1.13528287410736083984e+00) (53, 8.34211230278015136719e-01) (54, 3.69785159826278686523e-01) (55, 2.65401184558868408203e-01) (56, 8.64839971065521240234e-01) (57, 5.59449136257171630859e-01) (58, 6.14765822887420654297e-01) (59, 3.33424901962280273438e+00) (60, 2.46812596917152404785e-01) (61, 3.34612667560577392578e-01) (62, 2.44908750057220458984e-01) (63, 2.40460321307182312012e-01) (64, 8.52798521518707275391e-02) (65, 3.36557894945144653320e-01) (66, 1.63804933428764343262e-01) (42, -2.81251251697540283203e-01) (43, 4.64627772569656372070e-01) (44, 2.46302306652069091797e-01) (45, 1.21111720800399780273e-01) (46, 2.02297985553741455078e-01) (47, -2.32869327068328857422e-01) (48, 5.11768758296966552734e-01) (49, 4.63931351900100708008e-01) (50, 2.53589481115341186523e-01) (51, 8.23338568210601806641e-01) (52, 1.60591518878936767578e+00) (53, 3.98265987634658813477e-01) (54, 5.45402280986309051514e-02) (55, 4.94174331426620483398e-01) (56, 1.37438610196113586426e-01) (57, 5.28731942176818847656e-02) (58, 5.81267237663269042969e-01) (59, 8.96450817584991455078e-01) (60, 5.58730602264404296875e-01) (61, 5.48923075199127197266e-01) (62, 3.78355264663696289062e-01) (63, 7.17877686023712158203e-01) (64, 6.76460146903991699219e-01) (65, 5.78369081020355224609e-01) (66, 3.08086931705474853516e-01) (42, 2.11192750930786132812e+00) (43, -5.54853528738021850586e-02) (44, -8.38061496615409851074e-02) (45, -4.73578751087188720703e-01) (46, 5.86330711841583251953e-01) (47, -4.92267794907093048096e-02) (48, 1.47693648934364318848e-01) (49, 4.28922623395919799805e-01) (50, -2.04139202833175659180e-01) (51, -3.43445613980293273926e-02) (52, -9.56298932433128356934e-02) (53, 1.69988334178924560547e-01) (54, 7.45099127292633056641e-01) (55, 2.75514483451843261719e-01) (56, 4.87828284502029418945e-01) (57, 2.47212767601013183594e-01) (58, 2.21975147724151611328e-01) (59, 5.50777018070220947266e-01) (60, 1.69169396162033081055e-01) (61, 1.37702479958534240723e-01) (62, 6.27498775720596313477e-02) (63, 1.13421767950057983398e-01) (64, 2.64270812273025512695e-01) (65, 1.82225760072469711304e-02) (66, -1.48724839091300964355e-01) (42, 3.11276167631149291992e-01) (43, 4.50735062360763549805e-01) (44, 6.53585433959960937500e-01) (45, -1.31737440824508666992e-01) (46, 4.28774684667587280273e-01) (47, 7.93945431709289550781e-01) (48, -2.33221143484115600586e-01) (49, 5.70911824703216552734e-01) (50, 8.00884187221527099609e-01) (51, -5.53606331348419189453e-01) (52, 1.53564298152923583984e+00) (53, 5.85311293601989746094e-01) (54, 4.26729112863540649414e-01) (55, 5.17077697440981864929e-03) (56, 6.66136860847473144531e-01) (57, 4.35284197330474853516e-01) (58, 2.86416988819837570190e-02) (59, 3.50485110282897949219e+00) (60, 8.29642340540885925293e-02) (61, 3.83129753172397613525e-02) (62, 2.53552824258804321289e-01) (63, 1.43347299098968505859e+00) (64, -4.68873143196105957031e-01) (65, 3.59340757131576538086e-01) (66, 1.08644080162048339844e+00) (42, -4.00746881961822509766e-01) (43, 2.58983671665191650391e-01) (44, -5.03432095050811767578e-01) (45, 4.83888447284698486328e-01) (46, 3.98879379034042358398e-01) (47, -2.67101805657148361206e-02) (48, -6.71784698963165283203e-01) (49, -7.44528099894523620605e-02) (50, 2.46574699878692626953e-01) (51, -9.27984714508056640625e-02) (52, 1.88266724348068237305e-01) (53, 1.84277236461639404297e-01) (54, -4.71892505884170532227e-01) (55, 3.57847690582275390625e-01) (56, 5.43015241622924804688e-01) (57, -4.58676934242248535156e-01) (58, -6.91567063331604003906e-02) (59, 6.62821173667907714844e-01) (60, 5.26422500610351562500e-01) (61, -1.11577369272708892822e-01) (62, -1.23181931674480438232e-01) (63, 8.67969319224357604980e-02) (64, 1.99722290039062500000e-01) (65, 3.72851014137268066406e-01) (66, 5.04286646842956542969e-01) (67, -5.00546157360076904297e-01) (68, -9.57127213478088378906e-01) (69, -9.51766490936279296875e-01) (70, -1.36449849605560302734e+00) (71, -2.08505868911743164062e-01) (72, 3.22290122509002685547e-01) (73, -1.07636821269989013672e+00) (74, -1.63481354713439941406e-01) (75, -1.12333858013153076172e+00) (76, -9.22638773918151855469e-01) (77, -8.71271967887878417969e-01) (78, -1.90222764015197753906e+00) (79, -2.71484732627868652344e+00) (80, -9.75902795791625976562e-01) (81, 2.71990388631820678711e-01) (82, 2.15175539255142211914e-01) (83, -1.14240840077400207520e-01) (84, 6.63558721542358398438e-01) (85, -2.80303215980529785156e+00) (86, -9.06213104724884033203e-01) (87, -1.90982139110565185547e+00) (88, -5.63063979148864746094e-01) (89, -3.41979324817657470703e-01) (90, 3.27265202999114990234e-01) (91, 1.04654610157012939453e+00) (67, 1.90095216035842895508e-01) (68, -1.19748435914516448975e-01) (69, -1.25687241554260253906e-01) (70, 4.92216676473617553711e-01) (71, 4.38247948884963989258e-01) (72, 6.22759044170379638672e-01) (73, 7.26813435554504394531e-01) (74, 2.16109007596969604492e-01) (75, -8.46065431833267211914e-02) (76, -8.12530890107154846191e-02) (77, 2.79933214187622070312e-01) (78, -1.15130081772804260254e-01) (79, 1.00247323513031005859e+00) (80, 6.24473214149475097656e-01) (81, 3.46892237663269042969e-01) (82, 7.53370702266693115234e-01) (83, 6.95776343345642089844e-01) (84, 4.95462268590927124023e-01) (85, 2.30793043971061706543e-01) (86, 7.41566479206085205078e-01) (87, -1.17874354124069213867e-01) (88, 1.21458697319030761719e+00) (89, -4.35209214687347412109e-01) (90, 7.10911214351654052734e-01) (91, -1.53738141059875488281e-01) (67, 5.43175578117370605469e-01) (68, 2.86781638860702514648e-01) (69, -5.29264509677886962891e-01) (70, -2.09901428222656250000e+00) (71, -1.47251963615417480469e-01) (72, -2.26236477494239807129e-01) (73, -7.50314354896545410156e-01) (74, -1.26458668708801269531e+00) (75, -9.81221795082092285156e-01) (76, -5.08019208908081054688e-01) (77, -8.25342833995819091797e-01) (78, -9.42316710948944091797e-01) (79, -2.06132674217224121094e+00) (80, -9.10023570060729980469e-01) (81, -7.90939986705780029297e-01) (82, -1.56434550881385803223e-01) (83, 2.05595437437295913696e-02) (84, 5.05586080253124237061e-02) (85, -2.60249733924865722656e+00) (86, -6.66019797325134277344e-01) (87, -1.79280316829681396484e+00) (88, -1.40439108014106750488e-01) (89, -4.63633745908737182617e-01) (90, 2.08706427365541458130e-02) (91, 6.44491732120513916016e-01) (67, -3.46882879734039306641e-01) (68, 2.73789912462234497070e-01) (69, 3.85668843984603881836e-01) (70, -5.82608401775360107422e-01) (71, -2.42342308163642883301e-01) (72, -1.71021476387977600098e-01) (73, 1.11667513847351074219e-02) (74, -7.10130576044321060181e-03) (75, 7.26079583168029785156e-01) (76, -3.48139524459838867188e-01) (77, -3.47109138965606689453e-01) (78, -5.74975684285163879395e-02) (79, -1.27264785766601562500e+00) (80, -2.02442571520805358887e-01) (81, -5.78408420085906982422e-01) (82, 7.88438171148300170898e-02) (83, -7.88052976131439208984e-01) (84, 1.23641587793827056885e-01) (85, -6.60264492034912109375e-01) (86, -9.55681577324867248535e-02) (87, 6.14908576011657714844e-01) (88, 3.48605036735534667969e-01) (89, -2.43966937065124511719e-01) (90, -7.39717543125152587891e-01) (91, 8.83644044399261474609e-01) (67, 4.39431756734848022461e-01) (68, 5.42352795600891113281e-02) (69, 3.53234082460403442383e-01) (70, 9.80202853679656982422e-01) (71, 1.37358516454696655273e-01) (72, 4.99787658452987670898e-01) (73, 4.55498218536376953125e-01) (74, 2.41692021489143371582e-01) (75, -2.11083814501762390137e-01) (76, 8.15439939498901367188e-01) (77, 6.41250312328338623047e-01) (78, 5.02002060413360595703e-01) (79, 7.12679386138916015625e-01) (80, 2.90903300046920776367e-01) (81, 4.64793980121612548828e-01) (82, 7.19773530960083007812e-01) (83, 7.14171469211578369141e-01) (84, 1.78371831774711608887e-01) (85, 6.84085905551910400391e-01) (86, 4.93569187819957733154e-02) (87, 2.82674245536327362061e-02) (88, 1.21638393402099609375e+00) (89, 9.32819783687591552734e-01) (90, 6.26232862472534179688e-01) (91, 7.34273195266723632812e-01) (67, 3.36231112480163574219e-01) (68, 3.71499925851821899414e-01) (69, 8.00439774990081787109e-01) (70, -1.96746531873941421509e-02) (71, 5.64814150333404541016e-01) (72, 9.36877354979515075684e-02) (73, 1.24978877604007720947e-01) (74, -2.59454816579818725586e-01) (75, 2.38798141479492187500e-01) (76, 1.64756849408149719238e-01) (77, 1.72058477997779846191e-01) (78, 4.92108285427093505859e-01) (79, 1.14255404472351074219e+00) (80, 5.91097235679626464844e-01) (81, 1.61262726783752441406e+00) (82, 6.43156528472900390625e-01) (83, 2.67311871051788330078e-01) (84, 3.74861299991607666016e-01) (85, 2.46587023138999938965e-02) (86, 6.15850627422332763672e-01) (87, 5.09637534618377685547e-01) (88, 1.35938227176666259766e-01) (89, -5.85530735552310943604e-02) (90, 6.98875069618225097656e-01) (91, 7.91793942451477050781e-01) (67, 3.29419910907745361328e-01) (68, 9.99826431274414062500e-01) (69, 2.11227703094482421875e+00) (70, -2.30021867901086807251e-02) (71, -2.82187521457672119141e-01) (72, -2.76662349700927734375e-01) (73, 4.83992099761962890625e-01) (74, 2.56311923265457153320e-01) (75, 1.21038007736206054688e+00) (76, 3.19056183099746704102e-01) (77, -1.83930993080139160156e-01) (78, 6.14615201950073242188e-01) (79, 4.81015205383300781250e-01) (80, 7.84923613071441650391e-01) (81, -9.91205032914876937866e-03) (82, 2.41188392043113708496e-01) (83, 3.94415855407714843750e-01) (84, -3.59871275722980499268e-02) (85, -4.34145539999008178711e-01) (86, 6.90586507320404052734e-01) (87, 7.25074112415313720703e-01) (88, 2.01822593808174133301e-01) (89, 2.22877964377403259277e-01) (90, 5.91473877429962158203e-01) (91, -1.73990771174430847168e-01) (67, -4.07587885856628417969e-01) (68, -4.40028488636016845703e-01) (69, -3.29911559820175170898e-01) (70, -8.50581884384155273438e-01) (71, -6.20477616786956787109e-01) (72, -2.05504685640335083008e-01) (73, -9.21239256858825683594e-01) (74, -8.15888166427612304688e-01) (75, -8.63171398639678955078e-01) (76, -1.94588696956634521484e+00) (77, -1.69597434997558593750e+00) (78, -1.57859778404235839844e+00) (79, -1.23840355873107910156e+00) (80, -6.37390255928039550781e-01) (81, 5.56595802307128906250e-01) (82, 7.01537311077117919922e-01) (83, -7.86053478717803955078e-01) (84, -1.73215484619140625000e+00) (85, -3.55119794607162475586e-01) (86, -5.09976208209991455078e-01) (87, -4.50478702783584594727e-01) (88, 8.68406355381011962891e-01) (89, -7.69414842128753662109e-01) (90, -1.42268037796020507812e+00) (91, -4.76909071207046508789e-01) (67, -1.30367755889892578125e+00) (68, -4.84065115451812744141e-01) (69, -9.40797384828329086304e-04) (70, -1.70238876342773437500e+00) (71, -8.27330291271209716797e-01) (72, 3.93221646547317504883e-01) (73, -3.72078418731689453125e-01) (74, -8.44810962677001953125e-01) (75, -2.46002748608589172363e-01) (76, -1.21557402610778808594e+00) (77, -1.46523439884185791016e+00) (78, -1.55019950866699218750e+00) (79, -1.93483781814575195312e+00) (80, -2.98949927091598510742e-01) (81, 1.02073401212692260742e-01) (82, 2.91418790817260742188e-01) (83, -7.37950861454010009766e-01) (84, -1.38109552860260009766e+00) (85, -5.56800246238708496094e-01) (86, -1.44364669919013977051e-01) (87, -3.19045275449752807617e-01) (88, -3.51292490959167480469e-01) (89, 5.83923868834972381592e-02) (90, -1.44962882995605468750e+00) (91, 6.60831570625305175781e-01) (67, -4.81596469879150390625e-01) (68, -1.51644110679626464844e-01) (69, 9.30031016469001770020e-02) (70, 1.11632281914353370667e-02) (71, -4.45734784007072448730e-02) (72, 1.30017390474677085876e-02) (73, -8.92802655696868896484e-01) (74, -1.22116935253143310547e+00) (75, -2.03660464286804199219e+00) (76, 7.07137584686279296875e-02) (77, -1.46526172757148742676e-01) (78, -9.37325000762939453125e-01) (79, 6.31044983863830566406e-01) (80, -4.31581437587738037109e-01) (81, 1.55590248107910156250e+00) (82, 1.29573798179626464844e+00) (83, 5.95235228538513183594e-01) (84, -2.90252953767776489258e-01) (85, 2.56133824586868286133e-01) (86, -1.10405854880809783936e-01) (87, -1.48960256576538085938e+00) (88, 7.07493185997009277344e-01) (89, 1.16577371954917907715e-01) (90, 4.27771717309951782227e-01) (91, 9.33985054492950439453e-01) (67, 8.95666301250457763672e-01) (68, 2.43574440479278564453e-01) (69, 1.26608461141586303711e-01) (70, 1.77363827824592590332e-01) (71, 7.28903388977050781250e+00) (72, 6.10507786273956298828e-01) (73, 2.14967250823974609375e+00) (74, -2.08510547876358032227e-01) (75, -6.79637670516967773438e+00) (76, 6.47348284721374511719e-01) (77, -1.11420571804046630859e-01) (78, 1.12582647800445556641e+00) (79, 6.54032170772552490234e-01) (80, 3.99206846952438354492e-01) (81, 5.92969417572021484375e-01) (82, 1.56284677982330322266e+00) (83, -8.94222483038902282715e-02) (84, 7.67237544059753417969e-01) (85, 1.94054394960403442383e-01) (86, 5.59944689273834228516e-01) (87, 4.22792941331863403320e-01) (88, 2.22376048564910888672e-01) (89, 5.10407924652099609375e-01) (90, 1.29372000694274902344e+00) (91, 9.69277739524841308594e-01) (67, -3.88107776641845703125e-01) (68, -2.20773935317993164062e-01) (69, -3.51393342018127441406e-01) (70, 4.66607324779033660889e-02) (71, -2.74883240461349487305e-01) (72, -8.38159799575805664062e-01) (73, -9.43123698234558105469e-01) (74, -6.46139204502105712891e-01) (75, -4.63749766349792480469e-01) (76, 3.81347239017486572266e-01) (77, -3.25333088636398315430e-01) (78, -2.11548775434494018555e-01) (79, -6.68924391269683837891e-01) (80, -3.83689433336257934570e-01) (81, 7.11924195289611816406e-01) (82, 3.68750184774398803711e-01) (83, -3.24234329164028167725e-02) (84, -2.01942384243011474609e-01) (85, -4.04386937618255615234e-01) (86, -5.69352746009826660156e-01) (87, -4.26154732704162597656e-01) (88, 3.33524256944656372070e-01) (89, -2.26394563913345336914e-01) (90, 1.99282933026552200317e-02) (91, 8.80490064620971679688e-01) (67, 1.12168714404106140137e-01) (68, 3.91043365001678466797e-01) (69, 1.70769870281219482422e-01) (70, 8.59697282314300537109e-01) (71, 7.64560997486114501953e-01) (72, 1.49000093340873718262e-01) (73, 4.81009557843208312988e-02) (74, -1.08674332499504089355e-01) (75, -1.18346065282821655273e-01) (76, 3.52718889713287353516e-01) (77, 7.40979373455047607422e-01) (78, 5.19187867641448974609e-01) (79, 7.04935371875762939453e-01) (80, 4.79749739170074462891e-01) (81, 3.60753238201141357422e-02) (82, 7.45471298694610595703e-01) (83, 1.20428673923015594482e-01) (84, 6.33586704730987548828e-01) (85, 7.46235013008117675781e-01) (86, 2.83024340867996215820e-01) (87, -1.98182031512260437012e-01) (88, 8.43387901782989501953e-01) (89, 6.27297878265380859375e-01) (90, 4.06268924474716186523e-01) (91, 2.73877292871475219727e-01) (67, 2.70814865827560424805e-01) (68, 4.44892287254333496094e-01) (69, -1.48973032832145690918e-01) (70, 8.25762569904327392578e-01) (71, 4.92406517267227172852e-01) (72, 1.37533843517303466797e-01) (73, 1.27791449427604675293e-01) (74, 4.03060346841812133789e-01) (75, 3.23953199386596679688e+00) (76, 9.92500603199005126953e-01) (77, 6.81041538715362548828e-01) (78, 3.76687049865722656250e-01) (79, 5.90673744678497314453e-01) (80, 3.39167654514312744141e-01) (81, 8.83139669895172119141e-01) (82, 5.10003328323364257812e-01) (83, 1.61297231912612915039e-01) (84, 5.24784803390502929688e-01) (85, 1.71811561584472656250e+01) (86, 6.53125107288360595703e-01) (87, 6.75662815570831298828e-01) (88, 1.35153949260711669922e+00) (89, 7.83392906188964843750e-01) (90, 7.00295150279998779297e-01) (91, 7.85840272903442382812e-01) (67, -2.02406033873558044434e-01) (68, 6.71546280384063720703e-01) (69, 3.21163117885589599609e-01) (70, 3.08384656906127929688e-01) (71, 5.04099965095520019531e-01) (72, 4.95507001876831054688e-01) (73, 7.94196426868438720703e-02) (74, -1.00068539381027221680e-01) (75, -3.71026173233985900879e-02) (76, 1.05230517685413360596e-01) (77, 1.98421567678451538086e-01) (78, -2.59708672761917114258e-01) (79, 2.68504712730646133423e-02) (80, 5.44626593589782714844e-01) (81, 3.31128984689712524414e-01) (82, 7.17422187328338623047e-01) (83, 4.85522806644439697266e-01) (84, 7.21387147903442382812e-01) (85, 5.97068846225738525391e-01) (86, 6.19601190090179443359e-01) (87, 5.04810750484466552734e-01) (88, 4.42192941904067993164e-01) (89, 6.60561323165893554688e-01) (90, 4.51222926378250122070e-01) (91, 4.60379004478454589844e-01) (67, -3.24001103639602661133e-01) (68, -4.06170874834060668945e-01) (69, 2.44323402643203735352e-01) (70, -3.06622505187988281250e-01) (71, 1.77681311964988708496e-01) (72, 2.52257168292999267578e-01) (73, 3.80106009542942047119e-02) (74, -1.45706808567047119141e+00) (75, 1.76280781626701354980e-01) (76, -6.40936374664306640625e-01) (77, -1.66718423366546630859e+00) (78, -3.77335816621780395508e-01) (79, 1.46791741251945495605e-01) (80, 5.02142906188964843750e-01) (81, 2.59508222341537475586e-01) (82, 4.27222043275833129883e-01) (83, 5.03540039062500000000e-01) (84, 3.20615917444229125977e-02) (85, -1.79186418652534484863e-01) (86, 3.17867070436477661133e-01) (87, 1.69313684105873107910e-01) (88, 1.11439430713653564453e+00) (89, 6.47004544734954833984e-01) (90, 5.36280930042266845703e-01) (91, 3.89515042304992675781e-01) (67, -4.57502633333206176758e-01) (68, 4.22956258058547973633e-01) (69, 2.66998887062072753906e-01) (70, -6.12016558647155761719e-01) (71, -4.19211000204086303711e-01) (72, -4.28544692695140838623e-02) (73, -3.15990000963211059570e-01) (74, -1.65517914295196533203e+00) (75, -6.97846233844757080078e-01) (76, -8.60952436923980712891e-01) (77, -6.22517645359039306641e-01) (78, -6.41381502151489257812e-01) (79, 2.08709880709648132324e-01) (80, 3.96759867668151855469e-01) (81, 6.99907988309860229492e-02) (82, 4.12261694669723510742e-01) (83, -8.38037356734275817871e-02) (84, -6.49812400341033935547e-01) (85, -2.89701074361801147461e-01) (86, -3.97400259971618652344e-01) (87, 4.49911683797836303711e-01) (88, 1.94854307174682617188e+00) (89, -4.56705182790756225586e-01) (90, -8.16378712654113769531e-01) (91, 7.92389571666717529297e-01) (67, 2.70612895488739013672e-01) (68, 1.11732149124145507812e+00) (69, 1.57699203491210937500e+00) (70, -1.73012867569923400879e-01) (71, 6.10900223255157470703e-01) (72, -1.13862383365631103516e+00) (73, 1.67661595344543457031e+00) (74, -2.80153244733810424805e-01) (75, 1.38058495521545410156e+00) (76, 3.26726138591766357422e-01) (77, 4.21818299219012260437e-03) (78, 9.26942706108093261719e-01) (79, -4.66856658458709716797e-01) (80, 2.43779182434082031250e+00) (81, -1.43280494213104248047e+00) (82, -8.49864780902862548828e-01) (83, 2.23365283012390136719e+00) (84, -2.36045286059379577637e-01) (85, -1.88838577270507812500e+00) (86, 1.53311455249786376953e+00) (87, 2.36514949798583984375e+00) (88, 2.83486813306808471680e-01) (89, 2.57796883583068847656e-01) (90, 9.49733853340148925781e-01) (91, 1.95187270641326904297e+00) (67, -3.80707010626792907715e-02) (68, -3.03985357284545898438e-01) (69, -5.67332029342651367188e-01) (70, -1.42660462856292724609e+00) (71, -9.41360533237457275391e-01) (72, -3.13707441091537475586e-01) (73, -2.22866058349609375000e-01) (74, -6.45161747932434082031e-01) (75, -2.59401202201843261719e-01) (76, -5.31829059123992919922e-01) (77, -1.15337693691253662109e+00) (78, 3.20609927177429199219e-01) (79, -3.79284024238586425781e-01) (80, -1.61884501576423645020e-01) (81, 8.15567433834075927734e-01) (82, 4.64733064174652099609e-01) (83, -1.25638335943222045898e-01) (84, -1.65606164932250976562e+00) (85, -1.58314895629882812500e+00) (86, -3.80627721548080444336e-01) (87, 3.44923168420791625977e-01) (88, 5.26372957229614257812e+00) (89, -5.11888898909091949463e-02) (90, -1.05135273933410644531e+00) (91, 4.72142606973648071289e-01) (67, -6.87530636787414550781e-01) (68, 4.13416773080825805664e-01) (69, 1.79406955838203430176e-01) (70, -8.89068424701690673828e-01) (71, 2.98211574554443359375e-01) (72, -5.41341483592987060547e-01) (73, -1.00312411785125732422e-01) (74, -3.49531143903732299805e-01) (75, 1.08250575140118598938e-02) (76, -3.62900644540786743164e-01) (77, -3.29122185707092285156e-01) (78, 2.00278818607330322266e-01) (79, -8.25824975967407226562e-01) (80, 4.56681519746780395508e-01) (81, -1.85123413801193237305e-01) (82, 4.82453614473342895508e-01) (83, 1.83321818709373474121e-01) (84, -1.88525378704071044922e-01) (85, -8.84024798870086669922e-01) (86, -3.14369946718215942383e-01) (87, 9.12706077098846435547e-01) (88, 7.48458862304687500000e-01) (89, -3.24225872755050659180e-01) (90, 5.04581592977046966553e-02) (91, -5.08892387151718139648e-02) (67, 6.13826572895050048828e-01) (68, 3.07062208652496337891e-01) (69, 1.34131491184234619141e+00) (70, 1.74106121063232421875e-01) (71, 8.54740798473358154297e-01) (72, -3.67316663265228271484e-01) (73, 9.15354907512664794922e-01) (74, -6.27461746335029602051e-02) (75, 1.90404472351074218750e+01) (76, 6.68617725372314453125e-01) (77, 5.04228949546813964844e-01) (78, 8.44063937664031982422e-01) (79, 7.27829933166503906250e-01) (80, 6.27192735671997070312e-01) (81, 1.86460524797439575195e-01) (82, 3.92236977815628051758e-01) (83, 1.54414162039756774902e-01) (84, 1.69878095388412475586e-01) (85, 7.96826064586639404297e-01) (86, 9.64222252368927001953e-01) (87, 3.01283329725265502930e-01) (88, 1.12023890018463134766e+00) (89, 1.60801565647125244141e+00) (90, 9.81875777244567871094e-01) (91, 8.04399728775024414062e-01) (67, -3.79177182912826538086e-01) (68, -5.58672547340393066406e-01) (69, -1.20480656623840332031e+00) (70, 1.40597447752952575684e-01) (71, -4.27652686834335327148e-01) (72, 6.48152604699134826660e-02) (73, -2.70159542560577392578e-01) (74, -1.33475327491760253906e+00) (75, -2.16676086187362670898e-01) (76, -7.40654885768890380859e-01) (77, -1.47734785079956054688e+00) (78, -8.81572008132934570312e-01) (79, -4.14125740528106689453e-01) (80, -1.16346347332000732422e+00) (81, 1.48535001277923583984e+00) (82, 5.13268887996673583984e-01) (83, -9.15993392467498779297e-01) (84, -1.42124104499816894531e+00) (85, -5.13119220733642578125e-01) (86, -5.20719707012176513672e-01) (87, -8.90431225299835205078e-01) (88, -3.66128504276275634766e-01) (89, 1.65468335151672363281e-01) (90, -1.40108811855316162109e+00) (91, -1.99263051152229309082e-01) (67, 6.26200795173645019531e-01) (68, 3.26248288154602050781e-01) (69, 3.58224421739578247070e-01) (70, 1.81001797318458557129e-01) (71, 3.75076919794082641602e-01) (72, 2.07087486982345581055e-01) (73, 1.14860467612743377686e-01) (74, 3.92564624547958374023e-01) (75, 6.77642881870269775391e-01) (76, 2.47353628277778625488e-01) (77, -5.05052283406257629395e-02) (78, 2.40155160427093505859e-01) (79, 1.31859302520751953125e-01) (80, 6.00880146026611328125e-01) (81, -1.55905973911285400391e+00) (82, -4.87608969211578369141e-01) (83, 8.75159859657287597656e-01) (84, 8.58531236648559570312e-01) (85, 1.87520012259483337402e-01) (86, 6.06506466865539550781e-01) (87, -1.04230634868144989014e-01) (88, 6.38175845146179199219e-01) (89, -9.13211107254028320312e-02) (90, 2.58504718542098999023e-01) (91, 1.08307456970214843750e+00) (67, 5.81075370311737060547e-01) (68, -2.05423403531312942505e-03) (69, -8.05609002709388732910e-02) (70, 6.94253087043762207031e-01) (71, 3.48187029361724853516e-01) (72, 6.13567531108856201172e-01) (73, 2.60630249977111816406e-01) (74, 2.61834353208541870117e-01) (75, -2.75925993919372558594e+00) (76, 4.27817970514297485352e-01) (77, 2.58169114589691162109e-01) (78, 6.16373479366302490234e-01) (79, 7.35201418399810791016e-01) (80, 4.93850827217102050781e-01) (81, 1.26861345767974853516e+00) (82, 1.22486877441406250000e+00) (83, 1.57227814197540283203e-01) (84, 4.04607564210891723633e-01) (85, 1.00084638595581054688e+00) (86, 4.50369626283645629883e-01) (87, 2.23068863153457641602e-01) (88, 1.30079662799835205078e+00) (89, 2.53997266292572021484e-01) (90, -4.40920233726501464844e-01) (91, 6.04611396789550781250e-01) (92, -2.31356665492057800293e-01) (93, -1.12405717372894287109e-02) (94, 2.86714117974042892456e-02) (95, -3.91447067260742187500e-01) (96, 4.95457738637924194336e-01) (97, 6.40730261802673339844e-01) (98, 6.84535652399063110352e-02) (99, -3.66142272949218750000e-01) (100, -6.17823660373687744141e-01) (101, -7.47615918517112731934e-02) (102, 4.29462827742099761963e-02) (103, 1.56052425503730773926e-01) (104, 2.82958596944808959961e-01) (105, 3.27933460474014282227e-01) (106, 4.72809195518493652344e-01) (107, 1.13991923630237579346e-01) (108, 1.20810300111770629883e-01) (109, 7.33650699257850646973e-02) (110, -1.49457307998090982437e-03) (111, 9.36551094055175781250e-02) (112, 3.18541109561920166016e-01) (113, -3.67264747619628906250e-02) (114, 2.83627092838287353516e-01) (115, -8.21590498089790344238e-02) (116, 1.05585455894470214844e+00) (92, 4.37638759613037109375e-01) (93, 3.97046625614166259766e-01) (94, -3.94581556320190429688e-02) (95, -2.58091390132904052734e-02) (96, 4.24368768930435180664e-01) (97, 1.93406850099563598633e-01) (98, 2.31768012046813964844e-01) (99, 4.92622554302215576172e-01) (100, 4.71746534109115600586e-01) (101, 2.18574717640876770020e-01) (102, 3.74332070350646972656e-01) (103, 9.86314341425895690918e-02) (104, 4.92049664258956909180e-01) (105, 4.54519540071487426758e-01) (106, -1.97344645857810974121e-01) (107, 6.16371929645538330078e-01) (108, 8.88967141509056091309e-02) (109, 2.60623428039252758026e-03) (110, 1.53102315962314605713e-02) (111, 3.02649825811386108398e-01) (112, 1.38450548052787780762e-01) (113, 3.43795537948608398438e-01) (114, -8.79524946212768554688e-02) (115, 2.15961313247680664062e+00) (116, -9.37736213207244873047e-01) (92, 6.93479552865028381348e-02) (93, 6.23182177543640136719e-01) (94, 3.19486677646636962891e-01) (95, 1.30727484822273254395e-01) (96, 3.63387316465377807617e-01) (97, 2.32489928603172302246e-01) (98, 6.15479171276092529297e-01) (99, 1.65888085961341857910e-01) (100, 3.86073112487792968750e-01) (101, -4.51779752969741821289e-01) (102, -2.39105582237243652344e-01) (103, 4.69261437654495239258e-01) (104, 7.22872912883758544922e-01) (105, 3.70288282632827758789e-01) (106, 2.02119767665863037109e-01) (107, 8.09439166914671659470e-04) (108, 5.05687236785888671875e-01) (109, 1.91587781906127929688e+00) (110, 4.41810756921768188477e-01) (111, 6.11376106739044189453e-01) (112, 5.79020261764526367188e-01) (113, 5.76511204242706298828e-01) (114, 1.34855830669403076172e+00) (115, -2.42832377552986145020e-01) (116, 6.11392371356487274170e-02) (92, 2.02004387974739074707e-01) (93, 1.48629978299140930176e-01) (94, -3.22766490280628204346e-02) (95, 4.69602972269058227539e-01) (96, 1.69812828302383422852e-01) (97, 8.56290459632873535156e-01) (98, -3.74535560607910156250e-01) (99, 5.06729185581207275391e-01) (100, 5.33078610897064208984e-01) (101, 2.52421926707029342651e-02) (102, 2.98303663730621337891e-01) (103, 4.00726385414600372314e-02) (104, 3.31879764795303344727e-01) (105, 6.61655664443969726562e-01) (106, 8.40402245521545410156e-01) (107, 8.03865253925323486328e-01) (108, 5.66373705863952636719e-01) (109, 3.20118099451065063477e-01) (110, 3.84364724159240722656e-01) (111, 4.37644630670547485352e-01) (112, 1.27073213458061218262e-01) (113, -8.03135782480239868164e-02) (114, 3.16853225231170654297e-01) (115, 1.42416447401046752930e-01) (116, -2.75994598865509033203e-01) (92, 6.76136732101440429688e-01) (93, 1.71607643365859985352e-01) (94, 3.45949381589889526367e-01) (95, 5.00819563865661621094e-01) (96, 1.53437256813049316406e-01) (97, 2.90539264678955078125e-01) (98, 2.82952431589365005493e-02) (99, 8.86973321437835693359e-01) (100, 5.29050469398498535156e-01) (101, 1.56619414687156677246e-01) (102, 2.53446429967880249023e-01) (103, 6.84464931488037109375e-01) (104, 1.61427646875381469727e-01) (105, 2.01869085431098937988e-01) (106, 2.99762129783630371094e-01) (107, 8.52197468280792236328e-01) (108, 6.66844844818115234375e-01) (109, 7.11882472038269042969e-01) (110, 5.00276088714599609375e-01) (111, 4.02990788221359252930e-01) (112, 1.26112163066864013672e-01) (113, 4.29739356040954589844e-01) (114, 3.45658026635646820068e-02) (115, -1.88919797539710998535e-01) (116, 5.72405636310577392578e-01) (92, 5.31312763690948486328e-01) (93, 1.76847055554389953613e-01) (94, 6.79269433021545410156e-01) (95, 5.33122062683105468750e-01) (96, 5.14809131622314453125e-01) (97, 6.26309037208557128906e-01) (98, 3.26513171195983886719e-01) (99, -2.17280596494674682617e-01) (100, -2.46517643332481384277e-01) (101, 5.11587262153625488281e-01) (102, 6.30671799182891845703e-01) (103, 2.36534059047698974609e-01) (104, 4.68755662441253662109e-01) (105, 5.91012477874755859375e-01) (106, 6.65059626102447509766e-01) (107, 2.39898920059204101562e-01) (108, 1.93710982799530029297e-01) (109, 2.17683181166648864746e-01) (110, 1.04627743363380432129e-01) (111, 2.00109869241714477539e-01) (112, 9.91437673568725585938e-01) (113, -2.86866128444671630859e-01) (114, 6.74377024173736572266e-01) (115, 9.17070925235748291016e-01) (116, 3.47139418125152587891e-01) (92, 5.86307942867279052734e-01) (93, 1.87646746635437011719e-02) (94, 4.99345004558563232422e-01) (95, 4.89661455154418945312e-01) (96, 2.34797671437263488770e-01) (97, 7.43423521518707275391e-01) (98, 4.23709690570831298828e-01) (99, 4.37475174665451049805e-01) (100, 2.74485886096954345703e-01) (101, 2.44373410940170288086e-01) (102, 5.30088305473327636719e-01) (103, 4.04447108507156372070e-01) (104, 3.88132959604263305664e-01) (105, 7.65540078282356262207e-02) (106, 2.37840279936790466309e-01) (107, 3.22918951511383056641e-01) (108, 6.15469455718994140625e-01) (109, 6.50260090827941894531e-01) (110, 2.83564507961273193359e-01) (111, 1.55596286058425903320e-01) (112, 1.47467464208602905273e-01) (113, 3.83804529905319213867e-01) (114, 2.56142765283584594727e-01) (115, 4.69003051519393920898e-01) (116, 4.94090408086776733398e-01) (92, 1.88964992761611938477e-01) (93, 1.04768820106983184814e-01) (94, 1.08317963778972625732e-01) (95, -6.12206876277923583984e-01) (96, -7.81555697321891784668e-02) (97, 2.40394368767738342285e-01) (98, -1.18742145597934722900e-01) (99, -1.05928324162960052490e-01) (100, -1.77542511373758316040e-02) (101, 7.69357234239578247070e-02) (102, 7.58198320865631103516e-01) (103, -1.40886828303337097168e-01) (104, -4.19028222560882568359e-01) (105, 1.37316808104515075684e-01) (106, 2.34662830829620361328e-01) (107, -2.06168919801712036133e-01) (108, -1.11817330121994018555e-01) (109, -8.14563095569610595703e-01) (110, -2.04248696565628051758e-01) (111, 1.80147923529148101807e-02) (112, 5.20760677754878997803e-02) (113, 1.24275825917720794678e-01) (114, 6.63802921772003173828e-02) (115, -2.17753514647483825684e-01) (116, 2.36072397232055664062e+00) (92, 6.27790093421936035156e-01) (93, 2.06887915730476379395e-01) (94, 7.63668060302734375000e-01) (95, 3.09062927961349487305e-01) (96, -5.64212873578071594238e-02) (97, 2.61485725641250610352e-01) (98, 4.45802301168441772461e-01) (99, 5.05545377731323242188e-01) (100, 1.08546411991119384766e+00) (101, 4.75344210863113403320e-01) (102, 4.65180054306983947754e-02) (103, 3.72129917144775390625e-01) (104, 2.98942595720291137695e-01) (105, 2.35384613275527954102e-01) (106, 2.29641169309616088867e-01) (107, 7.66730070114135742188e-01) (108, 1.14135742187500000000e+00) (109, 9.29304063320159912109e-01) (110, 5.51484882831573486328e-01) (111, 7.76285409927368164062e-01) (112, 5.59981502592563629150e-02) (113, 8.84399533271789550781e-01) (114, 1.63160059601068496704e-02) (115, 1.79118871688842773438e-01) (116, 2.34339684247970581055e-01) (92, -7.97756016254425048828e-02) (93, -3.15768033266067504883e-01) (94, -1.01979210972785949707e-01) (95, 1.00483499467372894287e-01) (96, -1.61017313599586486816e-01) (97, 9.44487899541854858398e-02) (98, -3.81861031055450439453e-01) (99, 9.59977358579635620117e-02) (100, -3.98855894804000854492e-01) (101, 8.32607001066207885742e-02) (102, -6.42313420772552490234e-01) (103, -2.17463791370391845703e-01) (104, -1.24872602522373199463e-01) (105, -1.13004721701145172119e-01) (106, 2.61197728104889392853e-03) (107, 5.79495057463645935059e-02) (108, 4.36981558799743652344e-01) (109, 2.26908847689628601074e-01) (110, 6.49738550186157226562e-01) (111, 3.89177441596984863281e-01) (112, -2.05836221575736999512e-01) (113, -2.98537373542785644531e-01) (114, 1.36344330385327339172e-02) (115, -4.87952560186386108398e-01) (116, 5.12292087078094482422e-01) (92, 1.32566785812377929688e+00) (93, -1.26443160697817802429e-02) (94, 7.68936276435852050781e-01) (95, 1.45819497108459472656e+00) (96, -3.15642505884170532227e-01) (97, 