FANN_FLO_2.1
num_layers=20
learning_rate=0.700000
connection_rate=1.000000
network_type=0
learning_momentum=0.000000
training_algorithm=2
train_error_function=1
train_stop_function=1
cascade_output_change_fraction=0.010000
quickprop_decay=-0.000100
quickprop_mu=1.750000
rprop_increase_factor=1.200000
rprop_decrease_factor=0.500000
rprop_delta_min=0.000000
rprop_delta_max=50.000000
rprop_delta_zero=0.100000
cascade_output_stagnation_epochs=12
cascade_candidate_change_fraction=0.010000
cascade_candidate_stagnation_epochs=12
cascade_max_out_epochs=150
cascade_min_out_epochs=50
cascade_max_cand_epochs=150
cascade_min_cand_epochs=50
cascade_num_candidate_groups=2
bit_fail_limit=9.99999977648258209229e-03
cascade_candidate_limit=1.00000000000000000000e+03
cascade_weight_multiplier=4.00000005960464477539e-01
cascade_activation_functions_count=10
cascade_activation_functions=3 5 7 8 10 11 14 15 16 17 
cascade_activation_steepnesses_count=4
cascade_activation_steepnesses=2.50000000000000000000e-01 5.00000000000000000000e-01 7.50000000000000000000e-01 1.00000000000000000000e+00 
layer_sizes=17 25 25 25 25 25 25 25 25 25 25 25 25 25 25 25 25 25 17 9 
scale_included=0
neurons (num_inputs, activation_function, activation_steepness)=(0, 0, 0.00000000000000000000e+00) (0, 0, 0.00000000000000000000e+00) (0, 0, 0.00000000000000000000e+00) (0, 0, 0.00000000000000000000e+00) (0, 0, 0.00000000000000000000e+00) (0, 0, 0.00000000000000000000e+00) (0, 0, 0.00000000000000000000e+00) (0, 0, 0.00000000000000000000e+00) (0, 0, 0.00000000000000000000e+00) (0, 0, 0.00000000000000000000e+00) (0, 0, 0.00000000000000000000e+00) (0, 0, 0.00000000000000000000e+00) (0, 0, 0.00000000000000000000e+00) (0, 0, 0.00000000000000000000e+00) (0, 0, 0.00000000000000000000e+00) (0, 0, 0.00000000000000000000e+00) (0, 0, 0.00000000000000000000e+00) (17, 5, 1.00000000000000000000e+00) (17, 5, 1.00000000000000000000e+00) (17, 5, 1.00000000000000000000e+00) (17, 5, 1.00000000000000000000e+00) (17, 5, 1.00000000000000000000e+00) (17, 5, 1.00000000000000000000e+00) (17, 5, 1.00000000000000000000e+00) (17, 5, 1.00000000000000000000e+00) (17, 5, 1.00000000000000000000e+00) (17, 5, 1.00000000000000000000e+00) (17, 5, 1.00000000000000000000e+00) (17, 5, 1.00000000000000000000e+00) (17, 5, 1.00000000000000000000e+00) (17, 5, 1.00000000000000000000e+00) (17, 5, 1.00000000000000000000e+00) (17, 5, 1.00000000000000000000e+00) (17, 5, 1.00000000000000000000e+00) (17, 5, 1.00000000000000000000e+00) (17, 5, 1.00000000000000000000e+00) (17, 5, 1.00000000000000000000e+00) (17, 5, 1.00000000000000000000e+00) (17, 5, 1.00000000000000000000e+00) (17, 5, 1.00000000000000000000e+00) (17, 5, 1.00000000000000000000e+00) (0, 5, 1.00000000000000000000e+00) (25, 5, 1.00000000000000000000e+00) (25, 5, 1.00000000000000000000e+00) (25, 5, 1.00000000000000000000e+00) (25, 5, 1.00000000000000000000e+00) (25, 5, 1.00000000000000000000e+00) (25, 5, 1.00000000000000000000e+00) (25, 5, 1.00000000000000000000e+00) (25, 5, 1.00000000000000000000e+00) (25, 5, 1.00000000000000000000e+00) (25, 5, 1.00000000000000000000e+00) (25, 5, 1.00000000000000000000e+00) (25, 5, 1.00000000000000000000e+00) (25, 5, 1.00000000000000000000e+00) (25, 5, 1.00000000000000000000e+00) (25, 5, 1.00000000000000000000e+00) (25, 5, 1.00000000000000000000e+00) (25, 5, 1.00000000000000000000e+00) (25, 5, 1.00000000000000000000e+00) (25, 5, 1.00000000000000000000e+00) (25, 5, 1.00000000000000000000e+00) (25, 5, 1.00000000000000000000e+00) (25, 5, 1.00000000000000000000e+00) (25, 5, 1.00000000000000000000e+00) (25, 5, 1.00000000000000000000e+00) (0, 5, 1.00000000000000000000e+00) (25, 5, 1.00000000000000000000e+00) (25, 5, 1.00000000000000000000e+00) (25, 5, 1.00000000000000000000e+00) (25, 5, 1.00000000000000000000e+00) (25, 5, 1.00000000000000000000e+00) (25, 5, 1.00000000000000000000e+00) (25, 5, 1.00000000000000000000e+00) (25, 5, 1.00000000000000000000e+00) (25, 5, 1.00000000000000000000e+00) (25, 5, 1.00000000000000000000e+00) (25, 5, 1.00000000000000000000e+00) (25, 5, 1.00000000000000000000e+00) (25, 5, 1.00000000000000000000e+00) (25, 5, 1.00000000000000000000e+00) (25, 5, 1.00000000000000000000e+00) (25, 5, 1.00000000000000000000e+00) (25, 5, 1.00000000000000000000e+00) (25, 5, 1.00000000000000000000e+00) (25, 5, 1.00000000000000000000e+00) (25, 5, 1.00000000000000000000e+00) (25, 5, 1.00000000000000000000e+00) (25, 5, 1.00000000000000000000e+00) (25, 5, 1.00000000000000000000e+00) (25, 5, 1.00000000000000000000e+00) (0, 5, 1.00000000000000000000e+00) (25, 5, 1.00000000000000000000e+00) (25, 5, 1.00000000000000000000e+00) (25, 5, 1.00000000000000000000e+00) (25, 5, 1.00000000000000000000e+00) (25, 5, 1.00000000000000000000e+00) (25, 5, 1.00000000000000000000e+00) (25, 5, 1.00000000000000000000e+00) (25, 5, 1.00000000000000000000e+00) (25, 5, 1.00000000000000000000e+00) (25, 5, 1.00000000000000000000e+00) (25, 5, 1.00000000000000000000e+00) (25, 5, 1.00000000000000000000e+00) (25, 5, 1.00000000000000000000e+00) (25, 5, 1.00000000000000000000e+00) (25, 5, 1.00000000000000000000e+00) (25, 5, 1.00000000000000000000e+00) (25, 5, 1.00000000000000000000e+00) (25, 5, 1.00000000000000000000e+00) (25, 5, 1.00000000000000000000e+00) (25, 5, 1.00000000000000000000e+00) (25, 5, 1.00000000000000000000e+00) (25, 5, 1.00000000000000000000e+00) (25, 5, 1.00000000000000000000e+00) (25, 5, 1.00000000000000000000e+00) (0, 5, 1.00000000000000000000e+00) (25, 5, 1.00000000000000000000e+00) (25, 5, 1.00000000000000000000e+00) (25, 5, 1.00000000000000000000e+00) (25, 5, 1.00000000000000000000e+00) (25, 5, 1.00000000000000000000e+00) (25, 5, 1.00000000000000000000e+00) (25, 5, 1.00000000000000000000e+00) (25, 5, 1.00000000000000000000e+00) (25, 5, 1.00000000000000000000e+00) (25, 5, 1.00000000000000000000e+00) (25, 5, 1.00000000000000000000e+00) (25, 5, 1.00000000000000000000e+00) (25, 5, 1.00000000000000000000e+00) (25, 5, 1.00000000000000000000e+00) (25, 5, 1.00000000000000000000e+00) (25, 5, 1.00000000000000000000e+00) (25, 5, 1.00000000000000000000e+00) (25, 5, 1.00000000000000000000e+00) (25, 5, 1.00000000000000000000e+00) (25, 5, 1.00000000000000000000e+00) (25, 5, 1.00000000000000000000e+00) (25, 5, 1.00000000000000000000e+00) (25, 5, 1.00000000000000000000e+00) (25, 5, 1.00000000000000000000e+00) (0, 5, 1.00000000000000000000e+00) (25, 5, 1.00000000000000000000e+00) (25, 5, 1.00000000000000000000e+00) (25, 5, 1.00000000000000000000e+00) (25, 5, 1.00000000000000000000e+00) (25, 5, 1.00000000000000000000e+00) (25, 5, 1.00000000000000000000e+00) (25, 5, 1.00000000000000000000e+00) (25, 5, 1.00000000000000000000e+00) (25, 5, 1.00000000000000000000e+00) (25, 5, 1.00000000000000000000e+00) (25, 5, 1.00000000000000000000e+00) (25, 5, 1.00000000000000000000e+00) (25, 5, 1.00000000000000000000e+00) (25, 5, 1.00000000000000000000e+00) (25, 5, 1.00000000000000000000e+00) (25, 5, 1.00000000000000000000e+00) (25, 5, 1.00000000000000000000e+00) (25, 5, 1.00000000000000000000e+00) (25, 5, 1.00000000000000000000e+00) (25, 5, 1.00000000000000000000e+00) (25, 5, 1.00000000000000000000e+00) (25, 5, 1.00000000000000000000e+00) (25, 5, 1.00000000000000000000e+00) (25, 5, 1.00000000000000000000e+00) (0, 5, 1.00000000000000000000e+00) (25, 5, 1.00000000000000000000e+00) (25, 5, 1.00000000000000000000e+00) (25, 5, 1.00000000000000000000e+00) (25, 5, 1.00000000000000000000e+00) (25, 5, 1.00000000000000000000e+00) (25, 5, 1.00000000000000000000e+00) (25, 5, 1.00000000000000000000e+00) (25, 5, 1.00000000000000000000e+00) (25, 5, 1.00000000000000000000e+00) (25, 5, 1.00000000000000000000e+00) (25, 5, 1.00000000000000000000e+00) (25, 5, 1.00000000000000000000e+00) (25, 5, 1.00000000000000000000e+00) (25, 5, 1.00000000000000000000e+00) (25, 5, 1.00000000000000000000e+00) (25, 5, 1.00000000000000000000e+00) (25, 5, 1.00000000000000000000e+00) (25, 5, 1.00000000000000000000e+00) (25, 5, 1.00000000000000000000e+00) (25, 5, 1.00000000000000000000e+00) (25, 5, 1.00000000000000000000e+00) (25, 5, 1.00000000000000000000e+00) (25, 5, 1.00000000000000000000e+00) (25, 5, 1.00000000000000000000e+00) (0, 5, 1.00000000000000000000e+00) (25, 5, 1.00000000000000000000e+00) (25, 5, 1.00000000000000000000e+00) (25, 5, 1.00000000000000000000e+00) (25, 5, 1.00000000000000000000e+00) (25, 5, 1.00000000000000000000e+00) (25, 5, 1.00000000000000000000e+00) (25, 5, 1.00000000000000000000e+00) (25, 5, 1.00000000000000000000e+00) (25, 5, 1.00000000000000000000e+00) (25, 5, 1.00000000000000000000e+00) (25, 5, 1.00000000000000000000e+00) (25, 5, 1.00000000000000000000e+00) (25, 5, 1.00000000000000000000e+00) (25, 5, 1.00000000000000000000e+00) (25, 5, 1.00000000000000000000e+00) (25, 5, 1.00000000000000000000e+00) (25, 5, 1.00000000000000000000e+00) (25, 5, 1.00000000000000000000e+00) (25, 5, 1.00000000000000000000e+00) (25, 5, 1.00000000000000000000e+00) (25, 5, 1.00000000000000000000e+00) (25, 5, 1.00000000000000000000e+00) (25, 5, 1.00000000000000000000e+00) (25, 5, 1.00000000000000000000e+00) (0, 5, 1.00000000000000000000e+00) (25, 5, 1.00000000000000000000e+00) (25, 5, 1.00000000000000000000e+00) (25, 5, 1.00000000000000000000e+00) (25, 5, 1.00000000000000000000e+00) (25, 5, 1.00000000000000000000e+00) (25, 5, 1.00000000000000000000e+00) (25, 5, 1.00000000000000000000e+00) (25, 5, 1.00000000000000000000e+00) (25, 5, 1.00000000000000000000e+00) (25, 5, 1.00000000000000000000e+00) (25, 5, 1.00000000000000000000e+00) (25, 5, 1.00000000000000000000e+00) (25, 5, 1.00000000000000000000e+00) (25, 5, 1.00000000000000000000e+00) (25, 5, 1.00000000000000000000e+00) (25, 5, 1.00000000000000000000e+00) (25, 5, 1.00000000000000000000e+00) (25, 5, 1.00000000000000000000e+00) (25, 5, 1.00000000000000000000e+00) (25, 5, 1.00000000000000000000e+00) (25, 5, 1.00000000000000000000e+00) (25, 5, 1.00000000000000000000e+00) (25, 5, 1.00000000000000000000e+00) (25, 5, 1.00000000000000000000e+00) (0, 5, 1.00000000000000000000e+00) (25, 5, 1.00000000000000000000e+00) (25, 5, 1.00000000000000000000e+00) (25, 5, 1.00000000000000000000e+00) (25, 5, 1.00000000000000000000e+00) (25, 5, 1.00000000000000000000e+00) (25, 5, 1.00000000000000000000e+00) (25, 5, 1.00000000000000000000e+00) (25, 5, 1.00000000000000000000e+00) (25, 5, 1.00000000000000000000e+00) (25, 5, 1.00000000000000000000e+00) (25, 5, 1.00000000000000000000e+00) (25, 5, 1.00000000000000000000e+00) (25, 5, 1.00000000000000000000e+00) (25, 5, 1.00000000000000000000e+00) (25, 5, 1.00000000000000000000e+00) (25, 5, 1.00000000000000000000e+00) (25, 5, 1.00000000000000000000e+00) (25, 5, 1.00000000000000000000e+00) (25, 5, 1.00000000000000000000e+00) (25, 5, 1.00000000000000000000e+00) (25, 5, 1.00000000000000000000e+00) (25, 5, 1.00000000000000000000e+00) (25, 5, 1.00000000000000000000e+00) (25, 5, 1.00000000000000000000e+00) (0, 5, 1.00000000000000000000e+00) (25, 5, 1.00000000000000000000e+00) (25, 5, 1.00000000000000000000e+00) (25, 5, 1.00000000000000000000e+00) (25, 5, 1.00000000000000000000e+00) (25, 5, 1.00000000000000000000e+00) (25, 5, 1.00000000000000000000e+00) (25, 5, 1.00000000000000000000e+00) (25, 5, 1.00000000000000000000e+00) (25, 5, 1.00000000000000000000e+00) (25, 5, 1.00000000000000000000e+00) (25, 5, 1.00000000000000000000e+00) (25, 5, 1.00000000000000000000e+00) (25, 5, 1.00000000000000000000e+00) (25, 5, 1.00000000000000000000e+00) (25, 5, 1.00000000000000000000e+00) (25, 5, 1.00000000000000000000e+00) (25, 5, 1.00000000000000000000e+00) (25, 5, 1.00000000000000000000e+00) (25, 5, 1.00000000000000000000e+00) (25, 5, 1.00000000000000000000e+00) (25, 5, 1.00000000000000000000e+00) (25, 5, 1.00000000000000000000e+00) (25, 5, 1.00000000000000000000e+00) (25, 5, 1.00000000000000000000e+00) (0, 5, 1.00000000000000000000e+00) (25, 5, 1.00000000000000000000e+00) (25, 5, 1.00000000000000000000e+00) (25, 5, 1.00000000000000000000e+00) (25, 5, 1.00000000000000000000e+00) (25, 5, 1.00000000000000000000e+00) (25, 5, 1.00000000000000000000e+00) (25, 5, 1.00000000000000000000e+00) (25, 5, 1.00000000000000000000e+00) (25, 5, 1.00000000000000000000e+00) (25, 5, 1.00000000000000000000e+00) (25, 5, 1.00000000000000000000e+00) (25, 5, 1.00000000000000000000e+00) (25, 5, 1.00000000000000000000e+00) (25, 5, 1.00000000000000000000e+00) (25, 5, 1.00000000000000000000e+00) (25, 5, 1.00000000000000000000e+00) (25, 5, 1.00000000000000000000e+00) (25, 5, 1.00000000000000000000e+00) (25, 5, 1.00000000000000000000e+00) (25, 5, 1.00000000000000000000e+00) (25, 5, 1.00000000000000000000e+00) (25, 5, 1.00000000000000000000e+00) (25, 5, 1.00000000000000000000e+00) (25, 5, 1.00000000000000000000e+00) (0, 5, 1.00000000000000000000e+00) (25, 5, 1.00000000000000000000e+00) (25, 5, 1.00000000000000000000e+00) (25, 5, 1.00000000000000000000e+00) (25, 5, 1.00000000000000000000e+00) (25, 5, 1.00000000000000000000e+00) (25, 5, 1.00000000000000000000e+00) (25, 5, 1.00000000000000000000e+00) (25, 5, 1.00000000000000000000e+00) (25, 5, 1.00000000000000000000e+00) (25, 5, 1.00000000000000000000e+00) (25, 5, 1.00000000000000000000e+00) (25, 5, 1.00000000000000000000e+00) (25, 5, 1.00000000000000000000e+00) (25, 5, 1.00000000000000000000e+00) (25, 5, 1.00000000000000000000e+00) (25, 5, 1.00000000000000000000e+00) (25, 5, 1.00000000000000000000e+00) (25, 5, 1.00000000000000000000e+00) (25, 5, 1.00000000000000000000e+00) (25, 5, 1.00000000000000000000e+00) (25, 5, 1.00000000000000000000e+00) (25, 5, 1.00000000000000000000e+00) (25, 5, 1.00000000000000000000e+00) (25, 5, 1.00000000000000000000e+00) (0, 5, 1.00000000000000000000e+00) (25, 5, 1.00000000000000000000e+00) (25, 5, 1.00000000000000000000e+00) (25, 5, 1.00000000000000000000e+00) (25, 5, 1.00000000000000000000e+00) (25, 5, 1.00000000000000000000e+00) (25, 5, 1.00000000000000000000e+00) (25, 5, 1.00000000000000000000e+00) (25, 5, 1.00000000000000000000e+00) (25, 5, 1.00000000000000000000e+00) (25, 5, 1.00000000000000000000e+00) (25, 5, 1.00000000000000000000e+00) (25, 5, 1.00000000000000000000e+00) (25, 5, 1.00000000000000000000e+00) (25, 5, 1.00000000000000000000e+00) (25, 5, 1.00000000000000000000e+00) (25, 5, 1.00000000000000000000e+00) (25, 5, 1.00000000000000000000e+00) (25, 5, 1.00000000000000000000e+00) (25, 5, 1.00000000000000000000e+00) (25, 5, 1.00000000000000000000e+00) (25, 5, 1.00000000000000000000e+00) (25, 5, 1.00000000000000000000e+00) (25, 5, 1.00000000000000000000e+00) (25, 5, 1.00000000000000000000e+00) (0, 5, 1.00000000000000000000e+00) (25, 5, 1.00000000000000000000e+00) (25, 5, 1.00000000000000000000e+00) (25, 5, 1.00000000000000000000e+00) (25, 5, 1.00000000000000000000e+00) (25, 5, 1.00000000000000000000e+00) (25, 5, 1.00000000000000000000e+00) (25, 5, 1.00000000000000000000e+00) (25, 5, 1.00000000000000000000e+00) (25, 5, 1.00000000000000000000e+00) (25, 5, 1.00000000000000000000e+00) (25, 5, 1.00000000000000000000e+00) (25, 5, 1.00000000000000000000e+00) (25, 5, 1.00000000000000000000e+00) (25, 5, 1.00000000000000000000e+00) (25, 5, 1.00000000000000000000e+00) (25, 5, 1.00000000000000000000e+00) (25, 5, 1.00000000000000000000e+00) (25, 5, 1.00000000000000000000e+00) (25, 5, 1.00000000000000000000e+00) (25, 5, 1.00000000000000000000e+00) (25, 5, 1.00000000000000000000e+00) (25, 5, 1.00000000000000000000e+00) (25, 5, 1.00000000000000000000e+00) (25, 5, 1.00000000000000000000e+00) (0, 5, 1.00000000000000000000e+00) (25, 5, 1.00000000000000000000e+00) (25, 5, 1.00000000000000000000e+00) (25, 5, 1.00000000000000000000e+00) (25, 5, 1.00000000000000000000e+00) (25, 5, 1.00000000000000000000e+00) (25, 5, 1.00000000000000000000e+00) (25, 5, 1.00000000000000000000e+00) (25, 5, 1.00000000000000000000e+00) (25, 5, 1.00000000000000000000e+00) (25, 5, 1.00000000000000000000e+00) (25, 5, 1.00000000000000000000e+00) (25, 5, 1.00000000000000000000e+00) (25, 5, 1.00000000000000000000e+00) (25, 5, 1.00000000000000000000e+00) (25, 5, 1.00000000000000000000e+00) (25, 5, 1.00000000000000000000e+00) (25, 5, 1.00000000000000000000e+00) (25, 5, 1.00000000000000000000e+00) (25, 5, 1.00000000000000000000e+00) (25, 5, 1.00000000000000000000e+00) (25, 5, 1.00000000000000000000e+00) (25, 5, 1.00000000000000000000e+00) (25, 5, 1.00000000000000000000e+00) (25, 5, 1.00000000000000000000e+00) (0, 5, 1.00000000000000000000e+00) (25, 5, 1.00000000000000000000e+00) (25, 5, 1.00000000000000000000e+00) (25, 5, 1.00000000000000000000e+00) (25, 5, 1.00000000000000000000e+00) (25, 5, 1.00000000000000000000e+00) (25, 5, 1.00000000000000000000e+00) (25, 5, 1.00000000000000000000e+00) (25, 5, 1.00000000000000000000e+00) (25, 5, 1.00000000000000000000e+00) (25, 5, 1.00000000000000000000e+00) (25, 5, 1.00000000000000000000e+00) (25, 5, 1.00000000000000000000e+00) (25, 5, 1.00000000000000000000e+00) (25, 5, 1.00000000000000000000e+00) (25, 5, 1.00000000000000000000e+00) (25, 5, 1.00000000000000000000e+00) (25, 5, 1.00000000000000000000e+00) (25, 5, 1.00000000000000000000e+00) (25, 5, 1.00000000000000000000e+00) (25, 5, 1.00000000000000000000e+00) (25, 5, 1.00000000000000000000e+00) (25, 5, 1.00000000000000000000e+00) (25, 5, 1.00000000000000000000e+00) (25, 5, 1.00000000000000000000e+00) (0, 5, 1.00000000000000000000e+00) (25, 5, 1.00000000000000000000e+00) (25, 5, 1.00000000000000000000e+00) (25, 5, 1.00000000000000000000e+00) (25, 5, 1.00000000000000000000e+00) (25, 5, 1.00000000000000000000e+00) (25, 5, 1.00000000000000000000e+00) (25, 5, 1.00000000000000000000e+00) (25, 5, 1.00000000000000000000e+00) (25, 5, 1.00000000000000000000e+00) (25, 5, 1.00000000000000000000e+00) (25, 5, 1.00000000000000000000e+00) (25, 5, 1.00000000000000000000e+00) (25, 5, 1.00000000000000000000e+00) (25, 5, 1.00000000000000000000e+00) (25, 5, 1.00000000000000000000e+00) (25, 5, 1.00000000000000000000e+00) (0, 5, 1.00000000000000000000e+00) (17, 5, 1.00000000000000000000e+00) (17, 5, 1.00000000000000000000e+00) (17, 5, 1.00000000000000000000e+00) (17, 5, 1.00000000000000000000e+00) (17, 5, 1.00000000000000000000e+00) (17, 5, 1.00000000000000000000e+00) (17, 5, 1.00000000000000000000e+00) (17, 5, 1.00000000000000000000e+00) (0, 5, 1.00000000000000000000e+00) 
connections (connected_to_neuron, weight)=(0, -3.74327003955841064453e-01) (1, -1.58696696162223815918e-01) (2, 8.93066644668579101562e-01) (3, 3.03615760803222656250e+00) (4, 1.02465367317199707031e+00) (5, 5.17276108264923095703e-01) (6, 6.81348741054534912109e-02) (7, 1.21035075187683105469e+00) (8, -2.76772081851959228516e-01) (9, 2.03063055872917175293e-01) (10, 3.75743150711059570312e-01) (11, 8.23112487792968750000e-01) (12, 8.17227244377136230469e-01) (13, 2.76684582233428955078e-01) (14, 7.40787088871002197266e-01) (15, 8.40919613838195800781e-01) (16, 1.50073361396789550781e+00) (0, -1.79517710208892822266e+00) (1, 6.56650900840759277344e-01) (2, 1.30712604522705078125e+00) (3, 1.03779709339141845703e+00) (4, 4.30020332336425781250e-01) (5, 5.47100126743316650391e-01) (6, 7.68912672996520996094e-01) (7, 1.07160687446594238281e+00) (8, 4.67442870140075683594e-01) (9, 6.83428823947906494141e-01) (10, 9.76336359977722167969e-01) (11, 1.45008504390716552734e+00) (12, 4.79185342788696289062e-01) (13, 2.23000630736351013184e-01) (14, 4.18996304273605346680e-01) (15, 1.33491361141204833984e+00) (16, 9.68405604362487792969e-02) (0, -3.61159533262252807617e-01) (1, 1.13506364822387695312e+00) (2, 5.95808863639831542969e-01) (3, 9.54539394378662109375e+00) (4, 4.10057008266448974609e-01) (5, 6.77913248538970947266e-01) (6, 5.32498538494110107422e-01) (7, 2.44129610061645507812e+00) (8, 2.71386831998825073242e-01) (9, 7.05787956714630126953e-01) (10, 2.26249739527702331543e-01) (11, 1.94173741340637207031e+00) (12, 2.95685172080993652344e-01) (13, 3.22573721408843994141e-01) (14, 6.37592136859893798828e-01) (15, 2.58352899551391601562e+00) (16, 4.22155112028121948242e-01) (0, 1.02173995971679687500e+00) (1, 1.06341779232025146484e+00) (2, 6.31406068801879882812e-01) (3, 9.36849296092987060547e-01) (4, -3.95083457231521606445e-01) (5, 7.50169679522514343262e-02) (6, 1.70770168304443359375e-01) (7, 8.67949604988098144531e-01) (8, -2.56975173950195312500e-01) (9, 6.26149848103523254395e-02) (10, 8.99129286408424377441e-02) (11, 2.07511162757873535156e+00) (12, -1.76066011190414428711e-01) (13, 2.12255582213401794434e-01) (14, 5.93779742717742919922e-01) (15, 7.91660547256469726562e-01) (16, 1.56387495994567871094e+00) (0, 2.00068160891532897949e-01) (1, -4.66726124286651611328e-01) (2, 1.09443269670009613037e-01) (3, 1.13946604728698730469e+00) (4, 5.65836966037750244141e-01) (5, -1.61121293902397155762e-01) (6, -2.50848770141601562500e-01) (7, -1.10693611204624176025e-02) (8, 2.21567496657371520996e-01) (9, 3.91294956207275390625e-01) (10, 1.42915511131286621094e+00) (11, 1.04125523567199707031e+00) (12, 5.40864944458007812500e-01) (13, 3.76373201608657836914e-01) (14, -4.85846996307373046875e-02) (15, 2.07638949155807495117e-01) (16, 2.02863526344299316406e+00) (0, -5.80025136470794677734e-01) (1, 1.03964135050773620605e-01) (2, 3.13391327857971191406e-01) (3, 2.06967806816101074219e+00) (4, 2.66503155231475830078e-01) (5, 5.72665175423026084900e-03) (6, 6.39181733131408691406e-01) (7, 2.18087387084960937500e+00) (8, 5.99887192249298095703e-01) (9, 3.86783145368099212646e-02) (10, 3.85813891887664794922e-01) (11, 2.02192592620849609375e+00) (12, 3.20683419704437255859e-01) (13, -3.05293779820203781128e-02) (14, 5.53400278091430664062e-01) (15, 1.30408346652984619141e+00) (16, 6.16326391696929931641e-01) (0, 4.29543197154998779297e-01) (1, 7.00533390045166015625e-02) (2, 2.16882422566413879395e-01) (3, 9.02537554502487182617e-02) (4, 1.89272686839103698730e-02) (5, -4.61964279413223266602e-01) (6, 1.93040207028388977051e-01) (7, 1.80553928017616271973e-01) (8, 4.82875525951385498047e-01) (9, -4.04614567756652832031e-01) (10, 4.31666851043701171875e-01) (11, 1.83258879184722900391e+00) (12, 5.90539157390594482422e-01) (13, 7.09720924496650695801e-02) (14, 4.33537811040878295898e-01) (15, 9.31520760059356689453e-01) (16, 1.79564356803894042969e+00) (0, 9.05356481671333312988e-02) (1, 2.61758446693420410156e-01) (2, 5.49069309234619140625e+00) (3, 1.47983884811401367188e+00) (4, -2.38331174477934837341e-03) (5, 7.16574311256408691406e-01) (6, 4.77224498987197875977e-01) (7, 1.11908745765686035156e+00) (8, 8.38015735149383544922e-01) (9, 1.01653374731540679932e-01) (10, 1.34301686286926269531e+00) (11, 5.78817188739776611328e-01) (12, 4.22854781150817871094e-01) (13, -1.51876717805862426758e-01) (14, 9.93558228015899658203e-01) (15, 8.98360371589660644531e-01) (16, 3.69369268417358398438e-01) (0, 2.61595726013183593750e-01) (1, 5.84882915019989013672e-01) (2, 2.71691232919692993164e-01) (3, 5.25584280490875244141e-01) (4, 4.75261121988296508789e-01) (5, 3.62562388181686401367e-01) (6, 4.26550769805908203125e+00) (7, 1.28769147396087646484e+00) (8, 6.67518556118011474609e-01) (9, -2.17079907655715942383e-01) (10, 6.80965781211853027344e-01) (11, 1.99671375751495361328e+00) (12, 5.92327475547790527344e-01) (13, 3.69493931531906127930e-01) (14, 3.37151706218719482422e-01) (15, 7.36351907253265380859e-01) (16, 1.29297673702239990234e+00) (0, 5.92565396800637245178e-03) (1, 1.87288358807563781738e-01) (2, 7.39462494850158691406e-01) (3, 4.63330708444118499756e-02) (4, 8.87058198451995849609e-01) (5, -6.57277643680572509766e-01) (6, 4.12877112627029418945e-01) (7, 2.11101579666137695312e+00) (8, 2.78164833784103393555e-01) (9, 2.59501248598098754883e-01) (10, 7.73167192935943603516e-01) (11, 1.33075344562530517578e+00) (12, 6.75132334232330322266e-01) (13, -7.18564569950103759766e-01) (14, 8.40382695198059082031e-01) (15, 1.11517059803009033203e+00) (16, 1.10589575767517089844e+00) (0, -2.26644411683082580566e-01) (1, -1.71378362178802490234e+00) (2, 6.23796641826629638672e-01) (3, 6.87782049179077148438e-01) (4, 4.45308625698089599609e-01) (5, 5.91693937778472900391e-01) (6, 5.26020050048828125000e-01) (7, -8.69448632001876831055e-02) (8, 1.45555257797241210938e+00) (9, 1.05351066589355468750e+00) (10, 2.63013339042663574219e+00) (11, 1.08727860450744628906e+00) (12, 4.47874754667282104492e-01) (13, 9.85146462917327880859e-02) (14, 6.41585469245910644531e-01) (15, 1.01925387978553771973e-01) (16, 1.65479075908660888672e+00) (0, 1.78732335567474365234e+00) (1, 4.13300246000289916992e-01) (2, 8.96300971508026123047e-01) (3, 4.92640554904937744141e-01) (4, 1.48434114456176757812e+00) (5, 1.54957520961761474609e+00) (6, 6.65579915046691894531e-01) (7, 1.01356554031372070312e+00) (8, -1.04594938457012176514e-01) (9, 5.47584742307662963867e-02) (10, 2.33293509483337402344e+00) (11, 6.76804482936859130859e-01) (12, -1.06794404983520507812e+00) (13, 1.14053511619567871094e+00) (14, 5.15576601028442382812e-01) (15, 7.00008392333984375000e-01) (16, 2.10823488235473632812e+00) (0, -8.95308703184127807617e-02) (1, 7.53196716308593750000e-01) (2, 3.03414011001586914062e+00) (3, 5.84811866283416748047e-01) (4, 1.20438158512115478516e+00) (5, 7.08642125129699707031e-01) (6, 5.46481370925903320312e-01) (7, 7.94987916946411132812e-01) (8, 9.21318113803863525391e-01) (9, 2.84745126962661743164e-01) (10, 4.44869339466094970703e-01) (11, 7.68598318099975585938e-01) (12, 7.54304826259613037109e-01) (13, 3.72561067342758178711e-01) (14, 7.29912638664245605469e-01) (15, 8.71701359748840332031e-01) (16, 5.47193706035614013672e-01) (0, 5.28601229190826416016e-01) (1, 4.54116076231002807617e-01) (2, -1.07695005834102630615e-01) (3, 1.11803984642028808594e+00) (4, 6.25343918800354003906e-01) (5, 4.63136523962020874023e-01) (6, 8.63689258694648742676e-02) (7, 7.50054866075515747070e-02) (8, 5.09866416454315185547e-01) (9, -3.14624130725860595703e-01) (10, 1.40461349487304687500e+00) (11, 2.28055310249328613281e+00) (12, 4.86103415489196777344e-01) (13, 7.83799707889556884766e-01) (14, 3.56370918452739715576e-02) (15, 9.09706279635429382324e-02) (16, 1.62350451946258544922e+00) (0, 5.70290684700012207031e-01) (1, 4.55151617527008056641e-01) (2, 2.81327158212661743164e-01) (3, -1.19659923017024993896e-01) (4, -4.38904672861099243164e-01) (5, 1.63569033145904541016e-01) (6, 5.28360545635223388672e-01) (7, 5.15893638134002685547e-01) (8, 1.84137976169586181641e+00) (9, -1.69858801364898681641e+00) (10, 1.15345537662506103516e+00) (11, 8.18734645843505859375e-01) (12, -3.94349783658981323242e-01) (13, -2.07279734313488006592e-02) (14, 2.82563000917434692383e-01) (15, 8.21244418621063232422e-01) (16, 1.21153569221496582031e+00) (0, 5.70264220237731933594e-01) (1, -1.21322721242904663086e-01) (2, 3.52257251739501953125e-01) (3, 7.72676169872283935547e-01) (4, -1.39744982123374938965e-01) (5, -4.35724481940269470215e-02) (6, 9.28749814629554748535e-02) (7, 5.34475445747375488281e-01) (8, 5.98724007606506347656e-01) (9, -3.85099619626998901367e-01) (10, -3.26676070690155029297e-02) (11, 2.44752717018127441406e+00) (12, 3.55668216943740844727e-01) (13, -2.12710723280906677246e-01) (14, 1.42792850732803344727e-01) (15, 1.15540742874145507812e+00) (16, 1.92998182773590087891e+00) (0, -1.80185461044311523438e+00) (1, 8.95145952701568603516e-01) (2, 1.01039385795593261719e+00) (3, 1.68661558628082275391e+00) (4, 3.91973197460174560547e-01) (5, -3.12466714531183242798e-02) (6, 3.13657850027084350586e-01) (7, 2.05726265907287597656e+00) (8, 1.29076475277543067932e-02) (9, 3.62446022033691406250e+00) (10, -1.38173311948776245117e-01) (11, 1.08707439899444580078e+00) (12, 3.24088156223297119141e-01) (13, 1.49159088730812072754e-01) (14, 1.03130984306335449219e+00) (15, 7.59395241737365722656e-01) (16, 8.47981095314025878906e-01) (0, 7.07710862159729003906e-01) (1, 7.24925935268402099609e-01) (2, 3.18049240112304687500e+00) (3, -3.17668437957763671875e-01) (4, 3.51298421621322631836e-01) (5, 4.29871976375579833984e-01) (6, 5.66729247570037841797e-01) (7, 1.84912705421447753906e+00) (8, 5.10905921459197998047e-01) (9, 9.98690485954284667969e-01) (10, 8.66003513336181640625e-01) (11, 1.78447163105010986328e+00) (12, 4.76343691349029541016e-01) (13, 5.11501550674438476562e-01) (14, 9.50731039047241210938e-01) (15, 1.78597247600555419922e+00) (16, 9.44445729255676269531e-02) (0, -5.39376884698867797852e-02) (1, 7.09215998649597167969e-01) (2, 2.67283260822296142578e-01) (3, 7.85984337329864501953e-01) (4, 4.25361037254333496094e-01) (5, 6.11086845397949218750e-01) (6, 7.00353085994720458984e-01) (7, 2.26925778388977050781e+00) (8, 1.78004845976829528809e-01) (9, 7.50859379768371582031e-02) (10, 1.31244570016860961914e-01) (11, 9.92087304592132568359e-01) (12, 5.12258350849151611328e-01) (13, 5.36161780357360839844e-01) (14, 6.31654709577560424805e-02) (15, 2.43774533271789550781e+00) (16, 1.19013273715972900391e+00) (0, 2.83072441816329956055e-01) (1, 2.37761068344116210938e+00) (2, -1.34330660104751586914e-01) (3, 6.43440604209899902344e-01) (4, 2.18065883964300155640e-02) (5, 5.62288403511047363281e-01) (6, 5.60995519161224365234e-01) (7, 4.51949894428253173828e-01) (8, 7.68623769283294677734e-01) (9, 5.10750472545623779297e-01) (10, 4.40812259912490844727e-01) (11, -1.04099832475185394287e-01) (12, 2.49094083905220031738e-01) (13, 7.67618656158447265625e-01) (14, 1.19282737374305725098e-01) (15, 7.43738710880279541016e-02) (16, 1.71558701992034912109e+00) (0, 5.34812450408935546875e-01) (1, 5.27635991573333740234e-01) (2, 7.06222593784332275391e-01) (3, 1.34345203638076782227e-01) (4, 3.28783661127090454102e-01) (5, 1.22465348243713378906e+00) (6, 2.66858220100402832031e-01) (7, 1.42118632793426513672e+00) (8, 5.30681610107421875000e-01) (9, 2.63750374317169189453e-01) (10, -5.45591786503791809082e-02) (11, 1.61002922058105468750e+00) (12, 7.46550083160400390625e-01) (13, 1.22264111042022705078e+00) (14, 4.84064519405364990234e-01) (15, 2.15865731239318847656e+00) (16, 1.07298183441162109375e+00) (0, 4.56062734127044677734e-01) (1, 1.13231122493743896484e+00) (2, 9.78795337677001953125e+00) (3, 1.91613793373107910156e+00) (4, 6.28355264663696289062e-01) (5, 4.36362892389297485352e-01) (6, 3.85900378227233886719e-01) (7, 2.48253583908081054688e+00) (8, 1.36653089523315429688e+00) (9, 7.70829737186431884766e-01) (10, 1.15942764282226562500e+00) (11, 1.69120049476623535156e+00) (12, 4.47695851325988769531e-01) (13, 5.21211862564086914062e-01) (14, 5.61129450798034667969e-01) (15, 1.78999376296997070312e+00) (16, 7.13716030120849609375e-01) (0, 3.92612069845199584961e-01) (1, 8.46001952886581420898e-02) (2, 1.52010237798094749451e-02) (3, 3.12392950057983398438e-01) (4, 3.29962432384490966797e-01) (5, 4.44787532091140747070e-01) (6, 5.08801758289337158203e-01) (7, 9.91412758827209472656e-01) (8, -1.61074653267860412598e-01) (9, -1.22418951988220214844e+00) (10, -6.47177755832672119141e-01) (11, 2.11616444587707519531e+00) (12, -1.01471595466136932373e-01) (13, 1.03438034653663635254e-01) (14, 4.46375757455825805664e-01) (15, 7.57351040840148925781e-01) (16, 1.07448565959930419922e+00) (0, 7.37899065017700195312e-01) (1, 2.59088039398193359375e-01) (2, 6.36399388313293457031e-01) (3, -3.16677302122116088867e-01) (4, -2.00772628188133239746e-01) (5, 3.37275236845016479492e-01) (6, 1.25115543603897094727e-01) (7, 6.86899840831756591797e-01) (8, -3.00102502107620239258e-01) (9, -9.51593935489654541016e-01) (10, 1.60253143310546875000e+00) (11, 1.89287912845611572266e+00) (12, 3.41978847980499267578e-01) (13, -1.27538353204727172852e-01) (14, 4.01009142398834228516e-01) (15, 2.95930236577987670898e-01) (16, 1.73951995372772216797e+00) (17, 1.50876486301422119141e+00) (18, 5.54707884788513183594e-01) (19, 1.09005975723266601562e+00) (20, 7.09959566593170166016e-01) (21, 4.32813197374343872070e-01) (22, 6.37387037277221679688e-01) (23, 1.53729632496833801270e-01) (24, 2.61399269104003906250e-01) (25, -6.28686726093292236328e-01) (26, 6.76486909389495849609e-01) (27, -4.36944663524627685547e-01) (28, -4.02891308069229125977e-01) (29, 3.35570603609085083008e-01) (30, -1.56554973125457763672e+00) (31, 4.68478381633758544922e-01) (32, 6.87041655182838439941e-02) (33, 1.44482064247131347656e+00) (34, 8.74196469783782958984e-01) (35, 2.10086154937744140625e+00) (36, 5.77435255050659179688e-01) (37, 8.82527902722358703613e-02) (38, 5.47471046447753906250e-01) (39, 3.35135042667388916016e-01) (40, -1.03281354904174804688e+00) (41, 1.10816717147827148438e+00) (17, 3.83495539426803588867e-01) (18, 4.82437424361705780029e-02) (19, 7.27095544338226318359e-01) (20, 3.82258266210556030273e-01) (21, 5.80963551998138427734e-01) (22, 4.19550210237503051758e-01) (23, 8.44334363937377929688e-01) (24, -4.15452390909194946289e-01) (25, -9.76528972387313842773e-02) (26, 9.05316531658172607422e-01) (27, -8.21313917636871337891e-01) (28, 2.46364306658506393433e-02) (29, 4.89229649305343627930e-01) (30, -3.97654205560684204102e-01) (31, -2.97945261001586914062e-01) (32, 1.59621089696884155273e-01) (33, 1.61283051967620849609e+00) (34, 1.42864093184471130371e-01) (35, 1.47148406505584716797e+00) (36, 3.79714906215667724609e-01) (37, 9.39328849315643310547e-01) (38, 1.54930502176284790039e-01) (39, -3.47771570086479187012e-02) (40, 7.64235496520996093750e-01) (41, 8.20013165473937988281e-01) (17, 9.83359098434448242188e-01) (18, 2.14248836040496826172e-01) (19, 5.76571404933929443359e-01) (20, 6.32712125778198242188e-01) (21, 1.09641778469085693359e+00) (22, 1.36479246616363525391e+00) (23, 4.30960983037948608398e-01) (24, 1.25925570726394653320e-01) (25, -3.52639049291610717773e-01) (26, 1.03399656713008880615e-01) (27, 8.66007626056671142578e-01) (28, 1.84275843203067779541e-02) (29, -7.54674747586250305176e-02) (30, -1.02765870094299316406e+00) (31, -1.02691598236560821533e-01) (32, 4.52120840549468994141e-01) (33, 1.52903556823730468750e+00) (34, -2.65573501586914062500e-01) (35, 1.83207511901855468750e+00) (36, -1.03132471442222595215e-01) (37, 3.87955754995346069336e-01) (38, 2.91323602199554443359e-01) (39, 3.52122485637664794922e-01) (40, -1.24815344810485839844e+00) (41, 1.64215850830078125000e+00) (17, 2.55415529012680053711e-01) (18, 3.14499467611312866211e-01) (19, 1.01451361179351806641e+00) (20, 2.44101107120513916016e-01) (21, 4.20823961496353149414e-01) (22, 5.78395545482635498047e-01) (23, -1.20782458782196044922e+00) (24, 8.96134912967681884766e-01) (25, 6.26069307327270507812e-01) (26, 8.88538241386413574219e-01) (27, -1.82969495654106140137e-01) (28, 2.17855304479598999023e-01) (29, 5.04093945026397705078e-01) (30, -9.97992813587188720703e-01) (31, 5.18744468688964843750e-01) (32, -4.32395517826080322266e-01) (33, 1.46347665786743164062e+00) (34, 1.19471085071563720703e+00) (35, 8.62662553787231445312e-01) (36, -8.34533882141113281250e+00) (37, 3.14216345548629760742e-01) (38, -6.10358834266662597656e-01) (39, -7.85915479063987731934e-02) (40, -3.75286966562271118164e-01) (41, 7.97279298305511474609e-01) (17, 7.29605615139007568359e-01) (18, 1.74084439873695373535e-01) (19, 1.04805004596710205078e+00) (20, 3.55749398469924926758e-01) (21, 1.06672376394271850586e-01) (22, 8.41944217681884765625e-01) (23, 3.16565148532390594482e-02) (24, -8.73183786869049072266e-01) (25, 6.53732657432556152344e-01) (26, 1.19149005413055419922e+00) (27, -1.67233180999755859375e+00) (28, 3.75432401895523071289e-01) (29, 1.33088842034339904785e-01) (30, -3.27854824066162109375e+00) (31, 7.20311999320983886719e-01) (32, -2.93047070503234863281e-01) (33, 7.95488953590393066406e-01) (34, -2.35858157277107238770e-01) (35, 1.08843326568603515625e+00) (36, 7.31773793697357177734e-01) (37, 1.07225322723388671875e+00) (38, 2.56086230278015136719e-01) (39, -2.26053237915039062500e-01) (40, -4.94582056999206542969e-01) (41, 9.48499619960784912109e-01) (17, 2.97350790351629257202e-02) (18, 2.60670602321624755859e-01) (19, 7.63046741485595703125e-01) (20, 5.68422019481658935547e-01) (21, 5.28833270072937011719e-01) (22, 1.12836718559265136719e+00) (23, 2.10536062717437744141e-01) (24, -1.28960058093070983887e-01) (25, 2.45281264185905456543e-01) (26, 1.12965607643127441406e+00) (27, -3.69528084993362426758e-01) (28, -2.05586776137351989746e-01) (29, 1.99356839060783386230e-01) (30, -2.45952177792787551880e-02) (31, -5.37940561771392822266e-01) (32, -4.43885102868080139160e-02) (33, 1.24459671974182128906e+00) (34, -5.86632907390594482422e-01) (35, 1.04028511047363281250e+00) (36, 9.32530343532562255859e-01) (37, 9.22473967075347900391e-01) (38, 4.05255984514951705933e-03) (39, -1.16781540215015411377e-01) (40, 1.44497632980346679688e-01) (41, 1.16957986354827880859e+00) (17, 2.47461581230163574219e+00) (18, 1.54093255996704101562e+01) (19, 1.56736783981323242188e+01) (20, -1.33368587493896484375e+00) (21, 1.18927276134490966797e+00) (22, 1.56841583251953125000e+01) (23, 1.57229483127593994141e+00) (24, 1.95055999755859375000e+01) (25, 3.08090043067932128906e+00) (26, 1.58260083198547363281e+00) (27, 9.62761211395263671875e+00) (28, 1.38720285892486572266e+00) (29, 1.52850780487060546875e+01) (30, 6.00985467433929443359e-01) (31, -1.89919447898864746094e+00) (32, 5.81692874431610107422e-01) (33, 1.58688545227050781250e+01) (34, 1.54082717895507812500e+01) (35, 1.58904266357421875000e+01) (36, 2.25797891616821289062e-01) (37, 1.58399715423583984375e+01) (38, 1.68123340606689453125e+00) (39, 8.62490296363830566406e-01) (40, 1.13496398925781250000e+00) (41, -9.30966949462890625000e+00) (17, 6.38871252536773681641e-01) (18, 2.40483269095420837402e-01) (19, 3.98579806089401245117e-01) (20, -1.49520516395568847656e-01) (21, 1.18555653095245361328e+00) (22, 8.14093947410583496094e-01) (23, 2.04725444316864013672e-01) (24, 2.46124505996704101562e-01) (25, 1.07483088970184326172e+00) (26, 5.08011877536773681641e-01) (27, -3.78464579582214355469e-01) (28, 7.07891762256622314453e-01) (29, 3.03602516651153564453e-01) (30, 2.50597739219665527344e+00) (31, 9.09632742404937744141e-01) (32, 9.14861857891082763672e-01) (33, 6.36577546596527099609e-01) (34, 7.53059744834899902344e-01) (35, 7.84319877624511718750e-01) (36, 4.97784167528152465820e-01) (37, 9.23889458179473876953e-01) (38, 2.46103346347808837891e-01) (39, 9.79945302009582519531e-01) (40, 1.41085124015808105469e+00) (41, 7.92563617229461669922e-01) (17, 4.99441683292388916016e-01) (18, 9.55427736043930053711e-02) (19, 4.92245942354202270508e-01) (20, 1.28170043230056762695e-01) (21, 2.51872599124908447266e-01) (22, 1.10384047031402587891e+00) (23, 6.20727419853210449219e-01) (24, 7.38779902458190917969e-02) (25, 4.33468759059906005859e-01) (26, 1.02886414527893066406e+00) (27, 1.35263219475746154785e-01) (28, 2.08510439842939376831e-02) (29, 2.34245926141738891602e-01) (30, -2.53043413162231445312e-01) (31, -3.99056553840637207031e-01) (32, 6.43135190010070800781e-01) (33, 1.34517729282379150391e+00) (34, 5.25157809257507324219e-01) (35, 2.11889457702636718750e+00) (36, 7.05293238162994384766e-01) (37, 8.94205570220947265625e-01) (38, 4.56267148256301879883e-01) (39, -3.69648709893226623535e-02) (40, -1.99939572811126708984e+00) (41, 7.75082945823669433594e-01) (17, 3.77653121948242187500e-01) (18, 3.03166896104812622070e-01) (19, 5.49969494342803955078e-01) (20, 8.98906886577606201172e-01) (21, 7.45141804218292236328e-01) (22, 6.73388481140136718750e-01) (23, 8.64912331104278564453e-01) (24, -6.45886957645416259766e-01) (25, 4.64849531650543212891e-01) (26, 8.86850178241729736328e-01) (27, 2.52398967742919921875e-01) (28, 4.49968516826629638672e-01) (29, 2.92139589786529541016e-01) (30, 7.19853937625885009766e-01) (31, 5.06145119667053222656e-01) (32, 9.56446647644042968750e-01) (33, 4.76806789636611938477e-01) (34, -5.33765442669391632080e-02) (35, 7.75622427463531494141e-01) (36, 3.90872508287429809570e-01) (37, 6.60201907157897949219e-01) (38, -5.61796367168426513672e-01) (39, 1.42077362537384033203e+00) (40, 5.12218475341796875000e-01) (41, 1.19691956043243408203e+00) (17, 9.49830949306488037109e-01) (18, 1.31163612008094787598e-01) (19, 1.94370532035827636719e+00) (20, 8.36122274398803710938e-01) (21, 5.47468066215515136719e-01) (22, 1.40784609317779541016e+00) (23, 8.23626816272735595703e-01) (24, 4.90741789340972900391e-01) (25, 1.09726154804229736328e+00) (26, 5.68198204040527343750e-01) (27, 7.02664673328399658203e-01) (28, 5.41452825069427490234e-01) (29, 2.68714308738708496094e-01) (30, -1.79866242408752441406e+00) (31, 1.02426636219024658203e+00) (32, 7.76097416877746582031e-01) (33, 1.29788565635681152344e+00) (34, 6.21362030506134033203e-01) (35, 1.26139795780181884766e+00) (36, 8.56967940926551818848e-02) (37, 4.69177484512329101562e-01) (38, 5.36554753780364990234e-01) (39, 1.04250061511993408203e+00) (40, 3.72292906045913696289e-01) (41, 1.56694018840789794922e+00) (17, 2.50210523605346679688e-01) (18, 1.06166446208953857422e+00) (19, 7.68352746963500976562e-02) (20, 3.84965926408767700195e-01) (21, 7.49938189983367919922e-01) (22, 1.21622073650360107422e+00) (23, 3.71510922908782958984e-01) (24, 1.70472860336303710938e+00) (25, 4.25048679113388061523e-01) (26, 4.35616135597229003906e-01) (27, 2.94364166259765625000e+00) (28, 7.73043155670166015625e-01) (29, 8.89737427234649658203e-01) (30, 1.72346800565719604492e-01) (31, 8.82731616497039794922e-01) (32, 2.40261882543563842773e-01) (33, 2.75651216506958007812e-01) (34, 6.39250755310058593750e-01) (35, 4.79191392660140991211e-01) (36, 4.79570090770721435547e-01) (37, 2.06120610237121582031e-01) (38, 1.09345436096191406250e+00) (39, 1.18675386905670166016e+00) (40, 1.63849651813507080078e-01) (41, 1.06263256072998046875e+00) (17, 5.31082987785339355469e-01) (18, 1.08869917690753936768e-01) (19, -6.84235692024230957031e-01) (20, -3.20142507553100585938e-02) (21, 1.42304146289825439453e+00) (22, -3.00524920225143432617e-01) (23, 6.26329123973846435547e-01) (24, -1.05432443618774414062e+01) (25, -1.02608896791934967041e-01) (26, -3.17772656679153442383e-01) (27, -1.21646568179130554199e-01) (28, -3.77948023378849029541e-02) (29, -1.46190941333770751953e+00) (30, 1.15679308772087097168e-01) (31, 4.51916724443435668945e-01) (32, 7.58133351802825927734e-01) (33, 1.51053667068481445312e-01) (34, -9.24147510528564453125e+00) (35, -5.20868659019470214844e-01) (36, 1.06753695011138916016e+00) (37, 2.34322752803564071655e-02) (38, -2.15464401245117187500e+00) (39, 3.92854660749435424805e-01) (40, 9.35930728912353515625e-01) (41, 2.79194259643554687500e+00) (17, 1.12353551387786865234e+00) (18, 7.20299124717712402344e-01) (19, 1.05998194217681884766e+00) (20, 6.95346772670745849609e-01) (21, 1.27771243453025817871e-01) (22, 1.01606214046478271484e+00) (23, 1.85342228412628173828e+00) (24, 5.06931602954864501953e-01) (25, -2.74336487054824829102e-01) (26, 7.17226564884185791016e-01) (27, 4.99621301889419555664e-01) (28, 2.58843451738357543945e-01) (29, 7.09723293781280517578e-01) (30, -6.24181747436523437500e-01) (31, -3.75510144233703613281e+00) (32, -1.27471581101417541504e-01) (33, 1.89297378063201904297e+00) (34, 7.82961070537567138672e-01) (35, 7.05009579658508300781e-01) (36, 1.56899183988571166992e-01) (37, 9.17998194694519042969e-01) (38, 9.19690847396850585938e-01) (39, -1.47500663995742797852e-01) (40, 5.93010783195495605469e-02) (41, 1.61562824249267578125e+00) (17, 8.17137658596038818359e-01) (18, 6.66753649711608886719e-01) (19, 5.63374221324920654297e-01) (20, -3.44305634498596191406e-01) (21, 9.57397222518920898438e-01) (22, 3.31149131059646606445e-01) (23, -4.70857650041580200195e-01) (24, 7.09734201431274414062e-01) (25, -1.43574059009552001953e-01) (26, 2.84853577613830566406e-01) (27, 8.24018859863281250000e+00) (28, 1.00105321407318115234e+00) (29, 1.72461795806884765625e+00) (30, -1.90105819702148437500e+00) (31, -7.52080142498016357422e-01) (32, 4.07349526882171630859e-01) (33, 2.00925922393798828125e+00) (34, 1.02624905109405517578e+00) (35, 1.57109880447387695312e+00) (36, 6.73024368286132812500e+01) (37, 1.49844455718994140625e+00) (38, 2.14806580543518066406e+00) (39, 1.57503768801689147949e-01) (40, -1.02851152420043945312e+00) (41, 4.16593760251998901367e-01) (17, 8.85342836380004882812e-01) (18, 1.62939310073852539062e-01) (19, 2.80335634946823120117e-01) (20, 1.61377894878387451172e+00) (21, 9.29846763610839843750e-01) (22, 1.35129302740097045898e-01) (23, 7.98993885517120361328e-01) (24, 7.39625841379165649414e-02) (25, 1.03739130496978759766e+00) (26, 8.71395528316497802734e-01) (27, 2.02398031949996948242e-01) (28, 7.38886952400207519531e-01) (29, 5.13034760951995849609e-01) (30, 6.65229797363281250000e-01) (31, 2.39951920509338378906e+00) (32, 8.95278990268707275391e-01) (33, 6.70977652072906494141e-01) (34, 8.28137218952178955078e-01) (35, 9.19145643711090087891e-01) (36, 1.18735484778881072998e-01) (37, 4.50723081827163696289e-01) (38, -5.54225966334342956543e-02) (39, 1.05441248416900634766e+00) (40, 9.15098965167999267578e-01) (41, 1.67430472373962402344e+00) (17, 3.91789495944976806641e-01) (18, 4.08869743347167968750e-01) (19, 5.44261969625949859619e-02) (20, 2.40649867057800292969e+00) (21, 1.90307915210723876953e+00) (22, 4.57746267318725585938e-01) (23, 1.10158538818359375000e+00) (24, -1.38747990131378173828e-01) (25, 6.86505973339080810547e-01) (26, 4.34847503900527954102e-01) (27, 4.44775134325027465820e-01) (28, 1.66905120015144348145e-01) (29, -1.38478174805641174316e-01) (30, 2.69033455848693847656e+00) (31, 5.66649198532104492188e-01) (32, 1.26124882698059082031e+00) (33, 4.53925251960754394531e-01) (34, 4.61099863052368164062e-01) (35, 5.28131246566772460938e-01) (36, 2.35309213399887084961e-01) (37, 4.73072081804275512695e-01) (38, 3.58531385660171508789e-01) (39, 1.78207421302795410156e+00) (40, 5.95196962356567382812e-01) (41, 1.26253390312194824219e+00) (17, 4.53094035387039184570e-01) (18, 7.58428037166595458984e-01) (19, -1.45314350724220275879e-01) (20, 7.47216701507568359375e-01) (21, 2.54286599159240722656e+00) (22, 3.31938177347183227539e-01) (23, 8.51010143756866455078e-01) (24, 1.42579138278961181641e+00) (25, 6.65079474449157714844e-01) (26, 2.52954989671707153320e-01) (27, 7.13418483734130859375e-01) (28, 9.49140191078186035156e-01) (29, -1.68220177292823791504e-01) (30, 1.19138693809509277344e+00) (31, 1.56509637832641601562e+00) (32, 1.69887244701385498047e+00) (33, 6.38265907764434814453e-02) (34, 1.68399596214294433594e+00) (35, 2.18938142061233520508e-01) (36, 7.65011012554168701172e-02) (37, -2.53582447767257690430e-01) (38, 1.44269263744354248047e+00) (39, 1.11644935607910156250e+00) (40, 1.56594049930572509766e+00) (41, 9.76128399372100830078e-01) (17, 7.37570166587829589844e-01) (18, 4.32311654090881347656e-01) (19, 5.38156807422637939453e-01) (20, 5.77998697757720947266e-01) (21, 5.60733020305633544922e-01) (22, 1.00444829463958740234e+00) (23, 4.34845149517059326172e-01) (24, 2.01742482185363769531e+00) (25, -9.75259169936180114746e-02) (26, 4.36707735061645507812e-01) (27, 8.15381780266761779785e-02) (28, -2.22727894783020019531e-01) (29, 1.83877065777778625488e-01) (30, 8.66516977548599243164e-02) (31, 2.95126706361770629883e-01) (32, -8.27730834484100341797e-01) (33, 1.20521306991577148438e+00) (34, 6.93572580814361572266e-01) (35, 1.32147765159606933594e+00) (36, -5.19376039505004882812e-01) (37, 9.28406655788421630859e-01) (38, 9.03772830963134765625e-01) (39, 9.52377170324325561523e-03) (40, 3.66681426763534545898e-01) (41, 1.64574837684631347656e+00) (17, 4.97757434844970703125e-01) (18, 1.28213003277778625488e-01) (19, 4.95203793048858642578e-01) (20, 1.17207503318786621094e+00) (21, 1.06491744518280029297e+00) (22, 7.62343466281890869141e-01) (23, 1.45570516586303710938e+00) (24, 3.95559966564178466797e-02) (25, 2.64172345399856567383e-01) (26, 3.44871319830417633057e-02) (27, -2.76872813701629638672e-01) (28, -2.46608778834342956543e-01) (29, -1.69831454753875732422e-01) (30, 9.18802380561828613281e-01) (31, 3.77248972654342651367e-01) (32, 7.22350418567657470703e-01) (33, 7.52541840076446533203e-01) (34, 2.90152966976165771484e-01) (35, 9.72831904888153076172e-01) (36, 3.25323313474655151367e-01) (37, 2.97101855278015136719e-01) (38, 4.44667935371398925781e-01) (39, 4.96151357889175415039e-01) (40, 4.03314977884292602539e-01) (41, 1.34728562831878662109e+00) (17, 6.33852779865264892578e-01) (18, 6.24122619628906250000e-01) (19, 5.90783774852752685547e-01) (20, 5.59098899364471435547e-01) (21, 3.37552726268768310547e-01) (22, 7.14927434921264648438e-01) (23, -3.97874861955642700195e-01) (24, -7.53448903560638427734e-01) (25, 7.09385752677917480469e-01) (26, 7.76274919509887695312e-01) (27, 3.98907691240310668945e-01) (28, 4.61210459470748901367e-02) (29, 5.05281805992126464844e-01) (30, -4.04526114463806152344e-01) (31, 8.94322276115417480469e-01) (32, -1.08352199196815490723e-01) (33, 9.76137816905975341797e-01) (34, -1.07898712158203125000e+00) (35, 1.22655963897705078125e+00) (36, 6.85573816299438476562e-01) (37, 6.31366968154907226562e-01) (38, -5.92158913612365722656e-01) (39, -9.58875715732574462891e-01) (40, 7.18495771288871765137e-02) (41, 1.09112358093261718750e+00) (17, 6.59153163433074951172e-01) (18, 3.04172158241271972656e-01) (19, 8.65851104259490966797e-01) (20, 1.22298252582550048828e+00) (21, 7.11345314979553222656e-01) (22, 5.13036727905273437500e-01) (23, 4.76397424936294555664e-01) (24, -2.60134053230285644531e+00) (25, 4.98855739831924438477e-01) (26, 5.73522269725799560547e-01) (27, -2.26470336318016052246e-01) (28, -5.09445309638977050781e-01) (29, -3.40533822774887084961e-01) (30, 1.03840185329318046570e-02) (31, 7.22308993339538574219e-01) (32, 8.02830100059509277344e-01) (33, 1.52757859230041503906e+00) (34, -2.31589544564485549927e-02) (35, 3.43136119842529296875e+00) (36, 3.41604769229888916016e-01) (37, 1.46205890178680419922e+00) (38, -2.93909621238708496094e+00) (39, 1.44893541932106018066e-01) (40, 5.35193718969821929932e-02) (41, 6.05393588542938232422e-01) (17, 7.38112986087799072266e-01) (18, 2.97425687313079833984e-01) (19, 3.18456262350082397461e-01) (20, 1.27780067920684814453e+00) (21, 8.99708807468414306641e-01) (22, -1.71456001698970794678e-02) (23, 1.58164298534393310547e+00) (24, -4.59905713796615600586e-03) (25, 5.61041831970214843750e-01) (26, 5.30668318271636962891e-01) (27, 7.08842650055885314941e-02) (28, -2.70425826311111450195e-01) (29, -1.22003778815269470215e-01) (30, 3.05450153350830078125e+00) (31, 1.11888933181762695312e+00) (32, 1.29992902278900146484e+00) (33, 6.21808707714080810547e-01) (34, 4.22113299369812011719e-01) (35, 8.46110641956329345703e-01) (36, 7.58282363414764404297e-01) (37, 1.06128752231597900391e+00) (38, -3.42909246683120727539e-01) (39, 8.37119102478027343750e-01) (40, 5.66546738147735595703e-01) (41, 9.67087030410766601562e-01) (17, 4.79833245277404785156e-01) (18, 1.96559920907020568848e-01) (19, 1.00711703300476074219e+00) (20, 7.19715356826782226562e-01) (21, -1.55005559325218200684e-01) (22, 3.11909437179565429688e-01) (23, 7.20217227935791015625e-02) (24, 1.08332586288452148438e+00) (25, 6.39635682106018066406e-01) (26, 6.38332903385162353516e-01) (27, 1.05333530902862548828e+00) (28, 3.81693571805953979492e-01) (29, 5.60637593269348144531e-01) (30, -2.16046452522277832031e+00) (31, 1.17687022686004638672e+00) (32, -2.17395536601543426514e-02) (33, 1.00446069240570068359e+00) (34, 9.78102922439575195312e-01) (35, 3.57576012611389160156e-01) (36, 6.53035759925842285156e-01) (37, 6.00434243679046630859e-01) (38, 5.66358625888824462891e-01) (39, -2.60363191366195678711e-01) (40, -1.98254324495792388916e-02) (41, 3.44306856393814086914e-01) (42, 1.02456402778625488281e+00) (43, 7.35761046409606933594e-01) (44, 1.25732791423797607422e+00) (45, 3.00781726837158203125e-01) (46, 5.21923065185546875000e-01) (47, 4.51032459735870361328e-01) (48, 6.85928463935852050781e-01) (49, 7.01814293861389160156e-01) (50, 8.28543365001678466797e-01) (51, 2.21086382865905761719e-01) (52, 9.49189007282257080078e-01) (53, 2.70881080627441406250e+00) (54, 4.41367715597152709961e-01) (55, 7.41846323013305664062e-01) (56, 1.07533478736877441406e+00) (57, 5.38635611534118652344e-01) (58, 2.41704359650611877441e-01) (59, -2.10499107837677001953e-01) (60, 1.77704000473022460938e+00) (61, 7.36387908458709716797e-01) (62, 2.72523194551467895508e-01) (63, 1.52258312702178955078e+00) (64, 5.90557634830474853516e-01) (65, 9.73194912075996398926e-02) (66, 6.77276968955993652344e-01) (42, 1.56528794765472412109e+00) (43, 3.80104720592498779297e-01) (44, 8.52510750293731689453e-01) (45, 9.93557870388031005859e-01) (46, 2.02673077583312988281e+00) (47, 2.17600798606872558594e+00) (48, -4.18409751728177070618e-03) (49, 1.12387523055076599121e-01) (50, 1.80112147331237792969e+00) (51, 6.74557566642761230469e-01) (52, 2.41834926605224609375e+00) (53, 5.07475435733795166016e-01) (54, -4.32375013828277587891e-01) (55, 1.10308015346527099609e+00) (56, 7.56291151046752929688e-01) (57, 9.54210519790649414062e-01) (58, 2.46832251548767089844e-01) (59, 4.74819056689739227295e-02) (60, 1.82125008106231689453e+00) (61, 2.07097470760345458984e-01) (62, 1.64302611351013183594e+00) (63, 1.33874917030334472656e+00) (64, 9.03723120689392089844e-01) (65, 9.98122096061706542969e-01) (66, 2.67317950725555419922e-01) (42, 6.25422537326812744141e-01) (43, 1.61504387855529785156e-01) (44, 4.42813813686370849609e-01) (45, 6.19643449783325195312e-01) (46, 4.16140317916870117188e-01) (47, 4.58552926778793334961e-01) (48, -2.13373973965644836426e-01) (49, -5.60653328895568847656e-01) (50, 1.00378610193729400635e-01) (51, 4.97956931591033935547e-01) (52, 2.63959598541259765625e+00) (53, -1.38450372219085693359e+00) (54, 8.30191552639007568359e-01) (55, 5.70115506649017333984e-01) (56, -3.04419726133346557617e-01) (57, 1.48664891719818115234e+00) (58, 2.83868819475173950195e-01) (59, 3.28595429658889770508e-01) (60, 3.26465815305709838867e-01) (61, 1.37678873538970947266e+00) (62, 4.37050700187683105469e-01) (63, 8.12465846538543701172e-01) (64, 1.26015722751617431641e+00) (65, 5.46869993209838867188e-01) (66, 1.23434352874755859375e+00) (42, 1.32811212539672851562e+00) (43, 2.70502001047134399414e-01) (44, 1.04286241531372070312e+00) (45, 3.36678415536880493164e-01) (46, -7.75569351390004158020e-03) (47, 4.47252571582794189453e-01) (48, 2.47187316417694091797e-01) (49, 6.62328600883483886719e-01) (50, 1.06722450256347656250e+00) (51, 1.55037447810173034668e-01) (52, -1.89356493949890136719e+00) (53, -3.69614219665527343750e+00) (54, 1.56081116199493408203e+00) (55, 6.80525675415992736816e-02) (56, 8.51578354835510253906e-01) (57, 9.28084313869476318359e-01) (58, 9.32451009750366210938e-01) (59, 8.23131561279296875000e-01) (60, 1.06618785858154296875e+00) (61, 7.49116361141204833984e-01) (62, 5.05002677440643310547e-01) (63, 2.57032781839370727539e-01) (64, 1.15316927433013916016e+00) (65, -5.06023526191711425781e-01) (66, 6.84246003627777099609e-01) (42, 3.13044369220733642578e-01) (43, 2.89449930191040039062e-01) (44, 4.60555069148540496826e-02) (45, 2.74931430816650390625e-01) (46, 9.26111996173858642578e-01) (47, 5.65877556800842285156e-01) (48, 6.34779095649719238281e-01) (49, -2.83860594034194946289e-01) (50, 5.85165500640869140625e-01) (51, 7.35652327537536621094e-01) (52, 9.47605788707733154297e-01) (53, -2.44195386767387390137e-03) (54, 1.78596842288970947266e+00) (55, 2.79380809515714645386e-02) (56, -3.35550069808959960938e-01) (57, 5.32273650169372558594e-01) (58, 8.33433747291564941406e-01) (59, 1.00770688056945800781e+00) (60, 3.43266725540161132812e-01) (61, 1.03790378570556640625e+00) (62, 6.91119849681854248047e-01) (63, 3.44583451747894287109e-01) (64, 5.66034495830535888672e-01) (65, 4.51141983270645141602e-01) (66, 1.59070479869842529297e+00) (42, 1.23955512046813964844e+00) (43, 1.38366192579269409180e-01) (44, 1.21194279193878173828e+00) (45, 6.21556818485260009766e-01) (46, 9.99608755111694335938e-01) (47, 9.30438816547393798828e-01) (48, 1.39520004391670227051e-01) (49, 3.28418873250484466553e-02) (50, 1.39290288090705871582e-01) (51, 2.03470796346664428711e-01) (52, 3.52701812982559204102e-01) (53, 2.23228171467781066895e-01) (54, 2.47731328010559082031e+00) (55, 9.94705379009246826172e-01) (56, 2.38566115498542785645e-01) (57, 3.63192111253738403320e-01) (58, -3.41706275939941406250e-01) (59, 1.13036656379699707031e+00) (60, 8.78807485103607177734e-01) (61, -1.73314079642295837402e-01) (62, 6.26270651817321777344e-01) (63, 8.76161932945251464844e-01) (64, 3.97031694650650024414e-01) (65, 8.63169074058532714844e-01) (66, 1.78236496448516845703e+00) (42, -4.14931178092956542969e-02) (43, 8.35946738719940185547e-01) (44, -2.63620108366012573242e-01) (45, 6.06383740901947021484e-01) (46, 9.40657258033752441406e-02) (47, 5.83860754966735839844e-01) (48, 3.70873302221298217773e-01) (49, 2.62216359376907348633e-01) (50, 5.78804433345794677734e-01) (51, 1.52126789093017578125e-01) (52, -1.07556557655334472656e+00) (53, 1.05623555183410644531e+00) (54, -2.51716583967208862305e-01) (55, 5.49957752227783203125e-01) (56, -1.46126484870910644531e+00) (57, -8.54575693607330322266e-01) (58, -2.65838474035263061523e-01) (59, 2.46282190084457397461e-01) (60, 9.39996719360351562500e-01) (61, 6.51108860969543457031e-01) (62, 5.02339482307434082031e-01) (63, 1.88616204261779785156e+00) (64, 1.81314513087272644043e-01) (65, 8.28364372253417968750e-01) (66, 5.37710845470428466797e-01) (42, 1.89805850386619567871e-01) (43, 4.27483081817626953125e-01) (44, 6.09808564186096191406e-01) (45, 4.03352886438369750977e-01) (46, 6.24896645545959472656e-01) (47, 2.40477994084358215332e-01) (48, -2.51606583595275878906e-01) (49, -7.54508256912231445312e-01) (50, 3.89400720596313476562e-01) (51, -2.12687373161315917969e-01) (52, 1.41656205058097839355e-01) (53, 6.10540628433227539062e-01) (54, 2.91555255651473999023e-01) (55, 4.59791153669357299805e-01) (56, 8.63178521394729614258e-02) (57, 2.18080744147300720215e-01) (58, 2.88566440343856811523e-01) (59, 3.11602383852005004883e-01) (60, 6.57263457775115966797e-01) (61, 2.94043961912393569946e-02) (62, 8.18276882171630859375e-01) (63, 8.12828183174133300781e-01) (64, 1.70409843325614929199e-01) (65, 2.43340194225311279297e-01) (66, 6.43665671348571777344e-01) (42, 2.34665346145629882812e+00) (43, 5.24937629699707031250e-01) (44, 1.20855236053466796875e+00) (45, 1.09795534610748291016e+00) (46, 5.70645332336425781250e-01) (47, 6.30862295627593994141e-01) (48, -3.31049114465713500977e-01) (49, -9.70662161707878112793e-02) (50, 1.21416699886322021484e+00) (51, 8.28013755381107330322e-03) (52, 8.41569483280181884766e-01) (53, -2.31913566589355468750e+00) (54, 2.36261188983917236328e-02) (55, 2.75923156738281250000e+00) (56, 2.29543000459671020508e-01) (57, 1.06045079231262207031e+00) (58, -1.91439747810363769531e-01) (59, -1.27642416954040527344e+00) (60, 8.83621454238891601562e-01) (61, 1.06703531742095947266e+00) (62, 2.41781339049339294434e-01) (63, 9.45554077625274658203e-01) (64, 6.00520253181457519531e-01) (65, -3.74108505249023437500e+00) (66, 2.96351283788681030273e-01) (42, 6.13912582397460937500e-01) (43, 8.82164761424064636230e-02) (44, 8.98699402809143066406e-01) (45, 1.63801729679107666016e-01) (46, 7.43337273597717285156e-02) (47, 3.55958342552185058594e-01) (48, 1.58098506927490234375e+00) (49, 8.74763488769531250000e-01) (50, 1.18808031082153320312e+00) (51, -2.46392369270324707031e-01) (52, 6.95728242397308349609e-01) (53, 4.08376269042491912842e-02) (54, 1.20307934284210205078e+00) (55, 3.58325839042663574219e-01) (56, -8.10484528541564941406e-01) (57, 7.96010494232177734375e-01) (58, 6.81759119033813476562e-01) (59, 1.14193283021450042725e-01) (60, 1.69157409667968750000e+00) (61, 8.94074380397796630859e-01) (62, 1.21726579964160919189e-01) (63, 1.22265136241912841797e+00) (64, 1.07032477855682373047e+00) (65, -1.18774011731147766113e-01) (66, 6.19812011718750000000e-01) (42, -5.16400873661041259766e-01) (43, 3.16511869430541992188e-01) (44, 2.86178469657897949219e-01) (45, 2.94412523508071899414e-01) (46, 8.61511886119842529297e-01) (47, 8.25719416141510009766e-01) (48, 1.59257516264915466309e-01) (49, 1.20089434087276458740e-01) (50, 5.94730556011199951172e-01) (51, 4.54009890556335449219e-01) (52, -2.80577868223190307617e-01) (53, -1.79346024990081787109e-01) (54, 3.12171489000320434570e-01) (55, 6.50068044662475585938e-01) (56, 2.17621728777885437012e-01) (57, -2.01161846518516540527e-01) (58, 3.05681735277175903320e-01) (59, 6.56562983989715576172e-01) (60, 8.31890702247619628906e-01) (61, 1.11797010898590087891e+00) (62, 2.96419858932495117188e-01) (63, 2.04232144355773925781e+00) (64, -2.34920516610145568848e-01) (65, 4.80874240398406982422e-01) (66, 1.12746202945709228516e+00) (42, 1.85312163829803466797e+00) (43, 1.71536481380462646484e+00) (44, 1.02445113658905029297e+00) (45, 5.58056175708770751953e-01) (46, 1.34094631671905517578e+00) (47, 1.02837526798248291016e+00) (48, 4.12596285343170166016e-01) (49, 7.85438418388366699219e-01) (50, 1.37841570377349853516e+00) (51, -6.73829317092895507812e-01) (52, 9.57456886768341064453e-01) (53, 1.05243337154388427734e+00) (54, 4.48740601539611816406e-01) (55, 1.33347558975219726562e+00) (56, 2.89467811584472656250e+00) (57, 3.45251977443695068359e-01) (58, -8.44097805023193359375e+00) (59, -1.25798892974853515625e+00) (60, 2.18023252487182617188e+00) (61, 7.42819786071777343750e-01) (62, 1.26517438888549804688e+00) (63, 1.01377129554748535156e+00) (64, 7.15129524469375610352e-02) (65, 1.47548496723175048828e+00) (66, 8.67015004158020019531e-01) (42, 7.34519898891448974609e-01) (43, 3.91748368740081787109e-01) (44, 6.64007425308227539062e-01) (45, -1.51185721158981323242e-01) (46, 3.44167172908782958984e-01) (47, 4.66737270355224609375e-01) (48, 7.19678938388824462891e-01) (49, 1.88749417662620544434e-01) (50, 5.91529488563537597656e-01) (51, 7.92825520038604736328e-01) (52, 1.35077381134033203125e+00) (53, 9.67984199523925781250e-01) (54, 1.21658778190612792969e+00) (55, 8.64435017108917236328e-01) (56, 4.51714336872100830078e-01) (57, 7.69069671630859375000e-01) (58, 7.26467609405517578125e-01) (59, 1.85942566394805908203e+00) (60, 2.50820815563201904297e-01) (61, 1.26431226730346679688e+00) (62, 4.21790629625320434570e-01) (63, 1.06294679641723632812e+00) (64, 6.92516326904296875000e-01) (65, 2.16758444905281066895e-01) (66, 1.54623317718505859375e+00) (42, 4.18545842170715332031e-01) (43, -4.50407952070236206055e-01) (44, -1.23275125026702880859e+00) (45, -7.93337166309356689453e-01) (46, 9.93434429168701171875e-01) (47, 1.23160578310489654541e-01) (48, 3.71031314134597778320e-01) (49, 3.68110388517379760742e-01) (50, -1.63431000709533691406e+00) (51, -1.47568300366401672363e-01) (52, 2.27703142166137695312e+00) (53, 7.87319421768188476562e-01) (54, 2.74121284484863281250e-01) (55, -1.35135173797607421875e-01) (56, 1.00791394710540771484e+00) (57, 2.48554110527038574219e+00) (58, -2.54850119352340698242e-01) (59, 4.68924522399902343750e-01) (60, -1.53250193595886230469e+00) (61, 1.78507781028747558594e+00) (62, -2.04588651657104492188e-01) (63, 2.57968258857727050781e+00) (64, 7.62836170196533203125e+00) (65, 3.87349903583526611328e-01) (66, 1.41028070449829101562e+00) (42, 7.99712777137756347656e-01) (43, 1.33268976211547851562e+00) (44, 1.23814511299133300781e+00) (45, 4.17079508304595947266e-01) (46, 1.00811147689819335938e+00) (47, 8.03593337535858154297e-01) (48, 7.87920117378234863281e-01) (49, 3.20820719003677368164e-01) (50, 9.22833263874053955078e-01) (51, -1.02010600268840789795e-01) (52, 6.88228309154510498047e-01) (53, 6.62408471107482910156e-01) (54, 4.81237232685089111328e-01) (55, 1.04848873615264892578e+00) (56, 6.94862008094787597656e-01) (57, 7.43848755955696105957e-02) (58, 7.96677265316247940063e-03) (59, -2.54419177770614624023e-01) (60, 6.05955541133880615234e-01) (61, 7.60681271553039550781e-01) (62, 8.28772783279418945312e-01) (63, 5.05193352699279785156e-01) (64, 2.30084717273712158203e-01) (65, 5.52984178066253662109e-01) (66, 6.09887301921844482422e-01) (42, 6.55146658420562744141e-01) (43, 9.31164681911468505859e-01) (44, 1.79331675171852111816e-01) (45, 8.23575198650360107422e-01) (46, 7.88910269737243652344e-01) (47, 3.23247760534286499023e-01) (48, 1.02844166755676269531e+00) (49, -1.83832004666328430176e-01) (50, 7.11346685886383056641e-01) (51, 5.05335807800292968750e-01) (52, 9.33104813098907470703e-01) (53, 6.60145401954650878906e-01) (54, 1.47548961639404296875e+00) (55, 7.90746927261352539062e-01) (56, 4.58004437386989593506e-02) (57, 9.34394896030426025391e-01) (58, 5.51365435123443603516e-01) (59, 5.83471596240997314453e-01) (60, 3.70133489370346069336e-01) (61, 1.14632725715637207031e+00) (62, 3.59860688447952270508e-01) (63, 7.16305911540985107422e-01) (64, 1.00510871410369873047e+00) (65, 7.17951059341430664062e-01) (66, 2.28750419616699218750e+00) (42, 1.94574785232543945312e+00) (43, 7.99046516418457031250e-01) (44, 7.07807004451751708984e-01) (45, 1.60800349712371826172e+00) (46, 1.40222978591918945312e+00) (47, 8.62199366092681884766e-01) (48, 1.37336418032646179199e-01) (49, 6.80933669209480285645e-02) (50, 8.99679660797119140625e-01) (51, 3.27421128749847412109e-01) (52, 1.87885120511054992676e-01) (53, 6.54143691062927246094e-01) (54, -1.57798445224761962891e+00) (55, 6.05743503570556640625e+00) (56, 9.72080886363983154297e-01) (57, 7.63084769248962402344e-01) (58, 1.05557128787040710449e-01) (59, 2.47012928128242492676e-01) (60, 1.81651544570922851562e+00) (61, 3.23297567665576934814e-02) (62, 1.29201960563659667969e+00) (63, 2.25965929031372070312e+00) (64, -1.22136697173118591309e-01) (65, 1.52350699901580810547e+00) (66, 1.70063018798828125000e+00) (42, 1.05512496083974838257e-02) (43, 4.41665887832641601562e-01) (44, 2.66303479671478271484e-01) (45, -9.95486736297607421875e-01) (46, 2.90854513645172119141e-01) (47, 4.24973398447036743164e-01) (48, -1.29451811313629150391e+00) (49, -1.89646649360656738281e+00) (50, -2.73348577320575714111e-02) (51, 1.07528507709503173828e-01) (52, 5.58033995330333709717e-02) (53, -1.65475511550903320312e+00) (54, 7.83364057540893554688e-01) (55, 1.72985777258872985840e-01) (56, 6.66844487190246582031e-01) (57, -3.17826300859451293945e-01) (58, -3.67483615875244140625e-01) (59, -7.00569331645965576172e-01) (60, 1.33071362972259521484e-01) (61, 6.95441424846649169922e-01) (62, 2.43069589138031005859e-01) (63, 7.91539669036865234375e-01) (64, 1.23619176447391510010e-01) (65, 1.03851079940795898438e+00) (66, -1.59511268138885498047e-01) (42, 5.72387240827083587646e-02) (43, 2.58971959352493286133e-01) (44, 5.72659015655517578125e-01) (45, -4.96255588531494140625e+00) (46, 4.22223091125488281250e-01) (47, -1.31077617406845092773e-01) (48, 1.13725948333740234375e+00) (49, 4.22585904598236083984e-02) (50, 9.22611892223358154297e-01) (51, 1.20567895472049713135e-01) (52, 1.04938459396362304688e+00) (53, 1.71358239650726318359e+00) (54, 1.61691531538963317871e-01) (55, 4.56465482711791992188e-01) (56, 5.58753311634063720703e-01) (57, 8.17785799503326416016e-01) (58, 2.88703981786966323853e-02) (59, 1.02834260463714599609e+00) (60, 2.30788458138704299927e-02) (61, 5.42514622211456298828e-01) (62, 5.97137093544006347656e-01) (63, 6.60346508026123046875e-01) (64, 7.52184092998504638672e-01) (65, 7.84343540668487548828e-01) (66, 1.04775774478912353516e+00) (42, -2.41789575666189193726e-02) (43, 7.78268933296203613281e-01) (44, 1.96326583623886108398e-01) (45, 5.79294323921203613281e-01) (46, 7.18838393688201904297e-01) (47, 5.21187901496887207031e-01) (48, -3.23316037654876708984e-01) (49, -7.16576218605041503906e-01) (50, 5.15121161937713623047e-01) (51, 2.54605501890182495117e-01) (52, -2.09848880767822265625e-02) (53, -1.33040368556976318359e-01) (54, -2.58501529693603515625e-01) (55, 7.17763304710388183594e-01) (56, 6.08708798885345458984e-01) (57, 1.01186726242303848267e-02) (58, 4.18654054403305053711e-01) (59, -1.00488126277923583984e+00) (60, 6.04091525077819824219e-01) (61, -2.87861432880163192749e-02) (62, 3.91556918621063232422e-01) (63, 6.03340744972229003906e-01) (64, 4.80543196201324462891e-01) (65, 7.62144029140472412109e-01) (66, 3.46968531608581542969e-01) (42, 7.85115778446197509766e-01) (43, 1.60934746265411376953e+00) (44, 3.49698543548583984375e-01) (45, 1.85649007558822631836e-01) (46, 1.27081781625747680664e-01) (47, 1.23772764205932617188e+00) (48, 3.30388873815536499023e-01) (49, 2.32884120941162109375e+00) (50, 9.10662055015563964844e-01) (51, 3.55322808027267456055e-01) (52, 5.78847348690032958984e-01) (53, 1.05199754238128662109e+00) (54, 5.20705342292785644531e-01) (55, 1.04836714267730712891e+00) (56, 9.47696745395660400391e-01) (57, 5.27165770530700683594e-01) (58, 3.65983277559280395508e-01) (59, -2.11883187294006347656e-01) (60, 1.68044018745422363281e+00) (61, -1.45357176661491394043e-01) (62, 8.40916633605957031250e-01) (63, 2.80234217643737792969e+00) (64, -3.54856997728347778320e-03) (65, 6.44364714622497558594e-01) (66, 1.97055900096893310547e+00) (42, 5.34243956208229064941e-02) (43, 3.97133052349090576172e-01) (44, 5.01612961292266845703e-01) (45, 1.95937201380729675293e-01) (46, 6.84651553630828857422e-01) (47, 9.24088537693023681641e-01) (48, -2.10691899061203002930e-01) (49, -3.54004621505737304688e-01) (50, 4.31050918996334075928e-02) (51, 1.00247168540954589844e+00) (52, -1.63466155529022216797e-01) (53, -1.79310739040374755859e+00) (54, 1.25564718246459960938e+00) (55, -1.51122242212295532227e-01) (56, 3.88407778739929199219e+00) (57, -2.54025727510452270508e-01) (58, -1.74030554294586181641e+00) (59, -2.54605293273925781250e+00) (60, 3.82634520530700683594e-01) (61, -1.48221886157989501953e+00) (62, 7.72176384925842285156e-01) (63, 7.11484193801879882812e-01) (64, -2.91250133514404296875e+00) (65, 5.72886407375335693359e-01) (66, 9.99825656414031982422e-01) (42, 5.27765810489654541016e-01) (43, 2.22017335891723632812e+00) (44, 7.04826891422271728516e-01) (45, 1.07074022293090820312e+00) (46, 5.76590359210968017578e-01) (47, 8.87381494045257568359e-01) (48, 2.93727338314056396484e-01) (49, 7.17122733592987060547e-01) (50, 8.48994076251983642578e-01) (51, 2.76972174644470214844e-01) (52, 8.77192735671997070312e-01) (53, 8.06738376617431640625e-01) (54, -9.52054202556610107422e-01) (55, 1.59986841678619384766e+00) (56, 6.79815292358398437500e-01) (57, 4.69351708889007568359e-01) (58, 2.38424167037010192871e-02) (59, -1.43656879663467407227e-01) (60, 5.62020599842071533203e-01) (61, 6.41047120094299316406e-01) (62, 5.89408539235591888428e-02) (63, 9.59336638450622558594e-01) (64, 1.02945375442504882812e+00) (65, 6.44525468349456787109e-01) (66, 1.23711474239826202393e-01) (42, 9.12946760654449462891e-01) (43, 1.19978964328765869141e+00) (44, 1.15392971038818359375e+00) (45, 3.43734115362167358398e-01) (46, 1.01104760169982910156e+00) (47, 6.62835001945495605469e-01) (48, 1.09561848640441894531e+00) (49, 3.45851123332977294922e-01) (50, 1.48338222503662109375e+00) (51, 1.71090513467788696289e-01) (52, 1.60266137123107910156e+00) (53, 5.97050547599792480469e-01) (54, 3.38619589805603027344e-01) (55, 1.46004831790924072266e+00) (56, 5.58033049106597900391e-01) (57, 2.28236660361289978027e-01) (58, 1.89054206013679504395e-01) (59, 2.73936931043863296509e-02) (60, 1.77080166339874267578e+00) (61, 9.93800520896911621094e-01) (62, 7.37423658370971679688e-01) (63, 1.14270210266113281250e+00) (64, 1.86023342609405517578e+00) (65, 2.72599488496780395508e-01) (66, 1.22855389490723609924e-02) (67, 1.55078136920928955078e+00) (68, 1.15440142154693603516e+00) (69, 1.99269339442253112793e-01) (70, 5.44909477233886718750e-01) (71, 4.75671678781509399414e-01) (72, 3.07609105110168457031e+00) (73, -1.03050355911254882812e+01) (74, 2.59619498252868652344e+00) (75, 1.83017158508300781250e+00) (76, 8.68095219135284423828e-01) (77, 8.01976501941680908203e-01) (78, -9.47102642059326171875e+00) (79, 4.07245427370071411133e-01) (80, -1.14940941333770751953e+00) (81, 1.81710875034332275391e+00) (82, 6.38712048530578613281e-01) (83, 9.61887300014495849609e-01) (84, 1.16725301742553710938e+00) (85, 2.76286721229553222656e-01) (86, 1.94503748416900634766e+00) (87, 1.04194295406341552734e+00) (88, 3.77373147010803222656e+00) (89, 7.64295220375061035156e-01) (90, 5.33941888809204101562e+00) (91, 1.27344056963920593262e-01) (67, 9.71713185310363769531e-01) (68, 5.91770887374877929688e-01) (69, -2.57620383054018020630e-02) (70, 1.07296347618103027344e+00) (71, 4.86833304166793823242e-01) (72, 6.69536471366882324219e-01) (73, 1.65775045752525329590e-01) (74, 1.16968548297882080078e+00) (75, 6.00085020065307617188e-01) (76, 1.12021815776824951172e+00) (77, 5.94150543212890625000e-01) (78, 5.11213958263397216797e-01) (79, 7.59452223777770996094e-01) (80, 3.65160226821899414062e-01) (81, 6.58736109733581542969e-01) (82, 3.26699256896972656250e-01) (83, 6.20556771755218505859e-01) (84, 1.05591249465942382812e+00) (85, 5.88601350784301757812e-01) (86, 5.60070514678955078125e-01) (87, 9.62253987789154052734e-01) (88, -2.99828909337520599365e-02) (89, 5.86702466011047363281e-01) (90, 7.14935481548309326172e-01) (91, 5.90014159679412841797e-01) (67, 1.05870449542999267578e+00) (68, 1.39876830577850341797e+00) (69, 2.56833344697952270508e-01) (70, -1.51551393792033195496e-02) (71, 5.55090487003326416016e-01) (72, 9.46006000041961669922e-01) (73, 1.79374352097511291504e-01) (74, 1.10719954967498779297e+00) (75, 8.36690783500671386719e-01) (76, 1.69205689430236816406e+00) (77, 5.01746952533721923828e-01) (78, 6.42629504203796386719e-01) (79, 5.84118008613586425781e-01) (80, -7.09668576717376708984e-01) (81, 3.83164137601852416992e-01) (82, 8.96414518356323242188e-01) (83, 3.40029120445251464844e+00) (84, 1.70554339885711669922e+00) (85, 1.80657768249511718750e+00) (86, 9.16152298450469970703e-01) (87, 9.77001428604125976562e-01) (88, 1.59488754272460937500e+01) (89, 8.66963684558868408203e-01) (90, 1.16069805622100830078e+00) (91, 4.78211462497711181641e-01) (67, 1.69496238231658935547e+00) (68, 2.44721126556396484375e+00) (69, 2.78525769710540771484e-01) (70, 8.07895183563232421875e-01) (71, 1.28906917572021484375e+00) (72, 2.90055012702941894531e+00) (73, 2.73426795005798339844e+00) (74, 2.92384076118469238281e+00) (75, 9.50695276260375976562e-01) (76, 5.95040500164031982422e-01) (77, 3.31319034099578857422e-01) (78, 1.27475118637084960938e+00) (79, 1.23019683361053466797e+00) (80, -2.09187412261962890625e+00) (81, 1.01738393306732177734e+00) (82, 8.21113109588623046875e-01) (83, -7.31892049312591552734e-01) (84, 1.56848549842834472656e+00) (85, 2.07003307342529296875e+00) (86, 7.56430864334106445312e-01) (87, 1.18218636512756347656e+00) (88, 1.07362613677978515625e+01) (89, 6.94608211517333984375e-01) (90, 2.66969990730285644531e+00) (91, 6.76899313926696777344e-01) (67, 2.77092486619949340820e-01) (68, 9.73986923694610595703e-01) (69, -4.45663094520568847656e-01) (70, 8.34428429603576660156e-01) (71, 3.61543357372283935547e-01) (72, 9.47914779186248779297e-01) (73, -4.49776530265808105469e-01) (74, 6.86816871166229248047e-01) (75, 6.03429339826107025146e-02) (76, 8.50056886672973632812e-01) (77, -1.28200739622116088867e-01) (78, 2.08530083298683166504e-01) (79, 9.32444036006927490234e-01) (80, -3.06161016225814819336e-01) (81, 5.76593220233917236328e-01) (82, 3.14639180898666381836e-01) (83, 2.18374863266944885254e-01) (84, -1.43555313348770141602e-01) (85, 3.44332188367843627930e-01) (86, 1.02382600307464599609e+00) (87, 5.52163839340209960938e-01) (88, 5.32207846641540527344e-01) (89, 9.05870318412780761719e-01) (90, 9.35174763202667236328e-01) (91, 1.15335607528686523438e+00) (67, 2.63489454984664916992e-01) (68, 1.13555014133453369141e-01) (69, 8.38542759418487548828e-01) (70, 1.18036651611328125000e+01) (71, 1.31720352172851562500e+00) (72, 1.35966941714286804199e-01) (73, 5.41598916053771972656e-01) (74, 4.05570089817047119141e-01) (75, 6.70616805553436279297e-01) (76, 9.79723572731018066406e-01) (77, 5.78305840492248535156e-01) (78, 7.27469846606254577637e-02) (79, 5.41826523840427398682e-02) (80, 1.67027616500854492188e+00) (81, -1.56476963311433792114e-02) (82, 3.81356090307235717773e-01) (83, 5.78671455383300781250e-01) (84, 3.05493652820587158203e-01) (85, -3.60333728790283203125e+00) (86, -7.06772431731224060059e-02) (87, 1.04956412315368652344e+00) (88, -2.91747152805328369141e-01) (89, 1.38893485069274902344e-01) (90, 2.30289563536643981934e-01) (91, 2.85621613264083862305e-01) (67, -9.15531218051910400391e-01) (68, -4.86087918281555175781e-01) (69, 1.09072411060333251953e+00) (70, -1.88185870647430419922e-01) (71, 6.63203522562980651855e-02) (72, -2.08619356155395507812e+00) (73, 1.10752797126770019531e+00) (74, -8.31033214926719665527e-02) (75, -5.45689296722412109375e+00) (76, -2.06406712532043457031e-01) (77, -5.07621049880981445312e-01) (78, -1.60258245468139648438e+00) (79, 6.11892193555831909180e-02) (80, 1.59776210784912109375e+00) (81, -3.25531929731369018555e-01) (82, 3.57971131801605224609e-01) (83, -1.30623698234558105469e-01) (84, 2.85568928718566894531e+00) (85, 3.64677220582962036133e-01) (86, -7.47000813484191894531e-01) (87, -1.03639924526214599609e+00) (88, 1.40802745819091796875e+01) (89, -2.38794851303100585938e+00) (90, -2.48538613319396972656e+00) (91, 2.20075964927673339844e+00) (67, -7.61733278632164001465e-02) (68, 4.34895545244216918945e-01) (69, -4.61904197931289672852e-01) (70, -1.02957092225551605225e-01) (71, 3.68427842855453491211e-01) (72, 5.73196649551391601562e-01) (73, 1.87258198857307434082e-01) (74, 1.16019278764724731445e-01) (75, -5.37755191326141357422e-02) (76, 5.40725409984588623047e-01) (77, -5.32508641481399536133e-03) (78, -2.64613211154937744141e-01) (79, 4.17771965265274047852e-01) (80, 2.56484448909759521484e-01) (81, -1.00936450064182281494e-01) (82, 7.96618014574050903320e-02) (83, 4.85548257827758789062e-01) (84, 8.76652538776397705078e-01) (85, 5.49950122833251953125e-01) (86, -2.67743498086929321289e-01) (87, -4.93815988302230834961e-01) (88, 1.45663547515869140625e+00) (89, 1.92515939474105834961e-01) (90, 4.15523618459701538086e-01) (91, 1.74744617938995361328e+00) (67, -3.43778915703296661377e-02) (68, 4.55780267715454101562e-01) (69, 2.20872592180967330933e-02) (70, 4.77434068918228149414e-01) (71, 7.96757221221923828125e-01) (72, 5.04532337188720703125e-01) (73, -2.67486882209777832031e+00) (74, 2.41720348596572875977e-01) (75, -3.73558938503265380859e-01) (76, 1.21885575354099273682e-01) (77, 4.89108681678771972656e-01) (78, -8.61874878406524658203e-01) (79, 6.37988924980163574219e-01) (80, 4.52723681926727294922e-01) (81, -1.34300559759140014648e-01) (82, 6.39514088630676269531e-01) (83, -2.34349489212036132812e-01) (84, 3.91120076179504394531e-01) (85, 4.84100937843322753906e-01) (86, -2.48564705252647399902e-01) (87, 6.28683328628540039062e-01) (88, -1.05698257684707641602e-01) (89, -1.31668150424957275391e-01) (90, 1.40546843409538269043e-01) (91, 1.08720028400421142578e+00) (67, 6.40723884105682373047e-01) (68, 1.09109413623809814453e+00) (69, 4.59876388311386108398e-01) (70, 1.18518316745758056641e+00) (71, 1.06273567676544189453e+00) (72, 7.25389361381530761719e-01) (73, 8.83889853954315185547e-01) (74, 1.76360523700714111328e+00) (75, 1.68424427509307861328e+00) (76, 5.18252730369567871094e-01) (77, 1.69897449016571044922e+00) (78, 1.64463245868682861328e+00) (79, 9.77543413639068603516e-01) (80, -4.53076153993606567383e-01) (81, 1.90577018260955810547e+00) (82, 1.03543019294738769531e+00) (83, 5.51681756973266601562e-01) (84, 6.62646710872650146484e-01) (85, 1.65000364184379577637e-01) (86, 9.76915836334228515625e-01) (87, 1.22392117977142333984e+00) (88, 1.45774278640747070312e+01) (89, 1.99495708942413330078e+00) (90, 1.15034222602844238281e+00) (91, 1.19502496719360351562e+00) (67, 1.18993115425109863281e+00) (68, 1.85451591014862060547e+00) (69, 4.48802173137664794922e-01) (70, 5.21322846412658691406e-01) (71, 8.86796414852142333984e-01) (72, 1.46372592449188232422e+00) (73, 1.21140205860137939453e+00) (74, 1.58356022834777832031e+00) (75, 1.30350673198699951172e+00) (76, 1.53048932552337646484e+00) (77, 5.70929229259490966797e-01) (78, 9.77877855300903320312e-01) (79, 1.25471258163452148438e+00) (80, -1.73092508316040039062e+00) (81, 7.96036779880523681641e-01) (82, 9.28440809249877929688e-01) (83, 5.33189535140991210938e-01) (84, 1.18555712699890136719e+00) (85, -3.70790362358093261719e-02) (86, 6.93693935871124267578e-01) (87, 1.07725894451141357422e+00) (88, 1.54805088043212890625e+01) (89, 1.80358994007110595703e+00) (90, 1.25556075572967529297e+00) (91, 1.14899992942810058594e-01) (67, 6.65857851505279541016e-01) (68, 9.58793520927429199219e-01) (69, 2.49805480241775512695e-01) (70, -1.69483616948127746582e-01) (71, 3.69954824447631835938e-01) (72, 9.90143179893493652344e-01) (73, 3.21314156055450439453e-01) (74, 1.04243588447570800781e+00) (75, 2.26558864116668701172e-01) (76, -1.49538174271583557129e-01) (77, 3.24530780315399169922e-01) (78, -2.00991106033325195312e+00) (79, 2.26772680878639221191e-01) (80, 4.22612011432647705078e-01) (81, 3.65605562925338745117e-01) (82, -6.81743621826171875000e-01) (83, -2.52685117721557617188e+00) (84, 5.07521688938140869141e-01) (85, -2.10974502563476562500e+00) (86, 3.60358566045761108398e-01) (87, 3.15376788377761840820e-01) (88, 1.09525886364281177521e-03) (89, 7.37533450126647949219e-01) (90, 1.03534150123596191406e+00) (91, 1.15543735027313232422e+00) (67, 8.95428061485290527344e-01) (68, 1.04494178295135498047e+00) (69, -3.84809672832489013672e-01) (70, 9.47434067726135253906e-01) (71, 3.22761356830596923828e-01) (72, 1.12887787818908691406e+00) (73, 4.40657377243041992188e-01) (74, 9.86652910709381103516e-01) (75, 8.25639724731445312500e-01) (76, 5.88718593120574951172e-01) (77, 1.62909567356109619141e-01) (78, 5.90604901313781738281e-01) (79, -8.66151135414838790894e-03) (80, -8.45542490482330322266e-01) (81, 4.60748851299285888672e-01) (82, -3.42007517814636230469e-01) (83, 3.84214222431182861328e-02) (84, 4.22681242227554321289e-01) (85, 1.35131642222404479980e-01) (86, 2.26612389087677001953e-01) (87, 9.48229432106018066406e-01) (88, 3.89081746339797973633e-01) (89, 5.45044302940368652344e-01) (90, 9.69786107540130615234e-01) (91, 6.49305403232574462891e-01) (67, 1.38105070590972900391e+00) (68, 9.13457155227661132812e-01) (69, 2.03134119510650634766e-01) (70, 9.22876834869384765625e-01) (71, 4.36313390731811523438e-01) (72, 1.20693433284759521484e+00) (73, 5.49566805362701416016e-01) (74, 1.79459381103515625000e+00) (75, 6.25136315822601318359e-01) (76, 1.39075314998626708984e+00) (77, 6.19078993797302246094e-01) (78, -4.15408641099929809570e-01) (79, 2.17396184802055358887e-01) (80, -4.10818427801132202148e-01) (81, 8.45375657081604003906e-01) (82, 4.66687828302383422852e-01) (83, 1.58314540982246398926e-01) (84, 8.26082468032836914062e-01) (85, 5.47292709350585937500e-01) (86, 5.76439797878265380859e-01) (87, 7.86281764507293701172e-01) (88, 6.70617282390594482422e-01) (89, 9.61786508560180664062e-01) (90, 1.46228229999542236328e+00) (91, 1.13332080841064453125e+00) (67, 2.58893251419067382812e+00) (68, 2.67405390739440917969e+00) (69, 5.68970263004302978516e-01) (70, 1.06496405601501464844e+00) (71, 1.03563749790191650391e+00) (72, 1.32139873504638671875e+00) (73, -2.33054184913635253906e+00) (74, 2.38500237464904785156e+00) (75, 9.03174817562103271484e-01) (76, 4.56795960664749145508e-01) (77, 1.03033328056335449219e+00) (78, 1.72256183624267578125e+00) (79, 1.28070724010467529297e+00) (80, -1.59750699996948242188e-01) (81, 9.41654264926910400391e-01) (82, 2.35667899250984191895e-01) (83, 5.67943096160888671875e-01) (84, 6.38288974761962890625e-01) (85, 1.58680573105812072754e-01) (86, 2.65103220939636230469e-01) (87, 2.05340218544006347656e+00) (88, 1.92437916994094848633e-01) (89, 4.52328741550445556641e-01) (90, 3.21631932258605957031e+00) (91, 3.21542650461196899414e-01) (67, 1.13185703754425048828e+00) (68, 1.48461794853210449219e+00) (69, 3.64478379487991333008e-01) (70, 7.69198596477508544922e-01) (71, 5.90101480484008789062e-01) (72, 9.47691619396209716797e-01) (73, 2.86598920822143554688e+00) (74, 1.46460521221160888672e+00) (75, 1.00881576538085937500e+00) (76, 7.57786035537719726562e-01) (77, 4.72818255424499511719e-01) (78, 1.47689551115036010742e-01) (79, 6.40952527523040771484e-01) (80, -1.43828129768371582031e+00) (81, 4.32646632194519042969e-01) (82, 5.10162234306335449219e-01) (83, -1.04364323616027832031e+00) (84, 7.87866353988647460938e-01) (85, 7.17399895191192626953e-01) (86, 4.34747129678726196289e-01) (87, 6.07405960559844970703e-01) (88, 3.19613409042358398438e+00) (89, 1.08809530735015869141e+00) (90, 1.61798834800720214844e+00) (91, 3.04069221019744873047e-02) (67, 1.63897678256034851074e-01) (68, 5.33330202102661132812e-01) (69, 1.24686427414417266846e-01) (70, 4.04004275798797607422e-01) (71, 6.36396348476409912109e-01) (72, 7.25250363349914550781e-01) (73, 1.13324262201786041260e-01) (74, 3.49762916564941406250e-01) (75, 1.13820925354957580566e-01) (76, 9.96371209621429443359e-02) (77, 7.94055283069610595703e-01) (78, 1.56394824385643005371e-01) (79, 2.86760300397872924805e-01) (80, 7.84388542175292968750e-01) (81, 3.57626616954803466797e-01) (82, 2.47526779770851135254e-01) (83, 4.27471011877059936523e-01) (84, 5.32702267169952392578e-01) (85, 7.77882218360900878906e-01) (86, 8.91878604888916015625e-01) (87, 2.80535995960235595703e-01) (88, -9.75199103355407714844e-01) (89, 4.12673830986022949219e-01) (90, 1.33542016148567199707e-01) (91, 1.80232548713684082031e+00) (67, 3.39688748121261596680e-01) (68, 4.71740961074829101562e-01) (69, 6.10484421253204345703e-01) (70, 7.73764789104461669922e-01) (71, -8.67377042770385742188e-01) (72, 1.72034239768981933594e+00) (73, 3.53726714849472045898e-01) (74, 8.18693339824676513672e-01) (75, 5.60019731521606445312e-01) (76, -1.63757026195526123047e-01) (77, 7.32086956501007080078e-01) (78, 8.07559013366699218750e-01) (79, 1.01399898529052734375e-01) (80, 7.42583870887756347656e-01) (81, 9.64455246925354003906e-01) (82, 1.55482620000839233398e-01) (83, 2.50092655420303344727e-01) (84, 7.03145027160644531250e-01) (85, 1.03378891944885253906e-01) (86, -1.20344430208206176758e-01) (87, 1.34770095348358154297e+00) (88, 1.23424448072910308838e-01) (89, 5.61060905456542968750e-01) (90, 1.10143339633941650391e+00) (91, 6.08393967151641845703e-01) (67, 9.81971859931945800781e-01) (68, 3.41058373451232910156e-01) (69, 2.82028079032897949219e-01) (70, 2.41557025909423828125e+00) (71, 7.27021813392639160156e-01) (72, 4.08351331949234008789e-01) (73, 1.77174997329711914062e+00) (74, 5.21415829658508300781e-01) (75, 1.38848376274108886719e+00) (76, 7.34700322151184082031e-01) (77, 8.24914932250976562500e-01) (78, 1.24563312530517578125e+00) (79, 7.20750927925109863281e-01) (80, 1.34497061371803283691e-01) (81, 1.61607205867767333984e+00) (82, 7.42962241172790527344e-01) (83, 8.23785901069641113281e-01) (84, 1.33159267902374267578e+00) (85, 1.38772761821746826172e+00) (86, 6.94272994995117187500e-01) (87, 4.96521234512329101562e-01) (88, -7.48987245559692382812e+00) (89, 1.20041584968566894531e+00) (90, 8.17667245864868164062e-01) (91, 7.75024116039276123047e-01) (67, 2.06191033124923706055e-01) (68, 1.93423107266426086426e-01) (69, 7.60380566120147705078e-01) (70, 5.64124166965484619141e-01) (71, 1.00287318229675292969e+00) (72, 3.64090800285339355469e-01) (73, 5.57732641696929931641e-01) (74, 3.84656995534896850586e-01) (75, 5.18887579441070556641e-01) (76, 4.07356441020965576172e-01) (77, 2.50822067260742187500e-01) (78, -3.33336979150772094727e-01) (79, -5.58851798996329307556e-03) (80, 5.04193961620330810547e-01) (81, -1.96628019213676452637e-01) (82, 2.44564786553382873535e-01) (83, 5.76785266399383544922e-01) (84, 2.07663321495056152344e+00) (85, 8.22376847267150878906e-01) (86, 5.53171515464782714844e-01) (87, -6.65416777133941650391e-01) (88, 6.29811584949493408203e-01) (89, 3.42869311571121215820e-02) (90, 3.75755518674850463867e-01) (91, 1.44551146030426025391e+00) (67, 9.83884811401367187500e-01) (68, 5.91975748538970947266e-01) (69, 4.28105562925338745117e-01) (70, 1.04497432708740234375e+00) (71, 2.93222367763519287109e-01) (72, 5.31596004962921142578e-01) (73, 7.08228588104248046875e-01) (74, 7.34040498733520507812e-01) (75, 1.16474926471710205078e+00) (76, 1.07160627841949462891e+00) (77, 7.81091868877410888672e-01) (78, 5.75551331043243408203e-01) (79, 1.67140975594520568848e-01) (80, 1.74068480730056762695e-01) (81, 1.18097567558288574219e+00) (82, 5.81405878067016601562e-01) (83, 3.78681212663650512695e-01) (84, 1.64267933368682861328e+00) (85, 4.74839121103286743164e-01) (86, 7.17711448669433593750e-01) (87, 1.21151733398437500000e+00) (88, 2.78647446632385253906e+00) (89, 7.60014474391937255859e-01) (90, 9.86979007720947265625e-01) (91, 8.11576128005981445312e-01) (67, 1.23187184333801269531e+00) (68, 8.56672525405883789062e-01) (69, 3.48434627056121826172e-01) (70, 5.49230217933654785156e-01) (71, 1.33964085578918457031e+00) (72, 7.74546623229980468750e-01) (73, 1.09415996074676513672e+00) (74, 1.48224294185638427734e+00) (75, 1.91267216205596923828e+00) (76, 9.06260669231414794922e-01) (77, 1.08334434032440185547e+00) (78, 1.31987273693084716797e+00) (79, 1.58809232711791992188e+00) (80, -1.93707060813903808594e+00) (81, 1.28206562995910644531e+00) (82, 7.51210510730743408203e-01) (83, 1.49492427706718444824e-01) (84, 7.16352880001068115234e-01) (85, 1.24768304824829101562e+00) (86, 8.33093166351318359375e-01) (87, 1.15215814113616943359e+00) (88, 1.05619060993194580078e+00) (89, 9.22324061393737792969e-01) (90, 1.04912495613098144531e+00) (91, 7.61949121952056884766e-01) (67, -3.15601490437984466553e-02) (68, 1.59443795680999755859e-01) (69, -1.76618129014968872070e-01) (70, 3.57846230268478393555e-01) (71, 9.80461061000823974609e-01) (72, 3.59651803970336914062e-01) (73, -2.69028991460800170898e-01) (74, -3.03756684064865112305e-01) (75, 3.50110769271850585938e-01) (76, -5.18736481666564941406e-01) (77, 5.46552538871765136719e-01) (78, -8.53997468948364257812e-01) (79, 6.37769937515258789062e-01) (80, 7.04338133335113525391e-01) (81, 6.58625781536102294922e-01) (82, 1.16576397418975830078e+00) (83, -1.74474436789751052856e-02) (84, 1.99902141094207763672e+00) (85, 6.84523940086364746094e-01) (86, -4.61885444819927215576e-02) (87, -1.27117469906806945801e-01) (88, 1.58433601260185241699e-01) (89, 2.04508583992719650269e-02) (90, 7.02770292758941650391e-01) (91, 1.08160853385925292969e+00) (67, 4.72112119197845458984e-01) (68, 1.20284080505371093750e+00) (69, 5.14162838459014892578e-01) (70, 1.08927512168884277344e+00) (71, 6.87941908836364746094e-01) (72, 1.26227426528930664062e+00) (73, 3.31879109144210815430e-01) (74, 6.84693992137908935547e-01) (75, 5.12730121612548828125e-01) (76, 9.27169144153594970703e-01) (77, 5.56326806545257568359e-02) (78, 2.53123283386230468750e-01) (79, 1.00707936286926269531e+00) (80, 5.46481192111968994141e-01) (81, 7.81015098094940185547e-01) (82, -1.87809312343597412109e+00) (83, -2.37702775001525878906e+00) (84, 7.24909126758575439453e-01) (85, -1.82568326592445373535e-01) (86, 1.24932301044464111328e+00) (87, 2.10663318634033203125e+00) (88, -6.14429950714111328125e+00) (89, 7.58330523967742919922e-01) (90, 4.83746021986007690430e-01) (91, 1.40827894210815429688e-01) (92, 2.72691607475280761719e-01) (93, 5.75085163116455078125e-01) (94, -7.19898520037531852722e-03) (95, 2.31757655739784240723e-01) (96, 3.86870652437210083008e-01) (97, 1.08744776248931884766e+00) (98, 9.26318585872650146484e-01) (99, 3.17870408296585083008e-01) (100, 6.76024079322814941406e-01) (101, -1.00973822176456451416e-01) (102, 3.32829207181930541992e-01) (103, 3.37367355823516845703e-01) (104, 8.32373142242431640625e-01) (105, 6.89847543835639953613e-02) (106, 7.22120523452758789062e-01) (107, 2.01613530516624450684e-02) (108, 8.32859456539154052734e-01) (109, 9.00709867477416992188e-01) (110, 2.29930147528648376465e-01) (111, 7.11807072162628173828e-01) (112, -4.17403161525726318359e-01) (113, 3.00923347473144531250e-01) (114, 6.05133652687072753906e-01) (115, 6.34626924991607666016e-01) (116, 8.72537732124328613281e-01) (92, 1.04834687709808349609e+00) (93, 4.05763864517211914062e-01) (94, 1.19701814651489257812e+00) (95, 1.73163831233978271484e+00) (96, 2.16954112052917480469e-01) (97, -1.01779270172119140625e+00) (98, -3.56336414813995361328e-01) (99, 2.15602898597717285156e+00) (100, 5.33774435520172119141e-01) (101, 1.02148270606994628906e+00) (102, 9.24010276794433593750e-01) (103, 1.17874050140380859375e+00) (104, 4.45992290973663330078e-01) (105, 9.47755694389343261719e-01) (106, 5.94862639904022216797e-01) (107, 1.16749393939971923828e+00) (108, 2.51946687698364257812e-01) (109, -2.08572953939437866211e-01) (110, 1.27253818511962890625e+00) (111, -3.83933298289775848389e-02) (112, 6.90435469150543212891e-01) (113, 5.80862343311309814453e-01) (114, 1.03852427005767822266e+00) (115, 4.43346798419952392578e-01) (116, 9.40929472446441650391e-01) (92, 2.59804707020521163940e-02) (93, 4.42544221878051757812e-01) (94, -7.66371488571166992188e-02) (95, -2.44845729321241378784e-02) (96, 2.95445770025253295898e-01) (97, 5.80356717109680175781e-01) (98, 3.24752539396286010742e-01) (99, 1.04240074753761291504e-01) (100, 3.18079948425292968750e-01) (101, -2.30861559510231018066e-01) (102, 3.05451333522796630859e-01) (103, 5.17033100128173828125e-01) (104, 3.03288161754608154297e-01) (105, 3.74107480049133300781e-01) (106, 6.98515474796295166016e-01) (107, 2.85009652376174926758e-01) (108, 2.52837687730789184570e-01) (109, 2.68267422914505004883e-01) (110, -1.03098697960376739502e-01) (111, 9.72439646720886230469e-02) (112, -6.88316226005554199219e-01) (113, 2.07684859633445739746e-01) (114, 5.01544654369354248047e-01) (115, 7.02746808528900146484e-02) (116, 3.41956615447998046875e-01) (92, 7.34133422374725341797e-01) (93, 1.11464607715606689453e+00) (94, 1.14321815967559814453e+00) (95, 8.50098490715026855469e-01) (96, 5.34835577011108398438e-01) (97, -7.51264512538909912109e-01) (98, 2.25218176841735839844e-01) (99, 1.33816790580749511719e+00) (100, 8.88415455818176269531e-01) (101, 2.74253278970718383789e-01) (102, 1.21468245983123779297e+00) (103, 4.19893831014633178711e-01) (104, 4.96510535478591918945e-01) (105, 1.16416740417480468750e+00) (106, 7.33429729938507080078e-01) (107, 1.63085067272186279297e+00) (108, 1.67187258601188659668e-01) (109, -2.09599640220403671265e-02) (110, 1.31629860401153564453e+00) (111, -4.18316811323165893555e-01) (112, 1.25347995758056640625e+00) (113, 4.80120807886123657227e-01) (114, 8.17761540412902832031e-01) (115, 1.38272531330585479736e-02) (116, 1.19317129254341125488e-01) (92, 2.30353876948356628418e-01) (93, 6.15639925003051757812e-01) (94, 9.90082204341888427734e-01) (95, 1.63127970695495605469e+00) (96, 2.31522843241691589355e-01) (97, 1.14637076854705810547e-01) (98, -4.70136046409606933594e-01) (99, 1.15331661701202392578e+00) (100, 6.58700704574584960938e-01) (101, 1.12092316150665283203e+00) (102, 9.63950693607330322266e-01) (103, 1.05930554866790771484e+00) (104, 1.69441926479339599609e+00) (105, 4.85468000173568725586e-01) (106, 5.29500603675842285156e-01) (107, 9.91056382656097412109e-01) (108, 2.88920223712921142578e-01) (109, 8.60180079936981201172e-01) (110, 1.49553036689758300781e+00) (111, -1.99605360627174377441e-01) (112, 1.15253233909606933594e+00) (113, 6.63461089134216308594e-01) (114, 9.75382626056671142578e-01) (115, -5.41408769786357879639e-02) (116, 1.11282026767730712891e+00) (92, 1.21114814281463623047e+00) (93, 8.02871167659759521484e-01) (94, 3.53608369827270507812e-01) (95, 3.52763473987579345703e-01) (96, 9.56195771694183349609e-01) (97, -2.29118585586547851562e+00) (98, -4.58169370889663696289e-01) (99, 7.21525967121124267578e-01) (100, 4.94599342346191406250e-01) (101, 3.85868042707443237305e-01) (102, 9.10973906517028808594e-01) (103, 8.28849136829376220703e-01) (104, 5.31405568122863769531e-01) (105, 6.12275362014770507812e-01) (106, 4.75768208503723144531e-01) (107, 8.64720225334167480469e-01) (108, -1.32233485579490661621e-01) (109, -2.45287522673606872559e-01) (110, 1.06010293960571289062e+00) (111, -3.98622572422027587891e-01) (112, 1.17927253246307373047e+00) (113, 7.37531900405883789062e-01) (114, 3.87661606073379516602e-01) (115, 4.56124037504196166992e-01) (116, 6.69780075550079345703e-01) (92, 5.48420324921607971191e-02) (93, -5.55575117468833923340e-02) (94, 1.11832236871123313904e-02) (95, 4.35971505939960479736e-02) (96, 5.03986358642578125000e-01) (97, 4.67632293701171875000e-01) (98, 1.17067027091979980469e+00) (99, 7.84132853150367736816e-02) (100, 6.11857175827026367188e-01) (101, -9.73040521144866943359e-01) (102, -3.85398715734481811523e-01) (103, 2.81171798706054687500e-01) (104, 1.28033950924873352051e-01) (105, -3.09175133705139160156e-01) (106, 2.96678543090820312500e-01) (107, -2.62586116790771484375e-01) (108, 4.27719742059707641602e-01) (109, 1.06160096824169158936e-01) (110, -1.01731681823730468750e+00) (111, 1.13315916061401367188e+00) (112, -7.03426420688629150391e-01) (113, -4.44298386573791503906e-01) (114, -9.38959941267967224121e-02) (115, 7.35167324542999267578e-01) (116, 1.52381253242492675781e+00) (92, 5.30727803707122802734e-01) (93, 8.27899992465972900391e-01) (94, 2.94482648372650146484e-01) (95, 1.53306588530540466309e-01) (96, 4.44186031818389892578e-01) (97, 2.86419630050659179688e-01) (98, 4.99540641903877258301e-02) (99, 3.56034636497497558594e-01) (100, 7.38740265369415283203e-01) (101, -2.66820222139358520508e-01) (102, 1.90781310200691223145e-01) (103, 7.88604915142059326172e-01) (104, 5.27000546455383300781e-01) (105, 4.67888683080673217773e-01) (106, 3.25462400913238525391e-01) (107, 3.15997749567031860352e-01) (108, 5.02273201942443847656e-01) (109, 4.11149352788925170898e-01) (110, 3.47120881080627441406e-01) (111, 1.03185784816741943359e+00) (112, -8.79128128290176391602e-02) (113, 2.75977939367294311523e-01) (114, 1.17856633663177490234e+00) (115, 1.61829578876495361328e+00) (116, 1.66072428226470947266e+00) (92, 7.93633699417114257812e-01) (93, 7.39259660243988037109e-01) (94, 8.13540279865264892578e-01) (95, 9.62616324424743652344e-01) (96, 5.42157769203186035156e-01) (97, -2.02854396775364875793e-03) (98, -9.74526047706604003906e-01) (99, 1.47739696502685546875e+00) (100, 4.63733226060867309570e-01) (101, 7.62515366077423095703e-01) (102, 1.06933164596557617188e+00) (103, 3.64332079887390136719e-01) (104, 1.81978261470794677734e+00) (105, 5.11027216911315917969e-01) (106, 4.42325383424758911133e-01) (107, 3.85008424520492553711e-01) (108, 2.54609048366546630859e-01) (109, 1.07522718608379364014e-01) (110, 6.56037092208862304688e-01) (111, -3.12591314315795898438e+00) (112, 6.63401544094085693359e-01) (113, 5.91391801834106445312e-01) (114, 8.05762767791748046875e-01) (115, 1.88081517815589904785e-01) (116, 5.25821030139923095703e-01) (92, 7.89389789104461669922e-01) (93, 5.02377510070800781250e-01) (94, 1.16685390472412109375e+00) (95, 1.27387905120849609375e+00) (96, 3.47104996442794799805e-01) (97, 4.33753371238708496094e-01) (98, -8.47571671009063720703e-01) (99, 1.03076767921447753906e+00) (100, 9.62376296520233154297e-01) (101, 7.12058722972869873047e-01) (102, 1.74331748485565185547e+00) (103, 7.74211406707763671875e-01) (104, 7.62773573398590087891e-01) (105, 1.35381066799163818359e+00) (106, 1.01156926155090332031e+00) (107, 1.79930663108825683594e+00) (108, 4.51958924531936645508e-01) (109, 7.71638810634613037109e-01) (110, 1.36900877952575683594e+00) (111, 4.05145466327667236328e-01) (112, 1.64009714126586914062e+00) (113, 7.28326976299285888672e-01) (114, 9.04675662517547607422e-01) (115, 1.01786442101001739502e-01) (116, -8.77872556447982788086e-02) (92, 2.86562025547027587891e-01) (93, 2.80493438243865966797e-01) (94, 7.93061733245849609375e-01) (95, 5.06474852561950683594e-01) (96, 3.37683051824569702148e-01) (97, -2.08490476012229919434e-01) (98, 1.26352638006210327148e-01) (99, 6.63688123226165771484e-01) (100, -8.69351744651794433594e-01) (101, 3.82252395153045654297e-01) (102, 5.80644547939300537109e-01) (103, 1.09252047538757324219e+00) (104, 3.38143020868301391602e-01) (105, 