FANN_FLO_2.1
num_layers=20
learning_rate=0.700000
connection_rate=1.000000
network_type=0
learning_momentum=0.000000
training_algorithm=2
train_error_function=1
train_stop_function=1
cascade_output_change_fraction=0.010000
quickprop_decay=-0.000100
quickprop_mu=1.750000
rprop_increase_factor=1.200000
rprop_decrease_factor=0.500000
rprop_delta_min=0.000000
rprop_delta_max=50.000000
rprop_delta_zero=0.100000
cascade_output_stagnation_epochs=12
cascade_candidate_change_fraction=0.010000
cascade_candidate_stagnation_epochs=12
cascade_max_out_epochs=150
cascade_min_out_epochs=50
cascade_max_cand_epochs=150
cascade_min_cand_epochs=50
cascade_num_candidate_groups=2
bit_fail_limit=9.99999977648258209229e-03
cascade_candidate_limit=1.00000000000000000000e+03
cascade_weight_multiplier=4.00000005960464477539e-01
cascade_activation_functions_count=10
cascade_activation_functions=3 5 7 8 10 11 14 15 16 17 
cascade_activation_steepnesses_count=4
cascade_activation_steepnesses=2.50000000000000000000e-01 5.00000000000000000000e-01 7.50000000000000000000e-01 1.00000000000000000000e+00 
layer_sizes=17 25 25 25 25 25 25 25 25 25 25 25 25 25 25 25 25 25 17 9 
scale_included=0
neurons (num_inputs, activation_function, activation_steepness)=(0, 0, 0.00000000000000000000e+00) (0, 0, 0.00000000000000000000e+00) (0, 0, 0.00000000000000000000e+00) (0, 0, 0.00000000000000000000e+00) (0, 0, 0.00000000000000000000e+00) (0, 0, 0.00000000000000000000e+00) (0, 0, 0.00000000000000000000e+00) (0, 0, 0.00000000000000000000e+00) (0, 0, 0.00000000000000000000e+00) (0, 0, 0.00000000000000000000e+00) (0, 0, 0.00000000000000000000e+00) (0, 0, 0.00000000000000000000e+00) (0, 0, 0.00000000000000000000e+00) (0, 0, 0.00000000000000000000e+00) (0, 0, 0.00000000000000000000e+00) (0, 0, 0.00000000000000000000e+00) (0, 0, 0.00000000000000000000e+00) (17, 5, 1.00000000000000000000e+00) (17, 5, 1.00000000000000000000e+00) (17, 5, 1.00000000000000000000e+00) (17, 5, 1.00000000000000000000e+00) (17, 5, 1.00000000000000000000e+00) (17, 5, 1.00000000000000000000e+00) (17, 5, 1.00000000000000000000e+00) (17, 5, 1.00000000000000000000e+00) (17, 5, 1.00000000000000000000e+00) (17, 5, 1.00000000000000000000e+00) (17, 5, 1.00000000000000000000e+00) (17, 5, 1.00000000000000000000e+00) (17, 5, 1.00000000000000000000e+00) (17, 5, 1.00000000000000000000e+00) (17, 5, 1.00000000000000000000e+00) (17, 5, 1.00000000000000000000e+00) (17, 5, 1.00000000000000000000e+00) (17, 5, 1.00000000000000000000e+00) (17, 5, 1.00000000000000000000e+00) (17, 5, 1.00000000000000000000e+00) (17, 5, 1.00000000000000000000e+00) (17, 5, 1.00000000000000000000e+00) (17, 5, 1.00000000000000000000e+00) (17, 5, 1.00000000000000000000e+00) (0, 5, 1.00000000000000000000e+00) (25, 5, 1.00000000000000000000e+00) (25, 5, 1.00000000000000000000e+00) (25, 5, 1.00000000000000000000e+00) (25, 5, 1.00000000000000000000e+00) (25, 5, 1.00000000000000000000e+00) (25, 5, 1.00000000000000000000e+00) (25, 5, 1.00000000000000000000e+00) (25, 5, 1.00000000000000000000e+00) (25, 5, 1.00000000000000000000e+00) (25, 5, 1.00000000000000000000e+00) (25, 5, 1.00000000000000000000e+00) (25, 5, 1.00000000000000000000e+00) (25, 5, 1.00000000000000000000e+00) (25, 5, 1.00000000000000000000e+00) (25, 5, 1.00000000000000000000e+00) (25, 5, 1.00000000000000000000e+00) (25, 5, 1.00000000000000000000e+00) (25, 5, 1.00000000000000000000e+00) (25, 5, 1.00000000000000000000e+00) (25, 5, 1.00000000000000000000e+00) (25, 5, 1.00000000000000000000e+00) (25, 5, 1.00000000000000000000e+00) (25, 5, 1.00000000000000000000e+00) (25, 5, 1.00000000000000000000e+00) (0, 5, 1.00000000000000000000e+00) (25, 5, 1.00000000000000000000e+00) (25, 5, 1.00000000000000000000e+00) (25, 5, 1.00000000000000000000e+00) (25, 5, 1.00000000000000000000e+00) (25, 5, 1.00000000000000000000e+00) (25, 5, 1.00000000000000000000e+00) (25, 5, 1.00000000000000000000e+00) (25, 5, 1.00000000000000000000e+00) (25, 5, 1.00000000000000000000e+00) (25, 5, 1.00000000000000000000e+00) (25, 5, 1.00000000000000000000e+00) (25, 5, 1.00000000000000000000e+00) (25, 5, 1.00000000000000000000e+00) (25, 5, 1.00000000000000000000e+00) (25, 5, 1.00000000000000000000e+00) (25, 5, 1.00000000000000000000e+00) (25, 5, 1.00000000000000000000e+00) (25, 5, 1.00000000000000000000e+00) (25, 5, 1.00000000000000000000e+00) (25, 5, 1.00000000000000000000e+00) (25, 5, 1.00000000000000000000e+00) (25, 5, 1.00000000000000000000e+00) (25, 5, 1.00000000000000000000e+00) (25, 5, 1.00000000000000000000e+00) (0, 5, 1.00000000000000000000e+00) (25, 5, 1.00000000000000000000e+00) (25, 5, 1.00000000000000000000e+00) (25, 5, 1.00000000000000000000e+00) (25, 5, 1.00000000000000000000e+00) (25, 5, 1.00000000000000000000e+00) (25, 5, 1.00000000000000000000e+00) (25, 5, 1.00000000000000000000e+00) (25, 5, 1.00000000000000000000e+00) (25, 5, 1.00000000000000000000e+00) (25, 5, 1.00000000000000000000e+00) (25, 5, 1.00000000000000000000e+00) (25, 5, 1.00000000000000000000e+00) (25, 5, 1.00000000000000000000e+00) (25, 5, 1.00000000000000000000e+00) (25, 5, 1.00000000000000000000e+00) (25, 5, 1.00000000000000000000e+00) (25, 5, 1.00000000000000000000e+00) (25, 5, 1.00000000000000000000e+00) (25, 5, 1.00000000000000000000e+00) (25, 5, 1.00000000000000000000e+00) (25, 5, 1.00000000000000000000e+00) (25, 5, 1.00000000000000000000e+00) (25, 5, 1.00000000000000000000e+00) (25, 5, 1.00000000000000000000e+00) (0, 5, 1.00000000000000000000e+00) (25, 5, 1.00000000000000000000e+00) (25, 5, 1.00000000000000000000e+00) (25, 5, 1.00000000000000000000e+00) (25, 5, 1.00000000000000000000e+00) (25, 5, 1.00000000000000000000e+00) (25, 5, 1.00000000000000000000e+00) (25, 5, 1.00000000000000000000e+00) (25, 5, 1.00000000000000000000e+00) (25, 5, 1.00000000000000000000e+00) (25, 5, 1.00000000000000000000e+00) (25, 5, 1.00000000000000000000e+00) (25, 5, 1.00000000000000000000e+00) (25, 5, 1.00000000000000000000e+00) (25, 5, 1.00000000000000000000e+00) (25, 5, 1.00000000000000000000e+00) (25, 5, 1.00000000000000000000e+00) (25, 5, 1.00000000000000000000e+00) (25, 5, 1.00000000000000000000e+00) (25, 5, 1.00000000000000000000e+00) (25, 5, 1.00000000000000000000e+00) (25, 5, 1.00000000000000000000e+00) (25, 5, 1.00000000000000000000e+00) (25, 5, 1.00000000000000000000e+00) (25, 5, 1.00000000000000000000e+00) (0, 5, 1.00000000000000000000e+00) (25, 5, 1.00000000000000000000e+00) (25, 5, 1.00000000000000000000e+00) (25, 5, 1.00000000000000000000e+00) (25, 5, 1.00000000000000000000e+00) (25, 5, 1.00000000000000000000e+00) (25, 5, 1.00000000000000000000e+00) (25, 5, 1.00000000000000000000e+00) (25, 5, 1.00000000000000000000e+00) (25, 5, 1.00000000000000000000e+00) (25, 5, 1.00000000000000000000e+00) (25, 5, 1.00000000000000000000e+00) (25, 5, 1.00000000000000000000e+00) (25, 5, 1.00000000000000000000e+00) (25, 5, 1.00000000000000000000e+00) (25, 5, 1.00000000000000000000e+00) (25, 5, 1.00000000000000000000e+00) (25, 5, 1.00000000000000000000e+00) (25, 5, 1.00000000000000000000e+00) (25, 5, 1.00000000000000000000e+00) (25, 5, 1.00000000000000000000e+00) (25, 5, 1.00000000000000000000e+00) (25, 5, 1.00000000000000000000e+00) (25, 5, 1.00000000000000000000e+00) (25, 5, 1.00000000000000000000e+00) (0, 5, 1.00000000000000000000e+00) (25, 5, 1.00000000000000000000e+00) (25, 5, 1.00000000000000000000e+00) (25, 5, 1.00000000000000000000e+00) (25, 5, 1.00000000000000000000e+00) (25, 5, 1.00000000000000000000e+00) (25, 5, 1.00000000000000000000e+00) (25, 5, 1.00000000000000000000e+00) (25, 5, 1.00000000000000000000e+00) (25, 5, 1.00000000000000000000e+00) (25, 5, 1.00000000000000000000e+00) (25, 5, 1.00000000000000000000e+00) (25, 5, 1.00000000000000000000e+00) (25, 5, 1.00000000000000000000e+00) (25, 5, 1.00000000000000000000e+00) (25, 5, 1.00000000000000000000e+00) (25, 5, 1.00000000000000000000e+00) (25, 5, 1.00000000000000000000e+00) (25, 5, 1.00000000000000000000e+00) (25, 5, 1.00000000000000000000e+00) (25, 5, 1.00000000000000000000e+00) (25, 5, 1.00000000000000000000e+00) (25, 5, 1.00000000000000000000e+00) (25, 5, 1.00000000000000000000e+00) (25, 5, 1.00000000000000000000e+00) (0, 5, 1.00000000000000000000e+00) (25, 5, 1.00000000000000000000e+00) (25, 5, 1.00000000000000000000e+00) (25, 5, 1.00000000000000000000e+00) (25, 5, 1.00000000000000000000e+00) (25, 5, 1.00000000000000000000e+00) (25, 5, 1.00000000000000000000e+00) (25, 5, 1.00000000000000000000e+00) (25, 5, 1.00000000000000000000e+00) (25, 5, 1.00000000000000000000e+00) (25, 5, 1.00000000000000000000e+00) (25, 5, 1.00000000000000000000e+00) (25, 5, 1.00000000000000000000e+00) (25, 5, 1.00000000000000000000e+00) (25, 5, 1.00000000000000000000e+00) (25, 5, 1.00000000000000000000e+00) (25, 5, 1.00000000000000000000e+00) (25, 5, 1.00000000000000000000e+00) (25, 5, 1.00000000000000000000e+00) (25, 5, 1.00000000000000000000e+00) (25, 5, 1.00000000000000000000e+00) (25, 5, 1.00000000000000000000e+00) (25, 5, 1.00000000000000000000e+00) (25, 5, 1.00000000000000000000e+00) (25, 5, 1.00000000000000000000e+00) (0, 5, 1.00000000000000000000e+00) (25, 5, 1.00000000000000000000e+00) (25, 5, 1.00000000000000000000e+00) (25, 5, 1.00000000000000000000e+00) (25, 5, 1.00000000000000000000e+00) (25, 5, 1.00000000000000000000e+00) (25, 5, 1.00000000000000000000e+00) (25, 5, 1.00000000000000000000e+00) (25, 5, 1.00000000000000000000e+00) (25, 5, 1.00000000000000000000e+00) (25, 5, 1.00000000000000000000e+00) (25, 5, 1.00000000000000000000e+00) (25, 5, 1.00000000000000000000e+00) (25, 5, 1.00000000000000000000e+00) (25, 5, 1.00000000000000000000e+00) (25, 5, 1.00000000000000000000e+00) (25, 5, 1.00000000000000000000e+00) (25, 5, 1.00000000000000000000e+00) (25, 5, 1.00000000000000000000e+00) (25, 5, 1.00000000000000000000e+00) (25, 5, 1.00000000000000000000e+00) (25, 5, 1.00000000000000000000e+00) (25, 5, 1.00000000000000000000e+00) (25, 5, 1.00000000000000000000e+00) (25, 5, 1.00000000000000000000e+00) (0, 5, 1.00000000000000000000e+00) (25, 5, 1.00000000000000000000e+00) (25, 5, 1.00000000000000000000e+00) (25, 5, 1.00000000000000000000e+00) (25, 5, 1.00000000000000000000e+00) (25, 5, 1.00000000000000000000e+00) (25, 5, 1.00000000000000000000e+00) (25, 5, 1.00000000000000000000e+00) (25, 5, 1.00000000000000000000e+00) (25, 5, 1.00000000000000000000e+00) (25, 5, 1.00000000000000000000e+00) (25, 5, 1.00000000000000000000e+00) (25, 5, 1.00000000000000000000e+00) (25, 5, 1.00000000000000000000e+00) (25, 5, 1.00000000000000000000e+00) (25, 5, 1.00000000000000000000e+00) (25, 5, 1.00000000000000000000e+00) (25, 5, 1.00000000000000000000e+00) (25, 5, 1.00000000000000000000e+00) (25, 5, 1.00000000000000000000e+00) (25, 5, 1.00000000000000000000e+00) (25, 5, 1.00000000000000000000e+00) (25, 5, 1.00000000000000000000e+00) (25, 5, 1.00000000000000000000e+00) (25, 5, 1.00000000000000000000e+00) (0, 5, 1.00000000000000000000e+00) (25, 5, 1.00000000000000000000e+00) (25, 5, 1.00000000000000000000e+00) (25, 5, 1.00000000000000000000e+00) (25, 5, 1.00000000000000000000e+00) (25, 5, 1.00000000000000000000e+00) (25, 5, 1.00000000000000000000e+00) (25, 5, 1.00000000000000000000e+00) (25, 5, 1.00000000000000000000e+00) (25, 5, 1.00000000000000000000e+00) (25, 5, 1.00000000000000000000e+00) (25, 5, 1.00000000000000000000e+00) (25, 5, 1.00000000000000000000e+00) (25, 5, 1.00000000000000000000e+00) (25, 5, 1.00000000000000000000e+00) (25, 5, 1.00000000000000000000e+00) (25, 5, 1.00000000000000000000e+00) (25, 5, 1.00000000000000000000e+00) (25, 5, 1.00000000000000000000e+00) (25, 5, 1.00000000000000000000e+00) (25, 5, 1.00000000000000000000e+00) (25, 5, 1.00000000000000000000e+00) (25, 5, 1.00000000000000000000e+00) (25, 5, 1.00000000000000000000e+00) (25, 5, 1.00000000000000000000e+00) (0, 5, 1.00000000000000000000e+00) (25, 5, 1.00000000000000000000e+00) (25, 5, 1.00000000000000000000e+00) (25, 5, 1.00000000000000000000e+00) (25, 5, 1.00000000000000000000e+00) (25, 5, 1.00000000000000000000e+00) (25, 5, 1.00000000000000000000e+00) (25, 5, 1.00000000000000000000e+00) (25, 5, 1.00000000000000000000e+00) (25, 5, 1.00000000000000000000e+00) (25, 5, 1.00000000000000000000e+00) (25, 5, 1.00000000000000000000e+00) (25, 5, 1.00000000000000000000e+00) (25, 5, 1.00000000000000000000e+00) (25, 5, 1.00000000000000000000e+00) (25, 5, 1.00000000000000000000e+00) (25, 5, 1.00000000000000000000e+00) (25, 5, 1.00000000000000000000e+00) (25, 5, 1.00000000000000000000e+00) (25, 5, 1.00000000000000000000e+00) (25, 5, 1.00000000000000000000e+00) (25, 5, 1.00000000000000000000e+00) (25, 5, 1.00000000000000000000e+00) (25, 5, 1.00000000000000000000e+00) (25, 5, 1.00000000000000000000e+00) (0, 5, 1.00000000000000000000e+00) (25, 5, 1.00000000000000000000e+00) (25, 5, 1.00000000000000000000e+00) (25, 5, 1.00000000000000000000e+00) (25, 5, 1.00000000000000000000e+00) (25, 5, 1.00000000000000000000e+00) (25, 5, 1.00000000000000000000e+00) (25, 5, 1.00000000000000000000e+00) (25, 5, 1.00000000000000000000e+00) (25, 5, 1.00000000000000000000e+00) (25, 5, 1.00000000000000000000e+00) (25, 5, 1.00000000000000000000e+00) (25, 5, 1.00000000000000000000e+00) (25, 5, 1.00000000000000000000e+00) (25, 5, 1.00000000000000000000e+00) (25, 5, 1.00000000000000000000e+00) (25, 5, 1.00000000000000000000e+00) (25, 5, 1.00000000000000000000e+00) (25, 5, 1.00000000000000000000e+00) (25, 5, 1.00000000000000000000e+00) (25, 5, 1.00000000000000000000e+00) (25, 5, 1.00000000000000000000e+00) (25, 5, 1.00000000000000000000e+00) (25, 5, 1.00000000000000000000e+00) (25, 5, 1.00000000000000000000e+00) (0, 5, 1.00000000000000000000e+00) (25, 5, 1.00000000000000000000e+00) (25, 5, 1.00000000000000000000e+00) (25, 5, 1.00000000000000000000e+00) (25, 5, 1.00000000000000000000e+00) (25, 5, 1.00000000000000000000e+00) (25, 5, 1.00000000000000000000e+00) (25, 5, 1.00000000000000000000e+00) (25, 5, 1.00000000000000000000e+00) (25, 5, 1.00000000000000000000e+00) (25, 5, 1.00000000000000000000e+00) (25, 5, 1.00000000000000000000e+00) (25, 5, 1.00000000000000000000e+00) (25, 5, 1.00000000000000000000e+00) (25, 5, 1.00000000000000000000e+00) (25, 5, 1.00000000000000000000e+00) (25, 5, 1.00000000000000000000e+00) (25, 5, 1.00000000000000000000e+00) (25, 5, 1.00000000000000000000e+00) (25, 5, 1.00000000000000000000e+00) (25, 5, 1.00000000000000000000e+00) (25, 5, 1.00000000000000000000e+00) (25, 5, 1.00000000000000000000e+00) (25, 5, 1.00000000000000000000e+00) (25, 5, 1.00000000000000000000e+00) (0, 5, 1.00000000000000000000e+00) (25, 5, 1.00000000000000000000e+00) (25, 5, 1.00000000000000000000e+00) (25, 5, 1.00000000000000000000e+00) (25, 5, 1.00000000000000000000e+00) (25, 5, 1.00000000000000000000e+00) (25, 5, 1.00000000000000000000e+00) (25, 5, 1.00000000000000000000e+00) (25, 5, 1.00000000000000000000e+00) (25, 5, 1.00000000000000000000e+00) (25, 5, 1.00000000000000000000e+00) (25, 5, 1.00000000000000000000e+00) (25, 5, 1.00000000000000000000e+00) (25, 5, 1.00000000000000000000e+00) (25, 5, 1.00000000000000000000e+00) (25, 5, 1.00000000000000000000e+00) (25, 5, 1.00000000000000000000e+00) (25, 5, 1.00000000000000000000e+00) (25, 5, 1.00000000000000000000e+00) (25, 5, 1.00000000000000000000e+00) (25, 5, 1.00000000000000000000e+00) (25, 5, 1.00000000000000000000e+00) (25, 5, 1.00000000000000000000e+00) (25, 5, 1.00000000000000000000e+00) (25, 5, 1.00000000000000000000e+00) (0, 5, 1.00000000000000000000e+00) (25, 5, 1.00000000000000000000e+00) (25, 5, 1.00000000000000000000e+00) (25, 5, 1.00000000000000000000e+00) (25, 5, 1.00000000000000000000e+00) (25, 5, 1.00000000000000000000e+00) (25, 5, 1.00000000000000000000e+00) (25, 5, 1.00000000000000000000e+00) (25, 5, 1.00000000000000000000e+00) (25, 5, 1.00000000000000000000e+00) (25, 5, 1.00000000000000000000e+00) (25, 5, 1.00000000000000000000e+00) (25, 5, 1.00000000000000000000e+00) (25, 5, 1.00000000000000000000e+00) (25, 5, 1.00000000000000000000e+00) (25, 5, 1.00000000000000000000e+00) (25, 5, 1.00000000000000000000e+00) (25, 5, 1.00000000000000000000e+00) (25, 5, 1.00000000000000000000e+00) (25, 5, 1.00000000000000000000e+00) (25, 5, 1.00000000000000000000e+00) (25, 5, 1.00000000000000000000e+00) (25, 5, 1.00000000000000000000e+00) (25, 5, 1.00000000000000000000e+00) (25, 5, 1.00000000000000000000e+00) (0, 5, 1.00000000000000000000e+00) (25, 5, 1.00000000000000000000e+00) (25, 5, 1.00000000000000000000e+00) (25, 5, 1.00000000000000000000e+00) (25, 5, 1.00000000000000000000e+00) (25, 5, 1.00000000000000000000e+00) (25, 5, 1.00000000000000000000e+00) (25, 5, 1.00000000000000000000e+00) (25, 5, 1.00000000000000000000e+00) (25, 5, 1.00000000000000000000e+00) (25, 5, 1.00000000000000000000e+00) (25, 5, 1.00000000000000000000e+00) (25, 5, 1.00000000000000000000e+00) (25, 5, 1.00000000000000000000e+00) (25, 5, 1.00000000000000000000e+00) (25, 5, 1.00000000000000000000e+00) (25, 5, 1.00000000000000000000e+00) (25, 5, 1.00000000000000000000e+00) (25, 5, 1.00000000000000000000e+00) (25, 5, 1.00000000000000000000e+00) (25, 5, 1.00000000000000000000e+00) (25, 5, 1.00000000000000000000e+00) (25, 5, 1.00000000000000000000e+00) (25, 5, 1.00000000000000000000e+00) (25, 5, 1.00000000000000000000e+00) (0, 5, 1.00000000000000000000e+00) (25, 5, 1.00000000000000000000e+00) (25, 5, 1.00000000000000000000e+00) (25, 5, 1.00000000000000000000e+00) (25, 5, 1.00000000000000000000e+00) (25, 5, 1.00000000000000000000e+00) (25, 5, 1.00000000000000000000e+00) (25, 5, 1.00000000000000000000e+00) (25, 5, 1.00000000000000000000e+00) (25, 5, 1.00000000000000000000e+00) (25, 5, 1.00000000000000000000e+00) (25, 5, 1.00000000000000000000e+00) (25, 5, 1.00000000000000000000e+00) (25, 5, 1.00000000000000000000e+00) (25, 5, 1.00000000000000000000e+00) (25, 5, 1.00000000000000000000e+00) (25, 5, 1.00000000000000000000e+00) (0, 5, 1.00000000000000000000e+00) (17, 5, 1.00000000000000000000e+00) (17, 5, 1.00000000000000000000e+00) (17, 5, 1.00000000000000000000e+00) (17, 5, 1.00000000000000000000e+00) (17, 5, 1.00000000000000000000e+00) (17, 5, 1.00000000000000000000e+00) (17, 5, 1.00000000000000000000e+00) (17, 5, 1.00000000000000000000e+00) (0, 5, 1.00000000000000000000e+00) 
connections (connected_to_neuron, weight)=(0, -9.49895441532135009766e-01) (1, 6.22469329833984375000e+00) (2, 8.74209940433502197266e-01) (3, 4.46047592163085937500e+00) (4, 1.32177817821502685547e+00) (5, -4.27301979064941406250e+00) (6, 2.93142080307006835938e+00) (7, -1.27429351806640625000e+01) (8, -5.61582136154174804688e+00) (9, -1.06591253280639648438e+01) (10, 7.85236692428588867188e+00) (11, -8.13800201416015625000e+01) (12, 1.01126396656036376953e+00) (13, -2.25026199340820312500e+02) (14, 2.58140057325363159180e-01) (15, 3.65229701995849609375e+00) (16, 1.37218765258789062500e+02) (0, 1.96074211597442626953e+00) (1, 1.24631774425506591797e+00) (2, 1.36519980430603027344e+00) (3, 7.40989148616790771484e-01) (4, 1.52439820766448974609e+00) (5, 3.48410457372665405273e-01) (6, 4.06596124172210693359e-01) (7, 2.34881311655044555664e-01) (8, 2.08156555891036987305e-02) (9, -2.88450932502746582031e+00) (10, 3.65156263113021850586e-01) (11, -7.43374943733215332031e-01) (12, -9.60961163043975830078e-01) (13, -4.55771970748901367188e+00) (14, -2.64844328165054321289e-01) (15, 6.59035682678222656250e-01) (16, 3.71243214607238769531e+00) (0, 1.91246315836906433105e-01) (1, 1.34057819843292236328e+00) (2, 2.21093440055847167969e+00) (3, 1.06885266304016113281e+00) (4, -3.89836406707763671875e+00) (5, 4.71680819988250732422e-01) (6, 9.68477547168731689453e-01) (7, 3.60621154308319091797e-01) (8, 6.35902225971221923828e-01) (9, -9.14518508911132812500e+01) (10, 7.42245137691497802734e-01) (11, -1.43151074647903442383e-01) (12, 1.17817604541778564453e+00) (13, 1.40325069427490234375e+00) (14, -2.46576356887817382812e+00) (15, 1.87514805793762207031e+00) (16, 1.68291103839874267578e+00) (0, 2.76235699653625488281e+00) (1, 5.60634255409240722656e-01) (2, 1.52727913856506347656e+00) (3, 1.04324734210968017578e+00) (4, 2.56722062826156616211e-01) (5, 2.09024071693420410156e-01) (6, 8.40447843074798583984e-01) (7, -9.00847434997558593750e-01) (8, 2.70076632499694824219e-01) (9, -1.02947545051574707031e+00) (10, 7.55035519599914550781e-01) (11, -1.28141522407531738281e+00) (12, 1.36691391468048095703e+00) (13, 2.60090231895446777344e+00) (14, -1.59835115075111389160e-01) (15, 2.03091478347778320312e+00) (16, 3.54338526725769042969e+00) (0, 2.14808368682861328125e+00) (1, 7.23090350627899169922e-01) (2, 1.03177666664123535156e+00) (3, 2.18782639503479003906e+00) (4, 1.85287117958068847656e+00) (5, 3.70362848043441772461e-01) (6, 4.70169275999069213867e-01) (7, 8.52194845676422119141e-01) (8, 1.38224288821220397949e-01) (9, 2.47800207138061523438e+00) (10, 2.15071618556976318359e-01) (11, 1.18993461132049560547e+00) (12, -5.50280690193176269531e-01) (13, 8.73811781406402587891e-01) (14, 6.53012180328369140625e+00) (15, 2.26303022354841232300e-02) (16, 2.25952610373497009277e-01) (0, 3.41500067710876464844e+00) (1, -1.65264201164245605469e+00) (2, 5.88842248916625976562e+00) (3, 4.91849333047866821289e-02) (4, 4.28874224424362182617e-01) (5, 4.31007176637649536133e-01) (6, 1.08798348903656005859e+00) (7, 5.64176857471466064453e-01) (8, 5.36628365516662597656e-01) (9, 4.48343992233276367188e-01) (10, 2.59157538414001464844e+00) (11, 2.25712031126022338867e-01) (12, 1.06676352024078369141e+00) (13, 5.49339354038238525391e-01) (14, 3.26973080635070800781e-01) (15, 2.60934114456176757812e+00) (16, 1.46051633358001708984e+00) (0, 1.53290903568267822266e+00) (1, 5.79664647579193115234e-01) (2, 2.38187551498413085938e+00) (3, 7.63415515422821044922e-01) (4, 8.79984557628631591797e-01) (5, 1.41226482391357421875e+00) (6, 7.64622867107391357422e-01) (7, 1.06837677955627441406e+00) (8, -2.29435038566589355469e+00) (9, -5.12932837009429931641e-01) (10, 1.29968142509460449219e+00) (11, 2.03391641378402709961e-01) (12, -8.27557623386383056641e-01) (13, -2.86559653282165527344e+00) (14, 6.01493239402770996094e-01) (15, 3.64887833595275878906e+00) (16, 5.68930506706237792969e-01) (0, 4.71756309270858764648e-01) (1, 1.10040867328643798828e+00) (2, 1.22201240062713623047e+00) (3, 1.56337425112724304199e-01) (4, 1.19093728065490722656e+00) (5, 1.03922438621520996094e+00) (6, 1.48940742015838623047e+00) (7, 1.05964231491088867188e+00) (8, 2.08446812629699707031e+00) (9, 1.47754359245300292969e+00) (10, 1.85317194461822509766e+00) (11, 1.45144164562225341797e+00) (12, 1.36229038238525390625e+00) (13, 6.40737414360046386719e-01) (14, 4.86483955383300781250e+00) (15, -1.66367888450622558594e-02) (16, -5.01355767250061035156e-01) (0, 1.59228205680847167969e+00) (1, 1.40197861194610595703e+00) (2, 1.58122813701629638672e+00) (3, 1.35562479496002197266e+00) (4, 6.58168554306030273438e-01) (5, -1.81312158703804016113e-01) (6, -2.20758175849914550781e+00) (7, -1.17768146097660064697e-01) (8, -4.83893585205078125000e+00) (9, 2.10844898223876953125e+00) (10, 3.16655606031417846680e-01) (11, 2.56441757082939147949e-02) (12, -3.99004012346267700195e-01) (13, -1.37925710678100585938e+01) (14, 9.13712918758392333984e-01) (15, 1.31771020889282226562e+01) (16, 2.63636827468872070312e+00) (0, 6.45683765411376953125e-01) (1, 1.37970995903015136719e+00) (2, 1.76937878131866455078e+00) (3, 1.18904805183410644531e+00) (4, 6.20622158050537109375e-01) (5, -1.53029605746269226074e-01) (6, 1.10527849197387695312e+00) (7, -2.20511227846145629883e-01) (8, 3.19324135780334472656e+00) (9, 1.47674987792968750000e+02) (10, 1.25037217140197753906e+00) (11, 4.91648882627487182617e-01) (12, 5.82624256610870361328e-01) (13, 2.99049353599548339844e+00) (14, 2.35713437199592590332e-01) (15, -2.80132859945297241211e-01) (16, 1.52517378330230712891e+00) (0, 2.04172086715698242188e+00) (1, 7.26659655570983886719e-01) (2, 3.24829387664794921875e+00) (3, 1.76461672782897949219e+00) (4, 1.17703914642333984375e+00) (5, 4.27086919546127319336e-01) (6, 6.32245659828186035156e-01) (7, 3.37971061468124389648e-01) (8, 4.82683390378952026367e-01) (9, -3.10724329948425292969e+00) (10, 4.23603296279907226562e-01) (11, 2.89764940738677978516e-01) (12, -4.10028517246246337891e-01) (13, 1.33212611079216003418e-01) (14, 9.99030947685241699219e-01) (15, 4.50418442487716674805e-01) (16, 2.25428962707519531250e+00) (0, 1.96846759319305419922e+00) (1, 9.46786105632781982422e-01) (2, 7.52699136734008789062e-01) (3, 1.23998141288757324219e+00) (4, 1.90199339389801025391e+00) (5, 1.84908294677734375000e+00) (6, 7.80321508646011352539e-02) (7, 5.36470532417297363281e-01) (8, 1.58454632759094238281e+00) (9, 6.37859642505645751953e-01) (10, 7.63214051723480224609e-01) (11, 9.56926286220550537109e-01) (12, -6.44374564290046691895e-02) (13, 4.88736838102340698242e-01) (14, 9.82244551181793212891e-01) (15, 1.00845825672149658203e+00) (16, 4.34533268213272094727e-01) (0, 6.42562448978424072266e-01) (1, 7.56985008716583251953e-01) (2, 3.91916346549987792969e+00) (3, -2.84086078405380249023e-01) (4, 1.70921206474304199219e+00) (5, 2.87011057138442993164e-01) (6, 5.28360009193420410156e-01) (7, -6.97436481714248657227e-02) (8, 5.15725016593933105469e-01) (9, -4.59077167510986328125e+00) (10, 1.32989585399627685547e+00) (11, 3.17522257566452026367e-01) (12, -1.46539425849914550781e+00) (13, -1.08778934478759765625e+01) (14, 5.73194772005081176758e-02) (15, 1.14569292068481445312e+01) (16, 1.86477863788604736328e+00) (0, 1.23183846473693847656e+00) (1, -7.78009463101625442505e-03) (2, 2.02512097358703613281e+00) (3, 1.80837881565093994141e+00) (4, 1.45902574062347412109e+00) (5, 1.37342107295989990234e+00) (6, -1.84639990329742431641e-02) (7, -4.79792524129152297974e-03) (8, -1.12152886390686035156e+00) (9, -2.71329450607299804688e+00) (10, 4.27527308464050292969e-01) (11, -1.32463559508323669434e-01) (12, -2.73702979087829589844e-01) (13, 3.54066997766494750977e-01) (14, 1.09578925184905529022e-03) (15, 6.44323706626892089844e-01) (16, 1.00443267822265625000e+00) (0, 5.13826704025268554688e+00) (1, 3.46231460571289062500e+00) (2, -9.10453319549560546875e+00) (3, 4.86527115106582641602e-01) (4, 9.35390412807464599609e-01) (5, 5.78505218029022216797e-01) (6, -5.65569922327995300293e-02) (7, -7.23408102989196777344e-01) (8, 8.69398891925811767578e-01) (9, -3.17288041114807128906e+00) (10, 8.22042644023895263672e-01) (11, -4.77045416831970214844e-01) (12, -7.87157237529754638672e-01) (13, -2.81646758317947387695e-01) (14, 1.47116690874099731445e-01) (15, 1.39409017562866210938e+00) (16, 3.05098128318786621094e+00) (0, 1.52457451820373535156e+00) (1, -2.25610345602035522461e-01) (2, 1.57815659046173095703e+00) (3, 6.20137095451354980469e-01) (4, -7.12294206023216247559e-02) (5, 3.80306333303451538086e-01) (6, 7.50863432884216308594e-01) (7, -1.30282506346702575684e-01) (8, 7.26407885551452636719e-01) (9, -1.47837328910827636719e+00) (10, 1.08730840682983398438e+00) (11, -5.01009747385978698730e-02) (12, 1.02320003509521484375e+00) (13, 3.36156398057937622070e-01) (14, -3.12924355268478393555e-01) (15, 1.44128370285034179688e+00) (16, 2.04026198387145996094e+00) (0, 5.84977984428405761719e-01) (1, -1.08586251735687255859e+00) (2, 3.05549287796020507812e+00) (3, 1.19972026348114013672e+00) (4, 4.32224750518798828125e+00) (5, -2.09217023849487304688e+00) (6, 5.06018936634063720703e-01) (7, -5.23493337631225585938e+00) (8, -2.56095638275146484375e+01) (9, -3.96521110534667968750e+01) (10, 1.21852600574493408203e+00) (11, -6.33545875549316406250e+00) (12, -1.83128607273101806641e+00) (13, 3.61712303161621093750e+01) (14, -4.75109100341796875000e+00) (15, 8.72249484062194824219e-01) (16, 1.34054412841796875000e+01) (0, -2.60736083984375000000e+00) (1, 1.41897940635681152344e+00) (2, 2.10495805740356445312e+00) (3, 4.24499422311782836914e-01) (4, 1.18052387237548828125e+00) (5, 2.88361519575119018555e-01) (6, 1.10320329666137695312e+00) (7, 4.69390273094177246094e-01) (8, -1.45100045204162597656e+00) (9, 2.81490702182054519653e-02) (10, 3.46154069900512695312e+00) (11, 4.98951315879821777344e-01) (12, -5.97802937030792236328e-01) (13, 1.56137502193450927734e+00) (14, 9.44986283779144287109e-01) (15, 1.42365827560424804688e+01) (16, 1.15710556507110595703e+00) (0, 5.52622509002685546875e+00) (1, 3.66082578897476196289e-01) (2, 8.14201474189758300781e-01) (3, 1.06733345985412597656e+00) (4, 1.60898423194885253906e+00) (5, 9.14603590965270996094e-01) (6, 1.03537607192993164062e+00) (7, 7.97198295593261718750e-01) (8, -5.22694778442382812500e+00) (9, -3.80218362808227539062e+00) (10, 8.03958296775817871094e-01) (11, 4.61199641227722167969e-01) (12, -9.92479991912841796875e+00) (13, -2.25397825241088867188e+00) (14, 2.90532350540161132812e+00) (15, 2.72063232421875000000e+02) (16, 7.66586005687713623047e-01) (0, 2.74758434295654296875e+00) (1, 1.24144002795219421387e-01) (2, 1.93123030662536621094e+00) (3, 7.57705643773078918457e-02) (4, 3.90214419364929199219e+00) (5, -2.67208069562911987305e-01) (6, 1.20575046539306640625e+00) (7, 7.96952128410339355469e-01) (8, 6.75528705120086669922e-01) (9, 6.83836564421653747559e-02) (10, 2.04938024282455444336e-01) (11, 4.98388171195983886719e-01) (12, -9.13403701782226562500e+00) (13, -6.15120935440063476562e+00) (14, 1.47377920150756835938e+00) (15, 4.49671030044555664062e+00) (16, 1.78099977970123291016e+00) (0, 3.39855122566223144531e+00) (1, 1.70818912982940673828e+00) (2, 1.15781009197235107422e+00) (3, 2.44412136077880859375e+01) (4, -1.33928024768829345703e+00) (5, -1.30668175220489501953e+00) (6, 9.03753042221069335938e-02) (7, 4.02309745550155639648e-01) (8, 1.72800585627555847168e-01) (9, -5.47275161743164062500e+00) (10, 1.75292885303497314453e+00) (11, 7.17245459556579589844e-01) (12, 4.67696964740753173828e-01) (13, 4.62510257959365844727e-01) (14, 5.15777111053466796875e-01) (15, 2.18971920013427734375e+00) (16, 6.76325380802154541016e-01) (0, 1.84267866611480712891e+00) (1, 2.35136437416076660156e+00) (2, 5.24032354354858398438e-01) (3, 3.04895162582397460938e+00) (4, 4.48302060365676879883e-01) (5, -1.69078183174133300781e+00) (6, 1.69380521774291992188e+00) (7, 1.91564095020294189453e+00) (8, -1.27647787332534790039e-01) (9, 6.65421485900878906250e-01) (10, 3.91368508338928222656e-01) (11, -4.54501882195472717285e-02) (12, 6.67540073394775390625e-01) (13, -1.01270473003387451172e+00) (14, 9.67604160308837890625e-01) (15, 1.17574787139892578125e+00) (16, 1.55662000179290771484e+00) (0, 3.62359404563903808594e-01) (1, 7.61964678764343261719e-01) (2, 3.86244249343872070312e+00) (3, 7.98216521739959716797e-01) (4, 1.43846786022186279297e+00) (5, 8.18224430084228515625e-01) (6, 8.78507673740386962891e-01) (7, 6.59593105316162109375e-01) (8, 5.41290104389190673828e-01) (9, 3.16526770591735839844e-01) (10, 8.17805290222167968750e-01) (11, 1.34209632873535156250e-01) (12, -9.05308187007904052734e-01) (13, 8.11396121978759765625e-01) (14, 1.05681669712066650391e+00) (15, 2.71782374382019042969e+00) (16, 1.64151799678802490234e+00) (0, 1.25529289245605468750e+00) (1, 2.29126000404357910156e+00) (2, 6.69385552406311035156e-01) (3, 1.47126758098602294922e+00) (4, 5.91110587120056152344e-01) (5, 1.49091454222798347473e-02) (6, 1.14215457439422607422e+00) (7, 4.66842561960220336914e-01) (8, 3.42954128980636596680e-01) (9, -2.77606109619140625000e+02) (10, 9.53886091709136962891e-01) (11, 6.62652254104614257812e-01) (12, -7.55487456917762756348e-02) (13, 3.45951229333877563477e-01) (14, 9.14603948593139648438e-01) (15, 4.16537582874298095703e-01) (16, 1.49847984313964843750e+00) (17, 1.37237203121185302734e+00) (18, 4.82233375310897827148e-01) (19, 5.73736190795898437500e+00) (20, 3.29642581939697265625e+00) (21, 4.37867611646652221680e-01) (22, 4.06491756439208984375e-01) (23, 1.28023430705070495605e-01) (24, 1.06260299682617187500e+00) (25, 1.63654223084449768066e-01) (26, -4.25572824478149414062e+00) (27, 1.94510865211486816406e+00) (28, 6.44561469554901123047e-01) (29, 1.22235083580017089844e+00) (30, 4.74238395690917968750e+00) (31, 4.16494178771972656250e+00) (32, 5.00855016708374023438e+00) (33, 1.57766014337539672852e-01) (34, 8.42624306678771972656e-01) (35, 2.89093375205993652344e-01) (36, 3.57728779315948486328e-01) (37, 1.02016675472259521484e+00) (38, 2.90627765655517578125e+00) (39, 2.68012285232543945312e+00) (40, 5.36725938320159912109e-01) (41, 8.47983717918395996094e-01) (17, 4.51894683837890625000e+01) (18, -7.28300690650939941406e-01) (19, 1.31625457763671875000e+02) (20, 5.02528961181640625000e+02) (21, -8.64234715700149536133e-02) (22, 4.43085575103759765625e+00) (23, 8.01245450973510742188e-01) (24, -1.38239526748657226562e+01) (25, 3.15218061208724975586e-01) (26, -1.45000000000000000000e+03) (27, 1.00060864257812500000e+03) (28, 1.35867512226104736328e+00) (29, 9.01713550090789794922e-01) (30, 3.24498710632324218750e+01) (31, 1.26307308673858642578e+00) (32, 8.49142700195312500000e+02) (33, 9.79325962066650390625e+00) (34, 7.14600145816802978516e-01) (35, 4.92631882429122924805e-01) (36, 1.47726809978485107422e+00) (37, 8.64307060837745666504e-02) (38, 4.03483062982559204102e-01) (39, 3.52680945396423339844e+00) (40, 7.89029312133789062500e+01) (41, 2.35516586303710937500e+01) (17, 9.15164852142333984375e+00) (18, 5.84184532165527343750e+01) (19, 4.42317230224609375000e+02) (20, 2.09614486694335937500e+02) (21, -1.67187821865081787109e+00) (22, 5.63396215438842773438e-01) (23, 5.86173176765441894531e-01) (24, -5.22097826004028320312e-01) (25, 1.85501062870025634766e+00) (26, -1.03938720703125000000e+03) (27, 8.59396362304687500000e+01) (28, -3.37568789720535278320e-01) (29, 6.57030403614044189453e-01) (30, 5.92028427124023437500e+00) (31, 1.00769710540771484375e+00) (32, 1.04688949584960937500e+01) (33, 5.38815784454345703125e+00) (34, 4.68006759881973266602e-01) (35, 1.52051106095314025879e-01) (36, 3.39429116249084472656e+00) (37, 7.10922479629516601562e-01) (38, 8.96301627159118652344e-01) (39, 1.28172731399536132812e+00) (40, 7.66384267807006835938e+00) (41, 1.91197514533996582031e+00) (17, 8.77174973487854003906e-01) (18, 4.29822236299514770508e-01) (19, 4.95219879150390625000e+01) (20, 7.46766723632812500000e+02) (21, 1.37224197387695312500e-01) (22, -3.83866995573043823242e-01) (23, 1.83693599700927734375e+00) (24, 2.00688228011131286621e-01) (25, 2.94806766510009765625e+00) (26, 5.78029155731201171875e-01) (27, 9.73952560424804687500e+01) (28, 3.75543594360351562500e-01) (29, 7.99350202083587646484e-01) (30, 4.04555988311767578125e+00) (31, 4.30539011955261230469e-01) (32, 4.43546981811523437500e+01) (33, 1.56736826896667480469e+00) (34, 3.97317111492156982422e-01) (35, 1.41484296321868896484e+00) (36, 9.89909350872039794922e-01) (37, 3.43454182147979736328e-01) (38, 7.86402404308319091797e-01) (39, 2.55437183380126953125e+00) (40, 1.23007333278656005859e+00) (41, 2.18790078163146972656e+00) (17, 1.52313077449798583984e+00) (18, 4.96031552553176879883e-01) (19, 1.96501281738281250000e+02) (20, 1.12067489624023437500e+02) (21, -6.31849348545074462891e-01) (22, 7.16603100299835205078e-01) (23, 3.65337193012237548828e-01) (24, 3.29797953367233276367e-01) (25, 5.20308434963226318359e-01) (26, -2.49366188049316406250e+01) (27, 4.73979522705078125000e+02) (28, 6.92535579204559326172e-01) (29, 1.31959867477416992188e+00) (30, 2.99043636322021484375e+01) (31, 9.20554161071777343750e-01) (32, 1.69869003295898437500e+01) (33, 7.19831585884094238281e-01) (34, 1.38650417327880859375e+00) (35, 9.27885830402374267578e-01) (36, 1.19008469581604003906e+00) (37, 1.34287551045417785645e-01) (38, 3.71620655059814453125e-01) (39, 1.34679508209228515625e+00) (40, 4.51105987548828125000e+02) (41, 1.50158262252807617188e+00) (17, 1.52046895027160644531e+00) (18, -2.14408516883850097656e-01) (19, 1.46930170059204101562e+00) (20, 9.82332153320312500000e+01) (21, -2.61092633008956909180e-02) (22, 3.58145761489868164062e+00) (23, 5.35221159458160400391e-01) (24, 8.67264151573181152344e-01) (25, 1.50238552093505859375e+01) (26, -8.94544646143913269043e-02) (27, 7.13276977539062500000e+01) (28, 5.72413265705108642578e-01) (29, 8.65197420120239257812e-01) (30, 1.56999051570892333984e+00) (31, 2.28282380104064941406e+00) (32, 4.71831436157226562500e+01) (33, 8.15622329711914062500e-01) (34, 4.40469801425933837891e-01) (35, 3.21409612894058227539e-01) (36, 1.66571044921875000000e+00) (37, 7.33137726783752441406e-01) (38, 1.40523040294647216797e+00) (39, 5.75018405914306640625e-01) (40, 1.45752966403961181641e+00) (41, 1.29077041149139404297e+00) (17, 7.24361648559570312500e+01) (18, 8.36073684692382812500e+00) (19, 2.01004348754882812500e+02) (20, 9.85016357421875000000e+02) (21, -9.17821004986763000488e-02) (22, 8.42041313648223876953e-01) (23, 6.23948633670806884766e-01) (24, -1.14293956756591796875e+01) (25, 1.10368895530700683594e+00) (26, -1.45000000000000000000e+03) (27, 5.71434936523437500000e+02) (28, 1.76102623343467712402e-01) (29, 1.06959021091461181641e+00) (30, 4.21255779266357421875e+00) (31, 1.49807167053222656250e+00) (32, 2.06222229003906250000e+02) (33, 1.51343393325805664062e+00) (34, -2.17775598168373107910e-01) (35, 3.03821653127670288086e-01) (36, 9.87870454788208007812e-01) (37, 6.03005170822143554688e-01) (38, 1.19366276264190673828e+00) (39, 4.58102703094482421875e+00) (40, 1.74243247509002685547e+00) (41, 1.86220912933349609375e+01) (17, 8.60017418861389160156e-01) (18, 9.60573792457580566406e-01) (19, 1.00849298095703125000e+03) (20, 2.41252716064453125000e+02) (21, -3.73554736375808715820e-01) (22, 1.99785679578781127930e-01) (23, 3.21066886186599731445e-01) (24, -2.25224733352661132812e-01) (25, 7.73243010044097900391e-01) (26, -1.08407888412475585938e+01) (27, 8.66667236328125000000e+02) (28, -1.57373979687690734863e-01) (29, 1.12126827239990234375e+00) (30, 2.39770507812500000000e+00) (31, 7.14285850524902343750e-01) (32, 4.63478088378906250000e+00) (33, 1.64954674243927001953e+00) (34, -2.01258510351181030273e-02) (35, 2.83749103546142578125e-01) (36, 1.05768609046936035156e+00) (37, -6.39394223690032958984e-02) (38, 4.44365262985229492188e-01) (39, 9.39582228660583496094e-01) (40, 1.25094389915466308594e+00) (41, 2.22935223579406738281e+00) (17, 6.14134728908538818359e-01) (18, 7.91691780090332031250e-01) (19, 1.16940379142761230469e+00) (20, 1.16039526462554931641e+00) (21, 5.13780340552330017090e-02) (22, 6.73738539218902587891e-01) (23, 7.09942162036895751953e-01) (24, 4.23557728528976440430e-01) (25, -1.55309855937957763672e-01) (26, 8.00892293453216552734e-01) (27, 1.25369369983673095703e+00) (28, 6.85006916522979736328e-01) (29, 9.87167775630950927734e-01) (30, 2.46249771118164062500e+00) (31, 1.03553950786590576172e+00) (32, 1.68953716754913330078e+00) (33, 4.15485143661499023438e-01) (34, 2.18286305665969848633e-01) (35, 1.29338726401329040527e-01) (36, 1.30966639518737792969e+00) (37, 6.23339176177978515625e-01) (38, 6.99447870254516601562e-01) (39, 1.56931519508361816406e+00) (40, 3.64357262849807739258e-01) (41, 1.55607688426971435547e+00) (17, 5.49126195907592773438e+00) (18, 3.95344924926757812500e+00) (19, 7.82447242736816406250e+00) (20, 1.50000000000000000000e+03) (21, -6.18936002254486083984e-01) (22, 2.53087925910949707031e+00) (23, 5.84641838073730468750e+00) (24, -1.42548203468322753906e+00) (25, 5.49294395446777343750e+01) (26, -1.13589572906494140625e+01) (27, 1.26928540039062500000e+03) (28, 2.08107888698577880859e-01) (29, 8.32555532455444335938e-01) (30, 1.51384613037109375000e+02) (31, 1.71081617474555969238e-01) (32, 1.48086206054687500000e+03) (33, 9.49642181396484375000e+00) (34, 6.95840895175933837891e-01) (35, 1.12738490104675292969e+00) (36, 1.84557020664215087891e+00) (37, 6.32229745388031005859e-01) (38, 1.23237955570220947266e+00) (39, 6.78551554679870605469e-01) (40, 2.57188415527343750000e+00) (41, 2.53627824783325195312e+00) (17, 5.28647065162658691406e-01) (18, 1.02440369129180908203e+00) (19, 2.61997039794921875000e+02) (20, 1.35974347591400146484e+00) (21, -8.52864384651184082031e-01) (22, 3.63017261028289794922e-01) (23, 3.03334325551986694336e-01) (24, -1.36462867259979248047e+00) (25, 4.99782890081405639648e-01) (26, -1.03436576843261718750e+02) (27, 2.41361379623413085938e+00) (28, 5.50101585686206817627e-02) (29, -4.92772907018661499023e-02) (30, 9.37710464000701904297e-01) (31, 4.58386659622192382812e-01) (32, 1.61740708351135253906e+00) (33, 1.27250313758850097656e+00) (34, 9.06508088111877441406e-01) (35, -3.09073567390441894531e-01) (36, 9.15181159973144531250e-01) (37, 2.63984221965074539185e-02) (38, 5.67344069480895996094e-01) (39, 1.26259005069732666016e+00) (40, 7.04681277275085449219e-01) (41, 2.98110508918762207031e+00) (17, 1.29549765586853027344e+00) (18, 1.28408944606781005859e+00) (19, 2.61071944236755371094e+00) (20, 7.76371669769287109375e+00) (21, 4.90438610315322875977e-01) (22, 2.59750914573669433594e+00) (23, 1.20254659652709960938e+00) (24, 2.79528915882110595703e-01) (25, 9.12997007369995117188e-01) (26, -2.40245628356933593750e+00) (27, 3.67135787010192871094e+00) (28, 3.71005922555923461914e-01) (29, 9.44873809814453125000e-01) (30, 7.08509033203125000000e+02) (31, 6.88535809516906738281e-01) (32, 5.91110191345214843750e+01) (33, 5.69817066192626953125e-01) (34, 3.58594417572021484375e-01) (35, 1.03097856044769287109e+00) (36, 1.48655903339385986328e+00) (37, 6.80341958999633789062e-01) (38, 1.22805058956146240234e+00) (39, 6.77707314491271972656e-01) (40, 7.53854334354400634766e-01) (41, 6.61642730236053466797e-01) (17, 3.14313945770263671875e+01) (18, 1.92630743980407714844e+00) (19, 6.06587314605712890625e+00) (20, 3.61500096321105957031e+00) (21, -2.32632458209991455078e-01) (22, 2.22241115570068359375e+00) (23, 1.32078433036804199219e+00) (24, -2.78089612722396850586e-01) (25, 1.76200842857360839844e+00) (26, -9.06037712097167968750e+00) (27, 1.63208043575286865234e+00) (28, -7.66409754753112792969e-01) (29, 6.81259930133819580078e-01) (30, 4.61364412307739257812e+00) (31, 7.13723659515380859375e-01) (32, 1.65086209774017333984e+00) (33, 1.09345877170562744141e+00) (34, 7.08493113517761230469e-01) (35, 8.46495449542999267578e-01) (36, 2.36311841011047363281e+00) (37, 2.80491679906845092773e-01) (38, 4.53496098518371582031e-01) (39, 9.19002354145050048828e-01) (40, 1.44093179702758789062e+00) (41, 2.55688548088073730469e+00) (17, 2.10104060173034667969e+00) (18, 9.31354165077209472656e-01) (19, 2.80259113311767578125e+01) (20, 1.46652246093750000000e+03) (21, -6.42737007141113281250e+00) (22, 6.26530587673187255859e-01) (23, 2.12858462333679199219e+00) (24, -6.07612967491149902344e-01) (25, 3.02769489288330078125e+01) (26, -9.93561889648437500000e+02) (27, 4.74315155029296875000e+02) (28, 3.18116098642349243164e-01) (29, 1.17786578834056854248e-01) (30, 1.35291690826416015625e+01) (31, -2.31742441654205322266e-01) (32, 5.69628486633300781250e+01) (33, 2.11377596855163574219e+00) (34, -1.76410996913909912109e+00) (35, 4.82164293527603149414e-01) (36, 3.89978861808776855469e+00) (37, 3.57182651758193969727e-01) (38, 7.21435129642486572266e-01) (39, 3.57765793800354003906e+00) (40, 1.44479274749755859375e+01) (41, 2.57606315612792968750e+00) (17, 1.22905850410461425781e+00) (18, 4.49408948421478271484e-01) (19, 8.41332580566406250000e+02) (20, 6.94222307205200195312e+00) (21, 2.33600831031799316406e+00) (22, 1.34168887138366699219e+00) (23, 1.16825997829437255859e+00) (24, 1.83222636580467224121e-01) (25, 1.00008666515350341797e+00) (26, -1.09608631134033203125e+01) (27, 1.06700506210327148438e+01) (28, 3.49802136421203613281e-01) (29, 1.44948816299438476562e+00) (30, 2.20843601226806640625e+00) (31, -3.95358711481094360352e-01) (32, 3.87719798088073730469e+00) (33, 4.24107551574707031250e+00) (34, 5.84503471851348876953e-01) (35, 1.47142064571380615234e+00) (36, 1.27765929698944091797e+00) (37, 6.86730504035949707031e-01) (38, 5.06751918792724609375e+00) (39, 2.24173617362976074219e+00) (40, 2.41504573822021484375e+00) (41, 2.18116745352745056152e-01) (17, 7.65160679817199707031e-01) (18, 1.09391963481903076172e+00) (19, 2.02113723754882812500e+01) (20, 5.76264343261718750000e+01) (21, -3.68363589048385620117e-01) (22, -1.14532196521759033203e+00) (23, 1.56541481018066406250e+01) (24, 1.11442017555236816406e+00) (25, 1.79646837711334228516e+00) (26, -1.45000000000000000000e+03) (27, 9.83893966674804687500e+00) (28, -7.67338275909423828125e-01) (29, 6.08768463134765625000e+00) (30, 4.14371185302734375000e+02) (31, 2.15049839019775390625e+00) (32, 1.31192266941070556641e+00) (33, 1.67331123352050781250e+00) (34, 3.73044037818908691406e+00) (35, 7.88451656699180603027e-02) (36, 5.34957981109619140625e+00) (37, -2.95553267002105712891e-01) (38, 1.30527138710021972656e+00) (39, 5.97850847244262695312e+00) (40, 1.61569919586181640625e+01) (41, 1.48830580711364746094e+00) (17, 2.06996135711669921875e+01) (18, 1.06510043144226074219e+00) (19, 2.72306243896484375000e+02) (20, 4.60843315124511718750e+01) (21, -1.74137032032012939453e+00) (22, 1.83785438537597656250e+00) (23, 2.90025919675827026367e-01) (24, -2.01044979095458984375e+01) (25, 1.19286060333251953125e+00) (26, -8.90003280639648437500e+01) (27, 2.98001308441162109375e+01) (28, 6.85750663280487060547e-01) (29, 6.58536553382873535156e-01) (30, 7.94795513153076171875e+00) (31, 3.70796352624893188477e-01) (32, 2.04510765075683593750e+01) (33, 2.51702833175659179688e+00) (34, 4.50871050357818603516e-01) (35, 4.05807822942733764648e-01) (36, 5.67528867721557617188e+00) (37, -1.01343747228384017944e-02) (38, 7.53295660018920898438e-01) (39, 1.84847033023834228516e+00) (40, 3.33951520919799804688e+00) (41, 3.43897399902343750000e+01) (17, 6.80496215820312500000e-01) (18, 2.81021189689636230469e+00) (19, 1.33205734252929687500e+02) (20, 5.95266456604003906250e+01) (21, -3.36748987436294555664e-01) (22, 1.09859542846679687500e+02) (23, 8.32874178886413574219e-01) (24, 3.68357785046100616455e-02) (25, 7.71576225757598876953e-01) (26, -1.31023349761962890625e+01) (27, 7.43147430419921875000e+01) (28, 5.41652202606201171875e-01) (29, 9.53982532024383544922e-01) (30, 3.00798249244689941406e+00) (31, 9.77408707141876220703e-01) (32, 9.25029235839843750000e+02) (33, 3.41038441658020019531e+00) (34, 4.19817090034484863281e-01) (35, 1.08254635334014892578e+00) (36, 1.03252756595611572266e+00) (37, 3.60817492008209228516e-01) (38, 4.60004389286041259766e-01) (39, 1.31482803821563720703e+00) (40, 4.56672954559326171875e+00) (41, 1.62126910686492919922e+00) (17, 1.08944237232208251953e+00) (18, 1.04050707817077636719e+00) (19, 3.70859283447265625000e+02) (20, 2.56290893554687500000e+01) (21, -2.64262199401855468750e-01) (22, 2.89243459701538085938e+00) (23, 1.14982700347900390625e+00) (24, -1.26469624042510986328e+00) (25, 1.31717967987060546875e+00) (26, -4.63172197341918945312e+00) (27, 3.44309921264648437500e+01) (28, 2.03147038817405700684e-01) (29, 8.10970008373260498047e-01) (30, 1.83037269115447998047e+00) (31, 2.55025458335876464844e+00) (32, 5.05184745788574218750e+00) (33, 7.54551467895507812500e+01) (34, 4.41911190748214721680e-01) (35, 2.33357146382331848145e-01) (36, 8.57790589332580566406e-01) (37, 9.50555801391601562500e-01) (38, 9.45012271404266357422e-01) (39, 1.57277297973632812500e+00) (40, 1.59567443847656250000e+02) (41, 3.28414583206176757812e+00) (17, 1.19354796409606933594e+00) (18, 2.40126252174377441406e+00) (19, 1.58111536502838134766e+00) (20, 4.99319076538085937500e+00) (21, -2.89633345603942871094e+00) (22, 6.05327308177947998047e-01) (23, -9.61238026618957519531e-01) (24, 5.07903456687927246094e-01) (25, 1.63328394293785095215e-01) (26, -1.01695451736450195312e+01) (27, 1.23946011066436767578e+00) (28, 4.56740766763687133789e-01) (29, 1.14677000045776367188e+00) (30, -2.04545080661773681641e-01) (31, 6.72500252723693847656e-01) (32, 9.38601255416870117188e-01) (33, 2.13876390457153320312e+00) (34, 8.20379555225372314453e-02) (35, -2.96619325876235961914e-01) (36, 6.19149982929229736328e-01) (37, 4.49159413576126098633e-01) (38, 4.18602794408798217773e-01) (39, 6.89736425876617431641e-01) (40, 6.23844385147094726562e-01) (41, 1.82722580432891845703e+00) (17, 8.82863402366638183594e-01) (18, 7.47105121612548828125e-01) (19, 1.53364586830139160156e+00) (20, 7.84731674194335937500e+00) (21, 5.36167323589324951172e-01) (22, 2.04057678580284118652e-01) (23, 1.50157701969146728516e+00) (24, -3.65785408020019531250e+00) (25, 1.19702005386352539062e+00) (26, -2.06554412841796875000e+00) (27, 2.44601726531982421875e+00) (28, 2.28862851858139038086e-01) (29, 2.09201708436012268066e-01) (30, 1.91846597194671630859e+00) (31, -2.96419411897659301758e-01) (32, 1.26857936382293701172e+00) (33, 4.56289672851562500000e+00) (34, 7.94675529003143310547e-01) (35, 7.41433322429656982422e-01) (36, 7.31985092163085937500e-01) (37, 7.64658689498901367188e-01) (38, 1.57588779926300048828e+00) (39, 9.29243922233581542969e-01) (40, 7.26494073867797851562e-01) (41, 2.92999339103698730469e+00) (17, -1.47515669465065002441e-01) (18, 1.89126029610633850098e-01) (19, 5.85087478160858154297e-01) (20, 1.21457755565643310547e+00) (21, -1.74014508724212646484e-01) (22, -2.96093672513961791992e-02) (23, 3.45901489257812500000e-01) (24, 9.09810185432434082031e-01) (25, 1.19400346279144287109e+00) (26, -1.01346099376678466797e+00) (27, 1.12716615200042724609e+00) (28, 1.30313968658447265625e+00) (29, 7.81816303730010986328e-01) (30, 9.65139746665954589844e-01) (31, 6.86701297760009765625e-01) (32, 8.37175011634826660156e-01) (33, 6.55657827854156494141e-01) (34, 3.22703689336776733398e-01) (35, 3.25598806142807006836e-01) (36, 1.21723103523254394531e+00) (37, 3.27745765447616577148e-01) (38, -4.29377555847167968750e-02) (39, 1.15967535972595214844e+00) (40, 1.85227647423744201660e-01) (41, 1.23876857757568359375e+00) (17, -2.06600999832153320312e+00) (18, 6.77226901054382324219e-01) (19, -4.67742843627929687500e+01) (20, -8.14017578125000000000e+02) (21, 1.69793057441711425781e+00) (22, -2.68883914947509765625e+01) (23, 2.26154670119285583496e-01) (24, 3.83631157875061035156e+00) (25, -1.92090284824371337891e+00) (26, 3.31521911621093750000e+02) (27, -4.08903732299804687500e+01) (28, 8.77485811710357666016e-01) (29, 1.11563193798065185547e+00) (30, -1.98999747633934020996e-01) (31, 1.46560406684875488281e+00) (32, -1.30863082885742187500e+02) (33, 1.08919477462768554688e+00) (34, 5.31127750873565673828e-01) (35, 7.05380737781524658203e-01) (36, 8.84434282779693603516e-01) (37, 1.15895462036132812500e+00) (38, 1.39365881681442260742e-01) (39, -7.12923034667968750000e+02) (40, 3.30485999584197998047e-01) (41, -1.24359881877899169922e+00) (17, 1.88727319240570068359e+00) (18, -3.90617936849594116211e-01) (19, -3.96891403198242187500e+01) (20, 1.10235142707824707031e+00) (21, 1.43633639812469482422e+00) (22, 4.18141663074493408203e-01) (23, -5.56657552719116210938e-01) (24, 2.17089354991912841797e-01) (25, 1.90751492977142333984e-01) (26, 8.06669330596923828125e+00) (27, -1.05357307434082031250e+02) (28, -1.70856893062591552734e-01) (29, -2.42283567786216735840e-01) (30, -2.52089004516601562500e+01) (31, -1.25587448477745056152e-01) (32, -6.70932412147521972656e-01) (33, 5.34450531005859375000e-01) (34, 3.68893593549728393555e-01) (35, 2.57315725088119506836e-01) (36, -8.82745161652565002441e-02) (37, 3.66346150636672973633e-01) (38, 1.39210450649261474609e+00) (39, -3.46340394020080566406e+00) (40, 4.64205414056777954102e-01) (41, 1.33024644851684570312e+00) (42, -3.06304597854614257812e+00) (43, -6.69011640548706054688e+00) (44, 3.90563338994979858398e-01) (45, 8.10519326478242874146e-03) (46, -5.11822080612182617188e+00) (47, -3.93573522567749023438e-01) (48, -8.33561801910400390625e+00) (49, -2.91110813617706298828e-01) (50, -5.88003683090209960938e+00) (51, -8.59484619140625000000e+02) (52, -3.76784881591796875000e+02) (53, -2.61858224868774414062e+00) (54, -4.21714639663696289062e+00) (55, -6.17295455932617187500e+00) (56, 1.87912300229072570801e-01) (57, -4.35190696716308593750e+01) (58, -7.22635040283203125000e+01) (59, -1.10832202148437500000e+03) (60, -6.33790075778961181641e-01) (61, -2.53666734695434570312e+00) (62, -5.61728858947753906250e+00) (63, -1.78939032554626464844e+00) (64, 7.60095953941345214844e-01) (65, 1.12981948852539062500e+01) (66, -9.29811706542968750000e+01) (42, 5.46715021133422851562e-01) (43, 5.69847822189331054688e-01) (44, 9.78328645229339599609e-01) (45, 1.93825733661651611328e+00) (46, 1.80131435394287109375e-01) (47, 2.36995756626129150391e-01) (48, 5.57234704494476318359e-01) (49, 9.30715978145599365234e-01) (50, 6.56977355480194091797e-01) (51, 1.17036545276641845703e+00) (52, 1.65493583679199218750e+01) (53, 1.14418098449707031250e+02) (54, 1.38100135326385498047e+00) (55, 1.79978811740875244141e+00) (56, -4.76824790239334106445e-02) (57, 1.98599696159362792969e+00) (58, 4.37519133090972900391e-01) (59, 9.17954981327056884766e-01) (60, 6.10888004302978515625e-01) (61, 4.48934108018875122070e-01) (62, 1.28290784358978271484e+00) (63, 7.69893348217010498047e-01) (64, -1.21644258499145507812e-01) (65, 2.02091002464294433594e+00) (66, 1.47518038749694824219e+00) (42, 2.21549057960510253906e+00) (43, 1.47755014896392822266e+00) (44, 9.04607534408569335938e-01) (45, 1.93212652206420898438e+00) (46, 5.81697631835937500000e+02) (47, 1.16990985870361328125e+01) (48, 4.24208831787109375000e+00) (49, 3.80190038681030273438e+00) (50, 7.37182373046875000000e+02) (51, 1.68412506103515625000e+02) (52, 1.19870157241821289062e+01) (53, 1.07694165039062500000e+03) (54, 2.69806551933288574219e+00) (55, 1.50000000000000000000e+03) (56, 4.13264846801757812500e+00) (57, 3.36356067657470703125e+00) (58, 9.16637134552001953125e+00) (59, 8.37190322875976562500e+01) (60, 4.87466201782226562500e+01) (61, 4.93702602386474609375e+00) (62, 2.01378078460693359375e+01) (63, 1.11455411911010742188e+01) (64, -2.79204893112182617188e+00) (65, -5.47547302246093750000e+01) (66, 1.22887458801269531250e+01) (42, 1.30791784667968750000e+03) (43, 2.62298812866210937500e+01) (44, 2.09468439221382141113e-01) (45, 2.50083755493164062500e+02) (46, 1.60219680786132812500e+02) (47, 1.50000000000000000000e+03) (48, 9.67605361938476562500e+01) (49, 4.89796051025390625000e+02) (50, 1.50000000000000000000e+03) (51, 1.50000000000000000000e+03) (52, 8.80956954956054687500e+01) (53, 1.50000000000000000000e+03) (54, 3.83013854980468750000e+02) (55, 1.43671032714843750000e+03) (56, 9.69394592285156250000e+02) (57, 4.72889953613281250000e+02) (58, 1.94174308776855468750e+01) (59, 1.30271386718750000000e+03) (60, 5.10420684814453125000e+02) (61, 3.47186981201171875000e+02) (62, 9.34720947265625000000e+02) (63, 1.10068457031250000000e+03) (64, 1.30281463265419006348e-01) (65, -4.93295860290527343750e+00) (66, 3.46269760131835937500e+01) (42, 4.91642112731933593750e+01) (43, 5.33552551269531250000e+02) (44, 5.90328454971313476562e-01) (45, 9.52051448822021484375e+00) (46, 1.50000000000000000000e+03) (47, 9.50941711425781250000e+02) (48, 2.57459888458251953125e+01) (49, 1.50000000000000000000e+03) (50, 1.50000000000000000000e+03) (51, 1.50000000000000000000e+03) (52, 1.50000000000000000000e+03) (53, 1.50000000000000000000e+03) (54, 8.94519592285156250000e+02) (55, 1.50000000000000000000e+03) (56, 3.25593933105468750000e+02) (57, 1.04696008300781250000e+03) (58, 4.99169769287109375000e+02) (59, 1.50000000000000000000e+03) (60, 1.25682929992675781250e+02) (61, 1.50000000000000000000e+03) (62, 8.71478820800781250000e+02) (63, 1.41824743652343750000e+03) (64, 1.47660747170448303223e-01) (65, -6.54196838378906250000e+02) (66, 6.74315795898437500000e+02) (42, 7.30400573730468750000e+02) (43, 8.78521118164062500000e+01) (44, -2.99980968236923217773e-01) (45, 6.96664489746093750000e+02) (46, 1.08164062500000000000e+03) (47, 2.54148040771484375000e+02) (48, 8.77503356933593750000e+01) (49, 1.50000000000000000000e+03) (50, 1.50000000000000000000e+03) (51, 1.50000000000000000000e+03) (52, 1.38855517578125000000e+03) (53, 1.50000000000000000000e+03) (54, 6.44337951660156250000e+02) (55, 1.50000000000000000000e+03) (56, 1.20287988281250000000e+03) (57, 1.21767126464843750000e+03) (58, 1.57720985412597656250e+01) (59, 1.50000000000000000000e+03) (60, 5.98493164062500000000e+02) (61, 8.71616271972656250000e+02) (62, 1.50000000000000000000e+03) (63, 8.09654052734375000000e+02) (64, -2.98828870058059692383e-01) (65, -1.48363922119140625000e+02) (66, 2.78185043334960937500e+01) (42, 1.38146996498107910156e+00) (43, 1.52210655212402343750e+01) (44, 4.46868085861206054688e+00) (45, 5.47125816345214843750e-01) (46, 1.47597980499267578125e+01) (47, 1.13728129863739013672e+00) (48, 1.61947326660156250000e+01) (49, 5.11636993408203125000e+02) (50, 1.12078659057617187500e+02) (51, 8.53837158203125000000e+02) (52, 3.19378448486328125000e+02) (53, 6.54014358520507812500e+01) (54, 2.67168462276458740234e-01) (55, 1.18868179321289062500e+02) (56, 6.40415191650390625000e+00) (57, 1.90237369537353515625e+01) (58, 7.09911804199218750000e+01) (59, 4.52342926025390625000e+02) (60, 9.89235019683837890625e+00) (61, 2.51388900756835937500e+02) (62, 2.25528564453125000000e+02) (63, 8.39653110504150390625e+00) (64, -1.29977673292160034180e-01) (65, -2.61964721679687500000e+01) (66, 3.80752258300781250000e+01) (42, 8.72733211517333984375e+00) (43, 2.33473911285400390625e+01) (44, 9.96633887290954589844e-01) (45, 2.78279137611389160156e+00) (46, 5.77533935546875000000e+02) (47, 2.35671925544738769531e+00) (48, 4.30342817306518554688e+00) (49, 3.90936393737792968750e+01) (50, 2.63923522949218750000e+02) (51, 3.61227798461914062500e+01) (52, 4.91803207397460937500e+01) (53, 4.12436920166015625000e+02) (54, 3.35875129699707031250e+00) (55, 5.67661621093750000000e+02) (56, 4.16136856079101562500e+01) (57, 8.43207702636718750000e+01) (58, 3.79400253295898437500e+00) (59, 1.50000000000000000000e+03) (60, 4.19501457214355468750e+01) (61, 6.83883819580078125000e+01) (62, 2.52231735229492187500e+02) (63, 2.54436454772949218750e+01) (64, -2.02823758125305175781e-01) (65, -3.73821502685546875000e+02) (66, 1.71690285205841064453e+00) (42, 1.97655029296875000000e+02) (43, 1.99873397827148437500e+02) (44, 1.09025037288665771484e+00) (45, -3.95337730646133422852e-01) (46, 1.06258105468750000000e+03) (47, 7.26568603515625000000e+00) (48, 2.40856113433837890625e+01) (49, 1.18957910156250000000e+03) (50, 1.15001220703125000000e+03) (51, 8.88641357421875000000e+02) (52, 1.02621972656250000000e+03) (53, 1.50000000000000000000e+03) (54, 6.37824829101562500000e+02) (55, 5.65435302734375000000e+02) (56, 2.00635086059570312500e+02) (57, 9.84585571289062500000e+02) (58, 2.45250167846679687500e+02) (59, 1.50000000000000000000e+03) (60, 7.24402221679687500000e+02) (61, 1.29428637695312500000e+03) (62, 1.50000000000000000000e+03) (63, 1.05334106445312500000e+02) (64, -5.26104569435119628906e-02) (65, -9.55947753906250000000e+02) (66, 3.15771972656250000000e+02) (42, 9.17190170288085937500e+00) (43, 1.52210197448730468750e+01) (44, 1.69271314144134521484e+00) (45, 7.43615150451660156250e+00) (46, 7.02103042602539062500e+01) (47, 1.52125000953674316406e+00) (48, 3.70207023620605468750e+00) (49, 9.30658111572265625000e+01) (50, 1.04308154296875000000e+03) (51, 1.11444799804687500000e+03) (52, 2.32567947387695312500e+02) (53, 5.49491088867187500000e+02) (54, 1.56831607818603515625e+01) (55, 6.06774978637695312500e+01) (56, 1.51874198913574218750e+01) (57, 3.08332328796386718750e+01) (58, 1.73196544647216796875e+01) (59, 5.02118133544921875000e+02) (60, 1.05576314926147460938e+01) (61, 4.66285610198974609375e+00) (62, 7.98061609268188476562e+00) (63, 2.60928344726562500000e+00) (64, 2.75750547647476196289e-01) (65, -1.59496475219726562500e+02) (66, 2.22882347106933593750e+01) (42, -1.74923276901245117188e+00) (43, -1.10075826644897460938e+01) (44, -2.03015255928039550781e+00) (45, -1.23970150947570800781e+00) (46, -6.25478210449218750000e+01) (47, -1.04309265136718750000e+02) (48, -9.15426790714263916016e-01) (49, -1.08980550765991210938e+01) (50, -2.73914459228515625000e+02) (51, -1.02693969726562500000e+03) (52, -2.94130821228027343750e+01) (53, -1.36453063964843750000e+03) (54, -6.65489959716796875000e+00) (55, -1.12295983886718750000e+03) (56, -2.52163467407226562500e+01) (57, -3.67252564430236816406e+00) (58, -1.12188520431518554688e+01) (59, -7.54635559082031250000e+02) (60, -1.40389537811279296875e+01) (61, -1.22546558380126953125e+01) (62, -2.93419532775878906250e+01) (63, -8.00353942871093750000e+02) (64, 1.32221345901489257812e+01) (65, 9.89620685577392578125e-01) (66, -1.42776422500610351562e+01) (42, 1.34708964824676513672e+00) (43, 2.17155122756958007812e+00) (44, 8.25753271579742431641e-01) (45, 1.65220350027084350586e-01) (46, 2.10327267646789550781e+00) (47, 1.35915172100067138672e+00) (48, 9.38926637172698974609e-01) (49, 2.90882873535156250000e+00) (50, 1.76888751983642578125e+01) (51, 5.49241209030151367188e+00) (52, 1.15447711944580078125e+00) (53, 1.10105741024017333984e+00) (54, 7.00972154736518859863e-02) (55, 6.53776228427886962891e-01) (56, 2.58105844259262084961e-01) (57, 8.42653214931488037109e-01) (58, 6.06581330299377441406e-01) (59, 4.88722419738769531250e+00) (60, 1.68203115463256835938e+00) (61, 1.17447221279144287109e+00) (62, 8.40898215770721435547e-01) (63, 1.30127680301666259766e+00) (64, 8.58352005481719970703e-01) (65, 5.33724248409271240234e-01) (66, 1.52868032455444335938e+00) (42, -6.96542859077453613281e-01) (43, -6.37499084472656250000e+01) (44, 2.14336618781089782715e-01) (45, -1.28041446208953857422e-01) (46, -1.23094329833984375000e+01) (47, -1.06533594131469726562e+01) (48, -2.74745631217956542969e+00) (49, -1.46375000000000000000e+03) (50, -3.57878387451171875000e+02) (51, -5.29712524414062500000e+01) (52, -3.91210144042968750000e+02) (53, -5.87839782714843750000e+02) (54, -3.06349658966064453125e+00) (55, -6.73640670776367187500e+01) (56, -1.21019573211669921875e+01) (57, -5.02025604248046875000e+00) (58, -1.22497844696044921875e+01) (59, -6.98923263549804687500e+01) (60, -3.43570709228515625000e+01) (61, -8.19284591674804687500e+01) (62, -1.86752960205078125000e+02) (63, -7.74888932704925537109e-01) (64, 1.22478711605072021484e+00) (65, 2.34894836425781250000e+02) (66, -2.15785198211669921875e+01) (42, 9.56265640258789062500e+00) (43, 7.13192510604858398438e+00) (44, 8.60101521015167236328e-01) (45, 8.56997609138488769531e-01) (46, 9.63734030723571777344e-01) (47, 8.61495971679687500000e-01) (48, 6.62908697128295898438e+00) (49, 1.02061347961425781250e+02) (50, 6.98078002929687500000e+01) (51, 1.75983638763427734375e+01) (52, 1.51431112289428710938e+01) (53, 1.05947105407714843750e+02) (54, 6.14814758300781250000e-01) (55, 2.93041198730468750000e+02) (56, 6.73506402969360351562e+00) (57, 5.12978134155273437500e+01) (58, 9.83079254627227783203e-01) (59, 2.71883153915405273438e+00) (60, 1.20709383487701416016e+00) (61, 7.39828491210937500000e+00) (62, 3.80909461975097656250e+01) (63, 8.69568526744842529297e-01) (64, 3.64590525627136230469e-01) (65, -1.78113136291503906250e+01) (66, 1.73438894748687744141e+00) (42, 1.79677314758300781250e+01) (43, 6.48493530273437500000e+02) (44, 1.39506661891937255859e+00) (45, 1.32080108642578125000e+02) (46, 1.50000000000000000000e+03) (47, 4.96643638610839843750e+01) (48, 9.46231079101562500000e+00) (49, 1.15716870117187500000e+03) (50, 1.50000000000000000000e+03) (51, 5.32976684570312500000e+02) (52, 1.50000000000000000000e+03) (53, 1.08157397460937500000e+03) (54, 2.00292053222656250000e+02) (55, 9.18159118652343750000e+02) (56, 2.11189056396484375000e+02) (57, 2.43996307373046875000e+02) (58, 5.00400360107421875000e+02) (59, 1.39215893554687500000e+03) (60, 1.20454536437988281250e+02) (61, 5.49637207031250000000e+02) (62, 5.48752014160156250000e+02) (63, 1.50000000000000000000e+03) (64, -3.65078210830688476562e-01) (65, -7.67261581420898437500e+01) (66, 5.75170776367187500000e+02) (42, 4.32874107360839843750e+00) (43, 2.73526144027709960938e+00) (44, 8.83237600326538085938e-01) (45, 5.84788382053375244141e-01) (46, 7.97277927398681640625e-01) (47, 3.53373837471008300781e+00) (48, 2.25671768188476562500e+00) (49, 8.22938728332519531250e+00) (50, 2.35734272003173828125e+01) (51, 1.09171539306640625000e+02) (52, 2.31489639282226562500e+02) (53, 1.05114151000976562500e+02) (54, 2.45895728468894958496e-01) (55, 4.85564880371093750000e+01) (56, 1.96479988098144531250e+00) (57, 1.88977699279785156250e+01) (58, 1.52729249000549316406e+00) (59, 3.46722503662109375000e+02) (60, 1.66354405879974365234e+00) (61, 1.89049015045166015625e+01) (62, 1.89638080596923828125e+01) (63, 2.88437187671661376953e-01) (64, 5.02766549587249755859e-01) (65, -2.92058849334716796875e+01) (66, 2.51425266265869140625e+00) (42, 2.49788665771484375000e+00) (43, 4.00356388092041015625e+00) (44, 1.04608368873596191406e+00) (45, 2.59386420249938964844e-01) (46, 9.97037708759307861328e-01) (47, 8.23726594448089599609e-01) (48, 2.80713100433349609375e+01) (49, 8.81038725376129150391e-01) (50, 5.03483414649963378906e-01) (51, 7.60154962539672851562e-01) (52, 2.27822041511535644531e+00) (53, 2.51690053939819335938e+00) (54, 3.48990380764007568359e-01) (55, 5.34604847431182861328e-01) (56, 9.55207407474517822266e-01) (57, 2.51030850410461425781e+00) (58, 1.01856088638305664062e+00) (59, 2.94038009643554687500e+00) (60, 1.60444366931915283203e+00) (61, 2.04217362403869628906e+00) (62, 8.50383877754211425781e-01) (63, -1.77490198612213134766e+00) (64, -1.11258602142333984375e+00) (65, 5.48804879188537597656e-01) (66, 7.01538503170013427734e-01) (42, 4.16905307769775390625e+00) (43, 2.46794104576110839844e+00) (44, 9.29242432117462158203e-01) (45, 3.98969769477844238281e-01) (46, 8.95114517211914062500e+00) (47, 1.67389547824859619141e+00) (48, 8.63846778869628906250e-01) (49, 2.33013565063476562500e+02) (50, 1.60321411132812500000e+02) (51, 6.37799119949340820312e+00) (52, 7.59138366699218750000e+02) (53, 2.30727752685546875000e+02) (54, 8.96646804809570312500e+01) (55, 1.21468910217285156250e+02) (56, 1.83977794647216796875e+00) (57, 4.02079439163208007812e+00) (58, 9.60519790649414062500e+01) (59, 2.44046478271484375000e+02) (60, 5.12561721801757812500e+01) (61, 8.67478576660156250000e+02) (62, 2.62700469970703125000e+02) (63, 4.32203292846679687500e+00) (64, -1.00612156093120574951e-02) (65, -2.91251735687255859375e+01) (66, 1.17404800415039062500e+02) (42, 5.48564374446868896484e-01) (43, -7.21689224243164062500e+00) (44, -2.08531796932220458984e-01) (45, 1.54847383499145507812e-01) (46, -5.72479581832885742188e+00) (47, 6.43935322761535644531e-01) (48, -6.19801092147827148438e+00) (49, -3.77670684814453125000e+02) (50, -5.14992614746093750000e+02) (51, -2.82712507247924804688e+00) (52, -4.00652984619140625000e+02) (53, -6.45468215942382812500e+01) (54, -1.81105291843414306641e+00) (55, -3.75684661865234375000e+01) (56, -5.41474819183349609375e-01) (57, -2.96577377319335937500e+01) (58, -4.50384187698364257812e+00) (59, -7.22381210327148437500e+01) (60, -1.53674287796020507812e+01) (61, -7.76166152954101562500e+01) (62, -1.87246856689453125000e+02) (63, -3.78080058097839355469e+00) (64, 8.56126785278320312500e-01) (65, 4.96419334411621093750e+01) (66, -8.42383098602294921875e+00) (42, -1.29291419982910156250e+01) (43, -5.95466003417968750000e+01) (44, 1.37126192450523376465e-01) (45, 2.20262742042541503906e+00) (46, -6.61380126953125000000e+02) (47, -5.05658626556396484375e+00) (48, -2.43566055297851562500e+01) (49, -1.45000000000000000000e+03) (50, -1.40006689453125000000e+03) (51, -9.20938491821289062500e+01) (52, -5.96137451171875000000e+02) (53, -1.25274072265625000000e+03) (54, -1.39513654708862304688e+01) (55, -4.44242584228515625000e+02) (56, -1.01040458679199218750e+01) (57, -2.19428756713867187500e+02) (58, -2.66963520050048828125e+01) (59, -1.45000000000000000000e+03) (60, -6.71045684814453125000e+01) (61, -6.93498535156250000000e+02) (62, -1.45000000000000000000e+03) (63, -1.80657333374023437500e+02) (64, -9.35722351074218750000e-01) (65, 8.61478515625000000000e+02) (66, -3.32734451293945312500e+01) (42, 1.84082984924316406250e+01) (43, 2.51158642768859863281e+00) (44, 3.24274301528930664062e+00) (45, 4.00748634338378906250e+00) (46, 8.43039932250976562500e+01) (47, 4.05058288574218750000e+00) (48, 1.50052433013916015625e+01) (49, 1.50000000000000000000e+03) (50, 1.32394302368164062500e+02) (51, 2.56274627685546875000e+02) (52, 2.31695968627929687500e+02) (53, 5.55130004882812500000e+02) (54, 1.27227544784545898438e+01) (55, 1.40381271362304687500e+02) (56, 8.35263824462890625000e+01) (57, 1.81735382080078125000e+01) (58, 8.22942352294921875000e+00) (59, 4.83875274658203125000e+02) (60, 2.09576549530029296875e+01) (61, 8.53031372070312500000e+02) (62, 5.29781616210937500000e+02) (63, 1.27479843139648437500e+02) (64, 9.02730077505111694336e-02) (65, -3.78172515869140625000e+02) (66, 8.27046871185302734375e+00) (42, 5.59866210937500000000e+02) (43, 5.80930290222167968750e+01) (44, 1.37121224403381347656e+00) (45, 1.50000000000000000000e+03) (46, 1.50000000000000000000e+03) (47, 1.44455163574218750000e+03) (48, 2.11697883605957031250e+01) (49, 1.50000000000000000000e+03) (50, 1.50000000000000000000e+03) (51, 1.50000000000000000000e+03) (52, 3.99137451171875000000e+02) (53, 1.50000000000000000000e+03) (54, 9.10262222290039062500e+01) (55, 1.50000000000000000000e+03) (56, 9.84665832519531250000e+02) (57, 1.42625976562500000000e+03) (58, 3.23390197753906250000e+01) (59, 1.50000000000000000000e+03) (60, 1.50000000000000000000e+03) (61, 7.44024047851562500000e+02) (62, 1.50000000000000000000e+03) (63, 3.22835754394531250000e+02) (64, -3.04582118988037109375e-01) (65, -2.01529932022094726562e+00) (66, 4.76517219543457031250e+01) (42, 4.50816774368286132812e+00) (43, 1.31764864921569824219e+00) (44, 1.36952829360961914062e+00) (45, 1.53704226016998291016e+00) (46, 8.82684803009033203125e+00) (47, 1.05357956886291503906e+00) (48, 1.17573297023773193359e+00) (49, 2.23099193572998046875e+01) (50, 4.92113494873046875000e+01) (51, 8.20204544067382812500e+00) (52, 1.01651924133300781250e+02) (53, 1.93505096435546875000e+02) (54, 5.20620965957641601562e+00) (55, 2.19286537170410156250e+01) (56, 6.63738429546356201172e-01) (57, 2.76553559303283691406e+00) (58, 1.32679879665374755859e+00) (59, 2.70901123046875000000e+02) (60, 2.35779953002929687500e+00) (61, 1.10268623352050781250e+02) (62, 4.10490684509277343750e+01) (63, 3.52371245622634887695e-01) (64, 2.61431634426116943359e-01) (65, -3.80822143554687500000e+02) (66, 1.86014544963836669922e+00) (42, 2.82798027992248535156e+00) (43, 2.58720844984054565430e-01) (44, 3.23131114244461059570e-01) (45, -3.59674301147460937500e+01) (46, -1.39454040527343750000e+01) (47, 5.42336583137512207031e-01) (48, -1.78989246487617492676e-01) (49, -8.49450969696044921875e+00) (50, -2.68481612205505371094e+00) (51, -8.32907287597656250000e+02) (52, -1.30147337913513183594e+00) (53, -5.17231845855712890625e+00) (54, 2.50557571649551391602e-01) (55, -7.53603816032409667969e-01) (56, -5.70838069915771484375e+00) (57, -4.13802772760391235352e-01) (58, -4.66927170753479003906e-01) (59, -2.36155738830566406250e+01) (60, -2.32482123374938964844e+00) (61, -1.24495434761047363281e+00) (62, -3.38032245635986328125e-01) (63, -3.98133575916290283203e-01) (64, 1.02562355995178222656e+00) (65, 3.46074790954589843750e+01) (66, -1.24452042579650878906e+00) (67, 1.07735058593750000000e+03) (68, -2.38696670532226562500e+02) (69, -1.15177270507812500000e+03) (70, -1.25125074386596679688e+01) (71, -2.71325683593750000000e+01) (72, -8.84342346191406250000e+01) (73, -1.45000000000000000000e+03) (74, -1.41974426269531250000e+03) (75, -6.60139404296875000000e+02) (76, -1.42032800292968750000e+03) (77, 3.49716567993164062500e+01) (78, -1.30000109863281250000e+03) (79, 1.94472381591796875000e+02) (80, -5.14484313964843750000e+02) (81, -3.04398284912109375000e+02) (82, -1.11297497558593750000e+03) (83, -1.45185314941406250000e+03) (84, -6.24096374511718750000e+02) (85, 1.34887039184570312500e+02) (86, 1.50000000000000000000e+03) (87, -1.45000000000000000000e+03) (88, -3.72415733337402343750e+01) (89, -6.23900573730468750000e+02) (90, 9.33569488525390625000e+01) (91, -4.79293121337890625000e+02) (67, 6.89447820186614990234e-01) (68, 1.18433423340320587158e-01) (69, 4.34834927320480346680e-01) (70, 2.14714312553405761719e+00) (71, 9.21973645687103271484e-01) (72, 1.30826723575592041016e+00) (73, 6.05453610420227050781e-01) (74, 1.09496355056762695312e+00) (75, 1.61254930496215820312e+00) (76, -3.85522097349166870117e-02) (77, 1.72148972749710083008e-01) (78, 7.82233834266662597656e-01) (79, 1.38416802883148193359e+00) (80, 7.11205601692199707031e-02) (81, 6.31361901760101318359e-01) (82, 9.83361244201660156250e-01) (83, 1.05470669269561767578e+00) (84, 1.24734771251678466797e+00) (85, 9.68985736370086669922e-01) (86, 4.38525557518005371094e-01) (87, 1.14082649230957031250e+02) (88, 6.55362129211425781250e-01) (89, 1.09482705593109130859e+00) (90, 1.00805389881134033203e+00) (91, 2.90484638214111328125e+01) (67, -1.11382775878906250000e+03) (68, 6.87270446777343750000e+02) (69, 1.50000000000000000000e+03) (70, 2.59475616455078125000e+02) (71, 2.00355224609375000000e+02) (72, 8.92994445800781250000e+02) (73, 1.50000000000000000000e+03) (74, 1.50000000000000000000e+03) (75, 2.88266784667968750000e+02) (76, 1.50000000000000000000e+03) (77, -3.26008819580078125000e+02) (78, 1.50000000000000000000e+03) (79, -6.11898315429687500000e+02) (80, 3.17626068115234375000e+02) (81, 4.44683380126953125000e+02) (82, 1.50000000000000000000e+03) (83, 1.50000000000000000000e+03) (84, 8.56752441406250000000e+02) (85, -2.20894027709960937500e+02) (86, -1.45000000000000000000e+03) (87, 1.50000000000000000000e+03) (88, 1.08332328796386718750e+02) (89, 8.57166076660156250000e+02) (90, -5.53267272949218750000e+02) (91, 9.24758300781250000000e+02) (67, -1.45185314941406250000e+03) (68, 1.37948669433593750000e+03) (69, 1.50000000000000000000e+03) (70, 2.90078765869140625000e+02) (71, 1.08684082031250000000e+03) (72, 1.50000000000000000000e+03) (73, 1.50000000000000000000e+03) (74, 1.50000000000000000000e+03) (75, 1.50000000000000000000e+03) (76, 1.50000000000000000000e+03) (77, -1.16923229980468750000e+03) (78, 1.50000000000000000000e+03) (79, -1.17512658691406250000e+03) (80, 1.50000000000000000000e+03) (81, 1.50000000000000000000e+03) (82, 1.50000000000000000000e+03) (83, 1.50000000000000000000e+03) (84, 1.50000000000000000000e+03) (85, -1.45000000000000000000e+03) (86, -1.45000000000000000000e+03) (87, 1.50000000000000000000e+03) (88, 1.22007759094238281250e+02) (89, 1.50000000000000000000e+03) (90, -1.25652539062500000000e+03) (91, 1.20845410156250000000e+03) (67, 1.08970629882812500000e+03) (68, -7.32069763183593750000e+02) (69, -3.05362426757812500000e+02) (70, -3.58288192749023437500e+01) (71, -2.91786742210388183594e+00) (72, -5.26043395996093750000e+01) (73, -1.45625000000000000000e+03) (74, -1.25082299804687500000e+03) (75, -1.02536877441406250000e+03) (76, -8.09701232910156250000e+02) (77, 1.80891466140747070312e+00) (78, -8.66991210937500000000e+02) (79, 2.58134368896484375000e+02) (80, -1.19120864868164062500e+01) (81, -2.28670959472656250000e+02) (82, -8.71349487304687500000e+02) (83, -1.45349841308593750000e+03) (84, -6.43461425781250000000e+02) (85, 2.58388153076171875000e+02) (86, 8.73037231445312500000e+02) (87, -1.45625000000000000000e+03) (88, -2.95672726631164550781e+00) (89, -9.23636718750000000000e+02) (90, 5.55309257507324218750e+01) (91, -8.29114562988281250000e+02) (67, -1.07977685546875000000e+03) (68, 1.30843048095703125000e+02) (69, 1.50000000000000000000e+03) (70, 6.59276428222656250000e+02) (71, 1.09083032226562500000e+03) (72, 2.00132408142089843750e+01) (73, 1.36293774414062500000e+03) (74, 1.50000000000000000000e+03) (75, 8.27241638183593750000e+02) (76, 3.95229858398437500000e+02) (77, -9.56352172851562500000e+02) (78, 1.50000000000000000000e+03) (79, -1.17850805664062500000e+03) (80, 1.05038769531250000000e+03) (81, 7.84371887207031250000e+02) (82, 1.31545520019531250000e+03) (83, 1.50000000000000000000e+03) (84, 8.17878112792968750000e+02) (85, -4.69404754638671875000e+02) (86, -1.45000000000000000000e+03) (87, 1.50000000000000000000e+03) (88, 2.13659286499023437500e+01) (89, 8.18087463378906250000e+02) (90, -5.84586753845214843750e+01) (91, 1.35882299804687500000e+03) (67, 1.82149231433868408203e+00) (68, 8.04027557373046875000e-01) (69, 2.56514549255371093750e+00) (70, 3.68631782531738281250e+01) (71, 1.28159105777740478516e+00) (72, 2.84673905372619628906e+00) (73, 8.68399143218994140625e+00) (74, 1.49606835842132568359e+00) (75, 3.18618035316467285156e+00) (76, 4.61900979280471801758e-02) (77, 1.04748320579528808594e+00) (78, 1.71600317955017089844e+00) (79, -1.53825521469116210938e-01) (80, 2.04234614968299865723e-01) (81, 1.37988579273223876953e+00) (82, 9.07207369804382324219e-01) (83, 4.92354059219360351562e+00) (84, 1.52402162551879882812e+00) (85, -2.17626428604125976562e+00) (86, -4.79430735111236572266e-01) (87, 8.85240173339843750000e+00) (88, 1.45457506179809570312e+00) (89, 9.15748238563537597656e-01) (90, 1.65207111835479736328e+00) (91, 7.87854790687561035156e-01) (67, 1.07026904296875000000e+03) (68, -4.26216308593750000000e+02) (69, -1.15192260742187500000e+03) (70, -7.23696289062500000000e+01) (71, -2.10360240936279296875e+01) (72, -1.46750707626342773438e+01) (73, -1.15283105468750000000e+03) (74, -1.45185314941406250000e+03) (75, -6.57078491210937500000e+02) (76, -1.11346093750000000000e+03) (77, 1.98969848632812500000e+02) (78, -1.30003027343750000000e+03) (79, 1.55021457672119140625e+01) (80, -4.10091339111328125000e+02) (81, -2.35600936889648437500e+02) (82, -1.03062451171875000000e+03) (83, -1.33908459472656250000e+03) (84, -5.46078002929687500000e+02) (85, 1.94347419738769531250e+01) (86, 1.47933422851562500000e+03) (87, -8.40022033691406250000e+02) (88, -1.44362020492553710938e+01) (89, -8.29513000488281250000e+02) (90, 6.76742095947265625000e+01) (91, -1.16910392761230468750e+02) (67, -1.95441894531250000000e+01) (68, 9.97469842433929443359e-01) (69, 6.45121145248413085938e+00) (70, 2.63797378540039062500e+01) (71, 2.29418563842773437500e+01) (72, 1.93408989906311035156e+00) (73, 2.14505462646484375000e+01) (74, 8.08255004882812500000e+00) (75, 1.30928745269775390625e+01) (76, 6.41426706314086914062e+00) (77, 4.89843308925628662109e-01) (78, 2.98046994209289550781e+00) (79, -4.81755211949348449707e-02) (80, 4.30950260162353515625e+00) (81, 1.54906916618347167969e+00) (82, 2.53699612617492675781e+00) (83, 3.15274562835693359375e+01) (84, 1.38464820384979248047e+00) (85, -8.66165041923522949219e-01) (86, 1.16253197193145751953e-01) (87, 2.01356959342956542969e+00) (88, 3.14380311965942382812e+00) (89, 7.78658270835876464844e-01) (90, -3.97845983505249023438e-01) (91, 9.49628162384033203125e+00) (67, 6.86960266113281250000e+02) (68, -4.25616638183593750000e+02) (69, -5.15339050292968750000e+02) (70, -1.22942190170288085938e+01) (71, -4.48542833328247070312e+00) (72, -1.41831636428833007812e+01) (73, -1.45000000000000000000e+03) (74, -8.64086914062500000000e+02) (75, -6.69144958496093750000e+02) (76, -4.06879730224609375000e+02) (77, 1.99356185913085937500e+02) (78, -5.34255310058593750000e+02) (79, 5.96398973464965820312e+00) (80, -2.34690216064453125000e+02) (81, -3.90730056762695312500e+01) (82, -9.31061767578125000000e+02) (83, -1.45185314941406250000e+03) (84, -7.16260681152343750000e+02) (85, 6.28369903564453125000e+01) (86, 6.85425964355468750000e+02) (87, -8.95364440917968750000e+02) (88, -1.01969451904296875000e+01) (89, -6.24524291992187500000e+02) (90, 7.63621711730957031250e+00) (91, -7.97522338867187500000e+02) (67, 2.09467773437500000000e+01) (68, -8.12858963012695312500e+00) (69, -4.72009544372558593750e+01) (70, -1.11136465072631835938e+01) (71, -2.76180938720703125000e+02) (72, -1.52081906795501708984e+00) (73, -6.14904113769531250000e+02) (74, -2.72685470581054687500e+01) (75, -5.43013274669647216797e-01) (76, -1.58798507690429687500e+02) (77, 8.66866302490234375000e+00) (78, -2.85720443725585937500e+01) (79, 3.66925835609436035156e+00) (80, -2.06264820098876953125e+01) (81, -1.87417495250701904297e+00) (82, -1.57753677368164062500e+02) (83, -8.00498107910156250000e+02) (84, -4.87725162506103515625e+00) (85, 8.77887070178985595703e-01) (86, 2.44182147979736328125e+01) (87, -2.72384765625000000000e+02) (88, -5.99512786865234375000e+01) (89, -1.20896892547607421875e+01) (90, 3.15975427627563476562e+00) (91, -1.89224609375000000000e+02) (67, -4.03861880302429199219e-01) (68, 1.70275354385375976562e+00) (69, 1.29432535171508789062e+00) (70, 6.09121561050415039062e-01) (71, 4.86903250217437744141e-01) (72, 1.24221634864807128906e+00) (73, 4.09479093551635742188e+00) (74, 4.65987175703048706055e-01) (75, 1.16787993907928466797e+00) (76, 8.79069924354553222656e-01) (77, 2.74255108088254928589e-02) (78, 7.60927438735961914062e-01) (79, 2.99941182136535644531e-01) (80, 1.30066251754760742188e+00) (81, 7.70029723644256591797e-01) (82, 5.33801555633544921875e-01) (83, 3.49704284667968750000e+01) (84, 7.21552550792694091797e-01) (85, -9.09373760223388671875e-02) (86, -3.90668243169784545898e-01) (87, 4.63584251403808593750e+01) (88, 4.67979460954666137695e-01) (89, 8.26386809349060058594e-01) (90, -2.43107169866561889648e-01) (91, 7.24482059478759765625e+00) (67, 4.11158370971679687500e+00) (68, 1.90310373902320861816e-01) (69, -1.87657058238983154297e+00) (70, -1.87629684805870056152e-01) (71, 4.43513333797454833984e-01) (72, -3.06029796600341796875e+00) (73, -3.39844083786010742188e+00) (74, -2.35048818588256835938e+00) (75, 1.52088081836700439453e+00) (76, -3.85892343521118164062e+00) (77, 1.93433380126953125000e+00) (78, -3.22257328033447265625e+00) (79, 7.17339754104614257812e+00) (80, 4.83103632926940917969e-01) (81, -7.73579597473144531250e+00) (82, -7.13250827789306640625e+00) (83, -1.25952713012695312500e+02) (84, 2.29644820094108581543e-01) (85, 1.47638881206512451172e+00) (86, 5.69006347656250000000e+00) (87, 6.00275062024593353271e-02) (88, 1.06976792216300964355e-01) (89, 5.54915964603424072266e-01) (90, 1.15133309364318847656e+00) (91, -5.54689884185791015625e-01) (67, 9.01912292480468750000e+02) (68, -3.37628860473632812500e+01) (69, -5.14991149902343750000e+02) (70, -5.53051900863647460938e+00) (71, -9.55644416809082031250e+00) (72, -8.88576812744140625000e+01) (73, -1.45000000000000000000e+03) (74, -1.18272766113281250000e+03) (75, -9.63118469238281250000e+02) (76, -7.92347045898437500000e+02) (77, 9.09217147827148437500e+01) (78, -1.43096350097656250000e+03) (79, 3.17456874847412109375e+01) (80, -1.83143020629882812500e+02) (81, -5.59485130310058593750e+01) (82, -6.64353210449218750000e+02) (83, -1.45185314941406250000e+03) (84, -1.75311737060546875000e+02) (85, 2.15104274749755859375e+01) (86, 1.50000000000000000000e+03) (87, -1.45000000000000000000e+03) (88, -1.43181438446044921875e+01) (89, -4.48603935241699218750e+01) (90, 6.70486373901367187500e+01) (91, -4.78577789306640625000e+02) (67, -4.05221343994140625000e+02) (68, 1.60311050415039062500e+01) (69, 8.09391975402832031250e+00) (70, 7.86275243759155273438e+00) (71, 4.42490053176879882812e+00) (72, 9.49773406982421875000e+00) (73, 3.31257080078125000000e+02) (74, 4.35025177001953125000e+01) (75, 1.29976472854614257812e+01) (76, 1.03653633117675781250e+02) (77, 2.11618989706039428711e-01) (78, 4.12318572998046875000e+02) (79, -1.87641868591308593750e+01) (80, 9.16583061218261718750e+00) (81, 5.29595279693603515625e+00) (82, 1.03068443298339843750e+02) (83, 4.91111785888671875000e+02) (84, 8.38807296752929687500e+00) (85, -1.41806545257568359375e+01) (86, -8.85748062133789062500e+01) (87, 4.18373504638671875000e+02) (88, 2.14658985137939453125e+01) (89, 4.52188453674316406250e+01) (90, -3.73642265796661376953e-01) (91, 5.65824966430664062500e+01) (67, -7.02929458618164062500e+01) (68, 6.62819337844848632812e+00) (69, 7.93545246124267578125e+00) (70, 2.29767608642578125000e+00) (71, 1.51371252536773681641e+00) (72, 9.42497253417968750000e+00) (73, 3.28394500732421875000e+02) (74, 7.89672851562500000000e+01) (75, 7.10459899902343750000e+01) (76, 4.29477005004882812500e+01) (77, -3.15226644277572631836e-01) (78, 2.46284255981445312500e+02) (79, -7.14542484283447265625e+00) (80, 2.46961593627929687500e+00) (81, 5.38517236709594726562e+00) (82, 1.87358837127685546875e+01) (83, 8.20798873901367187500e+01) (84, 8.39877796173095703125e+00) (85, -1.37734661102294921875e+01) (86, -3.68265075683593750000e+01) (87, 1.74720703125000000000e+02) (88, 9.97382926940917968750e+00) (89, 3.39614605903625488281e+00) (90, -1.76186656951904296875e+00) (91, 3.05985748291015625000e+02) (67, 7.79723942279815673828e-01) (68, 5.33985078334808349609e-01) (69, 7.47195005416870117188e-01) (70, 8.26776266098022460938e-01) (71, 8.35927605628967285156e-01) (72, 7.44281649589538574219e-01) (73, 4.37673425674438476562e+00) (74, 4.09784466028213500977e-01) (75, 1.33803474903106689453e+00) (76, 6.12797200679779052734e-01) (77, 4.01113957166671752930e-01) (78, 1.61552011966705322266e+00) (79, 1.26494991779327392578e+00) (80, 8.15028727054595947266e-01) (81, 2.26144820451736450195e-01) (82, 4.20656085014343261719e-01) (83, 1.20257818698883056641e+00) (84, 1.93554353713989257812e+00) (85, -7.24268674850463867188e-01) (86, 5.83429150283336639404e-02) (87, 1.36351585388183593750e+00) (88, 8.14274370670318603516e-01) (89, 4.55347508192062377930e-01) (90, 7.80109241604804992676e-02) (91, 1.37348771095275878906e+00) (67, 7.77231384277343750000e+02) (68, -5.55374412536621093750e+01) (69, -2.95544891357421875000e+02) (70, -5.23454284667968750000e+00) (71, -2.45244567871093750000e+02) (72, -1.91858261108398437500e+02) (73, -1.45000000000000000000e+03) (74, -6.77135192871093750000e+02) (75, -1.23948010253906250000e+03) (76, -9.32673522949218750000e+02) (77, 1.12137641906738281250e+02) (78, -7.20769836425781250000e+02) (79, 2.07741889953613281250e+01) (80, -1.23966056823730468750e+02) (81, -1.69170501708984375000e+02) (82, -4.06681976318359375000e+02) (83, -1.45185314941406250000e+03) (84, -7.36888656616210937500e+01) (85, 3.09265689849853515625e+01) (86, 9.55921936035156250000e+02) (87, -1.08060668945312500000e+03) (88, -3.02140350341796875000e+01) (89, -7.36455917358398437500e+01) (90, 1.03616722106933593750e+02) (91, -7.64109130859375000000e+02) (67, -4.83882308006286621094e-01) (68, 2.25693454742431640625e+01) (69, 9.12014245986938476562e-01) (70, 1.92157983779907226562e+00) (71, 5.44907689094543457031e-01) (72, 1.68179452419281005859e+00) (73, 1.13718185424804687500e+02) (74, 2.02904796600341796875e+00) (75, 1.97046256065368652344e+00) (76, 1.64356040954589843750e+00) (77, 2.94867426156997680664e-01) (78, 2.79364776611328125000e+00) (79, -5.53229153156280517578e-01) (80, 8.38842570781707763672e-01) (81, 6.22961044311523437500e-01) (82, 2.09956169128417968750e+00) (83, 2.54886398315429687500e+02) (84, 2.33702731132507324219e+00) (85, -9.67839956283569335938e-01) (86, -4.92455139756202697754e-02) (87, 2.02863101959228515625e+01) (88, -1.35533228516578674316e-01) (89, 2.29679608345031738281e+00) (90, 2.56365627050399780273e-01) (91, 7.07144088745117187500e+01) (67, 1.07508105468750000000e+03) (68, -5.02658721923828125000e+02) (69, -8.49392761230468750000e+02) (70, -1.20129222869873046875e+01) (71, -1.78081665039062500000e+01) (72, -3.54302864074707031250e+01) (73, -1.45000000000000000000e+03) (74, -1.45185314941406250000e+03) (75, -1.45185314941406250000e+03) (76, -1.45185314941406250000e+03) (77, 1.16729040527343750000e+03) (78, -1.24161730957031250000e+03) (79, 1.06596534729003906250e+02) (80, -6.46754503250122070312e+00) (81, -4.56875915527343750000e+01) (82, -5.60341064453125000000e+02) (83, -1.45185314941406250000e+03) (84, -7.13785034179687500000e+02) (85, 4.85415153503417968750e+01) (86, 1.50000000000000000000e+03) (87, -1.45000000000000000000e+03) (88, -7.52475967407226562500e+01) (89, -4.63125953674316406250e+01) (90, 5.86929464340209960938e+00) (91, -9.16059646606445312500e+01) (67, 9.44178771972656250000e+02) (68, -6.42867309570312500000e+02) (69, -8.54481994628906250000e+02) (70, -3.03213043212890625000e+01) (71, -1.14752092361450195312e+01) (72, -1.07157470703125000000e+02) (73, -1.45000000000000000000e+03) (74, -1.14784814453125000000e+03) (75, -1.85366477966308593750e+01) (76, -1.25893994140625000000e+03) (77, 9.36470260620117187500e+01) (78, -7.68411560058593750000e+02) (79, 1.38857055664062500000e+02) (80, -3.38199340820312500000e+02) (81, -1.96819503784179687500e+02) (82, -7.17381530761718750000e+02) (83, -9.72865478515625000000e+02) (84, -7.58818359375000000000e+02) (85, 8.78025970458984375000e+01) (86, 1.04379882812500000000e+03) (87, -1.45000000000000000000e+03) (88, -3.20192298889160156250e+01) (89, -2.00483062744140625000e+02) (90, 1.80116844177246093750e+01) (91, -1.22013208007812500000e+03) (67, 2.10383400321006774902e-01) (68, 7.05155730247497558594e-01) (69, 1.08772397041320800781e+00) (70, 1.11303365230560302734e+00) (71, 1.24478626251220703125e+00) (72, 8.75009596347808837891e-01) (73, 2.26470828056335449219e+00) (74, 8.64265382289886474609e-01) (75, 9.70306396484375000000e-01) (76, 1.37390351295471191406e+00) (77, 7.31856405735015869141e-01) (78, 8.28265309333801269531e-01) (79, 5.51426820456981658936e-02) (80, 7.98194229602813720703e-01) (81, 1.14710497856140136719e+00) (82, 9.98233377933502197266e-01) (83, 9.77336347103118896484e-01) (84, 1.44928944110870361328e+00) (85, 2.58185714483261108398e-01) (86, 5.46771824359893798828e-01) (87, 9.94761645793914794922e-01) (88, 8.44614088535308837891e-01) (89, 7.74968266487121582031e-01) (90, -4.20943319797515869141e-01) (91, 6.49009799957275390625e+00) (67, 1.45966517925262451172e+00) (68, 3.84365409612655639648e-01) (69, -7.54255890846252441406e-01) (70, -7.81663036346435546875e+00) (71, 2.20347070693969726562e+00) (72, -1.86359107494354248047e+00) (73, -1.16280043125152587891e+00) (74, -8.59217762947082519531e-01) (75, 7.58792459964752197266e-01) (76, -5.39939403533935546875e-01) (77, 9.41960096359252929688e-01) (78, 3.46818603575229644775e-02) (79, 7.68740952014923095703e-01) (80, -8.70995759963989257812e-01) (81, -1.10402119159698486328e+00) (82, -1.58064067363739013672e+00) (83, -4.45358753204345703125e-02) (84, -4.28692430257797241211e-01) (85, 1.89787483215332031250e+00) (86, 1.64464116096496582031e+00) (87, 6.10788643360137939453e-01) (88, -7.31892871856689453125e+00) (89, 3.40917140245437622070e-01) (90, 1.78346848487854003906e+00) (91, -6.70624673366546630859e-01) (67, 1.50000000000000000000e+03) (68, -7.96223632812500000000e+02) (69, -1.45000000000000000000e+03) (70, -7.20942230224609375000e+01) (71, -1.60918136596679687500e+02) (72, -2.13627914428710937500e+02) (73, -1.45000000000000000000e+03) (74, -1.45185314941406250000e+03) (75, -9.73629943847656250000e+02) (76, -1.45185314941406250000e+03) (77, 4.77716522216796875000e+02) (78, -1.45185314941406250000e+03) (79, 9.10436340332031250000e+02) (80, -1.14573999023437500000e+03) (81, -1.11353356933593750000e+03) (82, -1.45185314941406250000e+03) (83, -1.45185314941406250000e+03) (84, -9.58054321289062500000e+02) (85, 1.10211938476562500000e+03) (86, 1.50000000000000000000e+03) (87, -1.45000000000000000000e+03) (88, -1.80429092407226562500e+02) (89, -1.28893713378906250000e+03) (90, 1.23547706604003906250e+02) (91, -7.96773193359375000000e+02) (92, 1.47583837890625000000e+03) (93, -7.25431884765625000000e+02) (94, -1.45000000000000000000e+03) (95, -1.20379296875000000000e+03) (96, 1.93556118011474609375e+01) (97, -7.25902954101562500000e+02) (98, -1.45000000000000000000e+03) (99, 1.50000000000000000000e+03) (100, -1.45000000000000000000e+03) (101, 9.59165405273437500000e+02) (102, 9.59956787109375000000e+02) (103, -1.45000000000000000000e+03) (104, 1.36672387695312500000e+03) (105, 1.50000000000000000000e+03) (106, -1.45000000000000000000e+03) (107, -1.45000000000000000000e+03) (108, -1.45000000000000000000e+03) (109, 1.50000000000000000000e+03) (110, -1.45000000000000000000e+03) (111, 1.50000000000000000000e+03) (112, 5.17900146484375000000e+02) (113, -1.45000000000000000000e+03) (114, 1.50000000000000000000e+03) (115, 1.47632421875000000000e+03) (116, -1.45000000000000000000e+03) (92, 1.50000000000000000000e+03) (93, -1.04812278747558593750e+02) (94, -1.45000000000000000000e+03) (95, -8.27586914062500000000e+02) (96, 5.16419219970703125000e+01) (97, -8.28340820312500000000e+02) (98, -1.45000000000000000000e+03) (99, 1.22257714843750000000e+03) (100, -1.45000000000000000000e+03) (101, 1.09273168945312500000e+03) (102, 6.34938964843750000000e+02) (103, -1.45000000000000000000e+03) (104, 1.50000000000000000000e+03) (105, 1.50000000000000000000e+03) (106, -1.45000000000000000000e+03) (107, -1.45000000000000000000e+03) (108, -1.45000000000000000000e+03) (109, 1.50000000000000000000e+03) (110, -1.45000000000000000000e+03) (111, 8.83027832031250000000e+02) (112, 1.01836791992187500000e+03) (113, -1.45000000000000000000e+03) (114, 1.50000000000000000000e+03) (115, 1.01822021484375000000e+03) (116, -1.45000000000000000000e+03) (92, 1.50000000000000000000e+03) (93, -1.45000000000000000000e+03) (94, -1.45000000000000000000e+03) (95, -1.45000000000000000000e+03) (96, 2.56533630371093750000e+02) (97, -1.45000000000000000000e+03) (98, -1.45000000000000000000e+03) (99, 1.50000000000000000000e+03) (100, -1.45000000000000000000e+03) (101, 1.50000000000000000000e+03) (102, 1.50000000000000000000e+03) (103, -1.45000000000000000000e+03) (104, 1.50000000000000000000e+03) (105, 1.50000000000000000000e+03) (106, -1.45000000000000000000e+03) (107, -1.45000000000000000000e+03) (108, -1.45000000000000000000e+03) (109, 1.50000000000000000000e+03) (110, -1.04781201171875000000e+03) (111, 1.50000000000000000000e+03) (112, 1.50000000000000000000e+03) (113, -1.45000000000000000000e+03) (114, 1.50000000000000000000e+03) (115, 1.50000000000000000000e+03) (116, -1.45000000000000000000e+03) (92, 8.65068817138671875000e+01) (93, -7.17843872070312500000e+02) (94, -3.13108428955078125000e+02) (95, -1.15524444580078125000e+01) (96, 1.57463865280151367188e+01) (97, -1.05202684402465820312e+01) (98, -1.56381011962890625000e+02) (99, 3.58213233947753906250e+01) (100, -5.01997900009155273438e+00) (101, 1.56770334243774414062e+01) (102, 4.32419109344482421875e+00) (103, -3.73830261230468750000e+01) (104, 4.92655420303344726562e+00) (105, 3.60091285705566406250e+01) (106, -6.02540779113769531250e+01) (107, -2.47377090454101562500e+01) (108, -9.04966506958007812500e+01) (109, 7.86319946289062500000e+02) (110, -5.73594322204589843750e+01) (111, 3.60803031921386718750e+01) (112, 2.41689052581787109375e+01) (113, -2.49975013732910156250e+01) (114, 2.44780769348144531250e+01) (115, 2.05620155334472656250e+01) (116, -1.45000000000000000000e+03) (92, 1.50000000000000000000e+03) (93, -1.44286157226562500000e+03) (94, -1.45000000000000000000e+03) (95, -1.45000000000000000000e+03) (96, 4.60328582763671875000e+02) (97, -1.45000000000000000000e+03) (98, -1.45000000000000000000e+03) (99, 1.50000000000000000000e+03) (100, -1.45000000000000000000e+03) (101, 1.50000000000000000000e+03) (102, 1.20482519531250000000e+03) (103, -1.45000000000000000000e+03) (104, 1.50000000000000000000e+03) (105, 1.50000000000000000000e+03) (106, -1.45000000000000000000e+03) (107, -1.45000000000000000000e+03) (108, -1.45000000000000000000e+03) (109, 1.50000000000000000000e+03) (110, -7.53921936035156250000e+02) (111, 1.50000000000000000000e+03) (112, 1.50000000000000000000e+03) (113, -1.45000000000000000000e+03) (114, 1.50000000000000000000e+03) (115, 1.50000000000000000000e+03) (116, -1.45000000000000000000e+03) (92, -6.96213865280151367188e+00) (93, 1.43938110351562500000e+02) (94, 5.12503585815429687500e+01) (95, 4.31192207336425781250e+00) (96, -3.12755918502807617188e+00) (97, 4.56487941741943359375e+00) (98, 2.04633464813232421875e+01) (99, -4.17507839202880859375e+00) (100, 5.78441190719604492188e+00) (101, -1.22705817222595214844e+00) (102, -6.40512406826019287109e-01) (103, 9.99797897338867187500e+01) (104, 9.68866884708404541016e-01) (105, -1.12437715530395507812e+01) (106, 4.08722305297851562500e+01) (107, 4.11084938049316406250e+01) (108, 2.10465278625488281250e+01) (109, -1.63785877227783203125e+01) (110, 5.70625495910644531250e+00) (111, -1.13620443344116210938e+01) (112, -3.87468290328979492188e+00) (113, 4.89169921875000000000e+01) (114, -1.07843589782714843750e+01) (115, -7.15687227249145507812e+00) (116, 1.18958911132812500000e+03) (92, -7.51269245147705078125e+00) (93, 9.62647857666015625000e+01) (94, 4.05499839782714843750e+01) (95, 4.35204839706420898438e+00) (96, -1.92289028167724609375e+01) (97, 3.77569651603698730469e+00) (98, 1.72315616607666015625e+01) (99, -2.45716452598571777344e+00) (100, 1.15124568939208984375e+01) (101, -6.44506216049194335938e+00) (102, -9.75899457931518554688e-01) (103, 1.16611274719238281250e+02) (104, -3.87874174118041992188e+00) (105, -1.44150123596191406250e+01) (106, 4.87377319335937500000e+01) (107, 9.11874580383300781250e+00) (108, 2.03242549896240234375e+01) (109, -2.80783100128173828125e+01) (110, 9.59170150756835937500e+00) (111, -5.63382959365844726562e+00) (112, -6.82812452316284179688e+00) (113, 1.15916481018066406250e+02) (114, -5.25376558303833007812e+00) (115, -3.10341143608093261719e+00) (116, 7.57718444824218750000e+02) (92, 1.50000000000000000000e+03) (93, -7.25735351562500000000e+02) (94, -1.45000000000000000000e+03) (95, -1.45000000000000000000e+03) (96, 2.30153839111328125000e+02) (97, -1.30680517578125000000e+03) (98, -1.45000000000000000000e+03) (99, 1.50000000000000000000e+03) (100, -1.45000000000000000000e+03) (101, 1.50000000000000000000e+03) (102, 1.08612255859375000000e+03) (103, -1.45000000000000000000e+03) (104, 1.50000000000000000000e+03) (105, 1.50000000000000000000e+03) (106, -1.45000000000000000000e+03) (107, -1.45000000000000000000e+03) (108, -1.45000000000000000000e+03) (109, 1.50000000000000000000e+03) (110, -1.45000000000000000000e+03) (111, 1.50000000000000000000e+03) (112, 1.01788122558593750000e+03) (113, -1.45000000000000000000e+03) (114, 1.50000000000000000000e+03) (115, 1.50000000000000000000e+03) (116, -1.25080151367187500000e+03) (92, 1.01787353515625000000e+03) (93, -7.31109619140625000000e+01) (94, -3.87927459716796875000e+02) (95, -7.26628784179687500000e+02) (96, 3.28929595947265625000e+02) (97, -3.85266204833984375000e+02) (98, -1.45000000000000000000e+03) (99, 2.06897315979003906250e+01) (100, -1.45000000000000000000e+03) (101, 6.34352905273437500000e+02) (102, 6.34221679687500000000e+02) (103, -1.45000000000000000000e+03) (104, 5.46364624023437500000e+02) (105, 1.50000000000000000000e+03) (106, -1.45000000000000000000e+03) (107, -1.28174194335937500000e+03) (108, -1.45000000000000000000e+03) (109, 1.50000000000000000000e+03) (110, -2.18428440093994140625e+01) (111, 5.05437042236328125000e+02) (112, 4.76344818115234375000e+02) (113, -1.45000000000000000000e+03) (114, 1.48335861206054687500e+02) (115, 1.01782299804687500000e+03) (116, -1.45000000000000000000e+03) (92, 1.50000000000000000000e+03) (93, -4.32743301391601562500e+01) (94, -2.91749298095703125000e+02) (95, -2.43323013305664062500e+02) (96, 1.44264541625976562500e+02) (97, -2.42733993530273437500e+02) (98, -1.45000000000000000000e+03) (99, 6.93791992187500000000e+02) (100, -1.45000000000000000000e+03) (101, 1.21570947265625000000e+03) (102, 1.49187026977539062500e+02) (103, -1.45000000000000000000e+03) (104, 4.55737792968750000000e+02) (105, 1.13130590820312500000e+03) (106, -1.45000000000000000000e+03) (107, -1.45000000000000000000e+03) (108, -1.45000000000000000000e+03) (109, 1.50000000000000000000e+03) (110, -5.49549627304077148438e+00) (111, 9.57095458984375000000e+02) (112, 6.77374145507812500000e+02) (113, -1.45000000000000000000e+03) (114, 1.19895431518554687500e+02) (115, 6.78200805664062500000e+02) (116, -1.45000000000000000000e+03) (92, 8.67562561035156250000e+01) (93, -7.73991455078125000000e+02) (94, -1.75867477416992187500e+02) (95, 