FANN_FLO_2.1
num_layers=20
learning_rate=0.700000
connection_rate=1.000000
network_type=0
learning_momentum=0.000000
training_algorithm=2
train_error_function=1
train_stop_function=1
cascade_output_change_fraction=0.010000
quickprop_decay=-0.000100
quickprop_mu=1.750000
rprop_increase_factor=1.200000
rprop_decrease_factor=0.500000
rprop_delta_min=0.000000
rprop_delta_max=50.000000
rprop_delta_zero=0.100000
cascade_output_stagnation_epochs=12
cascade_candidate_change_fraction=0.010000
cascade_candidate_stagnation_epochs=12
cascade_max_out_epochs=150
cascade_min_out_epochs=50
cascade_max_cand_epochs=150
cascade_min_cand_epochs=50
cascade_num_candidate_groups=2
bit_fail_limit=9.99999977648258209229e-03
cascade_candidate_limit=1.00000000000000000000e+03
cascade_weight_multiplier=4.00000005960464477539e-01
cascade_activation_functions_count=10
cascade_activation_functions=3 5 7 8 10 11 14 15 16 17 
cascade_activation_steepnesses_count=4
cascade_activation_steepnesses=2.50000000000000000000e-01 5.00000000000000000000e-01 7.50000000000000000000e-01 1.00000000000000000000e+00 
layer_sizes=17 25 25 25 25 25 25 25 25 25 25 25 25 25 25 25 25 25 17 9 
scale_included=0
neurons (num_inputs, activation_function, activation_steepness)=(0, 0, 0.00000000000000000000e+00) (0, 0, 0.00000000000000000000e+00) (0, 0, 0.00000000000000000000e+00) (0, 0, 0.00000000000000000000e+00) (0, 0, 0.00000000000000000000e+00) (0, 0, 0.00000000000000000000e+00) (0, 0, 0.00000000000000000000e+00) (0, 0, 0.00000000000000000000e+00) (0, 0, 0.00000000000000000000e+00) (0, 0, 0.00000000000000000000e+00) (0, 0, 0.00000000000000000000e+00) (0, 0, 0.00000000000000000000e+00) (0, 0, 0.00000000000000000000e+00) (0, 0, 0.00000000000000000000e+00) (0, 0, 0.00000000000000000000e+00) (0, 0, 0.00000000000000000000e+00) (0, 0, 0.00000000000000000000e+00) (17, 5, 1.00000000000000000000e+00) (17, 5, 1.00000000000000000000e+00) (17, 5, 1.00000000000000000000e+00) (17, 5, 1.00000000000000000000e+00) (17, 5, 1.00000000000000000000e+00) (17, 5, 1.00000000000000000000e+00) (17, 5, 1.00000000000000000000e+00) (17, 5, 1.00000000000000000000e+00) (17, 5, 1.00000000000000000000e+00) (17, 5, 1.00000000000000000000e+00) (17, 5, 1.00000000000000000000e+00) (17, 5, 1.00000000000000000000e+00) (17, 5, 1.00000000000000000000e+00) (17, 5, 1.00000000000000000000e+00) (17, 5, 1.00000000000000000000e+00) (17, 5, 1.00000000000000000000e+00) (17, 5, 1.00000000000000000000e+00) (17, 5, 1.00000000000000000000e+00) (17, 5, 1.00000000000000000000e+00) (17, 5, 1.00000000000000000000e+00) (17, 5, 1.00000000000000000000e+00) (17, 5, 1.00000000000000000000e+00) (17, 5, 1.00000000000000000000e+00) (17, 5, 1.00000000000000000000e+00) (0, 5, 1.00000000000000000000e+00) (25, 5, 1.00000000000000000000e+00) (25, 5, 1.00000000000000000000e+00) (25, 5, 1.00000000000000000000e+00) (25, 5, 1.00000000000000000000e+00) (25, 5, 1.00000000000000000000e+00) (25, 5, 1.00000000000000000000e+00) (25, 5, 1.00000000000000000000e+00) (25, 5, 1.00000000000000000000e+00) (25, 5, 1.00000000000000000000e+00) (25, 5, 1.00000000000000000000e+00) (25, 5, 1.00000000000000000000e+00) (25, 5, 1.00000000000000000000e+00) (25, 5, 1.00000000000000000000e+00) (25, 5, 1.00000000000000000000e+00) (25, 5, 1.00000000000000000000e+00) (25, 5, 1.00000000000000000000e+00) (25, 5, 1.00000000000000000000e+00) (25, 5, 1.00000000000000000000e+00) (25, 5, 1.00000000000000000000e+00) (25, 5, 1.00000000000000000000e+00) (25, 5, 1.00000000000000000000e+00) (25, 5, 1.00000000000000000000e+00) (25, 5, 1.00000000000000000000e+00) (25, 5, 1.00000000000000000000e+00) (0, 5, 1.00000000000000000000e+00) (25, 5, 1.00000000000000000000e+00) (25, 5, 1.00000000000000000000e+00) (25, 5, 1.00000000000000000000e+00) (25, 5, 1.00000000000000000000e+00) (25, 5, 1.00000000000000000000e+00) (25, 5, 1.00000000000000000000e+00) (25, 5, 1.00000000000000000000e+00) (25, 5, 1.00000000000000000000e+00) (25, 5, 1.00000000000000000000e+00) (25, 5, 1.00000000000000000000e+00) (25, 5, 1.00000000000000000000e+00) (25, 5, 1.00000000000000000000e+00) (25, 5, 1.00000000000000000000e+00) (25, 5, 1.00000000000000000000e+00) (25, 5, 1.00000000000000000000e+00) (25, 5, 1.00000000000000000000e+00) (25, 5, 1.00000000000000000000e+00) (25, 5, 1.00000000000000000000e+00) (25, 5, 1.00000000000000000000e+00) (25, 5, 1.00000000000000000000e+00) (25, 5, 1.00000000000000000000e+00) (25, 5, 1.00000000000000000000e+00) (25, 5, 1.00000000000000000000e+00) (25, 5, 1.00000000000000000000e+00) (0, 5, 1.00000000000000000000e+00) (25, 5, 1.00000000000000000000e+00) (25, 5, 1.00000000000000000000e+00) (25, 5, 1.00000000000000000000e+00) (25, 5, 1.00000000000000000000e+00) (25, 5, 1.00000000000000000000e+00) (25, 5, 1.00000000000000000000e+00) (25, 5, 1.00000000000000000000e+00) (25, 5, 1.00000000000000000000e+00) (25, 5, 1.00000000000000000000e+00) (25, 5, 1.00000000000000000000e+00) (25, 5, 1.00000000000000000000e+00) (25, 5, 1.00000000000000000000e+00) (25, 5, 1.00000000000000000000e+00) (25, 5, 1.00000000000000000000e+00) (25, 5, 1.00000000000000000000e+00) (25, 5, 1.00000000000000000000e+00) (25, 5, 1.00000000000000000000e+00) (25, 5, 1.00000000000000000000e+00) (25, 5, 1.00000000000000000000e+00) (25, 5, 1.00000000000000000000e+00) (25, 5, 1.00000000000000000000e+00) (25, 5, 1.00000000000000000000e+00) (25, 5, 1.00000000000000000000e+00) (25, 5, 1.00000000000000000000e+00) (0, 5, 1.00000000000000000000e+00) (25, 5, 1.00000000000000000000e+00) (25, 5, 1.00000000000000000000e+00) (25, 5, 1.00000000000000000000e+00) (25, 5, 1.00000000000000000000e+00) (25, 5, 1.00000000000000000000e+00) (25, 5, 1.00000000000000000000e+00) (25, 5, 1.00000000000000000000e+00) (25, 5, 1.00000000000000000000e+00) (25, 5, 1.00000000000000000000e+00) (25, 5, 1.00000000000000000000e+00) (25, 5, 1.00000000000000000000e+00) (25, 5, 1.00000000000000000000e+00) (25, 5, 1.00000000000000000000e+00) (25, 5, 1.00000000000000000000e+00) (25, 5, 1.00000000000000000000e+00) (25, 5, 1.00000000000000000000e+00) (25, 5, 1.00000000000000000000e+00) (25, 5, 1.00000000000000000000e+00) (25, 5, 1.00000000000000000000e+00) (25, 5, 1.00000000000000000000e+00) (25, 5, 1.00000000000000000000e+00) (25, 5, 1.00000000000000000000e+00) (25, 5, 1.00000000000000000000e+00) (25, 5, 1.00000000000000000000e+00) (0, 5, 1.00000000000000000000e+00) (25, 5, 1.00000000000000000000e+00) (25, 5, 1.00000000000000000000e+00) (25, 5, 1.00000000000000000000e+00) (25, 5, 1.00000000000000000000e+00) (25, 5, 1.00000000000000000000e+00) (25, 5, 1.00000000000000000000e+00) (25, 5, 1.00000000000000000000e+00) (25, 5, 1.00000000000000000000e+00) (25, 5, 1.00000000000000000000e+00) (25, 5, 1.00000000000000000000e+00) (25, 5, 1.00000000000000000000e+00) (25, 5, 1.00000000000000000000e+00) (25, 5, 1.00000000000000000000e+00) (25, 5, 1.00000000000000000000e+00) (25, 5, 1.00000000000000000000e+00) (25, 5, 1.00000000000000000000e+00) (25, 5, 1.00000000000000000000e+00) (25, 5, 1.00000000000000000000e+00) (25, 5, 1.00000000000000000000e+00) (25, 5, 1.00000000000000000000e+00) (25, 5, 1.00000000000000000000e+00) (25, 5, 1.00000000000000000000e+00) (25, 5, 1.00000000000000000000e+00) (25, 5, 1.00000000000000000000e+00) (0, 5, 1.00000000000000000000e+00) (25, 5, 1.00000000000000000000e+00) (25, 5, 1.00000000000000000000e+00) (25, 5, 1.00000000000000000000e+00) (25, 5, 1.00000000000000000000e+00) (25, 5, 1.00000000000000000000e+00) (25, 5, 1.00000000000000000000e+00) (25, 5, 1.00000000000000000000e+00) (25, 5, 1.00000000000000000000e+00) (25, 5, 1.00000000000000000000e+00) (25, 5, 1.00000000000000000000e+00) (25, 5, 1.00000000000000000000e+00) (25, 5, 1.00000000000000000000e+00) (25, 5, 1.00000000000000000000e+00) (25, 5, 1.00000000000000000000e+00) (25, 5, 1.00000000000000000000e+00) (25, 5, 1.00000000000000000000e+00) (25, 5, 1.00000000000000000000e+00) (25, 5, 1.00000000000000000000e+00) (25, 5, 1.00000000000000000000e+00) (25, 5, 1.00000000000000000000e+00) (25, 5, 1.00000000000000000000e+00) (25, 5, 1.00000000000000000000e+00) (25, 5, 1.00000000000000000000e+00) (25, 5, 1.00000000000000000000e+00) (0, 5, 1.00000000000000000000e+00) (25, 5, 1.00000000000000000000e+00) (25, 5, 1.00000000000000000000e+00) (25, 5, 1.00000000000000000000e+00) (25, 5, 1.00000000000000000000e+00) (25, 5, 1.00000000000000000000e+00) (25, 5, 1.00000000000000000000e+00) (25, 5, 1.00000000000000000000e+00) (25, 5, 1.00000000000000000000e+00) (25, 5, 1.00000000000000000000e+00) (25, 5, 1.00000000000000000000e+00) (25, 5, 1.00000000000000000000e+00) (25, 5, 1.00000000000000000000e+00) (25, 5, 1.00000000000000000000e+00) (25, 5, 1.00000000000000000000e+00) (25, 5, 1.00000000000000000000e+00) (25, 5, 1.00000000000000000000e+00) (25, 5, 1.00000000000000000000e+00) (25, 5, 1.00000000000000000000e+00) (25, 5, 1.00000000000000000000e+00) (25, 5, 1.00000000000000000000e+00) (25, 5, 1.00000000000000000000e+00) (25, 5, 1.00000000000000000000e+00) (25, 5, 1.00000000000000000000e+00) (25, 5, 1.00000000000000000000e+00) (0, 5, 1.00000000000000000000e+00) (25, 5, 1.00000000000000000000e+00) (25, 5, 1.00000000000000000000e+00) (25, 5, 1.00000000000000000000e+00) (25, 5, 1.00000000000000000000e+00) (25, 5, 1.00000000000000000000e+00) (25, 5, 1.00000000000000000000e+00) (25, 5, 1.00000000000000000000e+00) (25, 5, 1.00000000000000000000e+00) (25, 5, 1.00000000000000000000e+00) (25, 5, 1.00000000000000000000e+00) (25, 5, 1.00000000000000000000e+00) (25, 5, 1.00000000000000000000e+00) (25, 5, 1.00000000000000000000e+00) (25, 5, 1.00000000000000000000e+00) (25, 5, 1.00000000000000000000e+00) (25, 5, 1.00000000000000000000e+00) (25, 5, 1.00000000000000000000e+00) (25, 5, 1.00000000000000000000e+00) (25, 5, 1.00000000000000000000e+00) (25, 5, 1.00000000000000000000e+00) (25, 5, 1.00000000000000000000e+00) (25, 5, 1.00000000000000000000e+00) (25, 5, 1.00000000000000000000e+00) (25, 5, 1.00000000000000000000e+00) (0, 5, 1.00000000000000000000e+00) (25, 5, 1.00000000000000000000e+00) (25, 5, 1.00000000000000000000e+00) (25, 5, 1.00000000000000000000e+00) (25, 5, 1.00000000000000000000e+00) (25, 5, 1.00000000000000000000e+00) (25, 5, 1.00000000000000000000e+00) (25, 5, 1.00000000000000000000e+00) (25, 5, 1.00000000000000000000e+00) (25, 5, 1.00000000000000000000e+00) (25, 5, 1.00000000000000000000e+00) (25, 5, 1.00000000000000000000e+00) (25, 5, 1.00000000000000000000e+00) (25, 5, 1.00000000000000000000e+00) (25, 5, 1.00000000000000000000e+00) (25, 5, 1.00000000000000000000e+00) (25, 5, 1.00000000000000000000e+00) (25, 5, 1.00000000000000000000e+00) (25, 5, 1.00000000000000000000e+00) (25, 5, 1.00000000000000000000e+00) (25, 5, 1.00000000000000000000e+00) (25, 5, 1.00000000000000000000e+00) (25, 5, 1.00000000000000000000e+00) (25, 5, 1.00000000000000000000e+00) (25, 5, 1.00000000000000000000e+00) (0, 5, 1.00000000000000000000e+00) (25, 5, 1.00000000000000000000e+00) (25, 5, 1.00000000000000000000e+00) (25, 5, 1.00000000000000000000e+00) (25, 5, 1.00000000000000000000e+00) (25, 5, 1.00000000000000000000e+00) (25, 5, 1.00000000000000000000e+00) (25, 5, 1.00000000000000000000e+00) (25, 5, 1.00000000000000000000e+00) (25, 5, 1.00000000000000000000e+00) (25, 5, 1.00000000000000000000e+00) (25, 5, 1.00000000000000000000e+00) (25, 5, 1.00000000000000000000e+00) (25, 5, 1.00000000000000000000e+00) (25, 5, 1.00000000000000000000e+00) (25, 5, 1.00000000000000000000e+00) (25, 5, 1.00000000000000000000e+00) (25, 5, 1.00000000000000000000e+00) (25, 5, 1.00000000000000000000e+00) (25, 5, 1.00000000000000000000e+00) (25, 5, 1.00000000000000000000e+00) (25, 5, 1.00000000000000000000e+00) (25, 5, 1.00000000000000000000e+00) (25, 5, 1.00000000000000000000e+00) (25, 5, 1.00000000000000000000e+00) (0, 5, 1.00000000000000000000e+00) (25, 5, 1.00000000000000000000e+00) (25, 5, 1.00000000000000000000e+00) (25, 5, 1.00000000000000000000e+00) (25, 5, 1.00000000000000000000e+00) (25, 5, 1.00000000000000000000e+00) (25, 5, 1.00000000000000000000e+00) (25, 5, 1.00000000000000000000e+00) (25, 5, 1.00000000000000000000e+00) (25, 5, 1.00000000000000000000e+00) (25, 5, 1.00000000000000000000e+00) (25, 5, 1.00000000000000000000e+00) (25, 5, 1.00000000000000000000e+00) (25, 5, 1.00000000000000000000e+00) (25, 5, 1.00000000000000000000e+00) (25, 5, 1.00000000000000000000e+00) (25, 5, 1.00000000000000000000e+00) (25, 5, 1.00000000000000000000e+00) (25, 5, 1.00000000000000000000e+00) (25, 5, 1.00000000000000000000e+00) (25, 5, 1.00000000000000000000e+00) (25, 5, 1.00000000000000000000e+00) (25, 5, 1.00000000000000000000e+00) (25, 5, 1.00000000000000000000e+00) (25, 5, 1.00000000000000000000e+00) (0, 5, 1.00000000000000000000e+00) (25, 5, 1.00000000000000000000e+00) (25, 5, 1.00000000000000000000e+00) (25, 5, 1.00000000000000000000e+00) (25, 5, 1.00000000000000000000e+00) (25, 5, 1.00000000000000000000e+00) (25, 5, 1.00000000000000000000e+00) (25, 5, 1.00000000000000000000e+00) (25, 5, 1.00000000000000000000e+00) (25, 5, 1.00000000000000000000e+00) (25, 5, 1.00000000000000000000e+00) (25, 5, 1.00000000000000000000e+00) (25, 5, 1.00000000000000000000e+00) (25, 5, 1.00000000000000000000e+00) (25, 5, 1.00000000000000000000e+00) (25, 5, 1.00000000000000000000e+00) (25, 5, 1.00000000000000000000e+00) (25, 5, 1.00000000000000000000e+00) (25, 5, 1.00000000000000000000e+00) (25, 5, 1.00000000000000000000e+00) (25, 5, 1.00000000000000000000e+00) (25, 5, 1.00000000000000000000e+00) (25, 5, 1.00000000000000000000e+00) (25, 5, 1.00000000000000000000e+00) (25, 5, 1.00000000000000000000e+00) (0, 5, 1.00000000000000000000e+00) (25, 5, 1.00000000000000000000e+00) (25, 5, 1.00000000000000000000e+00) (25, 5, 1.00000000000000000000e+00) (25, 5, 1.00000000000000000000e+00) (25, 5, 1.00000000000000000000e+00) (25, 5, 1.00000000000000000000e+00) (25, 5, 1.00000000000000000000e+00) (25, 5, 1.00000000000000000000e+00) (25, 5, 1.00000000000000000000e+00) (25, 5, 1.00000000000000000000e+00) (25, 5, 1.00000000000000000000e+00) (25, 5, 1.00000000000000000000e+00) (25, 5, 1.00000000000000000000e+00) (25, 5, 1.00000000000000000000e+00) (25, 5, 1.00000000000000000000e+00) (25, 5, 1.00000000000000000000e+00) (25, 5, 1.00000000000000000000e+00) (25, 5, 1.00000000000000000000e+00) (25, 5, 1.00000000000000000000e+00) (25, 5, 1.00000000000000000000e+00) (25, 5, 1.00000000000000000000e+00) (25, 5, 1.00000000000000000000e+00) (25, 5, 1.00000000000000000000e+00) (25, 5, 1.00000000000000000000e+00) (0, 5, 1.00000000000000000000e+00) (25, 5, 1.00000000000000000000e+00) (25, 5, 1.00000000000000000000e+00) (25, 5, 1.00000000000000000000e+00) (25, 5, 1.00000000000000000000e+00) (25, 5, 1.00000000000000000000e+00) (25, 5, 1.00000000000000000000e+00) (25, 5, 1.00000000000000000000e+00) (25, 5, 1.00000000000000000000e+00) (25, 5, 1.00000000000000000000e+00) (25, 5, 1.00000000000000000000e+00) (25, 5, 1.00000000000000000000e+00) (25, 5, 1.00000000000000000000e+00) (25, 5, 1.00000000000000000000e+00) (25, 5, 1.00000000000000000000e+00) (25, 5, 1.00000000000000000000e+00) (25, 5, 1.00000000000000000000e+00) (25, 5, 1.00000000000000000000e+00) (25, 5, 1.00000000000000000000e+00) (25, 5, 1.00000000000000000000e+00) (25, 5, 1.00000000000000000000e+00) (25, 5, 1.00000000000000000000e+00) (25, 5, 1.00000000000000000000e+00) (25, 5, 1.00000000000000000000e+00) (25, 5, 1.00000000000000000000e+00) (0, 5, 1.00000000000000000000e+00) (25, 5, 1.00000000000000000000e+00) (25, 5, 1.00000000000000000000e+00) (25, 5, 1.00000000000000000000e+00) (25, 5, 1.00000000000000000000e+00) (25, 5, 1.00000000000000000000e+00) (25, 5, 1.00000000000000000000e+00) (25, 5, 1.00000000000000000000e+00) (25, 5, 1.00000000000000000000e+00) (25, 5, 1.00000000000000000000e+00) (25, 5, 1.00000000000000000000e+00) (25, 5, 1.00000000000000000000e+00) (25, 5, 1.00000000000000000000e+00) (25, 5, 1.00000000000000000000e+00) (25, 5, 1.00000000000000000000e+00) (25, 5, 1.00000000000000000000e+00) (25, 5, 1.00000000000000000000e+00) (25, 5, 1.00000000000000000000e+00) (25, 5, 1.00000000000000000000e+00) (25, 5, 1.00000000000000000000e+00) (25, 5, 1.00000000000000000000e+00) (25, 5, 1.00000000000000000000e+00) (25, 5, 1.00000000000000000000e+00) (25, 5, 1.00000000000000000000e+00) (25, 5, 1.00000000000000000000e+00) (0, 5, 1.00000000000000000000e+00) (25, 5, 1.00000000000000000000e+00) (25, 5, 1.00000000000000000000e+00) (25, 5, 1.00000000000000000000e+00) (25, 5, 1.00000000000000000000e+00) (25, 5, 1.00000000000000000000e+00) (25, 5, 1.00000000000000000000e+00) (25, 5, 1.00000000000000000000e+00) (25, 5, 1.00000000000000000000e+00) (25, 5, 1.00000000000000000000e+00) (25, 5, 1.00000000000000000000e+00) (25, 5, 1.00000000000000000000e+00) (25, 5, 1.00000000000000000000e+00) (25, 5, 1.00000000000000000000e+00) (25, 5, 1.00000000000000000000e+00) (25, 5, 1.00000000000000000000e+00) (25, 5, 1.00000000000000000000e+00) (25, 5, 1.00000000000000000000e+00) (25, 5, 1.00000000000000000000e+00) (25, 5, 1.00000000000000000000e+00) (25, 5, 1.00000000000000000000e+00) (25, 5, 1.00000000000000000000e+00) (25, 5, 1.00000000000000000000e+00) (25, 5, 1.00000000000000000000e+00) (25, 5, 1.00000000000000000000e+00) (0, 5, 1.00000000000000000000e+00) (25, 5, 1.00000000000000000000e+00) (25, 5, 1.00000000000000000000e+00) (25, 5, 1.00000000000000000000e+00) (25, 5, 1.00000000000000000000e+00) (25, 5, 1.00000000000000000000e+00) (25, 5, 1.00000000000000000000e+00) (25, 5, 1.00000000000000000000e+00) (25, 5, 1.00000000000000000000e+00) (25, 5, 1.00000000000000000000e+00) (25, 5, 1.00000000000000000000e+00) (25, 5, 1.00000000000000000000e+00) (25, 5, 1.00000000000000000000e+00) (25, 5, 1.00000000000000000000e+00) (25, 5, 1.00000000000000000000e+00) (25, 5, 1.00000000000000000000e+00) (25, 5, 1.00000000000000000000e+00) (0, 5, 1.00000000000000000000e+00) (17, 5, 1.00000000000000000000e+00) (17, 5, 1.00000000000000000000e+00) (17, 5, 1.00000000000000000000e+00) (17, 5, 1.00000000000000000000e+00) (17, 5, 1.00000000000000000000e+00) (17, 5, 1.00000000000000000000e+00) (17, 5, 1.00000000000000000000e+00) (17, 5, 1.00000000000000000000e+00) (0, 5, 1.00000000000000000000e+00) 
connections (connected_to_neuron, weight)=(0, 1.41169738769531250000e+00) (1, 1.94058036804199218750e+00) (2, 1.04090523719787597656e+00) (3, 4.98408466577529907227e-01) (4, 4.22041326761245727539e-01) (5, 8.32397937774658203125e-01) (6, 9.37876045703887939453e-01) (7, -1.28753945231437683105e-01) (8, 9.87841904163360595703e-01) (9, 7.93440043926239013672e-01) (10, 5.09716928005218505859e-01) (11, 9.97197329998016357422e-01) (12, 6.72594234347343444824e-02) (13, 1.03326940536499023438e+00) (14, 8.98072957992553710938e-01) (15, 4.99518811702728271484e-02) (16, 1.14242029190063476562e+00) (0, 9.25522446632385253906e-01) (1, 3.54675865173339843750e+00) (2, 1.51494741439819335938e+00) (3, 1.48726627230644226074e-01) (4, 4.54855889081954956055e-01) (5, 2.53416776657104492188e-01) (6, 8.44890713691711425781e-01) (7, -1.92377790808677673340e-01) (8, 1.91758728027343750000e+00) (9, -7.97256305813789367676e-02) (10, 1.47030436992645263672e+00) (11, 2.08310589194297790527e-01) (12, 7.36824572086334228516e-01) (13, 6.02011501789093017578e-01) (14, 3.89283567667007446289e-01) (15, 8.26465040445327758789e-02) (16, 7.41616308689117431641e-01) (0, 9.31404590606689453125e-01) (1, 1.11474108695983886719e+00) (2, 1.27303636074066162109e+00) (3, 2.14225038886070251465e-01) (4, 8.68577480316162109375e-01) (5, 6.14791154861450195312e-01) (6, 2.23706269264221191406e+00) (7, -4.42791879177093505859e-02) (8, 1.48207712173461914062e+00) (9, 1.13643908500671386719e+00) (10, 5.84546387195587158203e-01) (11, -6.71995162963867187500e-01) (12, 3.97819459438323974609e-01) (13, 9.98630106449127197266e-01) (14, 3.94271224737167358398e-01) (15, 1.08389508724212646484e+00) (16, 1.34775507450103759766e+00) (0, 1.12936758995056152344e+00) (1, 1.88551390171051025391e+00) (2, 2.29158982634544372559e-01) (3, 2.37379521131515502930e-01) (4, 3.50353360176086425781e-01) (5, 2.01812458038330078125e+00) (6, 8.50252330303192138672e-01) (7, 2.19621717929840087891e-01) (8, 1.56530812382698059082e-01) (9, 4.21441197395324707031e-01) (10, 1.63586989045143127441e-01) (11, 4.03713494539260864258e-01) (12, 2.85867482423782348633e-01) (13, 1.32467436790466308594e+00) (14, 5.00708758831024169922e-01) (15, 4.05185848474502563477e-01) (16, 1.56574606895446777344e+00) (0, 1.30012285709381103516e+00) (1, 1.62002098560333251953e+00) (2, 4.08393812179565429688e+00) (3, 5.59846103191375732422e-01) (4, 7.71068930625915527344e-01) (5, 1.99126992374658584595e-02) (6, 1.31638824939727783203e-01) (7, 1.30082771182060241699e-01) (8, 2.26536011695861816406e+00) (9, 7.26619064807891845703e-01) (10, 7.49439120292663574219e-01) (11, 7.57452547550201416016e-01) (12, -3.60957533121109008789e-01) (13, 1.92433446645736694336e-01) (14, 8.04769575595855712891e-01) (15, -4.04248178005218505859e-01) (16, 7.28308379650115966797e-01) (0, 5.76156973838806152344e-01) (1, 1.28069877624511718750e+00) (2, 1.28906059265136718750e+00) (3, 1.09517097473144531250e+00) (4, 1.00767694413661956787e-01) (5, 3.66718292236328125000e-01) (6, -9.04810279607772827148e-02) (7, 3.32269042730331420898e-01) (8, 6.68559491634368896484e-01) (9, 2.64746714383363723755e-02) (10, 7.99426496028900146484e-01) (11, -6.53939187526702880859e-01) (12, 1.80436921119689941406e+00) (13, 4.35355126857757568359e-01) (14, 6.94990038871765136719e-01) (15, -2.83171057701110839844e-01) (16, 6.72794163227081298828e-01) (0, 1.14994239807128906250e+00) (1, 1.91940033435821533203e+00) (2, 3.50399643182754516602e-01) (3, 9.71085906028747558594e-01) (4, 1.03111696243286132812e+00) (5, 3.43520522117614746094e-01) (6, 5.98175406455993652344e-01) (7, 3.23906272649765014648e-01) (8, 6.34701788425445556641e-01) (9, 6.82801842689514160156e-01) (10, 1.19437575340270996094e+00) (11, 7.56419122219085693359e-01) (12, 9.52146232128143310547e-01) (13, 2.74575382471084594727e-01) (14, 9.69876229763031005859e-01) (15, -1.04018759727478027344e+00) (16, 5.67139327526092529297e-01) (0, 8.04491519927978515625e-01) (1, 2.84090995788574218750e+00) (2, 3.16949844360351562500e-01) (3, 3.26458066701889038086e-01) (4, 1.80943477153778076172e+00) (5, 1.16317950189113616943e-01) (6, 7.06945598125457763672e-01) (7, 6.28735125064849853516e-01) (8, 2.56099969148635864258e-01) (9, 3.48398357629776000977e-01) (10, 1.85209262371063232422e+00) (11, 8.58815610408782958984e-01) (12, 7.22202360630035400391e-01) (13, 6.56568229198455810547e-01) (14, 6.26763701438903808594e-01) (15, 5.05813658237457275391e-01) (16, 1.46585130691528320312e+00) (0, 7.63339936733245849609e-01) (1, 1.79853439331054687500e+00) (2, 1.54970991611480712891e+00) (3, -1.45637556910514831543e-01) (4, 7.02169775962829589844e-01) (5, 2.58582770824432373047e-01) (6, 2.17682957649230957031e-01) (7, -2.07983300089836120605e-01) (8, 2.26659989356994628906e+00) (9, 5.79673536121845245361e-02) (10, 9.70879793167114257812e-01) (11, 9.84536111354827880859e-01) (12, 3.20335447788238525391e-01) (13, -8.33373725414276123047e-01) (14, 4.53262269496917724609e-01) (15, -1.47637113928794860840e-01) (16, 1.31642627716064453125e+00) (0, 1.93452012538909912109e+00) (1, 6.49784326553344726562e-01) (2, 6.60247206687927246094e-01) (3, 1.82322952896356582642e-02) (4, 1.31145286560058593750e+00) (5, 7.53004014492034912109e-01) (6, -1.71030759811401367188e-01) (7, -1.83725237846374511719e-01) (8, 5.04136621952056884766e-01) (9, 6.06299757957458496094e-01) (10, 1.34010970592498779297e+00) (11, 3.72880339622497558594e-01) (12, 7.19522953033447265625e-01) (13, 5.02342760562896728516e-01) (14, 8.50417971611022949219e-01) (15, 2.45934084057807922363e-01) (16, 8.94858837127685546875e-01) (0, 1.38821983337402343750e+00) (1, 1.06309390068054199219e+00) (2, 1.20649135112762451172e+00) (3, 1.22937238216400146484e+00) (4, 2.20245316624641418457e-01) (5, 5.71401834487915039062e-01) (6, 2.95391350984573364258e-01) (7, 2.42151945829391479492e-01) (8, 1.49089670181274414062e+00) (9, 4.33581769466400146484e-01) (10, 1.03009951114654541016e+00) (11, -4.78275455534458160400e-02) (12, 1.24869860708713531494e-01) (13, 3.22592288255691528320e-01) (14, 1.45835387706756591797e+00) (15, 1.94964557886123657227e-01) (16, 1.57861366868019104004e-01) (0, 1.27927780151367187500e+00) (1, 1.10002660751342773438e+00) (2, 2.96033883094787597656e+00) (3, 4.40993398427963256836e-01) (4, 7.36788094043731689453e-01) (5, -1.05112358927726745605e-01) (6, 3.20431262254714965820e-01) (7, 1.11511290073394775391e-01) (8, 2.80666661262512207031e+00) (9, 1.70906871557235717773e-01) (10, 4.03750926256179809570e-01) (11, 1.01810002326965332031e+00) (12, -1.15405350923538208008e-01) (13, 6.05185985565185546875e-01) (14, 2.88290888071060180664e-01) (15, -1.97554394602775573730e-01) (16, 9.94377136230468750000e-01) (0, 5.87041318416595458984e-01) (1, 1.81623601913452148438e+00) (2, 3.62573385238647460938e-01) (3, 5.79971849918365478516e-01) (4, 2.67392754554748535156e+00) (5, 1.39770662784576416016e+00) (6, 1.49321213364601135254e-01) (7, 7.83268868923187255859e-01) (8, 1.02017796039581298828e+00) (9, -2.94254481792449951172e-01) (10, 1.28637373447418212891e+00) (11, 1.35079950094223022461e-01) (12, 5.77936172485351562500e-01) (13, 1.39675632119178771973e-01) (14, 2.24132880568504333496e-01) (15, 1.34337410330772399902e-01) (16, 4.77891266345977783203e-01) (0, 1.14398705959320068359e+00) (1, 1.54762059450149536133e-01) (2, 1.18763840198516845703e+00) (3, 7.84935414791107177734e-01) (4, 4.06955808401107788086e-01) (5, 3.96672576665878295898e-01) (6, 5.92329323291778564453e-01) (7, 8.64304363727569580078e-01) (8, 1.06211829185485839844e+00) (9, -9.42640900611877441406e-02) (10, 6.61892235279083251953e-01) (11, -1.69440045952796936035e-01) (12, 1.60760784149169921875e+00) (13, 6.99293136596679687500e-01) (14, 4.74634140729904174805e-01) (15, 7.64957547187805175781e-01) (16, 7.25144088268280029297e-01) (0, 1.47475469112396240234e+00) (1, 1.48624014854431152344e+00) (2, 9.75680947303771972656e-01) (3, 5.18026836216449737549e-02) (4, -8.36178194731473922729e-03) (5, 3.01997661590576171875e-01) (6, 6.79890751838684082031e-01) (7, 1.01477646827697753906e+00) (8, 1.03945267200469970703e+00) (9, 5.77158331871032714844e-01) (10, 1.01826786994934082031e+00) (11, 6.78774654865264892578e-01) (12, 1.03892314434051513672e+00) (13, 1.04658663272857666016e+00) (14, 2.13285788893699645996e-01) (15, 1.22809398174285888672e+00) (16, 5.41128993034362792969e-01) (0, 1.68660533428192138672e+00) (1, 1.58330574631690979004e-01) (2, 1.47286915779113769531e+00) (3, 7.92552649974822998047e-01) (4, 1.15595960617065429688e+00) (5, 5.99748611450195312500e-01) (6, 5.83529114723205566406e-01) (7, 2.29035615921020507812e-01) (8, -3.77685219049453735352e-01) (9, 4.80492770671844482422e-01) (10, -1.73469688743352890015e-02) (11, 1.42718052864074707031e+00) (12, 4.72226917743682861328e-01) (13, 1.36707589030265808105e-01) (14, 2.04693317413330078125e-01) (15, 3.91698330640792846680e-01) (16, 8.97341310977935791016e-01) (0, 1.19730257987976074219e+00) (1, 3.33357000350952148438e+00) (2, 2.59499597549438476562e+00) (3, 5.14464639127254486084e-02) (4, 7.94732689857482910156e-01) (5, 4.09089505672454833984e-01) (6, 1.50151327252388000488e-01) (7, -7.56198689341545104980e-02) (8, 1.61509966850280761719e+00) (9, 2.01548129320144653320e-01) (10, 6.12806379795074462891e-01) (11, -4.07374590635299682617e-01) (12, 4.72847938537597656250e-01) (13, 2.32096195220947265625e-01) (14, 1.25682353973388671875e+00) (15, 3.85231375694274902344e-01) (16, 7.20037519931793212891e-01) (0, 1.52225446701049804688e+00) (1, 9.38601315021514892578e-01) (2, 2.15103554725646972656e+00) (3, 7.53413856029510498047e-01) (4, -2.63065934181213378906e-01) (5, 1.08149123191833496094e+00) (6, 2.91285991668701171875e-01) (7, 1.51590430736541748047e+00) (8, 5.84774255752563476562e-01) (9, -5.00017881393432617188e-01) (10, 1.71606257557868957520e-01) (11, -4.51187551021575927734e-01) (12, 3.27802360057830810547e-01) (13, 1.16337168216705322266e+00) (14, 2.72270172834396362305e-01) (15, 1.57190179824829101562e+00) (16, 1.02188992500305175781e+00) (0, 1.24758398532867431641e+00) (1, 9.76828098297119140625e-01) (2, 1.11414098739624023438e+00) (3, 9.43850576877593994141e-01) (4, -6.75956485792994499207e-03) (5, 3.16219747066497802734e-01) (6, 7.32718706130981445312e-01) (7, 7.39869177341461181641e-01) (8, 1.10822391510009765625e+00) (9, 4.93985451757907867432e-02) (10, 2.71719634532928466797e-01) (11, -6.08259558677673339844e-01) (12, 1.35731947422027587891e+00) (13, 3.80565047264099121094e-01) (14, 3.06293845176696777344e-01) (15, 9.47955548763275146484e-01) (16, 3.80585223436355590820e-01) (0, 1.12879991531372070312e+00) (1, 7.60678350925445556641e-01) (2, 2.75836443901062011719e+00) (3, 1.91181283444166183472e-02) (4, 1.02865457534790039062e+00) (5, -5.35347521305084228516e-01) (6, 1.22715951874852180481e-03) (7, 6.48510396480560302734e-01) (8, 1.53445029258728027344e+00) (9, -1.31788507103919982910e-01) (10, 4.72132235765457153320e-01) (11, 1.37938880920410156250e+00) (12, 5.15296220779418945312e-01) (13, -1.09784579277038574219e+00) (14, 1.15913942456245422363e-01) (15, 2.30494424700736999512e-01) (16, 1.18530642986297607422e+00) (0, 6.40730917453765869141e-01) (1, 1.99068069458007812500e+00) (2, 2.08898448944091796875e+00) (3, 1.33169174194335937500e+00) (4, 9.54599678516387939453e-01) (5, -5.53954206407070159912e-02) (6, 3.96474123001098632812e-01) (7, -1.16049818694591522217e-01) (8, 2.36414551734924316406e+00) (9, 5.27785241603851318359e-01) (10, 6.55828058719635009766e-01) (11, 5.79282999038696289062e-01) (12, 1.06114852428436279297e+00) (13, 4.16781395673751831055e-01) (14, 5.90152502059936523438e-01) (15, -1.89643740653991699219e-01) (16, 4.81241405010223388672e-01) (0, 8.95047783851623535156e-01) (1, 9.79769527912139892578e-01) (2, 1.44524645805358886719e+00) (3, 2.82596144825220108032e-02) (4, 5.44961035251617431641e-01) (5, -5.15919551253318786621e-02) (6, 1.03199088573455810547e+00) (7, 3.28174352645874023438e-01) (8, 2.18577647209167480469e+00) (9, 1.29221498966217041016e-01) (10, 1.13714909553527832031e+00) (11, 8.08020710945129394531e-01) (12, 2.42410510778427124023e-01) (13, -9.99841615557670593262e-02) (14, 4.72128719091415405273e-01) (15, -6.49159029126167297363e-02) (16, 7.21276342868804931641e-01) (0, 1.15604603290557861328e+00) (1, 1.25168919563293457031e+00) (2, 2.43661427497863769531e+00) (3, 1.15793836116790771484e+00) (4, -1.14907190203666687012e-01) (5, 2.62577801942825317383e-01) (6, 2.29674071073532104492e-01) (7, 8.98463368415832519531e-01) (8, 1.19314074516296386719e+00) (9, -6.44321620464324951172e-01) (10, 4.38658088445663452148e-01) (11, -3.57405811548233032227e-01) (12, 1.27333784103393554688e+00) (13, 5.04536569118499755859e-01) (14, 8.21888923645019531250e-01) (15, 3.46002221107482910156e-01) (16, 5.53856790065765380859e-01) (0, 1.40231823921203613281e+00) (1, 1.80921816825866699219e+00) (2, 9.46384549140930175781e-01) (3, 9.98317897319793701172e-02) (4, 6.57077491283416748047e-01) (5, 3.38758319616317749023e-01) (6, 9.58532273769378662109e-01) (7, -1.73070847988128662109e-01) (8, 4.20680761337280273438e+00) (9, -2.67112135887145996094e-01) (10, 1.25866889953613281250e+00) (11, 1.83830022811889648438e-01) (12, 6.01425766944885253906e-01) (13, -1.26068830490112304688e-01) (14, 9.31309044361114501953e-01) (15, -1.38035237789154052734e+00) (16, 1.03036916255950927734e+00) (17, 6.03583753108978271484e-01) (18, 3.46182286739349365234e-01) (19, 2.88305103778839111328e-01) (20, 1.91367585211992263794e-02) (21, 1.28583121299743652344e+00) (22, 5.01520514488220214844e-01) (23, 3.28279197216033935547e-01) (24, 3.23421895503997802734e-01) (25, 5.80921292304992675781e-01) (26, 5.76769173145294189453e-01) (27, 4.59561526775360107422e-01) (28, 1.00928246974945068359e+00) (29, 4.30897086858749389648e-01) (30, 3.75929802656173706055e-01) (31, 5.88126063346862792969e-01) (32, 2.75404959917068481445e-01) (33, 9.23931002616882324219e-01) (34, 9.70923975110054016113e-02) (35, 4.19993251562118530273e-02) (36, 6.35372340679168701172e-01) (37, 4.47932749986648559570e-01) (38, 8.48601341247558593750e-01) (39, 3.31294864416122436523e-01) (40, 1.49997699260711669922e+00) (41, 6.68535888195037841797e-01) (17, 1.43336355686187744141e-01) (18, 7.55131304264068603516e-01) (19, 4.75604161620140075684e-02) (20, 2.64260649681091308594e-01) (21, 5.71011662483215332031e-01) (22, 8.83128643035888671875e-01) (23, 1.03768098354339599609e+00) (24, 3.13064575195312500000e-01) (25, 7.40597069263458251953e-01) (26, -3.08662414550781250000e-01) (27, -2.12656348943710327148e-01) (28, 3.24410438537597656250e-01) (29, 5.23505747318267822266e-01) (30, 1.00329387933015823364e-02) (31, 2.60458976030349731445e-01) (32, 2.44731616973876953125e+00) (33, 1.05038547515869140625e+00) (34, 1.49605885148048400879e-01) (35, -2.34299264848232269287e-02) (36, 9.49126958847045898438e-01) (37, 2.91490554809570312500e-01) (38, 1.52470958232879638672e+00) (39, 7.49293804168701171875e-01) (40, 1.45095467567443847656e+00) (41, 9.00382459163665771484e-01) (17, 5.30167162418365478516e-01) (18, 1.13673961162567138672e+00) (19, 7.08707869052886962891e-01) (20, 3.30289453268051147461e-01) (21, 4.27708178758621215820e-01) (22, 7.03488647937774658203e-01) (23, 1.88478934764862060547e+00) (24, 9.41796123981475830078e-01) (25, 1.41014313697814941406e+00) (26, 8.67408275604248046875e-01) (27, 6.98529481887817382812e-01) (28, 5.31170308589935302734e-01) (29, 1.01904642581939697266e+00) (30, 9.18713152408599853516e-01) (31, 7.41480052471160888672e-01) (32, 1.40807971358299255371e-01) (33, 1.04220592975616455078e+00) (34, 3.42085629701614379883e-01) (35, 4.95685577392578125000e-01) (36, 4.59652304649353027344e-01) (37, 6.98858439922332763672e-01) (38, 9.95013535022735595703e-01) (39, 2.75639623403549194336e-01) (40, 1.08391559123992919922e+00) (41, 9.37551558017730712891e-01) (17, 2.29299649596214294434e-01) (18, 5.45871734619140625000e-01) (19, 4.09526795148849487305e-01) (20, 8.43921780586242675781e-01) (21, 6.61009371280670166016e-01) (22, 2.44412556290626525879e-01) (23, 1.09460696578025817871e-01) (24, 6.16270720958709716797e-01) (25, 1.07957220077514648438e+00) (26, 1.38695466518402099609e+00) (27, 1.10322967171669006348e-01) (28, 5.09561657905578613281e-01) (29, 9.57034111022949218750e-01) (30, -1.99065402150154113770e-01) (31, 6.57067308202385902405e-03) (32, 1.46581366658210754395e-01) (33, 7.33102798461914062500e-01) (34, -1.50880426168441772461e-01) (35, -2.42559432983398437500e-01) (36, 1.47468101978302001953e+00) (37, 8.56035113334655761719e-01) (38, 7.68685042858123779297e-01) (39, -1.44838154315948486328e-01) (40, 2.87256717681884765625e-01) (41, 1.45508515834808349609e+00) (17, 9.90058928728103637695e-02) (18, 9.13262844085693359375e-01) (19, -2.98884119838476181030e-02) (20, 2.30406776070594787598e-01) (21, 7.32118844985961914062e-01) (22, 5.58328092098236083984e-01) (23, 6.11472964286804199219e-01) (24, 1.29130148887634277344e+00) (25, 9.63518977165222167969e-01) (26, 4.92580085992813110352e-01) (27, 5.14666661620140075684e-02) (28, 7.91841924190521240234e-01) (29, 1.06415295600891113281e+00) (30, 1.69265896081924438477e-01) (31, 3.49721938371658325195e-01) (32, -4.58435751497745513916e-02) (33, 9.02817606925964355469e-01) (34, -6.77926689386367797852e-02) (35, 4.61556792259216308594e-01) (36, 2.82718777656555175781e-01) (37, 7.29879438877105712891e-01) (38, 1.23695552349090576172e+00) (39, 5.28564810752868652344e-01) (40, 7.55188226699829101562e-01) (41, 1.52735733985900878906e+00) (17, 4.92336034774780273438e-01) (18, 7.03164339065551757812e-01) (19, 4.09253746271133422852e-01) (20, 1.48958683013916015625e+00) (21, 1.32052397727966308594e+00) (22, 9.26854193210601806641e-01) (23, 6.05834603309631347656e-01) (24, 4.77857559919357299805e-01) (25, 5.83653986454010009766e-01) (26, 3.22678029537200927734e-01) (27, 3.90153884887695312500e-01) (28, 1.06271123886108398438e+00) (29, 5.12904047966003417969e-01) (30, 4.91619795560836791992e-01) (31, -3.70592735707759857178e-02) (32, -5.79550266265869140625e-01) (33, 7.42531776428222656250e-01) (34, 6.17935955524444580078e-01) (35, 2.47182026505470275879e-01) (36, 7.90887594223022460938e-01) (37, 8.74171376228332519531e-01) (38, 9.18501138687133789062e-01) (39, 5.44728696346282958984e-01) (40, 3.70496660470962524414e-01) (41, 1.44857931137084960938e+00) (17, 6.02036952972412109375e-01) (18, 1.62235260009765625000e+00) (19, -3.34441959857940673828e-02) (20, 9.88032966852188110352e-02) (21, 8.86612951755523681641e-01) (22, 7.55344629287719726562e-01) (23, 7.72830247879028320312e-01) (24, 1.12874329090118408203e+00) (25, 1.32639670372009277344e+00) (26, 7.15811967849731445312e-01) (27, 6.10062360763549804688e-01) (28, 5.81470072269439697266e-01) (29, 1.24010515213012695312e+00) (30, 1.44740000367164611816e-01) (31, -1.46164834499359130859e-01) (32, -2.16236993670463562012e-01) (33, 1.31077659130096435547e+00) (34, -4.43841785192489624023e-01) (35, -2.50122457742691040039e-01) (36, 6.34014964103698730469e-01) (37, 8.46412718296051025391e-01) (38, 1.69532477855682373047e+00) (39, 1.39568448066711425781e-01) (40, 8.71974527835845947266e-01) (41, 3.58059436082839965820e-01) (17, 2.20235154032707214355e-01) (18, 8.58949184417724609375e-01) (19, 1.56613752245903015137e-01) (20, 9.17543351650238037109e-01) (21, 1.07000255584716796875e+00) (22, -4.10346984863281250000e-01) (23, -3.63715469837188720703e-01) (24, 5.92562019824981689453e-01) (25, 5.27528405189514160156e-01) (26, -2.92017787694931030273e-01) (27, 1.92582190036773681641e+00) (28, 8.01451921463012695312e-01) (29, 7.08348035812377929688e-01) (30, 4.70221519470214843750e-01) (31, 5.66900253295898437500e-01) (32, 4.18995290994644165039e-01) (33, 3.56381714344024658203e-01) (34, 1.30437886714935302734e+00) (35, 5.02030432224273681641e-01) (36, 1.34821319580078125000e+00) (37, 3.79672855138778686523e-01) (38, 8.04702818393707275391e-01) (39, 1.08679568767547607422e+00) (40, 3.24123382568359375000e-01) (41, 3.23472023010253906250e-01) (17, 1.24572277069091796875e+00) (18, 5.51707088947296142578e-01) (19, 8.68528604507446289062e-01) (20, 1.42899200320243835449e-01) (21, 9.13969695568084716797e-01) (22, 1.03010571002960205078e+00) (23, 6.72455787658691406250e-01) (24, -5.51358498632907867432e-02) (25, 9.09070909023284912109e-01) (26, 6.60432875156402587891e-01) (27, 3.97639542818069458008e-01) (28, 9.83698546886444091797e-01) (29, -7.32919201254844665527e-02) (30, 1.47148168087005615234e+00) (31, 1.46171939373016357422e+00) (32, 3.43220800161361694336e-01) (33, 5.74595451354980468750e-01) (34, 8.78181874752044677734e-01) (35, 1.53537762165069580078e+00) (36, 1.68433710932731628418e-01) (37, 6.27989113330841064453e-01) (38, 2.86424905061721801758e-01) (39, 1.03069508075714111328e+00) (40, 2.96784013509750366211e-01) (41, 1.12603640556335449219e+00) (17, 1.04452110826969146729e-01) (18, 1.93926364183425903320e-01) (19, 2.90322870016098022461e-01) (20, 1.57946121692657470703e+00) (21, 1.09532308578491210938e+00) (22, 6.13633692264556884766e-01) (23, -5.42590348049998283386e-03) (24, 1.61804521083831787109e+00) (25, 6.32583498954772949219e-01) (26, -2.25536882877349853516e-01) (27, -1.20054647326469421387e-01) (28, 1.56794321537017822266e+00) (29, 1.48153924942016601562e+00) (30, 2.46152371168136596680e-01) (31, 3.09850573539733886719e-01) (32, 3.13167273998260498047e-01) (33, 4.09242182970046997070e-01) (34, 1.75310540199279785156e+00) (35, 2.08640843629837036133e-01) (36, 2.71967738866806030273e-01) (37, 6.05864405632019042969e-01) (38, 1.06786036491394042969e+00) (39, 8.70152771472930908203e-01) (40, 6.05130434036254882812e-01) (41, 9.85457062721252441406e-01) (17, 9.47556674480438232422e-01) (18, 1.01919460296630859375e+00) (19, 9.13898289203643798828e-01) (20, 1.58626019954681396484e-01) (21, 8.63371253013610839844e-01) (22, 5.56260168552398681641e-01) (23, 4.79519814252853393555e-01) (24, 4.50303852558135986328e-02) (25, 8.60292196273803710938e-01) (26, 7.56597995758056640625e-01) (27, 1.49602681398391723633e-01) (28, 7.15250670909881591797e-01) (29, 5.68355977535247802734e-01) (30, 9.52969968318939208984e-01) (31, 5.17515122890472412109e-01) (32, 5.49466013908386230469e-01) (33, 4.68738257884979248047e-01) (34, 2.13761314749717712402e-01) (35, 6.98380649089813232422e-01) (36, 7.04662203788757324219e-01) (37, 1.14011108875274658203e+00) (38, 6.05471372604370117188e-01) (39, 9.63901996612548828125e-01) (40, 4.64631348848342895508e-01) (41, 8.96655082702636718750e-01) (17, 6.25983655452728271484e-01) (18, 5.68276703357696533203e-01) (19, 7.75055438280105590820e-02) (20, 4.59556549787521362305e-01) (21, 4.15166586637496948242e-01) (22, 2.75677554309368133545e-02) (23, 2.67886549234390258789e-01) (24, 9.38651978969573974609e-01) (25, 6.00161194801330566406e-01) (26, -6.47832453250885009766e-02) (27, 1.37518370151519775391e+00) (28, 5.41047096252441406250e-01) (29, 1.13524663448333740234e+00) (30, 1.00542092323303222656e+00) (31, 2.37832546234130859375e-01) (32, 3.18148732185363769531e-01) (33, 1.12183856964111328125e+00) (34, 5.57452499866485595703e-01) (35, 8.51589322090148925781e-01) (36, 3.39629977941513061523e-01) (37, 7.83739924430847167969e-01) (38, 1.46561694145202636719e+00) (39, 1.80293604731559753418e-01) (40, 5.60299277305603027344e-01) (41, 3.28602671623229980469e-01) (17, 4.71543371677398681641e-01) (18, 6.17710649967193603516e-01) (19, 2.88554161787033081055e-01) (20, 9.56405103206634521484e-01) (21, 2.83708453178405761719e-01) (22, 1.69054463505744934082e-01) (23, 4.43747222423553466797e-01) (24, 1.18000841140747070312e+00) (25, 5.60648977756500244141e-01) (26, 3.70035082101821899414e-01) (27, 4.49505537748336791992e-01) (28, -2.68861174583435058594e-01) (29, 1.50467884540557861328e+00) (30, 6.36677503585815429688e-01) (31, 3.27271342277526855469e-01) (32, 2.60681837797164916992e-01) (33, 7.96644866466522216797e-01) (34, 3.93427044153213500977e-01) (35, -5.90641319751739501953e-01) (36, 3.43858629465103149414e-01) (37, 3.77577394247055053711e-01) (38, 5.15019416809082031250e-01) (39, -2.85203194618225097656e+00) (40, 4.73325341939926147461e-01) (41, 4.36864763498306274414e-01) (17, 9.61207211017608642578e-01) (18, 8.89251589775085449219e-01) (19, -5.23555219173431396484e-01) (20, 5.47875940799713134766e-01) (21, 9.78290438652038574219e-01) (22, -1.34834006428718566895e-01) (23, 5.03450930118560791016e-01) (24, 2.53044128417968750000e-01) (25, 7.87365317344665527344e-01) (26, 6.67901515960693359375e-01) (27, 1.21516847610473632812e+00) (28, -1.03831410408020019531e+00) (29, 1.44990706443786621094e+00) (30, 6.09482347965240478516e-01) (31, -2.22132652997970581055e-02) (32, 8.47137421369552612305e-02) (33, 1.11162161827087402344e+00) (34, 1.36950194835662841797e-01) (35, 2.93569499626755714417e-03) (36, 7.84273624420166015625e-01) (37, 8.06017577648162841797e-01) (38, 1.39131128787994384766e+00) (39, 2.96804606914520263672e-02) (40, 9.06322002410888671875e-01) (41, 1.09023308753967285156e+00) (17, 8.46651256084442138672e-01) (18, 8.23324024677276611328e-01) (19, 1.47782728075981140137e-01) (20, 2.06800043582916259766e-01) (21, 7.48687505722045898438e-01) (22, 7.48344600200653076172e-01) (23, 8.75574707984924316406e-01) (24, 6.10416591167449951172e-01) (25, 9.11846876144409179688e-01) (26, 7.79573202133178710938e-01) (27, 8.20557713508605957031e-01) (28, 7.66534149646759033203e-01) (29, 4.97618794441223144531e-01) (30, 7.69196629524230957031e-01) (31, 8.73753428459167480469e-01) (32, 2.86269634962081909180e-01) (33, 1.29980146884918212891e+00) (34, 1.57753720879554748535e-01) (35, 7.87025332450866699219e-01) (36, 2.89417684078216552734e-01) (37, 8.64360928535461425781e-01) (38, 6.55392110347747802734e-01) (39, 3.90054702758789062500e-01) (40, 8.49644660949707031250e-01) (41, 3.60494285821914672852e-01) (17, 4.83912378549575805664e-01) (18, 8.83880913257598876953e-01) (19, 9.00305151939392089844e-01) (20, 1.11761915683746337891e+00) (21, 1.67675241827964782715e-01) (22, 4.79797631502151489258e-01) (23, 3.40842366218566894531e+00) (24, 1.73698616027832031250e+00) (25, 5.18543660640716552734e-01) (26, 8.71139168739318847656e-01) (27, 5.15075623989105224609e-01) (28, 5.52690625190734863281e-01) (29, 1.10064125061035156250e+00) (30, 8.48174750804901123047e-01) (31, 3.62581238150596618652e-02) (32, 6.39382600784301757812e-01) (33, 2.80416399240493774414e-01) (34, 1.59923002123832702637e-01) (35, 2.97795534133911132812e-01) (36, -1.53768002986907958984e-01) (37, 5.28911471366882324219e-01) (38, 2.70629048347473144531e-01) (39, 2.96077691018581390381e-02) (40, 1.14606857299804687500e+00) (41, 6.84383690357208251953e-01) (17, 2.32553929090499877930e-01) (18, 8.34928035736083984375e-01) (19, 1.61928609013557434082e-01) (20, 2.47147828340530395508e-01) (21, 1.23409748077392578125e+00) (22, 9.11747366189956665039e-02) (23, 4.77152228355407714844e-01) (24, 4.93192344903945922852e-01) (25, 4.72927987575531005859e-01) (26, 6.63632392883300781250e-01) (27, 9.09072101116180419922e-01) (28, 1.48182535171508789062e+00) (29, 7.64306128025054931641e-01) (30, 3.37601244449615478516e-01) (31, 4.50172036886215209961e-01) (32, 1.13202846050262451172e+00) (33, 9.65206682682037353516e-01) (34, 2.76011705398559570312e-01) (35, 1.56140714883804321289e-01) (36, 1.34365475177764892578e+00) (37, 1.51527249813079833984e+00) (38, 9.29414987564086914062e-01) (39, 4.81911659240722656250e-01) (40, 7.78803884983062744141e-01) (41, 7.12775170803070068359e-01) (17, 3.63642334938049316406e-01) (18, 9.22234416007995605469e-01) (19, 6.44301593303680419922e-01) (20, 6.65416792035102844238e-02) (21, 1.03052866458892822266e+00) (22, 6.59849569201469421387e-02) (23, 6.09542071819305419922e-01) (24, 8.62321257591247558594e-01) (25, 1.13042116165161132812e+00) (26, 5.14198303222656250000e-01) (27, 3.36761653423309326172e-01) (28, 1.87699544429779052734e+00) (29, 1.10974133014678955078e+00) (30, 6.12976908683776855469e-01) (31, 6.15436017513275146484e-01) (32, 2.97082632780075073242e-01) (33, 1.36196255683898925781e+00) (34, 3.55303555727005004883e-01) (35, 7.94138133525848388672e-01) (36, 1.34275305271148681641e+00) (37, 1.46441590785980224609e+00) (38, 1.92791450023651123047e+00) (39, 7.71982431411743164062e-01) (40, 8.79080832004547119141e-01) (41, -3.31584960222244262695e-02) (17, 2.29719221591949462891e-01) (18, 5.81261157989501953125e-01) (19, 3.40484410524368286133e-01) (20, -1.49360587820410728455e-02) (21, 1.17194986343383789062e+00) (22, -2.04936861991882324219e-01) (23, 1.86612680554389953613e-02) (24, 2.17720285058021545410e-01) (25, 7.79151320457458496094e-01) (26, 4.93634790182113647461e-01) (27, 7.04635202884674072266e-01) (28, 1.05049526691436767578e+00) (29, 6.78874075412750244141e-01) (30, 1.15860365331172943115e-01) (31, 7.59685263037681579590e-02) (32, 7.43245244026184082031e-01) (33, 4.58989083766937255859e-01) (34, 1.71276450157165527344e-01) (35, 2.35263720154762268066e-01) (36, 1.76785647869110107422e+00) (37, 1.28010284900665283203e+00) (38, 1.00434339046478271484e+00) (39, 3.15721303224563598633e-01) (40, 1.26196253299713134766e+00) (41, 6.28392815589904785156e-01) (17, 8.63299310207366943359e-01) (18, 1.37743127346038818359e+00) (19, 7.32544004917144775391e-01) (20, 2.27956160902976989746e-01) (21, 1.16607213020324707031e+00) (22, 3.94551306962966918945e-01) (23, 6.83001160621643066406e-01) (24, 5.76789140701293945312e-01) (25, 2.32092618942260742188e+00) (26, 3.74349415302276611328e-01) (27, 3.34816813468933105469e-01) (28, 7.72404849529266357422e-01) (29, 1.19269669055938720703e+00) (30, 5.32598614692687988281e-01) (31, -2.23940894007682800293e-01) (32, 6.10674262046813964844e-01) (33, 7.67780303955078125000e-01) (34, 5.79563558101654052734e-01) (35, 1.75312131643295288086e-01) (36, 8.63863825798034667969e-01) (37, 9.50262248516082763672e-01) (38, 2.55494832992553710938e+00) (39, 9.54922020435333251953e-01) (40, 1.32988953590393066406e+00) (41, 6.90664052963256835938e-01) (17, 5.42191624641418457031e-01) (18, 1.28040969371795654297e+00) (19, 1.23870241641998291016e+00) (20, 1.35812497138977050781e+00) (21, 7.17786550521850585938e-01) (22, 1.14452946186065673828e+00) (23, 7.17252373695373535156e-01) (24, 4.89349305629730224609e-01) (25, -1.55122550204396247864e-02) (26, -5.30525326728820800781e-01) (27, 3.56682717800140380859e-01) (28, 6.20271980762481689453e-01) (29, 3.30106735229492187500e-01) (30, 1.82404458522796630859e+00) (31, 3.13505287170410156250e+01) (32, 1.03360450267791748047e+00) (33, 6.69528186321258544922e-01) (34, 9.05559182167053222656e-01) (35, 1.64117252826690673828e+00) (36, 8.70339751243591308594e-01) (37, 9.51346039772033691406e-01) (38, 6.64918601512908935547e-01) (39, 9.27872359752655029297e-01) (40, 5.74121356010437011719e-01) (41, 1.12293040752410888672e+00) (17, 5.42553961277008056641e-01) (18, 8.10621261596679687500e-01) (19, 1.62367910146713256836e-01) (20, -4.10411238670349121094e-01) (21, 4.83703523874282836914e-01) (22, -6.62059485912322998047e-02) (23, 9.91162136197090148926e-02) (24, 6.05655670166015625000e-01) (25, 1.74344503879547119141e+00) (26, -4.44038473069667816162e-02) (27, 2.02928408980369567871e-01) (28, 3.53186011314392089844e-01) (29, 1.01885724067687988281e+00) (30, 1.27719521522521972656e-01) (31, 2.54278212785720825195e-01) (32, 6.80194079875946044922e-01) (33, 7.35467493534088134766e-01) (34, 1.74542516469955444336e-01) (35, 3.48404258489608764648e-01) (36, 6.63696527481079101562e-01) (37, 2.23938971757888793945e-01) (38, 1.18944394588470458984e+00) (39, -2.11358647793531417847e-02) (40, 9.93148922920227050781e-01) (41, 7.88743734359741210938e-01) (17, 4.50233638286590576172e-01) (18, 2.35784992575645446777e-01) (19, -3.02544951438903808594e-01) (20, -8.40800639707595109940e-04) (21, 6.37923657894134521484e-01) (22, -2.69553065299987792969e+00) (23, -1.80812105536460876465e-01) (24, 5.77110886573791503906e-01) (25, 2.34434112906455993652e-01) (26, 3.04086446762084960938e-01) (27, -6.30676686763763427734e-01) (28, 6.29903912544250488281e-01) (29, 3.56496632099151611328e-01) (30, 3.12647163867950439453e-01) (31, -5.01881539821624755859e-01) (32, 4.61846947669982910156e-01) (33, -2.39159917831420898438e+00) (34, -1.33229899406433105469e+00) (35, -1.10500478744506835938e+00) (36, 9.45858418941497802734e-01) (37, 3.27064633369445800781e-01) (38, 5.92839837074279785156e-01) (39, -1.02872276306152343750e+00) (40, -7.46147986501455307007e-03) (41, 7.78332650661468505859e-01) (17, 9.38011765480041503906e-01) (18, 7.91194140911102294922e-01) (19, 2.03042700886726379395e-01) (20, -1.89140588045120239258e-01) (21, 6.84185445308685302734e-01) (22, -2.02280916273593902588e-02) (23, -2.10333451628684997559e-01) (24, 6.47373616695404052734e-01) (25, 9.11928713321685791016e-01) (26, 3.92771065235137939453e-01) (27, 8.01844596862792968750e-01) (28, 3.87901104986667633057e-02) (29, 4.74215418100357055664e-01) (30, 8.05256068706512451172e-01) (31, 2.44055852293968200684e-01) (32, 5.01138985157012939453e-01) (33, 9.33592021465301513672e-01) (34, 5.35425841808319091797e-01) (35, 4.33643788099288940430e-01) (36, 9.15559172630310058594e-01) (37, 6.45384371280670166016e-01) (38, 1.61906623840332031250e+00) (39, -6.82414650917053222656e-01) (40, 6.94962501525878906250e-01) (41, 4.18472647666931152344e-01) (42, 1.82455047965049743652e-01) (43, -9.71113145351409912109e-02) (44, 1.12232458591461181641e+00) (45, 5.93151092529296875000e-01) (46, 4.92146968841552734375e-01) (47, -5.47124035656452178955e-02) (48, 2.28245243430137634277e-01) (49, 5.61132729053497314453e-01) (50, -8.86098384857177734375e-01) (51, 5.60088872909545898438e-01) (52, 4.70338135957717895508e-01) (53, 8.63198518753051757812e-01) (54, 1.16519606113433837891e+00) (55, 1.71349859237670898438e+00) (56, 2.83052563667297363281e-01) (57, 1.87609046697616577148e-01) (58, 1.30835557356476783752e-02) (59, 3.24358075857162475586e-01) (60, 1.73476889729499816895e-01) (61, -9.63121578097343444824e-02) (62, 5.11312365531921386719e-01) (63, 8.73866081237792968750e-01) (64, 2.67065227031707763672e-01) (65, 3.34125787019729614258e-01) (66, -3.99545989930629730225e-02) (42, 4.54372912645339965820e-01) (43, 6.68691813945770263672e-01) (44, 1.04339754581451416016e+00) (45, 6.78196251392364501953e-01) (46, 4.93566870689392089844e-01) (47, 1.29000473022460937500e+00) (48, 7.11351156234741210938e-01) (49, 1.88983857631683349609e-01) (50, 9.88326013088226318359e-01) (51, 7.16417074203491210938e-01) (52, 3.86281520128250122070e-01) (53, 9.30701911449432373047e-01) (54, 8.57782959938049316406e-01) (55, 1.01048076152801513672e+00) (56, -4.86539974808692932129e-02) (57, 9.64687839150428771973e-02) (58, 3.07664513587951660156e-01) (59, 8.84541749954223632812e-01) (60, -2.84130126237869262695e-01) (61, 2.58055031299591064453e-01) (62, 6.10530436038970947266e-01) (63, 5.07036149501800537109e-01) (64, -3.74229878187179565430e-01) (65, 6.60935461521148681641e-01) (66, 1.21743822097778320312e+00) (42, 4.06767457723617553711e-01) (43, -3.21327030658721923828e-01) (44, 7.94005453586578369141e-01) (45, -5.63083589076995849609e-02) (46, 7.71076440811157226562e-01) (47, 7.33310163021087646484e-01) (48, 6.95079147815704345703e-01) (49, 4.25274461507797241211e-01) (50, 5.85297107696533203125e-01) (51, 6.87147438526153564453e-01) (52, 7.22486302256584167480e-02) (53, 4.45533543825149536133e-01) (54, 3.83390307426452636719e-01) (55, 6.82406425476074218750e-01) (56, 9.35598015785217285156e-01) (57, -7.16804936528205871582e-02) (58, 7.19172120094299316406e-01) (59, -7.44977891445159912109e-01) (60, 8.68966519832611083984e-01) (61, -2.58001893758773803711e-01) (62, -1.39597663655877113342e-02) (63, 5.18558740615844726562e-01) (64, 8.59384238719940185547e-01) (65, 8.42333316802978515625e-01) (66, -1.34533071517944335938e+00) (42, 9.25082713365554809570e-02) (43, 4.03551012277603149414e-02) (44, 2.57979005575180053711e-01) (45, 2.35726773738861083984e-01) (46, 4.12928223609924316406e-01) (47, -1.04228205978870391846e-01) (48, -1.09320990741252899170e-01) (49, 4.08699393272399902344e-01) (50, -2.34043359756469726562e+00) (51, 4.66830790042877197266e-01) (52, -5.71143329143524169922e-02) (53, 4.72554266452789306641e-01) (54, 6.28839433193206787109e-01) (55, 8.47693011164665222168e-02) (56, 4.09788340330123901367e-01) (57, 1.84032261371612548828e-01) (58, -2.51973539590835571289e-01) (59, -1.76593780517578125000e-01) (60, -4.11854349076747894287e-02) (61, -7.06710293889045715332e-02) (62, -9.07093226909637451172e-01) (63, 5.83391308784484863281e-01) (64, 1.39751446247100830078e+00) (65, 4.23839271068572998047e-01) (66, 1.22583115100860595703e+00) (42, 1.72339066863059997559e-01) (43, 3.43695849180221557617e-01) (44, 4.86198097467422485352e-01) (45, 1.07487022876739501953e+00) (46, 6.47295534610748291016e-01) (47, 8.62417295575141906738e-02) (48, 3.90522778034210205078e-01) (49, 2.43831753730773925781e-01) (50, 9.19483378529548645020e-02) (51, 3.37025582790374755859e-01) (52, 3.66237193346023559570e-01) (53, 7.76632189750671386719e-01) (54, 6.75206542015075683594e-01) (55, 8.29874396324157714844e-01) (56, 1.80261339992284774780e-02) (57, 3.31724077463150024414e-01) (58, 5.19869387149810791016e-01) (59, 4.78957116603851318359e-01) (60, 1.35593758895993232727e-02) (61, -2.03847721219062805176e-01) (62, -2.13986515998840332031e+00) (63, 7.26261734962463378906e-01) (64, 3.14946144819259643555e-01) (65, 5.72947323322296142578e-01) (66, 2.33764305710792541504e-01) (42, 3.82561624050140380859e-01) (43, 7.58570551872253417969e-01) (44, 5.35408258438110351562e-01) (45, 5.81026315689086914062e-01) (46, 1.18446135520935058594e+00) (47, 4.40731257200241088867e-01) (48, 5.55622756481170654297e-01) (49, 3.60514312982559204102e-01) (50, 2.04050689935684204102e-01) (51, 2.48069345951080322266e-01) (52, 3.80812406539916992188e-01) (53, 1.02676439285278320312e+00) (54, 8.84434878826141357422e-01) (55, 5.39524018764495849609e-01) (56, -2.57730633020401000977e-02) (57, 4.92796450853347778320e-01) (58, -2.37265024334192276001e-02) (59, 4.89937245845794677734e-01) (60, 1.21164023876190185547e-02) (61, 4.60838645696640014648e-01) (62, 1.04568533599376678467e-01) (63, 4.40643548965454101562e-01) (64, 5.12593984603881835938e-01) (65, 5.97547650337219238281e-01) (66, 5.76395750045776367188e-01) (42, -3.97105775773525238037e-02) (43, 3.68572145700454711914e-01) (44, 6.43475055694580078125e-01) (45, 1.02556037902832031250e+00) (46, 9.39988076686859130859e-01) (47, -5.31618297100067138672e-01) (48, 7.61403799057006835938e-01) (49, 1.23717198148369789124e-02) (50, -4.89453643560409545898e-01) (51, 3.98440420627593994141e-01) (52, 8.68350043892860412598e-02) (53, 4.62449342012405395508e-01) (54, 5.00753700733184814453e-01) (55, 7.77319550514221191406e-01) (56, 4.12752091884613037109e-01) (57, 8.91842246055603027344e-01) (58, 1.96455329656600952148e-01) (59, 4.48058068752288818359e-01) (60, 4.33663845062255859375e-01) (61, 1.46427929401397705078e-01) (62, 7.03908383846282958984e-01) (63, 5.32110631465911865234e-01) (64, -1.41414487734436988831e-02) (65, 1.32552707195281982422e+00) (66, 1.97670769691467285156e+00) (42, 1.28344345092773437500e+00) (43, 1.59726178646087646484e+00) (44, 9.67708706855773925781e-01) (45, 7.92280375957489013672e-01) (46, 1.71061038970947265625e+00) (47, 8.68905186653137207031e-01) (48, 1.71121692657470703125e+00) (49, 9.72440481185913085938e-01) (50, 9.88033175468444824219e-01) (51, 1.34168183803558349609e+00) (52, 7.67225503921508789062e-01) (53, 1.28942990303039550781e+00) (54, 7.43207156658172607422e-01) (55, 7.77518033981323242188e-01) (56, 9.99205589294433593750e-01) (57, 8.23127806186676025391e-01) (58, 1.09853792190551757812e+00) (59, 1.53601491451263427734e+00) (60, 7.75955557823181152344e-01) (61, 1.37396609783172607422e+00) (62, 1.09721951186656951904e-01) (63, 9.71572935581207275391e-01) (64, 7.14350342750549316406e-01) (65, 7.16809928417205810547e-01) (66, 6.56116724014282226562e-01) (42, 8.47953617572784423828e-01) (43, 3.05813014507293701172e-01) (44, 1.32155442237854003906e+00) (45, 6.64856433868408203125e-01) (46, 9.87214088439941406250e-01) (47, 5.43722033500671386719e-01) (48, 1.22479534149169921875e+00) (49, 4.96724694967269897461e-01) (50, -2.32736229896545410156e-01) (51, 2.67013460397720336914e-01) (52, 1.98873087763786315918e-01) (53, 6.81309938430786132812e-01) (54, 5.55535376071929931641e-01) (55, 1.07650077342987060547e+00) (56, 3.59057247638702392578e-01) (57, 6.16948723793029785156e-01) (58, 2.16159626841545104980e-01) (59, 8.11051547527313232422e-01) (60, 5.62849521636962890625e-01) (61, 5.92279374599456787109e-01) (62, 2.80030429363250732422e-01) (63, 1.16237902641296386719e+00) (64, -2.98693515360355377197e-02) (65, 6.32659614086151123047e-01) (66, 1.29599475860595703125e+00) (42, 5.90069770812988281250e-01) (43, 8.27576875686645507812e-01) (44, 4.61251437664031982422e-01) (45, 3.99871915578842163086e-01) (46, 1.43825340270996093750e+00) (47, 6.23270988464355468750e-01) (48, 6.65518045425415039062e-01) (49, -4.50373053550720214844e-01) (50, -3.88449430465698242188e-01) (51, 1.09011508524417877197e-01) (52, 2.66586750745773315430e-01) (53, 3.26682358980178833008e-01) (54, 5.88516712188720703125e-01) (55, 6.73126339912414550781e-01) (56, 3.12485098838806152344e-01) (57, 2.31660589575767517090e-01) (58, 1.04063189029693603516e+00) (59, 2.47912436723709106445e-01) (60, 1.37259408831596374512e-01) (61, 3.09621930122375488281e-01) (62, 2.00012326240539550781e-01) (63, 3.69585305452346801758e-01) (64, 1.44799709320068359375e+00) (65, 5.34042716026306152344e-01) (66, 1.23766064643859863281e+00) (42, 9.46375906467437744141e-01) (43, 8.89986097812652587891e-01) (44, 1.18750739097595214844e+00) (45, 8.18451344966888427734e-01) (46, -5.60532137751579284668e-02) (47, 3.78379106521606445312e-01) (48, 6.73779070377349853516e-01) (49, 5.97560226917266845703e-01) (50, -5.39249122142791748047e-01) (51, 6.61570250988006591797e-01) (52, 5.44606149196624755859e-01) (53, 7.58594095706939697266e-01) (54, 6.86860024929046630859e-01) (55, 6.49178624153137207031e-01) (56, 9.57043230533599853516e-01) (57, -4.48082327842712402344e-01) (58, 8.17914843559265136719e-01) (59, 7.57784307003021240234e-01) (60, 2.03081965446472167969e-01) (61, 7.72370457649230957031e-01) (62, -2.87896662950515747070e-01) (63, 6.28192067146301269531e-01) (64, 3.72976005077362060547e-01) (65, 1.05773580074310302734e+00) (66, 1.46485519409179687500e+00) (42, 3.16336601972579956055e-01) (43, -3.70567776262760162354e-02) (44, 1.75293743610382080078e-01) (45, 1.26782047748565673828e+00) (46, 2.35761001706123352051e-01) (47, 2.28803023695945739746e-01) (48, 6.87715038657188415527e-02) (49, 1.37618750333786010742e-01) (50, -9.42671179771423339844e-01) (51, 1.65870070457458496094e-01) (52, 1.31699547171592712402e-01) (53, 2.33008131384849548340e-01) (54, 9.13549959659576416016e-01) (55, 1.98646813631057739258e-01) (56, -1.72629311680793762207e-01) (57, -7.89261817932128906250e-01) (58, 3.76010566949844360352e-01) (59, 3.34906309843063354492e-01) (60, 6.86096549034118652344e-01) (61, 6.88860774040222167969e-01) (62, -8.04992258548736572266e-01) (63, 1.06707108020782470703e+00) (64, 1.90305709838867187500e-01) (65, 1.10544279217720031738e-01) (66, 5.12490868568420410156e-01) (42, 5.09017765522003173828e-01) (43, 2.25999087095260620117e-01) (44, 1.19106793403625488281e+00) (45, 5.96505105495452880859e-01) (46, 5.10162174701690673828e-01) (47, 6.64708852767944335938e-01) (48, 6.38203442096710205078e-01) (49, -4.91666108369827270508e-01) (50, 6.90024495124816894531e-01) (51, 6.16362333297729492188e-01) (52, 4.11989092826843261719e-01) (53, 3.11270922422409057617e-01) (54, 1.14893591403961181641e+00) (55, 8.05988073348999023438e-01) (56, 4.07420933246612548828e-01) (57, 2.33839702606201171875e+00) (58, 3.06356489658355712891e-01) (59, 2.46982127428054809570e-01) (60, 3.19807440042495727539e-01) (61, 3.90568137168884277344e-01) (62, 5.60629546642303466797e-01) (63, 8.07108879089355468750e-01) (64, -5.20315691828727722168e-02) (65, -1.01385116577148437500e-02) (66, 9.82407927513122558594e-01) (42, 1.80356577038764953613e-01) (43, 3.59962940216064453125e-01) (44, 8.37268352508544921875e-01) (45, 4.95356738567352294922e-01) (46, 9.50008034706115722656e-01) (47, 5.27211368083953857422e-01) (48, 8.52937579154968261719e-01) (49, 1.98896467685699462891e-01) (50, -5.76471816748380661011e-03) (51, 1.72420144081115722656e-01) (52, 3.97036015987396240234e-01) (53, 6.83650970458984375000e-01) (54, 8.68263185024261474609e-01) (55, 1.01375138759613037109e+00) (56, 2.70858824253082275391e-01) (57, -8.16310793161392211914e-02) (58, 6.97953820228576660156e-01) (59, 2.27163970470428466797e-01) (60, 6.50765538215637207031e-01) (61, 5.71230709552764892578e-01) (62, 1.22016444802284240723e-01) (63, 1.25623190402984619141e+00) (64, -8.35781171917915344238e-02) (65, 9.35629606246948242188e-01) (66, 1.95840835571289062500e+00) (42, 4.39361661672592163086e-01) (43, 8.92946898937225341797e-01) (44, 1.12228572368621826172e+00) (45, 1.16112267971038818359e+00) (46, 1.02675879001617431641e+00) (47, 2.84436047077178955078e-01) (48, 7.43704497814178466797e-01) (49, 3.24540257453918457031e-01) (50, 6.50047659873962402344e-02) (51, -1.48609444499015808105e-01) (52, 7.67662465572357177734e-01) (53, 9.51461315155029296875e-01) (54, 4.20410394668579101562e-01) (55, 8.68528306484222412109e-01) (56, 2.07757204771041870117e-01) (57, 4.21601712703704833984e-01) (58, 5.34253478050231933594e-01) (59, 2.39901706576347351074e-01) (60, 6.10890328884124755859e-01) (61, 4.96566712856292724609e-01) (62, 2.04907625913619995117e-01) (63, 1.12737786769866943359e+00) (64, 2.48860165476799011230e-01) (65, 1.36334562301635742188e+00) (66, 1.62167513370513916016e+00) (42, -2.87398308515548706055e-01) (43, -1.70150089263916015625e+00) (44, 2.17402935028076171875e-01) (45, -2.12610810995101928711e-01) (46, -4.98810708522796630859e-01) (47, -1.47333550453186035156e+00) (48, -1.43457150459289550781e+00) (49, 1.57760128378868103027e-01) (50, 3.35798919200897216797e-01) (51, -4.33753699064254760742e-01) (52, 4.90707196295261383057e-02) (53, 2.21361353993415832520e-01) (54, -9.73865151405334472656e-01) (55, 1.21726326644420623779e-01) (56, -2.91673094034194946289e-01) (57, 2.26097658276557922363e-01) (58, 1.40863761305809020996e-01) (59, -9.40390706062316894531e-01) (60, -4.17528033256530761719e-01) (61, -2.46833252906799316406e+00) (62, 3.40259253978729248047e-01) (63, -3.53487521409988403320e-01) (64, 7.08536446094512939453e-01) (65, 2.64493495225906372070e-01) (66, 1.58106756210327148438e+00) (42, 1.84905374050140380859e+00) (43, 6.55699372291564941406e-01) (44, 7.22212433815002441406e-01) (45, 1.75207126140594482422e+00) (46, 7.97551453113555908203e-01) (47, 7.88498699665069580078e-01) (48, 1.04391837120056152344e+00) (49, 5.88585281372070312500e+00) (50, 1.85019165277481079102e-01) (51, 1.64523386955261230469e+00) (52, 5.61950623989105224609e-01) (53, 1.15822803974151611328e+00) (54, 7.46580421924591064453e-01) (55, 1.03649008274078369141e+00) (56, 1.89425587654113769531e+00) (57, 4.27937239408493041992e-01) (58, 9.43729937076568603516e-01) (59, 1.60714685916900634766e+00) (60, 2.28728914260864257812e+00) (61, 8.47662627696990966797e-01) (62, -1.50636523962020874023e-01) (63, 1.92993140220642089844e+00) (64, 1.37029349803924560547e-01) (65, 1.02131521701812744141e+00) (66, 1.41012334823608398438e+00) (42, -1.46250262856483459473e-01) (43, -1.58515527844429016113e-01) (44, 2.70429074764251708984e-01) (45, 2.55094707012176513672e-01) (46, 5.33391654491424560547e-01) (47, -9.14576575160026550293e-02) (48, -3.22875007987022399902e-02) (49, 1.63910016417503356934e-01) (50, -3.89927077293395996094e+00) (51, 6.47353589534759521484e-01) (52, 7.14416503906250000000e-02) (53, 5.17825365066528320312e-01) (54, 2.54014998674392700195e-01) (55, 1.18622422218322753906e-01) (56, -9.30146500468254089355e-02) (57, -5.18515825271606445312e-01) (58, -1.22003436088562011719e-01) (59, 6.54811486601829528809e-02) (60, -1.87108498066663742065e-02) (61, -4.12001623772084712982e-04) (62, -3.91827642917633056641e-01) (63, 5.05739808082580566406e-01) (64, 9.30687010288238525391e-01) (65, 2.64709174633026123047e-01) (66, 5.00346362590789794922e-01) (42, 3.58750373125076293945e-02) (43, -3.44630837440490722656e-01) (44, 8.91557931900024414062e-01) (45, 3.47671180963516235352e-01) (46, 4.32060331106185913086e-01) (47, 2.36505538225173950195e-01) (48, 5.13711929321289062500e-01) (49, 9.79434773325920104980e-02) (50, 3.76357764005661010742e-01) (51, -2.44280342012643814087e-02) (52, 3.82768064737319946289e-01) (53, 5.46158015727996826172e-01) (54, 1.11613535881042480469e+00) (55, 7.99362182617187500000e-01) (56, 2.90226638317108154297e-01) (57, 5.98433494567871093750e-01) (58, -3.91642570495605468750e-01) (59, -1.43848434090614318848e-01) (60, -1.10908232629299163818e-01) (61, 2.40723460912704467773e-01) (62, 5.13716459274291992188e-01) (63, 3.53980481624603271484e-01) (64, -5.73853552341461181641e-02) (65, 3.30626696348190307617e-01) (66, 2.51752138137817382812e-01) (42, 1.31564140319824218750e-01) (43, -4.04189288616180419922e-01) (44, 9.63519394397735595703e-01) (45, 4.60026741027832031250e-01) (46, 4.27393376827239990234e-01) (47, 1.81137919425964355469e-01) (48, 5.37223279476165771484e-01) (49, -8.85414257645606994629e-02) (50, 6.40165865421295166016e-01) (51, 1.26607328653335571289e-01) (52, 2.62537956237792968750e-01) (53, 2.26120606064796447754e-01) (54, 1.04363667964935302734e+00) (55, 5.21789014339447021484e-01) (56, 5.73643147945404052734e-01) (57, 7.68552184104919433594e-01) (58, 1.58168852329254150391e-01) (59, 1.07188642024993896484e-01) (60, -7.69739270210266113281e-01) (61, 9.27581414580345153809e-02) (62, 6.75252974033355712891e-01) (63, -1.01419322192668914795e-01) (64, 4.22086268663406372070e-01) (65, -5.67616522312164306641e-02) (66, 1.62461328506469726562e+00) (42, 3.66681128740310668945e-01) (43, 2.81782187521457672119e-02) (44, 3.28137874603271484375e-01) (45, 6.47692978382110595703e-01) (46, 6.20916336774826049805e-02) (47, 2.93052136898040771484e-01) (48, 3.76569032669067382812e-01) (49, -2.64131605625152587891e-01) (50, 7.13359713554382324219e-01) (51, 1.96832660585641860962e-02) (52, 4.50225502252578735352e-01) (53, 7.46867835521697998047e-01) (54, 3.20199549198150634766e-01) (55, 6.63311541080474853516e-01) (56, 1.79099753499031066895e-01) (57, 2.08675050735473632812e+00) (58, -1.07096396386623382568e-01) (59, 6.13084435462951660156e-01) (60, -2.11922228336334228516e-01) (61, -1.31560107693076133728e-02) (62, 3.02482217550277709961e-01) (63, 3.97572159767150878906e-01) (64, -1.12480664253234863281e+00) (65, -1.12345740199089050293e-01) (66, 9.03404951095581054688e-02) (42, 1.69068121910095214844e+00) (43, 7.47164189815521240234e-01) (44, 7.54513978958129882812e-01) (45, 9.59736943244934082031e-01) (46, 1.21719062328338623047e+00) (47, 2.82205319404602050781e+00) (48, 8.46611201763153076172e-01) (49, 8.54718744754791259766e-01) (50, -2.34562437981367111206e-02) (51, 9.56852018833160400391e-01) (52, 5.82910358905792236328e-01) (53, 1.25701105594635009766e+00) (54, 9.13926959037780761719e-01) (55, 1.15813839435577392578e+00) (56, 1.08425664901733398438e+00) (57, 9.40398991107940673828e-01) (58, 9.97067213058471679688e-01) (59, 1.69249498844146728516e+00) (60, 1.28703868389129638672e+00) (61, 8.92005026340484619141e-01) (62, 2.99612373113632202148e-01) (63, 5.17531752586364746094e-01) (64, 4.74876284599304199219e-01) (65, 1.17832458019256591797e+00) (66, -2.99026340246200561523e-01) (42, 3.86541448533535003662e-02) (43, 1.99289798736572265625e-01) (44, 1.03909361362457275391e+00) (45, -4.04750742018222808838e-02) (46, 4.13682132959365844727e-01) (47, -3.78077447414398193359e-01) (48, 5.82096219062805175781e-01) (49, 4.18113797903060913086e-01) (50, 1.99316423386335372925e-02) (51, 1.40189975500106811523e-02) (52, -6.60340189933776855469e-01) (53, 1.41302561759948730469e+00) (54, 6.66598141193389892578e-01) (55, 7.99084603786468505859e-01) (56, 1.12416410446166992188e+00) (57, 7.30175673961639404297e-01) (58, -2.22568720579147338867e-01) (59, -3.17510753870010375977e-01) (60, -4.50064450502395629883e-01) (61, 5.30844032764434814453e-01) (62, 2.77452528476715087891e-01) (63, 2.28277400135993957520e-01) (64, -3.49934585392475128174e-02) (65, 5.46117365360260009766e-01) (66, 4.17169034481048583984e-01) (42, -3.83546769618988037109e-01) (43, 8.55618864297866821289e-02) (44, 2.62873172760009765625e+00) (45, 1.48050713539123535156e+00) (46, 1.59126341342926025391e+00) (47, 1.88428843021392822266e+00) (48, 8.36075127124786376953e-01) (49, 1.33303821086883544922e-01) (50, 5.82553207874298095703e-01) (51, 5.21888494491577148438e-01) (52, 1.53858020901679992676e-01) (53, 1.34328019618988037109e+00) (54, 2.22387790679931640625e+00) (55, 2.30621123313903808594e+00) (56, 7.27474927902221679688e-01) (57, 7.89406299591064453125e-01) (58, 3.92743706703186035156e-01) (59, 5.61209917068481445312e-01) (60, 4.51012879610061645508e-01) (61, 1.13703811168670654297e+00) (62, -8.89933884143829345703e-01) (63, 1.17831683158874511719e+00) (64, 3.39092552661895751953e-01) (65, 2.70271039009094238281e+00) (66, -2.15954095125198364258e-01) (67, 6.09915912151336669922e-01) (68, 8.82716774940490722656e-02) (69, 8.18715319037437438965e-02) (70, 3.11761230230331420898e-01) (71, 6.65412750095129013062e-03) (72, 2.00457088649272918701e-02) (73, 1.04859195649623870850e-01) (74, 1.54024481773376464844e-01) (75, 2.01724290847778320312e-01) (76, -5.38044750690460205078e-01) (77, 8.68875861167907714844e-01) (78, -2.26691186428070068359e-01) (79, 2.66925305128097534180e-01) (80, 2.02843919396400451660e-01) (81, -5.63117146492004394531e-01) (82, 1.76698338985443115234e+00) (83, -3.22339326143264770508e-01) (84, 5.48066735267639160156e-01) (85, 1.67485654354095458984e-01) (86, 2.93852180242538452148e-01) (87, -3.37183058261871337891e-01) (88, 1.10819071531295776367e-01) (89, 5.51876008510589599609e-01) (90, 6.65891051292419433594e-01) (91, 4.53218668699264526367e-01) (67, 8.90216588973999023438e-01) (68, 6.78314983844757080078e-01) (69, 5.22382616996765136719e-01) (70, 7.13545799255371093750e-01) (71, 9.52486515045166015625e-01) (72, 5.78552126884460449219e-01) (73, 6.25807404518127441406e-01) (74, 1.01746582984924316406e+00) (75, 8.62726569175720214844e-01) (76, 6.08061730861663818359e-01) (77, 3.63568425178527832031e-01) (78, 1.10145175457000732422e+00) (79, 1.09561634063720703125e+00) (80, 8.17344129085540771484e-01) (81, 1.03075087070465087891e+00) (82, 6.93034827709197998047e-01) (83, -1.52778267860412597656e-01) (84, 9.30346488952636718750e-01) (85, 1.03863906860351562500e+00) (86, -1.26038983464241027832e-01) (87, 1.24530696868896484375e+00) (88, 9.48830068111419677734e-01) (89, 1.06380686163902282715e-01) (90, 1.04838681221008300781e+00) (91, -7.81677186489105224609e-01) (67, 3.52214843034744262695e-01) (68, 7.37804889678955078125e-01) (69, 6.63349702954292297363e-02) (70, 4.59544539451599121094e-01) (71, 3.20184141397476196289e-01) (72, 6.96488618850708007812e-01) (73, 1.97156239300966262817e-02) (74, 4.04961258172988891602e-01) (75, 7.20942080020904541016e-01) (76, 1.47647365927696228027e-01) (77, -4.68229800462722778320e-02) (78, -2.76693463325500488281e-01) (79, 5.22824406623840332031e-01) (80, 1.25328786671161651611e-02) (81, 3.32774072885513305664e-01) (82, 6.18044555187225341797e-01) (83, -5.69953620433807373047e-01) (84, 4.21823002398014068604e-02) (85, 1.87012565135955810547e+00) (86, 6.53463065624237060547e-01) (87, 1.16524386405944824219e+00) (88, 4.08333748579025268555e-01) (89, 6.38562500476837158203e-01) (90, 4.17957216501235961914e-01) (91, 4.92966800928115844727e-01) (67, 3.60483676195144653320e-02) (68, 3.77522021532058715820e-01) (69, -3.03895860910415649414e-01) (70, -1.73189207911491394043e-01) (71, 1.90347626805305480957e-01) (72, -2.03853353857994079590e-01) (73, 8.91582667827606201172e-01) (74, 1.54348224401473999023e-01) (75, 6.06309771537780761719e-01) (76, -9.43166613578796386719e-01) (77, 5.02661287784576416016e-01) (78, 5.31397648155689239502e-02) (79, 1.06572329998016357422e-01) (80, 3.13928902149200439453e-01) (81, 5.21366655826568603516e-01) (82, 1.33704328536987304688e+00) (83, 7.20904409885406494141e-01) (84, 4.68252599239349365234e-01) (85, 7.10653543472290039062e-01) (86, 1.02662503719329833984e+00) (87, 4.10640865564346313477e-01) (88, 2.90787845849990844727e-01) (89, 1.10383808612823486328e+00) (90, 4.07256722450256347656e-01) (91, 1.38532269001007080078e+00) (67, 1.53249159455299377441e-01) (68, 6.36932134628295898438e-01) (69, 4.74903762340545654297e-01) (70, 5.19775867462158203125e-01) (71, 2.94430971145629882812e-01) (72, 7.63571262359619140625e-02) (73, 7.20078468322753906250e-01) (74, 2.38830357789993286133e-01) (75, -6.78524747490882873535e-02) (76, 1.00423431396484375000e+00) (77, 1.70969024300575256348e-01) (78, 9.38562676310539245605e-02) (79, 8.18648159503936767578e-01) (80, 7.94748067855834960938e-01) (81, 1.69975027441978454590e-01) (82, 4.57261621952056884766e-01) (83, 5.15099465847015380859e-01) (84, 4.52644497156143188477e-01) (85, 8.91467988491058349609e-01) (86, 3.65989834070205688477e-01) (87, -1.19620129466056823730e-01) (88, 4.05673891305923461914e-01) (89, 1.02496430277824401855e-01) (90, 3.51952612400054931641e-01) (91, 1.64663076400756835938e+00) (67, 3.81602257490158081055e-01) (68, 4.88976329565048217773e-01) (69, 2.33281403779983520508e-01) (70, -2.36275506019592285156e+00) (71, 5.19166350364685058594e-01) (72, 2.76575708389282226562e+00) (73, 1.47298082709312438965e-01) (74, 2.76856690645217895508e-01) (75, 1.53596973419189453125e+00) (76, 3.16950529813766479492e-01) (77, 7.24817216396331787109e-01) (78, 1.84061855077743530273e-01) (79, 6.72710388898849487305e-02) (80, 5.20182669162750244141e-01) (81, 6.78477525711059570312e-01) (82, -6.00781798362731933594e-01) (83, 2.77462214231491088867e-01) (84, -2.43681716918945312500e+00) (85, 1.08423423767089843750e+00) (86, 1.08449673652648925781e+00) (87, 9.53978657722473144531e-01) (88, 3.45552593469619750977e-01) (89, 5.91584742069244384766e-01) (90, 4.46280837059020996094e-01) (91, 4.72500920295715332031e-01) (67, -2.31296326965093612671e-02) (68, 4.09509927034378051758e-01) (69, 1.90783932339400053024e-03) (70, 4.63508188724517822266e-01) (71, 1.36340290307998657227e-01) (72, 2.96298027038574218750e-01) (73, 2.45440989732742309570e-01) (74, -3.00315350294113159180e-01) (75, 1.00933559238910675049e-01) (76, 5.75761318206787109375e-01) (77, -3.46915888786315917969e+00) (78, 7.72999897599220275879e-02) (79, 4.43610250949859619141e-01) (80, -1.70335210859775543213e-02) (81, 2.87700682878494262695e-01) (82, 5.93522727489471435547e-01) (83, 1.76773786544799804688e-01) (84, 1.34065687656402587891e-01) (85, 2.49706208705902099609e-01) (86, 2.87188023328781127930e-01) (87, 5.68925142288208007812e-01) (88, -3.31756353378295898438e-01) (89, 1.26942887902259826660e-01) (90, 3.53070616722106933594e-01) (91, 3.81277501583099365234e-02) (67, 3.13380986452102661133e-01) (68, 6.43664717674255371094e-01) (69, 4.35594737529754638672e-01) (70, 4.98485475778579711914e-01) (71, 3.84342253208160400391e-01) (72, 6.43772780895233154297e-01) (73, 9.97263133525848388672e-01) (74, 9.12743687629699707031e-01) (75, 1.25487864017486572266e+00) (76, 7.34897255897521972656e-01) (77, 7.83275902271270751953e-01) (78, 5.62564492225646972656e-01) (79, 1.24367916584014892578e+00) (80, 1.01547908782958984375e+00) (81, 1.12631011009216308594e+00) (82, 5.61990082263946533203e-01) (83, -8.19541048258543014526e-03) (84, 2.60154038667678833008e-01) (85, 1.06317412853240966797e+00) (86, 6.02024734020233154297e-01) (87, 5.20215809345245361328e-01) (88, 3.96674007177352905273e-01) (89, 5.81763267517089843750e-01) (90, 8.42005491256713867188e-01) (91, 1.12817752361297607422e+00) (67, 7.00235784053802490234e-01) (68, 5.59949517250061035156e-01) (69, 5.72357177734375000000e-01) (70, 4.21712815761566162109e-01) (71, 5.11838078498840332031e-01) (72, 4.70441937446594238281e-01) (73, 9.93918061256408691406e-01) (74, 3.31726856529712677002e-02) (75, 4.90731090307235717773e-01) (76, 7.46070325374603271484e-01) (77, 6.16811394691467285156e-01) (78, 6.32549881935119628906e-01) (79, 3.15585732460021972656e-01) (80, 7.70446360111236572266e-01) (81, 1.13537633419036865234e+00) (82, 1.14757263660430908203e+00) (83, 2.34005525708198547363e-01) (84, 8.97413969039916992188e-01) (85, 9.55537796020507812500e-01) (86, 5.56888341903686523438e-01) (87, 2.16692566871643066406e-01) (88, 1.97110667824745178223e-01) (89, 9.53211426734924316406e-01) (90, 4.97199147939682006836e-01) (91, 9.99244153499603271484e-01) (67, -4.96826060116291046143e-02) (68, 4.48624879121780395508e-01) (69, 6.20810873806476593018e-02) (70, 1.30522429943084716797e+00) (71, 1.22045624256134033203e+00) (72, 1.12182378768920898438e+00) (73, 6.98421299457550048828e-01) (74, 3.32597106695175170898e-01) (75, 9.85723197460174560547e-01) (76, 7.35082387924194335938e-01) (77, 1.01969587802886962891e+00) (78, 1.75223141908645629883e-01) (79, 1.13242852687835693359e+00) (80, 4.27117347717285156250e-01) (81, 8.49507510662078857422e-01) (82, 6.05730891227722167969e-01) (83, -5.85631802678108215332e-02) (84, 3.94252717494964599609e-01) (85, 5.99196553230285644531e-01) (86, 1.98257621377706527710e-02) (87, 2.89575517177581787109e-01) (88, 2.45579853653907775879e-01) (89, 3.27814847230911254883e-01) (90, 2.62091606855392456055e-01) (91, -2.04519301652908325195e-01) (67, -2.69791036844253540039e-01) (68, -4.27175730466842651367e-01) (69, -1.58974900841712951660e-01) (70, -1.32390931248664855957e-01) (71, 1.03057123720645904541e-01) (72, -3.87632369995117187500e-01) (73, -2.24762648344039916992e-01) (74, -7.16346576809883117676e-02) (75, 1.55559331178665161133e-01) (76, -3.18018905818462371826e-02) (77, 4.52760964632034301758e-01) (78, -8.47476944327354431152e-02) (79, 5.65098583698272705078e-01) (80, -3.99627357721328735352e-01) (81, 4.61029112339019775391e-01) (82, 6.98057413101196289062e-01) (83, -1.27448201179504394531e+00) (84, 2.29080468416213989258e-02) (85, 2.50465661287307739258e-01) (86, 2.83329367637634277344e-01) (87, 1.10543202608823776245e-02) (88, -6.40853166580200195312e-01) (89, 3.79645138978958129883e-01) (90, -4.22935932874679565430e-02) (91, 2.75609225034713745117e-01) (67, 9.75052177906036376953e-01) (68, 4.78750705718994140625e-01) (69, 2.68596798181533813477e-01) (70, 5.53813040256500244141e-01) (71, 6.84895217418670654297e-01) (72, 5.30998587608337402344e-01) (73, 7.12322711944580078125e-01) (74, 7.95590043067932128906e-01) (75, 1.32295739650726318359e+00) (76, 6.21314942836761474609e-01) (77, 3.66266340017318725586e-01) (78, 2.99803406000137329102e-01) (79, 7.28052079677581787109e-01) (80, 6.27712726593017578125e-01) (81, 1.09233272075653076172e+00) (82, 9.26413685083389282227e-02) (83, 5.76568603515625000000e-01) (84, 9.47759747505187988281e-02) (85, 7.85789310932159423828e-01) (86, 4.34302985668182373047e-01) (87, 8.67960870265960693359e-01) (88, 6.53668344020843505859e-01) (89, 5.03476321697235107422e-01) (90, 5.31622111797332763672e-01) (91, 2.07394927740097045898e-01) (67, 8.69524257723242044449e-04) (68, 2.20582887530326843262e-01) (69, 3.52111645042896270752e-02) (70, 3.41985970735549926758e-01) (71, 7.38188102841377258301e-02) (72, -7.11151957511901855469e-02) (73, 6.25825345516204833984e-01) (74, 6.15758635103702545166e-02) (75, 4.00036275386810302734e-01) (76, 4.00988072156906127930e-01) (77, 2.10804287344217300415e-02) (78, 3.75409722328186035156e-01) (79, 3.62930566072463989258e-01) (80, 1.40246763825416564941e-01) (81, 7.39670813083648681641e-01) (82, 5.71719288825988769531e-01) (83, -2.97086954116821289062e-01) (84, 4.16078507900238037109e-01) (85, 6.78302168846130371094e-01) (86, 4.65760529041290283203e-01) (87, 1.36762320995330810547e-01) (88, 2.36101478338241577148e-01) (89, 4.36886608600616455078e-01) (90, 1.64191231131553649902e-01) (91, 1.08542811870574951172e+00) (67, 4.92129206657409667969e-01) (68, 4.68192338943481445312e-01) (69, 2.40724146366119384766e-01) (70, 8.82859468460083007812e-01) (71, 7.47876465320587158203e-01) (72, 5.61667025089263916016e-01) (73, 4.32985901832580566406e-01) (74, 4.35692638158798217773e-01) (75, 1.29075467586517333984e+00) (76, 3.46010416746139526367e-01) (77, 7.58858740329742431641e-01) (78, 3.70861738920211791992e-01) (79, 6.87094449996948242188e-01) (80, 6.38413608074188232422e-01) (81, 1.01652801036834716797e+00) (82, 4.05401661992073059082e-02) (83, 2.82894253730773925781e-01) (84, 2.55145728588104248047e-01) (85, 6.27005338668823242188e-01) (86, 1.12576925754547119141e+00) (87, 1.01998299360275268555e-01) (88, 4.82804298400878906250e-01) (89, 7.81060695648193359375e-01) (90, 3.54970932006835937500e-01) (91, 7.84004449844360351562e-01) (67, 7.23065793514251708984e-01) (68, 5.54516017436981201172e-01) (69, 5.28506815433502197266e-01) (70, 7.31966793537139892578e-01) (71, 9.03995275497436523438e-01) (72, 5.96939265727996826172e-01) (73, 3.78090351819992065430e-01) (74, 6.61974132061004638672e-01) (75, 5.12002348899841308594e-01) (76, 4.09015804529190063477e-01) (77, 2.01038606464862823486e-02) (78, 1.00152051448822021484e+00) (79, 7.57369756698608398438e-01) (80, 4.11266326904296875000e-01) (81, 7.18314349651336669922e-01) (82, 1.28866207599639892578e+00) (83, 8.44573915004730224609e-01) (84, 8.15489292144775390625e-01) (85, 1.09212911128997802734e+00) (86, 4.84851121902465820312e-01) (87, 1.18368065357208251953e+00) (88, 9.55910921096801757812e-01) (89, 4.71941292285919189453e-01) (90, 6.81725859642028808594e-01) (91, -1.49051606655120849609e-01) (67, 2.72180438041687011719e-01) (68, 5.17429709434509277344e-01) (69, 5.35529315471649169922e-01) (70, 4.42778691649436950684e-03) (71, 6.45379200577735900879e-02) (72, -7.31674907729029655457e-03) (73, 8.74937176704406738281e-02) (74, 1.36708080768585205078e-01) (75, 3.03353458642959594727e-01) (76, -3.86742651462554931641e-01) (77, -4.58420723676681518555e-01) (78, -1.94729596376419067383e-01) (79, 3.11053007841110229492e-01) (80, 1.96771696209907531738e-01) (81, 3.66235673427581787109e-02) (82, 1.20740306377410888672e+00) (83, -1.63011532276868820190e-02) (84, 2.18914359807968139648e-01) (85, 7.20060288906097412109e-01) (86, 3.55285406112670898438e-01) (87, 1.07662975788116455078e+00) (88, 1.97158493101596832275e-02) (89, 7.96500861644744873047e-01) (90, 3.78026247024536132812e-01) (91, 5.63849270343780517578e-01) (67, 5.97878456115722656250e-01) (68, 3.97468835115432739258e-01) (69, 3.80358040332794189453e-01) (70, 6.05227470397949218750e-01) (71, 6.53779059648513793945e-02) (72, 5.54614186286926269531e-01) (73, 8.43630135059356689453e-01) (74, 6.09469234943389892578e-01) (75, 9.55781936645507812500e-01) (76, 8.95050346851348876953e-01) (77, 3.95469397306442260742e-01) (78, 6.91999197006225585938e-01) (79, 6.79806232452392578125e-01) (80, 8.91042709350585937500e-01) (81, 6.10935926437377929688e-01) (82, 7.61221468448638916016e-01) (83, 3.07137787342071533203e-01) (84, 8.19301381707191467285e-02) (85, 5.96737265586853027344e-01) (86, 3.82906019687652587891e-01) (87, 3.45521092414855957031e-01) (88, -2.03690484166145324707e-01) (89, 1.30511954426765441895e-01) (90, 4.29339885711669921875e-01) (91, 1.22356855869293212891e+00) (67, 1.82897880673408508301e-01) (68, 3.38635563850402832031e-01) (69, 4.06035184860229492188e-01) (70, 2.66059875488281250000e-01) (71, 2.02197000384330749512e-01) (72, 3.43998283147811889648e-01) (73, -4.06632483005523681641e-01) (74, -4.21713329851627349854e-02) (75, -3.31420391798019409180e-01) (76, 4.54902052879333496094e-02) (77, -1.61445498466491699219e-01) (78, 8.50480049848556518555e-02) (79, 4.04315054416656494141e-01) (80, 1.49265341460704803467e-02) (81, -4.42368537187576293945e-01) (82, 7.93734371662139892578e-01) (83, -4.47615712881088256836e-01) (84, 8.62677276134490966797e-01) (85, 5.93997359275817871094e-01) (86, 4.69844602048397064209e-03) (87, 1.43137082457542419434e-01) (88, -4.00799959897994995117e-01) (89, -3.52415181696414947510e-02) (90, 2.33738988637924194336e-01) (91, 8.77899825572967529297e-01) (67, 3.66966463625431060791e-02) (68, 4.22938793897628784180e-01) (69, 3.59077811241149902344e-01) (70, 2.17277824878692626953e-01) (71, 1.91259220242500305176e-01) (72, -8.18468071520328521729e-03) (73, 7.82347619533538818359e-02) (74, -1.52096599340438842773e-01) (75, 3.57645481824874877930e-01) (76, 2.72273197770118713379e-02) (77, -1.52511671185493469238e-01) (78, -1.51741251349449157715e-01) (79, -1.36204957962036132812e-01) (80, 5.25368928909301757812e-01) (81, 2.97416925430297851562e-01) (82, 6.33572459220886230469e-01) (83, -8.28899815678596496582e-02) (84, 1.99082911014556884766e-01) (85, 8.22983026504516601562e-01) (86, 1.12126004695892333984e+00) (87, 2.83565402030944824219e-01) (88, -7.38747864961624145508e-02) (89, 4.80657309293746948242e-01) (90, 3.15189719200134277344e-01) (91, 3.26545014977455139160e-02) (67, 3.23961406946182250977e-01) (68, -4.38150810077786445618e-03) (69, 2.81705230474472045898e-01) (70, 7.01424777507781982422e-01) (71, 2.24079042673110961914e-01) (72, 2.35099777579307556152e-01) (73, 2.28361070156097412109e-01) (74, 6.72195926308631896973e-02) (75, 4.81692373752593994141e-01) (76, 2.89127975702285766602e-01) (77, 2.30907768011093139648e-01) (78, -1.53205916285514831543e-01) (79, 6.39464676380157470703e-01) (80, -8.48670825362205505371e-02) (81, -1.21858850121498107910e-01) (82, 4.31287956237792968750e+00) (83, -6.21248707175254821777e-02) (84, 1.31657195091247558594e+00) (85, 4.82650518417358398438e-01) (86, 6.30632936954498291016e-01) (87, 7.40638196468353271484e-01) (88, 1.68615043163299560547e-01) (89, 4.56705302000045776367e-01) (90, 3.80167722702026367188e-01) (91, 7.25848495960235595703e-01) (67, 4.45072054862976074219e-01) (68, 4.05573278665542602539e-01) (69, 4.89758342504501342773e-01) (70, 5.63101768493652343750e-01) (71, 3.34455609321594238281e-01) (72, 7.22254812717437744141e-01) (73, 3.88674497604370117188e-01) (74, 3.99078100919723510742e-01) (75, 7.80720353126525878906e-01) (76, 8.88175308704376220703e-01) (77, 5.85848331451416015625e-01) (78, 5.91767907142639160156e-01) (79, 3.70325654745101928711e-01) (80, 5.67460298538208007812e-01) (81, 1.07366716861724853516e+00) (82, 9.64278876781463623047e-02) (83, 5.28021156787872314453e-01) (84, -1.95740863680839538574e-01) (85, 8.24534177780151367188e-01) (86, 5.91659128665924072266e-01) (87, 7.53472208976745605469e-01) (88, 2.12970685958862304688e+00) (89, 5.57138204574584960938e-01) (90, 4.06172960996627807617e-01) (91, 1.69473040103912353516e+00) (67, 5.02103149890899658203e-01) (68, 1.35338410735130310059e-01) (69, 2.70619899034500122070e-01) (70, 2.83410638570785522461e-01) (71, 5.97988486289978027344e-01) (72, 3.78423720598220825195e-01) (73, 9.74480450153350830078e-01) (74, 1.04345664381980895996e-01) (75, 4.68314349651336669922e-01) (76, 6.59455895423889160156e-01) (77, 4.86732959747314453125e-01) (78, 6.21062099933624267578e-01) (79, 4.20848160982131958008e-01) (80, 9.61141288280487060547e-01) (81, 5.90797662734985351562e-01) (82, 1.12215542793273925781e+00) (83, 3.13620299100875854492e-01) (84, 5.58620691299438476562e-01) (85, 4.06883180141448974609e-01) (86, 3.70908021926879882812e-01) (87, 5.37008523941040039062e-01) (88, 5.13724386692047119141e-01) (89, 9.59468483924865722656e-02) (90, 3.04462343454360961914e-01) (91, 8.10655713081359863281e-01) (67, 7.39170372486114501953e-01) (68, 1.24358308315277099609e+00) (69, 5.59112846851348876953e-01) (70, 9.91404592990875244141e-01) (71, 1.27679395675659179688e+00) (72, 1.01919960975646972656e+00) (73, 6.38174891471862792969e-01) (74, 8.60634684562683105469e-01) (75, 1.32210230827331542969e+00) (76, 1.41370570659637451172e+00) (77, 1.02522480487823486328e+00) (78, 8.09459090232849121094e-01) (79, 1.06077551841735839844e+00) (80, 9.05671954154968261719e-01) (81, 1.18153917789459228516e+00) (82, -1.36513888835906982422e-01) (83, 1.29456508159637451172e+00) (84, 1.70232057571411132812e-01) (85, 9.44818556308746337891e-01) (86, 1.13732004165649414062e+00) (87, 8.17972123622894287109e-01) (88, 4.55204099416732788086e-01) (89, 8.16712081432342529297e-01) (90, 1.14862012863159179688e+00) (91, 1.14724433422088623047e+00) (67, 1.56632974743843078613e-01) (68, 4.00018960237503051758e-01) (69, 5.87262868881225585938e-01) (70, 6.64572656154632568359e-01) (71, 3.97330015897750854492e-01) (72, 2.77847439050674438477e-01) (73, 8.46982121467590332031e-01) (74, 4.60321784019470214844e-01) (75, 9.63627040386199951172e-01) (76, 1.32894837856292724609e+00) (77, 7.90679454803466796875e-01) (78, 2.97912091016769409180e-01) (79, 2.74101525545120239258e-01) (80, 1.03077769279479980469e+00) (81, 1.29082190990447998047e+00) (82, 5.17047762870788574219e-01) (83, -3.28353166580200195312e-01) (84, 3.02772849798202514648e-01) (85, 8.33085596561431884766e-01) (86, 3.37654918432235717773e-01) (87, 5.52568137645721435547e-01) (88, 2.27594897150993347168e-01) (89, 3.28894287347793579102e-01) (90, 3.00085544586181640625e-01) (91, 1.52370834350585937500e+00) (92, -1.33410143852233886719e+00) (93, -1.28123397007584571838e-02) (94, 3.23108077049255371094e-01) (95, 1.39534935355186462402e-01) (96, -2.67038851976394653320e-01) (97, 4.47889238595962524414e-01) (98, -1.17432691156864166260e-01) (99, 4.86397922039031982422e-01) (100, -1.49365231394767761230e-01) (101, -3.24790239334106445312e-01) (102, -2.07579135894775390625e-02) (103, 1.08586676418781280518e-01) (104, 1.65403902530670166016e-01) (105, 7.46693432331085205078e-01) (106, 1.94237157702445983887e-01) (107, -4.64129298925399780273e-02) (108, 8.11065658926963806152e-02) (109, -1.19973194599151611328e+00) (110, 9.48642492294311523438e-02) (111, -6.24826788902282714844e-01) (112, 7.23720610141754150391e-01) (113, -2.64821767807006835938e-01) (114, -3.68557393550872802734e-01) (115, 1.65886640548706054688e-01) (116, 6.02964019775390625000e+00) (92, 1.30166637897491455078e+00) (93, 4.86344367265701293945e-01) (94, 1.23556828498840332031e+00) (95, 8.77215683460235595703e-01) (96, -1.94957684725522994995e-02) (97, 7.76241064071655273438e-01) (98, 1.57029092311859130859e+00) (99, 1.22562384605407714844e+00) (100, 1.26153457164764404297e+00) (101, 1.42526495456695556641e+00) (102, 1.92893600463867187500e+00) (103, 1.14025187492370605469e+00) (104, 1.10909545421600341797e+00) (105, 1.23754017055034637451e-01) (106, -3.67198884487152099609e-01) (107, 4.15362566709518432617e-01) (108, 1.44918525218963623047e+00) (109, 9.60750699043273925781e-01) (110, 7.37863481044769287109e-01) (111, 5.61530530452728271484e-01) (112, -4.01569634675979614258e-01) (113, 1.30120706558227539062e+00) (114, -4.74212765693664550781e-02) (115, 1.02501308917999267578e+00) (116, -9.38245356082916259766e-02) (92, 6.47574305534362792969e-01) (93, 4.79474037885665893555e-01) (94, 3.35993081331253051758e-01) (95, 3.28728109598159790039e-01) (96, 4.50832307338714599609e-01) (97, -5.62050640583038330078e-01) (98, 8.27475786209106445312e-01) (99, 1.26795089244842529297e+00) (100, 7.00188279151916503906e-01) (101, 5.42235910892486572266e-01) (102, 4.94521796703338623047e-01) (103, 3.63521158695220947266e-01) (104, 8.63307297229766845703e-01) (105, 8.41568112373352050781e-01) (106, -3.15019547939300537109e-01) (107, 3.52116316556930541992e-01) (108, 9.58898782730102539062e-01) (109, 1.23140776157379150391e+00) (110, 4.58168476819992065430e-01) (111, 4.01866495609283447266e-01) (112, -1.53631031513214111328e-01) (113, 6.82019710540771484375e-01) (114, -1.75547730177640914917e-02) (115, 9.57052707672119140625e-01) (116, 1.21560406684875488281e+00) (92, 5.93575119972229003906e-01) (93, -4.38792370259761810303e-02) (94, 2.82271802425384521484e-01) (95, -1.21266059577465057373e-01) (96, 4.14986163377761840820e-01) (97, -7.56895020604133605957e-02) (98, 1.04699838161468505859e+00) (99, -6.91269636154174804688e-02) (100, -1.20476357638835906982e-01) (101, 1.04992076754570007324e-01) (102, 5.74045240879058837891e-01) (103, 7.05878883600234985352e-02) (104, 3.71385931968688964844e-01) (105, 1.09539680182933807373e-01) (106, -1.53708189725875854492e-01) (107, 2.18656823039054870605e-01) (108, 3.07509452104568481445e-01) (109, 4.26517605781555175781e-01) (110, 5.12641072273254394531e-01) (111, 1.84870451688766479492e-01) (112, 4.02851194143295288086e-01) (113, 5.63732504844665527344e-01) (114, 2.11828067898750305176e-01) (115, 3.85864675045013427734e-01) (116, 1.34740328788757324219e+00) (92, -7.07473182678222656250e+00) (93, 1.12979209423065185547e+00) (94, -2.27623239159584045410e-01) (95, -3.13850224018096923828e-01) (96, 1.40623223781585693359e+00) (97, 1.25504702329635620117e-01) (98, -2.00693917274475097656e+00) (99, 9.42421674728393554688e-01) (100, 1.18001353740692138672e+00) (101, 7.92277932167053222656e-01) (102, -1.56038246154785156250e+01) (103, 9.50918197631835937500e-01) (104, 1.47830760478973388672e+00) (105, 3.02182197570800781250e-01) (106, 4.86936867237091064453e-01) (107, -9.03095424175262451172e-01) (108, 9.24723029136657714844e-01) (109, -6.27830505371093750000e+00) (110, 6.51242792606353759766e-01) (111, -2.13058042526245117188e+00) (112, 1.40519154071807861328e+00) (113, 1.68873977661132812500e+00) (114, 1.70308971405029296875e+00) (115, 9.73198175430297851562e-01) (116, 5.66337585449218750000e+00) (92, 1.04468798637390136719e+00) (93, -1.18607934564352035522e-03) (94, -2.06144243478775024414e-01) (95, -4.71034757792949676514e-02) (96, 2.27351095527410507202e-02) (97, -1.09192800521850585938e+00) (98, 4.64031726121902465820e-01) (99, -5.60914278030395507812e-01) (100, -1.28002965450286865234e+00) (101, 5.52967935800552368164e-02) (102, 1.02683949470520019531e+00) (103, 4.24225687980651855469e-01) (104, 2.31182500720024108887e-02) (105, -2.86794841289520263672e-01) (106, -4.70101237297058105469e-01) (107, -1.28514263778924942017e-02) (108, 9.08837467432022094727e-02) (109, 6.18537545204162597656e-01) (110, 2.09144577383995056152e-02) (111, 3.41192722320556640625e-01) (112, -2.75483131408691406250e+00) (113, 3.68218034505844116211e-01) (114, -4.01995325088500976562e+00) (115, 5.76068937778472900391e-01) (116, 9.11692321300506591797e-01) (92, 1.82429268956184387207e-01) (93, 3.13839316368103027344e-01) (94, 8.23240160942077636719e-01) (95, 2.90290355682373046875e-01) (96, -6.71436339616775512695e-02) (97, 3.83949093520641326904e-02) (98, 1.30706858634948730469e+00) (99, 1.10556222498416900635e-01) (100, -2.00111240148544311523e-01) (101, 1.94249600172042846680e-01) (102, 1.06815993785858154297e+00) (103, 4.74614590406417846680e-01) (104, 3.64633351564407348633e-01) (105, -2.68297880887985229492e-01) (106, 1.45104512572288513184e-01) (107, 7.41448104381561279297e-01) (108, 6.35277867317199707031e-01) (109, 2.38612318038940429688e+00) (110, 3.69155853986740112305e-01) (111, 1.06765496730804443359e+00) (112, -1.45856189727783203125e+00) (113, 5.83419740200042724609e-01) (114, -4.28386807441711425781e-01) (115, 5.99189817905426025391e-01) (116, -8.73149156570434570312e-01) (92, 6.79333925247192382812e-01) (93, 1.11264085769653320312e+00) (94, 1.17203009128570556641e+00) (95, 1.05802810192108154297e+00) (96, 1.06749601662158966064e-01) (97, -4.33249212801456451416e-02) (98, 1.68210864067077636719e+00) (99, 1.19425892829895019531e+00) (100, 7.84205555915832519531e-01) (101, 7.32576847076416015625e-01) (102, 1.15193307399749755859e+00) (103, 8.20603430271148681641e-01) (104, 6.70940756797790527344e-01) (105, 1.82787731289863586426e-01) (106, -4.66528423130512237549e-02) (107, 7.13314831256866455078e-01) (108, 1.07065856456756591797e+00) (109, 1.16153252124786376953e+00) (110, 1.18263113498687744141e+00) (111, 5.81685781478881835938e-01) (112, 2.24866643548011779785e-02) (113, 1.07355034351348876953e+00) (114, 8.56844186782836914062e-02) (115, 1.22586524486541748047e+00) (116, 1.00419437885284423828e+00) (92, 4.12212789058685302734e-01) (93, 6.93315029144287109375e-01) (94, 6.85042917728424072266e-01) (95, 2.59851813316345214844e-01) (96, 6.72372877597808837891e-01) (97, 1.11134481430053710938e+00) (98, 9.34190690517425537109e-01) (99, 3.69804590940475463867e-01) (100, 5.04633784294128417969e-01) (101, 3.10101658105850219727e-01) (102, 1.10070180892944335938e+00) (103, 7.24991858005523681641e-01) (104, 2.07237526774406433105e-01) (105, 1.39432653784751892090e-01) (106, -1.17002129554748535156e-02) (107, 1.12369181588292121887e-02) (108, 2.38388329744338989258e-01) (109, 4.40446227788925170898e-01) (110, 4.47144567966461181641e-01) (111, -1.84770878404378890991e-02) (112, -6.78935706615447998047e-01) (113, 5.64098417758941650391e-01) (114, 6.46110177040100097656e-01) (115, 1.38263905048370361328e+00) (116, 3.87812703847885131836e-01) (92, 7.82720565795898437500e-01) (93, 1.67689219117164611816e-01) (94, 9.50978994369506835938e-02) (95, 1.76110699772834777832e-01) (96, 2.93642878532409667969e-01) (97, 4.42896217107772827148e-01) (98, 9.60887193679809570312e-01) (99, 6.83061480522155761719e-01) (100, 4.63898330926895141602e-01) (101, 6.55982375144958496094e-01) (102, 4.64672237634658813477e-01) (103, 3.16352456808090209961e-01) (104, 3.09848308563232421875e-01) (105, 1.36064589023590087891e-01) (106, 7.23098933696746826172e-01) (107, 5.15219509601593017578e-01) (108, 3.99317860603332519531e-01) (109, 3.28700602054595947266e-01) (110, 6.13488614559173583984e-01) (111, 4.14581477642059326172e-01) (112, 3.69316309690475463867e-01) (113, -4.08654194325208663940e-03) (114, 3.25673580169677734375e-01) (115, -6.99876919388771057129e-02) (116, 8.81152808666229248047e-01) (92, 2.93026357889175415039e-01) (93, 1.32242596149444580078e+00) (94, 9.67466413974761962891e-01) (95, 2.52273470163345336914e-01) (96, 1.09539532661437988281e+00) (97, 6.16538897156715393066e-02) (98, 3.08868169784545898438e-01) (99, 1.37743830680847167969e+00) (100, 8.91932904720306396484e-01) (101, 1.00709116458892822266e+00) (102, -1.08788764476776123047e+00) (103, 8.60764920711517333984e-01) (104, 7.70916163921356201172e-01) (105, -1.40762299299240112305e-01) (106, 9.63963687419891357422e-01) (107, 